0,1,2,3,4,5,6,7,8,9,10,11,12,13,14,15,16,17,18,19,20,21,22,23,24,25,26,27,28,29,30,31,32,33,34,35,36,37,38,39,40,41,42,43,44,45,46,47,48,49,50,51,52,53,54,55,56,57,58,59,60,61,62,63,64,65,66,67,68,69,70,71,72,73,74,75,76,77,78,79,80,81,82,83,84,85,86,87,88,89,90,91,92,93,94,95,96,97,98,99,100,101,102,103,104,105,106,107,108,109,110,111,112,113,114,115,116,117,118,119,120,121,122,123,124,125,126,127,128,129,130,131,132,133,134,135,136,137,138,139,140,141,142,143,144,145,146,147,148,149,150,151,152,153,154,155,156,157,158,159,160,161,162,163,164,165,166,167,168,169,170,171,172,173,174,175,176,177,178,179,180,181,182,183,184,185,186,187,188,189,190,191,192,193,194,195,196,197,198,199,200,201,202,203,204,205,206,207,208,209,210,211,212,213,214,215,216,217,218,219,220,221,222,223,224,225,226,227,228,229,230,231,232,233,234,235,236,237,238,239,240,241,242,243,244,245,246,247,248,249,250,251,252,253,254,255
-0.26872352,0.20368807,0.21631588,0.38931584,0.32248944,0.15380003,-0.068131395,0.12182551,-0.7114418,0.032215353,0.06218689,0.10533002,0.14554688,0.09654671,-0.04580996,-0.06518233,0.1283423,0.3009335,-0.11266465,0.07155813,0.30136758,0.0102512585,0.32895818,-0.10388872,-0.09933292,0.24591617,-0.25407776,-0.050145563,0.47172165,0.30632478,-0.052106403,0.10786435,-0.20045896,-0.16587469,-0.0976134,0.42583072,0.1624818,-0.11827543,-0.00993382,0.06908593,-0.22719821,0.01557326,0.2263584,-0.009770674,0.016231008,0.25037685,0.064444944,0.22338882,-0.24597232,0.34253415,0.29227078,0.19787359,0.202247,0.3798382,0.027461203,-0.070730254,0.15147592,0.32212922,-0.2058253,0.18161313,0.18745397,0.066847935,0.2043561,-0.025724545,-0.18790127,-0.16183291,0.081586845,0.27384907,0.22665222,0.30238646,-0.24497057,0.13244776,0.042594776,-0.03852712,-0.08512217,0.06419053,0.041306965,0.30130017,0.1262874,0.029246742,-0.14030465,0.26616654,0.18593554,0.026168711,0.25630885,0.10490058,0.10000249,0.02210323,0.074757665,-0.13517943,0.1090257,-0.11420175,0.085288286,0.10826897,0.31723276,0.06524569,-0.045150597,0.21363367,-0.06637188,0.13467456,-0.10411491,0.046672616,0.22697608,0.3448123,-0.0028400903,0.2597725,0.17789358,0.021712853,0.09767513,0.10883972,0.048673347,0.1453901,-0.016309414,0.20426571,0.12047168,0.30294174,0.14449544,0.27670535,-0.09169324,0.02857391,0.050544918,0.15091795,-0.061309807,0.36148092,0.03540964,0.32431602,0.15098354,6.414743e-05,0.114483595,-0.16323195,-0.09513939,-0.18549274,-0.2945959,0.4858598,0.03184656,-0.19859095,0.55633724,0.004120469,0.19739205,-0.17831643,-0.0048765754,0.06521468,-0.13538335,-0.0950946,-0.21692921,0.10470259,-0.03859353,0.027645983,-0.22364508,-0.074916944,-0.05521003,0.004271928,0.03654991,-0.20454282,0.32159713,0.053723715,0.32389638,-0.09346249,0.08303215,-0.26360554,-0.09503011,0.028445274,0.31626177,-0.072755225,-0.0875618,-0.18273169,-0.04983734,0.3135083,-0.17340805,-0.06324248,0.2714717,-0.10836079,-0.2340415,0.2982151,-0.29229236,0.31872323,-0.05245203,0.3081634,-0.1431832,0.025054576,-0.041496344,0.15861447,-0.19147722,0.34460694,0.05424301,-0.46479717,-0.09915722,0.12675634,0.26517805,-0.16019197,0.26646537,-0.25787765,-0.29474482,-0.0009720686,-0.06467375,0.09265092,-0.09553237,-0.15206021,-0.3703223,0.034700673,-0.008376744,-0.09482852,0.023356885,-0.11790769,-0.31517988,-0.08779427,-0.30001205,-0.25109485,-0.026248362,0.05645972,-0.08153528,-0.28433815,0.15600328,-0.10457976,-0.0017050058,-0.3068825,-0.14298476,0.1641374,-0.10192094,0.0048353956,0.05242875,0.34739944,-0.08053428,0.07896232,-0.30509105,0.08516462,-0.049652785,0.13364246,-0.0914494,-0.06191246,-0.13207333,-0.26883888,0.043923207,0.09328147,-0.11029045,-0.30244413,-0.12080392,-0.080476575,0.078684635,-0.09541476,-0.3952695,-0.15094768,0.037768524,-0.11127934,0.004896887,0.1325323,-0.16695736,-0.3738267,0.027410287,0.18073048,-0.24514279,0.12825726,0.13719316,0.17165229,0.10774265,0.059135593
-0.20530237,-0.75902826,-0.2420516,-0.5122058,-0.12851314,-0.21866089,-0.37595809,-0.29328755,-1.0294528,-0.3028221,-0.5481339,-0.45661598,-0.48533583,0.09187591,-0.12161817,-0.17623714,-0.5041989,-0.08151652,-0.6101397,-0.11441116,-0.34233138,-0.30192858,-0.17480733,-0.16194975,-0.33090693,0.053128216,-0.2680499,-0.2814256,-0.2702242,-0.3996738,-0.64613163,0.08662404,-0.3870104,-0.48106426,-0.30162928,-0.18841206,-0.5243505,-0.21690588,-0.36796156,0.034290623,-0.52607507,-0.20834464,-0.2038079,-0.36840668,-0.39830482,-0.1246797,-0.19052298,-0.1225858,-0.06595374,-0.046459388,-0.21315469,-0.5245802,-0.12866177,-0.47189304,-0.25881296,-0.3437683,-0.3849652,-0.34818447,-0.2549473,-0.3118377,-0.28507143,-0.24746874,-0.43119892,-0.2775177,-0.1820159,0.032577932,-0.039930608,-0.06853318,0.051189605,0.09777191,0.28165197,0.10475359,0.4855168,0.29694113,-0.27024448,0.16017321,0.16768472,0.23389131,-0.30328733,0.11834568,0.071589105,-0.11409903,0.040004708,-0.15092176,-0.030075682,-0.11584131,-0.0905261,0.008784896,0.110182844,0.13939396,0.087234534,0.035627246,-0.03463009,0.0770686,-0.16093387,0.0757406,-0.03097677,0.019083446,0.010423094,0.102401696,0.290294,0.13669872,0.063358076,0.01661651,0.028055897,-0.12209085,-0.13722576,-0.12142896,0.005465736,0.19385237,-0.07682822,0.18758334,-0.45974413,-0.17466974,0.17525181,0.08329512,-0.057613004,0.08751913,0.060924493,0.16592248,0.13247518,0.08256168,-0.110047124,-0.19485955,0.21643175,-0.07043654,0.24821272,-0.10009715,-0.12823209,-0.09756757,-0.0047161737,-0.1648772,-0.040515807,0.14629056,0.040146872,-0.1463171,0.033007767,-0.16733171,-0.0039813356,-0.13242334,-0.048493892,0.07763198,-0.08052315,-0.13822824,-0.083830446,-0.055649314,-0.18050009,0.12753843,-0.093306206,-0.0547093,-0.31084454,0.009337791,0.019884499,0.03870703,0.06100939,-0.010694742,0.0025108817,0.25486857,0.02927407,-0.06499393,0.10823458,0.11349853,0.06751984,0.26867247,0.021163689,0.008012423,-0.06942869,0.13949448,-0.18412907,0.04633235,0.052945673,-0.10397861,0.011071246,0.20939477,-0.06621106,0.008980423,-0.07292862,0.028905917,-0.10500607,0.108435996,-0.04119994,0.02206099,-0.06603019,-0.0048060603,-0.08702543,0.013907426,-0.22293188,0.116800606,0.090790026,-0.04017499,-0.0944674,-0.06245926,-0.12312483,-0.010182869,-0.19687828,0.03661069,0.12694944,0.05098255,-0.016524611,0.023668582,0.41053116,0.011406473,-0.10291222,-0.43284577,0.0118413335,0.15407635,-0.023845704,-0.029223766,0.04695448,0.08712992,0.15053698,0.1979696,-0.114494964,-0.09168235,-0.2577151,0.083912574,-0.16197196,0.2569156,0.12151726,0.010035585,-0.14513475,-0.06493256,-0.028191239,0.13031757,-0.00019732481,0.021875218,-0.038177222,0.035967395,0.13656588,-0.09020517,-0.02368004,-0.07563152,-0.0019125122,-0.11765306,-0.10609152,-0.2796587,-0.015290033,0.03526174,0.010202856,-0.037604403,-0.01096747,-0.06183707,0.0724458,0.10431155,-0.009531126,0.16479316,-0.15258075,-0.08695481,0.12024082,0.061965585,0.026628453,-0.19785127,0.16834193,-0.0017383375,0.13397725,-0.053457297
0.09885056,-0.4167385,-0.49255258,-0.2747801,-0.22579469,0.02836373,-0.34109357,-0.21442649,-0.8107555,-0.5073842,-0.6154752,-0.58084244,0.013860962,0.045184676,0.105199404,0.08622253,-0.13872646,-0.04437389,-0.03729384,0.012463121,-0.0027478822,-0.06644262,-0.28342924,-0.13596003,-0.25071165,-0.088619016,-0.7424916,-0.47336864,-0.3313122,-0.95055753,-0.07851221,0.05718023,-0.1042975,-0.48861128,0.0144183505,-0.36853665,-0.0481482,0.015518157,-0.034403354,-0.41301095,-0.54897434,0.16809662,-0.1366893,-0.038703833,-0.28743714,-0.26960745,-0.0162372,-0.23584406,-0.56648946,-0.11210147,-0.27429232,-0.07780179,0.12545723,0.056050815,-0.31599644,-0.21755432,-0.45834583,-0.38635302,-0.010286696,0.2066155,-0.32435018,-0.06581429,-0.26350772,-0.15541069,-0.3935018,0.037921995,0.1042335,-0.2737119,0.041098945,0.13423203,-0.040431365,-0.032107797,-0.25369695,-0.19662915,-0.31407383,-0.23190156,-0.22600001,-0.13154432,-0.52680516,-0.29384947,-0.17158766,-0.32965785,-0.11650231,0.059574775,-0.01900427,-0.100458175,-0.09338353,-0.027149886,0.14292963,-0.07195782,-0.09266947,-0.13999651,-0.5440524,-0.1439259,-0.11578215,-0.08505099,-0.16361481,0.101647906,0.032063715,-0.25048697,-0.2892847,-0.22110645,-0.343285,0.009483799,0.2089157,-0.06796478,-0.04378919,-0.053557537,-0.086328276,-0.15604375,-0.083171055,-0.045347307,-0.39078796,-0.40761182,-0.3012406,-0.13561341,-0.36057767,-0.09618331,-0.058885545,0.19485305,0.027404225,-0.2542465,-0.24841805,-0.1929793,-0.26266676,0.034626544,-0.4211027,-0.2754143,0.02265612,-0.09397612,-0.00908641,-0.12985542,-0.13390931,-0.076685436,0.02182354,-0.05151846,0.0038851663,-0.19288461,0.11572187,-0.035594672,-0.046895865,0.030580424,-0.0013560614,0.019809712,-0.08583783,0.097862296,-0.05124248,0.03434209,-0.012968304,-0.0025224478,-0.2851624,-0.010383462,0.13190736,-0.053911146,0.06404405,0.1411225,0.20878854,0.078907795,-0.035727154,-0.0033681553,0.08655261,0.1333217,0.08311289,0.12356422,-0.16239245,-0.17293961,0.048190955,0.027172908,-0.12739943,0.038723756,-0.08355834,-0.07134107,0.028030107,0.10651126,-0.12841459,0.06508059,-0.074014165,0.06702737,-0.10703998,0.06813619,-0.03713822,-0.034083713,-0.0067871623,0.05466123,-0.15503843,-0.17510201,0.039340314,0.08943011,0.25000688,-0.12817766,0.17769796,-0.13448344,-0.33718535,-0.022237256,-0.024463246,0.08390363,-0.14584483,0.06146438,-0.11597958,0.23460601,-0.27275026,0.13818313,-0.1531411,-0.121509984,-0.074884295,-0.117320396,0.04154211,0.030675884,0.05792164,0.08763619,-0.050143003,0.045350898,-0.054282833,0.1120293,0.105423905,-0.010072645,-0.03475121,0.10600857,-0.03792593,0.06971523,0.10223102,-0.1610127,0.0048165577,0.01517831,-0.108114995,0.08478637,-0.1165495,0.006639048,0.066792004,-0.07286448,0.14151005,0.13833073,0.02493687,-0.074478656,0.15778956,0.058055438,-0.14643472,0.18163882,-0.045455348,0.02323583,0.14343888,0.27693245,-0.123145156,0.13506101,0.119434536,0.15760165,0.16299875,0.07097636,0.026844248,0.08614505,-0.26214004,-0.23398535,0.12154381,-0.12318014,0.12353768,0.057428505
0.30579585,0.28126702,0.18454653,0.26809755,0.17210095,-0.058918897,0.003453203,0.18749608,0.53982604,0.2439105,-0.107637025,0.03721996,0.15344079,0.33690986,0.07370317,-0.14032969,0.19752617,0.14546373,0.2901162,0.019649846,0.43746108,0.38931352,0.23327394,0.33157763,0.0106386235,-0.12998739,0.1993377,0.3134015,0.25767377,-0.06243555,-0.12850977,-0.035056334,-0.1366205,0.060491826,-0.011073854,0.3460415,0.43997487,-0.08708613,0.47477466,0.1749573,0.031678893,0.31674868,0.013027464,0.059163272,-0.0071210903,0.34508955,0.20693207,0.20463341,0.36856127,0.21219116,0.29213855,0.22582974,0.11218635,0.32346302,0.13928436,0.26380253,0.16599572,0.1749669,0.20369433,0.406693,0.12625457,0.4182248,0.17011482,0.29342547,-0.16841535,-0.045566756,-0.22470309,-0.11092017,-0.14565176,-0.010197144,-0.31042978,-0.17777824,-0.4086746,-0.22837973,0.437145,-0.20409006,-0.12430851,-0.21145181,0.16091497,-0.13042647,-0.069992706,-0.018940516,-0.11764997,0.050316587,-0.12914398,0.11782466,-0.36994514,-0.22854452,-0.121519946,-0.081588894,-0.17241497,-0.06577383,-0.12248155,-0.24594714,0.21947035,-0.048725933,-0.32993695,-0.20406656,-0.004780794,-0.20683329,-0.21548778,0.059561435,0.12094873,0.008005102,-0.16457869,-0.01533811,-0.14893143,0.005415555,-0.1366063,-0.096197285,-0.006605772,0.05845177,0.0471587,0.24553595,-0.017151399,-0.11901169,0.03965064,-0.099236295,0.0074857133,-0.056088462,-0.38450766,-0.20308922,0.20321757,-0.14930965,-0.24158794,-0.37817925,0.16502419,0.10296021,0.15898412,-0.027623007,0.15094712,0.04916248,-0.011090714,-0.16985689,0.28033918,0.069922805,-0.02653899,0.102795415,0.15120941,0.21641336,0.2778286,-0.09448875,-0.11582209,0.36318734,0.17580412,-0.31205016,0.16333462,-0.10081912,0.0788562,0.16225366,-0.122079425,-0.17794318,-0.16813993,0.10623478,0.010974561,-0.0017598246,-0.020420803,-0.1437503,-0.038868863,0.20603974,0.10404668,-0.19257599,-0.15534995,0.23297809,0.22290425,0.07065902,0.03740523,-0.03751895,-0.014242153,-0.15626153,0.013153553,0.20181473,0.2508326,0.028398212,0.24058926,-0.38127413,0.1804107,0.04264427,0.07231642,0.028660053,0.117664985,-0.11130127,0.14425169,0.039908998,0.09489704,0.30373847,-0.019985797,-0.16939075,-0.017176947,-0.20678191,-0.09439975,0.14150307,0.013314749,-0.23597828,-0.104646996,-0.06202418,-0.026818505,0.029594721,0.111945905,0.12104846,-0.23324549,-0.02281399,-0.24415515,0.015124031,-0.053845488,0.003620093,-0.28187853,0.036788043,0.08303332,0.18424,0.14349446,0.040093597,0.17818215,-0.064721204,-0.14178202,0.030362861,0.0006852901,-0.041837703,0.09108542,0.010928649,0.1322482,0.15356155,-0.04087654,-0.01208548,-0.108579434,0.09228627,-0.041311294,-0.14654244,-0.13224867,0.021888254,-0.053228855,-0.0052978303,-0.0018970338,0.15584242,-0.094159365,0.05359042,-0.2268393,-0.12945479,0.19908166,-0.15758787,-0.22441673,-0.103251085,-0.14395836,-0.13167195,0.13909103,0.17811,-0.0018769884,0.044666313,-0.17632784,-0.11167658,0.093534306,0.29033092,0.07164081,-0.100470625,0.114639044,0.21285997
0.0604755,0.5966311,0.32576624,0.49030092,0.5912723,0.02557531,0.35411415,0.24247685,0.069251865,0.16077809,0.058475018,0.28975922,0.5789899,0.32436353,0.16395019,0.55508095,0.5583112,0.3614381,0.34668583,0.37850425,0.39622277,0.2765675,0.16988246,0.1853021,0.2652675,0.31731883,0.19789694,0.5628801,0.54994786,0.15385789,0.2808663,0.36126825,0.60235274,0.47075963,0.3104043,0.12039522,0.36030602,0.6601409,0.5745837,0.2895806,0.19734386,0.4438828,0.55661166,0.48290864,0.443345,0.6168504,0.42409068,0.456411,0.20891112,0.5638882,0.41656044,0.37132186,0.47784758,0.47774637,0.49417517,0.49912083,0.41685238,0.41198748,0.40758988,0.40211535,0.40593052,0.20295636,0.47600076,0.54639477,-0.16781177,0.0978577,-0.23839982,0.08211446,-0.11462505,-0.09791827,-0.26499054,-0.09302111,-0.34459144,-0.38331866,-0.081196144,-0.3230564,-0.22571592,-0.3566498,-0.09023862,-0.08997456,-0.088054314,-0.13960373,-0.24171664,-0.27816686,-0.24871561,-0.21661101,-0.03543809,-0.22962564,-0.1283653,-0.00084165507,-0.3456382,-0.23214096,-0.22830567,-0.122622006,0.18923733,-0.07270872,0.13874714,-0.17445588,0.23366098,0.13945882,-0.013194161,-0.04018801,-0.22986844,0.091871016,-0.3329212,0.04857956,-0.18718666,-0.025256662,-0.0047475263,-0.049816534,-0.053322554,-0.03355598,-0.058663104,-0.30779517,-0.19564493,-0.19242926,-0.13233037,-0.12942849,-0.13712294,-0.24408768,-0.16802658,-0.056097098,-0.14090943,-0.16818579,-0.19522493,-0.05900041,-0.019867688,-0.21032304,-0.027723199,-0.15750082,-0.18448667,-0.24240237,-0.20813467,-0.025813427,-0.051296223,0.00016196669,-0.22925536,-0.122187644,0.12026191,0.01202078,-0.12413579,0.27415115,0.031145,-0.21003619,-0.048942257,0.20280938,-0.17299305,0.13564858,-0.055715084,-0.2137176,0.084166124,0.0672569,-0.04739254,0.10555608,-0.00033742675,0.059839427,0.19862272,0.055026907,0.14967921,-0.18553822,0.22691675,0.1607013,0.09854951,0.065857686,-0.13146998,0.034882467,-0.3120393,-0.032664843,-0.08342423,0.1890077,0.10585615,-0.23091112,-0.19680099,0.017136306,-0.15015583,0.029578414,-0.11961348,0.026156463,-0.14558959,0.22122644,-0.15770686,0.102880865,-0.2511497,0.31716478,-0.15485342,-0.23129942,-0.08277768,0.06529191,0.16600181,-0.058350865,0.22712849,-0.36251864,-0.31417832,0.16230771,-0.05001664,0.22328381,0.10681973,0.17115705,-0.028286573,0.03008989,0.18757954,-0.07575909,-0.11367007,0.040430915,-0.056542248,-0.2139415,-0.04859003,-0.06905094,-0.16397408,0.06769357,-0.1629727,-0.27375862,-0.11482412,-0.34274426,0.1011572,0.13098927,0.07436874,0.0700161,-0.22494672,-0.0926149,-0.139724,-0.015110164,0.022860304,0.2849194,0.11106679,0.13605434,0.32445985,0.14848635,0.06793256,0.039685592,-0.01635995,0.12259092,-0.17262658,-0.106818415,0.114432104,-0.0056095314,-0.16636524,0.23144123,0.16160898,-0.0035181234,0.02885858,-0.008649974,0.057078343,-0.0630709,0.09513542,-0.0070503964,0.28481236,0.026843492,-0.115970254,0.062056266,-0.012460433,-0.2077851,0.13458303,-0.14728491,-0.09112942,0.051020917
0.31023723,0.45079213,0.23401166,0.57541686,0.26366463,0.012334066,0.47121862,0.07404148,0.6133548,0.7905558,0.28305948,0.29052565,0.50969875,0.23588589,0.22490732,0.36403772,0.10445514,0.35971558,0.16213939,0.16723156,0.31299073,0.26042297,0.2196681,0.0934469,0.06085806,0.2829496,0.51303995,0.5275328,0.48727384,0.4460445,0.22961934,0.053321384,0.3949268,0.536456,0.17876087,0.095523395,0.2881732,0.41603196,0.479615,0.2998829,0.43311182,0.10589677,0.3118552,0.018102445,0.33824173,0.21930626,-0.024817042,0.23857237,-0.096336156,0.39164403,0.11264821,0.35498866,0.35539174,0.30993292,0.024320576,0.07489048,0.17875223,0.32075337,0.28347522,0.42851907,0.43838775,0.16615395,0.5369931,0.59093547,0.29131126,-0.04062491,0.16501927,0.043509427,0.07039476,0.16913013,-0.029542321,0.15963215,-0.16074662,0.20604761,0.12202073,-0.06854875,0.20551167,0.28819323,-0.118555434,0.076568104,0.022228558,-0.018982792,0.27281138,0.31554824,0.18743992,0.1975016,0.3269469,0.30196363,0.035178397,0.008403901,0.23782636,-0.118058234,-0.10557672,-0.011486135,0.31184068,0.17085703,-0.002251199,0.13329297,0.116605766,0.23532698,0.06740442,0.028097644,-0.22192395,-0.039126888,0.19764335,-0.10900487,0.1936949,0.11897027,0.15279357,0.2245753,0.23490442,-0.3358875,-0.06907658,-0.22538605,-0.064290725,0.27995324,0.17735185,0.3003606,0.01866696,0.0015407199,0.10003763,0.30148548,0.020838792,-0.07288857,0.056998823,0.25524443,-0.010494288,-0.059255436,-0.108131245,-0.096767776,-0.1159278,-0.31499404,-0.005957841,-0.033030834,-0.08324102,-0.13528548,-0.32609388,-0.2845753,0.04712617,-0.3092118,0.002209799,-0.06325436,-0.046059515,0.025544252,-0.09018342,0.036662612,-0.12117658,0.08049555,0.011222345,-0.012026123,-0.24242496,0.16126165,0.123995736,-0.009014977,0.08783144,0.14261083,0.16234207,-0.0040171184,0.20439841,0.035966363,0.1450977,0.057538744,0.22950518,0.09671983,-0.11381108,-0.0077862446,-0.23658562,-0.020170681,0.028905945,-0.017815564,0.024157137,-0.18509795,-0.043490157,0.10940157,-0.15244211,0.12188151,-0.19525361,-0.010489382,0.06499474,0.114519455,-0.09019636,-0.16207029,-0.15671138,0.06794135,-0.18478875,-0.08163036,-0.07512169,0.114970274,0.29378685,-0.014621722,0.13723004,-0.11480182,-0.06158902,0.13337298,-0.05406313,0.11599129,-0.3901704,0.12718089,0.14969265,-0.06900129,0.4915437,0.10396263,0.22881123,0.14679478,0.058338154,-0.09587306,0.074102,0.122259624,-0.23299363,-0.14337392,-0.019481985,-0.0023342078,-0.089819245,-0.14895271,-0.055961538,0.08296831,0.0471305,0.04652983,0.056188133,-0.006540697,0.03448156,0.55232453,-0.1245417,-0.1209834,-0.08876025,-0.0521066,-0.07520825,0.2814808,-0.07724183,-0.16473177,-0.3043416,-0.02937222,0.029098768,-0.20359747,-0.10032615,0.02647939,-0.062222794,-0.15449616,-0.09984355,-0.069482855,-0.2854801,-0.30063045,0.11780799,0.09988736,0.02858974,-0.2719857,0.0008772987,0.057835173,-0.18414636,0.08126399,-0.019883437,-0.008750714,0.06871561,0.022666393,0.17467514,-0.17969356
-0.12292603,0.1961649,0.43007088,0.056347314,0.016074032,-0.042374272,0.13123237,0.1524588,-0.3054931,0.12317093,-0.062384743,0.069309324,-0.072836556,-0.14152087,0.08092712,0.075625025,-0.0803591,-0.05091534,0.15435743,0.019604545,-0.06443201,0.028565066,-0.09316633,0.026300564,0.06107761,0.01740675,0.50411564,0.33854803,0.08519957,0.87991303,0.14054689,0.13180985,-0.09659639,0.26626474,0.0991819,0.1044199,0.06262362,0.17531197,-0.09802212,0.11620039,-0.10475904,0.08109625,0.06083219,-0.0423055,-0.07995184,0.034872323,0.049629595,0.029444847,0.30426997,-0.06011935,-0.1538446,0.07342952,-0.072732404,0.0667954,0.023002658,-0.050028566,0.26865348,0.019082686,-0.038025163,-0.060089767,0.016724741,-0.016741393,-0.007450914,0.16886874,-0.17412356,-0.015651232,-0.4216856,-0.16373454,-0.26852778,-0.34866166,0.110963404,0.040818796,0.3427291,-0.17463486,0.38436627,0.07697428,0.048119854,-0.57022816,0.23296075,-0.13877314,-0.029600888,-0.19109918,-0.3672774,-0.23830366,-0.5498295,-0.5095365,-0.3571583,-0.42302397,-0.48962396,-0.08791431,-0.017452095,0.007195255,-0.14075863,0.05527361,0.032323517,-0.24207433,0.0916959,-0.32804447,-0.3465265,-0.38937283,0.20472895,0.23302305,0.17104638,0.18977258,-0.35445237,0.18750243,-0.37091827,-0.2796819,0.22767684,-0.2011723,-0.46943614,-0.19756173,0.45303288,-0.12369854,-0.012580407,0.071537554,0.23723339,0.1585226,0.04854752,-0.20291843,-0.25264144,-0.06619689,0.29395968,-0.20481727,0.20608595,-0.17694068,-0.006082227,0.34795386,0.21210757,0.11898009,0.084168665,0.12330342,0.404317,-0.17829934,0.20456082,0.308939,-0.37806472,0.29984182,-0.0267486,0.40126604,0.4425325,-0.17639084,0.29495454,0.19209518,0.1845085,-0.13777639,0.39301285,-0.4698325,-0.1063534,0.16482314,0.21495447,-0.002365276,-0.03425413,0.32863003,-0.098346904,-0.08507308,-0.4120185,-0.12946263,-0.25931498,0.21960124,0.0022176646,-0.046355635,-0.21633554,0.035579063,0.50272274,0.17065498,-0.032495063,0.103770666,0.07566539,-0.07413883,-0.11909362,0.22886258,0.15258764,-0.1413059,0.16441543,-0.34289432,0.03908702,-0.31518722,0.33402133,0.020878993,0.36279798,-0.18558785,0.31643173,-0.04838078,0.02077875,0.38770986,0.115682125,-0.14023583,-0.081009686,0.122656055,-0.21507391,0.51311475,0.0020947815,0.19532403,-0.09050662,-0.1910403,-0.0133359,-0.06367405,-0.07131111,0.117057845,0.24332955,-0.02528903,-0.114677735,-0.14821318,-0.13354194,-0.004171725,0.14247206,0.012170289,0.22403295,-0.19342242,0.11618384,0.1932241,-0.010841561,-0.057447653,-0.0005627446,0.082264826,-0.0005177775,-0.08962358,-0.024634667,0.10597362,-0.16314103,-0.12607582,-0.11733351,0.18768606,0.11754888,0.2066028,-0.0016170187,-0.020734431,0.010945122,0.054301348,0.102800354,0.037434477,-0.18406238,0.27427316,-0.007373895,0.18114413,-0.050470363,-0.0057231686,-0.106726944,-0.040101625,0.03420769,-0.14624718,-0.12174006,0.08256028,0.08238403,0.027030421,-0.04929942,-0.075189464,0.17992437,-0.19436212,0.06647658,0.029833242,-0.009566174,0.031073611,-0.12348608,0.16206543
0.18754247,0.046136923,-0.08858129,-0.11651367,0.035183314,-0.16828908,-0.18025897,-0.19070953,-0.07090442,-0.23983864,-0.17011139,-0.15885973,0.017551884,-0.025616597,-0.31961668,-0.03347117,-0.20416246,0.056891084,-0.078260265,-0.12468361,0.051568136,-0.26411283,0.0057422393,0.14766692,-0.020012721,-0.03157048,-0.48432094,-0.113650106,-0.2621502,0.020055281,0.1389095,0.031319812,0.33003268,-0.0077996897,-0.20665267,-0.15739822,-0.02456666,0.29995826,-0.044030294,0.17802384,0.19484815,-0.059158865,0.0638418,0.025520237,0.100620374,-0.1045267,0.1616384,0.29204008,-0.36108822,-0.29370588,-0.060993604,0.12510192,0.02796359,-0.20296091,-0.14465435,0.1674313,0.100583725,-0.15472063,0.002971504,0.26614782,0.023726176,0.21808758,0.054087892,-0.13733838,-0.053112976,0.25019032,0.25639525,0.2050282,0.30064166,0.24578121,-0.04930543,0.28049985,0.3177823,0.32682317,-0.16494542,0.0766365,0.16249043,0.02457227,-0.049247447,0.15119949,-0.15560402,0.010141173,0.55391306,0.14734472,0.25428736,-0.14520575,0.28459385,0.18791734,0.15369083,0.2732702,-0.024048928,-0.2003566,-0.10988885,0.24097623,0.30032334,0.2138998,0.28864467,0.10338239,0.058458406,0.16102676,0.32538742,0.42114925,-0.43995112,-0.12685725,0.34366047,0.11560282,-0.03395036,0.15933685,0.14522524,0.3309023,0.21317324,0.18455938,-0.33379737,-0.1642398,-0.15381181,0.28331286,-0.2138989,0.31241632,-0.24547929,0.45512733,0.4299223,-0.08052106,0.36601374,-0.1657164,0.35956818,0.5015932,0.019804552,-0.40729785,-0.027094956,-0.03400482,-0.019325046,-0.07601645,0.0047961916,0.2043016,-0.20800395,-0.20304394,-0.00079102773,-0.22276378,0.1583956,-0.10427348,-0.010695814,-0.13152559,-0.21941382,-0.3109922,0.01817694,0.14992423,-0.14571166,0.28921562,0.17967074,0.031550158,-0.13098285,-0.01301938,-0.121334456,-0.014477709,0.15270881,0.17378558,0.064829536,0.2730296,0.3703191,-0.06681608,-0.017899688,0.25754687,-0.26425976,0.14916424,-0.016429275,0.1579334,0.069957584,0.14185408,0.10020887,0.09793605,-0.15234941,-0.25811562,-0.011504392,-0.09819237,-0.004073497,-0.12166301,-0.30530426,0.22862023,-0.028471949,-0.10883455,0.05426198,-0.048126325,-0.06358517,0.11897747,-0.08155938,0.088030286,-0.006731427,-0.09991492,0.1465557,0.17111833,0.0113313515,0.12443636,-0.37950537,-0.01245368,-0.10295665,0.027203772,-0.068365425,0.038284436,0.021486755,-0.22386184,0.323702,0.16014063,0.12138153,0.016825875,0.064007044,-0.17116183,-0.05218049,-0.0115047125,-0.051156424,-0.006966772,0.008347736,-0.29307204,0.15026648,0.07095365,0.059843253,0.13884409,0.05934405,-0.054050706,-0.13098493,0.09925025,-0.020017747,0.029752374,0.025158945,0.09014247,-0.069561735,-0.02682459,-0.09173424,0.114515014,0.087376125,-0.13345456,0.0058191842,0.027475702,0.2170101,-0.07822884,0.35290113,0.17891379,0.23333633,-0.14073895,-0.078223094,0.20955864,0.0076879687,0.23378238,0.37944132,0.0019131337,0.20897378,-0.0770682,0.03641856,0.29801562,0.20577703,0.1468648,-0.21616928,-0.016975822,-0.104350284,0.27614677,0.15772754,-0.012034319
-0.12393476,0.009784955,0.06349357,-0.10725953,-0.2588941,-0.084341496,-0.15128416,-0.06504916,-0.26373953,-0.19031027,-0.37399596,-0.25786093,-0.23031352,-0.40913394,-0.1912529,-0.15658388,-0.53216213,-0.14834991,-0.13911338,-0.15196562,-0.05159742,-0.22666946,0.056285214,-0.020417873,0.114519246,-0.07319752,-0.013226884,-0.07634181,-0.3525131,-0.51621735,-0.010766067,0.06416877,-0.07527045,0.10510746,0.005142671,0.05180303,-0.21550018,-0.23584488,-0.29556942,-0.09783534,0.24465738,-0.084048286,-0.38762078,-0.05479756,-0.28569102,0.17333624,0.1711321,-0.21954274,-0.008232952,-0.40543315,-0.5586517,-0.3227715,-0.44777638,-0.5097796,0.024050778,-0.0570941,-0.038544495,-0.21594179,-0.38886267,-0.509381,0.007949574,-0.1821361,-0.49449825,-0.21627347,-0.12135333,0.12779474,-0.30576095,-0.065553404,-0.16385365,0.14823115,0.05203668,0.0989202,0.45086944,0.06460851,-0.06589533,-0.09214961,0.13203946,-0.09473152,0.22748624,0.0346164,0.12405625,-0.15587421,-0.22640668,-0.0903323,-0.3409166,-0.27400348,0.0099251615,-0.53522867,-0.35523668,0.08509415,-0.29924852,-0.16744559,-0.12772708,0.07942974,-0.50784504,0.17654975,0.26562685,-0.17670287,-0.16310099,0.1407888,0.111128405,0.21007876,-0.0465387,-0.17276616,-0.060564984,-0.29638574,-0.23938493,-0.32660875,0.04263877,-0.036593564,-0.16076626,0.23677674,-0.16213676,-0.043218184,-0.00011998837,2.9707619e-05,0.17355642,-0.14660229,0.09596306,-0.03558948,0.14247224,0.13009867,-0.15801044,-0.04775735,0.2373882,0.43709767,-0.07135569,-0.14199784,-0.06683781,0.13091613,0.040116023,0.17624485,0.20524651,-0.053744428,0.15707693,0.07737606,0.064816944,0.096031345,-0.19602627,-0.05657545,0.22956358,-0.118059695,0.08187471,0.09494754,0.10582117,-0.21211661,0.18170059,0.015481422,0.19472156,0.22861354,0.2105266,-0.0820931,-0.10074461,0.06287612,-0.018952198,-0.14640738,-0.1832559,0.012290795,-0.17600046,0.12762071,-0.038486704,-0.09275667,-0.110020585,-0.23225512,0.14407694,0.180725,0.18057016,-0.1656085,0.2992416,-0.29148668,-0.19310147,-0.05361871,0.19162056,-0.07475934,0.0630478,-0.19466376,0.074766494,-0.019021535,0.14286697,-0.16601142,0.18436688,-0.3004167,-0.06310969,-0.002222047,0.23597682,0.18023752,-0.0601464,-0.33079827,-0.162926,0.2857309,-0.104502685,0.09703141,-0.06582437,-0.05087736,-0.07105664,0.06659916,0.06680481,-0.23168302,-0.18162951,0.13168406,-0.053594284,-0.17283672,-0.14066993,-0.07609501,0.05678324,0.10067779,0.00883693,-0.032218963,0.017271103,-0.060654018,-0.3259775,-0.097108014,0.07295872,-0.08363158,0.062519275,0.04769347,-0.11766268,0.081469156,-0.1807711,-0.015052305,-0.17762503,-0.18998273,-0.14912634,-0.01814864,0.04733135,-0.13571735,-0.17491393,-0.10947501,0.19680393,0.15617095,-0.07629019,0.043453846,-0.1007493,-0.11085916,-0.13909966,0.016719932,-0.118671544,-0.11263582,0.18842037,-0.044487897,0.0642848,-0.12615556,-0.04728325,-0.2882847,-0.025136985,0.019405456,0.07280759,0.13071948,-0.16520579,-0.17036057,0.13213596,-0.04431678,0.18140653,0.0061903778,-0.250639,-0.216065
0.04247719,-0.07805139,-0.036263824,-0.0015118401,-0.06475161,-0.062481992,0.29301807,0.1557904,0.06936506,0.09868993,0.27404815,-0.051474158,0.0070552113,-0.22510387,0.08376139,-0.12648486,-0.093619354,-0.20081878,-0.09770463,0.05867685,-0.027551167,-0.0139116915,0.14255765,0.05985413,0.07972287,0.12322642,0.20006326,0.22203377,-0.027816935,0.06354271,-0.08282769,0.019653494,0.08728309,0.021904854,0.10344611,0.052100662,0.061682954,-0.13772759,-0.06251565,0.23919643,-0.022631163,0.06461506,-0.0744061,-0.070766725,0.08573061,0.11445036,0.092724204,0.17001638,0.21240848,0.0808476,0.20795037,0.15876326,0.09087576,0.12524296,0.18693982,-0.059610967,0.10557898,0.17939566,-0.103772245,-0.018514019,0.004242027,0.036179777,-0.09470932,-0.15245983,0.03552225,-0.005922404,-0.37823445,0.17469245,-0.13526487,-0.1762245,0.16762888,0.07779369,0.25173527,-0.037571352,0.28578103,-0.10068369,-0.04494612,-0.18730772,0.0073521337,-0.09106411,-0.1509193,0.062208816,-0.035797805,-0.034913752,-0.24613246,-0.1293214,-0.10467955,-0.13598613,-0.28774652,0.04359255,-0.0436712,-0.0128858285,-0.04411907,0.022651928,-0.37182397,0.040311612,-0.16011931,-0.3140968,-0.18751149,-0.18725626,0.112649165,0.02627836,0.08868675,-0.042370666,-0.2948381,0.074388124,-0.20063528,-0.14442152,0.10968945,0.112185106,-0.15302497,-0.1213242,-0.11852488,-0.18170321,0.018873239,-0.11381081,-0.016899243,0.031539734,0.112927094,-0.16531476,-0.23769929,0.025096202,0.13818015,-0.1526705,-0.14697593,-0.23252569,0.04671138,0.14077336,0.36014935,0.31166065,0.43242633,0.5057407,0.49595845,-0.3314451,0.2762237,0.34435645,-0.0032247105,0.052956235,-0.118493676,0.07226764,0.46546742,-0.531093,0.32863092,0.23221682,0.43032628,-0.27571014,0.41698498,-0.6142491,0.33904037,0.3400334,0.32433853,-0.18851086,-0.47530785,0.24657196,-0.2900868,-0.2925393,-0.16463983,-0.1684863,-0.54193497,0.26588017,-0.53748995,-0.33204854,-0.3629848,-0.4317699,0.28724217,0.35800594,0.34004775,-0.38361686,0.10950863,-0.23509224,-0.2387142,0.20633079,0.19417463,-0.3942951,0.36277366,-0.33776394,0.35098988,-0.3175445,0.11907052,-0.1489876,0.27479133,-0.38218907,0.37613088,-0.1731176,0.34182054,0.043995358,0.30709308,-0.38766164,-0.13603327,0.2598156,-0.34286308,0.17379609,0.20472534,0.1979995,-0.20973566,0.04765333,-0.02588125,0.0976524,-0.07921116,-0.10570869,0.36148757,0.06604383,-0.22376646,-0.05007912,-0.16744207,-0.012650723,-0.16151945,-0.023045393,0.007964405,-0.0148388585,0.15895486,0.1282864,0.17551957,0.08913004,0.09314944,0.08169918,-0.045716055,0.09949816,-0.023783347,-0.17613357,0.0047901436,-0.17531751,0.106255144,-0.05270997,0.0750027,0.05985514,0.035444245,-0.058389716,-0.040626165,-0.02081408,-0.00230212,0.01022305,0.07082595,-0.070442,0.0055563888,-0.040342595,-0.06353458,-0.10417717,0.18302566,-0.13026875,-0.051790297,0.008118011,-0.19211431,0.0064581274,0.016346985,0.043731615,-0.019704493,0.039788235,-0.0416043,-0.15479004,0.18079484,0.13511394,-0.14630796,0.057430424,0.0026681134,-0.10758658
-0.1625099,0.016993077,-0.03632797,0.22540973,-0.0763207,-0.16029705,-0.049091164,-0.14232536,0.03380954,-0.079052694,-0.084741294,0.041112583,0.060427114,-0.22616212,-0.16563143,0.084886566,-0.24344271,-0.20999202,-0.36902058,-0.21878111,-0.0352058,-0.11103717,0.030966856,-0.023696607,0.06389672,0.046257667,-0.065334536,-0.11630131,0.09787781,0.20476083,0.18024088,-0.19867909,0.14071634,-0.004363854,-0.3301784,-0.083743125,-0.23836987,0.36583337,-0.19909932,0.003573655,-0.0583058,-0.05055187,-0.1002653,-0.09010897,-0.22506334,-0.12182085,0.017149268,-0.4352195,-0.47212338,-0.103409804,-0.09214579,-0.23565237,-0.14798306,-0.25076175,-0.28421944,0.011400496,0.01284121,-0.28787318,-0.16445802,-0.19707052,0.030209366,0.13264436,0.0971136,-0.1876173,0.18714187,0.12457685,-0.018319918,0.30208987,0.09586751,-0.010704955,0.088899754,-0.050488994,0.009610055,0.26007852,-0.41541824,0.052405536,-0.11988439,0.27753776,0.1567924,0.34491548,0.18800846,0.12689234,0.010597564,0.09370177,0.22817102,0.11901448,0.07500988,0.12107032,0.06515524,0.03871257,0.050579086,0.15118687,0.10835156,0.25450888,-0.22859585,0.18201119,0.09868829,0.19263944,-0.12708144,-0.0778404,0.08634813,0.046592012,-0.25124666,-0.19436559,-0.10961259,-0.07359759,0.032837708,0.21776143,0.046961725,0.08860907,0.09823532,-0.22555296,-0.3121226,0.010681539,0.091045074,0.16902381,0.05660973,0.231528,-0.20175785,0.09073885,0.21141079,0.07999341,-0.0018583549,0.30112562,0.16042875,0.17670733,0.0133738415,-0.20749676,-0.29160047,-0.18985543,-0.23656093,-0.38038275,-0.09743496,0.12993744,-0.15982746,-0.25071904,-0.014022397,-0.19243073,0.1673651,-0.121485785,-0.25029638,0.18858254,-0.33461148,-0.3909885,-0.18497454,0.11622986,-0.12989487,0.021127002,-0.23373926,-0.23145609,-0.0396628,0.28275833,0.2692523,-0.2320354,0.13471003,0.16065882,0.16442338,0.27286124,0.32986042,-0.09217828,0.2441403,0.21324821,0.31787118,0.35728732,-0.17929482,-0.23177318,-0.25644407,0.26572883,-0.05310873,0.20072895,0.1944327,-0.35571045,-0.22953388,0.21167582,-0.062202435,0.234966,-0.37599722,0.010426873,-0.29203963,0.2749595,-0.33298096,0.030158399,-0.15356731,0.15035452,-0.012135777,-0.10400922,-0.07811619,0.3826433,0.20112488,-0.25373054,0.17455272,0.025355319,-0.017565876,-0.03472686,-0.13886449,0.1304003,-0.039706476,0.05320892,0.059926823,0.03296344,0.20709403,-0.074006416,0.19168124,0.09745067,-0.120767206,-0.1195072,0.06568065,-0.10294188,-0.27455863,0.04849898,0.09863141,-0.14178962,-0.051938288,0.021869317,0.23998241,0.11073768,0.09972547,0.06590659,-0.031291675,-0.13542607,-0.10385762,0.27614403,0.1676491,-0.05985317,-0.074414484,-0.22540975,-0.25596833,0.033253577,-0.12653755,-0.030409703,-0.038724292,-0.11563154,0.1472639,-0.10971731,-0.098155096,-0.010616986,0.035637647,-0.0063806693,0.10166526,0.05758057,-0.25067022,-0.12953854,0.04307748,-0.21912302,-0.040962335,-0.2798283,0.16113552,-0.016316488,-0.113189675,0.029825043,-0.13208967,-0.0028179241,-0.052589905,0.16292721,-0.108670294,-0.19172151
0.1402012,0.45719433,-0.09082082,0.3173083,0.24063747,-0.19117297,-0.081684336,0.076008685,0.36258912,-0.113502964,-0.050731383,-0.07186848,0.3056034,0.13046597,-0.1528088,0.23156367,0.16674735,0.4070193,0.13065095,0.0611612,0.09069844,0.05350598,0.10267994,0.45939624,0.101200394,0.06651187,-0.28074315,0.047773257,0.08266415,-0.041353703,0.0224772,-0.06847769,0.358061,0.21852653,-0.06718808,-0.05156014,0.005563436,0.018821368,0.1108437,-0.067900665,0.24781002,0.1502063,0.15560766,0.11960859,0.16181383,0.19876888,0.039873663,0.24073295,-0.006249281,0.2932947,0.222465,0.23684695,0.24785271,0.028252602,-0.051421642,0.17929594,0.17036605,0.18994807,0.1259522,0.24418409,0.062129132,0.2138966,0.32733807,0.28642613,0.2034818,0.2865021,0.32999006,0.14146061,0.24440534,0.21478775,-0.087333344,0.15739389,0.15959953,-0.22419997,0.22678255,-0.13044791,-0.060646676,0.36541158,-0.18823354,0.14923994,0.12119506,0.25859898,0.16782771,0.068653665,0.3731689,0.25951675,0.30886924,0.5784256,0.2636584,0.14877069,0.075131185,0.066787,-0.23568717,0.021231828,0.18205586,0.22446553,0.25289986,0.33721286,0.21345775,-0.03595748,-0.052122947,0.13746986,-0.12977059,0.11936944,0.326427,0.22057292,0.43812892,0.37405586,0.045391437,0.22182927,0.17350422,-0.0556971,-0.03648131,0.17639683,-0.24218635,-0.29323667,-0.09434217,0.2992977,-0.21831936,0.29982042,-0.1314685,-0.200719,0.2466515,0.20513055,0.15989496,0.20801023,-0.057698254,0.15035783,-0.15450148,-0.09009695,-0.21814947,0.09847249,-0.19162911,0.04911954,-0.22728685,-0.25464526,-0.1240126,-0.04382274,0.44593066,-0.26261917,-0.105850734,0.12579909,-0.17307635,-0.2984683,-0.49964422,0.14283921,-0.012985347,0.005636946,-0.11263469,-0.15843372,-0.37608293,-0.03700488,0.16268814,-0.015099849,0.26508662,0.037785254,0.23167656,0.5017731,0.15834075,-0.24035685,0.08269068,0.044806127,-0.018495323,-0.054902326,-0.034747303,-0.21944515,-0.057835925,-0.10092924,-0.06907579,0.050962426,0.021577775,-0.023754364,0.17843679,-0.001660981,0.08481351,0.11063304,0.013346357,0.16015446,-0.14431195,-0.07421748,-0.06729454,0.04448667,-0.19032188,-0.10376416,-0.11338871,-0.040539093,-0.042587094,0.07515793,0.07251121,0.2184361,0.18611757,-0.021450585,-0.027338184,-0.1050226,0.075002834,-0.23857054,0.04394269,-0.2069598,-0.032044552,0.0120549295,-0.08756677,-0.0720994,0.21364482,-0.1525084,0.04044334,0.070080206,-0.21962707,-0.09438958,-0.022913873,0.22899403,0.08689511,-0.056275412,0.06498481,0.09793156,-0.06522429,0.1883145,0.06875285,-0.24990265,0.2500866,-0.008952456,0.1465714,-0.005513536,-0.3302859,-0.08907364,-0.047090184,0.2874579,-0.21940859,0.13403806,-0.32448488,-0.1418762,-0.12734245,0.164803,0.20585957,0.08755896,0.03851446,-0.010229244,-0.073198244,0.11605847,-0.16539536,0.11359302,0.24536127,0.14827652,0.058429334,-0.13353153,0.24641371,-0.009223026,-0.100168295,0.123615816,-0.25940925,0.03719432,0.31461552,0.17629153,-0.07489253,0.21371254,0.044216778,0.08338546
-0.23655772,0.23253292,0.34854403,-0.017263453,-0.08837349,-0.033060543,0.3075256,0.041652113,0.0020402204,-0.004820488,-0.07405138,0.24485007,-0.019493507,-0.10954343,-0.009086971,0.11156964,-0.11693556,0.001154469,0.011673633,-0.08291911,-0.14112772,-0.11888784,-0.0012766317,0.08673763,0.11140073,-0.14984922,0.41547343,0.1517131,-0.021699462,0.39325258,0.16634095,-0.020531079,-0.07719592,0.2644946,-0.03943563,0.3161505,0.027561305,-0.13566254,-0.0741993,0.16702418,-0.147279,-0.14517139,-0.019926995,-0.011006766,-0.08477964,0.15816766,0.18762374,-0.0064346716,0.30853373,0.061469957,0.1547003,0.09945637,-0.024986202,-0.09932941,0.12505664,0.056221526,0.31845793,0.07618627,0.07767288,-0.08491182,0.20238441,-0.11935948,-0.0853828,0.081498794,-0.11215562,-0.2165638,-0.4021735,-0.15580648,-0.3806519,-0.13339712,0.07062061,-0.10517365,-0.032913577,-0.32689303,0.37580183,0.015813908,0.023845108,-0.4819928,0.21264264,-0.30558297,0.023930024,-0.38159052,-0.4101405,-0.3307353,-0.6922661,-0.40420505,-0.5905484,-0.3376521,-0.32086605,0.07965703,-0.15715587,0.08256903,-0.025344804,-0.020061636,0.086059704,-0.21114926,0.030687887,-0.50434655,-0.1383971,-0.28019702,0.09279771,-0.014568616,0.09716106,-0.16029893,-0.6692578,-0.07734265,-0.13050212,-0.48690942,-0.024857538,-0.15900597,-0.59583956,0.00085466786,0.134452,0.061675128,0.12935361,-0.17199907,0.0071580946,0.043778863,0.067201376,-0.22052573,-0.42522842,0.014747208,0.0865161,-0.08975802,-0.09005756,-0.2847241,-0.11587973,0.09279632,-0.13893571,0.30772653,0.022551876,0.013447541,0.052523825,-0.001219447,0.026868304,0.083159514,0.001987288,0.23167303,-0.11422454,0.21177031,0.20156734,-0.020809388,0.13491791,0.14321026,0.1098576,0.09673231,0.11801773,0.0044466807,0.10673734,0.03541635,0.07218941,0.0822669,0.013083732,-0.010459835,-0.117430925,-0.14068295,-0.24437806,-0.16426009,-0.07134627,0.05428893,0.071552426,-0.035879046,-0.119383045,-0.024215648,0.3246192,-0.15342516,0.01244238,-0.04059196,-0.16948171,-0.008976213,-0.039028946,0.29051387,0.08746876,-0.12835969,0.0052710776,-0.1021024,0.11122361,-0.3559503,0.26939148,-0.11069975,0.15111479,-0.16184768,0.25196302,-0.11986186,0.020648815,0.273713,0.20125754,-0.15828834,-0.17893393,-0.1618275,-0.16093329,0.328211,-0.11744093,0.00034733408,-0.023932774,-0.16770278,-0.03756262,0.0032033548,-0.05009691,0.09660352,-0.23299016,0.09672147,-0.13492775,-0.14611007,-0.04894694,0.0796734,0.10437513,0.009232774,-0.0020872878,-0.08976126,0.046964843,0.11604213,0.13225746,-0.11293474,0.14874871,-0.07939739,0.024445828,-0.060262285,0.018132094,0.004348802,-0.17344736,-0.1673115,-0.06989402,0.13863327,-0.06139009,0.09106173,-0.0016930223,-0.1419301,0.14365157,0.09086999,-0.20707676,0.19664747,-0.281463,0.11361224,0.08860666,-0.05300038,-0.33090624,-0.010450586,0.08063423,-0.07374522,-0.08041138,0.032369524,-0.21225259,0.14325128,-0.0060049854,0.2114229,0.031108461,0.12596571,0.004563113,-0.024850035,0.22768185,0.0028493574,0.0027773073,0.02127698,-0.11400797,-0.09410431
-0.17298591,-0.13288046,-0.025229327,-0.017400865,0.19434841,-0.20676145,-0.13114902,-0.14070083,-0.2943023,-0.0707985,-0.035960935,0.00986159,-0.11963165,-0.029440375,-0.1697013,0.123945914,0.11106124,0.11820401,0.043770187,0.10041535,0.17676455,0.2888927,-0.16753215,-0.06934187,-0.019639695,-0.19092543,0.12616183,0.011293965,-0.0151007045,-0.54774046,-0.22999464,0.0854566,-0.032070864,-0.23479871,-0.21368419,-0.2525859,-0.19641392,-0.034083392,0.03395919,-0.17671934,-0.1863732,-0.19763726,0.2705919,0.2112177,0.0527765,0.20599963,-0.125667,-0.16683432,-0.1242074,-0.055556294,-0.012128438,-0.009137783,0.120780475,-0.1896665,-0.12551944,-0.09045921,-0.06865582,-0.021834482,-0.015192321,-0.031215921,-0.17183045,0.22374868,-0.2311873,0.014100301,0.0063229445,-0.16752693,0.12621728,-0.16866839,-0.051093817,0.25660747,-0.35080025,-0.37263536,-0.4425677,-0.38932446,-0.58753234,-0.2675054,-0.18663514,0.024813082,-0.14383948,-0.0048362734,-0.38737503,0.049304016,-0.012528074,-0.0614719,0.21433434,-0.0722675,-0.23530139,0.30799657,0.09139218,-0.3019031,-0.07716664,-0.11118321,-0.33198595,-0.54981375,0.015834587,-0.11435246,-0.061258107,-0.053014386,0.2870589,-0.2435208,-0.3990234,-0.34525207,-0.22350964,-0.03670766,-0.14178938,-0.11998948,0.08616524,0.0062294505,-0.3125486,0.106974274,0.31629723,-0.18320398,-0.13513277,0.12048418,-0.21718536,0.07428927,-0.2893347,-0.15515953,-0.13834436,-0.060992707,-0.25725043,-0.027841358,-0.067703895,-0.019897109,-0.2821479,-0.20653671,-0.5136054,-0.2960589,0.028977996,0.22918592,-0.05045277,0.076281145,0.10987102,0.27327934,0.013092425,-0.17683098,0.37298054,-0.22118627,0.0062374445,-0.2395871,-0.031088457,-0.006084051,-0.05817697,-0.0015712072,0.08867411,0.058784053,0.044129364,0.28825676,-0.24513337,0.14516279,-0.07736418,0.07944366,0.14203432,-0.22802664,0.06411568,0.1480741,0.22529782,-0.16386767,0.32279292,-0.10095313,-0.13813062,0.023932807,0.21256804,-0.18981119,0.020743506,-0.03466004,-0.045317665,0.08825378,-0.13090709,0.15101083,0.13433166,-0.026789874,0.14335537,0.04888682,-0.26192072,0.26319477,0.054813266,0.09793533,-0.119445466,0.049930908,0.08092178,-0.05136906,-0.2021826,-0.13231495,0.117726095,-0.37177423,0.058233462,0.008747359,0.21780558,-0.0036420433,0.08960747,-0.06409325,0.19491807,0.12123325,-0.039964944,0.12190746,0.08108594,-0.11027962,0.05630676,0.17366894,-0.48313117,0.26829207,-0.24320017,-0.11700777,0.1623247,-0.21101761,-0.017922841,0.21172935,0.024922555,0.11325845,0.1553611,0.017351858,-0.036697734,-0.16163822,-0.06618891,-0.17916267,0.0802003,0.13374116,0.047171872,0.0032715288,-0.032825958,-0.23284146,-0.07161179,0.07160795,-0.07370007,-0.14267449,-0.11677324,-0.17422189,0.112191975,-0.014430219,0.16142319,-0.08040804,0.17680049,-0.21646301,0.2149586,0.0007567697,0.100822695,-0.02853481,0.026573155,-0.11440574,-0.24297749,-0.026916135,-0.024062319,-0.04164563,0.0754323,-0.13373959,-0.22071876,0.045079242,-0.12253846,-0.053103015,-0.18345195,-0.12607431,0.1360581,0.24138717,-0.1217729,0.075703084
0.007909331,0.11217788,-0.62545556,-0.058912475,-0.44186565,-0.28974593,-0.29791608,-0.43046275,-0.018141055,-0.1151344,-0.44857666,-0.3112949,-0.17859018,-0.4094789,-0.075540066,-0.10499484,-0.37587136,-0.42284378,-0.56852794,-0.4142343,-0.4295812,-0.44348058,-0.54958653,-0.72828966,-0.50701094,-0.38889503,-0.5693466,-0.5447951,-0.44039828,-0.42585275,-0.13997091,-0.3779742,-0.08717538,-0.5187595,-0.35337424,-0.48696607,-0.18803115,-0.32638225,-0.6517271,-0.43800476,-0.53115803,-0.7125092,-0.35642353,-0.63959587,-0.20693557,-0.4417401,-0.30234474,-0.5619634,-0.20754495,-0.3008293,-0.4485351,-0.5097994,0.041371666,-0.30754277,-0.46039644,-0.48859864,-0.32575414,-0.62912387,0.09442506,-0.22563332,-0.4060211,-0.529622,-0.37908018,-0.20410363,-0.326274,0.04835531,-0.4212834,-0.1372061,-0.37951612,0.069947295,-0.1328256,-0.3671401,0.15264389,-0.25270367,-0.540139,-0.39397183,-0.3716415,-0.39321715,-0.3834455,-0.5013589,-0.43523696,-0.24307494,-0.6617515,-0.26318327,-0.30793563,-0.49039307,-0.2902864,-0.3770449,-0.26620784,-0.44854137,-0.376983,-0.40483233,-0.28292206,-0.23691756,0.18020427,-0.29742217,0.028152889,-0.29991895,0.21464542,0.052373365,-0.55874753,-0.44925615,-0.2682753,-0.31986442,0.295792,-0.532838,-0.33664376,-0.53657377,-0.35284993,-0.17200103,-0.38068625,-0.29588068,-0.15832198,-0.1907979,-0.44921735,-0.41582736,-0.58210087,-0.39824653,-0.28547424,-0.3200854,-0.09357764,-0.5251316,-0.5715833,-0.55255145,-0.24110298,0.03888023,-0.41727164,-0.32708624,-0.04547696,0.08469983,-0.38304353,-0.14659068,-0.27738178,0.42319885,0.0013822049,-0.29448846,-0.24641466,-0.15810964,0.18385307,-0.07196173,-0.031900533,0.20961486,-0.09992711,-0.09946149,-0.17019382,0.20558524,-0.27588755,0.23288652,-0.34167412,-0.237066,-0.33219212,0.26309067,0.056550417,-0.25713092,0.14840569,0.26276228,0.10344213,0.17698404,0.1615235,-0.21486822,0.08133411,0.28837532,0.2339522,0.08684871,-0.03878722,-0.20603947,-0.23338835,0.1590043,-0.12780921,0.24939454,0.09409623,-0.39729273,-0.30110797,0.26541993,-0.27582693,-0.06992642,-0.15987588,-0.018222349,-0.21383114,0.44101894,0.04573029,0.35481074,-0.18744414,0.107178435,-0.15404887,-0.016317714,-0.08129029,0.16345252,0.19486232,-0.13722953,0.043284975,-0.07120551,0.037030485,0.13825786,0.006433783,0.032289747,0.12010344,0.008322451,-0.063963175,-0.21176936,-0.5592646,-0.17667502,-0.03314135,-0.15840042,0.11598252,0.2813688,0.042582467,-0.08022541,0.03933328,0.15205087,0.23376203,0.21539772,0.32364014,0.1784636,0.024131827,0.08675929,0.06280067,-0.10532882,-0.038358785,-0.09071098,-0.030711578,-0.062830165,0.07622374,0.031596933,0.059788264,0.07921465,0.13937625,0.111573815,0.023101114,0.04792846,0.028641907,-0.07297236,0.17472759,-0.07655615,0.077024885,0.12323806,-0.00092297094,0.036133464,0.23309429,-0.036031082,-0.14416534,0.046793677,-0.125772,0.28025654,-0.12386528,-0.019202027,-0.28412095,0.057054803,0.020138135,-0.20418267,0.13581952,0.06651858,-0.14192149,0.10720481,-0.16873991,-0.06476175
0.1504777,-0.28507647,-0.32823738,-0.03257786,-0.104570925,0.09764576,-0.4692298,-0.17526917,-0.53562605,-0.73018855,-0.61958116,-0.5191805,0.109842524,0.08579514,-0.2085254,0.018300725,-0.02571863,-0.06671151,0.023207584,0.012744639,0.08016296,-0.11003028,-0.37661508,-0.2879534,-0.4114419,0.07120237,-0.3781035,-0.46180153,-0.3285649,-0.5787697,-0.13812064,-0.40019268,0.064444035,-0.13208629,-0.06925863,-0.66923636,-0.29798827,-0.27403104,-0.25255677,-0.4169888,-0.20677167,-0.0886621,-0.045811933,-0.15395518,-0.06308662,-0.2550131,-0.11154976,-0.09349502,-0.37464514,-0.35567737,-0.3069009,-0.15691333,-0.18092254,-0.28735307,-0.36940885,-0.097095214,-0.08080371,-0.24677385,0.090212256,-0.13939543,-0.3483052,-0.017095516,-0.1722269,-0.17667814,-0.15901719,0.10285051,0.022806374,0.15967314,0.009480843,0.41536853,-0.14725967,0.06548782,0.36122563,-0.2447094,-0.73745173,-0.1227194,-0.22683042,-0.060519427,-0.3719771,-0.17839734,-0.29928374,-0.31025583,-0.04744474,0.07209846,-0.17481281,0.016385624,0.071531646,0.04873428,-0.17637958,-0.13079801,-0.14341104,-0.3048805,-0.39840454,-0.29431573,0.290793,-0.12853171,-0.09408054,0.13949266,0.23640953,0.21172152,-0.18560831,-0.16483697,-0.39338315,-0.30758747,0.313156,0.09159263,0.07014916,0.0719384,-0.049639367,0.116222285,0.0016720083,-0.3506562,-0.08708426,-0.37209466,-0.35155982,0.021130517,-0.54201514,-0.16635004,-0.15177205,0.11506181,0.19028339,-0.3082932,-0.41577116,-0.17698297,-0.07929348,0.10516367,-0.4679041,-0.42103416,-0.067044094,-0.09095481,-0.034252845,-0.080456756,-0.2009519,-0.002031254,-0.227176,-0.179125,-0.15583889,-0.3299044,0.2641939,-0.40697256,0.024167996,0.03812958,-0.1004467,-0.08271536,0.012902179,0.0079654325,0.095459744,-0.18312776,0.09799378,-0.025557492,-0.34015137,0.16276293,0.055917602,-0.21228296,0.32269993,0.29772082,0.3319607,0.35677776,0.011348918,-0.07810007,-0.021482727,0.0097874,0.09094106,0.08930802,-0.12903938,-0.1539753,-0.17288499,0.19258375,-0.21948585,-0.055494104,-0.14811641,-0.0927788,-0.16970848,0.08721666,-0.10873765,0.2162562,0.0017115867,0.18786527,-0.25676247,0.15179615,-0.19436002,0.07655533,-0.14068729,-0.037084203,-0.19543332,-0.13429922,0.05681766,0.018466773,0.31756857,-0.073141284,0.14055662,-0.0017561408,-0.1082725,-0.0031856853,-0.003070793,0.09576578,0.11098489,0.03725966,-0.030502481,-0.0730956,-0.06854799,-0.0074060466,-0.09278877,-0.10869682,-0.02123383,-0.048735056,0.027523987,0.027103284,0.01856355,0.103156604,-0.0095831575,0.055764604,0.11251276,0.06742605,-0.11795875,0.063546084,0.092696905,-0.08712114,0.054990813,0.0077284225,0.0011882081,-0.27136868,-0.11860882,-0.049166225,0.04330831,-0.0013521081,0.1136054,-0.04627285,0.004004343,-0.10373903,-0.036186002,0.09862385,-0.028329886,0.075967774,0.14695191,0.11103937,0.087482214,0.12014398,0.109147705,0.0016217192,0.029490845,0.105970256,-0.010588575,0.04449411,0.07795748,0.11107413,-0.094600566,-0.14716803,-0.015231938,0.06034723,-0.1384295,-0.035123788,0.10735818,-0.018334739,0.12418848,0.13034931
0.15820073,0.15294412,-0.0020356164,0.17052558,0.079857625,0.07517489,0.10038972,0.068403006,-0.046898983,0.1766039,0.22864163,0.015000422,0.047260307,0.15358678,0.24234855,-0.02316551,0.1339114,0.036364354,0.0019277117,0.13364445,-0.019028937,-0.10070772,0.07145667,0.030811219,-0.010214343,0.19818537,-0.018065657,0.24300516,0.11821605,0.118711405,0.010982315,0.041621264,0.14858389,-0.14002712,-0.029174572,-0.06990413,0.2750226,0.14879076,0.028613122,0.18430638,0.055078965,0.17771842,-0.06103592,-0.017376877,0.2845246,0.2177449,0.06369385,0.12024404,0.21030511,0.1365121,0.26976845,0.16523267,0.10042218,0.10133386,0.06056462,0.2156214,0.006717921,0.22948872,0.3153094,0.13227186,0.20238155,-0.037719835,-0.0010873968,-0.014396443,-0.15992126,0.17118162,0.09420368,-0.033792578,-0.13347375,0.022651482,-0.12184608,0.07411587,0.08213626,0.025930488,-0.0042269006,0.14899307,-0.086534485,-0.0793826,-0.23594348,-0.16344136,-0.07672463,-0.16512266,-0.0406138,-0.1030312,-0.07433043,-0.037872415,0.02986465,-0.105480745,-0.014336761,0.046524633,0.17243895,-0.06935849,-0.054951414,0.0913014,0.3955221,-0.06328716,0.0781222,0.05265631,0.081826545,0.19788246,-0.31510654,0.019421699,-0.19561295,-0.12463629,0.39868984,-0.014812128,-0.11354052,-0.14553241,-0.07450544,0.096752666,-0.21260205,-0.17760369,-0.0072963187,-0.18679178,-0.12803507,-0.048030555,-0.21830562,0.03195012,-0.04155501,-0.0058166436,0.2604929,-0.1643694,-0.19037743,-0.17432658,-0.019688271,0.12823029,-0.08868181,-0.27453813,-0.049326316,-0.11066919,0.056535702,-0.07799658,-0.072935686,-0.06333747,0.013430643,0.03833971,-0.28502288,-0.10865068,-0.0555702,-0.034752864,-0.07481683,-0.035912264,0.106877774,-0.044673786,0.09604691,0.04242364,-0.0178008,0.052671388,-0.11764922,-0.01082625,0.0063827103,0.020231813,-0.11507647,-0.010272093,0.060383316,0.07946701,0.038193554,0.17500053,-0.035709746,0.009608248,-0.017179199,0.10622699,-0.12983523,0.15244101,0.03236368,0.07390677,0.016468842,-0.053450633,-0.12519749,0.040266752,-0.0075788028,0.04554204,-0.06968071,0.03148104,-0.0008754367,0.05851134,0.0071902378,0.07434526,-0.066367246,0.14632349,-0.15413825,0.06314951,0.07378504,0.099126376,-0.15638992,-0.026016764,0.0044660647,0.05411442,-0.039441533,-0.14126718,0.01659584,-0.059835736,-0.11296851,0.111231506,0.08916482,-0.08097269,0.057066895,-0.056414656,0.035060726,0.0046368223,0.06329172,-0.00639687,0.13993119,0.066242106,0.098106235,-0.05011955,-0.13143042,0.12242791,-0.055619173,-0.13402377,0.07547369,0.06578109,0.04240986,-0.02197436,-0.05861236,-0.12771058,0.011395574,0.0321199,0.09772668,0.1531388,-0.07568202,0.21611695,-0.08913692,-0.10685088,-0.03241686,-0.010979263,-0.08964642,0.09740264,-0.09840159,-0.029358763,-0.09835621,0.05492232,0.11627227,-0.13620348,0.06678449,-0.017253505,0.10016278,-0.016206985,-0.1538617,-0.06622791,-0.042823855,0.064226605,-0.11372567,-0.09422728,0.018750153,-0.08402135,-0.098223984,0.101734325,-0.032233402,-0.05546293,0.043763563,-0.04323649,-0.08178698,0.1351406,0.038884502,-0.075708956
0.01803145,-0.10222019,-0.02249448,0.20016623,-0.20048958,-0.060124714,0.06445415,-0.2751933,0.20446545,0.22019155,0.23783053,0.19789554,-0.13239099,-0.0862684,0.111929916,-0.027747188,0.20758122,0.06629797,-0.29369912,0.054862224,0.11608349,0.06636358,-0.17481893,0.148657,-0.31922987,-0.16833812,-0.16197707,0.23451176,0.38388944,0.47563943,-0.0694579,-0.2521775,0.11519261,0.22731933,-0.020107316,-0.089130715,0.18495466,-0.26528683,0.0716151,0.024030903,-0.07908405,-0.16333318,0.20234434,0.0955149,0.09457193,-0.23239894,-0.25609788,0.09461093,-0.06912799,0.36705324,0.016607277,-0.08898826,0.13197364,0.15258582,-0.15346,-0.22178261,-0.097882636,0.0135530885,-0.2521421,-0.122253135,0.08371569,-0.11517334,0.32313886,0.29012135,0.0051014926,0.23350476,-0.034830727,0.4060547,-0.31353626,0.17478502,-0.063131236,0.066133484,0.35802007,-0.18498272,0.033419546,-0.11858584,0.011979387,-0.13923797,-0.37328464,0.024483372,-0.18256065,-0.39269015,0.22297156,-0.14577205,-0.23619993,-0.13005896,-0.015783457,-0.06032493,-0.05172164,-0.036226116,-0.2973389,-0.04216627,-0.14843562,0.22078995,0.06674291,-0.018744608,-0.03301489,-0.16385278,-0.13166784,0.3231447,0.28354913,-0.15867312,-0.44303343,-0.46524942,-0.23717517,-0.26982793,-0.14656217,-0.23773734,-0.043020435,0.22972217,-0.31675383,-0.28416702,-0.16492927,-0.67340845,0.0018123875,0.08840526,-0.03781806,0.067995995,0.053089906,-0.074461855,0.369709,-0.013084189,-0.15212783,-0.20325127,0.2756957,0.16522329,-0.17528442,-0.58589303,-0.0154973315,0.008388336,-0.06446938,-0.21181798,0.047842648,0.016633958,-0.20148233,-0.13487513,-0.3813426,-0.25337288,0.2345365,-0.4717216,-0.18141414,-0.028361123,-0.039456412,0.06387445,-0.3046221,-0.037935004,-0.023256851,0.23097807,-0.1521749,-0.09396174,-0.28581834,0.42800614,0.096780136,-0.12708193,0.20092322,0.23929873,0.058394417,-0.09066309,0.03499015,-0.17452239,0.05379673,0.08339148,0.27291754,0.18224101,-0.26549545,-0.23462173,-0.24395873,0.23449095,0.08060977,0.24180855,0.2827895,-0.22211316,-0.21495996,0.36355382,-0.23842211,0.17900933,-0.062830344,0.10084763,-0.35119623,-0.009810282,-0.11329141,0.13021305,-0.25482464,0.03765752,-0.31564188,-0.15552175,-0.05351337,0.1000594,0.30981594,-0.10932018,0.22488599,-0.17969023,-0.20641512,-0.06336534,0.051104493,0.052850116,-0.07631064,0.026511498,0.12902471,-0.059502564,-0.012329912,-0.029708829,-0.13115518,0.1127226,-0.14000966,-0.11141081,0.18677494,0.08183947,-0.18476048,-0.09057275,-0.2239965,-0.02062801,-0.0008173443,-0.053109944,0.26764894,0.18028909,-0.008274418,0.17628165,-0.22877458,0.1305252,-0.11002929,0.23156504,0.024614388,0.0066472827,-0.11806323,-0.20169246,-0.14768797,0.07179618,0.09601941,-0.27300444,-0.09467718,0.1772691,-0.17878525,0.0021692696,-0.016918628,0.12948802,-0.23158115,-0.13162667,-0.19641271,-0.11801326,0.061102737,-0.11878892,0.1458309,-0.2345489,0.24230888,-0.1080321,0.15447392,-0.13871512,0.07294284,-0.107422,-0.4071941,-0.06065667,0.012725004,-0.14890885,-0.1333105,-0.16182095
0.30773124,0.28953245,0.14608324,0.12351617,0.3732946,0.024509056,0.119258955,0.02532864,0.39865884,0.09399805,-0.10040835,0.034673695,0.23232263,0.12994175,0.021581288,0.017966181,0.26493794,0.34598288,0.38323092,0.3242595,0.016094375,0.31089962,0.15897346,0.14484467,0.01906488,0.086473264,0.22363299,0.12732027,-0.28021437,0.57111675,-0.10058928,0.02289141,-0.04731141,0.24262065,0.22573306,0.11263084,0.31364584,-0.10592704,0.3826054,0.25997302,0.0044634407,0.15911575,0.1796839,0.2683681,-0.16379438,0.1885945,0.32430148,0.08953534,0.5765874,0.12356685,0.30273092,0.40181652,0.02117158,0.25868493,0.00754211,-0.06957104,0.25333378,0.083851464,0.19755256,0.2906765,-0.12399067,0.09985596,0.05994777,0.19136319,0.1017854,-0.038396154,-0.17310719,-0.09578949,0.07830736,0.20005658,-0.14300765,-0.29459712,0.2525117,-0.072067276,0.046365004,-0.058571607,-0.0758283,0.0007165213,-0.1109424,-0.13091452,-0.310692,0.06069806,-0.030196497,-0.0034704271,-0.2859491,-0.2511277,-0.205578,-0.11848442,-0.3305055,-0.19081971,0.0039544776,-0.08007961,-0.2835903,0.21337317,-0.08174899,-0.2553479,-0.14442275,-0.23516096,-0.18429254,0.20861137,0.12060078,-0.012125679,-0.024648316,-0.13696238,-0.1884692,0.0043483227,-0.083472766,0.024622949,-0.07733129,-0.24349292,-0.028891988,-0.20837641,0.1830761,-0.27658924,0.13484973,0.063305445,-0.18606433,-0.30443814,-0.21652356,-0.2061819,0.05924949,-0.03310245,0.12973309,-0.37359452,-0.13384253,0.12528414,0.0044858833,-0.5712459,0.1886085,-0.10745848,0.3003522,0.16232838,0.02675297,-0.05439059,0.06883958,0.06489018,-0.19929333,0.16074488,-0.033218756,0.046227086,0.25722322,0.004097071,0.18945245,-0.0044865157,0.45609945,0.11794001,0.19067208,-0.32384998,0.21731007,0.25393334,0.08837471,-0.064304225,-0.19786245,0.21147244,-0.12807973,-0.1522553,-0.23499875,0.014752997,-0.25421643,0.15979595,-0.12175623,-0.16729808,-0.18361254,0.022326678,0.11092186,-0.17906393,0.0704003,0.10274703,0.1260018,-0.21434593,-0.22719876,0.040390726,0.34801725,-0.056723487,0.11600094,0.088526145,0.24334845,-0.028035404,-0.020571193,-0.16257243,0.11607223,-0.4183692,0.12124077,-0.0840283,0.16172351,-0.13823624,0.19465747,-0.31729075,0.17587061,-0.05333224,0.024016164,0.32333308,0.14479488,-0.15098716,-0.13593546,0.022552708,0.28512684,0.07467666,0.008454676,0.060557805,0.33871627,-0.11732907,-0.027310839,-0.1625709,-0.08982024,0.024790237,-0.14415652,-0.12526837,-0.0010224356,-0.006677515,0.039195657,0.14302163,-0.049583655,0.17427313,-0.11118031,0.11555525,0.002594921,0.07237714,-0.07603272,0.11059727,-0.08251287,-0.088762976,-0.08730744,-0.23663165,-0.021163896,0.24540088,0.010102783,0.0005480198,-0.10191212,-0.053741656,0.27182254,-0.06800891,-0.45602587,0.047547776,-0.10630128,-0.03261596,-0.1516564,-0.04389844,0.12913112,-0.181776,-0.00094575714,-0.13267413,-0.015657198,0.22225526,-0.11962123,0.024674589,-0.17685498,-0.093894385,-0.25018275,-0.12299068,0.51986533,-0.013908012,-0.07922512,0.030921042,-0.0795234,0.07362544
-0.0777235,-0.44317853,-0.1709919,-0.12594013,-0.14152975,-0.038647655,-0.13340014,0.11267074,-0.6606703,-0.17170782,-0.31347027,-0.16119847,-0.264125,0.07063645,-0.048725605,-0.007677,-0.023282716,-0.08075614,0.10803533,0.0447987,-0.051184595,0.09003773,0.13481636,0.039548695,0.09852077,-0.022963572,0.27603412,0.1546485,-0.13230065,-0.42088753,-0.12609877,0.07689836,-0.034398958,0.017589591,-0.1830281,-0.034474704,-0.14073604,-0.018687036,-0.035186138,-0.016392665,-0.18829831,-0.062736325,-0.119815335,-0.045696907,-0.46249974,-0.10435515,-0.2586753,-0.28748536,0.18579903,-0.059942182,-0.38724208,-0.4652419,-0.18769647,0.07625755,-0.20653647,-0.13192813,-0.3106544,-0.3310185,-0.15393537,-0.28866798,-0.3278707,-0.46677577,-0.14911245,0.091857634,-0.10269056,0.06389913,-0.4035784,0.17635703,-0.3350949,-0.23780006,0.061553996,0.20122659,0.018514488,-0.19560282,0.17550212,-0.15115854,-0.06296525,-0.22248618,0.10442217,0.14862423,0.043911744,-0.57445276,-0.01979046,-0.30179867,-0.3982564,-0.24602526,-0.21280636,-0.3985217,-0.5311243,0.16596712,-0.696974,-0.15977496,-0.458911,-0.18717605,-0.004959197,0.003832868,0.14061396,-0.34992084,-0.09974988,0.020752078,-0.14938062,-0.23698825,-0.07077917,-0.4735578,-0.5665404,-0.07932162,-0.56003815,-0.13733812,-0.10265789,-0.15451187,-0.2536648,0.29178593,-0.34384745,-0.3903157,-0.20036437,-0.05230179,-0.13381182,-0.10827822,-0.14137226,-0.03918431,-0.032475427,0.052045677,0.24761178,-0.37861475,-0.07904959,0.11298998,-0.40040615,-0.2214989,0.009875508,0.092331804,0.044623252,0.09122761,-0.11197091,0.048528023,-0.065383986,0.03351865,0.13149028,0.12562573,-0.040907785,-0.035851173,0.025247898,0.11495303,-0.07527707,-0.04804778,-0.10416201,0.06905125,-0.061070483,0.13957123,-0.06334337,0.00020446676,0.062107027,0.06237441,0.20469262,-0.041843493,0.033828642,-0.03144747,-0.00828612,-0.08382661,0.04119184,-0.072702594,-0.082120664,-0.0027463203,-0.08675055,-0.09224736,-0.13619263,-0.15200143,0.027080534,-0.020784197,0.08091326,-0.03969473,0.038106386,-0.07399187,0.01701161,0.04455766,-0.029615523,0.17417303,-0.110331014,0.015582391,-0.09818886,-0.14681917,0.19906704,0.16599739,0.090945974,-0.09318448,0.042221513,-0.027162578,-0.095630206,0.011331214,-0.04179718,0.07194872,-0.045970447,0.10781409,0.13439028,-0.053868946,-0.15755111,-0.10748232,-0.095665015,0.23406869,0.07017638,0.025397845,-0.051382102,-0.20170051,-0.045421034,0.05232686,-0.017710645,0.0075526345,0.19383505,-0.06950939,-0.15141074,-0.17638724,-0.039626494,0.08248716,-0.062446564,0.03428603,0.16969457,-0.018409984,0.0970338,0.060794525,0.03856187,-0.09128925,-0.41316843,-0.3232276,0.16312236,0.06917472,0.07653806,-0.03534925,0.08257453,-0.16376488,0.040811814,0.11914491,-0.045082998,-0.081045434,-0.4227666,-0.13549316,-0.055299137,-0.038322266,-0.02985336,0.101740174,-0.08885102,0.04566801,0.09096843,-0.25120237,-0.027881693,-0.16549958,-0.21813922,-0.05703606,0.22583534,-0.09924568,0.050602414,-0.11456129,-0.04787249,-0.26906458,-0.021201644,-0.13424063,-0.1647551,-0.19211952
-0.33995885,-0.3800933,0.025224624,-0.558981,0.003106654,-0.15079297,-0.12103179,-0.23864318,-1.2372277,-0.46042174,-0.30022073,-0.114662535,-0.34169665,-0.30351132,-0.09868437,-0.3388986,-0.2768654,-0.31527057,-0.10960882,-0.2707208,-0.50781524,-0.20568553,0.039533675,-0.36632347,0.016195584,0.02048233,-0.06709813,-0.458188,-0.47062647,-0.29251322,-0.35159615,0.049634278,-0.32290348,-0.31849048,-0.1652791,0.002280483,-0.58749145,-0.25476387,-0.3251603,-0.18460733,-0.105850965,-0.040703125,-0.082267635,-0.1029278,-0.06610029,0.022245837,0.011625735,-0.49728867,0.01748549,-0.36883116,-0.12809514,-0.1484485,-0.3310794,-0.21509258,-0.052291904,-0.07357488,-0.2348469,-0.20494147,-0.3294838,-0.1372163,-0.3527634,-0.15980045,-0.4794562,-0.6353717,-0.09766652,-0.12370718,0.0019440076,-0.3004827,-0.19990207,-0.3572321,-0.03115059,-0.09616515,-0.51480305,0.021948084,0.06763118,0.16313313,0.035997346,-0.24179137,0.32663697,-0.0063236128,-0.06889446,-0.11068988,-0.40633455,-0.22193083,-0.2193149,-0.28447002,-0.19923846,-0.15238522,-0.08051557,-0.084877394,-0.08036034,-0.035943948,0.14339219,-0.09365703,-0.099863105,-0.18127906,0.022313045,-0.3226466,-0.4059956,-0.046540048,-0.25190815,-0.047665894,0.081729084,0.06061045,-0.28541756,-0.069473326,-0.12231197,-0.11856117,0.08999158,-0.3393736,-0.23035546,0.07634786,0.18993245,0.026549766,-0.16001453,-0.15875818,0.03443675,-0.07848337,-0.10435384,-0.11893822,-0.2965383,-0.109202646,-0.18271264,-0.072048925,-0.14882258,-0.12467287,-0.039574657,-0.07990718,-0.0341738,0.19637176,0.2635074,-0.0045863963,0.14618856,-0.003787105,-0.06176504,0.06519709,0.21215032,0.18720993,0.021544345,0.2266585,0.23704515,-0.14283274,-0.004566179,0.11176844,0.09264605,-0.20153743,-0.00374395,-0.14266023,0.20021014,-0.062202927,0.18807808,-0.16771124,0.06923452,-0.009001473,-0.07725856,0.04151749,-0.2269346,0.035337728,-0.14631939,0.06167455,-0.15122584,-0.12153692,-0.16988713,0.040764596,0.34401134,0.057004817,0.1377895,-0.18239714,-0.027912615,-0.18984638,0.046989016,0.15881385,-0.08205788,-0.02565078,-0.026477518,-0.028335249,0.11927359,-0.14185658,0.103798494,-0.07396848,0.20320722,0.06743265,0.07088544,-0.120992,-0.010471354,-0.06905202,0.20594372,-0.15165685,-0.21307509,-0.087853864,-0.21402578,0.083399996,-0.015411758,0.18558124,0.04378279,-0.23623373,0.24715433,-0.04172145,0.039674107,-0.04395057,-0.3587366,-0.013976341,0.180434,-0.1838585,-0.16786535,0.03094427,0.38599345,-0.002935696,-0.06706502,-0.12503876,-0.17324643,0.047421545,-0.20416228,0.17163038,-0.07927148,-0.1776008,-0.17950532,-0.016861184,0.083642885,-0.21576172,-0.07519375,0.047638338,-0.09128061,0.20596048,-0.005613665,-0.09293246,0.09012456,0.02747703,0.098197,-0.14658037,0.08186322,-0.02302368,-0.06648466,-0.0057708477,0.082628414,-0.042301945,0.24033189,-0.16659896,0.017843552,-0.0027397962,0.22797413,0.012589604,-0.05232223,0.035328727,-0.06883001,0.10958476,0.08441208,0.0029324389,-0.13661616,-0.180932,0.0083858045,0.13391216,-0.14997084,0.06801913,0.020643633,-0.17076632
-0.10524887,-0.2334521,-0.27637547,-0.3270519,-0.3484007,0.090128206,-0.0032314132,-0.11379107,0.26051566,-0.20135705,-0.35556617,-0.15004157,-0.115187936,0.00729798,-0.23680855,-0.12418847,-0.30094114,-0.103583366,-0.30141133,0.16169766,-0.4212545,-0.25630677,-0.1658349,0.056418765,-0.3273632,-0.3052084,-0.2788217,-0.2943247,-0.53215694,-0.27190053,0.11756045,0.05507724,-0.049291417,-0.19507416,-0.33338723,-0.3270305,-0.0880029,-0.14303955,0.0035460421,-0.06572595,-0.046430226,-0.20539777,-0.21270561,0.12250297,-0.17248777,-0.25731745,-0.1812322,-0.15744038,-0.02587508,-0.40451398,-0.17668469,-0.37386018,0.13856664,-0.48544505,-0.3591406,-0.23474526,-0.16346829,-0.503756,0.17999086,0.10040219,-0.19778727,-0.30794403,-0.31883028,-0.1686237,-0.24256827,0.037482277,-0.052600972,0.041767333,0.02300715,-0.047789402,-0.1591923,0.09689185,0.1758581,-0.028771061,-0.10404514,-0.06749039,-0.04670946,-0.1911766,-0.37295157,-0.27172643,-0.2512021,-0.23079388,0.20271556,0.021092897,0.022310615,-0.1452497,0.08296575,-0.012940888,-0.22665429,0.060321245,-0.052642044,-0.090107195,-0.2799751,0.1505069,-0.02732535,0.08070315,-0.0071876235,-0.081225924,0.12806372,-0.2972519,-0.072309464,0.13437974,-0.2034782,-0.28348455,0.20740592,-0.09964938,-0.072216585,0.11368665,-0.105270095,-0.045472715,-0.17163908,-0.24324377,-0.4126698,-0.2497163,0.07313777,-0.03850271,-0.21996467,0.05298107,-0.26807475,-0.018467156,-0.06558918,-0.25416917,-0.2553089,-0.009411414,0.071614794,0.044152822,0.023797924,-0.45331836,-0.068556316,-0.219314,-0.24013117,0.023499494,-0.083255775,-0.14023039,-0.09810273,0.1550731,-0.18711664,-0.049423106,0.06523263,-0.05989048,-0.10977352,0.03070359,-0.007478974,0.07371945,0.11287067,0.15557057,-0.06738948,0.13680032,0.1278331,-0.08719652,-0.29345772,0.11828611,0.02152652,0.08163201,-0.045546204,-0.018988837,-0.09389393,0.095363885,0.18825433,0.069614746,0.020584261,0.15990865,-0.1017459,0.22969729,-0.123819605,-0.05749524,-0.1215831,0.02683798,-0.09682957,0.09467508,-0.05602554,-0.3022224,-0.09355325,-0.02445553,0.07370784,0.106090926,-0.099048786,0.067041986,-0.19954719,0.07567508,-0.23901854,-0.065024994,-0.024772791,0.006859857,-0.03137998,0.029439542,0.04190815,0.119645506,0.09466368,-0.07274144,0.03932843,-0.0041695395,-0.04143497,0.0554108,-0.020789042,-0.049759027,-0.00618626,0.24196179,0.165424,0.021289494,0.3860416,-0.019001478,-0.15728053,-0.114486724,-0.1142144,0.0066076834,0.003140368,-0.021480104,-0.1650125,0.0011862965,-0.106963426,0.24617262,-0.110635325,0.17106076,0.08041414,0.23450802,-0.088213116,-0.12859495,0.0373304,-0.08291532,-0.2449803,-0.54991794,-0.19779831,-0.01661176,0.06456288,-0.23492073,0.02727077,0.08627937,0.072312355,-0.1438607,0.060101617,-0.018616848,0.12467776,0.116207026,0.04140071,0.19283344,-0.04773974,-0.22936615,-0.06641212,-0.26207772,0.12726025,-0.06718082,0.025336158,0.022748312,0.16081615,-0.09708298,-0.15437101,0.15402672,0.031234551,-0.34238765,-0.014193927,-0.009696743,-0.12938686,-0.04766563,-0.029944874,-0.13871084
0.24558531,0.52640986,-0.009863154,-0.010726469,0.04647492,0.1904152,-0.16920775,-0.00596975,0.25046757,0.09357223,-0.18422456,-0.26013482,0.19536802,-0.045585364,-0.06510689,0.13767263,-0.06425313,0.11825936,0.30117396,-0.033756718,0.0845326,0.049669486,0.0015173228,-0.035787567,0.13300245,-0.08500677,-0.23667683,-0.07302203,-0.105949156,-0.2686816,-0.21645494,-0.08393534,0.18773681,-0.08215271,0.056052864,0.11725791,0.048008222,0.26673934,-0.04663639,-0.05609574,0.1683851,-0.07114957,0.3673251,0.056699127,-0.066982895,0.12996912,0.010802738,-0.09707041,0.09318141,-0.27053666,0.018718718,0.21937127,0.03300695,0.18343823,0.06555335,0.023994988,0.044239912,-0.2871454,-0.13376783,0.13254909,-0.15709305,0.3170388,-0.2738985,-0.0672531,0.065121315,-0.06913805,-0.05262527,-0.08103593,0.015573408,-0.056719854,-0.0684587,0.0082643265,-0.5491874,-0.030592378,0.31185865,-0.16794936,0.13911884,0.02445383,0.1213227,0.043023992,0.24004735,0.3133111,-0.005127764,-0.0032381534,0.21363327,0.12191591,-0.023270935,-0.122568525,-0.034093674,-0.013403822,-0.044448763,0.11386502,0.08568492,-0.16815001,-0.00323177,-0.0846823,-0.030512007,0.13619968,0.2501507,-0.27293932,0.085883155,-0.07993805,0.085119076,0.42370015,0.055521347,0.07497017,-0.07390211,0.1607704,0.053049367,-0.18909249,0.24007581,-0.035771515,0.27589306,0.4578874,-0.2427707,-0.17821684,0.31179127,0.08804345,0.105742745,-0.008838111,-0.09783972,-0.12615281,0.14013772,0.22199002,-0.10326409,-0.23448722,-0.036074735,0.33013088,0.0735015,-0.04215118,0.2390413,0.16125366,0.17302965,-0.11344911,0.2683508,0.22908826,0.12766889,0.2370561,-0.44962052,0.23601946,0.23631382,0.012212269,0.14727886,0.17123558,0.033944484,-0.13298126,0.108025864,-0.0051275585,0.15172471,0.12762602,0.22807296,-0.3848199,-0.13118765,0.3003596,-0.2888617,-0.20009407,-0.112971574,-0.14350706,-0.16322394,0.1731731,-0.14411864,-0.14214502,-0.096325554,-0.2522852,0.1566775,0.25988364,0.14703827,-0.18986177,0.52453494,-0.06732711,-0.009021266,0.017571677,0.31169555,-0.13545392,0.111718975,-0.27529114,0.08073038,-0.22486944,0.32305843,-0.18057592,0.23983546,0.058426138,0.082803145,-0.19406308,0.27986753,0.2716052,0.14347713,-0.023919519,-0.08997283,0.4112868,-0.08849909,0.11192845,-0.16289577,0.22097364,-0.045294847,0.012250924,0.13826272,0.03737678,-0.16924226,0.27311683,-0.20261155,0.12234918,0.15428805,-0.027600013,0.07611568,-0.27510896,-0.1401848,-0.12830833,-0.087559894,0.15703703,0.20362973,-0.14642133,0.11089097,0.073699445,-0.1262405,-0.17023107,-0.09102084,0.12469559,-0.012400225,0.17106153,0.20081088,0.16248801,-0.14019054,-0.046000995,0.034307864,0.0027757117,-0.021259626,-0.12707831,0.09438185,0.18705687,0.022671754,0.009596532,0.03710248,0.053201895,-0.0046370034,-0.077277906,0.16955024,-0.05658738,0.05678942,0.27136704,-0.18226969,0.053856943,0.053558625,0.16407648,0.24602477,0.19572327,-0.023339545,0.16236816,-0.021848034,-0.07291675,-0.11305816,0.040344805,-0.06332185,0.032038033,0.13187383,0.11699628
0.123971455,-0.13847172,-0.6353232,-0.11258058,-0.11448922,0.028385853,-0.16339254,-0.007459233,-0.44879603,-0.2948516,-0.05283013,-0.31255564,-0.037400294,-0.049511388,0.04341114,-0.08995692,-0.033646714,0.073222846,-0.07392692,-0.04376889,-0.17717344,0.030305075,-0.2036559,-0.15415256,-0.23339644,-0.1586669,-0.6278176,-0.21217628,-0.22276585,-0.71648973,-0.05752961,0.027818326,-0.04177488,-0.37853807,-0.06911688,-0.2880974,-0.10107439,-0.13033997,-0.041084893,-0.32411867,-0.57461035,0.01196434,-0.09997167,0.17974122,-0.1956069,-0.19334608,0.0026544458,-0.13915443,-0.24723145,-0.09349998,-0.013667446,-0.084550925,-0.0892315,-0.0526419,-0.04486419,-0.099373296,-0.28234923,-0.1650357,0.13182998,0.17164153,0.11346853,-0.2675266,0.095027156,-0.048936363,-0.26649773,0.16442175,-0.14246017,-0.27956036,0.047982726,0.15197268,0.023524301,-0.17771253,-0.16430874,-0.049500123,-0.5041754,-0.26261607,-0.13497236,-0.06843046,-0.55740356,-0.14555569,-0.08256673,-0.037373185,-0.061928727,0.12375443,0.05939458,-0.04732572,-0.17406715,-0.24128146,-0.010634609,-0.16798295,-0.14985517,-0.013275546,-0.44607434,-0.1742123,0.113913655,-0.22781363,-0.0066089565,-0.17124435,0.2599398,-0.37440655,-0.20396475,0.047133345,-0.3527484,-0.09276811,0.29895896,-0.09420406,-0.2532376,-0.11452332,0.032326818,-0.20912465,0.0010155685,-0.10413902,-0.35182434,-0.3329203,-0.6404604,-0.04549857,-0.38009533,-0.15232468,-0.1331309,0.26385343,0.08842205,-0.6061839,-0.15171061,0.058025494,-0.12005713,0.08556461,-0.41909373,-0.35938954,-0.13504812,-0.21272752,-0.32371745,0.019451737,0.09638392,-0.09244067,-0.2942216,-0.20251049,-0.32598594,-0.41206443,0.3749977,-0.47643974,-0.30228084,0.07309,-0.12509371,0.084102616,-0.017662397,0.050263934,-0.07107697,0.22171311,0.088780105,0.23697194,-0.28236774,-0.081488624,0.099943206,-0.16323027,0.6067299,0.19634698,0.46145815,0.5493937,0.07537473,-0.23716702,-0.05506959,0.15539189,0.016570793,0.4245299,-0.31266978,-0.03337699,0.005518592,0.04751982,-0.26688114,-0.08700778,0.038217608,-0.16995673,0.017843338,0.24270742,0.13313203,0.172412,-0.119369194,0.06649109,-0.23375025,0.05542051,-0.21918117,0.18676433,0.0031677561,-0.0078619225,-0.42926836,-0.51295006,-0.15455607,0.15881762,0.13731141,-0.0990002,0.3186945,-0.33578494,-0.21361858,-0.018543998,-0.014073633,-0.013593316,0.044617835,0.006460711,0.044061635,0.104992166,-0.4319664,0.0817511,-0.056756653,-0.08250281,0.06729799,0.07700709,-0.09134049,-0.07517876,0.08209104,0.0070569115,0.118056946,-0.055149686,-0.08186623,0.0033694615,-0.057363056,0.113179736,-0.029084295,-0.07157449,0.1700032,0.08895645,0.063661344,-0.19930847,0.05635119,0.011790813,-0.16952646,0.13537247,0.12267029,-0.1704118,-0.09138951,-0.09181619,-0.22952022,-0.030213136,-0.10951235,0.15911245,0.25148848,0.04990609,-0.16013755,0.13646856,-0.08002942,-0.16974953,0.11900298,0.111087866,-0.067633934,0.045204457,-0.008454047,0.21832198,0.051537555,0.113763474,-0.051169302,0.017054839,-0.028908586,0.061960783,0.06410187,-0.06812252,0.10188471,-0.023509977
-0.16469623,-0.39752468,-0.20013389,-0.3577069,-0.22312208,-0.3895658,-0.30535343,-0.06498608,-0.07103351,-0.3281858,-0.12513617,-0.4529702,-0.08230768,-0.053297132,-0.097229324,-0.34866446,-0.23517385,0.0039798883,-0.2872096,-0.07209021,-0.19131364,-0.2205887,-0.56016004,0.05933944,-0.14919366,-0.12090263,-0.14381126,-0.15770192,-0.34873205,-0.24422781,-0.14374465,-0.16729262,-0.22779238,-0.27598506,-0.30839303,-0.5644989,-0.27386037,-0.16926867,-0.0047233184,-0.08830889,-0.35517484,-0.25154132,-0.068754785,-0.17119081,-0.36526465,-0.2664024,0.036098056,-0.16830237,0.10344438,-0.12263838,-0.20444587,-0.3607366,-0.030710652,-0.18178849,-0.22205049,-0.21947907,-0.31620282,-0.3036272,-0.2186673,-0.20846775,-0.30345336,-0.44198725,-0.081197135,0.15208693,-0.22837175,0.16644295,-0.03656923,0.14227587,0.17886674,0.14573167,0.029313317,0.29140896,0.33706906,0.120085135,0.15232134,0.13710605,0.120576635,-0.32377306,-0.22836274,-0.043438382,0.038462605,-0.23511004,-0.071226254,-0.28170016,0.039283596,-0.15887535,-0.10143991,-0.18446179,0.079355784,0.059839707,-0.05160089,-0.12695245,-0.18152681,0.234735,0.2914505,-0.034968723,0.20897245,0.089482844,0.19206767,0.051940884,0.3818892,0.22937423,-0.10312664,-0.412433,0.13025445,-0.042987972,-0.010720938,-0.065366395,0.35519594,0.36688375,-0.080831036,0.19340217,-0.2018307,-0.3485028,0.22993548,0.09762329,-0.23920865,0.19269392,0.08169944,0.18407133,0.1665704,0.30831867,0.24212508,-0.12650089,0.23667888,0.056181367,0.10691086,-0.6085913,-0.001556411,0.011142128,-0.07403688,-0.027142638,-0.04782819,-0.049636792,0.038667247,-0.1336592,0.00014163626,0.0033873208,0.12464736,0.032667037,-0.10517446,0.035457414,-0.12752518,-0.11905808,-0.08388749,0.024931788,0.09133383,-0.09674137,-0.13562264,-0.030780554,-0.09927247,0.12871975,0.036647767,-0.03643419,0.08150383,-0.05737091,0.23318367,0.068681166,0.04068012,-0.08401483,-0.10447651,0.0642748,-0.08477174,-0.053056374,-0.029929196,0.02787661,0.08724377,0.024281878,-0.095328964,-0.088385925,-0.036448397,-0.0049686027,-0.09874093,0.1661121,-0.14317402,0.068403035,-0.0290191,0.14141744,-0.1754567,0.083245255,-0.10053397,0.0004379038,-0.031169558,0.09731036,-0.16115026,-0.082002066,-0.039309666,-0.015536163,0.018825073,-0.064204656,0.0064088046,-0.14398153,0.08581829,0.13440056,-0.18312111,0.02781022,0.06106899,0.22477031,-0.038839657,0.34132367,0.15477729,0.015703939,-0.19261701,0.016218044,0.10273553,-0.0067139072,-0.06258237,-0.116979964,-0.073294215,0.026830701,0.0016616007,-0.020796178,-0.054256186,0.09969662,0.006014985,0.09607186,0.021808203,0.035723172,-0.2950502,0.021624617,-0.30018052,-0.14643773,0.11486073,0.12250098,0.13839601,0.09395795,-0.061200693,0.1209912,0.023702616,0.15949866,0.050710928,-0.023885127,-0.10081952,0.056740623,-0.02247513,0.16339207,0.05261779,0.19823664,0.08184591,-0.13165408,0.0027149152,-0.0690338,-0.06711904,-0.15633616,-0.33661938,0.012823569,0.07966712,0.054960128,0.10272761,0.10497571,0.22462209,0.11308094,0.022384038,0.10448511,-0.016672643,-0.05235273
-0.2604096,-0.6699652,-0.33256334,-0.40026563,-0.2326524,-0.3981038,-0.17860459,-0.43410876,-0.4498599,-0.44489935,-0.14905831,-0.25819755,-0.3045195,-0.27256474,-0.12019386,-0.26936674,-0.5870173,-0.31433627,-0.42359018,-0.36400327,-0.49245304,-0.4483541,-0.0830297,-0.22934192,-0.30761966,-0.15916559,-0.45141822,-0.044280797,-0.7836993,-0.63992006,-0.32943627,-0.09117263,-0.19621241,-0.5622991,-0.37934095,-0.25145677,-0.48172754,-0.13288699,-0.32530415,0.13189664,-0.075380065,-0.45876464,-0.34431115,-0.39164716,-0.3323439,-0.21918109,-0.1385089,-0.37257805,-0.16830976,-0.6471749,-0.20489779,-0.48476496,-0.095493436,-0.70630234,-0.5851202,-0.20540418,-0.011575971,-0.5768742,-0.16031672,-0.40354556,-0.29473493,-0.009538544,-0.7158148,-0.6879494,-0.5655084,-0.6623475,-0.22341414,-0.9042309,-0.1871641,-0.41888118,-0.12539564,-0.19071242,-0.4545502,-0.22574666,-0.117012985,-0.19361833,-0.7694851,-0.5430979,-0.4723517,-0.70741254,-0.8383043,-0.6595965,-0.6748406,-0.40185967,-0.2464977,-0.56841683,-0.034888748,-0.44462353,-0.36824983,-0.13021828,-0.16362977,-0.16857463,-0.45814767,-0.25320616,-0.7340859,-0.08646432,-0.49233922,-0.43650112,-0.554042,-0.4909933,-0.58255726,-0.28406066,-0.89589024,-0.2969482,-0.00872643,-0.43059134,-0.7529559,-0.83687377,-0.27522796,-0.4091856,-0.4189912,-0.5413089,-0.52674747,-0.792034,-0.3903426,-0.5703867,-0.6887153,-0.513241,-0.36988038,-0.16211204,-0.14190316,-0.24594611,-0.6972838,-0.7673423,-0.3572215,-0.5546626,-0.1891024,-0.71253955,-0.14435783,-0.04259272,-0.22706044,-0.12839271,-0.07197173,0.22737467,-0.022514889,-0.13854459,0.20547745,0.009176965,0.0047799,-0.16586737,-0.14726892,0.35270092,-0.23502558,-0.18964846,-0.14395237,0.110734,-0.09296151,0.20772125,-0.04809884,-0.28226835,-0.082019925,0.18565004,0.19063526,-0.124099955,0.19637921,0.09906567,-0.011326472,0.19696364,0.1885383,-0.22615647,0.14386925,0.113146745,0.19749491,0.23819488,-0.14500365,-0.17858641,-0.12857652,-0.004663153,-0.26212814,0.24344961,0.1731402,-0.21258253,-0.08163811,0.24460115,-0.14998843,0.16474815,-0.122116216,0.12831235,-0.11404147,0.14717491,-0.06375103,0.19557036,-0.037024755,0.16266128,-0.18185045,-0.023041654,-0.17723468,0.04864443,0.2394508,-0.14577305,0.051262256,-0.116605364,-0.0397665,0.07025199,-0.20042636,-0.026712539,-0.014955355,-0.17486985,0.068041556,0.04484567,-0.039794434,0.101140946,0.13644145,-0.34947935,-0.0011206542,-0.23596585,-0.05648619,0.15902688,-0.1525663,-0.1807761,-0.18974605,-0.06892387,0.0768899,-0.01573222,-0.30072817,0.066424064,-0.05670911,0.15275347,0.09419387,0.17921813,0.097540565,-0.24169338,-0.19630475,-0.096587375,0.030540697,0.1136908,-0.27377513,-0.18568985,-0.108531855,0.13802695,0.17208377,0.07407483,-0.021006629,-0.0924287,0.026510872,-0.1714306,-0.15918513,0.07407989,-0.06999634,-0.13019939,-0.05915744,-0.27496284,0.245571,-0.14735009,0.04591235,-0.17693178,-0.26276204,-0.14770661,-0.055075914,0.29495463,0.0043358062,-0.18299276,-0.06888256,0.101549864,0.12577502,-0.01202575
0.051827192,0.29369467,0.13975626,0.47543874,0.1315891,0.35939625,0.14107338,0.16769123,0.12721954,0.17265506,-0.17112428,0.26363304,0.18787229,0.21588576,0.22092055,0.18359216,0.19137897,-0.13966382,0.10079712,-0.037539084,0.13673836,0.08706941,0.39120013,-0.14061515,0.22311227,0.15319267,0.33534032,-0.0825204,-0.032940473,0.1703009,0.1932467,0.24550647,0.18716635,0.030064186,0.40278864,0.32481563,0.13766755,0.047940437,-0.055403195,-0.09689846,0.056136936,0.027415903,0.030629337,0.021226931,0.26178026,0.26374623,-0.053578667,0.23283613,-0.046357285,-0.16802748,0.31399083,0.46192503,-0.04541442,0.34068006,0.11286745,0.20618714,0.3109507,0.24265863,0.17627633,0.1388758,0.20408879,0.33101085,0.04798827,-0.171984,0.10236922,-0.24328983,-0.020283788,-0.06355606,0.040558804,-0.04564865,-0.22610345,-0.12740919,0.085873336,0.15010096,-0.04005013,-0.29298934,-0.0782507,0.30796584,0.26416114,-0.07847291,-0.17822915,0.31131545,0.08427986,0.17325899,0.044016752,0.05661478,-0.10309284,0.2667707,0.10021979,-0.10644782,0.18553266,-0.047429577,0.2358855,-0.21349159,-0.120294094,-0.09468405,-0.052860588,0.031661086,0.009875159,-0.2598289,-0.108397864,-0.16242203,0.42218244,0.523638,0.07453038,0.08245256,0.14635764,-0.12121993,-0.08947933,-0.15933499,0.18258426,-0.24627346,0.43621823,0.61216134,-0.22261581,-0.2604036,0.19420809,-0.014725805,-0.20231202,-0.08720989,-0.036549795,-0.33795136,0.00053701916,-0.09554086,-0.2952806,-0.23107624,0.011949379,0.63888067,0.03171296,0.077340625,0.074656144,-0.048005138,-0.057874553,-0.0031385282,-0.10274516,0.006155854,0.03087867,0.28103736,-0.22237477,0.14054179,0.0038795613,-0.12628119,0.13986701,0.11905888,0.09460202,0.062119417,0.06313637,-0.0015036524,-0.04349655,-0.11313469,0.18792646,-0.114065506,-0.011333919,0.019970411,-0.268644,-0.08430264,-0.20198597,-0.254803,-0.0006160518,-0.07621641,-0.04743837,-0.03785016,-0.0010889915,-0.047343615,0.11532322,-0.055785887,-0.004219457,-0.20333941,0.23775594,0.046757516,-0.078422144,-0.025278317,0.090358704,-0.03917099,0.17639932,-0.028846128,0.012769066,-0.22894657,0.115510516,-0.109608255,0.09190546,0.027942656,0.046590876,-0.12502363,0.03847615,0.07470023,0.020849535,0.08257848,-0.10205262,0.043076444,-0.09811137,0.018153079,-0.010951878,-0.13360587,-0.07404148,0.14167958,-0.03416605,-0.22069018,-0.06644699,0.022275472,-0.06646661,0.22406538,0.0945612,-0.031088432,0.05688604,0.06892955,0.20746613,0.20779018,0.1365379,0.09188698,-0.03473182,-0.051333107,-0.06487998,0.034699418,-0.033724934,-0.034839053,-0.054873925,0.0440055,-0.021563817,0.1531937,0.17878254,0.11286349,0.010795308,0.06117857,-0.014592701,0.08513328,0.03341846,-0.040307857,0.012004431,-0.025495289,0.023154762,0.19659479,0.12200911,-1.03662605e-05,0.08603082,-0.025251772,0.033438694,-0.18678325,0.14810859,0.09236748,0.14091176,0.278668,0.12594825,0.09366566,0.0405958,-0.066343315,-0.12529767,0.002909148,0.080703475,0.0078027835,0.006803104,-0.088311225,0.10699808,-0.015273647,0.10594599,-0.040178195
-0.0906319,-0.004170722,-0.03677955,-0.12035005,-0.25768125,-0.2097584,-0.100170165,-0.019647142,0.22565952,-0.20332883,-0.16705921,-0.2374851,-0.24180233,-0.120770104,-0.2140207,-0.15525045,-0.17809565,-0.25384483,-0.14533265,-0.089516975,-0.10732796,-0.20476934,-0.051147573,-0.09935001,-0.15750088,-0.37347966,-0.070298664,-0.0956839,-0.12165112,-0.11022942,0.20745248,-0.124769606,-0.092894785,-0.06569029,-0.0029947252,-0.18141884,-0.17907062,-0.12211587,-0.18198216,-0.10574693,-0.2676951,-0.0278962,-0.3249036,-0.20242396,-0.20776045,-0.031861566,0.0072661038,-0.14656897,-0.44553912,-0.22630285,-0.20701744,-0.0962118,-0.12463883,-0.107082374,-0.0035743003,-0.21509713,0.025261583,-0.1512143,-0.2556284,-0.31547463,-0.14212668,-0.13092685,-0.17137136,-0.0952749,0.027682621,0.1861892,-0.30505008,-0.0214244,-0.077226065,-0.25204864,-0.011168068,0.004348915,0.7239021,0.19156167,-0.41359174,-0.053740725,-0.0014537362,-0.044690937,-0.100991815,0.26394203,-0.09066013,0.23803014,-0.19361329,-0.01564498,-0.08083097,-0.28154424,-0.1773544,-0.29841447,-0.24207449,-0.15938653,0.09151096,0.09459749,0.18921098,-0.0054090107,-0.63689005,-0.04426165,-0.048513595,-0.3476058,-0.51726246,-0.15844424,0.18542804,0.09104903,0.23564531,-0.026599836,-0.25788105,-0.15344593,-0.19024998,-0.08706198,-0.09363274,0.04745665,-0.29110637,0.0022720192,-0.118881084,0.037376262,0.097567394,-0.0868194,0.057101406,0.0040809964,0.14506835,0.009535549,-0.104940295,0.032798313,-0.03711747,-0.11884062,-0.016000526,0.06352072,0.113214284,0.004472635,0.061756596,0.11834622,0.12916404,0.037984222,0.08593165,-0.14894168,0.08674051,0.10825617,0.039405424,-0.058658086,-0.015608753,0.024628844,0.15466876,-0.201152,0.21690518,0.019673223,0.2037431,-0.10121378,0.11216847,-0.19741358,0.1984504,0.36984286,0.11772699,-0.32359603,-0.12389497,0.24548793,-0.14389023,-0.13446514,-0.14023863,-0.20227872,-0.056310568,0.08748706,-0.11745457,-0.23580296,-0.09489443,-0.09147251,0.23096652,0.24140033,0.11618868,-0.13493234,0.116909266,-0.04769779,-0.14141934,0.1490379,0.23106562,-0.18777949,0.007192364,-0.20411615,0.029600684,-0.11535805,0.12022839,-0.24436441,0.12305654,-0.366299,0.20560004,-0.109199844,0.098925486,0.25794128,0.0895548,-0.18513587,-0.13557799,0.18590556,-0.2898597,0.23885669,0.10496084,-0.17460257,0.0032399073,0.05220404,-0.08450217,0.039154664,-0.12507871,0.0038269833,-0.051570296,-0.07940755,-0.32079473,-0.08604417,-0.005753804,0.12108178,0.1020686,-0.03793984,-0.05721564,0.09285155,-0.10415574,0.12431018,-0.019038131,-0.18826278,0.019306215,-0.07686439,-0.16972043,0.028821573,-0.09595634,0.05731509,-0.050045386,-0.23999815,0.04252017,0.1742065,0.071273446,0.17633861,0.10608536,0.015396652,0.23211068,-0.04985125,-0.04667303,0.02369905,-0.18503779,0.05727985,-0.21965209,0.025330013,0.062449038,-0.1044852,0.0039461614,-0.021450274,-0.04449007,0.023919053,-0.056414098,0.05887978,0.0737829,0.08322434,0.124356456,-0.056078903,-0.09833743,0.034030125,0.10217756,-0.06286369,-0.0029220805,-0.18342058,0.09708536,-0.11082343
0.10956999,0.6216332,0.28880408,0.5615378,0.15643938,0.31579635,0.35833916,0.56365204,0.56633574,0.37300837,-0.0039704684,0.52267617,0.23386423,-0.026976265,0.047763765,0.44508883,0.5522012,0.1087217,0.458561,0.39162478,0.22306481,0.25130838,0.74587935,0.25162563,0.25481355,0.031308223,0.41877794,0.27585533,0.3786215,0.35984185,0.33183178,0.075308405,0.17577848,0.44132024,0.25625575,0.5719843,0.28872326,0.3489846,0.14456788,0.2564911,0.46998727,0.21266188,0.19451159,0.3189209,0.2531569,0.23957999,0.14352414,0.1884288,0.08282219,0.16930798,0.09062677,0.6166356,0.23605266,0.31489658,0.31020397,0.38504243,0.2931131,0.261546,0.059344288,0.46680602,0.2871096,0.4662388,0.43043846,0.31602612,0.3407179,-0.0740378,0.1571915,-0.11204439,0.015420053,-0.053596515,-0.008924304,0.0019026122,0.017693942,0.07598548,-0.38204175,-0.07847885,-0.16024,-0.05665725,0.021511799,0.235746,-0.16139764,-0.060519848,0.10207832,0.2716653,0.057218287,-0.086335115,0.33580744,0.2888421,-0.18095572,-0.2529624,0.0795743,-0.05662467,0.075610586,-0.18865149,0.12334565,0.20410384,-0.11497443,-0.0065410463,-0.029892148,0.34477353,-0.21165645,-0.016124597,0.0043057417,-0.11645994,0.092466615,-0.09788021,0.09662911,0.059283495,-0.167335,0.015888935,0.21078068,-0.34940124,-0.08960602,0.0011973804,-0.21334572,0.012845577,-0.24606481,-0.32620466,-0.17540245,-0.10715045,-0.12309816,-0.43064567,-0.13032782,-0.028456395,-0.14460503,0.26602712,-0.26839036,0.032494333,0.047009565,0.21524549,0.058881186,0.13227847,0.040635273,-0.05453984,0.13601983,0.056404285,-0.04704375,0.12296734,0.008949944,0.08089665,0.0858003,0.056653757,0.016320106,-0.044704486,-0.009173534,-0.10645499,0.07363258,-0.15122244,0.10506839,0.013450583,-0.030123493,-0.08923313,-0.23201768,0.120466344,-0.080593504,-0.016022386,-0.09791416,-0.16012177,-0.074652284,0.1305483,-0.19153716,0.018179398,-0.055616464,0.099518776,0.044152,0.22028084,0.08811768,-0.09382419,0.079120964,-0.10230472,-0.16004656,0.016359214,0.04743059,-0.15359968,0.149217,-0.025090525,-0.06488449,0.017110605,0.04284258,-0.21203536,0.09339848,0.01383048,0.006700819,-0.06813947,0.15619275,0.009413554,0.05667049,-0.07210491,-0.14503536,0.08554572,-0.056702383,-0.046767067,0.15178303,0.03312725,0.103381254,-0.025728466,-0.10641018,0.040325746,0.06742192,-0.056730162,-0.09993634,-0.19844773,-0.08043492,0.12294468,0.16330479,-0.22709589,-0.16222855,-0.17765284,-0.16070153,-0.05875413,-0.0006241234,0.07171986,-0.062123396,-0.14329886,0.051875338,0.06121383,-0.16939676,-0.1299856,-0.19655608,-0.021878878,0.046339363,-0.049779363,0.3951392,-0.16119671,0.11622883,-0.13072811,-0.19260384,0.07820606,0.011091154,-0.07491852,0.069097586,-0.04412182,0.17207505,0.14310424,-0.08532618,-0.11994137,0.04525707,-0.12582652,-0.119485736,-0.10196423,0.005410738,-0.09860978,-0.07056124,0.13385901,0.002558745,-0.15623164,0.07510334,-0.0405136,-0.091984615,0.0012164039,-0.05412066,0.1414585,-0.11570158,-0.0695755,0.06285982,0.018436477
0.008099577,0.039637253,-0.039919533,-0.044079117,-0.09512226,-0.117279634,0.058912218,-0.13625947,-0.5866672,0.032712344,-0.2263167,-0.2755218,-0.0052999095,0.11463265,-0.08706503,0.1808143,0.1378173,1.2332224e-05,0.07438978,-0.26833078,-0.13014263,-0.00010308199,-0.24488597,-0.10545861,0.01626125,-0.005019286,0.11689934,0.21244393,0.14037819,-0.81099415,-0.11777557,0.11633892,0.036914382,0.13123475,-0.20801102,-0.20666766,0.015054214,-0.025495514,0.2703882,0.0091142785,-0.28775406,0.047735162,0.23997714,-0.021067765,0.00090985367,0.06413568,-0.20305464,0.20342045,0.25505957,0.07551591,0.33366296,0.03734124,0.2301122,0.013613318,0.24778242,0.017855898,-0.11432662,0.22482061,0.11869172,0.11953438,-0.20998693,0.16065024,0.14673515,0.10688429,-0.04776666,-0.03748615,0.14005196,-0.19078113,-0.13332172,0.020285187,0.12885883,-0.066302225,-0.3045398,-0.12168469,-0.68778586,-0.15269181,-0.070143774,-0.14429168,-0.06599884,-0.0024211302,-0.048809785,-0.1395973,-0.2026095,-0.059135474,0.052819688,-0.09850318,0.12439199,0.2573423,0.02318265,-0.13192661,-0.026914923,-0.09213669,-0.3289138,-0.76745176,0.15726545,-0.076968916,-0.022415249,-0.010861294,0.050298125,0.08592948,-0.12999862,-0.19407496,0.053488605,0.09037699,0.034388892,0.046560805,-0.025387228,0.012603086,-0.10743802,-0.0809813,-0.07446818,-0.13987865,0.014660066,0.0042217504,-0.18394037,-0.14199923,-0.18081169,-0.24192712,0.12691791,0.034228113,-0.16156627,-0.1691781,-0.3423951,-0.05563831,-0.107204214,0.02425593,-0.14399059,-0.055495385,-0.06855757,-0.18142046,-0.10337163,0.109461516,-0.1871479,-0.07335957,-0.036428005,0.0150319915,-0.3225583,-0.14466147,0.5071026,-0.19552912,-0.06920484,0.118348755,-0.14308664,0.038979027,-0.161779,0.12395385,-0.06432306,0.097317465,-0.17605227,-0.123166144,-0.16909662,0.04137124,0.039658666,-0.03878353,0.2064487,0.06959303,0.15787748,0.4673077,0.11046685,-0.10096223,0.092578635,0.053026266,0.026293134,-0.0005238703,-0.024979807,-0.10386167,-0.0442034,0.11931066,-0.17636767,-0.1484935,-0.091692425,-0.0052572205,-0.15469202,-0.03276923,-0.12439725,0.06704317,0.009814188,0.11657936,-0.10528295,0.022536978,0.07646314,0.12715252,-0.08016717,0.090095595,-0.07451239,-0.07774585,0.151446,-0.06858611,0.027438229,-0.12195717,0.21852593,-0.16413374,-0.08474781,0.08752144,0.123557776,-0.20161037,0.06385415,-0.0031641603,-0.043237377,0.019355586,-0.58962154,-0.0006354155,0.19259459,-0.05449337,-0.048018977,0.18141241,0.016059302,0.14939013,0.016234195,0.06612456,-0.112314604,0.06087737,-0.112637684,-0.18645225,0.043819815,-0.046530258,0.09795656,0.025113925,0.029186381,-0.056330185,0.080807306,-0.18484248,-0.110074535,0.03891833,-0.2630055,0.05059043,-0.010841097,-0.042586062,0.0001330942,0.1309972,-0.032561768,0.057482336,0.051705036,-0.029736172,0.08252331,0.14346015,0.050571956,0.10580643,0.022261145,0.09275242,0.055863153,-0.04989627,-0.010977446,0.058141764,0.16531776,-0.021540169,-0.05701469,0.05554604,-0.019615484,0.06366258,0.06238219,0.0067791566,0.08653134,0.081039675,0.18437259,0.03339127
0.090345055,0.11513619,0.18775547,0.16692708,-0.0062183947,0.02105038,0.18875277,-0.008629021,-0.16205919,0.09890485,0.1628441,0.0002532759,0.27637962,0.16735165,-0.038931318,0.25407183,0.27140325,0.15149233,0.1914276,0.1616263,-0.106859855,-0.045444548,-0.00031276076,0.2536359,0.039320942,-0.110632084,0.6970652,0.5398639,0.370276,0.44798607,0.11350673,-0.0078009362,0.1834105,0.27025473,-0.03758075,0.2927206,0.033835996,-0.03222556,0.04276043,0.378805,-0.057353497,-0.05019894,0.38147014,0.056600444,0.26023075,0.050078537,-0.27298874,0.056627285,0.23328283,0.12059166,0.001593424,0.09946016,0.13159232,0.15847808,0.2837522,-0.037556242,0.2186917,0.22056715,0.11658354,-0.024543563,0.13767721,-0.04833042,0.24164344,0.25680453,-0.08421815,-0.099738434,0.025281282,0.20698152,0.19456995,0.1303894,0.103512496,-0.09940889,-0.43199915,0.08027789,0.15753585,0.14972246,-0.07798648,0.07097948,-0.22199361,0.17432778,-0.16409695,0.037788786,0.31929,-0.09421439,-0.04835696,0.13364285,-0.08473045,0.37533432,0.099104725,-0.092370786,0.19294144,0.11946533,0.19270884,0.06613856,0.6619631,-0.1360332,0.10791062,0.40410125,0.25544143,0.40486592,-0.16569692,0.1524222,-0.06146493,-0.08474968,0.2178414,0.25975916,0.25138488,-0.021227475,-0.014265033,0.11898636,0.0075778486,-0.18215808,0.07259791,0.08769105,-0.18111734,0.21828192,0.11765964,0.06850061,-0.071511805,0.033523235,0.4177616,-0.12418266,-0.1195752,-0.17330202,0.14613596,-0.0912153,-0.03680763,0.019446624,0.12532827,0.1539396,0.05743609,-0.09178789,-0.08183606,-0.16174765,-0.015596006,-0.053267073,-0.15961468,0.0999854,0.16523701,-0.06155526,-0.061248828,0.03576312,-0.16398789,-0.12801963,0.014201648,0.056803677,0.027256105,-0.05371993,-0.11496823,-0.18839702,-0.0057727173,0.08967697,0.111885265,-0.19428515,0.089824274,-0.108719505,-0.087120876,0.16708244,0.030418204,-0.14418817,0.26039138,0.063806094,0.028319215,0.11117921,0.09245994,-0.23134123,-0.08874161,-0.006304556,-0.17760603,0.100498825,0.13182811,-0.075593315,-0.15355308,0.05241843,0.061428435,-0.10141915,-0.16028297,0.06759268,0.05383164,-0.0706677,0.06688353,0.16354641,0.015599675,0.034176536,0.036386613,-0.035098378,-0.12897612,0.15907751,0.07860758,-0.016672393,0.078690626,0.124417074,-0.025573766,0.017118536,-0.0825911,-0.07570208,0.08278166,-0.048420183,-0.06218999,-0.12594534,0.08169955,-0.102160394,0.009980752,-0.07449293,-0.0033366361,0.2586871,-0.16100565,-0.02049349,0.19998701,-0.03327111,0.1138473,0.14793366,0.010508954,0.095847234,-0.10358249,-0.039371144,-0.026220718,-0.10648581,0.26297337,0.025947979,0.06564751,0.18749994,-0.104619555,-0.021271834,-0.15805146,0.074153565,-0.045692924,-0.19011138,-0.15100707,0.12720786,0.08184921,-0.22181384,-0.017062906,0.0011270238,0.14650296,0.17882095,-0.018136127,-0.010750373,-0.107331835,0.16594033,0.060371235,-0.122171834,-0.034437813,-0.03199192,-0.040300053,0.0946854,-0.034346685,0.08400003,0.035503604,0.0029900053,-0.018043345,0.3583741,-0.046081655,0.07483143,0.082641214,0.2839251
-0.12944113,-0.08247683,-0.21810845,-0.08125584,-0.25517517,-0.18046512,-0.18661004,-0.4549403,0.07266955,-0.45822966,-0.4638536,-0.39986956,-0.13433608,-0.35189834,-0.6263379,-0.31703418,-0.24433169,-0.32852304,-0.3157862,-0.3099347,-0.20471944,-0.21758035,-0.3539514,-0.12079555,-0.14857738,-0.43486127,-0.3907511,-0.496578,-0.62384063,-0.5399163,0.11800897,-0.299166,-0.3398464,-0.31713867,-0.0682624,-0.35138473,-0.32804763,-0.30511656,-0.4400453,-0.5605576,-0.23465799,-0.23052618,-0.22395806,-0.115952924,-0.43006197,-0.34880522,-0.24555084,-0.5370388,-0.45221022,-0.3031866,-0.49920166,-0.20437083,-0.3328519,-0.4447445,-0.32427296,-0.2623191,-0.22552714,-0.7319416,-0.5104621,-0.15318677,-0.42109358,-0.29657072,-0.5504159,-0.36712247,0.046867166,0.1306201,-0.01757866,0.299208,0.24597572,0.07349486,0.08272161,-0.07855046,0.46514648,0.26606786,0.20637065,0.25545594,-0.019868366,0.4079156,0.18149436,0.19769141,0.30969897,0.41054907,0.14112417,0.23707087,0.25087,0.21404478,0.13219778,-0.17543189,-0.048500158,0.057008453,0.1720916,0.16700654,0.40799424,0.22306286,-0.2444231,0.11595566,0.19293578,-0.0061226697,-0.37171364,-0.049482822,0.3740531,0.089523226,0.09252074,0.22446269,-0.09320426,-0.046356376,0.07248843,-0.093949035,0.17002924,0.10218742,0.028894344,0.25116828,-0.00955283,0.32247788,0.36924434,0.20870346,0.1594378,0.25876096,0.08482309,0.20289056,0.03791889,0.13060097,0.22931604,0.25393778,0.12028335,-0.032746118,0.3746829,0.20417124,-0.04276822,0.024778502,0.03137293,0.13278419,0.22800513,-0.16757168,0.16853018,0.12673418,0.12766954,0.23116884,0.08434564,0.022670798,0.11749188,-0.30768898,-0.024887701,0.0887336,0.17391847,-0.069238275,0.118256316,0.05273696,0.17153849,0.1514487,0.073727794,-0.19869086,-0.030925674,0.16477919,-0.12985015,-0.0181161,-0.13682957,0.116327375,-0.110033244,0.2277111,-0.112075925,-0.08956848,-0.06463529,-0.03548786,0.19813125,0.056226697,0.20344493,-0.058563206,0.07151025,-0.14470541,-0.15922841,0.2022235,0.002901955,-0.1230152,0.12131316,0.030245982,0.113487884,-0.12297419,0.029298086,-0.06958905,0.12874228,-0.04733118,0.07585145,0.011593745,0.1670191,0.057089962,0.1581288,-0.19007362,-0.13610668,0.16155739,-0.15704262,0.11673423,0.06028781,-0.0042082323,0.007751434,0.15526979,0.056255635,0.009450434,-0.10668879,0.000388398,0.13361256,-0.06175033,-0.13456501,-0.026217006,0.14795576,0.07429671,-0.14335279,-0.067583226,-0.07318691,-0.044359624,0.17746867,0.025753168,-0.09640597,-0.0107899,-0.034825534,-0.1762813,-0.17871305,-0.06957014,-0.09739724,-0.055885717,0.101830244,0.05326883,0.111069515,-0.11241906,-0.0093213245,0.06083267,-0.112656005,-0.13361517,0.06924742,0.017248992,-0.025900776,-0.04447153,-0.07347025,0.039377924,-0.15306175,-0.10786523,0.045429472,-0.010296538,0.11527342,0.08878063,-0.113410115,0.12625004,0.06633687,0.034500483,0.107413195,0.033303265,-0.0881367,-0.16670762,-0.08787965,-0.06084331,-0.065700576,0.123806074,0.018248294,-0.22786546,0.058181584,-0.11828836
-0.2232245,-0.15902342,-0.03155007,-0.002508406,0.022923509,0.011490565,0.017715484,0.0645007,0.4456467,0.1417567,-0.005440556,0.028730316,-0.04450224,-0.18994819,-0.08196265,-0.07377455,-0.16121116,-0.12958682,-0.186461,-0.073461905,-0.14102495,0.04653761,-0.14003426,-0.0120997755,0.12293686,0.003136993,0.06331305,-0.046478618,0.32384455,0.63396645,0.07555129,0.01610941,0.16368651,0.33427683,-0.02710105,-0.25316384,0.020913891,0.06647648,0.101375215,0.060194626,0.2061183,0.047617737,-0.112275854,-0.250229,0.048611492,-0.107770376,0.007976148,-0.110983774,0.12652276,0.17902817,0.19323511,0.21489829,-0.07729056,0.21065721,-0.0667257,0.01269151,0.024256326,0.12503587,0.021711102,-0.31073087,0.14271024,0.044577777,0.2159948,0.10918732,0.24105774,0.55239403,0.1282138,0.6043247,0.059254076,-0.114118084,0.12049316,-0.15726215,0.9241176,0.1528313,-0.17852965,0.018717343,0.1942592,0.1439957,-0.072645895,0.36377737,-0.025267536,0.040366646,-0.043811683,0.06805605,-0.089411475,0.056398634,0.12215726,-0.16336563,-0.28268805,0.2808107,-0.17142126,0.111159645,0.064523324,0.7304355,0.1772076,-0.07152055,0.3603438,-0.16106531,0.2523178,0.30676275,0.09220599,0.18163028,0.09373901,-0.29340005,0.197857,0.12825562,0.07939714,0.063255794,-0.109846026,0.2624937,-0.13258094,-0.06154854,-0.26337755,-0.057144668,0.4307403,0.22497576,0.22893511,-0.071155824,0.008731977,-0.28083664,0.2820699,-0.013154296,0.305069,-0.0939833,0.22060691,0.27897438,0.26430383,0.10429114,-0.18774416,-0.1611532,0.060633022,-0.114739046,-0.04093224,-0.033281263,0.08915955,0.10111407,-0.49799642,-0.0005448877,-0.3014949,0.17929694,-0.15225655,0.08923843,0.05043178,-0.043391753,0.08634347,0.12541261,0.08130738,0.08994236,0.08385501,-0.092651315,0.32833835,0.18471722,0.11977,0.06591791,-0.2800979,-0.12664145,-0.15905312,-0.24166581,0.3015414,0.037717007,0.23644252,0.042135764,0.19637905,-0.1801568,0.11459688,-0.18838607,-0.22160745,0.064398706,0.28461593,0.26987895,0.15820515,-0.17314544,0.05457786,-0.11921254,-0.009789537,-0.17878664,-0.037822027,-0.16974135,0.22607557,-0.17489713,0.16959617,0.008390432,0.105489254,0.004227738,0.08133763,0.030019462,-0.1780961,0.16228205,0.16150871,0.15944426,-0.1743981,-0.07009008,-0.12697735,-0.24270697,0.08931947,-0.15374893,-0.2873919,-0.12262382,0.0022015604,-0.07306174,0.48495787,0.0390168,-0.26299676,-0.21106403,-0.18279038,0.05808123,0.09366342,-0.030908031,-0.015488705,-0.1571129,-0.10348442,0.10878714,-0.0762607,-0.14459984,0.047452923,0.15264343,0.105489224,-0.051238917,-0.067545116,0.1201863,-0.40238,-0.0792579,-0.025331294,-0.067309365,-0.016695384,-0.18470569,0.14073257,0.039477907,0.062445976,-0.06404611,-0.12873818,-0.18400526,-0.08414226,0.11660378,0.16495131,0.20734304,-0.015813932,0.07371851,0.048366155,0.10948824,-0.073020704,-0.1860014,-0.20576756,-0.012038265,0.002385391,0.16399847,0.18580836,0.08328142,0.05793437,-0.08676215,0.005789501,-0.031101642,-0.1247142,-0.03108855,-0.08075836,0.02220074
