0,1,2,3,4,5,6,7,8,9,10,11,12,13,14,15,16,17,18,19,20,21,22,23,24,25,26,27,28,29,30,31,32,33,34,35,36,37,38,39,40,41,42,43,44,45,46,47,48,49,50,51,52,53,54,55,56,57,58,59,60,61,62,63,64,65,66,67,68,69,70,71,72,73,74,75,76,77,78,79,80,81,82,83,84,85,86,87,88,89,90,91,92,93,94,95,96,97,98,99,100,101,102,103,104,105,106,107,108,109,110,111,112,113,114,115,116,117,118,119,120,121,122,123,124,125,126,127,128,129,130,131,132,133,134,135,136,137,138,139,140,141,142,143,144,145,146,147,148,149,150,151,152,153,154,155,156,157,158,159,160,161,162,163,164,165,166,167,168,169,170,171,172,173,174,175,176,177,178,179,180,181,182,183,184,185,186,187,188,189,190,191,192,193,194,195,196,197,198,199,200,201,202,203,204,205,206,207,208,209,210,211,212,213,214,215,216,217,218,219,220,221,222,223,224,225,226,227,228,229,230,231,232,233,234,235,236,237,238,239,240,241,242,243,244,245,246,247,248,249,250,251,252,253,254,255
-0.63489693,-0.11661409,0.15539318,-0.12502396,-0.079899944,0.3038006,0.100056104,0.13278362,-0.050082345,0.104779385,0.057849817,0.15046656,-0.043410283,0.010065973,0.026813747,-0.106864944,-0.122023605,-0.14364652,-0.0658101,0.021691691,-0.061105367,-0.15124889,0.21893299,0.14684059,0.29546294,0.096247554,0.34957725,0.106133215,0.098527424,0.22169076,-0.21597564,0.11896831,-0.12960197,0.06326563,0.04416245,0.30694062,-0.0990192,-0.17242335,-0.011332128,0.08219821,0.22113691,0.011963286,0.06169011,-0.08949747,0.1941176,0.26038077,-0.07539726,0.0008729528,0.06736013,0.05082593,0.18295412,0.012872619,0.04916661,-0.10185826,0.030403359,0.08227924,0.31471035,0.24224263,-0.19005744,-0.2670477,-0.012250241,0.24226691,-0.03341758,-0.022627158,-0.0893689,-0.01682408,-0.011796332,-0.0863605,-0.022809075,-0.03757822,0.16530235,-0.036756467,-0.23762427,-0.08549409,0.56986064,0.1281685,0.15051252,0.016430853,0.14082482,-0.05385537,-0.0025289692,0.16209432,-0.067188874,0.042581063,0.05684998,0.0006750929,0.00644964,-0.047268525,0.04145647,0.21287462,-0.11777815,-0.004418571,0.16806778,0.18740991,0.020269977,-0.017439945,0.036283784,-0.0050882315,-0.004079503,-0.13534011,0.0057847644,-0.05470639,0.107393526,-0.014909402,-0.04381408,0.028368521,-0.109695256,0.044731714,0.1139758,-0.14467312,0.22322196,0.18623056,0.08927549,0.084598206,0.20271696,-0.047827512,0.277896,0.06470566,0.021517295,-0.22841097,0.00940928,0.17648226,0.12396292,0.040643327,-0.024476165,-0.25253573,0.22944908,0.068061315,-0.9627738,-0.102615006,-0.024598941,-0.044769436,-0.11531214,-0.08483504,-0.067528486,-0.10657395,-0.17759681,-0.07368886,-0.14218298,-0.061011247,-0.10162948,0.15441531,-0.10415829,-0.15022475,-0.099790834,0.28014797,-0.062938236,-0.07916854,-0.0029402976,-0.10252804,-0.052886665,0.07906988,0.09960926,-0.004486222,0.10106386,-0.019101523,0.19190525,0.21502826,-0.03940435,-0.17004964,0.12775727,0.11670626,-0.08091758,-0.087919116,-0.2918125,-0.0367638,-0.26836187,0.044775147,-0.1693646,0.09134937,0.17107277,0.056937248,-0.16490963,0.08360084,-0.20753683,0.20114999,-0.15831527,0.08536284,-0.16891819,-0.004880562,-0.05042839,-0.0033316682,-0.17784497,0.19470064,-0.013443108,-0.11150213,-0.21750718,0.20197345,0.15280055,0.012270316,0.20414403,-0.16183685,-0.007282692,0.10432766,-0.048759073,0.14830627,0.052672543,0.16207166,0.029119821,-0.06430794,-0.08163187,-0.019552173,-0.2034065,-0.03039777,0.11840294,0.087332584,-0.11845261,-0.096126825,0.017981566,-0.017696619,-0.08191816,-0.04401459,-0.17872535,-0.13387705,-0.18343557,-0.25124246,-0.06744459,-0.1505059,-0.10745701,-0.023726692,-0.039393883,-0.06881719,0.1661012,-0.065052725,0.15338232,0.011336815,0.09826568,-0.20841955,-0.027682867,-0.055456202,-0.19247392,-0.16482943,0.049293917,-0.05950559,-0.12046068,0.091590665,0.03324832,-0.029474566,0.019918995,-0.0678479,0.006451646,-0.14379586,-0.25340614,-0.046491764,0.18548092,0.18008755,-0.30443656,0.018482607,0.1725612,0.07271442,0.113113806,-0.12239754,0.035052557,0.012543041,-0.1253507,-0.11819484
-0.16143303,-0.19806784,-0.056986704,-0.08182381,-0.09591648,0.0127668325,0.14479972,0.03448884,-0.047571465,-0.03583296,-0.06408391,0.20919698,-0.15960455,-0.084781095,-0.15198746,-0.107650205,-0.08300089,-0.14687714,0.003975309,0.05038556,-0.19040367,-0.039200936,0.11479125,-0.16568755,0.086934865,0.021995328,0.0971407,0.049037114,-0.32523632,0.06195543,-0.015334412,0.099084154,-0.21922702,-0.06411742,-0.14087692,0.08368243,-0.22595641,-0.2049121,-0.15667349,-0.065687954,0.14381249,-0.16417113,-0.013257503,-0.14358506,0.007499675,0.0653575,-0.044585563,-0.18581136,-0.0050676116,-0.2702776,-0.1305728,0.0023524256,-0.22950089,-0.154301,-0.039462663,0.060533077,0.14114697,-0.110712245,0.015460769,-0.15569182,-0.042118423,0.10668935,-0.22813497,-0.12799929,0.07252954,-0.3005202,-0.06757319,-0.14839908,-0.109217964,-0.17262514,0.038498435,-0.1259499,-0.20668519,-0.048071336,0.3743165,0.101895645,0.056807257,0.02272929,-0.06342362,-0.058493253,0.12075673,-0.02174871,-0.13672638,-0.08779137,-0.08760512,-0.0030563052,-0.097827576,-0.046526425,-0.14952436,-0.0036698706,-0.056121692,-0.06643326,-0.041160837,0.09818597,-0.058571313,-0.08210142,-0.06561219,-0.072059415,-0.40022022,-0.17414595,0.027079063,-0.052414067,-0.046250623,0.0030960497,-0.11862664,-0.116395175,-0.11702027,-0.14237988,-0.03353988,-0.15617426,-0.07269329,-0.005479547,-0.045137834,-0.038258538,0.08602131,-0.113995984,0.08345181,-0.06236767,-0.2249865,-0.22647932,-0.20208147,-0.062024802,0.04205834,-0.19384061,-0.037923645,-0.1408537,-0.06115136,-0.013722899,0.046870235,-0.5028665,0.052024152,-0.27246803,-0.0626657,-0.11723982,-0.01211008,-0.0043536667,-0.18876787,-0.11459611,-0.0071292743,-0.16446958,0.08059935,-0.24501853,-0.042485658,-0.043213524,0.1565212,0.11116858,0.026266085,0.040533163,0.010518064,-0.08089644,0.038546007,-0.019985458,-0.03297863,-0.14114241,0.059203513,0.007863668,-0.028414307,0.1463226,0.10850012,-0.08717844,0.08549284,-0.018599764,-0.07041306,0.074331775,-0.048409753,0.094426304,-0.05469268,-0.11349166,0.009394809,-0.08510496,-0.15274416,0.09699291,-0.12578301,0.12550837,-0.1028629,-0.021363406,0.031149987,-0.10693175,-0.06794651,-0.08420802,-0.07185041,0.029040664,0.06865774,0.19133654,-0.17904896,0.04562986,0.014229891,-0.044159535,0.0035175548,-0.12852727,-0.09012789,0.09884594,-0.0797985,0.0031677075,-0.08377405,-0.056153875,0.04875988,0.119098045,-0.05218805,-0.118295,-0.33104515,0.12811875,-0.01480321,-0.20017199,0.03532962,-0.051137026,-0.12699257,0.12090988,0.014167864,-0.05527252,0.029089145,0.009682229,-0.1825053,-0.07630397,-0.10194355,-0.119728155,-0.2954353,-0.0563026,-0.059841845,-0.13641609,-0.06931849,-0.103873715,0.116461635,-0.16855556,-0.053455863,-0.11032191,-0.10319503,-0.0689232,-0.039221033,-0.15218118,-0.035010718,-0.1236569,0.001399632,-0.1249981,-0.06761165,-0.11231658,-0.08294936,-0.06020367,-0.0065889726,-0.217162,-0.12039779,-0.14393127,-0.07028291,-0.02977805,-0.12203548,-0.09665014,-0.20085803,-0.018544195,-0.010951895,-0.017576437,0.037676554,-0.2531562,-0.003803108,-0.11572799,-0.10078693,-0.05160548
-0.22579399,-0.08759867,0.22241531,-0.021105759,0.016046701,0.1254282,0.2536042,0.07762203,0.032835793,0.05768968,0.027475465,0.16905068,-0.24437726,-0.014872551,0.07375864,-0.05735376,-0.22463734,-0.20566262,-0.0036118221,-0.061119165,-0.029812029,-0.038940135,0.16356301,0.1637291,0.4362463,0.08682482,0.20540704,-0.034681965,-0.19875965,0.07893392,-0.09324476,0.22412065,-0.078130536,-0.01578002,-0.103034265,0.23057692,-0.2585447,0.07355849,0.017481666,0.016858617,0.15070577,0.020254906,0.14931655,-0.17392783,0.071223795,0.23040786,0.07106097,0.044884663,0.056198955,-0.28600493,0.026384266,0.08813593,-0.13580444,-0.19303785,0.13903673,0.052947428,-0.019936897,0.02759856,-0.120166674,-0.15962662,0.06136623,0.31997085,-0.012768726,-0.14012708,0.20713152,-0.13696449,0.0447991,-0.027619328,0.09581694,0.00060972746,0.18805191,-0.026664866,-0.121712446,0.09526541,0.22209598,0.13330723,0.061914343,0.07380605,0.21678233,0.1669475,0.14693424,0.059219792,0.07639058,0.17622076,-0.10227813,0.1501109,-0.064573534,0.049866643,0.24270268,0.13455346,0.16319841,0.12100351,0.12641326,0.0064086597,-0.11101101,0.1297108,0.120798334,0.11204119,-0.27787238,-0.110257104,0.08043133,0.14111115,0.15878403,0.1847739,-0.043089874,0.22253977,0.008501099,0.04115617,0.19419424,-0.0014124542,-0.0038004043,0.116164945,0.056243297,0.04541346,0.061102793,-0.019858161,0.24856068,0.09159866,0.05111699,0.030118613,-0.22230391,-0.009155962,0.123087406,0.035217505,0.017976806,-0.117875755,0.14723738,-0.13586359,-0.045069814,-0.030758997,-0.45344704,-0.011045154,-0.24849921,-0.0010534157,-0.039407507,-0.13844168,0.0044067856,-0.15697935,-0.026421843,-0.05974769,-0.11304784,-0.0032810138,-0.13728295,-0.019103818,-0.068586096,-0.036720205,-0.07437641,0.064891,-0.019404087,-0.25363383,0.021221433,0.058074757,0.1511955,-0.12376937,0.13862155,0.14485137,-0.050259013,-0.16919398,0.22777349,-0.16848105,0.054845776,0.047716912,0.021024182,0.043821223,-0.013937988,-0.054938663,-0.00011308794,0.19186929,0.029909097,0.061243143,0.038930945,-0.04540869,-0.0025653876,0.14096051,-0.123866975,0.078956395,-0.005604986,-0.11383985,-0.08600307,-0.0068665957,0.06576574,-0.004392162,-0.028286688,-0.0060430383,-0.012095244,-0.021324815,-0.024819717,-0.0035104025,0.0735476,-0.026586436,0.09119311,0.049687136,0.09014571,0.27419543,-0.12726249,0.17457043,0.10182763,-0.023689631,0.1144413,0.022104774,0.061976556,-0.0057497174,-0.04339934,-0.06229877,0.05047853,0.040397253,0.031106092,-0.039598547,0.038383856,0.060673863,0.020185707,0.002430679,0.035207167,0.06840313,-0.24047948,0.0028863421,0.10700032,-0.086727716,-0.14950174,-0.107587025,-0.10914717,-0.25995427,0.19650318,0.00531102,-0.06805483,-0.055140197,-0.07138578,-0.09776951,0.0086927805,0.096087955,-0.003747847,-0.15735106,0.18511067,0.03643875,-0.061556235,-0.03240036,-0.1191283,0.0028570273,0.12232778,-0.13942392,0.028731585,-0.0052461396,-0.13592166,0.22788039,0.1014568,-0.11453803,-0.031103734,-0.028732149,0.023551065,-0.049712796,0.050771736,0.033311445,0.074988544,0.017309835,-0.08706165,-0.07769805
-0.23546113,0.15855262,0.07217604,-0.4209473,-0.13445729,0.069823384,0.21724093,-0.033972397,0.029745722,0.10068308,0.11056021,0.21541934,-0.22808382,-0.103005834,-0.036938842,-0.17252691,-0.10871713,-0.36460173,-0.03992327,-0.10809988,-0.045136414,-0.062490433,0.07698879,0.11737857,0.088248186,-0.0736647,0.018827926,-0.007867333,-0.23777544,0.17706436,-0.033418663,0.12620357,-0.023843374,-0.0023343933,-0.012185628,0.23173627,-0.34170187,-0.106090024,-0.1760206,-0.0032398128,0.22069025,-0.21703987,0.03776802,-0.07433667,0.14035198,0.31595358,-0.030269288,-0.016295513,0.02825394,-0.23202506,0.060738474,0.04029807,-0.04045078,-0.14237684,-0.009254815,-0.031227412,0.17625871,0.076730505,-0.21430217,-0.3063863,-0.118328005,0.12336861,-0.12241807,-0.23213159,0.10428883,-0.08640099,-0.12518333,-0.29567897,-0.15853217,-0.05039038,0.19104658,-0.019592052,-0.08882635,-0.058962125,0.46492964,-0.0065308185,0.077086814,-0.017201668,0.21430342,-0.17474052,0.09381189,0.035431378,-0.0017118277,0.16131319,-0.009027599,-0.12372466,0.025661575,-0.14707439,-0.06923098,0.020753955,0.017974043,0.055351708,0.1994811,0.17140836,0.0565279,-0.061299235,-0.09677235,-0.03294586,-0.0471231,-0.1772255,-0.0770137,0.05059437,-0.00046727466,-0.078125834,-0.0046381727,-0.09773393,0.06415349,0.05551357,0.025716802,-0.10150288,-0.10559918,0.124217294,0.03693069,0.10102122,0.08085316,-0.12296886,0.21555986,0.10000541,0.06257276,-0.1220035,0.04851087,0.06924408,0.06507365,-0.08337376,0.059508245,-0.118864916,-0.046231486,0.038799144,-0.034223028,-0.14149015,-0.046997428,-0.9138659,-0.09769781,-0.1251792,-0.11154847,-0.04096076,-0.16794214,-0.17232761,0.09721347,-0.24089837,-0.01853544,-0.044068865,-0.067150876,-0.11023157,0.015625276,0.12673046,-0.025373457,0.058847588,-0.0049690017,0.008384189,-0.02533406,-0.02104973,-0.0068313675,-0.11702318,0.16093396,0.11869937,0.051256783,0.21652922,0.01599811,-0.026843634,0.061846144,0.05790192,-0.105419226,-0.13458143,-0.084754586,-0.06472498,-0.053061202,0.03847926,-0.072097346,-0.0710243,-0.08829134,-0.032687053,-0.14074281,0.059889242,-0.09051357,0.19562735,-0.092278264,-0.015138276,-0.062433615,0.028612642,-0.22148903,0.074487895,-0.11598545,0.013512922,-0.24133602,-0.030742256,-0.02183417,-0.07730411,0.21792105,-0.1521732,0.013143018,0.104233645,0.20774302,0.19765021,-0.11583384,0.11709558,-0.06340715,0.16253819,-0.0047179693,0.08061564,-0.2098449,-0.021229938,-0.06378819,-0.14104949,0.05139208,-0.03133421,-0.07561972,0.024110068,0.032548714,-0.064928725,-0.045190856,-0.037518393,-0.099344134,-0.14674641,-0.05029355,-0.10569105,-0.18490474,0.0028775942,-0.1832395,-0.10831818,-0.23331907,-0.18065083,0.19120269,-0.11198546,0.2890655,-0.071845494,0.13792345,-0.07497464,-0.037676252,0.06293162,-0.1514917,-0.15266617,0.08843857,-0.2518171,-0.19967161,-0.08062169,-0.028505765,0.1597768,0.17817135,-0.07190773,0.11870353,-0.17130117,-0.19457057,-0.013231523,0.0955728,0.15819956,-0.29601845,-0.08507938,0.12751134,-0.12810098,0.08557494,-0.12124414,0.00829049,-0.0435998,-0.110626094,0.09883203
-0.27220857,0.06674978,0.2559279,0.05449815,-0.07758489,0.15653566,-0.008845292,0.18281777,0.36826742,0.18391417,0.022669077,0.076627046,-0.2060423,-0.12749727,0.05120992,-0.087891676,-0.08427412,-0.20884436,-0.023645008,-0.07032275,-0.2054707,-0.04611709,0.3072876,0.14867957,0.1284149,0.07458801,0.26364622,0.09848343,-0.16438034,0.2070647,-0.05061254,0.08136495,-0.19450256,0.056212336,0.031176109,0.24338256,-0.23080696,0.040600445,0.009901153,0.14243963,0.33997303,-0.055018194,0.11942547,0.020853162,0.10865008,0.13145033,0.008681665,0.097063385,0.022764606,-0.19572064,0.093928054,-0.103903115,-0.36503118,-0.2186491,0.097998895,0.27199283,0.1200876,-0.035955865,-0.1846399,-0.10086509,0.104102194,0.11710924,-0.25305665,-0.08828311,-0.093915135,-0.10765337,0.06158848,-0.081844784,-0.012073212,-0.040352825,0.09322853,-0.10149562,-0.23000604,0.039584137,0.44053423,0.22371197,-0.0150296455,0.05431544,0.10437705,0.056049597,-0.04909501,-0.036305334,0.10359767,0.050824117,-0.0050418475,-0.04805966,0.2281316,0.03257241,-0.017248502,0.000901278,0.014431054,0.16630208,0.16049975,0.18644296,-0.09069779,0.032443535,-0.10775958,-0.031871397,-0.14412399,-0.02729306,-0.05131024,0.034000687,-0.11128299,0.030832125,0.013711949,-0.09760795,-0.044032577,-0.035639413,-0.012443651,-0.16999616,0.014957064,0.08901265,-0.024979712,0.112004004,-0.05810792,-0.23967552,0.18081552,-0.19950914,-0.20672002,-0.06983412,-0.041978057,-0.028931553,0.03834006,0.011593607,0.023540987,-0.045814488,0.004890919,-0.07579022,-0.043162588,0.011085307,0.048411265,-0.01699733,-0.6178407,-0.031074535,-0.10375013,-0.018558955,-0.14457846,-0.09049497,-0.12212531,-0.09193935,-0.13092878,-0.04735086,-0.029497214,-0.02425355,-0.064518854,0.162643,-0.09405129,0.07883962,-0.1387485,-0.089910634,-0.020772325,0.11539845,0.051438153,-0.08967955,0.17039359,0.01114836,-0.035190564,0.07549093,0.19098705,-0.15625915,0.08725377,0.04258438,-0.05966018,-0.09479888,-0.1352856,-0.09289099,-0.103964135,0.07260288,-0.13277687,0.011379446,-0.105976306,-0.06341703,-0.077818274,0.10286377,0.030293807,0.10008007,-0.02638416,0.119364806,-0.1204411,-0.10974429,0.038112767,-0.053000934,-0.07366655,0.12229598,-0.11773829,-0.088810176,-0.0204628,-0.03216438,0.005230478,-0.1254425,0.05089579,-0.014137865,-0.04545952,0.1069027,-0.12115454,0.14291959,-0.010640341,0.11067453,-0.09067239,-0.09164815,0.09326737,0.013378092,-0.015020245,-0.052047644,-0.004662368,-0.017061168,0.08061479,0.08358634,-0.12349974,-0.11175432,0.0014024666,0.023216676,-0.11330141,0.042007204,-0.17126071,-0.074028924,-0.06532606,-0.013349317,-0.08373303,-0.057759084,0.012022637,-0.15380886,-0.040289894,-0.16995823,-0.009532115,-0.06708473,-0.070594214,-0.02470749,0.06136042,-0.18001895,-0.05940818,-0.045452368,0.037909858,-0.06794386,-0.07297525,-0.002673139,-0.033055592,-0.22002383,0.09226542,0.0036629399,-0.08666329,-0.14162771,-0.14033075,0.012865523,-0.13600232,-0.12190979,-0.09625717,0.004549782,0.023359016,-0.055042706,-0.05452246,0.089954905,-0.12425485,0.11910561,-0.13653976,-0.013884963
0.37824702,-0.022763858,0.029581,0.042896383,0.16209073,0.073828585,-0.10805951,0.03689889,-0.2583294,-0.095523044,-0.06650054,-0.09113436,0.17704828,0.30018598,0.16271518,0.21077727,0.278533,0.251752,0.24374956,0.12410191,0.03583549,0.11752107,-0.099841505,-0.03204385,-0.03497896,0.049759954,0.011819602,0.060062714,0.22087944,-0.15591392,-0.12826158,-0.021573903,0.098268755,0.13055372,0.006847258,-0.36377656,0.28364477,0.09260551,0.10353004,0.06664558,-0.23681508,0.050875127,0.00076149637,0.13109973,-0.0020417583,-0.042880263,-0.029794285,-0.028890237,-0.014342746,0.24152602,-0.10878249,0.1402551,0.109964,0.18450104,0.025644228,-0.14210755,-0.039752897,-0.0011213139,0.3145489,0.21656705,0.08103066,-0.21765313,0.23714346,0.20990202,0.047146756,0.14540261,-0.02748586,0.23072286,0.015520103,0.1588466,-0.11877654,0.0059013357,0.13568746,0.031072602,-0.33354932,-0.108496,-0.076131865,0.092300296,-0.08477045,-0.07335289,0.091303796,0.08032509,0.12220518,-0.03179028,0.09462743,0.016859915,0.0048732148,-0.038201742,0.080841735,-0.062050298,0.18757915,0.014246551,0.008372131,-0.15908298,0.20952614,-0.01108716,0.07497533,0.11647251,0.16183536,0.21505754,-0.19506116,0.03522758,0.07212607,-0.05298517,0.111593656,-0.048576165,0.105123006,0.06611957,0.03204017,0.07007778,-0.043017812,-0.087868676,-0.16263567,0.0054647317,-0.1223484,0.08056757,-0.07814193,-0.15298605,0.083441876,0.15571962,0.08886112,0.024971602,-0.022537036,0.14164056,-0.11372396,0.03943419,-0.0723315,-0.06653391,-0.034616046,0.09316647,0.057312645,0.22823356,0.017553257,-0.72006124,0.12239307,0.06547937,0.36167464,0.17658706,-0.05789908,0.049188513,-0.07410318,0.021854576,5.8002406e-05,0.040022265,0.1356514,0.0005304749,-0.01921655,0.009598074,0.10721477,0.041592482,0.10517401,0.023270478,-0.051527396,0.21068552,-0.22171886,-0.073312484,0.02731112,-0.19436942,0.032305624,0.14669438,-0.090253785,-0.14428924,0.01421156,-0.14368539,0.110131115,0.1490636,0.039812833,-0.21727179,0.018291784,-0.02588294,-0.106988005,0.11359252,0.02464302,-0.17455447,0.030258229,-0.027283447,0.043019336,-0.018664833,0.09214645,0.07537562,0.17423534,-0.105238095,-0.029052258,-0.0462179,0.25102562,-0.012271017,0.046934307,0.08691965,-0.12298699,0.06820674,0.15826897,0.0067288233,-0.13942882,-0.09556794,0.08517741,-0.22688173,-0.030182514,0.028741214,0.12641773,0.022310777,0.055398818,0.0820707,0.22763294,0.0908403,-0.06854763,0.16133709,0.0228723,-0.032985643,0.0015551324,0.035818517,-0.045142006,-0.13948673,-0.08526656,0.0984267,0.13539585,0.05131632,0.113874294,0.006379795,0.18765242,-0.023114467,0.04459636,0.12550622,0.017210992,0.011054332,-0.11256278,0.0743436,-0.19739251,0.12106592,0.14425391,0.118082896,-0.007852442,0.02371025,-0.085941866,0.07906319,0.08191224,0.024052659,0.08156272,0.04189861,-0.019388998,0.22131576,0.029550819,-0.039769713,0.17923096,-0.006322853,-0.04058604,0.01348825,-0.08311485,0.1095619,0.049304374,0.13790022,-0.020481395,0.156661,0.09152697,-0.0624156,0.22150023,0.10131727
-0.21613587,0.07084957,0.25321493,0.0060371296,-0.012333662,0.018673139,0.33130726,0.34059122,-0.0035961345,0.083545975,0.23943056,0.25136885,-0.1372311,-0.15840894,-0.03252051,-0.22220494,-0.09052222,-0.1980544,-0.038562533,-0.30140224,-0.09090495,0.0037175268,0.19846785,0.02929072,0.13212425,0.11834425,0.05976838,-0.096785,0.05387475,0.3549361,-0.09179106,0.19156185,-0.16752489,-0.024744676,0.06890201,0.2014477,-0.0785073,-0.0905207,0.037227288,0.040622525,0.047089122,-0.002074599,0.10827797,0.220362,0.13154376,0.27827457,-0.09860735,-0.011660584,0.2325855,-0.11709587,0.010192619,0.061507378,-0.16982806,-0.1886483,0.08863791,0.2286292,0.113164335,-0.02409839,-0.15824263,-0.12838028,0.097195186,0.32171965,0.11065861,0.091142945,0.08359809,-0.04947119,-0.010446519,-0.09178101,0.008208152,-0.105301365,0.17373914,0.06613202,-0.32736,-0.039595794,0.27718753,0.02030168,0.15860693,0.049587585,0.026619647,-0.04657223,-0.0115884,0.083684675,-0.0373263,0.020148696,0.03149077,0.08516122,-0.15550552,-0.017016852,-0.06706513,0.09866849,-0.11410208,-0.084335595,0.08646001,0.14155847,0.037141003,-0.07796798,-0.082715206,-0.014408003,-0.07801971,-0.10163515,-0.039885644,0.0679101,0.06160268,-0.03265274,-0.06915804,0.011883128,0.05601116,0.015703665,0.003157845,-0.051028244,0.007342877,0.11952346,0.074193485,0.06810286,0.04813556,0.008293075,0.023302063,0.004160724,-0.14030968,0.12064264,0.025971252,0.046784177,0.1735392,-0.091258936,-0.08549549,-0.19201699,0.26148182,0.043861944,-0.10170697,-0.03635689,-0.09974699,-0.064064115,-0.24263738,-0.061694022,-0.81771076,-0.14064549,-0.12773897,-0.09755694,-0.02320029,-0.048079666,-0.051880933,0.1968981,-0.1845804,-0.12772086,-0.0031285281,0.12689026,-0.0013076154,0.0692207,-0.26826984,-0.09083919,-0.08255152,0.124613985,0.2060575,-0.2722285,0.078542925,0.059735373,0.036641765,-0.0017479865,-0.10134691,-0.08824829,0.12715913,0.023440875,-0.041978363,0.055407166,-0.14629357,-0.009320333,-0.09625785,0.14410925,-0.012876672,0.059739992,-0.01406147,-0.009664191,-0.15070252,0.10994653,-0.082693234,0.1267171,-0.23776573,0.20396073,-0.1381989,0.052940276,-0.082568474,0.066678606,-0.15873305,0.061101116,-0.033548456,-0.09997929,-0.053338435,0.09458391,0.19679269,-0.14489311,0.03673601,-0.036331933,0.20245662,0.10243372,-0.17081428,0.008306275,0.1870132,0.19042337,-0.1950904,0.06998651,-0.17605427,-0.023375252,-0.12586477,-0.11067392,0.17036876,-0.02369208,-0.13354155,0.037418656,0.106535345,-0.005698996,0.0027620445,0.068551384,0.0050107245,0.08342558,-0.17332506,-0.08929539,-0.121239476,0.008532584,-0.17210726,-0.038990393,-0.053349752,-0.1893129,0.079976775,-0.002421229,0.081237964,0.09399002,-0.017857837,-0.13728724,0.037956215,0.063880265,-0.021346346,-0.25682342,0.04212268,-0.006675694,0.052435786,0.2034307,-0.1379388,-0.116905056,0.14415295,-0.05596055,-0.13457629,-0.086447544,-0.0960481,0.084754094,0.039157193,0.19132407,-0.296137,0.0037219466,0.12264702,-0.14741781,0.14336857,-0.037575573,0.01808262,0.044764284,-0.08160492,-0.029015249
-0.22643836,-0.048273213,0.15000606,0.009463192,-0.0026210952,0.21726413,0.0862202,-0.00072034996,0.4438009,0.041131243,-0.04175778,0.36411443,-0.09179396,-0.24723847,0.14858535,-0.14733809,-0.10278429,-0.23612322,-0.086245075,-0.1587464,-0.13777842,-0.209162,0.23769772,0.19374084,0.07613571,0.16803129,0.21976395,-0.09787835,-0.10730128,0.25279668,-0.1207918,0.15596332,-0.27786002,-0.08817994,0.16625048,0.19008636,-0.3281917,0.008795475,-0.2731989,-0.08102262,0.31732517,-0.12681377,0.010091161,-0.08373833,0.057630274,0.20297977,0.11787533,-0.13506378,0.12753777,-0.20930932,-0.0013351338,-0.10293554,-0.31046587,-0.18152314,-0.06836813,0.07614569,0.15681821,0.15162139,-0.34746993,-0.20943755,0.07852047,0.1505728,-0.27446938,-0.27615416,0.11134574,-0.06445542,0.1167172,-0.040493492,0.030858561,0.21753761,-0.03572999,-0.06135884,-0.22837555,-0.051706243,0.4562049,0.2616194,0.23037764,-0.04312042,0.049800906,0.098688185,-0.0373119,-0.053460367,0.08797004,0.09516876,-0.03804134,-0.09863922,0.08555437,-0.056185126,-0.11188299,0.1504438,-0.0057425047,0.065542124,0.10343772,0.2806381,-0.069867626,-0.07442688,-0.11833091,-0.10823671,0.026682813,-0.20934042,0.02114257,0.103969745,-0.10454499,-0.012053798,0.03508924,-0.12817518,-0.062333826,-0.087320015,0.08101416,0.024729587,0.10705753,0.11391609,0.047641017,-0.10381326,0.20214708,0.049097646,0.077828586,0.0286769,-0.17901762,0.052532643,-0.029818987,0.12222196,0.03128879,-0.06702784,0.027852535,0.053399686,0.030888714,0.051555976,0.1012309,0.072082065,0.06775496,0.031991545,-0.116945624,-0.03513167,0.072610155,-0.730879,-0.31715453,-0.180473,-0.062414303,-0.009622765,-0.119330995,-0.016234744,-0.027706012,-0.096320316,0.0435662,-0.012182896,0.059692428,-0.03890279,-0.108443104,-0.15712625,-0.0065483823,-0.053511146,-0.038201634,-0.07380563,-0.008331424,-0.043800123,0.068558246,0.054136198,-0.0486132,-0.23252371,0.057047885,-0.0238058,-0.16343212,0.027045,-0.21070571,-0.07415572,0.10323337,0.021405753,0.057515193,-0.056935944,-0.18675414,0.03999165,-0.12830181,-0.0014762193,-0.13457797,0.12043365,0.114452854,0.041675102,-0.0722827,-0.07681886,-0.1548167,0.09669694,0.13001527,0.09376841,-0.08670366,-0.2122274,0.03433788,-0.12156777,0.10276232,-0.024574647,-0.008117865,0.01008274,-0.023155015,0.34137857,-0.12632063,0.21529135,-0.010709275,0.10704104,-0.121834844,-0.09261844,0.006715241,0.07135512,-0.09514821,-0.26562554,0.07502981,0.06388009,-0.17038552,-0.027869098,-0.019097025,-0.108459145,0.23135269,0.048071742,0.07542832,-0.1010895,-0.12154856,-0.100604154,-0.1415006,0.017468885,-0.13100979,-0.14938952,-0.10877652,-0.10013763,0.06476589,-0.039309718,-0.021846337,-0.008692551,0.10686179,-0.15317099,0.2294765,-0.080317415,-0.27623948,-0.041450895,0.19616902,-0.031108288,-0.061362952,-0.0822781,-0.22043231,0.020876871,0.010565494,-0.07969852,-0.07951522,-0.02155957,-0.251196,0.061818536,0.037687935,0.118543066,-0.2532179,0.074766636,0.10727279,-0.12155378,-0.06648054,-0.15244819,-0.13146694,0.17688043,-0.086942755,-0.05078191
-0.23835722,-0.18281928,-0.17369318,-0.1537783,-0.32885236,-0.23002051,-0.0870231,-0.17164285,0.15424739,-0.12769017,-0.53027326,-0.14916556,-0.39108816,-0.0657531,-0.41701707,-0.13922906,-0.14276467,-0.07707909,-0.07887291,-0.27460626,-0.25045297,0.043930408,-0.16249545,-0.104634605,-0.26295012,-0.35602567,-0.20399971,-0.16903616,-0.36829764,-0.5792415,-0.023701826,-0.03506069,-0.19494355,-0.3731811,-0.25732943,-0.14052919,-0.24333087,-0.12658177,-0.1929016,-0.30961078,-0.28443676,0.08084109,-0.050142348,-0.064162634,-0.24837472,-0.23667966,-0.2810571,-0.10627013,-0.2970036,-0.19934851,-0.21156289,-0.09343629,-0.08748816,-0.23574165,0.11336187,-0.15739109,-0.1025021,-0.039345656,-0.116239846,-0.17976001,-0.11663342,-0.024539545,-0.37910673,-0.1912438,-0.015545451,-0.42684022,-0.32604674,-0.36407155,-0.18519378,-0.33025315,-0.075923435,-0.4037666,-0.34944835,-0.36333257,-0.39765522,-0.23048414,-0.15826358,-0.16623008,-0.17840455,-0.20421915,0.10749395,0.05247163,-0.11518131,-0.061936032,-0.09525046,-0.04665435,-0.27758813,-0.17910387,-0.33635837,-0.36314398,-0.3583284,-0.015010341,-0.0037950478,-0.4020872,-0.15928437,-0.2546583,-0.21808785,-0.385162,-0.20644,-0.60527694,-0.06462933,-0.23366186,0.04013769,-0.018310698,-0.2025241,0.02174069,-0.050655358,-0.10678905,-0.2727025,-0.34914222,-0.2048197,-0.08199821,-0.3117878,-0.122233644,-0.28901267,-0.213317,-0.11534749,-0.1673214,-0.064096585,-0.26663542,-0.42677176,-0.1728011,-0.28347516,-0.19800973,-0.1923341,-0.53485215,-0.24581875,-0.05839889,0.28783885,0.12078811,0.30280805,0.09627111,0.36081278,-0.4125131,0.229168,0.39618975,-0.23417981,0.32753316,-0.27913633,0.1407205,0.2595322,-0.4718183,0.4663957,0.38037282,0.356093,-0.4296173,0.28425884,-0.3179885,0.44095057,0.37100035,0.2947598,-0.31384367,-0.33530265,0.5434647,-0.41918594,-0.30691835,-0.41497904,-0.07722963,-0.094185606,0.4180139,-0.27061674,-0.3440103,-0.46279296,-0.10993387,0.30168834,0.42681554,0.33011943,-0.50139785,0.21846241,-0.26009393,-0.373184,0.24374628,0.38107708,-0.22753091,0.3044073,-0.40490398,0.5228455,-0.35051432,0.4081719,-0.21949378,0.3626157,-0.31738383,0.44939744,-0.21607478,0.22861008,0.4171322,0.3758434,-0.22760907,-0.14531659,0.33126974,-0.4602916,0.39901173,-0.04684703,0.004088781,-0.15135337,0.12411476,-0.044697694,0.06176095,-0.2887955,-0.12775563,-0.32341984,-0.19371857,-0.39459014,-0.31221437,0.043835882,0.14767937,-0.29310995,0.01965662,-0.007919286,0.14240201,0.1517977,0.021213606,0.08076507,0.11221709,-0.43655142,-0.0060459618,-0.16048293,-0.2638782,-0.20396206,-0.13075525,0.029339742,-0.35880062,0.15164761,-0.0776684,0.15362975,-0.045514174,-0.19845845,-0.3487299,0.2171675,0.052474257,0.14139898,-0.19185464,-0.09132693,0.20545729,0.029435579,0.122865595,-0.09666294,0.031137185,0.008765081,-0.022232385,-0.19759749,0.18945573,-0.17248338,0.1767312,0.12591,0.19514313,-0.21548958,-0.070913665,-0.16444375,-0.17048874,0.15172867,0.1869344,0.10158918,-0.032396186,0.083773986,0.10592496
-0.15290105,-0.19722018,0.31027195,-0.13062023,0.07566009,0.18081324,0.11452232,0.070207536,0.04782241,0.19436313,-0.014284308,0.092138276,-0.08209935,0.07855776,-0.023481036,0.06183559,-0.19394174,-0.028477801,0.12440074,0.05451483,-0.010035958,0.029433249,0.22816835,0.17874058,0.09713498,0.026432201,0.099424034,0.19922133,-0.028593853,0.13020799,-0.046138,0.14649877,-0.119335,0.031326417,0.009829483,0.2510715,-0.1242485,0.0010024052,-0.0856546,0.05521336,0.25328255,-0.017973956,0.15879664,0.039776143,0.07431852,0.23528112,0.05333639,0.025392761,0.20655575,-0.12173365,0.049178194,0.10328921,0.017508302,-0.06655088,-0.032809064,0.2674244,0.22929493,7.7318255e-05,-0.12994218,-0.097254336,0.14711045,0.23135652,-0.06345803,-0.110318124,0.022634748,-0.066429354,0.099969,-0.11347409,0.0072769276,0.0874463,0.12961371,-0.07285486,-0.26418898,0.032569643,0.5509468,0.15417212,0.0873152,0.018573191,0.075741276,0.06780656,0.077864155,0.11203886,0.047720898,0.089601144,0.21715032,0.09932647,-0.024340987,-0.021436596,0.061259978,0.10514595,-0.11595124,0.24629448,0.2640052,0.19162664,0.055648543,-0.040057953,0.18226688,-0.10432454,-0.0067851925,-0.14365202,0.06969917,0.17151266,0.012450499,0.16326055,-0.040944077,0.0134107,-0.032914486,0.00872524,0.15855302,-0.1196259,0.08092639,0.37755635,0.008040085,0.06636839,-0.013843832,0.074953705,0.24676575,0.014243976,0.16964722,0.084930584,-0.046435636,0.06466645,0.1880503,0.03334489,-0.012992116,-0.122282214,0.20868963,0.06531349,0.0027371282,0.088804655,-0.024552144,0.06534066,-0.1123993,-0.116834186,0.020606188,-0.046835814,0.034501392,-0.37774095,-0.2038444,0.08084667,0.13745415,-0.07215695,0.19583964,0.16067283,0.049004458,-0.084031925,0.032881923,0.024280535,0.046912372,0.008305546,-0.037410296,-0.1135713,-0.017819893,0.020093428,0.077145934,0.10934662,-0.112543955,-0.24769233,0.15408273,-0.13199502,0.03984821,-0.030024689,-0.050973877,-0.08119702,0.034097023,-0.11165834,0.09185241,-0.073499255,0.02572708,-0.11604315,0.034188706,-0.034769498,-0.10697502,0.016603917,0.024194006,0.08122114,-0.025437977,-0.07745661,0.06916201,-0.092761464,-0.08673637,-0.03504152,-0.0036427565,-0.13791373,-0.005393286,-0.01599216,-0.00865243,0.079891935,0.018525412,-0.062914595,-0.17679149,-0.015101627,-0.09858973,0.03648255,-0.12054994,0.05523941,0.005616872,0.033768132,-0.07194756,-0.06256374,-0.045452125,-0.10738594,-0.054317832,-0.15673286,0.10781694,-0.039237976,-0.106344596,-0.09258513,0.01758324,-0.02534684,0.015442214,0.22583848,0.046649326,0.08346638,-0.21694866,-0.00951434,-0.103875495,0.079281956,-0.033372384,-0.07934775,-0.023004306,-0.11423034,-0.107663915,-0.005444487,0.028966274,0.107968,-0.16145132,-0.16368756,-0.056066193,0.011147509,0.024567202,0.07878021,-0.09528098,0.03923593,0.124386676,-0.13021389,0.06064326,0.060914278,0.060787417,0.07999426,0.061870243,0.02460767,-0.117317654,-0.08050423,-0.044722974,-0.17387614,-0.16509141,0.008879579,0.10032057,-0.07279508,-0.044880874,-0.112363294,-0.050188802,0.00044181495,0.010979176,-0.10567219
0.15153943,-0.09968348,-0.4323259,-0.063359454,-0.025153497,-0.059246182,-0.14071314,-0.3715898,-0.2509881,-0.21939264,-0.23290087,-0.33217874,-0.13091983,-0.09238441,-0.07773875,0.005516765,-0.10775942,0.0718746,-0.122911446,-0.031705774,-0.14287739,-0.06813894,-0.3016555,-0.16204561,-0.28360888,0.008983408,-0.26421097,-0.07787269,-0.068570495,-0.18012011,0.03869646,-0.067263596,0.20237777,-0.16479172,-0.21759433,-0.31915486,0.16901185,0.037094947,0.0029897923,0.049647756,-0.26450706,-0.032370232,-0.14630376,-0.0035358453,-0.118953556,-0.23520084,0.021577673,-0.16652684,-0.1049708,-0.016319105,-0.06270061,-0.12584148,0.33032858,0.0138502875,-0.16555193,-0.28417668,-0.30419892,-0.17183466,0.026787613,-0.077830695,-0.1258536,-0.16892296,-0.08584434,-0.10344681,-0.2395915,-0.080990985,-0.083502695,-0.17991456,-0.0860173,-0.07869739,-0.13751385,-0.13885036,0.20126654,-0.13764489,-0.42990577,-0.032307133,-0.23186818,-0.21440312,-0.24352005,-0.34669396,-0.27400982,-0.058024734,-0.0022119568,-0.081172414,-0.23919989,-0.0915246,-0.04264026,-0.0074650603,-0.027877484,-0.06383022,-0.08928819,-0.10639585,-0.084497534,0.0151084205,0.016377017,-0.012761681,0.044332244,-0.047406312,-0.0836552,-0.13055077,0.100592025,-0.12327328,-0.20347011,-0.049179252,0.023506157,-0.09061666,-0.18352206,-0.18539168,-0.107942045,0.038205694,-0.11537315,-0.27508527,-0.19470198,-0.28924638,-0.09895836,-0.008039061,-0.31116983,-0.14615107,-0.20608377,-0.16127233,-0.10443993,-0.21912727,-0.28780878,-0.07108378,-0.00927085,-0.002131673,-0.13225834,-0.21573336,-0.105417915,-0.114458576,-0.12722537,-0.13007574,-0.025267296,0.08173099,-0.15107295,-0.0896316,0.15869084,-0.03033695,-0.32413623,-0.06847702,0.034789678,0.08812876,-0.14412577,-0.057229508,0.07082778,0.12903616,-0.1966126,0.10549112,-0.1029676,-0.11025619,-0.1405376,0.024463492,0.059590317,0.04330078,0.09526299,0.10252326,0.074684784,0.040181395,0.07458064,-0.008220066,0.13301706,0.11998485,0.1772379,0.20189425,-0.06571122,0.03402244,-0.061993323,0.025804708,-0.10960968,-0.052739542,0.039996613,-0.11333662,-0.22185633,0.22221772,-0.13487445,-0.1027898,-0.14731294,0.0058833226,0.11949702,0.07805142,0.010974464,0.123274356,-0.14879072,0.062018447,-0.025514549,0.09043567,0.06872847,0.08321438,-0.07920458,-0.0072400807,0.050922748,0.062347427,-0.15895648,0.032105986,0.09004925,-0.05933099,0.14655569,-0.05327657,0.042127863,0.008568884,0.025591277,-0.09841651,0.20656328,0.17813255,-0.13401753,-0.023627678,0.19880322,-0.10351663,-0.097804606,-0.060302537,-0.06421714,-0.026955573,-0.039235618,0.0657903,-0.049431268,-0.015866667,0.0071666366,0.053738985,0.020559648,0.10057823,-0.096786104,0.13766119,0.016991865,0.009194198,-0.01115765,-0.0065532383,-0.26107615,0.21329334,0.13832536,0.009173773,-0.0057021882,-0.11131235,0.060336832,-0.24211411,-0.14315407,0.09141239,0.12855051,-0.04983848,0.052371513,-0.028936526,-0.0071132053,0.030621234,0.049508184,0.008784956,-0.07032545,0.03192161,0.1364679,-0.06566623,-0.121493585,0.08253675,-0.15027255,0.019337337,-0.0288371,-0.12788375,0.006430134,0.00018731772
-0.18179318,0.023662599,0.10236049,-0.046637096,0.1109916,0.0087780105,0.26262975,-0.090547614,0.19138065,0.16872543,0.14577426,0.16430944,-0.19650935,-0.021898523,-0.049408086,0.026490707,-0.13073117,0.03209488,-0.08860382,0.020277439,-0.12406835,-0.21179146,0.1962212,0.17588401,0.17350768,-0.13764273,0.13933565,0.018837782,-0.052742265,0.14290552,-0.08021642,0.03676651,-0.21899158,0.05694977,-0.056151062,0.15685225,-0.22658281,0.08403493,-0.07181603,0.044443816,0.16090472,0.016415456,0.058907866,-0.07837774,0.04154615,0.22844797,-0.09003625,-0.046776943,0.10908885,-0.07667008,-0.01246848,0.06341409,-0.10453029,-0.11784696,0.026859673,0.07412443,0.19920254,0.075145066,-0.019867094,-0.11312614,0.005229102,0.120101325,-0.041661084,-0.22154376,0.16487235,-0.07176663,-0.005626518,-0.0054021454,0.16559121,-0.02691884,0.0973758,0.012111841,0.08690551,0.14299136,0.26970363,0.23651932,0.0920962,0.04199561,0.10021702,0.1931954,0.11909134,0.09262508,0.06539807,0.13534378,0.012111259,0.017172547,0.05277432,0.049316324,0.035537336,0.044201106,0.09430649,0.13636076,0.19530338,0.18322316,-0.18324664,0.03391377,-0.04841159,0.07987667,-0.14736712,-0.013279784,0.079381056,0.13374873,0.1492441,0.15124662,-0.010696162,0.084583804,0.13665515,-0.043808516,0.05386289,-0.022416838,-0.06989048,0.06225923,0.08808332,0.102277465,0.17861533,0.018876264,0.22866401,0.080195546,0.10113064,0.07778807,-0.006539613,0.11687695,0.11218822,0.07780548,-0.050526343,-0.02459726,0.1316791,0.13987014,-0.006949533,0.050168853,0.04387281,0.044870235,0.018982453,-0.039156586,-0.13878167,-0.081910424,0.08208266,-0.12340471,-0.011338385,-0.46034354,0.0377789,0.07257405,0.028149206,-0.068870515,0.21182016,-0.018773928,0.11497669,-0.017261852,0.005651594,0.09000267,-0.052019577,-0.03586576,0.04197777,-0.035444885,0.13898207,0.05590044,0.08310832,0.07979296,0.08919069,-0.02762132,0.006038456,-0.0038922618,0.055931527,0.056379903,-0.07839756,0.08889542,0.13040309,0.05982778,0.037263833,0.060073894,-0.22464044,0.055357847,0.0025924356,-0.045169875,-0.102975495,-0.034962658,0.08275417,-0.10295343,0.03457983,-0.08348419,-0.045288745,-0.07126445,0.057711743,-0.013923089,-0.16472054,-0.023994863,-0.056381557,-0.11238993,-0.0077600116,-0.15573025,-0.14406987,0.116950385,0.18547422,0.090268046,-0.14489833,0.15253505,0.2020136,0.09340913,-0.16802981,0.024982205,0.1154555,0.10768551,-0.20978826,-0.36600167,0.09170527,0.05492526,-0.06245347,0.0021922053,-0.039762292,0.12655596,-0.029914873,0.14216262,0.07933398,0.09855391,-0.04545211,0.03635852,-0.042291757,-0.14352056,-0.12897703,-0.111972235,0.07613454,-0.34901133,-0.11789358,0.003252333,0.083157025,-0.03934443,-0.14416489,-0.11253085,-0.06557981,0.0077017965,-0.118916936,-0.12045768,0.046827063,-0.025024936,0.054231483,-0.066487014,-0.14913863,-0.10663631,-0.014661072,-0.12578051,0.036943816,0.03832792,-0.10255602,0.0008027062,0.029332926,0.014690089,-0.22641136,0.10189111,0.08552434,-0.2818029,0.09366856,0.029434538,-0.017611135,-0.010897519,-0.06422728,-0.18469965
-0.34109664,0.058322195,0.14949827,-0.1793351,0.13195969,0.015243751,0.24768336,0.12575682,0.41135362,0.11022068,0.09647393,0.095901914,-0.2064338,0.03335817,-0.22933105,0.07819162,-0.0339626,-0.212445,0.10036287,-0.021498514,-0.087569356,-0.064105846,0.28716558,-0.016390253,0.26567793,0.04164297,0.32413158,0.042536285,-0.1071124,0.03852942,-0.16338283,0.10080774,-0.1929068,-0.11558464,-0.11529378,0.35760313,-0.22181141,-0.12688647,0.0018067189,-0.014917889,0.1286215,-0.09904303,-0.01767832,0.07689539,0.1488268,0.12895595,-0.046174124,-0.047756214,0.14274926,-0.1305786,0.15688142,0.107602805,-0.028251601,-0.121428914,0.024426721,0.27052674,0.17329681,0.055724993,-0.06335146,-0.19258519,0.0095564835,0.0830859,0.05009556,-0.05963512,-0.13402373,-0.061995734,-0.12314059,-0.2890652,0.06647687,-0.21803942,0.037798654,0.06548044,-0.14706902,-0.11884738,0.40919363,0.17759055,-0.22141615,-0.067840554,-0.07475814,-0.083925165,-0.1006738,-0.061043993,-0.15644468,0.1250272,0.0016030639,-0.25145385,-0.09092452,-0.20289391,-0.110226214,0.06032507,-0.10959989,-0.013670895,0.14882271,0.25746337,-0.21335681,-0.1338869,-0.15262489,-0.08449225,-0.23240887,-0.010078497,0.05651688,-0.07226222,0.0043268856,-0.028053718,-0.08759868,-0.16069482,-0.169673,-0.084687956,0.16884409,-0.087652296,-0.0147013785,0.18361364,-0.09464152,-0.006247701,0.27210015,-0.045209683,0.15305254,-0.09343096,-0.33416674,-0.21502711,-0.04441787,0.09811296,-0.02019527,-0.20308658,-0.13080251,-0.0693681,0.19702458,-0.017325817,-0.052130774,-0.20832013,0.045305293,-0.0015686553,-0.08345092,-0.12715456,-0.12491931,-0.014948828,0.027909536,-0.18801951,0.098676234,-0.1497192,-0.7372513,0.12047376,-0.17620175,-0.14695989,-0.102251604,0.20075738,-0.13311866,0.1324562,-0.21499784,-0.09030784,-0.052358974,0.06662976,0.09700101,-0.2984501,0.053788,0.15213495,0.10159282,0.22771366,-0.06837682,-0.084023565,0.28091863,0.08748966,0.0770558,0.07502446,-0.01777279,-0.006825444,-0.20310132,0.21636038,-0.012306678,0.020207776,0.21929142,0.023566777,-0.08589732,0.002702745,-0.087885424,0.14521468,-0.1406452,0.12835239,-0.18709221,0.08462581,-0.16772147,0.053882625,-0.013056668,0.121881254,-0.042522825,0.05514481,-0.0131897535,0.027408086,0.25487483,-0.061320543,0.12629569,-0.16193697,0.043612316,0.06002152,-0.1866128,0.11758286,0.017472183,-0.0039214743,-0.012349518,-0.10883719,0.023602441,-0.058710136,-0.1362959,-0.17204125,-0.0042963107,-0.033596918,-0.06807199,-0.009408826,0.017659465,-0.061754312,-0.02317364,-0.03916989,-0.105354115,-0.00072844775,-0.16120835,-0.1135472,-0.1400904,-0.037231926,-0.10038723,0.012910333,-0.13749254,-0.07170085,-0.012863049,-0.03278269,0.11723179,0.05912252,-0.03002513,0.03187022,0.08596006,0.07153585,-0.19474754,-0.11798504,-0.017726911,-0.15472028,-0.1619159,-0.20470363,-0.015980061,0.14632177,0.1408683,-0.20134099,-0.06816901,-0.17515318,-0.086750634,-0.09429208,-0.027647974,0.0027184382,-0.27513537,-0.012258062,0.12783846,-0.2252068,0.1434628,-0.0631142,0.111957595,0.10172623,-0.12195045,0.019423984
0.2889475,0.046420205,-0.1594885,0.1008687,0.05640223,-0.13895419,-0.18026364,0.0027960497,-0.2403063,-0.104585364,-0.19434024,-0.24987519,0.11185419,0.3632896,0.005259496,0.06969858,0.16388856,0.26149252,0.006430603,0.13838612,0.2193291,0.16811013,-0.308224,-0.14422993,-0.17395769,-0.084435605,-0.35147354,-0.0033559985,0.100518115,-0.2784415,0.21285361,-0.16460823,0.13948034,-0.19205971,0.10125794,-0.03490732,0.07789246,0.030423468,-0.025177382,-0.149266,-0.33054197,0.22185883,0.018764315,0.07038499,-0.039999444,-0.252759,0.2080922,0.01977394,-0.10405159,0.04951461,-0.14507793,-0.02569335,0.23526146,0.23987907,0.07520175,-0.066761516,-0.18262611,-0.0575826,0.20244814,0.34315446,-0.0749214,-0.11519297,0.09389267,0.16533667,0.06625411,-0.023362275,-0.06646106,0.049322393,-0.1000311,0.014881369,-0.029657368,0.102476135,0.17252818,-0.05712556,-0.5359146,-0.12937212,-0.05528887,-0.095799565,-0.1557479,0.06626301,-0.12395631,-0.07677221,0.2232608,0.00060074066,0.08814616,0.12522125,0.053084932,-0.07875082,-0.061964266,-0.11854269,-0.04372825,-0.010671291,-0.22814539,-0.22050004,0.193137,0.0049107815,0.17456935,0.05106264,0.12635668,0.06524069,-0.025749829,0.045961194,0.023526616,-0.09752506,-0.009992843,0.19440895,0.124545924,-0.021203049,-0.21719192,0.035348542,0.114676684,-0.10025723,-0.024452766,0.110388905,-0.102978714,0.05794594,0.049526837,0.043977663,0.10897941,0.1353147,0.048304953,-0.062047172,-0.1553596,0.08227851,0.011520567,0.042273432,-0.20998393,-0.028287958,0.040650196,-0.04393834,0.119637966,0.026226765,0.23336697,-0.008662139,-0.03201801,0.14780761,0.18015113,0.042727154,-0.020027075,-0.04135294,-0.0028646833,-0.93884534,0.10052031,-0.0012484402,-0.03587096,-0.12115377,0.027484665,0.050486986,0.11985383,-0.021185726,0.048103005,-0.052032404,-0.012540337,0.13063605,-0.14465012,0.06470441,-0.021665215,0.022686254,-0.028730512,0.15351725,-0.044213515,-0.10833844,-0.035375554,0.08099627,0.06275008,-0.0037686012,0.05539708,-0.027648875,0.10548762,0.02555082,-0.106723435,0.0042861574,0.03795553,-0.029696705,0.25828,-0.021386445,0.15713532,-0.059429973,-0.03744617,-0.0096442,0.0018047013,-0.054456472,-0.120611,-0.10315713,0.07305841,-0.0029679397,-0.04165862,-0.012296298,-0.08752781,-0.025393339,-0.15278995,0.033384815,-0.15741438,-0.15605664,0.021015706,-0.23106797,-0.0027917216,-0.20046659,-0.053031012,0.09529282,0.15143757,0.10914416,0.10956613,0.1274274,0.025313484,0.14450203,0.13869047,0.028284663,-0.011121832,-0.0149998,0.0016395634,-0.03503435,0.11874467,0.0031669235,0.15250017,0.14803833,-0.0065592607,-0.019455194,-0.060441285,0.025271563,0.07407067,-0.009416669,-0.096322365,-0.09095963,-0.1720848,0.028295767,0.0236201,0.20081487,0.09775529,0.020831674,0.13175313,0.04254947,-0.037508838,0.24384616,0.01581075,0.02365274,-0.06765576,-0.19604488,-0.039735816,-0.037459612,0.0531436,0.14597347,0.06433987,-0.10563806,0.11437422,-0.16695234,0.05603391,0.042801667,-0.0101677105,0.16129655,-0.04147572,0.058839995,-0.111522764,-0.16507354,0.031508915,0.11134378
-0.18246648,0.12002546,0.031444725,0.014124908,0.04943517,0.091948465,0.15967377,-0.027591078,0.38267455,0.22039072,0.12441029,0.33231735,-0.040278506,-0.21188793,-0.102006815,-0.06490291,-0.121461,-0.048678856,-0.037862793,0.06975202,-0.031409007,-0.08150094,0.2973974,-0.14970584,0.11898558,-0.057914894,0.19824319,-0.25628126,-0.18020111,0.21595638,-0.09626274,0.27368948,-0.19585426,-0.038991436,0.21026306,0.21278496,-0.17524047,-0.009502237,-0.27893275,-0.020918611,0.50131404,-0.21422398,-0.00817808,0.008197705,0.016594604,0.07281185,0.016123632,-0.059295338,0.04143984,-0.24076556,0.0308898,0.06229808,-0.3277107,-0.12703879,-0.082534224,0.11963662,0.14369932,-0.10895231,-0.43299213,-0.29986823,0.095193006,0.27634263,-0.12939797,-0.17669527,0.11655846,-0.026105102,-0.1822413,-0.017163943,0.13648833,0.123302326,-0.0025891964,-0.03890235,-0.081170656,0.048214238,0.4509185,0.32450452,0.17815153,0.071336955,-0.0050555454,-0.05635015,-0.016749512,0.16254127,0.10378951,0.12070463,0.025280824,0.08488641,0.044501673,-0.055932533,-0.0057390444,0.10918867,-0.07516741,-0.063317895,0.12331127,0.21911885,-0.21724723,0.070833795,-0.08702293,-0.07995121,-0.0693514,0.064526774,0.07024269,0.19761509,-0.0018918724,-0.05665673,0.107912265,0.09019961,-0.0006242121,0.16811785,0.028164897,0.011840965,0.156218,0.17102778,-0.015898522,-0.0030752406,0.046673167,0.06730664,0.0028843333,0.09832812,-0.12172402,-0.0009439398,-0.03604214,0.03766949,0.13633046,0.13069981,0.10457325,0.07964235,0.2036844,0.08893033,0.06100921,0.054783236,0.092018604,0.039029267,-0.12925877,-0.022537632,0.030522885,-0.10599035,-0.21591982,-0.19310449,-0.0055012517,0.019001177,0.04007217,-0.033872496,-0.658653,0.21524863,3.014406e-05,0.1564253,0.09852122,-0.07178388,-0.06743913,0.07053972,-0.023996849,-0.009377127,-0.11477367,-0.20554213,0.0030373584,0.05779305,0.23330912,0.055197,-0.048038207,-0.065850906,-0.0696088,0.062163923,-0.09418403,-0.1345846,-0.13456687,-0.15129565,-0.032000117,-0.029657982,-0.056999717,-0.19712885,-0.14913534,0.05552653,0.027876053,0.0711252,-0.062054437,0.2639608,0.13241337,0.034190666,-0.04707203,-0.023110434,-0.0021804713,-0.057588596,0.106252156,-0.0012728652,0.043438777,-0.1691048,0.08205526,-0.061211765,0.19351111,-0.012962092,0.026778007,-0.030613303,0.063420065,0.042113293,-0.09106832,0.12270728,0.05393477,0.010861218,-0.18477531,-0.045116067,0.13951702,-0.15561005,0.010332503,-0.019400155,0.08898979,-0.019508451,-0.25106585,-0.10939759,-0.0825827,0.01789319,0.014270999,0.095159225,0.09056057,-0.069380805,-0.008886879,-0.09040813,0.0018176599,-0.0374902,-0.1566136,-0.16718909,-0.09861372,-0.12042274,0.05295516,-0.0839596,-0.042089224,-0.023626497,0.04071225,-0.045327313,-0.10062584,-0.095846556,-0.14858069,-0.11945108,0.18320346,0.031861182,0.12889749,-0.00089736754,-0.23628461,-0.063129306,0.14451416,-0.046917867,-0.025185406,-0.05329477,-0.21109842,0.07212423,-0.12252585,0.0062204334,-0.0044710888,0.102050446,0.19893324,-0.21017028,0.044600733,-0.020967774,-0.10730871,0.11862752,-0.063041955,0.00511353
-0.32024828,-0.07307696,0.22858739,0.04723528,0.0034895234,0.09058524,0.06856831,-0.0038527723,-0.011398139,0.13267513,0.086521745,0.046413325,-0.04083284,-0.060917776,0.10201056,-0.26373354,-0.26660466,-0.14760844,-0.103606515,-0.18108359,0.039914414,0.05651459,0.1318066,0.08290251,0.15120734,-0.028313145,0.18166667,0.31249043,-0.13284793,0.36729816,-0.1357191,0.19908015,-0.21616781,0.032943,-0.05582441,0.109249696,-0.05879741,-0.068906926,-0.04422136,0.16581483,0.4148499,-0.069534004,0.17093715,-0.00028192514,0.25655827,0.117481895,-0.028125716,-0.00083690294,0.2405422,-0.13249372,0.13101362,0.111774065,-0.08273417,-0.20729318,0.075763,0.21652523,0.27723902,0.15016414,-0.26198384,-0.07166927,0.032629866,0.16235416,0.06561402,-0.21101409,0.09586451,-0.13424568,0.05553849,-0.15185921,0.076731995,-0.03335017,-0.046499252,-0.07527108,-0.23247036,-0.17774473,0.5027861,0.11054894,0.092039295,-0.07785982,0.07866038,-0.21409732,-0.0089903185,-0.110511705,-0.06261325,-0.12776154,0.033208787,0.059839483,-0.07820882,0.020637393,0.038595337,0.103962556,-0.042107265,0.14035082,0.114466526,0.03313499,-0.16001832,-0.012080154,-0.010794319,0.0029165815,-0.098775685,-0.12695341,0.12082597,0.08296503,-0.05755742,0.0914883,0.0070018945,0.11633943,0.056896664,0.028402269,0.1313076,0.03139444,0.10744163,-0.0141677875,-0.00890585,0.056239486,0.01511198,-0.086413525,0.18610959,0.028201807,-0.018570473,0.005612618,0.069473095,0.08254443,-0.0007291208,-0.05380556,-0.018567974,-0.07274894,0.14622141,-0.070704445,-0.13496687,-0.10829212,-0.14880711,-0.08229597,-0.23279424,0.10953261,-0.17708898,-0.16250482,-0.059306253,-0.13872364,0.14549194,-0.19023237,0.00028929656,0.16614296,-0.1767999,-0.8345778,-0.153479,0.07820424,-0.14528675,0.1620694,-0.17700765,-0.088190146,0.08651193,-0.052938104,0.23949172,-0.11221461,0.13435638,0.15360296,0.19476263,0.12107009,-0.055093225,-0.009092919,0.03174898,0.049252223,0.13965085,-0.023425397,-0.17843407,-0.2051667,-0.04454852,0.11455499,-0.059664875,0.1657332,0.12310945,-0.13722679,-0.18137866,0.17911834,-0.13821788,0.16642317,-0.25526524,0.25459778,-0.01610403,-0.009247692,-0.13222837,0.11758223,-0.108695745,0.1670086,-0.06926671,-0.15498295,-0.09850397,0.19615877,0.24050373,0.16078752,0.15081818,-0.032107364,-0.0025304363,0.11714571,-0.22206827,-0.012160473,-0.141109,0.06730327,-0.11661859,0.08988869,0.004038911,-0.17779908,-0.17042674,-0.13532062,0.09368633,0.027225051,-0.089675315,-0.06685162,-0.020708248,-0.10959815,0.05010448,-0.1426299,-0.04095439,0.035887968,-0.19640681,-0.009705726,-0.13246895,-0.084587716,-0.17692414,-0.0704215,-0.22148818,-0.0944427,0.17570642,0.0023201685,-0.035032053,0.010259445,-0.09804338,-0.06690731,0.0033716867,0.007311259,-0.31700715,-0.14210352,0.019555295,-0.028744815,0.03938286,-0.17000198,-0.019083561,0.03668002,-1.41864875e-05,-0.16566361,-0.17480537,-0.021200998,-0.15275468,-0.04100453,0.12953208,0.049227435,-0.14733672,-0.10284599,0.061250675,-0.10528847,-0.09510296,0.03521384,0.015760213,0.08837384,-0.13464451,-0.08078288
-0.2560891,-0.013374361,0.12563963,-0.083333924,0.046683874,0.04621661,0.06894254,0.06437938,0.15532205,0.18533549,0.029629823,0.18562534,-0.13508797,-0.21540312,0.034035303,-0.16196609,-0.35054347,-0.27555525,-0.0045242263,0.022876682,-0.1421054,-0.1265402,0.32101476,0.03962745,0.11706559,0.10883936,0.32762304,0.2142229,-0.104640335,0.37790164,-0.04088879,0.0790441,-0.22648948,0.0823522,0.050882436,0.3960338,-0.3150937,-0.2340999,-0.20685269,0.10447608,0.2805445,-0.17840153,-0.06240671,-0.08794338,0.10971373,0.15330705,-0.07430706,0.035146568,0.10758999,-0.052715123,0.15516567,-0.02246358,-0.18772875,-0.15623869,-0.12595625,0.010640238,0.11143944,0.14095902,-0.27345458,-0.26375186,0.01237207,0.28198102,-0.21682416,-0.07174717,-0.08050416,-0.09438424,0.030764792,-0.07266637,0.08480466,-0.025677513,-0.057149578,-0.0721322,-0.023678567,0.0019462706,0.44988295,0.1126156,-0.054749735,0.031122025,-0.07324933,0.043887477,-0.14224987,0.08747447,-0.046428468,0.059440512,-0.07066936,0.028444415,0.101171225,0.028731184,0.025229793,0.16171259,0.067218006,0.0746096,0.23070545,0.29281867,-0.114084244,-0.046144053,-0.11514166,-0.031042283,0.00085956894,0.06504042,-0.06651958,-0.04908908,0.042173732,-0.032462202,-0.017328087,-0.15949665,0.046847153,-0.05493241,0.023936097,-0.039984502,0.0758668,0.27454695,-0.046372667,0.038423598,0.2066159,-0.06411687,0.004616346,0.010614008,-0.18468672,-0.024638407,0.030343886,0.15809813,0.049786802,-0.243956,-0.03814729,0.08580569,0.17093712,-0.05406973,0.034339607,-0.10330706,-0.13155094,-0.0042055836,-0.07288614,-0.12615237,-0.13097812,-0.12467508,-0.24452044,-0.20068967,-0.0496035,-0.34330207,-0.075480014,0.20015372,-0.13075581,0.064787224,-0.6044904,0.05038159,-0.18392986,-0.012703777,-0.26301044,-0.081607975,-0.072379045,0.13263603,0.058107536,-0.12390836,0.24273549,0.18353105,0.15094122,0.14612105,-0.05064553,-0.10441234,0.13850476,0.120041184,-0.01491574,-0.06665867,0.06073677,-0.12314692,-0.09344547,0.117205925,-0.101765886,0.08145886,0.05466218,0.064214125,-0.17792915,0.052993048,-0.15376465,0.13600142,-0.105236635,0.09787095,-0.13849595,0.11261236,-0.11114824,0.03484112,-0.23158272,0.08685548,-0.09179406,-0.16312136,-0.011579487,-0.059038807,0.25758874,-0.079731435,0.25113925,-0.16833124,-0.19617878,0.18192007,-0.012918876,-0.009292391,0.040211514,0.17990346,0.0013374578,-0.010906571,0.121839054,-0.0089424625,-0.13129395,-0.017399637,0.033630416,0.015423717,-0.1298888,0.035089683,-0.18481763,-0.049506605,0.16112892,0.008721786,-0.060488865,0.07073117,-0.0736587,-0.027742004,-0.05227088,-0.11569851,-0.0027375557,0.06800967,-0.04698684,0.00031479832,0.070105374,0.016339373,-0.056859083,0.0953518,-0.033070087,-0.028368836,0.02390132,-0.067964755,-0.121519014,-0.0602481,0.040658023,-0.119476765,0.019493612,0.036007673,-0.059596714,0.011029823,-0.009452421,-0.08684403,0.059531357,-0.07374931,-0.074428685,-0.022539947,0.025777578,-0.0009938355,-0.15310058,-0.12291018,-0.052789927,0.0663374,-0.057021685,-0.036043428,-0.0023261597,0.022293624,-0.009724053,-0.044214968
0.19626029,-0.03807989,-0.19232295,-0.014285546,-0.075594105,-0.18170495,-0.17203233,-0.14167951,0.010908473,-0.09458561,0.2183207,-0.15774617,0.22307703,0.023485696,-0.020311587,-0.026885957,0.112674855,0.20216954,0.022758085,0.04432736,0.19841701,-0.058611576,-0.3052717,-0.10275546,-0.27840132,-0.054568257,-0.20171274,-0.1612079,0.17173032,-0.13330016,0.20815122,-0.09860257,-0.023931367,-0.07181674,-0.10248195,-0.31078872,0.20873748,0.026167609,0.007439427,-0.03683494,-0.30080867,-0.043022882,-0.17866081,-0.09219211,-0.1416064,-0.27421418,-0.045987673,0.055722527,-0.16177197,0.120442554,-0.06821039,-0.027994296,0.15465023,0.14445275,-0.19822824,-0.22435993,-0.19595817,-0.15088317,0.1226677,0.114842914,-0.10499979,-0.26745993,0.071427554,-0.014044288,0.049033523,0.2627105,-0.024105016,0.18650757,0.0029330477,0.028857928,0.019546896,-0.047800355,0.27553082,-0.179113,-0.3870832,-0.0817854,0.035743166,0.05293578,-0.13322367,-0.04559794,0.03616427,0.09410206,0.10894483,0.025219817,-0.034153778,-0.06893959,-0.06761342,0.020159468,0.0035071555,-0.22685038,0.078145996,-0.12342155,-0.043585937,-0.1144978,0.08390195,0.038505793,0.014570108,0.15526292,0.093547866,0.034990516,0.009139987,0.03711178,-0.029356003,0.038282715,-0.022583239,0.12978663,-0.10755341,-0.08311368,-0.07312166,-0.02006149,-0.19989993,-0.052008964,0.008102771,0.018790305,0.09362478,0.13187002,-0.026263935,0.07197122,-0.010936588,0.07973957,0.017854588,0.11951776,0.028027657,0.06932962,-0.08378255,0.05838009,-0.26480606,-0.034540858,0.10095216,-0.022891367,0.2287103,-0.14859745,0.019895516,0.108673394,0.11424155,0.047548816,0.1972405,0.28791842,-0.015486911,0.08682532,0.079565205,-0.015414034,-0.0047990913,0.09318402,0.079975456,-0.65741533,-0.06828356,-0.005958093,0.15964022,0.026568906,-0.028732177,-0.13798232,-0.08101295,0.05098467,-0.05216418,0.016423415,-0.08923317,-0.03883508,0.09509665,0.10910154,-0.10266181,0.05469329,0.056932632,0.06767107,-0.011343672,0.09250032,0.05749902,-0.020842524,0.023900172,0.012493865,-0.26029998,-0.22598007,0.10211558,0.09493956,0.05885308,0.007877689,0.12282647,-0.0071341177,0.08086371,-0.020587146,0.084685676,-0.08609141,0.015907224,-0.1926474,0.028587013,-0.05381086,0.049305163,0.046027638,-0.17978136,-0.03757093,-0.050718013,0.08330896,-0.016596887,-0.11891932,0.12937,0.02553408,-0.014495323,-0.07534901,0.072925694,-0.027258791,0.18053399,0.05177246,0.060443617,0.011382983,-0.02704039,-0.00058256875,0.10467885,-0.024827437,0.14041081,0.10157552,-0.009976833,0.1323987,-0.053027865,0.07842927,0.020829983,-0.012009467,-0.013952988,-0.17059535,0.0422491,-0.04069144,0.039801,0.092359476,0.075226106,0.100041874,-0.0779995,-0.038782697,0.02216995,0.037036747,0.16099831,-0.0046915207,0.08475147,0.07603263,-0.11484098,0.08397037,-0.07419196,-0.14219253,-0.0714136,-0.05271292,-0.036462575,-0.07872343,-0.06778818,0.051440343,0.12616798,-0.07944529,0.107898235,0.14621687,-0.063103534,0.09221517,-0.07471478,-0.025801945,0.098326184,0.025741043,-0.03543228,0.064429365,0.09296804,-0.07512027
-0.067014925,-0.09263983,0.063931555,-0.03324207,-0.05909507,0.15913238,0.21559857,-0.08759049,-0.08290522,0.063783795,0.1404552,0.096663915,-0.16516466,-0.09476665,0.10422927,-0.14905415,-0.17617616,-0.22359826,-0.21339056,-0.08229175,-0.14386614,-0.23286705,0.12975499,0.15122332,0.10015899,0.13088785,0.27169788,-0.059806716,-0.17664757,0.2646322,-0.17610142,0.22434832,0.0029948768,-0.017900217,0.06281356,0.31226167,-0.31340137,-0.15385436,-0.17825899,0.020959815,0.18713664,-0.18346745,-0.03011695,-0.059566103,0.097834945,0.13917735,-0.119199336,-0.06626177,0.11391891,0.003137388,0.09975466,0.08201961,0.03386994,-0.14596328,-0.0022538481,0.1667251,0.3214234,0.037629146,-0.1350239,-0.16742349,0.08138661,0.13003206,0.08030883,-0.00020217421,0.06393272,-0.1408255,-0.15435192,0.014317116,-0.05594654,0.030364227,0.08160331,-0.15703887,-0.37275732,0.015425941,0.5329923,-0.005508974,0.09334334,0.10092433,0.103388615,0.056140658,0.07274882,-0.06604601,-0.10928808,0.032297388,-0.20549668,-0.051623955,0.043705545,-0.1880238,-0.17039853,0.11334007,0.024888879,-0.07205857,0.14044139,0.1286412,-0.027872017,0.12036245,0.05043739,-0.032636672,0.019012291,-0.1985838,0.10967003,-0.007545748,0.12550001,-0.02777223,0.07300212,-0.15211622,-0.2320657,0.10662727,0.051721867,-0.06715733,0.017068118,0.010820533,-0.07699293,-0.06969799,0.15836653,-0.2534368,0.23787804,-0.0518537,-0.100410014,-0.08402547,-0.052766193,0.04542982,0.04999366,0.024809446,0.025781715,-0.13848092,0.2548306,0.081560515,-0.08056703,-0.08510004,-0.011621821,-0.07672499,-0.16447537,-0.025836235,0.035418358,-0.0875337,-0.18483908,-0.2257861,0.08120255,-0.036758225,-0.08613288,0.13539806,-0.09522705,-0.023850283,0.071483135,0.27394545,-0.5927922,-0.09049537,0.025323257,-0.043958444,0.037220374,0.113658205,0.04179461,-0.21306655,0.0200098,0.02093453,0.059463516,0.10598744,0.048385616,-0.24600503,0.1279475,-0.15150505,-0.010667533,0.04789205,-0.11182806,-0.1269045,-0.09216461,0.07114818,-0.030133901,0.06271504,0.0063234805,-0.2032787,-0.08581037,0.025918314,-0.13380122,0.13552877,-0.04976691,0.10674612,-0.026001146,0.08309495,-0.09729469,0.0696786,0.067911975,0.16322564,-0.09627397,-0.11544233,-0.13807808,0.11649251,0.045030355,0.0066930116,0.12658761,0.0040569776,0.018531097,-0.039469536,-0.16635473,0.13677947,-0.10959339,0.15695915,0.13670486,-0.13695699,-0.09697816,-0.0979429,-0.046158288,0.06883935,0.028300058,0.052967537,0.020663489,-0.0017267303,0.00028373697,0.05422375,-0.00060831587,-0.03603301,-0.07476916,-0.054528385,-0.06809059,0.051023528,-0.020576982,0.089485444,-0.00813403,-0.0269314,0.027437737,-0.083455846,0.066228986,-0.041537065,0.088488236,-0.11979377,-0.09145601,-0.17973359,-0.06944118,-0.031436253,-0.1616391,-0.08578089,-0.15552087,-0.14451106,-0.056378648,0.05265596,0.14317645,-0.040664498,-0.071951196,-0.0125707155,0.0073152296,-0.13870081,0.041988775,-0.073596366,0.13701054,-0.095930174,0.026329782,-0.033954855,-0.04184376,-0.021247558,0.19454749,0.08370166,0.10841039,0.018716164,0.065152965,0.011040483
0.16947395,0.006156593,-0.057251867,0.118667826,0.14140618,-0.10050506,-0.118993126,-0.102836534,-0.24245451,-0.18769124,-0.20918024,-0.14080364,0.01702128,0.18108188,-0.0031255563,-0.090659626,0.07243619,0.2285446,-0.054035928,0.14178042,0.024206648,0.15450737,-0.26718137,-0.04153482,-0.019778814,-0.030402638,-0.23155142,-0.034866363,-0.12441951,-0.21943492,0.046197448,-0.12666564,0.18790862,0.036010146,0.013531742,-0.17291968,0.26507854,-0.03557432,0.2563203,-0.07409158,-0.27081245,0.10666427,-0.23165475,0.21821524,-0.10143453,0.012990359,0.12612185,-0.14364132,-0.018227365,0.22477712,0.015550192,0.06857297,0.016665155,-0.05089702,-0.099741414,-0.2381386,-0.09044581,-0.1651115,0.09959453,0.17905097,-0.1016971,-0.040624663,0.18380103,0.22719696,-0.14523865,0.21157518,0.10103499,0.115377545,0.044622865,0.05959599,0.02195114,0.11121198,0.21641307,0.1124114,-0.10133785,-0.082138814,-0.04971145,0.14225057,0.17424741,4.8095153e-05,0.045491,-0.05651773,0.13157988,0.028291829,0.081603214,0.15756215,0.113452934,0.13419448,0.14307077,-0.038040508,0.17777856,-0.10617495,-0.013816364,-0.18368316,-0.13690335,0.19194923,0.17931591,0.1951119,0.06339199,0.13199952,0.07194041,-0.069757275,0.006828082,0.14483108,0.022423953,0.08210171,0.043683432,0.061057016,-0.074018426,0.0834981,-0.028021527,-0.09008021,0.01396549,0.1398682,-0.006574397,0.25600493,-0.21124464,0.0585883,-0.06954067,0.07195618,0.051968355,-0.13203567,0.027683973,0.0911438,-0.006101828,0.28997144,-0.04368499,0.012076777,0.17988873,-0.02200931,0.08105619,0.09928755,0.19934323,0.05333881,-0.01740868,0.06005535,0.2924569,0.13067076,-0.15639718,0.23317234,0.017923554,-0.2505707,0.08253049,-0.07997259,0.17735286,-0.17509682,0.011332665,-0.86971,0.22527036,0.1855201,0.11630989,0.01314873,-0.06329836,0.11883197,-0.05744151,-0.115100786,-0.1548299,-0.23403993,0.055068668,0.16125275,0.033718586,-0.061447587,0.07255675,-0.11941141,0.10995969,0.08558546,0.08437564,-0.055886358,0.09367953,-0.07204558,0.085966125,-0.033642307,0.052804533,-0.020415055,0.17089616,-0.085683204,0.15745617,-0.059990708,0.0695664,-0.117697,0.12878934,-0.037874117,0.07241267,-0.16096254,0.09605863,-0.05753737,0.15138656,-0.34890184,-0.13644436,0.10568286,-0.24125525,0.106499985,-0.20748374,-0.16641662,0.07909885,-0.31468746,0.04768864,-0.048510402,-0.064601734,0.01358318,0.05198342,0.091048956,0.21826921,0.10426775,-0.062050875,0.11966584,0.14063719,-0.022235595,-0.028275933,-0.060615946,0.0022723794,0.049955837,-0.002733651,-0.035622116,0.13092822,4.5298915e-05,0.023875661,0.15466456,0.1533103,0.14375755,0.09867184,0.20904328,-0.32201356,0.039470702,-0.16406651,0.014956522,0.08802232,0.23709019,-0.02624443,-0.026670948,0.1026246,0.110980384,0.06864581,0.06356493,0.047972932,-0.013107693,0.012658133,-0.050526332,-0.017500576,0.027040457,0.04870161,0.085422784,0.27472824,0.07711684,-0.15461302,-0.12341413,0.06916039,-0.058550756,0.06910339,-0.005960807,-0.14015432,0.07079909,0.09971451,0.04647135,0.2669469,0.016060406
-0.14433697,0.19941434,0.1833513,0.030147092,-0.04640645,0.13911317,0.08738819,0.16247162,0.20673569,0.11283264,-0.028452508,0.121653445,-0.07522554,-0.03631394,-0.05172551,0.103187464,-0.08394445,-0.21472816,0.06991193,-0.026728122,-0.11715106,-0.09479747,0.1866418,0.13125509,0.12526794,0.09366897,0.037320144,0.10825358,-0.04898633,0.11109043,-0.06276267,0.14934196,-0.023871033,0.11361784,0.15271074,0.27770492,-0.22543472,-0.028886257,-0.014653948,0.14379856,0.42576277,-0.19274428,0.14782569,-0.05109211,0.12867184,0.076867424,-0.0796966,-0.15429433,0.009798657,-0.26920393,-0.010386016,0.1769459,-0.20279807,-0.18833491,-0.10304452,0.1261796,0.1685809,0.08201643,-0.12393106,-0.21147947,0.124965794,0.24096088,-0.11164303,-0.05525924,0.22410654,0.034679998,0.03230642,0.03225593,-0.011519562,-0.062168136,0.08977389,-0.019707749,-0.1323865,-0.045533817,0.32050323,0.28509447,0.13981166,0.17857791,0.15113153,0.20455089,0.12507857,0.10276439,0.15996629,0.019102633,-0.008803044,-0.11228272,0.24355526,0.07527592,0.0023078157,0.17083552,0.10961905,0.2253762,0.2257432,0.1934386,-0.14285673,0.12184627,-0.04877298,0.1488694,-0.0043254383,0.025682405,0.08466616,-0.048519284,0.06688315,0.12121603,0.102641195,-0.2158731,0.074014895,0.08964278,0.06936945,-0.031641673,-0.026993744,0.19751702,-0.040035814,0.07699314,0.11767682,-0.04882141,0.2876564,0.073987246,-0.09993799,0.040446967,-0.16688529,0.08060076,0.16959074,-0.0967569,0.009876283,-0.030477487,0.21472865,0.113914266,0.023864407,-0.078065515,0.006563024,0.0073161274,-0.16087604,-0.05778918,0.0981195,0.05068527,-0.32288975,-0.08244268,-3.014976e-05,0.038688947,-0.04732188,-0.04909673,-0.053293917,0.055689894,0.14809217,-0.03511817,-0.18444717,-0.1813938,-0.69670135,-0.18747804,-0.004550714,-0.058853406,0.07491894,-0.06825771,-0.003207299,0.14875805,0.122423746,0.01960036,-0.045644224,-0.055348177,-0.08842175,0.028047778,0.05778596,-0.16936141,-0.11584854,-0.14526553,-0.023817748,0.09963341,-0.054483697,-0.0062929974,0.15971972,0.16909811,-0.16667625,-0.037362747,-0.2208964,0.14278014,-0.019552074,-0.033706386,-0.110359214,-0.0037826758,-0.08902536,0.15853612,0.07248887,0.1711363,-0.070586175,0.016831389,0.19736086,0.039990697,0.19494222,-0.04264589,0.016241442,-0.028671341,0.0036345888,0.12555034,-0.10146285,0.01950727,0.07795504,0.012160646,0.05368158,-0.009789358,-0.07189812,-0.07319379,-0.114331216,0.0074691656,0.13440976,0.009057791,0.019708658,-0.0474931,-0.04259027,-0.0029796353,0.012999079,-0.019946452,-0.06770451,-0.0035558275,-0.068218,-0.08947681,0.053075776,-0.06607151,-0.10750478,0.042609785,0.17637467,-0.1622282,0.13764417,-0.009948106,0.03620491,-0.009275525,0.054460794,-0.10618021,0.07552772,0.05702293,-0.20694534,0.14250426,0.037807398,-0.04296796,0.05703443,0.11159051,0.0060447794,-0.18777283,-0.09954806,0.123017944,-0.090527,0.03480858,-0.041381367,-0.06850357,-0.046167362,0.108870335,0.09278168,-0.043358292,-0.040668074,0.058050755,0.07886633,-0.027870849,0.057927087,0.090849936,0.07030758,-0.007135993
-0.23737769,0.120697096,0.21198256,-0.11532899,-0.01457952,0.16702752,-0.009777937,0.19462173,-0.076798856,0.30582398,0.22274694,0.15790261,-0.19631547,-0.048659157,-0.020777173,-0.07426144,-0.056777183,-0.34070286,-0.1131434,-0.063247666,-0.1252588,-0.11402975,0.29651827,-0.06762459,0.16399288,0.123013094,0.0056996364,0.21400121,0.01940529,0.23833969,-0.0021238015,0.123639315,-0.007201355,0.1725646,0.21227616,0.18703952,-0.18088521,-0.13958445,-0.1437829,-0.03094293,0.3423715,-0.16693906,-0.044507276,-0.15159348,0.19302392,0.25081885,0.0066218385,-0.04177804,0.116552874,-0.12744032,0.16499022,0.013503965,-0.23012675,-0.18322527,0.061160512,0.1533569,0.26558134,0.01622953,-0.2969117,-0.2237634,0.0812539,0.1430097,-0.03337512,-0.043180898,0.09109423,-0.05956846,-0.07286332,-0.17930494,-0.03031894,-0.0131914485,0.08293258,0.03220163,-0.20461595,0.050318882,0.64988387,0.24266413,0.0025417006,0.18125498,0.10410141,-0.036380418,-0.011546054,-0.13462098,-0.121093154,0.10868029,-0.06657316,0.06854421,0.124759875,-0.09935515,-0.11949625,0.19256124,0.0095601715,0.14019704,0.16899732,0.22863032,0.0063978615,0.052734878,0.06895877,-0.13618651,0.14786394,0.076478116,0.15818596,-0.023306584,-0.059661195,0.0021809097,0.092308186,-0.2097851,-0.17439678,-0.16320416,0.062725686,-0.006891389,0.03282681,0.19401452,0.025694996,-0.14015047,0.14957325,-0.04401572,0.049744207,0.03547384,-0.07236218,-0.10350736,-0.014959166,0.046605375,0.11841538,-0.030164154,0.014798712,0.074715704,0.20116432,-0.09163175,-0.052213296,0.11177092,0.16627128,-0.07089134,-0.19183359,-0.067298815,-0.020970838,0.12687929,-0.16871749,-0.11563625,0.14378616,-0.12818164,-0.23572475,0.15205358,-0.12548168,-0.15668006,-0.023812974,0.21894433,-0.1142399,-0.043838397,0.061762866,-0.79728,0.08607492,0.119372405,0.027610805,-0.18109508,-0.014158197,0.14155789,0.23883139,0.09715759,-0.13244174,-0.060849406,-0.0838736,0.058179323,-0.02124719,-0.024011489,-0.08244157,-0.06928007,-0.124417,0.011550763,0.12486392,-0.13407479,0.108211264,-0.030240277,0.018170502,0.07856351,-0.14266214,0.23341848,-0.032492,0.10914976,-0.2230183,0.17247544,-0.15809473,0.099712186,-0.16852117,0.14286292,0.06666862,-0.24240834,0.040778447,0.06797163,0.19817744,0.060508437,0.2379285,-0.2035304,0.009250571,0.18109445,-0.11072396,0.0056865835,0.13358955,0.12884732,0.20828721,0.15040742,-0.4458229,-0.08313381,0.057854563,0.07201514,0.043850966,0.03205376,0.058261298,0.08668908,0.027730837,-0.029922249,-0.13058022,0.020677302,-0.06253293,-0.06933663,-0.0404702,0.06457802,0.015105245,0.015723303,-0.10167068,0.08044205,0.05360801,0.06366928,0.10075263,-0.015879381,-0.017758774,-0.07128156,-0.15575905,-0.09162198,0.066922486,0.01821352,-0.0148429815,0.14911109,0.12885948,-0.067476355,-0.1195738,-0.10174765,0.087104775,0.09798427,-0.023920976,-0.037731186,0.17090149,-0.09778046,0.067806974,-0.11096334,0.06388704,0.1404964,-0.11167256,-0.019436667,-0.03838866,-0.071238086,0.020949451,-0.1123727,0.16556795,-0.019771641,-0.016395688,0.03377741
-0.041831307,0.08983221,0.30739447,-0.07717079,-0.002286078,0.086460836,-0.028230049,0.008283751,-0.1750363,0.11362357,-0.11414786,0.09051798,-0.039158653,-0.113690935,-0.27666563,-0.029257333,-0.22898535,-0.17459498,-0.06756632,0.039855093,0.07776155,-0.0096947355,0.100491375,0.09319051,0.11373867,-0.12970248,0.0033943185,-0.027086396,-0.17726876,0.03297531,0.032980137,-0.009352829,-0.0839109,0.04377381,0.051082473,0.34718725,-0.18447252,0.06279585,-0.16957825,-0.1399334,0.2552754,-0.029907387,-0.17994756,-0.058431737,0.0061516818,0.21948186,0.022343174,-0.16870457,-0.07644793,-0.14950188,0.008991921,0.054048166,-0.25400287,-0.16364199,0.014776884,0.11707971,0.1442199,-0.18926671,-0.0050763777,-0.09856222,0.054224417,0.2776308,-0.041592613,-0.1852097,0.020782227,-0.0065888464,0.0556142,-0.015648907,0.17928684,0.12758431,0.073026516,-0.20770986,-0.14663768,-0.09595278,0.23678268,-0.015494988,0.22173318,0.014413716,0.06789352,-0.0804164,0.055899963,0.24199726,0.0068288115,-0.078559384,0.18598041,0.025523704,-0.028114123,-0.010028686,-0.018357703,-0.03749736,-0.077039994,-0.04618939,0.061048154,0.029589528,-0.046980526,-0.009037312,0.13615139,-0.050670635,-0.060398474,-0.0091673685,0.04737883,0.119600944,0.1357736,0.041650616,0.16299908,0.08487686,-0.016704973,-0.11567561,0.11583774,-0.08903268,0.06497147,0.17810363,-0.08040141,0.059697017,0.031412244,0.0430027,0.3521876,0.23352318,0.025227744,0.11575023,-0.060732994,0.11094714,0.16298893,0.254066,-0.006541821,-0.10215139,0.20631263,0.030207379,0.07653321,0.0820119,-0.034718167,0.021022048,-0.09111228,-0.16906345,0.04539917,0.01489031,-0.070266485,-0.09368966,-0.08874052,-0.044342585,0.087209895,0.09352059,0.11046779,-0.016199306,-0.05026095,0.08170102,0.037242092,-0.19351111,-0.0012242736,-0.08559091,-0.35031417,-0.11738609,0.022414513,-0.022952048,0.031552397,0.04252172,0.060281087,-0.082619324,0.025152335,-0.011328815,-0.040921666,-0.037851777,-0.10498335,-0.10356324,0.074132815,0.078039944,0.053687964,-0.04018313,-0.0320423,0.00080996816,-0.15208691,0.121605285,0.044052463,0.03593669,-0.029678872,0.022188108,0.08847274,0.021570407,0.086336024,-0.023148965,0.041645598,-0.005368309,0.03775716,0.03832725,-0.13480884,-0.04909246,-0.12196347,-0.066181414,0.1490434,-0.12863141,0.07177878,0.1662611,-0.13615738,-0.03485125,-0.012498365,-0.2252433,-0.028408106,-0.1736622,-0.13167444,-0.06752384,0.05040551,-0.15035717,-0.0903363,-0.20919703,-0.12550113,-0.0812241,0.024307717,-0.002083546,-0.08508524,-0.012847043,-0.07165701,-0.062052377,-0.012760729,-0.022972006,-0.28196183,-0.045769546,-0.12561917,0.03670876,-0.021037024,-0.14231128,-0.09724833,-0.092168316,-0.08014586,-0.16010952,-0.11776777,0.029631991,-0.13121139,-0.11753325,-0.11890511,0.033379696,-0.21120125,-0.065660045,-0.04347773,0.0071779154,0.017184077,0.010277296,-0.08238137,-0.120636456,-0.09075301,0.0046358528,-0.06816512,-0.049660146,-0.023474548,0.011292955,-0.029648403,0.01819422,-0.15102744,0.07944965,-0.16536582,-0.15766864,0.0030295341,-0.068079896,-0.07129993,-0.05546755,0.018612556,-0.075635664
0.12101855,0.037612133,-0.31006497,0.06992464,0.022002706,-0.08483391,-0.16150954,-0.040137403,0.121118575,-0.17155239,0.039951492,-0.049309295,0.124752454,0.019241324,-0.08308895,-0.058386117,0.08956909,0.23304535,0.026304333,-0.13962537,0.14551589,0.24022764,-0.24370296,-0.11821636,-0.09520594,-0.034305967,-0.3206745,0.060298625,0.230034,0.011022064,0.05424191,-0.20467885,0.0814245,-0.14384638,0.016161608,-0.25908986,0.25560436,0.048674654,0.14203285,0.064958125,-0.18102887,0.13881081,0.0025556604,-0.09497116,-0.015635798,-0.11621373,-0.040819626,0.03811982,-0.10935006,0.118975304,0.12827861,-0.0033943187,0.07561424,0.16656981,-0.15700214,-0.01604974,-0.1463133,0.10389835,-0.0012900442,0.035583656,0.017414458,-0.26047164,0.030104576,-0.09852624,-0.06229313,0.0704707,0.043711424,0.3281252,-0.027855514,0.11442694,-0.24549852,0.03193009,-0.052951235,0.038883973,-0.30858037,-0.12203035,0.032433953,-0.09246838,-0.325817,-0.18662108,-0.10278946,-0.1363712,0.083032526,-0.17393702,0.13816549,0.062577255,0.08727245,-0.10791651,0.12887901,-0.10042123,-0.049532335,-0.2644661,-0.16164126,-0.103389,0.019868793,-0.0124449935,-0.012938033,0.08603119,0.080209754,0.19689958,0.016722415,-0.04645091,0.0945614,-0.051232845,0.10004109,0.058643542,0.058778055,0.022994412,-0.13126053,-0.042338908,-0.13019362,-0.136089,-0.10034996,-0.09945263,-0.004926707,0.021960787,-0.14060621,-0.10026677,0.07047057,0.074399605,0.078634985,0.13626659,-0.14949661,-0.06466229,0.096332654,0.14985575,-0.1965611,-0.21223867,0.06781706,-0.015352591,-0.05207001,0.07539289,0.052674357,0.14892603,0.027315184,0.01040574,-0.055706736,0.010763552,0.015335975,-0.03565434,0.10678481,-0.06453394,0.10578122,0.08371078,-0.06403133,0.023199301,0.05552491,-0.24413422,0.031044545,0.10046005,-0.07189497,-0.5370126,-0.012660226,0.048678145,-0.17298244,-0.01867989,-0.008747422,0.13808428,-0.05570529,0.02000605,-0.009450399,0.0698757,0.14450921,0.035759386,0.13822232,0.07972756,0.17088658,-0.08012542,-0.021402515,0.09635524,-0.027173653,-0.026473042,0.07429321,0.06114643,0.14393277,-0.13325505,-0.012337683,-0.21371055,0.09080056,0.07858184,0.15321319,-0.09144712,-0.0034722812,-0.22809242,-0.09258242,0.07969598,0.06649736,0.0024683392,-0.07210586,0.10318298,-0.02033223,0.21985622,-0.075751565,0.059103392,0.098667845,0.05970464,-0.107861765,-0.061558917,-0.08489393,0.085376486,0.0015906323,0.06797721,-0.023185914,-0.09456604,-0.26858738,-0.00596474,-0.0334003,-0.068474814,-0.067617625,-0.030597733,-0.05334168,0.0006507734,-0.05814643,0.110375404,0.0928899,0.030822901,0.015489698,-0.12753686,0.033903684,-0.011494099,-0.12167472,0.05379263,-0.24245843,-0.07477441,-0.0553788,-0.07437226,0.0028127315,-0.017380482,-0.012412339,-0.056032,0.004667806,0.006405043,-0.14066894,0.075084746,0.051802598,-0.122111954,-0.094550185,-0.06942793,-0.060375337,-0.062337253,-0.02104462,-0.05347205,-0.022241801,0.0064678704,-0.13734165,0.017170133,0.008921759,-0.059322275,0.050181907,0.025753215,-0.09072557,0.1035866,-0.16038947,-0.08211481,0.016497804,-0.044458304
0.18971108,-0.05858992,-0.08123688,-0.08819408,0.08754256,-0.07523378,-0.06647644,-0.09457567,-0.14822409,-0.11165077,-0.046525277,-0.21073999,-0.03946292,-0.02978801,0.11587903,0.117667496,0.16865322,0.36956456,0.031662337,0.13925555,0.042406473,0.1932428,-0.24005201,-0.095571734,-0.4605761,0.015256622,-0.17449602,0.055972464,0.07162993,-0.2646684,0.117592916,-0.27615392,0.2276163,-0.0025630093,-0.0031022802,-0.3547876,0.30125323,0.05475773,0.051899426,-0.09084845,-0.32241383,0.086517215,-0.017500285,0.053043652,-0.16860041,-0.17511742,-0.0035779104,-0.028577458,-0.11932768,0.10833676,0.034062736,-0.026172997,0.2550263,0.15942103,0.016875051,-0.06420447,-0.0976065,-0.10369996,0.24081554,0.017189039,-0.06814212,-0.28407416,0.13383888,0.16732237,-0.0122509645,0.106533304,-0.01348685,0.017339468,-0.13956776,-0.054291725,-0.022378786,0.017041065,0.34512776,-0.06527975,-0.49087107,-0.21053584,-0.119088136,0.003316705,-0.043244768,-0.077988796,-0.02014298,-0.099165045,-0.019721976,-0.16410983,-0.03490019,0.09750362,-0.028570166,-0.03071493,-0.22397493,-0.011512155,0.008355441,-0.0154490415,-0.08338212,-0.113720484,0.06173878,-0.11615616,0.20745812,-0.0075710122,0.104080856,-0.034961253,0.16107011,-0.051195197,-0.00353435,-0.013804015,0.013730267,0.097590335,0.08270507,0.025542108,-0.17971678,-0.029934935,-0.13681619,-0.07396126,-0.03346041,-0.12829103,-0.2058681,0.10805115,-0.08203557,-0.05699439,0.022242766,-0.065427855,0.073073834,-0.103836745,-0.059646476,-0.07608765,0.080148004,0.0113704195,-0.20189756,-0.031031758,-0.028719647,0.061783865,-0.041181307,0.09538032,0.05197058,0.11992125,0.0010982548,0.017093685,0.3512852,0.2649664,0.11197931,0.08165388,-0.080060914,0.027237076,0.11287857,-0.20456034,0.0070037525,-0.012580179,-0.015536712,0.06514333,0.0832526,-0.13049923,-0.0016752876,-0.048203677,-0.682577,0.042288817,-0.05630077,0.051899035,-0.1148387,-0.1404498,0.15065905,0.09176709,0.06323855,0.015730161,0.0057036215,0.02557646,0.014394332,0.14077961,0.052974697,-0.17624898,0.108213544,0.12674856,0.09997311,-0.101475425,0.06884673,-0.0692862,0.032931563,-0.10959653,0.022447357,0.07345769,0.16138363,0.09933399,-0.012502643,0.08561749,-0.028811818,-0.05265154,0.14440557,0.081909336,0.019414145,0.22935805,-0.04854165,-0.02695789,-0.07402087,0.16859214,0.06760095,-0.050351437,0.13298228,-0.21148609,-0.09912027,-0.17018323,0.06560947,0.022201939,0.12801404,0.017686363,0.13451071,0.20835103,-0.18423344,-0.043059673,0.10487507,-0.06378048,-0.009332425,-0.050226405,0.0044449526,-0.31861928,0.026891174,0.006765671,0.057848766,0.03928467,0.109456874,-0.049176566,0.16532527,0.07834415,0.042090334,0.041377466,-0.12041776,-0.040071603,0.06956582,-0.09714571,0.051312197,0.14543746,0.09855209,-0.0024994009,0.12825197,0.055636212,-0.17090747,0.04729209,0.05082265,0.022890393,-0.060876716,-0.16011648,-0.10502036,0.09339524,0.11407649,0.05121506,0.17253666,-0.005354257,-0.033972833,-0.11077541,0.14599815,-0.19016686,0.0024153816,0.12271992,-0.24110608,0.0014238829,-0.05441765,-0.062269174,-0.11376848,-0.015385076
-0.30289513,0.055162277,0.16702396,-0.033124145,-0.039330527,0.005742242,0.20452444,0.020649122,0.443196,0.06423478,0.08050847,0.10385638,-0.2142861,-0.2569518,-0.103806876,-0.07640481,-0.15274408,-0.35941562,-0.14652734,-0.118769825,-0.016805582,-0.1498051,0.118942305,-0.12919238,0.086419836,0.17975405,0.03515095,-0.034858286,-0.40268797,0.19423637,-0.09055891,0.064457126,-0.14898294,-0.07723742,-0.089311235,0.3492056,-0.11770812,-0.1716651,-0.15180801,0.03511648,0.30345044,-0.14025995,0.16402985,-0.08572484,-0.062592976,0.08521674,-0.08703248,-0.14140657,0.083735846,-0.28512752,-0.073917925,-0.07102269,-0.39982668,-0.2063049,-0.060716268,0.13802366,0.23610094,-0.02166291,-0.32783455,-0.18569687,0.03980804,0.19571117,-0.28560427,-0.25317234,0.10903645,0.0358697,-0.013641725,0.008490938,0.07516939,-0.035012994,0.14942437,-0.12441997,-0.12628412,-0.031114968,0.46451586,0.18203849,0.036317617,-0.01954123,0.14722887,0.19023825,0.07207865,-0.0035884248,0.13977228,-0.028024739,-0.033840016,-0.090467565,-0.0070567653,0.16337563,0.047486037,0.21423045,-0.18609184,-0.04132576,0.052860796,0.3135279,-0.22500028,-0.025222588,0.014582417,-0.0502518,-0.078772165,0.016428495,0.14820336,0.04238555,-0.04952011,-0.105880834,-0.1202877,-0.15703075,-0.043661196,0.0672124,-0.06267155,-0.16977637,0.10238653,-0.058754183,0.23144072,-0.13150659,0.14638174,-0.17177232,0.06441419,-0.01757292,-0.18362734,0.13651091,0.010739587,0.04912947,0.1471109,0.033796504,-0.055740636,0.007716116,0.08762471,-0.0066597643,-0.009565809,0.1786546,-0.00946866,0.059787646,0.022950608,-0.13680644,0.06750542,-0.14424145,-0.1714677,-0.07453534,-0.0701241,-0.21563306,0.1219865,-0.027949749,-0.123561434,-0.15133221,-0.00778889,-0.00086824025,0.14168395,-0.0090147555,-0.07133584,-0.09072273,0.08139731,-0.01001784,0.17457761,-0.5815594,0.076984785,0.079779945,0.096057825,0.027816234,-0.12153882,0.06507871,-0.025861038,-0.010277146,-0.06457165,0.015666818,-0.07244568,-0.057114165,0.07739953,0.16935086,0.059600543,-0.05224747,-0.1712558,0.107406124,0.023628594,0.05615961,0.08722428,0.10082303,0.08371945,0.018717483,0.02329542,-0.15998514,0.12697569,-0.046292316,0.1529686,-0.057376888,-0.13634768,-0.14672346,0.08487829,-0.013038388,0.04684229,0.026938595,0.12826978,0.023451647,0.14861433,0.1786212,-0.24856849,0.14781052,0.057251744,0.060500123,-0.16290085,-0.06661664,0.10626329,-0.1436511,-0.048390765,-0.14929211,0.05092111,0.14661653,-0.08205368,-0.09893839,-0.026151184,0.008234892,0.09227316,0.01238185,0.034829404,0.06953191,-0.13526776,-0.081453994,0.029528648,-0.17548455,-0.03760562,-0.06681837,-0.07785369,-0.26121116,0.15209912,-0.11122109,0.08243635,-0.049411852,0.07529052,-0.0876975,-0.0400402,0.024649251,0.108995266,-0.08738442,0.09422957,-0.06267931,-0.010617866,-0.014254703,-0.15119435,0.095854916,-0.060782168,-0.22785251,-0.02298476,-0.14057307,-0.18197235,-0.032144584,-0.031415064,0.031148568,-0.12792102,-0.023483299,0.08933506,-0.15721908,0.03271756,0.046754193,-0.07741404,0.00612087,-0.013851955,-0.09493094
0.1657695,0.1951164,-0.20869169,0.20487395,-0.036085956,-0.16562672,-0.15464246,-0.056883715,-0.09567466,-0.19017048,-0.34264907,-0.15092586,0.18221007,0.1395751,0.044347893,0.0331926,0.04992766,0.14592715,0.045172777,0.08488636,0.07482097,-0.03849045,-0.24542671,-0.13938546,-0.33113673,-0.07920047,-0.27651444,-0.06461654,0.19979659,-0.049149964,0.081150234,-0.1713527,0.07553527,-0.056982145,0.11333904,-0.30912364,0.22314344,-0.0054069594,-0.04150831,-0.09744548,-0.16400547,-0.1692223,-0.13618867,0.10715635,-0.06676782,-0.1582043,-0.17302977,0.13467468,-0.22386132,0.13983609,-0.14541037,-0.047789373,0.16939689,0.14084078,-0.08634219,-0.15562773,-0.15111683,-0.16918583,0.21851811,0.2026961,-0.106268995,-0.17402315,0.10713629,-0.0034165897,-0.12677659,-0.010821958,0.03245445,-0.029543167,-0.14144556,-0.060037818,-0.12158957,-0.0066269767,-0.0078091193,-0.029525815,-0.53407085,-0.18085627,-0.096340396,0.023504218,-0.17828488,-0.018391002,-0.19810158,-0.16669457,-0.016825223,-0.11646449,-0.12675713,-0.18427283,0.1294951,-0.014438701,-0.06757297,-0.15730947,-0.19530639,-0.19309208,-0.099631585,0.031291813,-0.028818717,-0.010211269,-0.03308094,-0.15631898,0.15572676,0.11532609,-0.30273747,-0.21607918,-0.119001836,-0.19264144,-0.00029241,-0.1937391,-0.08050248,-0.080887474,-0.17480665,-0.1710592,-0.099782795,-0.15517876,-0.25137383,-0.04848531,0.029504107,-0.16388477,-0.33686268,-0.20545158,-0.1714664,-0.103013664,0.058284834,-0.16403964,-0.172494,-0.034676936,-0.041174136,0.10162769,-0.22291836,-0.025299437,-0.007830582,-0.18985327,-0.111342445,-0.06343791,-0.06655364,0.088030815,-0.04254667,0.06695375,-0.024862008,-0.11862965,0.19726372,-0.15192714,-0.029264031,-0.05108537,0.06755761,0.0838882,-0.107021414,-0.06577284,0.09114783,-0.08812367,-0.053132977,-0.101504,0.06297227,0.12146183,0.057361186,0.049093585,-0.31143433,0.15920238,0.0007239859,0.2107041,-0.024013504,-0.007344625,-0.12877436,-0.030450348,0.058144774,0.14108256,0.01622445,-0.022993049,-0.017598309,-0.097695455,-0.15338518,-0.14893015,0.090162,-0.0767593,-0.006691967,-0.10230071,0.050626952,0.016356103,0.019734658,0.089108,-0.015564794,0.09393795,0.051426496,0.07247247,-0.06587987,0.042961422,0.06286243,0.09378692,0.04822928,0.011113921,-0.027783815,0.03201018,0.08199691,-0.044631004,-0.011009285,0.018695926,0.16859165,0.16614991,-0.049826056,-0.07708277,0.08027092,-0.093007,-0.27223068,0.034801457,0.08562785,0.12327782,0.14023145,0.09504941,0.022855386,-0.025515681,0.022889813,0.02947644,-0.030857364,-0.051882144,-0.100976355,-0.07729107,0.06653325,-0.09162029,-0.11050991,-0.16211578,0.08947708,-0.12884784,0.08180138,0.18007177,-0.06323465,-0.03243784,-0.20566499,0.02007369,0.16142832,0.20365147,-0.014326925,-0.16568594,-0.14647245,0.03555676,-0.0059636394,-0.07876971,-0.13998285,0.077896334,0.04266428,-0.09909811,-0.17204414,-0.04139837,0.08495652,0.086367756,0.052610166,-0.09311667,-0.103192754,0.0730802,-0.0073327483,0.039862506,-0.08278224,-0.043507963,-0.034128577,0.055541568,-0.12965393,-0.05640906,0.079116605,0.12001825
0.25433442,-0.019994989,-0.2699833,0.13379686,-0.027050585,-0.05183021,-0.2978179,-0.06091733,-0.017194787,0.011846017,-0.20907505,-0.22393726,0.14790891,0.15472549,-0.22557761,0.004072347,0.1376915,0.19420384,-0.014419833,0.11182325,0.105612054,-0.08903354,-0.12716265,-0.2743324,-0.23277926,-0.053401824,-0.25357085,-0.28924668,0.09769165,-0.13858609,0.104646936,-0.29476613,0.11063969,0.03587139,-0.0028539067,-0.23589566,0.15341787,0.010179047,-0.0724833,-0.094133705,-0.13419007,-0.022193251,-0.12540457,0.058226287,-0.16445516,-0.32115477,-0.018525716,0.018248297,-0.16194195,0.07101358,-0.14651455,-0.071803086,0.10727451,0.05762072,-0.047085498,-0.15344535,-0.0330744,-0.25307873,0.2989842,0.19491857,0.009216941,-0.09259454,0.047497254,0.21395859,-0.052898128,0.2072564,0.054494422,0.19488263,0.028342182,0.06828295,0.00050074095,0.05717195,0.25902787,0.05941945,-0.36976057,-0.0684546,-0.08165859,0.021171723,0.05681383,-0.048280187,-0.008207369,-0.15042405,0.06881427,-0.07969597,0.038004167,0.12058303,0.07184398,-0.13996264,-0.11509878,-0.016023522,0.038124755,-0.13323753,-0.076670274,-0.07228192,0.09529715,-0.05256805,0.021767437,0.063446656,0.13025826,0.23107986,-0.13089558,-0.02747667,0.048123293,-0.0022429295,0.13145632,-0.11365412,-0.0020007382,0.13367319,-0.08079537,0.09895687,-0.13127655,-0.15548508,-0.00869554,0.0036445344,-0.001042276,0.061851468,-0.17261723,0.0268894,0.12891951,-0.037436105,0.04512453,-0.02025165,-0.0288411,-0.01152277,0.15220821,0.14647862,-0.107071966,0.110605,0.15152226,-0.021289257,-0.03165323,-0.018526684,0.12665541,0.055671588,0.13025269,0.20170699,-0.07952356,0.027597923,0.079781204,0.03796702,0.15622713,-0.15632367,0.10866875,0.13032337,-0.006007164,-0.1701803,0.119182214,-0.103108056,0.0013182822,0.09662088,-0.058851406,-0.06213123,-0.1749166,0.1277004,-0.13128144,-0.6448026,0.0066951294,0.03519608,-0.021259494,0.06649148,-0.095113866,-0.00615076,-0.09619242,-0.1330392,0.13724561,0.107737005,0.0069375234,-0.07474864,-0.13292009,-0.03634875,-0.08933101,0.0371677,-0.045723226,-0.12999314,0.0015024461,-0.019328352,0.12102254,-0.11871408,0.09784732,0.05468197,-0.06595574,-0.025472453,0.03548203,-0.09748049,-0.0143492,0.19137529,0.20718949,-0.23183393,-0.12682752,-0.058321226,-0.19144908,0.10281001,-0.2253613,-0.04486439,-0.028956592,-0.17116113,-0.13008113,-0.037746068,0.0059368713,-0.07992643,0.028181763,0.14469105,0.079288855,0.17306808,-0.17027585,-0.14171235,0.13480902,-0.14799951,0.043601025,-0.034322854,0.036712855,-0.005417679,-0.107295714,-0.05870118,-0.043170113,-0.041534133,0.014781366,-0.012078644,0.19986221,0.10221048,0.097137555,0.1037518,-0.17948188,-0.012197087,-0.0071703084,-0.062425718,-0.16216518,0.3510376,-0.003778849,-0.049155965,0.112860836,-0.16880459,-0.009401923,0.11640908,0.014084679,-0.022529714,-0.025232408,-0.0464012,-0.080991216,0.056835815,0.039203737,0.065998994,0.13650525,-0.060195345,0.07674453,0.07436917,0.12000126,-0.017845277,0.006705299,0.053318094,-0.26883873,-0.0647201,0.08944809,-0.05055891,0.06355355,0.077553935
0.17301656,0.06390406,-0.17178349,-0.10157532,-0.07791757,-0.05261705,-0.060282726,-0.12167079,-0.0389181,-0.2447627,-0.00917582,-0.2013122,0.11307861,-0.11745726,-0.048937023,0.084029414,0.14694059,0.086962186,-0.12992905,0.1206999,-0.1419287,-0.13069387,-0.33544385,-0.20936646,-0.056391858,0.007569691,-0.22273712,-0.1601276,-0.020238068,-0.078631826,0.15700634,-0.120310456,-0.029979983,-0.07585964,-0.025422968,-0.22198191,0.13656193,-0.12951954,0.110933445,-0.04115537,-0.37745464,0.019372202,-0.13907737,-0.031847652,-0.21708485,-0.21887396,-0.01474671,0.05906623,-0.18005875,0.19610581,-0.05704784,-0.19173436,0.13137625,0.17209844,0.020237071,-0.23052658,-0.32567197,-0.16504599,0.2558324,0.079660185,-0.029816173,-0.26108572,0.028558124,0.07492048,-0.18669082,0.031148214,-0.1540558,-0.25680536,-0.111062884,0.028100051,-0.09837448,0.024200503,0.41269982,0.030950388,-0.34068137,0.03409187,-0.12494026,-0.063122526,-0.1729029,-0.18097262,0.1238219,-0.23703645,-0.06524404,-0.10159228,-0.12906983,-0.19395693,-0.004427704,-0.07223259,-0.04912854,-0.15116845,0.023944112,-0.119354956,-0.07568106,-0.08114152,0.27125,0.043806635,0.048840787,-0.13074131,0.01281825,0.0881989,-0.17953172,-0.057165373,-0.06095186,0.044372547,0.051711533,0.012271596,-0.10213111,-0.19288442,-0.24382675,-0.004362027,-0.066856205,-0.15637682,-0.17162317,-0.08201744,-0.004724355,-0.08303315,-0.2612847,-0.029021557,-0.18636392,0.062133744,-0.13184117,-0.022728149,-0.096920736,-0.08320766,-0.13782081,0.036770422,-0.10692716,0.00287467,-0.14934888,0.07450857,0.045005027,-0.117523395,0.13148805,0.16071005,-0.076398775,0.012508691,0.116468646,0.091069125,0.027361318,0.010800847,-0.043449286,0.0337293,-0.21246769,-0.074043974,-0.053789593,0.03111049,-0.1223475,0.06500003,-0.11688185,-0.10163853,-0.055122405,-0.090872124,0.030212034,0.058866836,-0.070737414,0.042338695,-0.26898593,0.030880857,0.070051044,-0.14591426,0.027870117,0.09070385,0.00937827,-0.1420727,-0.03957835,-0.17478167,-0.034798,0.018617233,0.09141972,0.10982049,0.03021269,-0.10003193,0.085247286,-0.07675268,-0.10834196,0.06324255,-0.0067877793,0.0380024,0.04602842,-0.083014585,-0.01040655,0.21295235,-0.05449499,0.09874123,0.12673557,0.075064376,-0.011989024,0.12335119,0.07261237,0.04329366,0.102271564,-0.03754596,0.20058711,0.03313348,0.10888881,0.03226579,0.04445988,0.046001576,-0.030409463,-0.06273036,0.085297465,0.068566926,0.029683923,0.16143972,-0.00091914966,-0.09567715,-0.12991571,0.06996699,0.116180144,-0.0012669794,0.17021547,0.063846305,-0.10880769,0.010869542,0.09810503,-0.097478725,3.6719444e-05,-0.05246172,-0.015728375,-0.059188243,0.032645676,-0.04535039,0.067633785,-0.11005219,-0.058774315,-0.07191724,0.047414664,0.016323471,-0.019186866,-0.01165663,0.056060616,-0.0045271786,0.00044001197,-0.102129355,-0.028173672,0.02937862,-0.031219808,-0.039532714,0.04644908,0.011022149,-0.0760874,-0.002532728,-0.037057504,-0.06177655,0.03775521,-0.09609338,0.023180403,-0.05846315,0.048869427,-0.05961407,0.13586642,0.06970649,0.0073235366,0.034155354,-0.0400497,0.1775224
0.018230058,-0.13454391,-0.11749278,0.059179816,-0.010503139,-0.051804528,-0.13494006,-0.089232504,-0.34207383,-0.1849619,-0.23489814,-0.09992932,0.086090446,0.057521097,-0.040190335,0.19754349,0.2506194,0.15768498,-0.18487029,0.05744787,-0.010356859,-0.022479972,-0.031869926,-0.07844496,-0.20961395,-0.007768488,-0.07496991,-0.018652376,0.1291158,-0.1100995,0.13504675,-0.072019316,0.16499147,-0.048256144,-0.100206256,-0.219574,0.38059348,0.03032677,-0.07223498,0.1808068,-0.31332758,0.12785959,-0.11788278,0.15747371,-0.049584344,-0.08987957,-0.041070927,0.07551172,-0.051717583,0.17174849,0.20376025,-0.110678166,0.22450314,0.18582793,-0.071967386,-0.08365413,0.05404541,0.06721978,0.24119636,0.02905502,-0.10936852,-0.21557888,0.14933087,0.1199321,-0.11123509,0.14471841,-0.062368453,0.16807047,-0.11723999,0.0132613,-0.09315236,-0.057475436,0.047963284,-0.09459977,-0.27370608,-0.069833055,-0.11693122,-0.23951098,-0.1775658,-0.18765952,-0.1885822,-0.2067183,-0.14398274,-0.22742471,-0.1650667,-0.1433546,0.0555072,0.0073760087,0.09270473,-0.0950747,0.038195647,-0.10522092,-0.14428307,-0.22555569,0.10531001,0.07748829,0.13076353,-0.12994233,0.15660322,0.14373934,-0.19077231,-0.032010097,-0.33242312,-0.05746944,0.053050004,-0.0057282774,-0.05692449,-0.12104299,-0.19046466,0.004623234,-0.16303572,-0.08401729,-0.04743583,-0.09974804,-0.13424309,-0.17437,-0.21774669,-0.10182553,0.060628086,0.08457963,0.09056588,-0.029491883,-0.36071232,-0.21247627,-0.06125252,0.10805387,-0.19122744,-0.17323898,-0.35997468,-0.24908328,-0.21058317,-0.32833433,-0.34189594,0.30782232,-0.31039405,-0.24126907,-0.10355345,-0.05718888,0.15746914,-0.18426421,-0.34158403,0.21061184,-0.37026036,-0.09762206,-0.24071978,0.20677395,-0.3815881,0.39353356,-0.37839758,-0.3263023,-0.38652378,0.28765088,0.46461284,-0.3432682,0.07439893,0.25249937,0.2234473,0.12987329,0.19143035,-0.20392093,0.26355445,0.28146,0.2703743,0.3605488,-0.24077399,-0.47692546,-0.26085106,0.26830384,-0.21470845,0.21326184,0.40240142,-0.17947674,-0.21800685,0.25144115,-0.2890164,0.46061292,-0.3263517,0.16772747,-0.18871917,0.35535568,-0.033412166,0.34827095,-0.37210336,0.29122025,-0.16220354,-0.2575614,-0.25516045,0.15636273,0.3537451,-0.21207502,0.30494922,-0.26812202,-0.049416196,-0.116523966,-0.028798485,0.009768823,-0.029442394,-0.07421904,0.050965138,0.0042939926,0.07371117,-0.0373692,0.03791676,0.07500742,-0.107138805,-0.042598527,-0.012347065,0.15706736,0.0491242,-0.061149593,-0.004482928,-0.055161577,0.014811852,0.09069365,-0.024780845,0.09945956,0.0394064,-0.08949861,0.07485287,-0.06306678,0.04845909,0.20729709,0.105825506,0.0993587,0.026645135,-0.07643415,0.040549703,0.11501665,0.104579605,-0.1302257,-0.159785,-0.017596,-0.07816805,-0.060944866,0.01850199,-0.039816484,0.106924534,-0.01893052,0.24597439,0.06293086,-0.028822416,0.03477088,0.028632732,-0.08441991,-0.030016886,-0.052499287,0.121366024,0.0067100255,-0.01936869,0.09919084,-0.09461077,-0.05297332,0.058696482,0.07495021,0.024300884,0.058413845
0.17304425,-0.118030116,0.06707015,0.020255527,0.060594704,-0.084268495,-0.11934952,0.017616637,-0.0133549,-0.13758902,0.025688272,-0.13820587,0.022958925,0.11105848,-0.020712629,0.044342037,0.17915544,0.12780975,0.1733208,-0.0150796985,0.15457977,0.1323206,-0.31005844,-0.052053776,-0.12893073,0.017675005,0.019522185,0.06934834,0.1787305,-0.16195239,0.32490188,-0.103506975,0.15973614,0.08580809,0.09130298,-0.3095058,0.21680626,0.059600983,0.096174054,-0.024759514,-0.1859166,-0.032838184,0.037216805,-0.022957372,-0.042145643,-0.045954578,0.005513045,0.17885463,-0.0013240844,0.24139448,-0.030304765,0.07295887,0.017192928,-0.06385318,-0.13170962,-0.044306032,-0.08914656,0.06952631,0.43524867,0.13005821,0.11389947,-0.2002417,0.1945948,0.19377168,-0.15240197,-0.13522565,0.00013747836,-0.01935403,-0.099283904,0.072398745,-0.18624249,-0.037116773,-0.19952545,-0.19777751,-0.32156733,-0.18462095,-0.056576338,-0.18324511,-0.19583301,-0.09683069,-0.1054745,-0.14014283,-0.008661783,-0.1830817,0.043967225,0.14085495,0.07877452,0.12581535,0.0091324765,-0.21774264,0.033445906,-0.10945374,-0.23879229,-0.31151852,0.16908455,-0.028710311,0.015295837,0.121458806,0.16825563,0.14463966,0.0145233255,-0.1481294,-0.17797938,0.025572548,-0.120111644,0.13368313,0.06172976,0.027790852,-0.039769653,0.07114435,-0.035772458,-0.20248601,-0.11730392,-0.08929669,-0.28659835,0.21587244,-0.19816583,-0.052729644,0.04412213,0.123700656,-0.031681083,-0.13026536,0.0068538925,0.0135851335,-0.14292845,0.047671407,-0.33872244,-0.040170178,-0.0023218666,0.18450494,-0.07990898,0.031029694,-0.019707922,0.026452197,0.18833493,-0.039427157,0.0038789976,0.10312428,0.076746956,0.07622574,0.14944752,-0.11095462,0.06739979,-0.024973176,-0.042002086,-0.060191996,0.0054801395,0.0258305,-0.003587467,0.11091018,-0.10665539,-0.02108265,-0.038360853,0.18461932,-0.124838196,0.003812722,-0.06293706,-0.20897281,-0.7323326,0.0686276,-0.008701771,0.122909516,0.04969908,-0.004179897,0.078791656,0.046642173,0.15323214,-0.0532126,0.0028261829,-0.014195515,0.048093036,-0.04743097,0.032783754,0.031419046,0.022708412,-0.16090243,-0.09706151,-0.011533918,0.02645815,0.0275937,0.11876058,-0.06923825,-0.113184035,-0.079922654,0.06423462,-0.0007607277,0.082935885,0.047495693,-0.21642673,-0.018444698,-0.0586211,-0.03192126,-0.08614368,-0.23843494,0.14443906,-0.11924958,-0.16962987,-0.07809283,0.05515912,-0.09440334,-0.03966752,0.061957587,0.0487618,0.14887212,-0.15908955,-0.014719513,0.09360231,-0.08589952,-0.015960889,0.038989034,-0.091911115,-0.00458312,-0.05412561,0.25603038,0.12640955,0.18521446,0.085824825,0.005140023,0.106690004,0.0053484207,0.013340735,0.10677786,0.012089402,0.22011615,-0.11634251,0.1454431,0.047652494,0.14519848,0.079743326,-0.08009448,0.058577254,0.11067726,-0.14897695,-0.0036654957,0.03235476,-0.025671497,0.11296124,0.13138716,-0.14885142,0.111206785,0.052709047,0.0067507583,0.12832947,0.07068295,-0.040987004,-0.17447096,0.29417095,-0.016177308,-0.005178043,0.19048679,-0.004528064,0.086813435,-0.019157978,-0.046532437,0.1440627,-0.06222057
-0.24415745,0.11132724,0.18159418,-0.14642715,0.021376511,0.012274482,0.0074922764,0.083652675,0.2491655,0.1293847,0.053811084,0.117486954,-0.24675964,-0.24408637,-0.17598018,-0.16441911,-0.28168106,-0.28360078,-0.2644397,-0.0994518,-0.06758868,0.0057076192,0.29802042,0.021651493,0.014621125,0.024992507,0.026976919,0.013260763,-0.19108564,0.061256383,-0.081546105,0.122267246,-0.17180368,-0.08253934,-0.11826033,0.24681789,-0.27489772,-0.10994793,-0.23694777,-0.10602971,0.4386161,-0.032349847,0.022957113,-0.027398184,0.072632,0.19403909,0.1933054,-0.1429717,-0.033462144,-0.14363787,-0.03111714,0.0137180835,-0.14839429,-0.1431728,-0.06891007,0.04976719,0.21827656,0.071562216,-0.29589114,-0.060328767,0.016745461,0.11163932,-0.22574545,-0.12107008,0.066838525,-0.020083746,0.012472499,-0.078376815,0.08513832,0.06755232,0.024174273,-0.04013827,-0.20763223,0.023671325,0.4579597,0.15244249,-0.059259113,-0.031776402,0.021056574,-0.06327884,0.081899725,0.083863944,-0.09786053,0.043340333,0.011848362,0.02134438,0.01573721,-0.052434184,-0.09703845,-0.0011825807,-0.19765314,0.1039497,0.14109406,0.24096912,-0.25913265,-0.04922676,-0.02367256,-0.19653928,0.04217837,-0.118290514,-0.023778029,0.058986947,0.18061955,0.08871329,0.057201266,0.02999179,-0.08174836,-0.110537134,0.036434676,0.107092775,0.1516687,0.18202014,0.017289557,-0.010198308,-0.052161615,-0.1485411,0.12756315,-0.09281572,0.16138521,-0.15826777,-0.058272526,0.21899432,0.15785518,0.05397613,-0.04374213,-0.026317446,0.24298018,0.06494814,-0.05347691,0.1165738,-0.05946173,-0.031112213,-0.08360582,0.12832427,0.035205092,0.098447345,-0.1847912,0.0017063513,-0.05146237,-0.11011913,-0.010667874,0.06542514,-0.08220651,-0.008243784,-0.039159656,-0.015536577,0.061721165,0.05895454,-0.108760454,-0.058755405,-0.24890816,0.13120562,-0.044141643,-0.115531,0.14787763,0.096673764,0.06882588,-0.041613653,0.028612804,-0.84815115,0.06834362,-0.02457352,0.050136358,-0.06083952,-0.11148852,-0.152155,0.053598423,0.010675308,-0.052415904,0.02172891,-0.17596455,-0.072792895,-0.046088573,0.09876767,-0.1268304,-0.09861236,-0.06892165,-0.028994141,0.017898478,-0.011610332,-0.0022606715,-0.024428668,-0.05040716,0.07116465,-0.07995629,-0.07498105,-0.011376995,-0.0585843,0.047784552,-0.11256138,-0.01874555,0.0028581456,0.10505386,0.09571549,-0.0080439355,0.10708626,0.076796785,0.11992376,-0.19535178,-0.25301215,0.080813356,0.05407642,-0.071555115,-0.27171606,-0.07856283,-0.10904553,-0.27799085,-0.017110355,-0.043472167,-0.019074319,0.09357804,0.10507772,0.04310597,-0.086799614,-0.058189806,-0.05772523,-0.17936987,-0.006348945,-0.26439413,-0.116024554,-0.14643927,-0.27185592,0.05111065,-0.30222192,-0.07500957,-0.0070297164,-0.16948165,-0.10913668,-0.08028407,0.023772946,-0.16037637,-0.08282173,0.16284373,0.017171493,-0.030313477,-0.0077615012,-0.157609,0.032690704,0.035957042,-0.08476125,-0.09875669,0.08531356,-0.029209023,0.03691922,0.052616276,0.013548382,-0.1675712,-0.111676194,0.10792579,-0.101357505,0.011399002,0.0094898315,-0.06812138,0.10335334,-0.09094394,-0.02070966
