0,1,2,3,4,5,6,7,8,9,10,11,12,13,14,15,16,17,18,19,20,21,22,23,24,25,26,27,28,29,30,31,32,33,34,35,36,37,38,39,40,41,42,43,44,45,46,47,48,49,50,51,52,53,54,55,56,57,58,59,60,61,62,63,64,65,66,67,68,69,70,71,72,73,74,75,76,77,78,79,80,81,82,83,84,85,86,87,88,89,90,91,92,93,94,95,96,97,98,99,100,101,102,103,104,105,106,107,108,109,110,111,112,113,114,115,116,117,118,119,120,121,122,123,124,125,126,127,128,129,130,131,132,133,134,135,136,137,138,139,140,141,142,143,144,145,146,147,148,149,150,151,152,153,154,155,156,157,158,159,160,161,162,163,164,165,166,167,168,169,170,171,172,173,174,175,176,177,178,179,180,181,182,183,184,185,186,187,188,189,190,191,192,193,194,195,196,197,198,199,200,201,202,203,204,205,206,207,208,209,210,211,212,213,214,215,216,217,218,219,220,221,222,223,224,225,226,227,228,229,230,231,232,233,234,235,236,237,238,239,240,241,242,243,244,245,246,247,248,249,250,251,252,253,254,255,256,257,258,259,260,261,262,263,264,265,266,267,268,269,270,271,272,273,274,275,276,277,278,279,280,281,282,283,284,285,286,287,288,289,290,291,292,293,294,295,296,297,298,299,300,301,302,303,304,305,306,307,308,309,310,311,312,313,314,315,316,317,318,319,320,321,322,323,324,325,326,327,328,329,330,331,332,333,334,335,336,337,338,339,340,341,342,343,344,345,346,347,348,349,350,351,352,353,354,355,356,357,358,359,360,361,362,363,364,365,366,367,368,369,370,371,372,373,374,375,376,377,378,379,380,381,382,383,384,385,386,387,388,389,390,391,392,393,394,395,396,397,398,399,400,401,402,403,404,405,406,407,408,409,410,411,412,413,414,415,416,417,418,419,420,421,422,423,424,425,426,427,428,429,430,431,432,433,434,435,436,437,438,439,440,441,442,443,444,445,446,447,448,449,450,451,452,453,454,455,456,457,458,459,460,461,462,463,464,465,466,467,468,469,470,471,472,473,474,475,476,477,478,479,480,481,482,483,484,485,486,487,488,489,490,491,492,493,494,495,496,497,498,499,500,501,502,503,504,505,506,507,508,509,510,511
-0.13675453,0.2594503,0.1339467,0.044117026,0.11785066,0.058201373,-0.1882074,-0.026763208,-0.16533196,-0.3325108,-0.0485116,0.1494733,0.16407135,0.4526933,0.00488006,0.6034239,0.32405263,-0.2022861,0.03082934,0.5439735,0.0016860164,0.10161273,0.4395804,-0.16888732,0.31239673,0.19604671,-0.09974574,0.40415668,-0.043390207,0.23898032,0.0039667008,0.044225544,0.08541358,-0.26388043,0.6056872,-0.26122057,0.28686804,-0.23373927,-0.4107809,-0.09107553,-0.13313621,0.068592384,0.20047677,-0.42443138,0.0028609422,0.42956415,0.5457999,0.104274936,0.060711935,-0.048905104,-0.36731857,0.25282782,-0.068774104,-0.21042195,0.059757356,0.31313413,-0.0114448825,0.55663055,-0.18834504,0.062979214,0.3974663,0.26397148,-0.08736333,0.110368885,-0.17216636,-0.2719039,0.36388475,-0.35336757,0.13509947,0.08715255,-0.13321984,0.8886267,0.4340914,0.2583331,0.16295706,-0.19766238,0.50069505,0.04272467,0.2870489,0.09336921,-0.14576516,0.0070483317,0.07726544,0.012640676,0.15175848,0.63586,0.34240133,0.12212195,0.2841766,-0.06650106,0.23027764,0.3533712,0.35661837,-0.26226816,0.15671414,0.26549307,0.17395969,0.73577416,0.2151714,-0.30850816,0.08629711,0.8528228,0.2979586,-0.1433293,0.33656967,0.08613048,0.040628113,-0.046475902,-0.1463541,0.6040586,0.07865091,0.18314737,-0.5096412,0.08421031,-0.42777827,-0.03228927,-0.15839146,-0.073482014,-0.42753527,-0.4455982,0.117501326,0.21277398,0.01858501,0.09801535,0.08374493,0.33768797,0.03934389,0.0703402,0.2123341,-0.11860975,-0.0003391975,0.19483997,-0.15138565,-0.21943346,0.27964985,0.12482893,-0.16442056,-0.33478734,-0.09766015,-0.083520524,-0.092620455,0.13053137,-0.24696225,-0.212423,-0.15422106,0.20429254,0.22899915,0.008121508,0.051345896,0.1921421,-0.32157594,0.3145368,-0.065943345,-0.23544186,-0.21684545,0.006835353,-0.29444546,-0.5348728,-0.12289072,-0.029754288,-0.15328883,0.4371597,0.25436342,0.378624,-0.009270755,0.035842396,-0.2909422,-0.110099815,0.015601764,-0.05609967,-0.09551362,-0.009813641,0.08010766,-0.3998299,0.11562296,-0.52611315,-0.18945657,-0.20564815,0.19095157,-0.1839751,-0.34336293,0.5110403,-0.23517656,-0.2665198,0.20824681,0.088038296,0.06003009,-0.55888134,-0.73159,-0.15722434,-0.22567455,0.396796,-0.4761343,0.34766558,0.33665413,0.08387923,-0.9594246,-0.16376299,-0.46853617,-0.35097682,-0.10417636,-0.028818583,-0.12777366,0.008376494,-0.9550943,-0.36389852,-0.015185259,-0.2937241,-0.18407618,-0.45765743,-0.26202285,0.4105029,0.19856523,0.014052026,-0.2091659,-0.35370138,0.051911306,-0.06803599,-0.3390338,-0.049656935,-1.076104,-0.11036898,-0.122895695,-0.2733176,0.031592492,-0.11127074,0.2878678,0.08402865,0.05795744,-0.009208236,-0.051368695,0.06305169,-0.124554366,-0.20821522,-0.36186898,-0.85466295,0.46662384,-0.40413302,0.24905375,-0.49844798,0.49712357,-0.51152825,0.63664275,0.066353776,0.11426031,-0.24036603,1.0121164,0.17143655,0.48722553,0.31825578,0.40623102,-0.2664344,0.010658057,0.5449578,-0.66314244,-0.24822976,0.2696272,-0.022858517,0.20080088,-0.202179,-0.15128733,-0.15169495,-0.13966525,0.20170425,-0.10016584,0.047428917,-0.26384136,0.10414907,-0.33061126,0.22270231,0.2843338,0.50672644,0.030880649,-0.19008712,-0.12266492,0.16570535,-0.123371,0.048029512,-0.0233765,-0.2754834,0.16447401,-0.0611328,0.24100538,0.16579011,-0.05366955,0.3691106,-0.06272048,0.2612434,-0.18867558,-0.121234976,0.050971825,-0.42563868,0.28362936,0.14763707,0.058294598,-0.15154175,-0.1523323,0.21877742,0.12730764,0.15648681,-0.20448446,-0.027823584,-0.27450123,-0.007209125,-0.48842758,0.19012022,0.067796454,0.39299646,0.2774967,-0.24512312,0.016631594,0.04981398,-0.027304998,-0.19618718,0.05126048,0.043140087,0.037439562,-0.10100979,-0.10355883,-0.1725812,0.21881294,0.6366461,0.06223336,0.10265873,0.120257914,0.2888725,0.20835364,-0.07903157,0.30072054,-0.183448,-0.261344,-0.013098222,0.3558512,-0.056278262,0.16738926,0.07995573,-0.029557334,-0.10897305,0.025806908,0.038513128,-0.26723298,0.03540226,0.1003043,-0.07594771,-0.06142495,0.39152634,-0.18022868,-0.041435763,0.43754506,0.2552751,0.0047687246,-0.092339486,0.21174575,0.040261745,-0.0549798,0.12217502,0.29193068,0.05945519,0.089887865,0.16006209,0.016748792,0.14097472,0.11590598,0.1455826,-0.0013179169,-0.11179646,0.09047336,-0.24169157,-0.012873029,0.004533239,-0.23217736,0.119155176,0.1456281,0.25484908,-0.08928435,-0.03102958,-0.3060844,0.058003873,0.3550612,-0.17444542,0.036657542,-0.17736706,-0.015257155,0.0055539855,-0.23926862,-0.23747265,0.40390846,-0.16023257,-0.24143097,0.15564568,0.28091,-0.08712616,0.12384304,0.06034003,-0.048152428,-0.19366893,0.3743012,0.35470262,0.048104215,0.22285262,-0.05582965,-0.17514162,-0.31927404,0.606227,-0.07014679,-0.25655487,-0.019899955,0.5162543,-0.049761876,0.016897762,-0.35828426,-0.011939074,-0.2618266,-0.3267833,0.08034542,0.09726562,-0.2055179,0.002539549,-0.08809302,-0.012702391,-0.12936603,-0.1366848,-0.53213364,0.031536784,0.034027364,-0.17652947,0.059062406,-0.018958628,0.09668457,0.08656866,0.07440991,0.11524877,-0.0056044874,0.1108089,-0.22382273,0.02619288,0.5121541,0.12889582,0.041206125,0.10165039,0.1408655,-0.19337593,-0.2289221,-0.21155608,0.18294638,0.16923253,-0.2708428,-0.22759452,-0.07665214,-0.17679848,0.23332939,-0.21603222,0.16544119,-0.11850713,0.027124064,0.18451914,0.020195775,-0.26658875,-0.07604967,0.09481384,-0.4288736,0.029714845,0.2653492,-0.35384718,-0.09884623,-0.3542369,-0.3444419,-0.10922356,0.025904693,-0.103997216,0.1871732,0.18005769,0.16824493,0.05084311,0.1387362,0.15612255,-0.07182386,-0.12959474,0.09018458,-0.04343966,0.1702114,0.085100845,-0.23917112,0.006077345,0.17062303,0.046749674,-0.021676308,-0.1640155,-0.22949018,-0.009990394,0.2165482,-0.42393547,-0.10755331,-0.5238353,-0.15125565,-0.18557867,0.010905017,-0.17281811,0.22334093,-0.020451885,-0.043232102,-0.16265896,-0.14090937,-0.38314256,-0.13851637,0.34170896,0.5954865,0.009271783,0.20944338,0.29134345,-0.4405611,-0.2760067
0.33920312,0.28780347,-0.09979584,0.14293484,0.07593905,0.22876027,0.21928625,0.07198864,-0.21813282,0.23850168,0.09992011,-0.19442888,0.0052484837,0.5116566,0.24565782,-0.008692414,0.06561705,-0.47430232,0.109190695,-0.117305554,-0.0121507915,-0.005283343,0.09069235,0.15419035,-0.05738136,0.456772,-0.27956122,-0.2235809,0.102297805,-0.19659989,0.365804,0.02179301,-0.06828024,-0.2704183,0.457333,0.111187175,-0.042790595,0.17663437,-0.08821826,-0.28732908,-0.21981344,0.152669,0.05370586,-0.09949168,0.2438658,-0.35273555,0.31764936,0.15559223,0.16136977,-0.19819555,0.10255756,-0.021369135,0.09213112,0.07869128,-0.069658846,0.23805724,0.07365497,0.042922597,0.0856357,-0.4416774,-0.031331517,0.15703104,-0.2552969,0.2388036,-0.0006182276,0.28825125,0.32788527,-0.12472647,0.0859121,0.014633908,-0.29880562,0.8057023,0.35082623,0.062771365,-0.37184268,0.07999628,0.29723185,-0.023034789,0.41125792,0.43834224,-0.09566691,-0.022028226,0.22952138,-0.43426803,-0.18235464,0.15681387,0.474506,-0.034693535,0.43767482,-0.087951206,0.3139731,0.013405942,0.040809773,0.047812544,-0.04322932,0.16644432,0.21966372,0.30416787,0.24238457,-0.1639558,0.09940235,0.5770139,0.13929926,0.0008661955,0.16653107,0.11048484,0.051143467,-0.043451894,0.24090451,0.11545901,0.09737084,0.07407711,-0.049669262,-0.0770113,-0.29308575,-0.04179295,0.22503841,0.06384793,-0.09295133,-0.21217965,0.17762394,-0.033581246,0.030912701,-0.20885898,0.24947114,0.22893718,0.13339835,0.13969627,-0.03590193,0.23479085,-0.05218376,-0.14874858,-0.2221298,-0.1354433,0.06122187,-0.13483919,0.4559814,-0.25687352,-0.067011185,0.6074879,0.07271437,-0.061295617,0.20457454,0.11998557,-0.19531864,-0.04525771,0.2903916,0.17991872,-0.1326166,0.14356181,0.6468924,-0.05932916,0.45467985,0.13691773,0.035002377,0.7916639,0.25009102,-0.37570566,0.15824544,0.24592625,0.12524462,-0.052609995,1.174531,0.19489205,0.14879791,-0.28283957,-0.30826956,-0.1362377,-0.033789366,0.24661759,0.47344643,-0.078674905,-0.06376928,-0.40860447,0.39147022,-0.09337424,-0.25011134,-0.53873026,0.28583166,-0.3833795,0.13837324,-0.27994353,0.2409225,0.12037148,0.1516912,0.3304108,0.08717455,-0.109713614,0.0469862,-0.006457591,-0.17153302,0.20096315,-0.19465506,-0.004666878,-0.065660894,0.123136714,-0.13972574,-0.25196517,0.18111019,0.31633782,0.30778682,-0.112919785,0.02375745,-0.13040051,0.93963975,-0.13230689,-0.037015922,0.20725048,-0.0645704,0.09235517,-0.34046838,0.05753799,-0.20686235,-0.22393605,-0.31326938,-0.5207344,-0.40070486,-0.5181689,0.36584428,-0.32099012,-0.3475503,0.22793041,0.05023223,-0.005833954,0.4145482,0.15498866,-0.06345151,-0.31406826,-0.26081637,0.030030813,-0.13271834,0.1590061,0.09207198,0.20874584,0.23736075,0.17500867,0.6278023,-0.18878807,0.7912692,0.09180719,-0.39543116,-0.43656605,0.13254689,0.3817291,0.16025443,0.16830859,0.22796065,-0.016623795,0.22914138,0.31621647,0.052545324,-0.6571816,0.6061249,0.017840201,-0.11616651,-0.17956111,-0.043790262,-0.18465526,-0.033014406,0.17634083,-0.25419152,-0.1475871,-0.0517638,-0.13378596,-0.11456305,0.07692583,-0.32154417,0.13763784,-0.07059737,0.042061556,-0.050561897,0.3164843,-0.16469434,-0.21455699,0.42215005,0.08031689,-0.012275771,0.2561743,0.09329859,-0.0025770161,0.05236613,0.26542842,0.1265303,0.1511285,-0.31335846,0.32387936,-0.03653968,0.12957121,-0.071639515,0.06536111,-0.09552953,-0.42221594,0.11296405,0.28390762,-0.02254021,-0.059684392,-0.17285526,0.017451648,0.04427933,-0.26463678,0.11426146,-0.0018688182,-0.24752508,-0.29353002,-0.56067324,0.122413285,0.37271103,-0.15789358,-0.2458248,-0.43836012,0.066452265,0.035378445,-0.348286,-0.3030913,-0.20664129,0.14957337,0.007486601,0.3406307,0.090989254,-0.12498742,-0.05529705,0.3069505,0.19144703,0.58733004,-0.008497744,-0.00844024,-0.12578939,0.12569894,0.07848077,-0.32888982,0.11810258,-0.18270744,0.70699507,-0.2717082,-0.01941264,-0.014550844,-0.1598384,-0.021278124,0.07445216,-0.39773816,0.16676266,-0.010427727,-0.2100028,-0.14859453,-0.13703756,0.25771606,-0.15370658,-0.40231714,0.14975008,0.1990421,0.023198131,-0.008916666,0.3016258,0.42037705,-0.13671513,-0.017536385,0.2889827,-0.17266285,-0.280592,-0.0027008033,-0.14715676,0.14457087,0.1865447,-0.14872508,-0.07537114,-0.32459813,-0.35985214,-0.30662528,-0.4367774,0.0006572278,-0.05698886,0.11719757,0.20996927,0.21681088,-0.108522095,-0.34916666,0.16963042,-0.06952974,0.52337915,-0.062037844,0.033577736,0.20550512,0.038677182,-0.010298629,0.23389278,0.0058347923,0.44411469,0.0445244,-0.24904037,-0.3237719,0.17519942,-0.040230405,0.14665388,0.32336715,-0.09014348,0.07373472,-0.026640108,0.13672647,0.36033592,0.35558593,0.0748493,-0.33581302,-0.15457308,0.1995481,-0.54309714,-0.15541407,-0.2761709,0.84430546,-0.17124774,0.13521662,-0.3530365,-0.034928866,-0.24056965,0.34932002,0.5175818,0.03042239,0.036558386,-0.12722944,0.7105801,-0.13186157,-0.27526194,-0.13031587,-0.13434821,0.38246098,-0.020044595,-0.22645009,0.5377771,0.18517813,0.14916775,-0.18327346,0.0047368356,0.18114778,-0.014807975,0.107016794,-0.34447944,0.17989145,0.4210731,-0.0031590518,-0.2184217,-0.08883419,0.35236013,-0.3491844,-0.02624493,-0.3560192,0.77697337,0.13279013,-0.09594091,-0.116324544,-0.011898272,0.13390726,-0.03700684,0.195744,-0.07081776,-0.24370155,-0.06798707,0.3175414,0.44805273,-0.30435267,-0.28625903,-0.36114553,0.39203063,0.020621847,0.26633334,0.24746628,-0.07933326,0.036535308,-0.4116622,-0.5385046,-0.2861538,0.026400594,0.20207983,-0.18989964,0.28021637,-0.22860278,0.33845758,0.026695015,-0.123578936,-0.054598078,0.09666143,0.06972223,0.20654164,-0.33310783,-0.2552702,0.086068064,-0.107887946,-0.2824781,-0.10466351,0.112000614,0.3678268,0.005220653,0.08025664,0.077683,0.08564375,0.011240227,-0.2272641,-0.2387213,-0.002782171,-0.35129765,-0.19107217,0.08113824,0.07876249,0.1911239,-0.26207563,-0.114048645,0.015378933,-0.077634655,0.028336605,-0.0852435,0.15627761,0.027271979,-0.28987777,-0.12769152
0.18990499,0.03027028,0.049500633,-0.38473684,-0.14191182,0.59434074,-0.0018231305,-0.15435703,0.27652517,-0.008377528,-0.0022871795,0.25130638,-0.115285575,-0.4054207,-0.021272669,0.043028172,-0.10001237,0.5110025,-0.30041438,0.21044208,0.025244951,-0.1000009,-0.2681824,0.40036324,0.20798491,0.0473978,0.1125589,0.47295326,-0.14842,0.15803263,-0.05468853,-0.05911858,0.109228075,0.35806477,0.3959296,0.27191743,0.29812342,-0.37387887,0.2058763,0.2224983,0.43324563,-0.03200755,0.037981354,0.2939662,-0.06360552,0.02170357,-0.016816387,0.06939302,0.5649639,0.5490194,0.37617394,0.18286498,0.25244677,0.08194416,-0.070759706,-0.3669807,0.028941698,-0.3820762,-0.006795467,0.5855071,-0.17892158,0.26784512,0.43282464,-0.19533357,-0.05057876,-0.11316871,0.14181532,0.852963,0.08327825,0.4050854,0.4084004,-0.20856617,-0.11682385,0.12133214,0.17135032,-0.50285804,-0.10252268,0.23673876,0.13649921,-0.35896733,0.1963637,0.37405056,-0.104156375,0.23252912,0.5035073,0.13377486,-0.10415028,0.2523209,-0.13580145,0.18232213,-0.16292591,-0.2771091,-0.13305551,0.4398724,0.20308883,0.0050738333,0.51593155,0.22379218,-0.2176593,0.2022778,0.099335074,-0.19064738,-0.034963876,0.47394344,0.11791201,0.23766384,0.35510078,0.2599178,-0.40503117,0.15360329,0.2292634,0.05647111,0.31608596,0.45936754,-0.0005043319,0.020754678,0.25455698,0.2305325,0.13038205,0.33646083,-0.05916454,0.22418645,0.22349626,0.1821403,-0.13961615,-0.081899285,0.10958055,-0.33820015,0.0885303,-0.5546958,0.011319807,0.03378691,0.83005077,0.2897448,0.1090328,0.3106643,0.25648072,0.19796677,0.40889692,-0.084301375,0.24478903,0.35315746,0.059440736,-0.3773168,0.5634317,0.103810914,-0.06061985,0.003836187,-0.6551986,-0.07443598,0.41952866,-0.39185116,0.59626275,0.3086601,-0.09779754,0.5197837,-0.19511087,-0.13165794,-0.003064294,-0.18230373,0.63295585,-0.5250629,-0.31071177,0.4695908,-0.07939978,-0.39356548,0.5058466,0.12963821,0.5156764,-0.22748542,0.1352235,0.58730084,0.35317388,-0.010322344,0.29419777,-0.075265236,0.025358323,0.27338094,-0.3874725,0.2289185,0.082179405,-0.058905166,-0.1022577,0.9197932,-0.44123974,0.081502244,0.4372847,0.06527402,0.052371766,-0.20574424,-0.14141701,-0.2887869,0.18920636,0.29973572,-0.11244361,-0.054080166,0.14007607,-0.36145848,-0.08074748,0.04421298,0.16082533,0.20896117,0.017899489,-0.004156414,0.21520318,0.2013568,0.18248285,0.21616584,0.42997175,0.13585466,0.1345722,0.021339593,-0.00777019,0.350914,0.2163435,0.318081,0.42076063,0.17964622,0.03356589,0.2476217,0.23540999,0.11080038,-0.021477714,-0.108911894,0.43892908,0.44905877,0.14241032,-0.15172984,0.9025748,0.29438767,0.6537379,-0.034802467,-0.28425208,0.033547908,-0.19703196,0.3549295,-0.25446337,0.6027638,0.1162538,-0.13628906,0.297569,0.68166447,0.50060457,-0.14566922,0.20937477,-0.015302479,0.43650016,0.08947772,-0.2110328,-0.06963955,-0.24469058,0.3376891,0.011567402,0.09764981,0.47437015,0.15592858,0.10537146,-0.17962183,-0.06242168,0.0696943,-0.15223715,0.08896258,-0.23585288,-0.11539216,0.035257712,-0.3110209,-0.07953425,-0.13057813,-0.23886752,0.23649198,0.21332702,0.15235914,-0.029556626,0.2733422,0.018032027,-0.09563176,-0.025857408,-0.061147694,0.2189494,-0.01543302,0.6528613,0.26026815,-0.3708497,-0.08100012,-0.358848,0.084045134,0.32892728,-0.36821845,-0.028396696,-0.35533243,-0.017281013,-0.03579706,0.3046151,0.064917654,-0.20679258,-0.0021039532,0.07390926,-0.32934684,0.22551116,0.04617508,-0.30603832,-0.016932018,0.320499,-0.34386662,-0.13154827,0.028936291,-0.290667,0.07924502,-0.19310783,0.35489818,0.11165356,-0.15355596,-0.1599877,0.3072873,-0.17677502,-0.07561187,0.1606787,-0.4278158,-0.0065040574,0.18373504,0.24957953,-0.32516652,0.0601746,0.024186974,-0.21944562,0.33328864,0.4595465,-0.18342024,0.37233227,0.46246815,-0.47691038,0.11435951,0.043720637,0.15808326,-0.14555348,0.009480123,0.06714481,0.107194625,-0.057610452,0.5766231,0.030414335,-0.062037166,0.16830993,0.07766627,0.17935485,0.3443659,0.014809129,-0.07089258,-0.1520154,-0.3316974,-0.44120625,0.11879107,-0.14938639,-0.12519811,0.25036082,0.29202083,-0.42961413,0.09406237,0.04022356,-0.13013144,-0.039799422,-0.21056785,0.23589346,0.041991442,0.553056,-0.14395134,0.011264921,-0.058170673,0.27677342,-0.13079283,0.15708344,0.17794561,-0.02886848,-0.18294005,0.3403721,0.09701805,-0.0065429346,-0.03359726,-0.061287403,0.27857137,0.6437517,-0.27818483,-0.12947041,0.53237385,0.09635282,0.036831122,-0.5296677,-0.10519069,0.4422292,0.21378568,0.013563556,0.06985151,-0.16601965,-0.28940317,0.16458665,0.0138848405,0.3274735,0.41068393,-0.19125919,0.15151222,0.21048014,0.49343997,-0.08953918,-0.5062547,0.13815139,-0.07728282,0.47804332,-0.43364733,-0.021496847,-0.010103333,-0.030305257,0.040086508,-0.28681627,-0.0016259899,-0.21847929,0.17337409,0.6434284,-0.0116525395,-0.4702479,0.49076998,-0.1965574,-0.2272371,0.056541808,-0.16459356,0.2514785,0.044073533,-0.2579046,0.41443208,0.053875715,0.30904505,0.505679,-0.4509102,0.361971,0.14170484,0.5220791,0.04832403,-0.30675337,-0.19770215,0.1079314,0.18721436,-0.23983128,0.37149203,0.20260064,0.06697557,-0.4689962,0.1263153,-0.5038159,0.2604207,-0.13944818,0.2719402,0.39753333,-0.07964895,0.039021116,-0.6124272,0.67526025,0.084453255,0.03229561,0.34682578,-0.022237847,0.21618518,0.02067194,0.38038072,0.14255042,-0.15420842,0.42729294,0.051078442,-0.122710936,0.04079698,0.4047955,0.3076698,-0.0323202,0.099739544,-0.31076208,0.018637542,-0.14996283,-0.1382222,0.18227707,0.5275934,-0.01851453,-0.10648641,0.7582361,0.56640846,0.46698296,-0.26029095,0.7202004,0.33875078,0.17517833,-0.017438158,0.022222385,0.1232817,-0.29770574,0.66626817,-0.26656315,0.21366312,0.04792974,0.56542903,0.20455746,0.4955178,0.51932704,0.25023127,0.35696283,0.054346606,0.7858071,-0.10765375,-0.019527793,-0.117498085,-0.111005194,-0.080313876,-0.21286806,0.327448,0.27670956,-0.014405583
-0.07855915,0.16977853,0.12926844,-0.01625908,0.09715295,0.7387111,-0.1737215,-0.40636802,0.18419415,0.043252125,0.23478107,-0.32388914,-0.54986715,-0.14308353,0.07906984,-0.13824867,-0.08953784,0.6692476,-0.5451841,-0.3125031,0.16552626,-0.13953552,-0.022226,0.10581612,-0.1049646,-0.059660114,0.5831662,-0.42966545,0.32794988,0.1440186,0.08396989,-0.23663436,0.1714269,0.021805802,-0.9638108,-0.06419725,0.16967243,-0.11106955,-0.12511745,-0.13110222,-0.030965034,0.14595975,-0.08745529,0.43400696,-0.09380167,-0.27632725,-0.14552435,-0.06895662,-0.060723685,-0.0117064295,0.3758466,-0.108781815,-0.1055324,0.003557842,0.40718573,-0.1776733,0.05491417,-0.34102237,-0.028496465,0.49374527,-0.1280483,0.013836283,0.11734178,0.25165245,0.00093161274,0.37905338,0.047501717,0.29439473,-0.005799987,0.3045283,0.42560947,-0.3545985,0.030822076,0.3672224,0.35541055,-0.19640703,-0.10905646,-0.13247065,-0.18244696,-0.60291725,0.30908924,0.042538505,0.014984339,0.7111783,0.38399053,-0.17860878,0.08281427,-0.08326905,-0.2447046,-0.20580287,-0.37314114,-0.104223266,-0.057949424,0.36881226,0.21592155,-0.13105483,0.39092505,-0.17881748,-0.5326051,0.088706754,0.31716806,-0.0007233669,-0.29391733,-0.01812257,-0.029897429,-0.25785357,-0.2568685,-0.032038968,0.17482135,-0.042083494,-0.119125605,-0.1230521,0.113783255,0.1004761,1.144628,-0.30866042,0.3041632,0.500024,0.48472568,0.30091774,-0.3552509,0.040615737,0.063437596,0.25755104,-0.17052001,-0.15620945,-0.23243561,0.011817918,-0.17614023,-0.4674521,0.03673509,-0.27386138,-0.49424425,0.15991862,-0.28600693,-0.03007366,0.21571867,0.26995265,-0.32825148,0.02840391,0.1361905,0.04669669,0.29370332,-0.37415335,0.63728136,-0.1885997,0.22779611,0.01962668,-0.31583634,-0.029587172,0.3402515,-0.05863548,0.0304966,0.060370993,0.31642058,0.7276924,-0.27571484,-0.038314003,0.18689984,-0.3271526,0.45313793,-0.6034019,0.26928332,-0.21189918,-0.028483571,-0.34015968,-0.07584407,0.37916857,-0.13262244,-0.35062394,0.1766607,-0.44915676,-0.130147,-0.12416613,-0.23854956,-0.011320736,-0.54214066,0.05617347,-0.4224857,-0.31964523,0.19538373,-0.7139097,-0.09506006,0.26898172,-0.0893905,-0.24239458,0.19253932,-0.25107506,0.44030246,-0.14986894,0.017510077,-0.21202339,0.12606311,-0.5694342,-0.44201708,-0.3529745,-0.009321754,-0.29543847,-0.41267553,-0.3130297,0.21437292,0.25195393,0.08893835,0.06879368,0.9191621,-0.24281563,0.06513796,0.25646162,-0.21760467,0.12088471,0.6516304,-0.5479286,-0.9923874,0.7436061,-0.0772241,0.1441734,0.09231512,0.05979984,-0.6670567,0.17502591,0.0813488,-0.057317853,0.33993983,-0.12704188,0.20259766,-0.3956364,0.1340126,-0.35496065,-0.74364245,-0.3104345,0.23456788,-0.13209324,-0.070231974,0.83118254,0.3201546,0.13886236,-0.34297687,0.39739522,0.170318,-0.4351058,-0.51293105,-0.33590454,-1.2705492,0.6447882,0.33728203,-0.007874219,-1.1880543,0.22581604,-0.1992585,-0.10110474,-0.19819734,-0.033436954,-0.5662464,-0.05153745,0.66859794,-0.14429604,-0.045238122,0.18608318,0.24622856,-0.11833879,-0.2679775,-0.33890128,-0.010046777,0.07767284,-0.08513846,-0.16630407,-0.017150585,0.09745457,-0.18790545,0.25177908,-0.09386624,0.29277283,0.0135525605,0.03818766,0.0047460417,0.06438651,0.0062426375,0.2013394,0.16548212,0.22440897,-0.14442396,0.2777384,0.015831565,-0.15556362,-0.12095098,-0.30418566,0.016674532,-0.14655784,0.22044465,0.004617694,-0.047063053,0.14391196,0.12487856,-0.015672186,-0.099311106,-0.24989061,-0.122616865,0.01623108,0.13115859,-0.17099708,0.29455507,-0.15041746,-0.07626501,0.13558973,0.108407356,0.060241144,-0.22978336,-0.0017680874,-0.24759372,-0.056128968,-0.16103011,-0.71877635,0.108580984,0.20602614,0.33472943,-0.36391458,0.40084276,-0.25972414,0.08301492,-0.12734412,0.26627746,-0.0023006357,-0.035860714,-0.44677857,-0.22291422,0.027518513,0.36823577,0.1547734,0.06483452,0.07915707,-0.06116673,0.13507101,-0.43840978,-0.112206,-0.15109168,0.015086441,0.12306073,0.12625949,-0.03018678,-0.01618426,-0.03716509,-0.10460287,0.033810794,0.04486287,0.015249481,0.15410338,-0.13114099,-0.102116324,-0.17244147,-0.3178742,0.13253511,-0.043161534,-0.27474672,-0.14293201,-0.37205765,-0.01936854,0.024640113,0.44643483,-0.15680055,0.101320766,0.07207442,-0.2615854,0.081957854,-0.7008602,-0.21863319,-0.1232316,-0.25021952,0.053150833,-0.028891772,-0.044101972,-0.05458949,0.11785175,-0.07226168,-0.3651416,-0.13196756,-0.19862323,-0.040187865,-0.08564668,-0.13110752,0.09207732,-0.07875946,-0.20421366,-0.22892854,-0.15234816,0.2307009,0.3325918,-0.37415373,-0.12485923,0.3767028,0.5074683,-0.16744241,0.0017850482,-0.029176537,-0.085391715,-0.21019037,0.062497858,-0.14353058,0.23145136,-0.0013225056,0.108366735,0.6452602,0.20890528,-0.062324118,-0.15535213,0.09440115,-0.017814018,0.1652451,-0.059538674,0.12284601,0.24858339,0.41446853,-0.079632446,0.2101419,0.052924488,-0.20662136,0.005267029,0.28719294,-0.16079396,0.22543237,-0.124322586,0.07115455,-0.1736987,-0.037388485,0.13311078,0.09050246,0.06929076,0.34002075,0.105699584,-0.056122664,0.31550267,0.040641382,-0.13918275,-0.09047669,0.0627541,0.24111697,0.19842932,-0.15583114,-0.1977732,0.3876152,-0.07538984,0.2082051,0.42580822,-0.08148319,-0.18719296,0.20357305,0.2958328,-0.18142897,0.57084745,-0.11053297,-0.10787887,0.25697228,-0.052625667,0.23140822,0.04313933,0.17343663,0.23780519,0.039659195,0.4235599,0.4879569,-0.18355781,1.0341336,-0.012658272,0.06333181,0.08260313,0.15641062,0.28670087,0.11887861,0.15454593,-0.30983123,0.38035485,-0.19593766,0.13929877,0.12655878,-0.17293008,0.07786748,-0.072417304,0.34999716,0.11697192,0.21659014,-0.18170364,0.29477072,0.0034920664,0.24978048,-0.30552304,0.027539011,-0.027670097,0.14590363,0.24287847,0.14720069,-0.118690506,-0.11731399,0.19880404,0.19257881,0.5065813,0.06306823,0.30360517,-0.009165767,0.4839521,0.13304539,0.32062376,0.013016475,0.16083193,0.13093472,0.08772513,-0.039756883,-0.25203237,-0.49325705,0.07008023,0.06340226,0.1106782,0.1278401,0.39611247
-0.326816,-0.52963483,0.14650422,0.038168553,0.033347808,-0.25451523,-0.14807151,-0.20228857,0.27395016,-0.20642497,0.13911079,0.088598154,-0.24009009,-0.2743494,0.36289033,0.11762618,-0.28745446,0.22079277,-0.11365827,0.028876806,-0.030188197,-0.27249616,-0.36200225,-0.08463519,-0.16854341,-0.13686414,0.34647575,0.09858374,-0.17891678,-0.16791141,0.07740073,0.03872438,0.19183809,0.1267125,-0.62023807,0.22903082,-0.17224494,-0.26332736,0.24343926,-0.019499268,-0.13081367,0.09902529,0.25979647,-0.21147715,0.19297634,0.14269818,0.13283624,-0.04714513,0.1087845,0.03095381,-0.21848285,0.24378486,-0.1600894,0.075007424,0.024040708,-0.40384558,0.2342014,-0.06019228,0.0053587826,0.3075371,0.120954506,-0.13023752,0.19325998,-0.08947072,0.015413599,-0.30172998,0.01595861,-0.005438072,-0.16757984,-0.09210355,0.18503642,-0.3068134,-0.11410655,0.1422624,0.5223103,-0.27939913,-0.37321946,-0.033893537,-0.60491794,-0.50880474,0.036148388,-0.34136906,-0.023936909,0.16497362,-0.10978878,-0.38968804,-0.6081455,-0.03263179,-0.06475155,-0.16465557,0.46517852,0.045218453,-0.18215884,-0.29984784,0.059732527,-0.6634621,0.06800717,-0.16333939,-0.23623458,0.21914852,-0.47256613,-0.24268687,-0.36250126,-0.17544755,-0.066118315,-0.11869323,-0.23476012,-0.09491783,-0.1671016,0.12447135,0.0163512,-0.1931105,0.044698346,-0.20605746,0.09126185,-0.07110086,0.05956433,0.006010798,-0.26111174,0.2883832,-0.29720467,0.211391,0.09662641,0.04706566,-0.15286084,-0.10798647,-0.08379586,-0.29529282,0.089602165,-0.32351875,-0.1984225,0.059621613,0.31954488,-0.2881677,0.12671399,-0.23387846,0.27129155,0.11987269,-0.11428879,0.14689843,-0.5562055,0.27304104,0.24037094,-0.34525737,-0.07409365,-0.06574225,-0.171305,0.44900903,-0.21970719,-0.05641827,-0.27193025,0.02352204,-0.59478647,-0.19225988,-0.29827023,-0.60767686,-0.2588002,0.028260093,0.2958919,-0.157519,0.19365959,-0.03850014,-0.3509006,-0.08766568,-0.2733179,0.5281995,0.3508955,0.32307106,0.007276529,-0.14297003,-0.14088511,0.31838837,-0.08022183,-0.07472171,-0.16826555,-0.053055376,0.35976595,-0.37307334,-0.26508763,-0.17950696,0.18466479,0.08410307,-0.4472991,0.19995083,-0.036991764,-0.2456709,0.23260467,0.3693603,-0.21280134,-0.043640424,0.015706541,0.097772025,0.060436588,0.119494654,0.055509534,0.0648043,-0.08874019,-0.07728338,-0.33932376,-0.24541485,-0.36041054,-0.01895092,-0.5053561,-0.3051432,-0.6517498,-0.59945476,0.3387479,-0.021778801,0.4358187,0.16007233,-0.23102488,0.11899174,-0.14649934,-0.09704605,0.2702674,-0.15599743,0.2327096,-0.53681654,0.5354779,-0.1535322,0.35262594,-0.6990763,0.31377876,-0.67462295,-0.3071263,-0.26370066,0.027551005,0.23560603,-0.00016327674,0.10180595,-0.026577583,0.3505564,-0.2958797,0.20791097,-0.24343735,-0.6808229,-0.14198229,-0.03011976,-0.19812971,-0.6272991,0.20754343,0.041502833,-0.58226645,-0.38590452,0.1292637,-0.2823718,-0.25460896,0.13696776,-0.15860465,-0.21959397,-0.23076804,-0.084799156,-0.9292098,-0.06682411,1.0056723,0.28663012,0.26022273,-0.5858827,0.14377658,0.08197533,0.015762188,-0.04080828,-0.24741757,0.03295375,-0.2644251,-0.30930376,-0.05360242,0.04048207,0.022440989,0.14371972,-0.08305614,0.35749847,-0.10276552,0.33109942,-0.052369848,0.12255904,-0.11295312,-0.3473506,0.05890011,0.026394418,0.026661767,-0.1918827,0.08595594,-0.13243772,0.39196828,-0.1943204,0.055527654,-0.059998687,0.16394314,-0.00235819,-0.21611807,-0.08599805,0.14274505,-0.4301723,-0.013106623,-0.08319561,-0.02799542,-0.029247912,0.24870908,-0.13764091,-0.07582231,0.019388847,0.26921603,-0.00076248567,0.11847478,-0.21436955,-0.3711524,0.25200245,-0.16254786,0.297508,0.14498897,-0.041439824,-0.026329506,-0.21371785,0.11891366,-0.25015798,0.041381054,-0.46521667,0.08124125,0.26646683,0.106834166,-0.17477545,0.0936397,-0.44244692,-0.41826114,-0.103714876,0.4964915,-0.4043837,0.14211419,-0.14549962,-0.1377613,-0.09957234,-0.44159985,0.13974836,0.15202945,0.30081984,-0.04374499,-0.052071683,-0.15282372,0.10769423,-0.32269895,0.08028113,0.24399656,0.05207146,0.13937955,-0.23134615,0.14957812,-0.10867443,-0.30849555,0.16607912,0.09260606,0.41631055,-0.1673788,-0.09197692,0.0825856,-0.05965685,0.22290088,0.12737475,0.15117714,-0.21358462,-0.020025209,-0.065032795,-0.039113622,0.0035391827,0.024591103,0.024969758,-0.04376473,-0.11968663,0.31619143,0.030416887,-0.2023544,-0.012456435,0.033170693,-0.06727288,-0.0069605834,0.28480574,-0.057105474,0.02756756,0.18101531,-0.42159048,-0.018743955,-0.003834143,-0.22019356,0.4072992,0.005462847,0.21144086,-0.09247425,0.086849295,0.3820613,-0.07055395,0.14801766,-0.25981715,0.19577923,-0.1361291,0.2470692,0.0636849,-0.6814768,0.25309214,0.014359937,-0.1360605,0.079028815,0.038472265,0.17791525,0.2420783,0.39644372,-0.13750954,0.087123625,-0.18563132,-0.15862378,0.2734803,0.048858188,0.14740022,0.113036886,0.11876255,-0.2854287,0.089771636,0.3172563,0.15361299,-0.31585425,0.14678638,0.13490221,0.027707696,0.29145095,-0.45304197,-0.04862151,0.1423468,-0.3563693,-0.0008594431,-0.079467736,0.13368814,0.14039358,-0.24624255,0.21038762,0.10363655,0.14546907,-0.1049151,-0.020633612,0.11731305,0.10408171,0.23976655,0.24051605,0.024998387,0.081728056,0.51341224,-0.38906938,-0.033179816,0.102025606,0.36779046,-0.24008547,0.048543967,0.34924576,-0.13839106,0.0058268104,0.022944622,0.25187004,-0.26384,-0.14605272,0.20292464,-0.10086279,-0.23877923,-0.52152824,0.17966194,-0.1996665,-0.14764519,0.35504785,-0.15036204,-0.23850718,0.17032774,0.5586795,-0.00066867995,-0.1446595,-0.17219718,-0.019437302,0.23940441,0.5636201,0.2681522,0.4253986,0.3758925,0.19135651,-0.51144785,-0.36738288,-0.15852185,0.40346017,-0.21373619,0.07454149,0.30650783,0.12492119,-0.33042553,0.12462487,0.24700461,-0.50717384,-0.34659183,0.18436882,0.11898008,0.13151622,0.32434064,-0.021753537,0.2387896,-0.20679708,-0.2968425,0.18961081,-0.23643705,-0.061613128,-0.0268378,-0.15348679,0.15841661,0.288869,-0.2044785,0.121564835,0.19024716,0.59558636,0.33326465
0.19773029,-0.041223798,-0.3514824,0.20647426,0.09051389,0.48766664,-0.17612207,0.31079802,0.18934065,0.30654225,0.22257124,0.36931294,-0.032748174,-0.39510778,0.3839983,0.13082767,-0.38952285,0.32832327,-0.06434724,0.3318426,0.099393085,-0.023113415,-0.1972213,-0.11770109,0.0041692476,-0.0631277,0.119829744,0.15827262,0.44181973,0.19577736,0.17864843,0.5821332,0.58559287,0.40223014,-0.26261485,0.27089858,0.3397519,0.12561266,0.5717492,0.22937246,0.39457032,0.38718444,0.13956566,0.28945526,0.4686097,0.3091117,0.34407783,0.16520622,0.29325533,0.07389416,0.13823569,0.42087388,-0.0037383167,0.13742946,0.28086817,-0.10541478,0.12870665,0.173821,0.02572224,0.42633343,0.5184381,0.3473206,0.49629432,-0.07234558,0.13306014,-0.014693212,0.38168907,0.54011077,0.12670088,0.3203869,0.3318108,-0.13514695,0.27122828,0.21321817,0.09253777,-0.081976265,0.14888762,0.3044917,-0.047930367,-0.028672524,0.12855251,0.023226328,0.42126778,0.22517867,0.4466429,-0.42773327,0.3023497,0.057396665,0.28731018,0.13368963,0.23347798,0.022660334,0.022664474,0.32678038,0.28467786,0.30793545,0.32419047,0.28934103,-0.23413019,0.4895827,0.404895,-0.3057969,0.025954649,0.28660166,0.26212785,0.20155445,0.42346102,0.3923778,0.29333386,0.58413506,0.07013473,0.24749787,0.23379977,0.1748126,0.13987155,0.39304367,0.22055484,0.06422581,0.45753706,0.41773856,0.1497429,0.30135477,0.16467223,0.36530113,0.18413505,0.041031986,0.14533967,0.22948276,0.17608221,-0.07112568,0.1418151,0.42917836,1.3900853,0.3923406,0.05113533,0.40655082,0.07573775,0.019186027,-0.05447698,0.072627895,0.09283831,-0.012729715,0.1996445,-0.7086604,0.2842806,-0.40690297,-0.084611446,-0.1386894,-0.16150934,0.35211843,-0.088055685,0.13614157,-0.08997215,-0.016895652,-0.40907493,-0.20685384,0.3068089,0.765586,0.16687803,-0.2769347,0.13388924,-0.16995636,-0.40450975,-0.23506853,-0.065613925,0.20360647,0.28445998,0.22575144,0.24914242,0.19146147,-0.4294161,1.142481,0.4174272,0.24188592,0.06389821,0.44682702,0.036429096,-0.099509045,-0.3408896,-0.19808684,0.32390693,0.47446698,-0.06943759,0.6945613,-0.31656078,0.15961792,0.47631925,0.26606706,0.17179377,0.063413136,-0.22482844,0.17567845,0.2187614,0.6805032,0.1626626,-0.093315035,0.013766689,0.1101158,-0.30429503,-0.061446257,0.1776391,0.3932477,-0.2779311,0.082520895,0.08144697,-0.43830037,0.2318431,0.13802376,1.0438826,0.457999,0.2733882,-0.22184315,0.10267047,0.7180847,0.5687285,0.02609792,0.4480297,0.10937688,0.12859786,0.56490874,1.3995863,-0.34950775,0.508699,0.23702939,0.1836208,-0.3273918,0.45468992,0.050765704,1.0239099,0.2404885,0.4980939,0.28603855,0.011191828,-0.05529639,0.4590463,-0.45091164,0.09724375,-0.094042316,-0.16875342,-0.26941574,0.44321522,0.9573337,0.39629906,-0.2519517,-0.15032534,-0.6006886,0.47055423,0.26498553,0.13063596,0.038618337,-0.19780643,0.4444604,0.066883795,0.45886886,0.1729012,0.18485232,-0.0074460963,-0.684214,-0.2727425,0.315354,0.2096622,-0.066434026,0.07595264,0.3540717,0.15678819,-0.1851236,-0.25975248,0.30337545,-0.3812361,-0.26746422,-0.16090922,0.036647853,0.40948015,0.16108492,0.045192808,0.027350936,-0.060596302,0.105666064,0.43032247,0.12927829,0.08764968,-0.40982774,-0.25950557,0.043192253,-0.17360152,-0.35982722,0.13305934,-0.19480701,0.024913711,0.009810525,0.21733165,0.18105759,0.076454975,-0.08956035,-0.024619572,-0.13970196,-0.21010982,-0.3715005,0.05162073,-0.1361289,-0.110807106,-0.06824459,0.037572477,-0.19554946,0.38741326,-0.17818174,-0.24505895,-0.09130593,0.069332466,-0.13049324,0.4519121,0.032397293,0.1460346,0.71406496,-0.13549829,0.16218789,-0.27589056,-0.13369432,0.17202982,0.44275638,0.11984218,0.15631613,0.028645877,-0.44261375,-0.45198348,-0.12066205,0.2609901,-0.48566037,-0.09254583,0.33014238,-0.15146524,0.1379247,0.05513165,0.009328316,-0.105153,-0.07029332,-0.18041992,0.49934837,-0.35662797,0.39040625,-0.050414074,0.41671166,0.2795735,0.17162623,0.055848327,0.010491059,0.23806329,0.45343176,-0.41774994,-0.11549139,-0.23793204,-0.106914654,-0.04435887,0.059623096,-0.40028214,-0.34157768,0.035853345,-0.10253788,0.1660156,-0.19945748,-0.23121487,-0.03292059,0.34725732,0.20789222,0.07924448,-0.29076868,0.25562704,-0.13565268,0.13169882,-0.16685396,0.21522285,0.27866644,-0.0825722,0.29448712,0.018994594,0.07950498,-0.020345956,0.04389258,-0.13719164,-0.28668755,-0.09338249,-0.16396749,-0.108293936,-0.13688987,0.40683794,-0.018115735,-0.18607712,0.345314,0.79961264,0.843549,0.18997444,0.17917287,-0.27062583,-0.25089115,0.05571261,-0.039622955,-0.0931288,0.40265766,0.1379984,-0.61161315,-0.33827037,-0.30540532,0.18782347,-0.59869117,0.5241652,0.14076336,-0.08734055,0.057503637,-0.15488844,0.07211105,-0.10101997,-0.12544715,0.43693888,-0.32540476,-0.54949427,-0.21955977,0.18219966,-0.12793818,0.14868674,0.034510665,-0.096764676,0.20516169,0.109099984,-0.44016445,0.14667632,0.324466,-0.5502027,0.518652,0.50293237,-0.43344092,-0.2134458,-0.16430302,-0.0413142,-0.65329856,0.15951332,-0.31189218,-0.5199645,0.44510922,0.09652326,0.44328117,-0.079411134,0.12165106,0.12839264,0.24928574,-0.3202481,0.112354115,-0.20815614,0.34386787,-0.003283581,0.5905756,0.39604622,0.11781937,-0.19512095,-0.10694667,0.12663075,-0.2521389,0.37597838,0.64777064,-0.36247674,-0.015129374,-0.22733624,-0.5796861,0.21334884,-0.20068267,0.86799854,-0.23416515,-0.15803437,0.4073879,0.6371978,-0.28210872,0.29028064,-0.46638206,0.08968474,-0.43879598,-0.039976444,0.11451579,0.38681096,0.0800738,0.5234368,0.12733467,0.18472448,0.094570525,0.52717465,-0.15225308,0.26344967,0.14487723,-0.535162,-0.024073672,0.08084595,-0.38262084,-0.5266802,-0.55250144,0.62845016,-0.036761966,0.036243245,0.32961592,0.4128512,0.37858814,0.45492694,-0.24002296,0.08833682,-0.37774932,0.664706,0.16348405,0.17814699,0.026617622,-0.09362933,0.21085557,0.4685084,0.23439725,-0.3828223,0.20771451
0.22460072,-0.27378008,-0.27968913,-0.23801094,0.36939096,0.08116951,-0.19576475,-0.12816201,0.07241049,-0.40824243,0.057737354,-0.21473292,-0.8045682,-0.049783826,0.28006953,-0.10579424,-0.32772854,0.18483822,-0.029491847,0.3884998,-0.060267817,0.31648773,-0.603755,-0.43165174,0.14932325,-0.16492777,0.32253197,-0.19585475,0.16648829,0.5088356,0.04618576,0.0016447016,0.017537124,-0.19333497,-0.030295398,0.011163697,0.32703665,-0.52856916,-0.20368288,-0.281608,0.15063184,0.07465283,-0.06287528,0.2545781,-0.17877232,-0.6866087,-0.46714246,-0.34407353,0.34866616,-0.45725352,-0.23200394,-0.42655385,-0.23468049,-0.084006205,-0.0216988,-0.09641048,0.020014249,-0.40174523,0.12970914,0.47418818,0.20585334,0.11518398,0.042536553,-0.003947604,-0.33931947,0.110147715,-0.18040134,0.30004993,-0.23594387,-0.067303166,0.43159235,0.037826743,-0.053763114,0.24530414,0.39434153,-0.6888742,-0.07598327,-0.4679963,-0.23977245,-0.65385175,0.61145115,0.035766512,-0.17754178,0.5628453,0.27813363,-0.19107088,-0.15074135,-0.48347983,-0.3231057,-0.22945683,-0.025695298,-0.0071807033,0.12038685,0.3632748,0.18286334,0.024709595,0.31847417,-0.66531485,-0.16941309,0.44546685,0.096218735,-0.50171536,-0.9140772,-0.10644831,-0.046015024,-0.39695597,-0.7210888,-0.0117918635,-0.260437,0.10721034,0.1341274,-0.24657777,-0.020304883,0.19635691,0.27004737,-0.49116954,0.11113099,0.120267004,0.075767994,0.0011058764,-0.087284684,0.07463154,0.0048302514,0.27778548,-0.032123156,-0.0039211106,-0.11383799,0.05979148,0.14007819,-0.41101703,0.48103252,-0.27523983,0.21671349,-0.35750958,0.44179863,-0.14351974,-0.10771108,0.021725686,0.036304716,-0.025469847,0.6889619,-0.2575331,0.08965547,0.13462855,0.3534081,0.550761,0.0701763,0.32572755,-0.2587942,-0.56321114,0.6583903,0.1381985,0.4861443,-0.013695147,0.66357374,0.29576302,0.14558367,0.35451618,-0.2139474,-0.40361646,0.12111674,-0.22370334,-0.3424912,0.37609288,-0.20671734,-0.015029999,0.092101485,0.45211887,0.17272145,-0.018143106,0.042776126,0.09216955,-0.07487099,0.0058131423,-0.0056020147,0.6994653,0.2411226,0.33312082,0.2218679,-0.1730156,0.4179158,-0.002571076,-0.43930814,0.36676842,-0.028605068,-0.19364741,0.11433888,0.46195033,0.1123486,0.030896528,0.004951732,-0.37691805,0.12614362,-0.44195843,0.08527107,0.2615322,0.011009695,-0.5100932,0.065700896,-0.17502227,-0.025649609,0.3169316,0.3142171,0.21344118,0.11145683,0.31942788,0.37826556,-0.12268499,0.30358443,0.06898007,0.3655709,0.9495961,-0.06551827,0.2608261,-0.07807909,0.020786678,-0.11698796,0.47467515,0.11780216,0.22713389,-0.20756726,0.21470423,-0.10677255,-0.22611941,0.039103474,-0.23782441,0.037055768,-0.21966045,0.68566394,-0.05341749,0.15111215,0.37255365,-0.16158882,0.011847819,0.5537383,0.5893811,-0.063776284,0.17263351,-0.15290384,-0.5007768,0.13951796,0.36290503,0.26485974,0.37426856,0.256555,0.5024079,0.06887674,0.55909,-0.14885138,0.036708556,-0.007464271,0.046103615,0.20556392,0.23267968,-0.48492682,-0.0719952,0.08763213,-0.2690817,0.052886136,0.0048748017,0.24399382,-0.12654088,-0.19300362,0.14276096,-0.10297873,-0.18329914,0.19350727,0.20228082,-0.0050868206,0.20834948,0.34420964,-0.03199423,-0.16086856,0.19104847,0.1572689,0.21923663,0.025041115,-0.0013509259,0.10053901,0.3715122,0.07023288,-0.07638835,-0.04438806,-0.37872112,-0.45900708,-0.18872434,-0.05815632,-0.8501038,0.2656189,-0.29283318,0.0051251887,-0.050890867,-0.063869916,-0.08598506,-0.09385127,-0.11829347,0.102270156,-0.36819658,0.04905856,0.1431442,-0.23128332,-0.087271824,0.32060817,-0.2538831,0.1956132,0.19645111,-0.2515954,0.24563652,-0.369647,0.14678629,0.05902892,-0.13281703,0.08692437,-0.1645563,0.30085185,-0.3289169,0.14995413,-0.19931434,0.067610495,0.08034631,0.27138564,-0.12010822,-0.053098906,-0.09379169,-0.041212358,-0.008979979,0.33028942,0.057738237,0.5526055,-0.27582934,0.043890625,-0.07129796,-0.22330812,0.14410035,-0.14865161,0.074074894,0.17332712,0.31174478,0.347861,0.19505522,0.4132486,-0.12199707,0.07960598,-0.26098248,0.2548558,0.44418278,0.14965811,-0.26182252,0.04714804,-0.44564185,-0.570858,-0.34065595,0.044913188,0.067514874,-0.10448717,0.040536642,-0.029328477,0.036336485,0.32040337,-0.43066537,0.28349137,-0.3315047,0.3374221,-0.18976162,0.33079806,-0.38725683,-0.09149442,-0.13150093,0.0034563683,-0.30302173,-0.104038686,-0.22603142,-0.07481213,-0.017302511,0.1769438,0.30312777,-0.19921124,-0.05539182,-0.1332605,-0.07071351,0.4078329,-0.33801928,-0.55143726,0.008554657,0.23691376,-0.07540269,-0.2176423,-0.10524195,0.4297708,-0.08461734,0.14679831,0.006075883,-0.4123284,-0.31397787,-0.11677582,0.093943395,0.23580924,-0.058204096,-0.17663789,0.23750997,0.08780454,0.45144823,-0.08038664,0.030890485,-0.21267381,0.13923155,0.06340874,0.1728151,0.07480097,0.14491086,0.10732993,-0.029399995,-0.037425756,-0.16173784,-0.5277447,0.20119314,0.20971315,-0.26719004,-0.2748606,0.14491473,-0.3775443,-0.08846229,-0.39060754,-0.16078295,-0.33163282,0.20420772,-0.5582856,0.19491298,0.021597246,-0.11513887,0.08815579,-0.08005775,0.09937302,-0.32404393,0.117079176,-0.28398272,0.17105088,0.15178615,-0.14843254,-0.036018275,0.17946391,-0.060278613,0.12681438,0.449339,-0.5517258,-0.1567854,-0.28957155,0.23566473,-0.1227335,0.2714834,-0.08597054,-0.022893136,-0.34062004,-0.4196635,0.42182252,0.30063602,-0.1833786,0.15461685,0.18770602,0.09803856,-0.20750567,-0.22088084,-0.037626598,-0.31439483,0.83976865,-0.075923145,0.028380655,0.32929462,0.22612816,-0.031891447,-0.17210324,-0.1543652,-0.15894856,-0.106326774,-0.1131336,0.36753145,-0.09546236,-0.080655485,0.08480156,0.05902764,0.27115896,0.27394906,0.14563698,0.12814023,0.51988536,-0.06618224,0.082771465,0.39889187,0.00939042,0.24339497,0.24548209,-0.12029677,-0.24481569,0.2558706,-0.11063167,-0.11593882,0.38962635,0.35381612,0.39868876,0.028520165,-0.08117726,-0.31579658,0.40242139,-0.013920566,-0.053174205,-0.27560043,-0.17737532,0.033358254,-2.477396e-05,0.14979362,-0.35241246,0.3387263
-0.009086703,0.05911565,-0.15239641,-0.04473349,0.21080938,-0.11487652,0.002748,-0.08624516,0.039068088,-0.0257551,-0.037196673,0.040727086,-0.21706337,-0.579085,0.07585096,-0.1700517,-0.73519015,0.19814417,-0.111671895,-0.013161912,-0.14653648,-0.09243003,-0.43439814,0.047098614,0.059225593,-0.44342583,0.34159455,0.2758788,-0.10522025,-0.44058117,0.047392067,0.118378036,-0.29347503,-0.4023147,-0.17630641,-0.11022782,-0.042750176,-0.10927522,-0.46139795,-0.14388144,0.019832699,-0.43918544,0.003990653,0.45056605,0.09659978,-0.602146,-0.10455616,-0.10730904,0.22475652,-0.41717157,-0.15775116,-0.22755656,-0.08346251,-0.035120543,-0.049082313,-0.2977633,0.037312366,-0.1794489,0.22046317,0.3626491,-0.053528003,-0.23037364,-0.29957289,-0.09332532,-0.16144402,0.41891688,-0.5225543,-0.056947418,-0.42948726,-0.07527218,0.1574244,-0.8762604,-0.20876701,-0.11451211,0.57952935,0.008795798,-0.40548998,-0.20117733,-0.16399536,0.104643375,0.8004818,0.4331422,-0.15823463,0.627771,-0.11127749,-0.76834244,-0.18803117,-0.4858917,-0.4531143,-0.4792572,-0.522843,-0.23361748,-0.25126532,0.34621924,-0.27340603,-0.14195545,0.038414642,-0.79534215,-0.26213238,0.176248,0.3340332,-0.23400374,-0.24801794,0.3313044,-0.025317822,-0.41483104,-0.50864226,0.35694736,0.0644573,-0.5236625,-0.04425078,-0.44513527,0.23160958,0.33471602,0.79421514,-0.019476533,-0.021191215,0.09279975,0.067652434,0.037868597,-0.03597247,-0.14299603,-0.00866156,0.1369288,0.037589982,-0.33529824,-0.22922361,-0.20045671,-0.09611753,0.7574455,0.120294176,-0.12788856,-0.17948751,-0.51360816,0.0840465,-0.29970562,-0.3544507,0.21774553,0.09114016,-0.36796036,0.1870112,-0.12338212,-0.02597236,-0.18068503,0.37538624,0.24550368,0.1862801,-0.13416193,-0.41201484,-0.45802048,1.175623,-0.05263009,0.040790707,0.16981155,0.725033,0.09704064,-0.8109385,0.9024142,0.20686159,-0.1741163,0.14600278,-0.30509394,-0.36236596,0.43149087,-0.43246946,-0.23235255,0.1393325,-0.20029438,0.20179562,-0.15076172,-0.0110911755,-0.63035655,-0.0035297014,0.33211905,0.42127752,0.44581708,-0.092333145,0.44770303,0.022218809,0.3187677,0.074582756,-0.46104905,0.15128063,0.29955882,-0.16098715,1.0216144,0.28232172,0.1254454,-0.003554856,-0.43241876,-0.085949324,-0.6762046,0.24056475,-0.7619741,-0.29322213,-0.23159654,0.075657465,-0.322072,0.6980016,0.16437376,-0.2920871,0.06956767,0.6010015,-0.2803146,-0.015216216,0.55552024,-0.21768506,0.09613232,-0.14373808,-0.49593437,0.26624507,0.19137384,-0.7762958,0.35442033,0.2387683,0.4130039,-0.20491442,0.7732732,-0.61462677,0.091596104,1.0505314,0.30545768,-0.2617592,0.28915417,-0.06486137,0.45960334,-0.32980135,-0.18093792,0.013595182,-0.24632736,0.22661422,-0.42929566,-0.1459939,-0.1490743,-0.19411217,0.90989524,-0.44798443,0.42008278,-0.18764137,0.2513809,-0.2687108,0.03465863,-0.3669961,-0.20501786,0.37394682,1.2590302,-0.31438333,0.060580533,-0.65293294,-0.5086284,0.063166104,0.16442868,0.20712914,-0.556705,0.23679788,-0.012202151,-0.032928005,0.11334998,-0.11280994,-0.23667261,-0.0833017,-0.38688296,-0.20299158,-0.18794434,0.04080975,-0.24665156,-0.043934636,-0.010081521,-0.21378592,0.20177819,0.28237265,-0.28129482,-0.1959267,-0.022363767,-0.2170001,-0.1265371,0.0933761,0.0065830904,0.17353535,0.21877246,-0.23828427,0.15677084,0.07100124,-0.23604935,-0.21667904,-0.29681507,-0.06970004,-0.16818899,0.32567585,-0.060514253,0.00420987,0.27805838,-0.060399197,-0.07226776,-0.010099328,-0.1515987,-0.094954856,0.36525646,-0.34074214,-0.13864775,-0.39525935,-0.309549,0.4974794,0.27252162,0.05243735,-0.17765574,-0.25356132,0.16393209,0.13924608,0.2634144,-0.088416435,-0.42422107,0.17641501,0.026189903,-0.016434666,-0.5077697,0.3248523,-0.1010581,-0.34597334,-0.14073336,0.09266825,-0.6364081,0.10268314,-0.21176551,-0.14010993,0.2546927,0.10256867,-0.2649154,0.15710358,0.03536727,0.060588673,0.4204892,-0.6218456,-0.26071823,-0.30076048,-0.077238195,0.31177816,-0.039521713,-0.13492012,0.29041135,0.25867748,-0.14922391,0.32409814,0.006731784,0.030696012,-0.46075782,-0.074040234,-0.014133071,-0.18319297,-0.44951928,0.16334818,0.17425145,-0.47609344,0.097141154,0.19672859,0.036707852,-0.7808555,-0.022718715,0.2538139,-0.052724224,0.16961004,-0.28952602,-0.0061418894,-0.24127325,-0.054439746,0.23694058,0.27526477,0.2749546,0.45421207,-0.27638733,0.54072046,0.17154403,-0.2873702,0.17345291,0.6278553,-0.18656063,-0.2686138,-0.029320868,-0.43977803,0.43654203,0.22726406,0.050888035,-0.07683338,0.16518705,-0.10911863,0.4323231,-0.4620657,-0.025104064,-0.10235341,-0.65313584,-0.09156883,-0.1518068,-0.5369218,-0.40063646,-0.24329796,-0.018990811,-0.2612034,-0.3874898,0.018077668,-0.00052970264,0.54840624,0.1494039,0.17931324,-0.1230135,-0.4454464,-0.146329,0.6063801,-0.43450105,0.30976,-0.12659018,0.6795209,0.031245317,-0.41127273,0.2689754,-0.11492077,0.3768562,-0.047813028,-0.4902095,-0.39299867,0.2975367,0.29009104,-0.33075815,-0.062231068,-0.5257619,-0.0069265873,-0.22903079,-0.21634588,-0.15409914,0.078662604,-0.16304548,0.18090443,-0.31688562,-0.2641662,-0.2828378,-0.07411277,-0.11077946,-0.28285944,-0.15331368,-0.12671459,-0.026634986,0.070148125,0.6492493,-0.057701487,0.3619808,-0.44897965,-0.5306387,-0.62591404,-0.03610643,-0.13998392,-0.011416104,-0.21205984,0.20134467,-0.5943667,-0.5779687,0.019280426,-0.16631661,-0.016035195,0.14839177,0.6077186,-0.47867504,0.07869783,-0.19985722,-0.23598118,0.16525778,0.32490477,-0.30084366,-0.12796894,0.29322094,-0.27431768,0.273497,0.03539219,-0.50933105,-0.44317666,0.08846284,-0.25530493,-0.028691579,0.17304592,0.26554164,-0.33572882,-0.0037102406,-0.050163783,0.11781116,-0.15888855,-0.0020908972,0.13743633,-0.01493697,0.01648252,-0.041584227,0.0020061913,-0.60496503,-0.64244723,0.31236815,-0.21902196,0.4504271,0.3017636,0.1567637,0.25064203,0.14305475,-0.24352941,-0.23704353,-0.01584572,0.25854176,-0.17629558,-0.07784941,-0.07922319,-0.32299915,-0.28762105,0.2872629,0.09502171,-0.21395811,0.008807321,0.14067212
-0.120195135,-0.033365697,0.1126385,0.13392127,-0.01897192,-0.24981503,0.35582212,0.23822798,-0.33161718,0.2545089,-0.3185112,-0.11014147,-0.04018977,0.0117963515,-0.5890429,-0.2390043,-0.13295016,-0.5985961,0.34587148,-0.17403871,0.04137446,-0.024143163,-0.05766086,0.25746578,-0.77786833,0.09736056,-0.71970546,-0.14642325,-0.47967872,-0.037769843,-0.3197772,0.2391686,-0.2166496,-0.30687186,0.13107975,-0.01839774,-0.28625405,0.08436463,-0.06786804,-0.12400786,0.14495441,-0.06717002,-0.5404389,-0.18169078,0.003018953,0.15155247,0.06621988,-0.30974674,0.03687973,0.0026965807,-0.3923186,-0.15338315,0.18901144,0.3907148,0.16436245,-0.048908472,-0.047456257,-0.13171095,-0.21863197,-0.47169197,-0.24015634,-0.20411557,-0.38791606,0.09890719,0.24481964,0.041776087,-0.18806607,-0.77613425,0.21923175,-0.19661675,-0.39308566,-0.08642663,-0.40557358,-0.43447042,-0.62450546,0.30867636,0.00013540394,0.016022785,-0.020155288,-0.21939617,-0.26079658,-0.19015321,0.025019716,-0.9318682,-0.5523594,0.21887355,-0.53945166,-0.07035879,0.12732947,0.28570122,-0.044522688,-0.24288014,0.16906537,-0.46392506,-0.24599,-0.24675167,-0.44200853,-0.23718801,0.15441598,-0.038332753,-0.4034722,-0.0842786,0.17282194,0.35458055,-0.45253125,0.31817174,0.45454055,-0.23428677,-0.056839664,-0.10938144,-0.26319855,0.013400551,0.275204,-0.27716732,-0.35748252,-0.2021539,-0.11077927,-0.37870058,-0.39461258,0.025314549,0.07929801,-0.33268273,0.0188968,-0.25855207,-0.21662174,0.13983566,0.1649125,-0.0024531994,0.08308851,0.5664796,-0.06711803,0.03384134,0.29730025,0.19383441,-0.049996294,0.008749228,0.37742546,0.009141085,0.33478725,0.007888261,0.32335007,0.29197237,-0.15306729,0.6130004,0.31600288,-0.25467703,0.06722411,-0.118253045,0.4650701,-0.14970778,0.42818454,0.16876173,0.30720264,0.3547326,0.035415683,0.3548421,0.6715078,-0.1550332,0.016680896,0.3912805,0.40981197,0.22903499,0.27508992,0.5816932,0.29532388,0.06131475,0.4122422,0.027957557,0.6650535,0.7181051,0.39408293,0.35124043,0.216415,0.2720981,0.51431113,-0.06645684,0.6063739,0.08384294,0.17827803,0.19066326,0.011109826,0.6837329,0.46530512,-0.013185656,0.33792773,0.40842372,-0.2580589,0.4528751,0.0011269504,0.38019317,0.360958,0.11744277,0.23290913,0.43617463,0.24234992,0.17765604,0.29167718,0.592596,0.44609737,0.9289416,0.093610644,0.2815989,0.37660387,0.44475943,0.11124116,0.15865304,-0.15962505,0.063099034,0.31007183,0.5529094,0.16018914,0.57970715,0.59834963,0.34929037,0.04754083,0.14873809,0.5721783,0.19837436,0.5877957,0.3874484,-0.24430643,0.69420815,0.3610084,-0.015951755,0.1514029,0.28249335,-0.13321355,0.459394,0.09313013,0.38790914,0.567097,0.056583807,0.6972888,0.33323738,0.023341151,0.4078012,0.1772348,0.72623867,0.28520465,1.0677814,0.5159886,0.29967567,0.37130398,0.08011543,0.417957,0.35713857,0.37003505,0.37614855,0.039181914,0.34885478,0.1032702,0.08263723,0.6411957,-0.34975177,0.570549,0.7987769,0.11461036,0.25562957,-0.099680714,-0.04161889,0.17273074,0.16665825,0.33790594,0.05970814,-0.15418333,0.2857944,0.19332117,0.07926001,0.15702187,-0.1865105,-0.3998824,-0.19920087,0.07674767,-0.24843867,0.23040202,-0.07581546,0.041562244,-0.22576632,-0.4864533,-0.21533577,-0.33737028,-0.47274667,-0.052130893,0.3216657,0.19247791,-0.029270982,0.12124472,0.21091986,0.17138033,0.051204786,-0.08418072,0.22322157,-0.20879722,0.008667721,-0.060929924,0.077390246,0.2685059,0.046674572,-0.14885673,0.11309767,0.24166568,-0.09552154,-0.18980454,0.21250628,0.13823113,0.10479231,0.042678412,0.068576224,0.112918675,0.014919444,0.11669322,0.6410083,-0.06719223,-0.1437291,0.36973125,0.21114075,-0.17406364,0.21190043,0.0974071,-0.025539337,-0.24223882,-0.24400553,-0.070239805,0.09640276,0.33310127,-0.025268845,-0.14418444,-0.28548747,-0.1029318,0.01757955,0.08500091,-0.33251792,0.4606409,-0.0059859897,0.26946068,-0.06394724,-0.055452645,0.18270375,-0.02342074,0.03073451,0.068240084,-0.013912847,0.18363607,-0.22523984,0.10339096,0.25094873,0.13133766,0.14150421,0.47890416,-0.11496619,0.04020503,0.05097767,0.09673111,0.036575392,-0.028826177,0.045883987,0.28748995,-0.0489169,0.07715811,-0.03378848,0.043573085,-0.08742303,0.06976056,0.30793515,-0.10103769,-0.082624055,0.022544434,0.13354997,-0.08049415,0.18550575,-0.087390885,-0.03367385,0.03684834,-0.3091302,-0.26635316,-0.030238897,0.17556071,-0.06650376,0.19635488,-0.24070592,-0.06808869,0.14459306,0.049092133,-0.21002729,-0.3344279,-0.15745655,0.16082716,-0.032722566,0.05266214,-0.17633022,-0.05459304,0.27753234,0.10786031,0.07714248,0.3064608,-0.1396558,0.21598601,-0.1309959,-0.14901482,0.27665123,0.3738256,-0.45520008,0.018689562,0.035329267,-0.08957789,-0.2001912,0.21159141,-0.14323832,-0.34496063,-0.014292133,-0.46534324,0.2974253,0.06680351,-0.10865943,-0.18366185,-0.04170619,-0.18948829,-0.29940203,0.3349529,0.37178522,-0.20761853,0.08094472,0.2588952,-0.06415669,0.32738173,0.057211872,0.3165433,0.09976369,-0.083277464,-0.021608906,0.08551816,-0.17316365,0.16093977,-0.018451886,-0.51646274,-0.07836895,-0.35227543,0.2572658,-0.026840594,-0.10153391,-0.023892924,-0.08997305,-0.24772702,-0.042990454,-0.083658196,-0.1362258,0.060995053,-0.4840182,0.42832348,0.31503308,-0.09628989,-0.37099767,-0.10804557,0.15555146,-0.16513808,-0.14474793,-0.28048247,-0.45690885,-0.09090893,0.3762529,-0.0048757927,-0.13733119,-0.012271507,-0.086637005,-0.33238444,0.5727122,0.0520184,-0.12772915,-0.4798901,0.22066873,-0.079171166,-0.08677327,0.3658659,0.04409686,0.2614397,0.08208291,-0.27410662,0.04084324,-0.13666318,0.07430489,0.07006019,-0.04440692,-0.3191571,0.2645809,0.04713915,0.05142101,0.3869845,0.33279788,0.2923734,0.12004391,0.25434673,0.4904484,-0.1616604,0.030283248,-0.016091242,-0.018760223,0.39654905,-0.14690366,0.06021094,-0.17641611,0.30958194,0.11116749,-0.038800064,0.100854255,0.17552769,-0.009836364,-0.44219196,-0.16360943,0.0534318,-0.30164656,0.2891241,0.2144909
0.2072714,0.0696389,0.03319941,-0.09960564,-0.6159296,-0.21198636,0.18838084,0.11320287,0.013794684,-0.0036107854,0.39650202,-0.22230273,-0.08489782,0.31873956,0.13221787,-0.12955889,-0.21313363,0.6053351,0.035913173,0.13506676,-0.15524183,-0.21188556,0.41006687,-0.29619366,0.23061942,0.6839702,0.7815941,-0.7219451,0.26036346,0.5241691,-0.27288374,0.1609857,0.53258353,-0.1222253,-0.21344945,0.29888657,0.46303037,-0.37087548,0.29339692,-0.4617024,0.30554202,-0.3112826,0.12572105,-0.16911225,-0.43072167,-0.107896045,0.2304659,0.38552937,0.5167209,0.411405,0.6589015,0.0874339,0.05829028,0.04825381,-0.53179234,0.007723779,0.21532829,0.05287718,0.14974014,0.71476495,0.071566686,0.17576508,-0.17861879,-0.5776503,0.35457966,-0.31322855,0.15554857,0.74374783,0.09255192,-0.43939614,0.52555585,0.041605726,0.11273075,0.13984619,0.03630865,-0.23080301,-0.24108317,-0.0007401808,0.25290257,-0.4888259,0.15652859,0.17561123,0.19739482,0.53055733,0.57563317,-0.124347016,0.08615959,0.41729346,0.30642137,0.43288776,0.5243517,-0.093406826,-0.4406809,0.30435985,0.277441,0.1429228,-0.33780736,0.12803753,0.19254093,-0.21904726,0.06390796,0.008252765,0.107492656,-0.07817685,0.17910938,-0.62877333,0.12994263,0.36109123,-0.31261966,0.36517033,-0.2218165,-0.269307,-0.07551253,0.15577365,-0.13790645,-0.113676205,0.12395142,0.25492302,0.052422248,-0.16957836,0.00015587691,0.023799289,-0.14672418,0.19088252,0.079281785,0.14084601,0.16233782,0.14065926,-0.4384829,-0.44947362,0.27892357,-0.2574821,-0.10782907,-0.72373456,0.20992967,-0.2770889,0.2024431,0.18097262,-0.023517128,-0.2789061,-0.36163935,-0.30378717,-0.10762119,-0.6722938,-0.07829721,-0.08415467,-0.27573535,0.11001535,-0.7797022,-0.27562764,-0.14933307,-0.42211944,-0.15657161,0.31893766,0.1981671,0.5968165,-0.39712018,-0.3300768,-0.63428307,-0.35019532,-0.32686153,-0.42498788,-0.15549636,-0.14918654,-0.34507063,-0.4527829,-0.13312857,-0.044272494,-0.4704658,-0.81592554,-0.3946895,-0.25063875,-0.4787343,-0.14335468,-0.5045902,0.2531839,-0.36461243,-0.11924815,-0.15697084,-0.20153482,0.25125444,-0.6858384,-0.983526,-0.22897056,-0.46818587,-0.93373054,0.46781603,0.13990185,0.32702032,-0.37403908,-0.8751801,-0.44614822,0.1742697,-0.17102408,-0.3419859,-0.10409715,0.19043873,-0.8843628,-0.22516584,-0.22568491,-0.12682785,-0.14593512,-0.42911157,-0.20327994,0.4857891,-0.08450282,-0.18636972,-0.33827376,-0.17938392,-0.4453873,-0.4605915,0.22785693,0.022209108,-0.5321684,-0.30361497,0.09268305,-0.54686594,-0.18961757,-0.031002386,0.0327536,-0.20155227,-0.17616744,-0.25293136,-0.62099075,-0.50510484,-0.6860372,0.008151968,-0.50873303,-0.07576064,-0.5052068,0.22609444,-0.20135818,-0.8030965,-0.5383519,0.2258117,-0.12990254,-0.3920908,-0.07804038,-0.06539903,-0.6343635,-0.44610038,0.21289535,0.028418398,-0.12424205,-0.14032505,-0.29116726,-0.27532375,-0.30843458,-0.576966,-0.60130876,-0.2150769,0.22133642,-0.7186407,0.016663808,-0.10992417,-0.73971784,0.020067217,0.10125875,-0.007317526,-0.021280106,0.1699586,0.34457994,-0.09160354,-0.008201269,0.030965855,-0.079900205,0.42299238,-0.11015832,0.14441538,-0.08606688,0.2618248,0.47282726,0.18543504,0.45256242,-0.1087755,0.12048754,0.111360826,-0.24651857,-0.24770415,-0.16023295,-0.10208296,0.5576984,-0.2818032,0.19325718,-0.20816158,0.3290587,-0.089031555,0.27676278,-0.16739985,-0.15721664,-0.025378028,-0.06563524,0.111108,0.0072864876,-0.102823816,0.19416933,0.021740716,0.034772396,-0.01707238,0.14051493,-0.016720856,0.21170186,-0.27554768,-0.5585773,-0.035796575,0.05634804,0.14047027,-0.29481342,-0.12496282,0.15484107,0.011968699,-0.2703067,-0.09305708,-0.13761468,-0.13164178,0.29080787,0.21088207,-0.8270719,-0.073593125,0.24948809,0.07294187,-0.23354803,-0.26348093,0.39845625,-0.44545674,-0.11436296,0.26183915,0.25877553,0.26361233,0.3538845,0.24024862,-0.13227747,0.17157118,0.04569316,-0.066696264,0.442633,0.044879526,0.16234066,-0.33637866,-0.1020919,0.040040974,0.09236162,-0.27126762,0.49898165,-0.0089387335,0.37047645,0.3096617,0.23175396,-0.11138622,0.27575856,-0.23733957,0.4326718,0.39462087,-0.4601884,0.4076176,-0.19067395,0.067737654,-0.41661194,-0.12194694,0.17767443,0.34485376,0.057215728,-0.084663734,-0.11788629,0.57859236,0.3964783,-0.24960099,0.05184378,-0.21681932,-0.06654432,-0.25199512,0.14589265,-0.07669723,0.1364165,0.057739764,0.21150222,-0.09785953,-0.028349128,-0.12807712,0.0100976955,0.21909831,-0.35492295,0.038469795,0.19897135,0.19827184,0.14004478,-0.406506,-0.06971864,-0.23865405,-0.5771884,0.03037123,0.1683995,-0.32791865,0.053300545,0.061732013,-0.22833683,-0.1399423,0.15115485,0.0006063238,-0.09828727,-0.24676262,0.57406276,0.22861217,-0.3334382,-0.16760874,-0.005324864,0.26233047,-0.42296374,0.3306036,0.19867618,0.24887522,0.07950832,-0.48332423,0.2552226,-0.5420707,0.38642466,0.4215812,0.09203419,-0.814462,0.014769918,-0.18510906,-0.0053381976,-0.03907754,-0.1864304,0.108415775,-0.183917,-0.31360033,-0.46960217,-0.2681431,0.18101896,0.41988686,-0.07637003,0.3586336,0.10541056,0.665802,0.07474875,-0.34471646,-0.18915679,-0.58192843,-0.022303319,-0.5716329,0.17120038,0.47217372,0.4954696,-0.3799485,0.025835155,-0.65186083,0.17003772,-0.23183924,-0.4161635,-0.0736518,-0.020411188,0.027667305,-0.754411,0.609727,0.018763341,0.06335147,0.13644743,0.14433122,0.14228126,-0.086090386,0.098469555,-0.09631463,-0.04383719,0.1997849,-0.31072086,-0.037744604,-0.06978553,0.109912306,0.05869517,-0.28566176,0.05877959,-0.38791585,0.1834681,-0.39515656,0.03477868,-0.03727485,0.15594947,0.006503509,-0.2413841,-0.69483745,0.004349759,0.29570395,-0.25584388,-0.60704833,0.004817423,0.22138245,-0.20426449,-0.55904347,-0.099447355,0.1100409,-0.1681258,-0.13182493,0.36421868,-0.44087702,0.0064572506,-0.089373,0.10955534,-0.13126533,0.2109697,0.009374226,-0.18721624,-0.0021355683,-0.3304342,-0.024139347,-0.3004344,-0.22504607,0.09348887,-0.31638965,0.2666516,-0.19684896,-0.47924122
-0.083273634,0.12175678,-0.295567,0.048993167,0.5293825,-0.22504386,-0.052263927,0.25538364,-0.8216752,-0.06065739,0.19772926,-0.2172443,-0.52976114,-0.38845184,-0.571814,-0.2727436,-0.20700346,-0.32860032,-0.13174833,-0.8467881,0.18977037,0.07431981,-0.15257835,0.101142675,-0.67536104,0.18733287,-0.33016437,-0.511058,-0.37728882,-0.040178295,-0.35251346,0.16465819,-0.087213546,0.08967003,-0.4099836,-0.106459044,-0.20422629,-0.0016886562,0.079975836,-0.63616145,0.119704485,0.20998774,-0.7558603,0.4197686,-0.21089764,-0.41724128,-0.13110174,-0.22506393,0.2122755,-0.22029774,0.012487019,-0.2572062,-0.39315557,0.028669154,0.071276985,0.02687978,-0.1583325,-0.10346085,-0.12931518,-0.6173001,0.15872261,-0.19966383,-0.5680919,0.3886107,-0.118033126,0.76606333,0.051938232,-0.017083602,-0.057908766,-0.16314547,-0.33893475,-0.20688526,0.0057996074,-0.07632287,-0.4586708,0.17842315,-0.12994187,-0.27416137,-0.004494719,-0.010947588,-0.08026472,0.16097668,0.06541821,-0.51259744,0.1378696,0.042565353,-0.03460579,-0.2010943,-0.41148806,-0.28764647,0.16682312,-0.46433544,0.0897761,-0.10684539,0.4084019,-0.021713069,0.34898663,0.27209833,-0.029780507,0.2845721,0.34052876,-0.004465615,0.14629611,0.19915839,0.14682539,-0.16292597,-0.23432745,0.00222324,0.37729526,0.03838699,-0.38874105,0.29804492,0.36619255,0.126925,0.44416448,-0.521869,0.1367697,-0.27819273,0.405068,0.2332237,0.056606166,-0.7451626,0.047631957,-0.04324353,-0.21192656,-0.04372682,-0.19756754,-0.05819071,-0.34030893,-0.32898152,0.63722515,-0.35236165,-0.56335676,0.2913503,-0.28131485,-0.010225812,-0.07333315,0.17496155,-0.32187548,0.4760959,0.20532754,-0.19525555,0.57789284,0.90545624,0.38580137,-0.023479154,-0.16571082,0.18019679,0.45382318,0.21909496,0.016148053,0.28864804,0.025194954,0.48739192,0.12785521,0.16169243,0.39589924,0.112375356,0.104086064,-0.048896234,0.059767283,-0.5361229,0.27480948,0.06013202,-0.13973142,-0.43521845,0.21304585,0.18863083,-0.48080355,0.15118119,0.38114685,-1.0290406,0.22029966,0.4638915,-0.28765535,0.7167647,0.0016934244,0.29678845,0.050573554,0.2534753,0.53018,-0.050640795,0.7294229,0.45529097,-0.0075443536,0.5949344,0.12502277,0.017646393,1.0227988,0.84364057,0.28980884,-0.15470247,0.7590218,-0.5899107,0.07376014,0.31651714,0.87230223,-0.12511156,0.5883878,0.04793105,0.32464015,0.27434808,0.26596743,0.17885675,-0.008275102,0.1413025,-0.11528977,-0.25337154,-0.050231118,-0.107578225,0.47582057,-0.17232414,0.14342813,0.32698324,0.080272734,1.0936162,-0.33565503,0.12081632,0.60384977,0.12059651,0.105713695,0.01649406,-0.44091654,0.16582543,-0.22689974,0.77946687,-0.2140277,-0.65316594,-0.5743341,-0.17106698,-0.069996625,-0.110259034,-0.16367857,0.09109226,1.0112875,0.43908665,-0.022435833,0.50863373,-0.23115951,1.106273,-0.37960914,-0.19982652,-0.74871355,-0.0058264905,-0.29558334,0.40672278,-0.75421655,-0.043055248,-0.22782531,0.5311824,0.10137194,0.44838342,0.21827853,-0.20836172,-0.3066596,-0.008076315,0.2216373,0.09817572,0.31528845,-0.035305258,-0.13981606,-0.057381235,-0.0676583,-0.24409153,0.16693841,-0.2558062,0.21655397,0.01531035,-0.5861972,-0.14173478,0.07731627,-0.025082383,-0.00866165,-0.39183676,-0.36349592,-0.5736443,0.03837504,-0.38541934,0.16728,0.51242733,-0.535946,0.43313923,0.59444135,0.052778482,0.2601453,-0.043828472,0.12635991,-0.040672526,-0.3620357,-0.08371064,0.3657104,0.033674866,0.023883458,0.027758174,-0.23761638,-0.24168172,-0.13424097,0.085029066,-0.09454884,-0.49761593,-0.2492893,0.15724634,0.109854646,-0.3351048,0.047615357,0.0139593845,0.49922675,-0.25852755,-0.35340884,0.30248365,-0.051767662,-0.48130378,0.2484986,0.09363431,0.18500331,0.50750184,-0.06187473,-0.060966652,0.10288584,-0.07600746,0.18795983,-0.16479453,0.14313065,0.4208575,-3.794341e-05,-0.22602126,-0.0524588,0.18972616,-0.051943537,0.15469289,0.21326639,0.4654657,-0.18835321,-0.0034049402,-0.34421343,0.10402295,-0.6241889,0.21901427,0.047043327,-0.38148633,0.13712703,-0.39365083,-0.16051085,-0.07576711,-0.1145423,0.0036505603,0.0035008814,0.26328993,-0.2013441,0.2269163,0.0188552,0.057923056,-0.13082467,-0.081171274,0.40587294,-0.30846167,-0.0003716208,-0.5200584,-0.07783237,-0.37836453,-0.071205065,-0.11264556,0.50561976,0.14217074,-0.0135394735,0.4493291,0.16488138,0.05033319,0.2816813,0.3591612,0.40501493,0.38145146,-0.083269134,-0.21167208,0.06284697,0.13638815,0.20513445,-0.12757038,-0.5941953,-0.041773204,-0.2688966,0.00167055,0.30368373,0.17704539,0.0056081694,-0.3722603,0.16585016,-0.059036903,0.22851974,0.04433166,-0.2561985,0.40655074,-0.41495875,-0.1926423,0.23230122,0.21876794,-0.2973371,-0.13068043,0.100045696,0.1805833,0.5593845,0.0816742,0.18524812,-0.20705497,-0.1089858,0.28936028,0.037047748,-0.08774971,0.010328452,0.5302782,0.13804893,-0.10285879,0.38027874,0.21612115,-0.506085,-0.13711593,-0.099516876,-0.09029443,0.068298265,0.33620533,0.07673047,-0.084686555,0.19899082,-0.35363063,0.09921301,0.12990037,0.32621,-0.033483125,0.11445536,0.21281168,0.2948265,0.122238114,0.29201776,-0.011880634,0.0117644975,0.098601684,-0.24482998,0.020419478,0.1708559,0.25953275,0.22069348,0.45557845,-0.0055095083,-0.48911306,0.022914018,-0.07727657,-0.04952762,0.46129486,0.19785133,0.22161202,0.05831144,0.4574659,-0.025790635,-0.020291898,-0.3197685,0.44118834,-0.015814576,-0.038949125,0.40235698,-0.1854883,0.1636504,-0.26462036,-0.04934383,0.1579141,-0.29826272,0.45353183,0.100104906,0.04970483,0.42089352,0.28214875,0.14414167,0.13133226,-0.35980913,-0.004236043,0.31830564,-0.15635903,0.10376723,-0.3482918,0.10035866,0.09529969,0.5599941,0.3500761,0.06616677,0.007758705,0.017138256,0.057290368,0.244128,0.20931132,0.280846,-0.2961972,-0.23217249,0.33647725,-0.023640672,0.49716088,-0.2882723,0.2168962,0.14055717,0.14343323,0.027014852,-0.36974576,0.022117062,0.5445762,-0.09481197,0.22076999,0.2963052,-0.18376432,-0.00880318,0.5246254,0.023374245,0.18630996,0.1603564,0.26023373
0.10809759,0.09101728,-0.11615655,0.13518885,-0.04498126,-0.043780703,0.21268855,-0.078487635,-0.18418875,-0.2060668,-0.027649127,-0.0934402,0.17691734,0.23045285,-0.010328445,-0.16225445,0.47519526,-0.37081066,0.046947606,-0.1074442,-0.1338107,-0.0027538484,0.0067783273,0.0074753063,0.101236545,-0.32735115,-0.33394125,0.15158908,-0.15910482,-0.048485342,-0.049353298,-0.23963542,-0.38553074,-0.48436198,0.37906298,-0.20367733,-0.21352902,-0.028291328,-0.31838408,-0.16748354,-0.14365414,0.059343044,0.06891779,-0.18853056,0.23980714,-0.09375847,-0.110267505,-0.30225977,-0.16087595,-0.2810302,0.11797376,0.051216394,-0.033187583,-0.026286807,-0.07498631,0.18514705,0.05650623,-0.051639605,-0.09703582,-0.266004,-4.3413573e-05,0.11418718,-0.23894066,0.14311802,-0.11188322,0.05233763,-0.07116832,-0.22359596,0.039668262,-0.17097609,-0.4724404,0.36361197,0.059533805,-0.21602559,-0.21822909,-0.010315903,0.0667477,-0.18789041,0.21952674,0.21344519,0.0053054173,0.06402175,-0.08299588,-0.575623,-0.22127302,0.4274545,0.042485256,-0.27927586,0.035667907,-0.20265035,0.037316956,-0.027552333,0.1509087,0.14453419,-0.08474865,0.34292847,0.077570945,-0.1177949,0.07858184,-0.27143383,-0.14664984,0.03338989,0.17272916,-0.033374727,-0.11388014,0.09047526,-0.12229958,-0.25190178,-0.08958367,0.017175363,-0.0004966101,0.30058983,-0.20102838,0.16076878,-0.8310378,-0.06178133,-0.10474717,0.094425716,-0.4240734,-0.17963879,0.21173243,-0.093779236,0.10585339,-0.23988108,0.04469737,0.07115411,0.36467674,-0.11378679,-0.0967956,0.6126123,-0.041470077,-0.27496886,0.19016391,-0.12658049,-0.112863615,-0.16872372,0.00557893,-0.12939064,0.18621008,0.2505054,0.30772135,-0.33044994,-0.06331306,0.18584356,0.3199407,-0.049873296,-0.17546047,-0.14076228,0.3752291,-0.19583471,0.9750051,0.11223626,0.38143763,0.07392825,-0.07883817,0.4317645,-0.1184302,0.26871786,0.21560286,0.17881683,-0.1723861,0.16497649,0.59458077,0.44875687,0.01420313,0.06083861,-0.02409837,-0.3238099,0.3155643,0.17209888,0.69309664,0.2923413,-0.34888607,-0.03383096,0.5548774,0.19349454,-0.052019067,-0.068181805,0.34774545,0.20602895,0.20173906,0.17660406,0.43937516,-0.022041444,0.40388992,0.82570297,-0.26420358,0.3385889,0.059307676,0.069745935,-0.345567,0.25642332,0.18406868,0.13642733,-0.103819646,0.026825422,0.0039126505,0.1972423,0.17723697,0.5532136,0.056568686,0.0072461963,-0.009972912,0.36419567,0.9120642,0.025668653,-0.19059034,-0.25197834,0.13583091,0.09195011,0.41200027,-0.3233611,0.09667741,0.114971705,0.30121642,-0.17905389,-0.30403882,0.17753206,0.49667877,-0.010382789,0.3314038,0.6372394,-0.1762772,0.42321253,-0.04145023,0.32404345,-0.36863673,-0.0070607,0.3093861,-0.41224682,0.046995718,0.029550916,0.34483317,-0.3251052,0.012104565,0.466787,0.19890125,0.48825023,0.31506127,0.4595905,-0.1307212,0.0971215,1.0003196,0.31109968,0.3170708,0.06955511,0.6455314,0.09059954,-0.0046026115,-0.16838172,0.20759746,-0.19664985,0.65574026,-0.020679293,-0.49762917,-0.26606795,0.09887829,-0.25258094,-0.1653595,-0.04165641,-0.23118655,-0.17893575,-0.005053784,0.18148194,-0.1941951,-0.011507982,-0.01512014,0.043381386,-0.40751296,0.06406054,-0.31559753,-0.17534067,-0.17194197,-0.07853431,0.15675898,0.014013397,0.04376292,0.33328032,0.108730935,-0.022564657,0.3118537,0.0050958805,0.014088525,-0.038339965,-0.030579321,0.04051696,0.4483595,-0.069493346,-0.28491163,0.106424704,-0.035562463,0.008398449,-0.08343291,-0.056141227,0.08330938,-0.017769868,0.07501792,0.027856633,0.2647474,0.055275813,-0.01850394,-0.1388866,0.28253242,0.028334761,-0.051745113,0.16375932,-0.060176224,0.27110016,-0.0843323,-0.03268081,0.0046024146,0.02308948,-0.14475314,0.1395244,-0.11476772,0.19320358,-0.39707467,0.37849095,-0.05795151,-0.2326219,-0.07653484,0.052593447,0.1227108,-0.11214737,0.27854577,-0.03439908,-0.22974855,0.058271345,-0.38486284,0.10591899,0.08536473,0.12856162,0.26544306,-0.20974417,-0.1688701,-0.32634404,-0.046432555,0.13944802,0.38837585,-0.21025571,0.07168588,0.076498516,0.22367725,-0.46713933,-0.22571456,0.18486112,0.22913079,-0.07689451,0.099200875,-0.044677638,0.08459962,-0.03152025,0.016895242,0.6151616,0.15374519,-0.24986973,-0.4100716,0.23276074,0.01224606,-0.09265306,-0.211651,0.08832008,0.24565347,0.15614316,-0.05468296,0.22853501,-0.04094991,0.12440028,0.022408195,0.006350292,0.052908335,-0.07545774,0.021664694,0.3696921,-0.05228114,-0.19845797,-0.08421579,0.0384787,-0.06106737,0.1338144,-0.007066452,0.042166643,-0.12585343,0.14813016,-0.17521918,-0.10964298,0.039840035,-0.03509853,-0.050124712,-0.3078172,0.14266002,-0.4117593,0.007479677,0.19239639,0.28063565,-0.06887163,0.09693191,-0.24286483,0.36553904,0.043934815,0.23583849,-0.554034,-0.3145807,0.055576,-0.42680934,-0.26513192,0.17358084,0.046258494,-0.1497387,-0.01682222,-0.022049453,-0.02372167,-0.14244564,0.25701466,0.40298703,0.07729395,-0.59241086,-0.18595573,0.14879918,-0.06602696,0.020465631,-0.24179754,-0.12316751,-0.0034681566,-0.016532373,-0.16932718,0.07966558,0.05981192,0.040022857,-0.25122076,0.024978794,-0.05341685,-0.070861906,-0.0053943405,-0.3868158,-0.15335229,-0.06258402,-0.10817225,-0.050518177,-0.037687823,0.16376483,-0.013523654,-0.11145207,0.12010172,0.25944936,-0.0718622,-0.30751598,-0.30640084,0.112118,0.16273595,-0.48290884,0.19088487,0.16151915,-0.25406122,0.059534136,-0.05290825,0.30953225,0.08333731,-0.121998474,0.01984266,0.47437066,-0.14646958,-0.018467864,-0.24162477,0.029961633,-0.122330114,0.053774573,-0.55048376,-0.37757668,0.059276093,0.10706101,-0.33233294,-0.108581245,0.0052498262,-0.112828515,0.14943779,-0.13755038,0.21613874,-0.13078675,0.30593833,0.1992576,-0.46964315,-0.4651842,0.29754075,-0.09068835,-0.28805244,-0.20955634,0.066992916,0.28654853,-0.055157937,0.23662665,0.24286667,-0.3155372,-0.034287915,-0.14711893,-0.22733475,-0.17656548,-0.42796114,-0.063916765,0.16367419,-0.18933217,-0.12145324,-0.3103019,0.04698892,-0.1655563,-0.13062051,-0.08093731,0.0072099124,0.31696048,-0.26699695,-0.05755433,-0.39752442
0.28496397,0.120231725,-0.177109,-0.37411886,-0.36326897,-0.1322532,-0.07182041,0.20222364,-0.088945135,-0.038817994,-0.22010681,-0.34787726,-0.0017035382,0.11957206,-0.43116993,-0.13764471,-0.28311554,0.40546986,0.21327125,0.24920423,-0.36129937,0.42053834,-0.009705781,-0.10945679,0.39765474,-0.18116511,0.66189283,-0.3227075,0.1649137,0.33105963,-0.44012842,0.033333804,0.29643825,0.12137209,0.23151258,-0.07052691,-0.18866964,-0.36721396,-0.34953353,-0.43512362,-0.16996138,-0.46071073,-0.20656174,-0.047212876,-0.070051506,0.053150967,-0.11901228,-0.0045974813,0.041775186,0.36113894,0.39539233,-0.23732121,-0.0702415,-0.4548992,-0.5097616,0.084541686,-0.09313728,-0.054357126,0.15656094,0.6337209,-0.36865246,0.004548919,0.029612444,-0.47091967,-0.20117992,0.15176125,-0.065301925,0.69022596,-0.13768725,-0.32645983,0.24188648,-0.1298542,-0.32046235,-0.02505203,0.24215172,-0.6166603,-0.29458547,-0.09204017,0.08122314,-0.11954484,0.50660247,0.0591236,-0.16572523,0.84826255,0.4156811,-0.030070862,0.22510682,0.09613746,-0.2645758,0.18496633,0.3046837,-0.06657438,-0.23181927,0.42004764,0.21159513,0.6044305,-0.02932984,-0.22862431,0.24281667,-0.24777621,0.4998206,-0.017072082,-0.4214372,-0.38245007,0.15242174,-0.36069706,-0.2676522,0.110136226,-0.28571302,0.0068557807,-0.13743767,-0.23308118,-0.13673253,0.8482183,0.15813878,0.040722508,-0.5013188,0.50926703,-0.006232332,-0.3735665,0.035409313,0.12901859,-0.3893673,0.21299355,0.18758261,-0.1117825,0.5274397,0.018870372,-0.19635083,-0.029751692,0.05872765,-0.50082064,-0.31401572,-0.81881744,0.05494215,-0.42482233,-0.6877097,0.43455142,-0.7124671,-0.18664357,-0.24204311,-0.1932239,-0.5875176,-0.4849353,-0.35543874,-0.20201224,0.09972578,-0.165307,-0.4998114,-0.54539996,-0.86604416,-0.11325152,-0.34938577,-0.43556124,-0.37907428,0.0695203,-0.41154012,0.38120046,-0.356712,-0.6616099,-0.36599648,-0.19717287,-0.80437154,-0.32602856,-0.23998609,-0.3272147,0.105082564,0.13534975,-0.6561253,-0.53852206,-1.0292268,-1.2127604,-0.55220157,-0.19113609,-0.6019244,0.1271692,-0.62583995,0.1244371,0.05903508,-0.27168244,0.20962872,-0.7063795,-0.8077777,-0.18883678,-0.9306714,-0.866642,0.03467852,0.513406,-0.162423,-0.4684997,-0.25030428,-0.44709983,0.10598359,-0.7173718,-0.7550023,-0.18771721,0.2836677,-0.42303783,-0.120018035,0.32404056,-0.43067908,0.14933738,-0.6079329,-0.49459815,-0.687491,0.16589788,-0.017840788,0.13705654,-0.81122017,-0.26954198,-0.10182997,-0.19235025,-0.6817497,-0.39353696,-0.05798048,-0.13970706,-0.11099067,0.06614994,-0.38705334,0.03353822,-0.31838697,-0.77747184,-0.47957522,-0.014010113,-0.3146724,-0.6472064,-0.052040927,-0.69523436,-0.57168,-0.09877566,0.50542253,-0.2900374,-0.42365032,-0.50767744,0.16103517,0.38956717,-0.25102422,-0.25214216,-0.33120066,-0.6728108,-0.7787139,-0.2586037,-0.5209577,-0.051299393,-0.7180834,-0.26711312,-0.7291021,-0.2225363,-0.41292268,-0.35213485,-0.3914558,0.104415804,-0.11861083,0.005281119,-0.22287521,-0.60564,-0.19392692,-0.010463152,0.1816632,-0.23254114,0.45289505,-0.034941286,-0.34036294,-0.12416709,0.21565972,-0.054722343,-0.22696403,-0.07566956,-0.12443192,-0.015882501,0.37919182,-0.05993573,0.19185454,0.041275416,0.07122549,-0.064060785,0.16526513,0.05431433,0.5573634,0.09948163,0.28351232,0.29364508,-0.12579061,-0.01922896,-0.71244764,0.15027075,0.31287518,0.059564464,0.028500484,-0.1153892,-0.1396468,-0.12784193,0.16409193,0.11568901,0.24787605,0.0077356175,-0.06315899,0.05754642,0.08597158,0.23910056,-0.068921156,-0.23885189,-0.063421294,-0.37515914,0.021674424,0.299998,-0.018335233,0.24777718,-0.40656042,0.03296784,0.05140388,-0.034854863,-0.24298923,0.6246044,0.11609101,-0.036562085,0.17330079,-0.43715578,-0.052448135,-0.027623158,-0.03942652,0.36471975,0.42839357,-0.037870858,0.06467799,0.027650667,0.11106388,-0.11661561,0.5251099,0.05151104,-0.1267949,-0.26064706,0.10728698,0.2136226,-0.08872083,-0.002540011,0.44899526,0.06402298,0.24709837,-0.02540179,0.23921809,0.10740388,-0.16453879,-0.14510687,-0.050585967,0.43491697,0.18971145,-0.17298912,-0.09479957,0.24204393,0.21124522,0.090675764,0.8097855,-0.15078372,-0.07992521,-0.1432394,-0.054363683,-0.029429952,0.06201225,0.22776265,-0.09521743,-0.043825667,0.22217016,0.1700084,0.4155173,0.23015632,0.009120836,0.59416217,-0.15264873,-0.26278263,-0.39478433,0.43194938,0.48463097,-0.5886791,-0.19475305,-0.067699365,0.07932678,0.22786126,0.16758944,-0.11537994,0.25465977,-0.2574985,-0.07130913,-0.05231215,0.19665563,0.15154767,-0.34521484,-0.25686327,-0.3178377,-0.12889549,-0.48461658,0.09285272,-0.5956711,-0.12424131,-0.11569465,-0.16253091,-0.02221728,0.06481096,0.00859831,-0.112598866,-0.2760965,0.6021683,0.12592733,0.024245916,-0.06937807,0.2652528,0.043525744,-0.335487,0.36600134,-0.20778266,0.33429414,-0.018803855,-0.17684473,0.35422993,-0.307445,0.023730421,-0.06847013,0.15266223,-0.9650153,-0.005289367,-0.21797305,-0.07608838,-0.48944142,-0.56417954,-0.27937564,-0.38687745,-0.85617197,-0.7519777,-0.08143221,0.16090412,0.14369325,0.28844872,-0.010307351,0.16892105,0.8264688,-0.29356882,-0.22356382,-0.34707785,-0.18934004,-0.03454235,-0.49267662,0.17808951,0.22449565,0.8673437,-0.3276169,-0.12625118,-0.2869974,-0.051910557,-0.1459552,-0.42109686,0.071334906,0.20965546,-0.084878266,-0.83041865,0.49889266,0.74925506,0.36830142,-0.07355576,0.36250895,-0.0065144403,-0.29099792,0.05462328,-0.30631554,0.29888391,0.24362674,-0.2687845,-0.23225072,0.3010226,-0.25370222,0.36237118,0.17567429,-0.49067426,-0.120836265,0.47973123,0.17404032,-0.065769486,-0.2655428,0.029510792,-0.08069282,0.6316193,-0.05867077,-0.16863205,0.32200482,-0.22689913,-0.76832104,-0.21954504,0.83625394,-0.41758662,-0.32319102,-0.21295479,-0.058590923,-0.09690124,-0.09485658,0.18040416,-0.5572942,0.1733193,-0.4295438,0.26445758,-0.3616534,0.22844788,-0.40438968,-0.21502434,-0.49829125,-0.6598952,0.31960195,0.07277673,-0.05134207,0.04130603,0.16472045,0.19221629,-0.06341489,-0.25681502
-0.014879569,-0.40790945,-0.4303189,0.07637982,-0.2751005,0.13318612,0.14946394,-0.20772468,0.4329123,0.11972816,-0.06883674,0.5420077,0.22544755,0.044147328,-0.26868275,-0.3431183,-0.31774145,0.030221097,-0.2037575,0.5693845,0.25681955,0.12195722,0.08789123,-0.12033236,0.29417098,-0.1033049,0.13273536,0.2072389,0.048651032,-0.11269837,-0.23986256,-0.35238448,-0.37158477,-0.28226408,0.051614262,-0.43484578,0.4040413,-0.020500733,0.0054422366,0.3268848,0.23339772,-0.30378988,0.055025585,0.31942382,0.09807691,-0.1867073,-0.36159897,0.11884779,0.009977569,-0.052285474,-0.53600293,-0.13584933,0.13891032,-0.16294411,0.003335192,0.087675415,-0.15762372,-0.05934177,-0.40782753,0.4508358,-0.262882,0.103602804,0.08473965,-0.11842679,-0.22735232,-0.1437118,-0.34262633,-0.21830748,0.11661105,0.46576387,0.029334443,0.1502932,-0.08320235,-0.47426826,0.14643328,-0.15527202,0.4005658,-0.40499455,-0.0973649,0.24394372,0.07681913,0.27003303,0.2743401,0.570541,0.05154386,-0.47807887,-0.42781913,-0.20459604,-0.1797109,-0.5252433,-0.26321277,0.2218365,-0.0003221812,0.08691786,0.20916392,0.03746455,0.05621226,-0.40707815,0.2352572,-0.12915932,0.13292865,0.08398497,0.12736033,0.40989757,-0.24175571,0.31342062,0.10855222,-0.48070768,0.03624813,-0.73568976,0.43618143,-0.27192107,-0.05481521,0.2093603,0.2867091,0.4542376,-0.13708696,-0.6039722,0.07116239,0.097007826,-0.23446952,0.19414152,-0.22590344,-0.3602003,0.27657256,0.3334685,0.10171277,-0.31800175,-0.020294718,0.124257274,0.2133611,0.17713593,-0.09290512,0.11618957,-0.44254166,0.1471471,-0.30141678,-0.021079084,-0.08091627,-0.18639025,-0.026908726,-0.13332102,-0.53345484,-0.572648,0.10074841,0.030944714,-0.4753468,-0.07940358,-0.15836334,-0.3158224,-0.24237072,-0.1429798,0.0011721876,-0.12610008,-0.3820991,0.09149419,0.05531236,-0.321059,0.27088425,0.015231491,0.06124936,0.20057105,0.016107889,0.08701564,0.050124235,-0.06979965,0.3541248,0.020479845,0.025295233,0.00925048,-0.1151415,-0.03432175,0.15147464,-0.33483553,0.24887031,-0.13146709,-0.23939005,-0.08676975,-0.3144986,-0.14534967,-0.06499739,0.1000224,-0.24921668,-0.28226024,0.12865046,0.106513806,-0.016313097,-0.52453357,-0.7025572,-0.44552982,-0.032695603,-0.029625576,-0.37900952,0.3749502,-0.15160589,-0.19918536,-0.03886288,0.03098306,-0.55152476,-0.2966288,-0.6716176,-0.42137823,-0.20178905,-0.2111569,-0.75555027,-0.115324,-0.35665333,0.15720339,-0.45186317,-0.26613465,0.18678093,0.33351246,-0.35282403,0.03445142,0.30403253,-0.4355903,-0.18040963,-0.060703088,-0.008946467,-0.22372842,0.27901432,0.05699628,-0.351694,0.20602252,0.1399345,-0.43292636,-0.017262788,-0.26518795,0.54639685,0.122622095,0.104243696,-0.08680643,0.1345212,0.3183252,-0.30653787,-0.15087669,0.28042185,0.04339054,0.12358424,-0.54485106,0.26788297,-0.34323013,0.635869,-0.47382718,-0.19798861,0.05847194,0.8263344,-0.039189532,0.07185979,0.27633896,0.19766113,-0.012459805,0.048647445,0.452332,-0.16054143,-0.22115777,0.08070817,-0.3173171,0.3181193,-0.34599242,0.010633268,-0.13021626,-0.10232236,0.11936946,0.31357598,0.032481644,-0.24221286,-0.14960407,-0.0036195358,0.28568313,0.19568521,0.08625997,-0.026664402,0.13392265,-0.25336477,0.24935485,0.053084638,0.01492021,-0.08260323,-0.32605916,0.37291914,0.41287228,-0.23950486,0.20151675,0.0644967,0.028080868,-0.19077413,-0.2994977,-0.54498863,0.046167605,0.22144164,-0.13707985,-0.073529236,0.11360871,0.12731743,0.24280263,-0.03220669,0.10911495,0.030013869,-0.011368338,-0.3811181,0.032540604,0.27217224,-0.15518121,-0.1758186,0.042589154,0.043961924,-0.16266955,0.019386023,-0.06727957,0.25175267,0.33096555,0.3827223,0.025047965,0.07950943,-0.09077075,0.06819529,0.034125876,-0.42732272,-0.020545797,-0.2666334,-0.05879578,0.4876911,-0.17011058,0.11088772,0.20027792,-0.007568272,0.11347508,-0.24011171,-0.17283215,-0.31358513,-0.08342021,-0.11490328,0.029609526,0.20725667,-0.4027957,-0.014718452,-0.2206836,-0.098271154,0.20978642,-0.08747255,0.09230837,0.21035029,0.050350066,0.25821203,0.02061569,-0.15685453,-0.07197878,-0.121814944,0.0055222646,0.035341997,-0.23071603,0.13041759,-0.1596986,-0.0077711903,-0.11993171,0.18876581,-0.41615802,0.14879422,-0.0142699815,-0.16563272,0.39492008,-0.14207213,0.27120107,0.077601194,0.053716477,0.46052402,-0.026757428,0.20542876,-0.031095026,-0.13152532,-0.1170826,0.08055821,0.14513557,-0.15449,0.2295926,0.039347153,0.41533718,-0.008276126,0.101159774,0.08025889,-0.23965186,0.34536275,0.2685125,-0.0031883807,-0.13750298,0.09446771,0.13727435,-0.10706606,-0.0025023052,0.022211919,-0.13708325,0.052528083,0.24286261,0.10447254,0.47730345,0.49099898,0.24890764,0.20742068,0.28999132,-0.004352706,-0.1850564,-0.5388496,0.11894858,-0.029120198,-0.038361453,0.020785637,0.83608913,0.5759685,-0.116527125,0.34546295,0.41512012,-0.10749637,0.023455087,0.26268458,0.27593347,-0.09542642,-0.17599642,0.15753739,0.12047042,-0.215695,0.07903057,0.46595144,0.34255895,-0.14402051,0.017983032,0.43455774,0.23810261,0.36053225,0.24368562,-0.026662225,0.12571077,-0.23823762,-0.02053225,-0.37970844,0.30353543,0.47117138,0.3349522,0.1804812,-0.30165574,0.34914914,0.26965365,-0.29836828,-0.012936096,0.21143344,0.009551355,0.065407954,0.08442697,0.019862937,0.2948296,-0.42089987,-0.37239778,0.116038725,0.36804283,-0.35169077,0.39248025,-0.17787635,-0.5802295,0.51419014,0.104438715,-0.34134015,-0.037873186,-0.08130569,0.15815713,0.055496905,0.08132956,0.16983372,0.52961427,-0.0106673185,-0.0057063173,0.23817848,0.20196514,0.020396141,-0.13469568,-0.27079028,0.44336456,-0.016217522,0.27240384,-0.2134514,0.3266054,0.16271357,-0.21542023,0.17386736,0.1952521,0.6620815,-0.13566637,0.092960425,0.40022084,-0.1270811,0.4335291,0.07495704,0.35434654,0.07974943,-0.18943429,0.53916264,0.15345772,0.07381719,0.10028082,0.6122051,0.56294346,0.0016454987,0.07177879,0.39939296,-0.12701742,-0.17928031,0.10422049,0.101295024,-0.085067995,0.00028893413,0.16486296,0.17397662,-0.08634108
-0.034805506,-0.54819196,-0.49682212,-0.069516055,-0.07469283,0.12532774,-0.12360662,-0.12431748,0.7610726,-0.28213227,-0.24319662,0.4551177,0.5187026,0.021729479,-0.38162944,-0.6443419,-0.0042104856,-0.33390334,0.29769424,0.53569007,0.18402313,-0.2577237,0.076837905,-0.22022349,0.37346825,-0.2659115,-0.32156003,0.67106116,-0.027551945,0.07406091,0.1590228,0.034439515,-0.35970113,-0.29319856,0.74738663,-0.4404608,0.10644281,-0.06059803,-0.21551812,0.59473544,0.5881951,-0.0051480774,0.050490435,0.047559757,0.14592327,-0.3199913,-0.041774765,0.2963176,0.006731082,-0.39976,-0.7185438,-0.35979807,0.39247337,-0.3435978,0.10570593,0.30365798,0.123867504,0.34036493,-0.40679878,0.39757228,-0.5896914,-0.43484145,0.4145042,-0.30934042,-0.59214413,-0.60288364,-0.168122,-0.37080562,-0.1812086,0.31117207,-0.384737,0.42091003,-0.21688175,-0.32011738,0.08083762,-0.12760776,0.39101547,-0.52456003,-0.27980247,-0.078793176,0.18995696,-0.005128911,-0.09017015,0.404483,-0.03657402,-0.23615779,-0.49261576,-0.43148607,-0.06452308,-0.6296268,-0.1505191,0.24823855,0.2419542,-0.043678205,0.13968752,0.02954299,0.011987887,-0.10366362,-0.06885537,-0.2247343,0.26675147,0.14637965,0.072469816,0.19559263,0.05049312,0.25585833,0.12283006,-0.5474484,-0.2486583,-0.19071852,0.75230217,-0.23816547,-0.09160866,0.07047182,-0.10800895,0.7434866,-0.1254098,-0.7565914,-0.21330942,0.09712288,-0.10652056,0.3060236,-0.4756321,-0.43006217,-0.09801307,0.29101667,0.6121856,-0.16675316,-0.11793005,0.071850784,0.098106965,0.035717554,0.098461956,0.7011101,0.00057733746,0.016883112,-0.1596682,-0.3084503,-0.36674508,-0.32917422,-0.32678318,0.26398262,-0.7219344,-0.86658674,-0.14319977,0.26048,-0.47751042,-0.1751632,0.021110322,-0.33536604,-0.47509465,-0.129649,0.1773114,-0.4217188,-0.27161074,0.12833515,-0.27077526,-0.5612945,0.1163751,-0.0030431612,-0.26130375,0.60431916,-0.19463636,-0.17147882,0.0023421277,-0.20100228,0.06418391,-0.13688801,0.09941757,0.2539346,-0.36625883,0.65788984,-0.066603504,-0.36266187,0.099874124,-0.3473015,-0.06310155,-0.3035357,-0.2597402,-0.33182687,-0.33964086,0.050719634,0.32751575,-0.12877814,-0.08164791,-0.47051758,-0.27960423,-0.6914015,-1.2042103,-0.5386578,-0.03793999,-0.14214727,-0.715632,0.68756664,-0.294993,-0.14337297,-0.45976093,0.4197452,-0.61430305,-0.43718314,-0.58730435,-0.03625388,-0.5493686,-0.14259133,-0.41607648,-0.32650784,-0.31013563,0.33433577,-0.23623222,-0.3207492,-0.008185949,-0.036856733,0.14028127,-0.0026105558,0.24326263,-0.715341,-0.36389935,-0.13233383,-0.03868475,-0.53647256,-0.32888216,-0.26913694,-0.23984809,-0.11380766,0.03633106,-0.13477838,-0.064788595,0.21098277,0.70425504,0.15892926,-0.009433731,-0.18547362,0.2328473,0.09097728,-0.7802817,-0.7049309,0.24976286,0.0018377217,0.14414191,-0.39532694,0.48585537,-0.17617807,0.573169,-0.27751705,-0.058162034,-0.12290001,0.87592614,-0.02773952,-0.026809549,0.10077603,0.015209224,-0.47550508,0.18040335,0.36710697,0.07641413,0.07070568,0.078255825,-0.53048486,0.30790854,-0.44839078,-0.43203026,-0.17805624,-0.38244656,0.043022327,0.48733583,-0.12819019,-0.38883597,-0.12136707,0.143147,0.5417647,0.5517942,0.18236221,-0.33363983,-0.23071937,-0.27687842,0.5007433,0.092545606,-0.034979727,-0.08768377,-0.14999641,0.45462263,0.2591028,0.19914776,0.2930961,0.23536299,-0.010595374,-0.501678,0.06693905,-0.3371267,-0.028963573,0.2749711,-0.26113683,0.039763603,-0.15614027,0.13625512,0.40527874,-0.04729691,0.5288756,0.39807865,-0.14466481,-0.47249788,0.10813129,0.29251248,0.049475785,-0.4312047,-0.031043045,-0.1871886,-0.111956954,0.21088417,0.1957942,0.0059231753,-0.039968174,0.5039646,-0.12814377,-0.3786751,-0.20686306,0.41604605,-0.12503245,-0.6059407,-0.0018269572,0.1131394,-0.13270326,0.45936576,-0.6216789,-0.29989702,0.2873295,0.057052013,-0.1354365,0.25676006,-0.61705506,-0.08744073,-0.03423737,0.036692537,0.25374776,0.10730566,0.01352916,0.13211033,-0.23786314,-0.07573913,0.36018553,-0.13231902,-0.05227496,0.54469526,0.12976997,0.44040918,-0.04795166,0.22237626,-0.22939046,-0.34324032,0.11506294,0.4587773,-0.13542028,-0.05603817,-0.14769945,-0.041582573,-0.06418582,-0.07353899,-0.32431272,0.15317057,0.05775778,0.30403322,0.4863665,-0.26926714,0.102001116,0.13527392,0.3331041,0.56479514,0.051766567,0.22686997,0.2177116,0.17669852,-0.22947785,0.19582099,-0.18790232,-0.13705036,0.020171983,0.023096617,0.4694556,-0.06530981,-0.038204134,0.016511993,-0.30052647,0.50247264,0.48775646,0.059213884,-0.32235914,0.027168216,0.31663412,0.006187545,0.3571747,-0.2960225,-0.21665959,0.4097148,0.12946552,-0.052441288,0.38003042,0.2639571,-0.079785906,0.008349474,0.1532462,-0.008558363,-0.38725412,-0.43982416,0.094237365,0.014751146,-0.5972061,-0.15286036,0.1889493,-0.03157574,-0.371095,0.08282986,0.14997154,-0.48536298,-0.10197857,0.30604884,0.15467271,-0.4313676,0.074325055,-0.5209939,-0.1360486,-0.16108824,0.0188904,-0.003635172,0.5755196,0.019546902,-0.025469035,-0.2246585,0.59099287,-0.0391597,0.2589449,-0.23687106,-0.12088821,-0.13458045,0.14325327,-0.120867334,0.146551,0.3651696,-0.0043030893,0.028380597,-0.49376753,-0.115601525,-0.11259997,-0.22909895,-0.19598103,0.27033773,-0.24281259,0.12178287,-0.3625155,-0.09971573,0.216359,-0.35340714,-0.47022185,-0.118884705,0.44901827,-0.030166091,0.057525583,0.114791594,0.06636035,-0.23080371,0.054563012,-0.57493484,0.080327,-0.15403037,-0.025393477,0.39268225,-0.15389739,0.04386681,0.32993537,0.5532562,0.05145921,0.1640976,-0.18757425,-0.32119587,0.1554928,-0.28771767,0.29235142,-0.32817993,-0.18852684,-0.43488532,0.17156368,-0.060215067,-0.06609277,-0.09069044,0.046564996,0.8660064,-0.047714077,-0.3103043,0.020126734,-0.106406435,0.38717866,0.17574422,0.26338163,-0.12984979,-0.29838625,0.15891218,-0.10205627,0.25435686,0.16128127,0.41085762,0.4736938,-0.14831525,-0.3285485,0.28264198,-0.2916252,-0.46206835,0.06110739,-0.22649653,-0.52621007,-0.12721546,-0.08731431,0.34230548,-0.21787378
0.14278246,0.47304562,0.045317333,0.06663472,0.08926799,0.38292602,0.66902626,0.40378618,0.810186,0.09423667,0.143113,0.24290715,0.86477757,0.6155008,0.31717914,0.007168371,0.26575506,0.1175775,0.21739906,0.7312532,0.11635175,0.033080798,0.37777865,0.23716821,0.20870864,0.2928552,-0.13778512,-0.16692036,0.10221221,-0.13673693,0.3352666,-0.06602163,0.10143574,-0.35551852,0.7450139,-0.21156332,0.2852973,0.020579139,0.011471899,0.5597969,0.05652521,0.083384216,0.49513856,-0.025216779,0.19321434,0.009901299,0.045682248,0.71939915,0.12869509,-0.13987745,0.20904495,0.16405685,0.63147897,-0.018245228,0.0701791,0.44426572,0.18422793,0.10674862,0.1653287,0.40872857,-0.21027043,0.094501466,0.36114353,-0.0065450086,0.21689636,0.38876384,0.18991016,0.10662496,0.1324695,0.101382256,0.10483128,0.41827986,0.2755589,0.15954088,0.116719216,0.32026652,0.45906636,-0.19852597,0.49768338,0.34948912,0.45574024,0.26538283,0.09209754,0.3741927,0.13055207,0.4454293,0.36685956,-0.217306,0.404777,0.08289036,0.12868093,0.20377496,0.43302128,0.06368244,0.054712955,0.2926864,0.096884854,0.022225533,0.3995593,-0.27587524,0.5846895,0.34895268,0.44262797,0.20523022,0.08418512,0.42316598,0.6325766,0.18715647,0.19606705,0.07319979,0.47106698,-0.015158842,0.19256037,0.35407677,0.25757325,0.4783716,-0.033205505,-0.17045936,0.087376356,-0.09709288,0.23638965,0.4520636,-0.15131192,0.045216076,0.060525186,0.21822071,0.37366796,0.4234694,0.059832025,0.24605945,-0.46676257,-0.16462816,-0.3152264,-0.3425921,-0.51511633,0.006904267,-0.0925434,-0.8199423,0.3207602,-0.18453324,-0.44420213,-0.2269296,-0.74809295,-0.9989951,0.32402647,-0.05151083,-0.102708854,-0.3020466,0.07578388,-0.20720941,0.3667718,-0.28745404,-0.011544063,-0.47786173,-0.53998554,0.26654258,-0.29959202,-0.5995394,-0.064135075,-0.26373446,-0.36184785,-0.2613198,-0.24076413,-0.0048821755,0.09459396,-0.4487779,-0.4758482,-0.08062819,-0.17390835,-0.13936047,-0.25488636,-0.14886434,-0.59991866,-0.07974274,0.02847016,-0.8545865,-0.38544434,-0.009315686,0.06010123,-0.23732606,-0.44228795,-0.31985924,0.17865019,-0.59946,-0.44965303,0.057052065,-0.010530313,-0.5136894,-0.94729674,-0.7658778,-0.49942082,-0.014494688,-0.85675395,-0.0066296337,-0.43196118,-0.06998106,-0.72814643,-0.17811312,-0.42876664,-0.2899206,-0.57218856,-0.41707033,-0.39258316,-0.23975565,0.45186284,-0.17064402,-0.37616196,-0.24481323,-0.58332,-0.63800293,-0.3338302,-0.10210499,-0.22378772,0.12364702,-0.17168409,-0.4394871,-0.38336423,0.14688253,-0.40606365,-0.12947953,0.09262701,-0.112608746,-0.22569272,-0.14901459,0.098364525,-0.030637888,0.016335683,-0.41248393,-0.106678315,-0.1658872,-0.26413792,-0.387026,-0.6004404,-0.27395907,-0.6550266,-0.68154657,0.45322,-0.4845579,0.28083387,-0.19089426,-0.53313494,-0.5319639,0.3923571,0.024812844,-0.052759666,-0.3758115,0.7148566,-0.056138456,0.038585503,-0.035896905,-0.19561017,-0.51617795,-0.14744295,0.035393268,-0.9077363,-0.511859,-0.10573007,0.27765873,-0.024728123,0.21985173,0.09803796,-0.10178513,0.4443399,-0.27294394,0.24632078,0.13978663,-0.058420036,-0.3226229,0.024464292,0.10252985,-0.06740118,-0.088755175,-0.16893378,-0.07386499,0.24356931,0.16386169,0.2153201,-0.074519224,0.16044818,-0.02592519,0.24778625,-0.196635,-0.21171531,0.23232304,0.02969046,0.09484139,-0.028131163,0.06598718,0.061017346,0.04088009,0.1605237,-0.12883675,0.037460733,0.11003213,-0.06471555,0.20784073,0.1415732,-0.09111506,0.41743216,-0.24513413,0.42744014,-0.022868177,0.011552548,-0.04230647,0.013138248,-0.068115756,0.2578348,-0.1736448,-0.119030535,-0.2513772,-0.07720495,0.22387266,0.04046847,0.028973043,-0.06115199,0.25211626,-0.2786799,0.12997931,0.09343239,-0.26019117,-0.31633654,-0.18500409,0.10849152,0.13035078,-0.12182583,-0.049002778,0.12371352,0.5162683,-0.15088886,-0.02278359,-0.15740618,0.037205327,0.09483041,-0.22206913,-0.06866893,-0.40778112,0.20608911,-0.22059858,0.029009677,0.02418414,0.36761004,0.02691638,-0.18342884,-0.10760368,-0.06216795,0.0065171625,-0.19347042,-0.16664918,0.36101952,-0.18855835,0.15424077,-0.06276388,-0.00803967,0.2679499,-0.31763425,-0.07709273,-0.5921811,0.014865483,-0.12637241,0.04635288,-0.09437874,-0.050839107,-0.18888451,-0.10547108,-0.036745466,0.061812613,0.054556657,0.12457734,-0.37804142,0.40456,0.011346065,-0.3828943,0.1986196,0.32528213,0.15594901,-0.26613447,0.39292827,0.03786721,0.244431,-0.22721367,-0.040148612,0.44040793,0.15227053,-0.25692138,-0.02886267,-0.14382078,-0.047888122,-0.09892068,-0.24164231,-0.19330636,0.20638826,-0.05928376,0.017698985,-0.03066971,0.21218754,0.19037892,0.15288976,-0.3311698,0.18259309,0.057903547,0.2037514,-0.118408546,-0.35292813,0.59696525,-0.22639568,-0.15991947,0.11254462,0.31998643,0.10945316,-0.28482524,0.06504431,-0.15556073,-0.11170331,0.16380312,0.57885146,-0.34201196,-0.19784884,-0.56931895,0.11285701,-0.020768976,-0.02746823,-0.22738782,-0.055993762,0.5500523,-0.08538137,-0.42062125,0.0630785,0.03684769,0.13550295,0.14848435,-0.15008819,-0.12844686,-0.322919,0.26835263,0.14425455,0.16800374,0.27680406,0.053041674,-0.24467163,-0.12981448,0.09755069,0.014936619,0.042040307,0.04397671,0.4928108,0.07440348,-0.17084126,-0.20498545,0.205057,0.15025802,-0.43091476,-0.14334905,-0.101966254,-0.18429072,0.25097933,0.6038777,0.26708573,-0.1290677,-0.18896146,0.04531249,0.26188424,-0.06208235,0.0074023763,-0.022383822,0.25445125,-0.08997837,-0.1487808,0.17709781,-0.38356358,0.118537545,-0.05374826,-0.07169009,0.14169535,-0.08494096,-0.029477986,-0.08058216,-0.17705931,0.20139813,-0.2772492,0.1318409,-0.025268037,-0.2628191,-0.16337302,-0.11853103,0.11432531,-0.63078636,-0.013879958,0.05303673,-0.382156,-0.32250372,0.32626238,0.05432245,0.1705952,-0.13378009,0.5125028,-0.03045855,-0.04935567,-0.1767191,0.51898676,0.57165456,-0.12583703,-0.17530242,0.078800604,0.015866516,0.004651031,0.026239352,0.16387558,-0.115923956,0.096010156,-0.42342955,-0.5652112,-0.1745522
