0,1,2,3,4,5,6,7,8,9,10,11,12,13,14,15,16,17,18,19,20,21,22,23,24,25,26,27,28,29,30,31,32,33,34,35,36,37,38,39,40,41,42,43,44,45,46,47,48,49,50,51,52,53,54,55,56,57,58,59,60,61,62,63,64,65,66,67,68,69,70,71,72,73,74,75,76,77,78,79,80,81,82,83,84,85,86,87,88,89,90,91,92,93,94,95,96,97,98,99,100,101,102,103,104,105,106,107,108,109,110,111,112,113,114,115,116,117,118,119,120,121,122,123,124,125,126,127,128,129,130,131,132,133,134,135,136,137,138,139,140,141,142,143,144,145,146,147,148,149,150,151,152,153,154,155,156,157,158,159,160,161,162,163,164,165,166,167,168,169,170,171,172,173,174,175,176,177,178,179,180,181,182,183,184,185,186,187,188,189,190,191,192,193,194,195,196,197,198,199,200,201,202,203,204,205,206,207,208,209,210,211,212,213,214,215,216,217,218,219,220,221,222,223,224,225,226,227,228,229,230,231,232,233,234,235,236,237,238,239,240,241,242,243,244,245,246,247,248,249,250,251,252,253,254,255,256,257,258,259,260,261,262,263,264,265,266,267,268,269,270,271,272,273,274,275,276,277,278,279,280,281,282,283,284,285,286,287,288,289,290,291,292,293,294,295,296,297,298,299,300,301,302,303,304,305,306,307,308,309,310,311,312,313,314,315,316,317,318,319,320,321,322,323,324,325,326,327,328,329,330,331,332,333,334,335,336,337,338,339,340,341,342,343,344,345,346,347,348,349,350,351,352,353,354,355,356,357,358,359,360,361,362,363,364,365,366,367,368,369,370,371,372,373,374,375,376,377,378,379,380,381,382,383,384,385,386,387,388,389,390,391,392,393,394,395,396,397,398,399,400,401,402,403,404,405,406,407,408,409,410,411,412,413,414,415,416,417,418,419,420,421,422,423,424,425,426,427,428,429,430,431,432,433,434,435,436,437,438,439,440,441,442,443,444,445,446,447,448,449,450,451,452,453,454,455,456,457,458,459,460,461,462,463,464,465,466,467,468,469,470,471,472,473,474,475,476,477,478,479,480,481,482,483,484,485,486,487,488,489,490,491,492,493,494,495,496,497,498,499,500,501,502,503,504,505,506,507,508,509,510,511
0.06336133,-0.46072093,0.63408697,-0.37757105,0.20337674,-0.2438574,-0.038177617,0.16302311,-0.023721956,-0.11236007,-0.3577521,-0.09600112,-0.043852307,0.12766339,-0.08674935,0.23750919,0.0836965,-0.08269633,-0.20702945,0.020754885,-0.25791177,-0.09889525,-0.025279472,-0.27333558,-0.032030072,-0.016867286,0.28306237,0.3382965,0.08774503,0.0216955,0.18362314,0.061246365,-0.01251009,-0.19998303,-0.09335376,-0.42385283,0.061622176,0.05404095,-0.19045855,-0.09781831,-0.21993394,-0.19607642,0.06537446,-0.18137008,0.027240131,-0.20365253,-0.039950486,-0.1316427,0.23863333,0.25889453,-0.29476193,-0.097116716,-0.2716533,-0.19218937,0.024352541,0.1660696,-0.2844448,-0.15480079,-0.3616764,-0.10530484,0.09606626,0.093404375,-0.30784208,-0.17518882,-0.17883766,-0.31236726,-0.28310806,-0.017486319,-0.012663928,-0.18798797,-0.0622755,0.4494323,-0.046676114,-0.0029021343,-0.48296496,0.27008,0.10850307,0.19334331,0.010394647,0.021794474,0.14970347,0.03150734,0.22809349,0.27066112,0.284427,0.2087656,-0.14958407,0.049027614,-0.2115133,-0.102556236,-0.016029181,0.032141566,-0.05678298,-0.3461735,-0.15958245,-0.011723053,0.22799036,0.1218348,-0.2030807,-0.12329045,0.38011837,0.20373902,-0.12334075,-0.31464335,0.33368874,0.0016068161,-0.5756608,-0.036175042,-0.1826764,-0.050139703,-0.10084176,-0.37313375,0.0032712552,0.15687503,-0.40049067,0.09444343,-0.35874653,0.22302192,0.06419293,-0.26859188,0.028418833,0.023807326,0.0994742,-0.19491942,0.16480942,-0.25825763,0.2526313,0.17506266,0.04511946,-0.2443912,0.261663,-0.23088801,0.46725383,-0.31586844,0.12531167,0.06035525,-0.17838973,-0.039986588,-0.10567831,0.0012287213,0.32195994,0.14634947,0.22643209,-0.06140337,0.014011853,-0.3602085,-0.08030369,0.0020167457,0.0055002156,0.0021409427,-0.31554055,-0.40371805,0.006566271,0.07275453,-0.23739241,-0.05508656,-0.17401238,0.5128587,-0.039849043,0.11326155,0.0084156105,-0.043669507,0.083129905,-0.053809006,0.06645237,-0.18121369,0.07878413,0.09807659,-0.26379213,0.07521813,0.13517156,0.14824386,0.047495134,0.061573368,0.08453041,-0.05054109,0.24237718,0.19325668,-0.03186392,0.1725764,-0.056568738,-0.08660525,-0.22955367,-0.26619568,-0.1734047,-0.13397595,0.08480928,-0.16758047,0.034426212,-0.053598326,-0.07184189,0.23942733,0.13202122,-0.16306563,0.29349932,0.0986588,-0.09465451,0.0637846,-0.10818169,-0.17020328,0.08557488,-0.039034855,0.0022647907,0.18224493,-0.03240937,0.35330147,-0.09031712,0.3634627,0.22996719,-0.053040512,0.25176385,0.22563225,-0.090663165,-0.006292969,-0.19343716,0.09274863,0.0041589034,0.06346326,0.08312241,-0.04274049,-0.35007614,-0.18103671,-0.13364485,-0.008129741,0.24161221,-0.21803088,0.029568674,0.22554672,0.199696,0.28053686,-0.0026491226,-0.00968528,0.070702486,0.075853035,0.1559531,-0.33165532,0.05813564,-0.20836653,0.09590611,0.10489039,-0.13277397,0.006101465,-0.18885837,-0.089269415,0.29386017,0.16998959,0.13986109,0.024624076,0.13620998,-0.0065146904,0.06546002,0.11295863,-0.11364574,-0.07434983,0.26594827,-0.20279662,-0.50901234,-0.62485087,0.31057122,-0.021448696,0.24425541,-0.28120604,-0.09667815,-0.06385034,0.037455257,0.03721939,-0.16529597,-0.09776789,-0.21521261,0.08473467,0.09574093,0.086444765,0.00033522755,-0.21407646,0.11109639,-0.031511992,-0.08480318,-0.18585673,0.20706081,-0.027465487,0.04227917,0.06985761,-0.03646793,-0.29000506,0.038545478,-0.06986484,-0.17679566,-0.049407948,-0.12606725,-0.20096809,0.07766078,-0.006761658,0.053483486,-0.070232,0.3106731,-0.032174915,-0.04695911,0.27183428,-0.15545468,-0.053337704,-0.30108714,0.07928854,0.29567105,-0.10857,0.18978845,-0.114662,0.088383384,-0.13253656,0.00920323,0.15049753,-0.07932198,-0.15433633,-0.31005117,-0.033705257,-0.38103792,-0.22499192,0.072094694,-0.015167587,-0.07157121,0.0519847,0.23561096,-0.06415544,0.21852167,-0.19891757,-0.014142413,-0.08266687,0.04294185,-0.28018942,0.1498166,0.15798137,0.017673,0.23474139,-0.09565069,0.29413718,-0.019405112,-0.12513155,-0.013711527,-0.0058883517,-0.035043728,0.3990901,-0.13079715,0.0522828,0.25757122,-0.056990206,0.12406032,-0.01931408,-0.10857992,0.043701626,-0.27579126,0.31880453,0.08006539,-0.14229378,-0.024397517,-0.16549109,-0.12024732,-0.1754729,-0.0018838833,-0.019815102,0.037040606,0.18412396,-0.15042356,-0.07739242,0.10316158,0.049553506,-0.17264329,-0.068737276,0.0869165,0.040780082,0.1867183,0.061449226,0.3547235,-0.040186338,0.021353249,-0.110291466,0.005718284,0.17555931,-0.11545511,0.118458204,0.020903204,-0.1388693,-0.019243667,0.11073192,-0.05664589,0.117611915,-0.003989202,-0.18237375,-0.014000012,-0.40041628,0.28865156,-0.020281252,0.06202446,0.023156317,-0.2881897,-0.119856164,-0.08067269,-0.22698247,-0.037678797,-0.13716526,0.21442558,0.10654959,0.013100386,-0.0073216595,0.002305765,-0.17796442,0.15070018,-0.17081606,-0.29023635,-0.15617909,-0.24015252,0.13987088,-0.10507467,-0.39056274,-0.19248827,0.15585807,0.14402962,-0.003247949,0.00033873093,0.0063582435,-0.29666144,-0.0074443803,0.060585912,-0.14750573,0.006296141,-0.16160774,-0.12647033,0.10969987,-0.16310002,-0.06715687,0.08886195,0.092889406,-0.051516227,0.16699518,0.23429488,0.13106006,0.10005523,-0.26150304,0.09827078,-0.03133179,-0.23037986,-0.12536536,0.0623336,-0.16316108,-0.40499142,-0.100477524,0.051038712,0.3253147,0.21635853,0.01842848,0.054739658,-0.101456545,-0.06684006,0.05482342,0.046573203,-0.0723882,0.23720361,0.112054475,-0.00064834615,0.28160614,-0.34238204,0.05524649,0.14629842,0.2504024,-0.022979498,0.105918966,0.25218326,-0.18569076,0.013475505,-0.2715217,0.36159742,-0.0066849696,-0.05646402,0.04660514,0.067702554,0.0010211654,0.07999159,-0.07465073,0.013195714,-0.095548086,-0.18737532,0.01993583,0.3880204,0.07416909,-0.08480607,-0.050461672,-0.15576322,-0.23592877,-0.08978233,0.023677384,0.17336008,-0.16977212,0.030739402,-0.14933626,-0.1403386,0.066906996,-0.29829115,0.07989853,-0.12289877,0.029897192,-0.20472391,-0.24885164,0.09844556,0.14219266,0.014517217,0.0070885005,0.0036047236,-0.008666464,0.054954667,-0.11859585,-0.10688669,0.030527143,0.046993863,0.0053737503
-0.6708757,-0.10776897,-0.5629528,-0.17913002,-0.29583147,-0.15357028,-0.039584283,-0.28911996,-0.40148854,-0.31324577,-0.23374075,-0.24578743,-0.35331577,-0.17692375,-0.25307816,-0.1814667,-0.34655157,-0.78610605,-0.43564832,-0.5493509,-0.18835741,-0.13288598,-0.18994418,-0.37544915,-0.49398574,0.09702868,-0.45514274,-1.1252321,-0.46402076,-0.49503887,-0.12183253,-0.47931993,0.14700559,-0.6219649,0.0073210946,-0.1407624,-0.20468351,-0.5133315,-0.7856008,-0.2554029,0.037079345,-0.3387013,0.13160977,-0.574371,-0.5022765,-0.7673657,-0.18211427,-0.12664925,-0.31874454,-0.086554594,-0.22164801,-0.41031638,-0.30492395,-0.2855659,-0.26288563,-0.3129982,-0.1572065,-0.2849544,-0.17082554,-0.06396798,-0.018986735,-0.33054906,-0.31337276,-0.16979147,-0.53209275,-0.43131772,-0.1824195,-0.4062412,-0.3487878,-0.53555363,-0.56807613,-0.7052349,-0.515395,-0.33957335,-0.18333253,0.09894916,0.10532439,-0.65845203,-0.4830431,-0.79167837,-0.37472934,-0.84690964,-0.3228644,-1.1756424,-0.6707789,-0.23582509,-0.25646588,-0.32859614,-0.5445642,-0.2532482,-0.52014273,0.05703723,-0.20027055,-0.1901491,-0.09832567,-0.64468694,-0.09624799,-0.64325416,-0.33546078,-0.14959389,-0.6250159,-0.44899377,-0.85482764,-0.049589332,0.017924337,-0.37104037,-0.68100125,-0.24386215,-0.76483566,-0.3352287,-0.82197905,-0.3403689,-0.3801469,-0.5815995,-0.2593953,-0.52097553,-0.31072345,-0.48422983,-0.48702577,-0.35308746,-0.23590606,-0.35611856,-0.3281497,-0.08222309,-0.3348166,-0.45774472,-0.027151417,-0.028362842,-0.357453,-0.04839523,-0.022055943,-0.08903069,-0.34634027,-0.28560016,0.124640845,-0.23412213,0.13772462,0.06390411,0.008995516,-0.18573503,0.019348988,-0.22234412,0.19553654,-0.08247289,0.32600206,-0.5023517,0.2554124,0.30555716,-0.4800078,-0.3604042,-0.005656501,0.17506848,0.4748302,0.23482943,0.6365537,0.1648259,0.058138803,-0.40203717,0.06623346,-0.2024858,0.38968682,-0.30771416,0.07012797,0.5736093,0.121989995,-0.270221,-0.546639,0.3010599,0.5623558,0.006101172,0.33925816,-0.20924848,0.0070675937,0.0140710585,-0.14516734,0.16915679,-0.092099,0.27272198,-0.49624008,0.21600129,0.035767674,0.32545012,-0.0025895531,0.111056775,0.08528326,0.16205679,-0.013816987,0.18140683,0.2196664,0.095524095,-0.15896301,-0.5624334,-0.028215183,-0.02590914,-0.3413638,-0.14083654,-0.17712702,-0.5304653,0.12114168,0.120948814,-0.2743764,0.07603838,1.0959395,0.43614686,0.24318042,0.15014507,0.19594659,-0.30835286,0.19251625,-0.24747294,0.09200226,0.14206035,-0.26945347,0.06398475,0.15583777,0.28656197,0.15038678,0.2515233,0.042273458,-0.04023969,-0.2923545,0.21958657,-0.1573055,0.014784346,-0.043697357,0.034881666,0.060836527,0.03120184,-0.3896093,0.029375333,0.3148539,-0.034853417,0.06858348,0.45435402,-0.06914081,0.39757106,-0.28653064,0.07333874,0.051682252,0.07984309,0.21073757,0.114066266,-0.19750965,-0.11188729,0.015861942,0.40862578,-0.31316617,-0.3591306,-0.2043052,0.14365932,0.40686992,0.30426136,0.05319382,-0.39452088,0.07464566,0.22250955,-0.0015718649,-0.07124276,0.040469736,-0.08598661,-0.08543716,0.039523236,-0.26089165,-0.0442491,-0.21176861,-0.52335846,0.23550569,0.27653533,-0.2607578,-0.1334558,0.25799078,-0.22686878,-0.1306046,-0.32276723,-0.24240837,-0.3767138,-0.12562639,0.03794176,0.039470367,0.054605134,-0.19904213,0.07029494,0.07688106,-0.35480204,0.16727324,-0.37043574,-0.04294691,-0.08955508,0.028660098,-0.07881262,0.049914468,0.17396155,-0.16292663,-0.51588166,-0.22040784,-0.2911611,0.054136038,0.17313035,-0.19174007,0.17393655,-0.3216113,-0.2268774,0.3791335,0.3806674,-0.017288819,-0.19387053,-0.10413282,0.08067975,0.01645168,0.42205742,0.032212947,-0.24686961,-0.074043855,0.0012197172,0.029931199,-0.31934237,0.020438572,0.008553575,-0.087381646,-0.13200012,0.00087749533,-0.31349358,-0.342901,-0.16751395,-0.17285159,0.023779651,0.0026491422,-0.22381535,0.08030852,0.073070616,0.035372455,0.524623,-0.2542094,-0.102333,-0.2248931,0.21465094,-0.27980027,0.02886272,-0.20561762,-0.3096592,0.016611433,-0.09202716,0.53719926,-0.020428129,0.08234473,-0.08050252,-0.08500625,0.24229617,-0.28090313,0.09197533,-0.06600281,0.13420296,-0.28590992,0.19925384,0.35890684,0.027905708,-0.05643742,-0.02808805,0.18897009,-0.046415243,-0.02851733,-0.30136418,0.12751576,-0.22041997,-0.105609745,0.060749214,-0.11546634,0.08757507,0.5237585,-0.22126035,-0.18372414,0.111608215,-0.21598822,0.0339013,0.44310525,0.21819983,-0.023849234,0.00032926924,-0.22402906,0.25505683,0.048811026,-0.066690706,-0.12739085,0.11530418,-0.69855684,0.22516182,0.011893023,-0.2718669,-0.18349737,-0.4376492,-0.11639032,-0.13300513,-0.28124142,-0.35497954,-0.04493765,-0.050438005,-0.17040291,-0.10128439,-0.27103725,-0.28437704,0.15375729,-0.8619861,-0.5909188,-0.084437974,-0.49078843,-0.23533928,0.09941553,-0.11498635,-0.16135411,0.20514601,0.08343785,-0.3476438,0.1944121,-0.30227196,-0.43620944,-0.640681,0.24696875,-0.56719387,-0.5774742,0.098018534,-0.05915016,-0.66109806,-0.61626565,-0.3479264,-0.09042614,-0.2707698,-0.026396452,-0.5622576,-0.47642112,-0.1844083,-0.52188367,-0.1539093,-0.19657773,-0.03962002,-0.85407263,0.042939655,0.19551861,-0.07227591,0.1277056,-0.3369231,-0.19955225,-0.03183573,-0.29499143,-0.31815666,-0.23842421,-0.34501243,-0.34924886,-0.36998808,-0.036866125,-0.35300887,-0.48237562,-0.49831834,-0.2163679,-0.75708765,-0.13772096,-0.1372848,-0.50080276,-0.3969205,0.19562793,-0.13798855,-0.42454553,0.0430951,-0.3867275,-0.69974995,-0.051016368,-0.5105617,-0.11802497,-0.38009822,-0.66028357,0.33163184,-0.20477599,0.12202712,-0.09288421,0.14175406,-0.049162276,-0.30109945,-0.13962787,-0.14614299,-0.4241443,-0.6124975,0.122556806,0.04755744,-0.3339407,-0.110806376,-0.54838985,-0.24794811,-0.12648536,-0.18002144,-0.04359269,-0.17906862,-0.20965888,-0.10500698,-0.84607226,-0.35381785,-0.507994,0.049466755,-0.41179433,-0.67323345,-0.53492665,-0.0074906754,0.2325673,0.10205327,-0.6756343,-0.35179862,-0.10615131,-0.30241725,-0.13350415,-0.17752743,-0.20677802,-0.20745793,-0.2583037,0.0928655
-0.09457058,0.20244342,0.10853049,0.020678902,-0.18884146,-0.34437054,-0.18475631,0.22107698,0.097595945,-0.39404783,0.049600463,-0.3192088,-0.35127267,-0.17599607,-0.17194107,-0.17535175,-0.55839133,-0.11375659,-0.13527621,-0.4029755,0.010586563,0.3363491,-0.21285388,0.31537363,0.30984336,0.62884134,-0.043028988,-0.2573729,0.07356074,-0.6227525,-0.037486453,-0.54812837,0.23491415,-0.13806014,0.46096674,0.026011476,0.14273272,-0.16898279,-0.49127397,-0.4411916,0.22262643,0.20555942,0.06580936,-0.14462842,0.2696047,-0.7929106,-0.42046952,0.28301477,-0.31139642,-0.8136383,-0.087270655,-0.8037572,0.27328885,0.008586092,-0.6134764,0.011010339,0.4065954,-0.43033034,-0.3164712,-0.03950874,-0.13659202,-0.24871883,0.16783068,-0.08522012,0.054492407,0.29501134,0.035003927,-0.15905848,-0.8726792,0.110627554,-0.27178726,0.13382608,-0.15107529,0.07932832,-0.2619636,-0.2093173,0.18415482,-0.28957972,-0.15936396,0.012781161,-0.2368571,-0.17516732,-0.96362036,-0.33589587,-0.5134735,-0.7471516,-0.057399966,-0.6890076,-0.059586924,-0.5938261,-0.75751704,-0.21458836,-0.20348449,0.2334997,-0.24691696,-0.055559725,0.08007305,-0.51691747,-0.25430742,-0.025603557,0.1781074,0.028445777,-0.13330859,0.15328923,0.41766486,-0.27098638,-0.22991286,-0.39624104,0.02000986,-0.10063848,0.12454827,-0.6635236,-0.23823102,-0.1698437,0.2454242,-0.3581354,-0.20009857,-0.32597506,-0.048061416,-0.21981002,0.13066882,0.14291623,0.22751668,0.25919795,-0.14724484,0.024502495,0.024040055,0.22149609,0.13717198,0.19795957,-0.38556054,-0.32643577,-0.060814504,0.01608945,-0.4178175,-0.20286609,0.06599422,-0.63825667,-0.22589158,-0.16497526,-0.06388857,-0.5206928,-0.13006376,-0.03756277,-0.10083906,0.06967026,0.11199146,0.40731928,0.065771654,0.04954897,-0.044511613,-0.32566383,0.5552809,0.15410765,0.924188,0.036349725,0.38132465,-0.6730441,0.30623415,-0.46652827,0.2622961,-0.28211668,-0.3263554,-0.057582304,0.2870028,-0.13311651,-0.006613987,0.025723653,0.07331797,0.16528082,-0.037405368,-0.1898475,-0.015336058,-0.7701611,-0.45838365,-0.001659627,-0.28156418,-0.5088862,0.075992614,-0.6085071,-0.14475024,-0.005241855,0.39290628,0.25828046,-0.1757076,0.13807468,-0.16033413,0.5916911,-0.33009228,-0.067968376,0.40591165,-0.5000021,-0.29260507,-0.19198306,0.10605373,0.120966434,-0.5483636,0.20322217,0.008822243,0.45525402,-0.19202936,0.066013284,0.4488124,-0.041548472,0.3380132,-0.44004074,0.14673789,-0.086497776,0.17256455,-0.39621624,-0.3193766,0.3439525,-0.0071062734,-0.4094093,0.29640222,-0.40503326,0.13223657,-0.3577017,0.14830136,0.11398658,-0.08927401,0.19862795,-0.033692468,0.28435645,0.34733635,0.2267298,0.041069828,0.07246591,0.018495519,-0.090547085,-0.20964715,-0.06378129,0.23912911,0.0016527519,-0.2535735,-0.28036562,0.16729088,0.109030604,0.09720161,-0.43257517,-0.28088528,0.028615935,-0.094877794,0.043233655,-0.24579167,-0.13355726,-0.08061226,0.069840185,-0.047109332,0.48072746,-0.058895655,0.39969057,0.3120704,-0.07174678,-0.19967471,0.32123068,-0.059859455,-0.09569652,-0.016654197,0.07163877,-0.020729773,-0.081265904,-0.23658702,-0.107725814,0.047063164,-0.107080474,-0.06943976,0.113759436,0.04033014,-0.13253221,0.041015103,0.2470955,0.29222885,-0.24065576,0.06697139,-0.20489085,-0.2254967,0.13782777,0.033994712,-0.08402522,0.12746866,0.14909877,0.07455895,-0.13586397,-0.03552677,0.15600285,0.09065525,-0.08051923,-0.0153886685,-0.19390592,0.02912614,-0.09200207,0.045243945,-0.050958794,-0.0057466533,0.059598353,-0.026554707,0.038825016,0.165377,0.1406078,0.011310445,0.14871703,0.19441047,0.31145296,0.12016546,-0.23728675,-0.0075156004,-0.069841795,0.12550762,-0.15590376,-0.03862177,-0.13364689,-0.12901814,0.036672395,-0.16004929,-0.18580636,0.27207354,-0.05413632,0.16533989,0.08728387,0.019689387,0.07614358,-0.22424404,-0.08094444,-0.19451949,0.076538816,0.12877285,-0.05397292,0.20043553,-0.11290966,-0.009357779,0.078767195,0.1618121,0.23564602,0.039336592,0.16711615,0.079565726,0.06826406,-0.0438863,0.07211778,-0.09640807,0.36227638,-0.023992773,0.18383719,-0.07271939,-0.21662427,-0.19960043,-0.038225647,-0.07507371,0.03174541,-0.09714258,0.08169635,0.1177367,-0.04902045,0.033004563,-0.027411828,0.226898,0.10722892,0.118495815,0.1773401,-0.021013914,-0.059506763,-0.05873707,-0.28055927,-0.13839348,-0.16791075,0.16093029,-0.3182413,-0.12502058,-0.02508492,0.047269348,-0.16389042,0.06383434,-0.15152246,-0.044215698,0.01588106,-0.040363677,-0.09289416,-0.055560414,-0.00073717616,0.047169868,-0.1743825,-0.2789177,-0.1810698,0.05680998,0.23653662,-0.05347747,0.05516206,0.12850402,0.11312911,-0.20213923,0.16831216,-0.4552826,-0.20098224,-0.24246411,-0.2972186,-0.035482746,-0.0988763,-0.184037,-0.12989777,-0.10081537,-0.14925781,-0.017860387,0.44538614,0.0101955915,0.24118306,-0.18484649,-0.3128762,0.07601349,0.12627526,0.3087251,-0.04332904,0.34175083,-0.0626873,-0.2643615,-0.4272907,0.42593968,-0.10034166,-0.22510429,-0.11777697,0.0643162,-0.2077435,-0.27020636,-0.13825656,-0.09599243,0.07136423,-0.033914104,-0.21571788,0.13014594,-0.18678617,-0.49868837,-0.20748612,-0.13330302,-0.108109586,-0.5044331,-0.32394308,0.117611796,-0.2703652,0.2834027,0.1769394,-0.09346108,-0.04107733,-0.27184993,0.08476192,-0.11872317,-0.09044268,-0.14581358,0.082938224,-0.2787875,0.019170722,0.3177185,-0.12772655,-0.11137326,-0.16519156,-0.33162108,0.103545554,0.06213847,-0.0900568,-0.035910644,-0.2214415,0.08380642,-0.2626529,-0.30069917,0.06479054,-0.12932336,-0.1893203,0.09206659,-0.16518357,-0.07384527,-0.12632339,-0.26976323,-0.14896724,-0.18674904,-0.0042906944,0.17657942,-0.21884006,-0.27985948,-0.22849,-0.11217301,0.07429974,0.07541823,-0.2914003,-0.16750556,0.09659141,0.08376492,0.100636825,-0.31851014,-0.21032187,0.39277133,0.03643326,-0.26219547,-0.3405248,-0.0033314363,-0.022187797,0.20305857,-0.15731077,-0.24954987,-0.19477908,0.06471301,-0.069473326,-0.28083685,0.0270258,-0.054557107,-0.35280672,0.12083331,0.117438614,-0.12152177,0.15790038,0.21920452,0.25292695,-0.4361587,0.31985855
-0.047579546,0.087131105,-0.08494601,0.24172623,0.08613668,0.0020316264,-0.20978473,-0.092850745,0.13659182,-0.088394076,-0.13016911,0.27248356,-0.26147687,-0.02294219,0.062037744,0.36201876,-0.04491014,0.2827773,-0.05666651,0.30486166,-0.036792442,0.1646459,0.05419992,-0.033160087,-0.03281095,0.22894818,0.31120104,0.27461857,0.34477773,0.30413905,-0.08190206,-0.071288474,-0.030942889,-0.01641782,0.115945056,-0.2065119,0.07633513,-0.34364113,-0.08004018,0.039237265,0.012413138,-0.032232475,0.13705383,-0.15097147,-0.033725914,0.32713124,-0.29400486,-0.45269755,-0.09756588,0.06112134,-0.07390841,0.3857863,0.014623782,-0.32151723,0.17095222,0.4565731,-0.13279274,-0.062088225,0.05268103,0.27533877,0.3726573,0.12215543,-0.048452478,0.41715708,-0.060750477,0.19018887,0.34773457,0.27445364,0.23135039,0.07100224,0.19797586,-0.26727903,0.16212572,0.29752153,0.42240033,-0.23139209,-0.065908186,0.10068073,0.2943772,0.38044667,0.2062071,0.2358131,0.29022956,0.22550116,0.15554404,-0.042324938,-0.004058429,-0.11334304,0.048623875,0.42358363,0.4901549,-0.13736594,0.004103527,-0.1265896,-0.039615463,-0.03296288,-0.1172474,0.6476322,0.03322908,-0.21148218,0.23621945,-0.24999939,-0.05220019,0.015926108,-0.08786072,-0.06527146,-0.016482014,-0.071167275,0.26672682,-0.080004945,0.1865312,0.020388355,-0.15814218,0.04033966,0.3602427,0.10338965,-0.08941789,-0.043007914,-0.03483061,-0.15123196,0.03715851,-0.21620706,-0.020447703,0.2525751,0.23539202,0.2381666,-0.42330214,0.08517521,0.09702408,0.23712811,-0.18103795,0.313345,-0.04949201,0.028874068,0.23147644,0.20555505,0.1900807,-0.1712638,-0.12817419,0.40681738,-0.016784051,0.08382259,0.17481382,0.0029969262,-0.10992724,0.19876637,-0.048222043,0.23926349,0.123487316,0.24746163,0.11608052,0.05116346,0.097759396,-0.024256278,-0.38667357,0.116505995,0.050875075,0.2042252,0.23740001,0.08893175,-0.050930105,0.14533442,0.17375983,-0.31885955,0.2404519,0.3640866,0.2678575,-0.10813601,-0.095898986,0.060675498,0.09771489,-0.24789718,0.13339038,0.055916857,-0.1118792,0.021467628,-0.17426999,0.079315476,0.44256708,0.0804303,0.077194914,0.03648875,-0.1259237,0.41958493,0.22283308,0.23682436,-0.10573535,-0.008843367,0.18138035,-0.07979574,0.03925142,0.46723822,-0.13117687,0.0948332,0.22288546,0.007839845,0.18095197,0.280265,-0.284934,0.024527567,0.11551823,-0.04366835,0.11324733,-0.051868934,-0.0037321448,-0.024468672,-0.066536106,0.5219814,-0.23593631,0.020866921,0.28564158,0.09383335,-0.034302868,0.09189086,0.08459254,0.046258055,0.18440351,-0.06535148,0.2799613,0.08605597,0.4554039,0.15686536,-0.1505391,0.031854168,0.21480209,-0.4742495,-0.032216374,-0.21724033,0.07855643,0.1621855,-0.016968321,-0.018753938,0.17609155,0.1265801,0.0054740943,-0.113767624,0.22394988,-0.13785769,0.070460424,-0.15735026,-0.01417616,0.006746452,0.13671327,0.049839873,-0.053914886,-0.20247912,0.2125995,0.09983234,0.027108263,0.22647783,-0.05522389,-0.039492395,0.09004604,-0.0054169777,0.18646856,-0.054350585,-0.013643731,0.09503003,-0.022676095,-0.8515949,0.16805094,-0.019435372,-0.18394707,0.14767769,0.2948897,0.2511771,0.09835412,-0.19438145,0.073524795,0.028647818,0.11142574,0.13275445,-0.03762083,0.07869216,-0.08677741,0.05364434,0.05425108,0.3439755,-0.017839566,0.010021814,0.018379679,0.48739737,-0.02696852,0.119972706,0.1420323,-0.035778664,0.35850975,-0.16844307,-0.115581885,-0.04134946,0.18600161,-0.13158426,-0.18883266,-0.009829691,-0.050871942,-0.053525884,-0.07403127,-0.10668783,0.088792525,0.20212539,-0.014916841,0.10917829,-0.21932778,-0.3619673,-0.0025484231,0.0643107,-0.00058424345,-0.027242992,-0.35145268,-0.059401173,0.03952521,0.22567688,0.039933197,-0.14970464,0.031892113,-0.069070466,0.039628718,-0.1337851,0.3059195,0.31351432,0.1266214,-0.053203765,0.09249456,0.041552305,-0.07758671,-0.2378851,0.24603297,0.0063473755,0.3363201,0.16019502,-0.25279003,-0.13648996,0.22880548,-0.19849111,-0.16473716,0.40411332,0.16755393,0.28979987,0.1920619,-0.01614122,-0.091879286,-0.08515837,-0.19864638,-0.07293902,0.10389262,0.058530368,0.365215,0.0008834136,0.5273979,0.012812802,-0.19345024,-0.23351997,0.20169492,-0.09643882,-0.18230376,-0.0065305317,0.07030409,-0.3730678,0.113075495,0.0084090205,0.04873278,0.20600896,0.093000725,-0.14844508,-0.11485822,-0.024941409,0.11865992,-0.15663405,-0.06586883,-0.38775715,-0.18331368,-0.23875028,0.09233037,0.016455576,-0.17155474,-0.05283192,-0.18596646,0.08456561,0.09632432,-0.15438756,0.2661057,-0.3084876,-0.070797555,-0.19957814,-0.0058414396,0.120133564,0.23354357,0.29892543,0.031723507,0.29423225,-0.14751567,-0.22252724,0.42992252,-0.1455347,-0.18075939,-0.117577605,-0.08444225,-0.17475076,0.24767682,0.26360998,0.038306713,0.5989136,0.067081414,0.19683728,0.40225807,0.110690616,-0.039083928,0.46049762,-0.05164222,0.10677282,0.047175225,0.39556342,0.03763387,-0.015324722,0.38846633,0.28776374,-0.0035851742,0.13456137,0.28817016,-0.030527918,0.17671081,-0.078561835,0.26476,-0.034674358,0.05172385,0.12061242,0.18892035,-0.063628644,0.21974082,0.16298221,-0.20742637,-0.14516452,0.08545521,0.07570931,0.703915,0.100751564,0.13417353,-0.22705352,-0.0032859992,0.62795264,0.19353266,0.036084734,0.12246805,0.13648887,0.32953757,0.25010452,0.22310974,0.64433706,-0.24322908,0.1224981,0.6183247,0.3982523,0.10445723,0.3908506,0.16098678,-0.22779243,0.09101811,0.3976352,0.017190497,-0.13451013,0.3311782,0.05367514,0.38121206,0.37299898,0.23875666,0.33456978,-0.040621888,0.1986463,0.447867,0.05785261,0.050894033,-0.09815604,0.17781596,-0.12729649,0.50196064,0.1253024,0.35584527,0.06802548,0.17259105,0.052117515,-0.02157723,0.115880154,-0.19587123,-0.41827512,0.2721958,0.19457138,0.07376329,0.1477657,0.09845143,0.07027448,0.011570476,0.011675241,0.19079581,0.23929544,0.13607499,-0.023630807,-0.069578774,0.060116343,0.38172066,-0.23982948,-0.16194046,0.038698833,0.13160871,0.19865537,-3.404836e-05,0.07919207,0.2152828,0.23402575,0.14445877,0.016022982,-0.021201262,0.28014633
0.061509434,-0.4773867,0.6014742,-0.12756519,0.3102286,0.17970642,0.10708094,0.45948336,-0.0016074365,0.092777,-0.31153324,0.09953712,0.15964071,0.15596336,0.17489,0.47683161,0.123250954,0.2129421,-0.031830084,0.06405779,0.5763354,0.19907445,0.12215247,0.45412242,0.5509585,0.07840224,0.1839632,0.38057485,0.14883272,0.13651294,0.47655284,0.23283367,0.35527623,0.31982762,0.15898998,0.39502865,0.4329565,0.21911351,0.093097195,0.50480855,-0.2697014,0.16298696,0.4469334,0.42375252,0.0019591618,0.1616239,0.13449244,0.2752553,0.57396126,0.38382778,0.58450216,0.6407985,0.10611074,0.011801581,-0.19272716,-0.26641753,0.38575065,-0.007875165,-0.032724045,0.04271448,0.37372723,0.51783234,0.24531965,-0.09252513,0.17641242,0.13222039,0.16822927,-0.13888377,0.26082033,0.15568854,0.32114735,0.060398687,0.082356475,0.26674476,0.2511478,0.37727517,-0.030727472,0.69386345,-0.069339484,-0.2881176,0.1003533,-0.034619525,0.4334941,-0.09264323,0.7767223,0.010632272,0.33611473,0.62652576,-0.0777593,0.36435866,-0.21222666,-0.151815,-0.5569423,0.3096822,0.5742071,0.33009636,-0.18312424,0.1245554,0.21024078,0.46286124,-0.24889998,-0.01787919,0.030227538,0.36309183,0.32147047,0.38358107,0.26314715,0.48793334,-0.046277154,0.32510892,0.216045,0.08475621,0.18750319,0.08156859,0.1988368,0.79904413,0.026389157,0.545532,0.14960194,0.46291402,0.1499023,0.19819799,0.29261962,0.18616414,0.046894856,-0.21806246,-0.11897398,0.08516766,0.10173984,-0.12011552,0.054460723,-0.0030054618,0.25754878,-0.080579996,0.3989354,0.04854067,0.22611596,0.11097266,0.12671627,0.3069087,0.23345089,0.114121,0.124671176,-0.27888602,-0.1487525,-0.07860694,0.29076532,0.18728606,0.07043476,-0.01073964,0.36512747,-0.016814068,-0.07241771,0.33304042,-0.018073361,-0.2088125,0.02333212,0.16697142,0.3156615,-0.1709924,0.1623363,-0.048742794,-0.4302634,0.3321422,0.19929662,0.04619133,-0.09878935,0.25392938,0.14596988,0.19703558,-0.6254987,0.088535845,0.20450835,0.16301107,-0.27259535,0.10438227,0.24709119,0.12666039,0.19994201,-0.023572167,0.12858443,0.10881604,-0.1677011,0.1597368,0.07461461,-0.097790025,0.2847476,0.008343826,0.1419596,0.09059128,-0.080675684,0.19862385,0.19809501,0.08563543,-0.14033194,0.25949505,0.14944252,-0.4164137,0.05884768,0.33567396,0.051211946,0.05741281,-0.5418913,0.18054813,0.3080186,-0.08251515,0.20398484,0.13934705,0.20211872,0.29345486,-0.16376834,0.052380655,0.27350375,0.09647034,-0.017964544,0.1761321,0.21708684,-0.14127772,-0.43930915,-0.18650398,0.25571376,0.048374698,0.24546756,0.13061197,0.0059473827,0.3283665,0.25073704,0.22103713,0.30324173,-0.12592813,-0.13773592,0.12519287,0.17537996,-0.03301655,0.1536404,0.15351303,0.22761217,-0.118229605,0.2247266,-0.0019264057,0.12812597,0.16613276,0.4272782,0.3920574,0.14642556,-0.15734777,0.27467397,0.21427065,0.05443487,-0.10102677,0.15349655,0.09019663,-0.3098229,-0.103526376,-0.029182518,0.016775724,0.16312669,0.124343105,-0.065555535,0.05331135,-0.3895699,0.44645607,-0.09852844,0.01736133,-0.3067751,-0.08236125,0.25437427,-0.33467796,-0.03611248,-0.03486006,-0.031572178,-0.18497156,-0.3935881,0.39257875,-0.17716843,0.0070869722,-0.012386697,-0.20974024,0.026676387,-0.163321,0.24473497,0.017706923,-0.13510014,-0.18301582,0.038206458,0.029101837,0.07220414,0.29614097,0.18055204,-0.23354645,-0.23305114,0.49242976,-0.04640901,-0.08734872,-0.3685181,0.22193837,0.13539077,0.29326257,-0.13486433,0.10686902,-0.037797097,-0.47630665,-0.31902918,0.0015187339,-0.16868015,0.27458632,0.16339964,0.15433642,0.20391628,0.1852062,-0.08567158,0.060026273,-0.02701215,0.1556634,-0.2339968,0.039666545,-0.23809855,0.08315459,0.17238338,-0.13929825,-0.14642112,-0.31873178,0.09820124,0.23632294,0.024857046,-0.3388619,-0.048520274,0.31463286,-0.05250636,0.23750478,-0.15170385,0.11199637,-0.004983447,-0.136935,-0.21565641,0.19036387,0.0989321,-0.44913507,-0.0067309337,-0.012744558,0.48330778,-0.36544973,-0.13311303,-0.533846,-0.30202752,0.22271922,0.08394242,0.25416762,-0.12274853,-0.03922361,-0.20047669,-0.4590701,-0.0652719,-0.26085296,0.039650407,-0.22731751,-0.33649543,-0.25696418,-0.3135614,0.10498595,0.04844147,0.036301788,-0.37367418,0.058664646,0.23068255,0.23339856,0.09483434,0.13292009,0.31095335,0.28373724,0.6146008,0.16141275,-0.14648908,-0.015803834,0.4177512,0.14264318,-0.055877253,0.14371845,-0.0036044952,0.1127252,0.1538476,0.102242775,0.076354474,0.40894192,0.099079706,0.25317672,-0.061182998,-0.11398188,0.23174489,-0.12495715,0.20158242,0.1283374,0.024239784,-0.033909667,-0.012864469,0.32904914,0.21379383,0.07670842,-0.20044011,-0.16074522,-0.03510404,0.2454751,-0.33761457,0.14962041,0.1680398,-0.13325351,0.08538806,-0.032588977,0.22313206,0.35383844,0.36658096,0.17329846,0.33835128,-0.009199663,0.44972104,-0.006512086,0.17518169,0.028960273,0.1122164,0.20058456,0.010562989,0.04356942,-0.06834798,0.272462,-0.10218568,0.25062275,0.22890835,-0.34896645,-0.015325123,0.00996949,0.114977255,-0.19141011,0.46617064,0.07609173,0.23864266,0.22733805,0.096030064,0.04365377,0.06384741,-0.380654,-0.2545926,-0.13129005,0.20820288,-0.0394914,-0.10997947,0.0933982,0.426122,-0.057115823,-0.06169909,-0.13101925,0.11898948,0.013027584,-0.095363796,-0.18968505,0.21629396,0.23077881,-0.2689316,-0.0048254426,-0.10568268,0.29251832,0.05429413,0.14303255,-0.07809564,-0.200007,-0.21334706,-0.29343522,0.0692251,0.16011715,0.23261529,-0.04680869,0.26464525,0.22893807,-0.15709783,0.10412654,-0.23112257,-0.23134698,-0.2796237,0.084806174,-0.007894074,0.00817468,0.27208605,0.45938513,0.346139,0.44543067,-0.3167594,-0.028072445,-0.23542137,0.33128604,0.15956946,0.326426,0.10457801,0.20182207,0.11179292,0.09435713,-0.046982277,0.084187336,-0.25388926,-0.24155039,-0.22324614,0.3546199,0.13164859,0.14092459,-0.22118752,0.45122626,-0.23006101,0.2284032,-0.072406985,0.2463639,-0.22417282,-0.08541363,0.31462324,0.03558113
-0.23959677,-0.5045065,0.018929506,-0.3070729,-0.023100546,-0.40190268,0.1842206,-0.11671293,0.0939384,0.003473677,-0.39569914,0.13508548,0.36017254,0.15837136,0.08813373,0.63511336,0.6725175,-0.34830517,-0.027339783,0.1781834,-0.21706046,-0.09604811,0.3563434,0.006359853,-0.17821075,-0.0001311139,0.029968897,0.008342852,0.16787745,0.33748472,0.21093313,-0.2653526,0.10047644,-0.037856393,-0.82485235,0.13324139,-0.02301532,-0.24526592,-0.19903624,0.34634072,-0.41206285,-0.42747805,0.073408835,-0.10434832,-0.22316162,0.6136563,0.09635058,-0.4005237,0.22779623,0.6764236,0.052864276,0.5392348,-0.3892896,-0.36367193,-0.19681574,0.016162105,-0.15114518,0.5201673,0.0021271044,0.22139621,0.4149668,0.47784445,-0.14319894,-0.042954348,0.19775802,0.11127479,-0.09533555,-0.35843712,0.3193393,-0.17624633,0.7552517,-0.11376535,0.3989806,-0.18546942,0.16293857,0.02885282,-0.11138893,0.16272913,0.009421821,-0.6589027,0.6636089,-0.119434826,-0.00059573806,0.09390725,-0.050397377,0.74173427,-0.014781306,0.3625784,-0.19834478,0.5936906,0.07847129,-0.07077097,0.0747395,0.11155433,-0.15266468,-0.3093795,-0.47511837,0.3250974,-0.16302796,-0.13546385,0.030152624,-0.22079846,0.026625572,-0.12956807,-0.14204623,-0.32598016,0.4697996,0.2098499,-0.3330743,0.13578327,0.4157653,0.39839986,-0.10873715,0.1407502,0.011290017,0.50806403,-0.13221116,0.48395026,-0.115065895,-0.038888857,-0.3641043,-0.20203108,0.27255493,0.015254623,-0.43639582,0.0505522,-0.24547961,-0.0018276009,-0.35355636,-0.67128134,0.09665678,-0.17549059,-0.1517897,0.25317013,0.191278,0.21435058,-0.512753,0.289924,0.047802515,-0.033655837,0.0535409,0.18927005,0.12117312,0.1320129,0.086739786,0.33859494,-0.27266046,-0.58071214,0.3488116,0.17016649,0.27788615,0.4001399,-0.45002192,-0.28644997,-0.14906776,-0.21362445,0.009737557,-0.3383559,-0.6500023,-0.31201035,-0.27682123,-0.29468963,-0.1974531,0.32567605,-0.12849104,0.34031266,0.005673372,-0.031998187,-0.45611447,-0.13190877,-0.10078233,0.09895362,0.0032978277,0.27268204,-0.16243963,-0.027979933,-0.22534786,0.33227384,0.38129446,0.5150709,-0.24466376,-0.07725964,0.105269,-0.40657973,0.28177124,0.20919888,-0.212051,-0.31467167,0.316283,0.2399794,-0.61802876,0.0383487,0.28197384,0.08031481,-0.04339923,0.36455598,0.61748487,0.07440187,0.039372202,-0.8476206,0.07379206,0.012965039,-0.48001766,0.14836462,-0.3949856,0.14542401,0.069274366,-0.2535229,0.051418763,0.0131906215,0.13407715,-0.16079159,0.19901787,0.031050034,-0.13502415,0.16432036,0.08176946,0.2530801,-0.416527,0.29486278,-0.23273042,0.08502276,0.013078846,-0.28598237,-0.21960613,0.22467192,-0.23775491,-0.41424733,-0.057140633,-0.16597073,-0.25733674,0.052395556,-0.2580755,-0.26873866,0.2562219,-0.26660976,0.24963695,-0.32988906,-0.13694313,0.3097721,0.21033823,-0.014096958,0.13144675,-0.07543742,0.4259807,0.4547445,-0.15020944,0.07345312,0.06251429,-0.32308742,0.2695371,-0.58816,0.14872804,0.005188809,-0.5274677,-0.30653048,0.38715404,0.14603226,-0.13570724,-0.20732339,0.15014122,-0.21095735,-0.12344151,0.37290794,-0.024046205,-0.21956809,0.19592232,0.011671555,-0.14510989,-0.07645565,0.21938394,0.25869226,-0.06739852,0.13393186,-0.20847532,-0.007556658,-0.027365368,-0.31902707,-0.26678127,0.0024098486,0.03898892,-0.09620644,-0.15569182,-0.19043091,0.2157636,0.1343795,0.2591272,-0.2541066,0.08592693,-0.114072114,0.068278335,0.52148736,0.015151067,-0.15503672,-0.13870601,-0.11467261,-0.1195446,-0.2065996,0.20528658,0.08984866,0.023372894,0.20524411,0.057320654,0.047689524,0.045833074,-0.16664194,-0.018115358,-0.14932327,0.031379156,0.083464555,0.16912451,0.35008433,0.22742453,-0.30603784,0.1514367,0.04339395,0.1132437,-0.27098736,0.113423884,-0.34782654,0.38046858,0.10699757,0.2053689,0.15563385,-0.28458166,-0.11128625,0.06737695,-0.0040715802,-0.2568188,0.30673417,-0.2686197,0.20241168,-0.20972948,0.25074512,0.0018123153,0.24001178,0.08313471,-0.13037878,-0.14095326,-0.10448769,0.19026878,-0.11560058,0.057473965,0.2949572,0.19427654,0.035179727,-0.12631074,0.33281806,-0.07451117,-0.38109326,-0.007939702,-0.055177618,0.22440787,-0.5499567,0.12003892,-0.17733993,-0.14470229,0.10320555,0.380595,-0.36471236,0.13328923,-0.09543675,0.31329224,-0.017169412,0.3477615,0.060857084,0.07181023,-0.31586024,0.25020576,0.08809017,-0.032397356,-0.17630006,-0.16945672,-0.44879588,0.060874302,-0.08596415,-0.30731896,-0.23631588,-0.26136148,-0.40012765,0.16938792,0.13713345,-0.012892081,0.06203722,-0.3853882,-0.3234409,0.019184683,-0.2970039,-0.28731984,0.08807748,0.38405162,-0.17837498,0.03842202,0.06997643,-0.004302235,0.12954193,0.19782814,-0.059114378,0.30461904,-0.19327232,0.01972409,0.3802972,-0.06905785,-0.006705338,0.2924651,-0.2718717,0.2257564,0.37131408,0.154056,0.14595912,0.1757902,0.13729294,0.38600403,-0.062849656,-0.1512243,-0.015420072,-0.18468778,-0.035702232,0.16050006,0.17601915,0.2654576,0.19915931,-0.31932,0.32397863,-0.3239126,-0.19652936,-0.048098635,-0.29767254,-0.35139492,-0.013368826,0.22613305,0.25030997,-0.052530304,0.112813435,0.30012572,0.0318678,-0.012158705,-0.17798306,-0.2647017,-0.5463975,0.12173235,0.3221621,0.20057376,0.46788818,0.28554824,0.38659236,-0.41656837,-0.05337137,0.37851253,-0.08556078,0.109033994,0.19374326,0.2659741,0.18009555,0.21017426,-0.0022927055,0.23016399,-0.056347817,0.03707637,0.098330736,0.18968053,0.11167541,0.25784457,-0.20471142,0.27918002,0.014639347,-0.006023814,-0.056923516,0.08781476,-0.08904285,-0.29534864,0.22416028,0.175447,-0.11735178,-0.19335923,0.112154104,-0.53442,0.28997838,-0.27831268,-0.15801439,-0.247228,0.35066503,-0.22928336,-0.27996776,-0.31362724,0.10357519,0.12987578,0.07649506,-0.2508641,-0.17879297,0.23378679,0.20079222,0.10978539,0.009045345,-0.06753857,0.37150866,-0.034065384,0.115001835,-0.20244819,0.17250542,0.13508326,0.28640372,-0.26643303,-0.005819369,-0.22640318,-0.12264338,0.24263012,-0.075875096,0.33215347,0.05329072,-0.003948234,-0.24619018
-0.21636511,-0.08097246,-0.23148187,0.18178637,-0.25258967,0.31934747,-0.07557558,0.12074301,0.028897066,-0.012038091,0.0066444394,-0.079090886,-0.16724458,0.03834254,-0.04654696,-0.10769548,0.3640896,0.03941559,0.099645056,0.15105079,-0.11271411,0.3113055,0.2651497,-0.35495403,0.13822709,0.033528622,0.48774648,0.07108363,-0.19707797,0.40464228,-0.092833094,-0.045328476,-0.023431234,-0.028271047,-0.101362534,-0.0106466245,-0.057497747,-0.016174173,-0.06128465,0.18407401,-0.05513156,0.11634585,-0.3206581,-0.018273415,-0.18225402,0.05968231,-0.015297546,-0.22358984,0.06570282,0.5400461,-0.20926732,0.15286729,-0.20596549,-0.0237892,0.39216092,0.12616217,-0.22054246,0.10609185,0.21200846,0.23248206,-0.07027308,-0.07146145,-0.03380489,0.23367254,-0.07337991,0.26235414,0.06959462,0.023010869,0.4865038,-0.1610243,0.088767305,-0.34625337,-0.047837332,0.26775217,0.019212792,0.06877966,0.09221,-0.14485127,0.0483764,-0.35538992,0.08500861,0.09304418,0.9442964,0.16549195,0.039275263,0.76777935,-0.087133124,0.32132885,-0.1375587,0.5374795,0.11155974,-0.12585743,0.123854645,0.069645695,0.12258088,0.03641268,0.21337338,-0.22889118,0.12063343,0.19064747,-0.20973201,0.2467358,-0.35633764,-0.24536541,-0.13192995,-0.131691,-0.28174734,0.09371765,0.26265264,-0.07317337,-0.32015175,0.11695854,-0.00056828756,-0.23923568,-0.25418067,0.08764584,0.14484425,-0.21492729,0.0056885183,-0.044285137,0.08168405,0.04446864,-0.004539095,-0.1613973,0.16887736,0.19885138,-0.13881445,0.12724064,-0.109706216,-0.21626598,0.19730315,0.47181845,-0.20269234,-0.6426815,0.32179448,0.046403207,0.3438679,0.285774,0.011146447,0.1966572,0.46152705,0.61160374,-0.12267394,-0.21824256,0.3644728,-0.35936686,-0.30021092,0.25143826,-0.17733645,0.07155937,0.10943922,0.33323598,0.38699362,-0.105321564,0.13655566,0.0018238255,-0.036346074,0.052920785,-0.25545263,0.07013022,0.006603307,0.13027945,-0.020819712,0.23164858,0.4571187,0.048792258,-0.038321346,0.17938331,0.2732875,-0.2188664,-0.031356573,0.26661062,0.024996495,0.1395269,0.037986815,0.28071353,0.092745975,0.34236413,0.19705702,0.15970942,0.45402956,-0.01784927,-0.36888486,0.23537524,0.048227474,0.10777294,-0.1918722,0.15051816,0.10149146,-0.06811591,-0.069643326,-0.2928401,0.2041414,-0.12639713,-0.12456267,-0.09086212,0.31057665,-0.3172432,-0.087108724,0.23358575,-0.13636681,-0.15138301,0.28458634,0.6144593,-0.19523218,0.24904887,-0.112474844,-0.15108234,0.32270366,0.24917552,0.18958873,0.46133947,-0.065626115,0.44754097,-0.1719013,0.3579224,0.15116122,0.017107908,0.01550327,-0.14527501,-0.0013522962,0.5333251,0.10272297,0.24491557,-0.18379597,-0.655986,-0.18131906,-0.23819631,0.22860718,0.08584393,-0.054698292,0.1669112,0.122694805,0.29644394,0.48861444,0.48635137,-0.34780484,0.16504394,0.20798668,-0.03168503,0.14032005,0.3047201,0.19608903,0.086264834,0.08125716,0.13160251,0.06468986,-0.04534101,-0.17089413,0.027976336,0.39904615,-0.2594309,-0.28730515,0.13523275,0.039763473,-0.0684581,0.09536489,0.34439874,0.215476,-0.32885364,-0.030638902,0.16764328,-0.257089,0.428986,-0.022924894,-0.12059074,0.34430352,0.022849465,-0.18434264,-0.021598222,-0.00603874,-0.4173383,-0.15506299,-0.10199939,-0.10230749,0.08748619,-0.011036664,0.11431182,-0.08007059,0.3751259,0.037859414,-0.10434414,-0.19143377,-0.03616787,-0.21448296,-0.16098131,0.17703703,-0.16338246,0.29044414,-0.26269433,0.1270393,0.4159465,-0.1285405,-0.26627022,-0.28878376,-0.15893811,0.5937803,-0.16578697,0.02158978,0.3392065,-0.07529602,-0.033079922,0.17968787,-0.288672,0.33420926,0.24336904,-0.005971573,-0.07397355,-0.41669407,0.35371163,0.12979673,0.025721174,0.28141177,-0.1466145,0.025821965,-0.03765792,-0.07593766,0.09860889,0.16528404,-0.23453727,0.26438147,-0.27636838,0.09393469,-0.031442292,0.020811131,-0.44599724,0.0881771,-0.08666335,0.27803794,-0.03509693,0.13146687,0.26210353,-0.044769827,-0.017685879,0.080131985,0.24128084,0.0023871292,0.16853455,0.05063237,0.099515386,0.19034037,-0.0458536,0.23460461,-0.11914387,0.15080808,0.1157395,0.026778992,-0.0699946,0.13974135,-0.43986425,-0.10365889,-0.1422263,-0.0646796,-0.056436624,-0.01028291,-0.21379171,0.12510386,-0.052233197,0.27788052,-0.4167653,0.19384244,-0.020733006,0.1627252,-0.2914731,0.26710624,-0.2958575,0.08978058,0.053657323,0.26964474,-0.09019678,-0.16459848,-0.19395174,-0.3580071,-0.10264245,0.2784985,0.27694085,-0.3938552,0.13810557,-0.13214876,-0.06341936,0.040739052,-0.22971165,-0.11118651,0.0027312604,-0.054468952,-0.37965134,0.19329582,0.037903313,-0.24919894,-0.44249436,-0.03138587,-0.081025966,0.24451402,0.056363568,-0.115408845,0.07468311,0.12416154,0.16941758,-0.15654638,0.16434482,0.63926613,-0.01727137,-0.22525889,-0.23896529,-0.20043385,0.091213256,-0.10522401,0.10695576,-0.0067323954,-0.22187942,0.10936685,-0.3004978,-0.3264005,0.22210467,0.009634632,-0.41385138,-0.066803336,0.04231844,-0.067269884,0.16708018,0.05747354,-0.19923946,0.22994024,-0.099824406,0.2056303,0.00980349,0.022547698,0.0046477537,-0.1080987,0.048359368,-0.051073655,0.17848225,0.018285882,0.1316759,0.0015182269,0.0604927,0.18283583,0.05147625,-0.21852867,0.13474199,0.12045595,-0.07334738,0.22523078,-0.1419934,-0.13046193,0.051274862,0.46205363,-0.349856,0.009910678,-0.0187753,-0.12238897,0.014561013,-0.012508316,-0.27459684,0.09579829,0.10337849,-0.06779563,0.008439165,0.18881637,0.3396165,-0.22141977,-0.057085775,0.010838782,-0.15472998,0.012504203,0.18396422,-0.035928898,0.21122788,0.010599944,0.29190752,-0.22752522,0.09693665,0.16707718,-0.0483062,-0.012540396,-0.23750742,0.43316972,0.117615834,-0.10538617,0.048350137,0.054985266,-0.34491906,-0.090720184,0.058699366,0.059492894,-0.3929691,0.13262303,0.052961666,-0.06041707,-0.12626676,0.42484945,0.23678549,-0.016357806,-0.04763691,0.06545613,0.13056117,0.07334643,-0.111790076,-0.22167857,0.028119948,0.009733879,0.0067250994,-0.19986713,0.14423503,0.11246045,0.09871641,0.18160768,-0.13780923,-0.29352993,-0.063532315,-0.21624371,0.0820428
0.009171721,-0.4984477,0.3517648,-0.0071049337,-0.09957649,0.017110491,-0.058639493,-0.313794,0.22826713,-0.2889563,-0.27666265,-0.38955158,0.11575044,0.57305676,-0.12785238,0.43205193,-0.84734356,0.04923172,-0.26443282,0.11032171,-0.03350877,0.16978817,0.30153495,-0.20892584,0.011187042,-0.01365464,-0.2874598,-0.23543829,-0.38479763,-0.2350416,-0.15106316,0.16002563,0.17575204,0.27346465,-0.23140551,0.07692156,-0.19887762,-0.15038183,-0.35533026,-0.05590231,0.09314158,-0.005830487,0.06431836,0.0647019,-0.10488954,0.3354332,-0.10163356,0.15899056,0.013068268,-0.0014851806,-0.096953414,0.13755807,0.2092171,-0.056375854,-0.6378197,-0.11000894,-0.045950707,0.38585088,-0.039129063,-0.0013302445,0.16928189,0.15388487,-0.07377626,-0.39315894,0.25109765,-0.052653696,-0.19905615,-0.1367213,-0.31714448,0.14582199,0.2192242,-0.10523626,-0.22419782,-0.20221648,0.18097226,-0.22719245,0.28337213,0.1250164,-0.29247475,-0.25738975,-0.035189815,0.08045724,-0.36821863,-0.20320575,0.008595438,-0.1747051,-0.17323105,-0.022596154,0.19821948,-0.21535887,-0.73488843,-0.012310116,-0.2333613,0.18301001,-0.03619095,0.0040520304,-0.08526948,0.01598037,-0.3666915,0.055491846,-0.3920314,-0.22585626,0.13861826,-0.08245165,-0.055639263,0.22380295,0.016409267,0.09463941,-0.34735134,0.47246984,-0.052921865,-0.2368576,-0.16563004,-0.031846695,-0.09957437,-0.07424312,-0.10162014,0.38175896,-0.2901355,-0.13823898,-0.118706085,0.21389821,0.041152626,0.13004135,0.03177825,-0.03181853,-0.1672329,0.21749128,-0.28866547,-0.30338657,0.10371707,0.12710191,-0.105973326,-0.027986798,-0.044088222,-0.14601465,-0.025783775,0.029305974,-0.023522275,-0.53210515,-0.20272611,0.061165817,0.03965099,-0.021050662,0.124490246,0.027458714,0.2614325,-0.55635196,-0.25784507,-0.16540118,0.19871151,-0.27286842,-0.018990578,-0.2771033,-0.20735933,-0.025438704,0.3813489,-0.11955938,0.43134555,0.06897619,-0.14966376,-0.27576122,-0.08133892,0.067260526,-0.27445316,-0.15410358,0.04603489,-0.2812789,0.00047559082,-0.1502177,0.13477129,-0.23169048,0.12573218,0.11315734,-0.13439775,-0.3873392,-0.0045400257,0.012300166,-0.062204234,0.08971062,-0.26289797,0.3495249,-0.10252661,0.061063685,-0.14362347,0.42116466,0.21421865,-0.025194878,-0.4304762,-0.08208886,0.055284157,-0.29829767,0.06282108,-0.1300046,-0.0031999082,0.2969341,-0.21398342,-0.13445073,-0.054830838,-0.18143608,-0.24114758,0.29876345,0.057125248,-0.06426746,0.21913202,0.068346344,0.11141711,-0.34944463,-0.14833972,-0.24035011,-0.054964364,0.0032767442,-0.18707953,0.04463829,-0.048194427,0.022366866,0.36330834,-0.025343051,0.18437585,-0.2170136,0.18105713,-0.354197,0.17699759,0.014592358,-0.34983137,0.2553158,-0.20388003,0.09274026,-0.03630044,-0.12938127,0.24386446,-0.37964967,-0.1714593,-0.093542516,-0.291625,0.06566327,-0.2253051,-0.15966581,-0.09785432,0.08549162,-0.071983784,-0.0812662,-0.2941826,-0.0045799986,-0.16535692,-0.0120210685,-0.09838147,-0.11413677,0.028460925,-0.08998822,-0.0074561876,0.04806597,0.11537092,0.0122668715,-0.4745745,0.14126152,-0.119474515,-0.17901467,-0.14346229,0.17132351,0.07814432,-0.100404605,0.2133853,-0.83242863,-0.22779495,-0.032559637,-0.0019074447,-0.21084563,0.40296295,-0.29557168,-0.2371201,-0.11846951,0.017436313,-0.1868855,0.0824805,0.24057159,0.10663112,0.087552354,-0.058176804,-0.19397412,0.05970664,-0.35314572,-0.3399235,-0.06034276,0.14501776,0.055865962,0.04231241,0.053300805,0.20507012,0.2305067,-0.17725077,-0.14414002,-0.17843038,0.3033298,0.24640699,0.46694496,0.12359819,-0.00023152298,-0.13999084,-0.30359215,-0.035088584,-0.269338,-0.27842134,0.14187913,-0.10961691,0.04820118,0.27092302,0.2645515,0.30286816,-0.05549276,0.08685864,0.12899809,-0.030816711,0.15081155,-0.051672447,-0.010350733,-0.57139146,-0.01898398,0.10087237,0.06715091,-0.1884641,0.10234477,0.004494158,0.22082725,0.09967291,0.30386886,-0.016135475,0.023627507,-0.31328595,0.23785053,-0.032620627,-0.28999996,0.23142989,-0.06760297,0.10471924,-0.5617391,0.07969936,-0.21649384,0.054849807,-0.006394124,0.33538228,0.011275708,-0.093273304,0.0070298975,0.18679358,0.15942754,-0.23938148,-0.13992648,-0.19842729,-0.3113009,-0.34623086,-0.3499113,0.01876792,0.023400383,-0.14761452,-0.106793895,-0.004328524,0.020662831,-0.068130225,0.2667744,0.053300984,-0.068475686,-0.39204398,0.23423417,-0.114172526,-0.009030415,0.18844365,0.063057356,-0.30979002,-0.02665316,-0.13940077,-0.17574643,-0.033148024,0.18113565,0.0045327023,-0.22431295,0.30649856,-0.03677452,0.109630324,0.11647855,-0.10351437,0.1691332,-0.18898806,-0.24980895,-0.09858159,-0.11391224,-0.21692815,-0.12705182,0.049954668,0.3202075,0.16685872,-0.43776003,-0.23918536,-0.13652776,0.12856446,-0.61563116,0.034940176,0.07798802,-0.19079058,-0.41032806,-0.36490938,-0.040121917,-0.18573052,-0.20911379,-0.041652843,-0.044208676,0.19251072,-0.33644107,0.040136784,-0.06334778,-0.1800251,-0.20279852,0.10210153,-0.49836126,-0.21952543,-0.059489027,0.095854074,-0.1452759,-0.56341594,0.3131432,-0.15262938,-0.044042733,-0.3743605,-0.43621358,0.25992304,-0.06769093,-0.037788007,-0.20027487,0.16366059,-0.17957842,-0.28353915,-0.18649612,0.02987693,-0.044589553,-0.19814119,-0.04114893,-0.24406783,0.015375105,-0.017658701,0.096749015,-0.11558781,0.29500553,-0.06382985,-0.36980185,-0.28385964,-0.016533261,-0.19555822,-0.21847986,0.08300783,-0.20552434,0.09865389,-0.1895018,0.077299654,0.004488128,-0.16628604,-0.1290992,-0.5480498,0.112953655,-0.10949446,0.12673874,0.23980036,-0.02769059,-0.20471546,-0.20584601,-0.050667282,-0.4296218,-0.17371961,-0.034235366,-0.19200884,-0.38386807,-0.2528929,0.061530016,0.15209511,-0.13270059,-0.7008286,-0.07316497,-0.17438687,-0.17679237,-0.0112076495,-0.034608185,-0.3001561,0.387899,0.14742948,0.20590913,-0.36209646,-0.28288117,-0.01922336,-0.10383411,0.18157832,-0.11534634,-0.21699525,-0.046217065,-0.23351058,0.08538415,-0.3731704,0.081738286,-0.14404196,-0.19260268,-0.40756133,0.13036923,-0.14790301,0.0732177,-0.27661175,-0.44555822,-0.07041269,0.11458501,-0.057771746,0.116140395,-0.0027790475,0.12779687,-0.27670893,-0.05413557
-0.051270857,-0.18766582,0.27712336,0.31032234,0.19977891,0.18359934,-0.23942727,-0.2205334,-0.88869023,-0.4988666,0.1648308,-0.73231244,-0.438672,-0.30772072,-0.21589498,-0.24890377,0.051159125,-0.20727462,-0.076432824,-0.3462253,0.12882008,0.23151214,-0.18638569,-0.23688541,-0.26321092,-0.33617985,-0.1958794,0.6839404,-0.06596152,-0.25887296,0.2778689,0.61054015,-0.31704885,0.41004357,-0.015176851,0.13038598,0.07344955,0.35199586,-0.22307174,-0.34883228,-0.08203616,0.221362,0.034162235,0.06379144,-0.09037468,-0.4832774,0.199359,-0.3072515,0.20015115,-0.21047367,-0.18749918,-0.42610648,-0.53142464,-0.032738697,0.38258082,0.21440373,0.05537552,-0.023455305,0.26907775,-0.16365513,-0.59767896,-0.84894913,-0.059811283,-0.12242123,-0.16815235,-0.17346515,0.15708102,-0.40975615,-0.59962356,0.16770163,-0.5177815,-0.0879318,-0.3331093,-0.1685651,-0.28590885,-0.27859005,0.11860282,-0.20193249,-0.31383812,-0.4345873,-0.33155584,-0.22115289,-0.117591485,-0.35090113,0.11850398,-0.29866344,0.00617743,-0.32771376,0.069182605,-0.29274887,0.32136783,-0.32053262,-0.02628545,-0.3081463,0.09420981,-0.3862756,-0.24966504,0.05534729,0.03821526,0.27788642,-0.029137636,0.14146772,0.038801212,-0.5207299,0.1267828,-0.23242037,-0.34897065,-0.42070186,0.22975302,0.030915309,-0.52329475,-0.0758911,-0.24907513,-0.116243646,-0.47925162,-0.1413016,0.17584969,-0.19091024,-0.5695796,0.07342702,0.017455634,-0.39878246,0.008881689,0.15620139,-0.09736032,0.0203149,0.5341097,-0.26623797,-0.040844698,-0.19358687,0.0027256107,-0.216756,0.09822211,0.23295984,-0.11588448,-0.05956613,0.47857526,-0.12976101,-0.18431655,0.17645451,0.07094775,0.12921844,-0.96409255,-0.03458681,0.2688308,-0.26768598,-0.16433325,0.07605835,-0.006991346,0.02399709,0.21028775,-0.4849501,0.46350732,-0.43566445,0.28550583,0.5070509,0.24192414,0.40208897,-0.27404708,0.64857054,0.05726638,0.3635339,0.08162079,0.2123436,0.5132512,0.34912947,-0.2511079,0.003985129,0.15556082,0.2741462,0.0027790368,-0.0076654265,-0.15581544,0.24467328,0.5482167,-0.13001308,0.3032446,0.18839079,-0.011087396,0.3877329,-0.06085701,-0.24686113,0.36318317,-0.20034362,-0.13426736,0.09495764,-0.2305964,0.11681613,-0.5112577,-0.41082048,0.19784868,-0.2014623,-0.030636799,0.10884951,-0.05798564,-0.66066027,-0.15566944,0.27851728,-0.0655328,-0.24182168,-0.44715777,-0.08462052,0.21660167,0.1265034,0.26998535,0.17285411,0.03169564,-0.19867052,0.048321906,-0.11913972,0.6260889,0.3383006,-0.34361345,0.3524751,-0.29788902,0.11567124,-0.23804878,0.5480095,0.524244,0.0022335695,-0.25073555,0.3766474,0.017286433,-0.3596274,-0.15019077,0.15036607,-0.14075886,0.18070894,-0.03756925,0.88451535,0.31468397,0.09591924,-0.12651333,0.35917845,-0.15001455,-0.37889397,-0.12699197,-0.057285186,0.3641795,0.4032278,0.004546073,-0.16275133,-0.26188818,-0.04438237,0.1031295,0.26007026,-0.35005525,-0.5097857,-0.14347693,0.472412,0.30654973,-0.09927925,0.09619058,-0.08858916,0.09248164,-0.33976087,-0.060026195,0.27096948,0.11207273,0.107224494,-0.054410264,-0.034984313,0.2629012,-0.13714936,-0.20238753,0.18212734,0.12465762,0.5731325,0.3012006,-0.24299112,-0.16071847,0.09124475,-0.24873818,-0.08407114,0.16351289,-0.2566075,-0.0094867945,0.31878522,-0.16315973,0.09416025,-0.043832228,0.06960912,0.075789616,-0.02512003,0.019253293,-0.12873591,-0.23798414,0.45444497,0.14454226,0.18820024,-0.073740885,0.1292992,-0.39055842,0.20533635,0.09242258,-0.40441716,0.1579424,-0.0066128424,0.05074002,0.12899728,0.139619,0.14506638,-0.30780652,-0.23128442,-0.17687948,-0.12681438,-0.1122701,-0.12514293,-0.11722265,-0.15008725,-0.252578,-0.22131026,0.17450254,0.11981631,-0.05425743,0.19149268,0.018303318,-0.2877888,0.11589937,-0.041028887,0.056265704,0.10964439,-0.35860145,-0.032077722,0.025723638,0.16640577,-0.1765182,0.10955542,0.08847857,-0.15119067,-0.008799603,-0.30331382,0.33027416,0.10226643,0.24368586,-0.15096278,-0.098604515,0.20250477,-0.08497705,-0.33919385,-0.099954724,-0.16486637,-0.08678286,0.0657113,-0.096491046,-0.011868982,0.31270754,0.12965831,-0.08745125,-0.037139904,-0.21279818,0.041082643,-0.11260021,0.014296658,-0.12014129,0.32327315,0.46923292,-0.23469712,-0.10036159,0.13112532,0.46605167,0.08179347,-0.2746282,-0.15509589,-0.1323942,0.037158158,-0.08373262,-0.00016163729,-0.4260469,-0.15740007,0.20452817,0.27680048,-0.032865547,-0.026935805,-0.20427436,-0.07930243,-0.00700905,-0.16518013,-0.04305569,0.36379948,-0.1637754,0.00011095414,0.10821708,-0.05955447,-0.20029399,-0.53036827,-0.13327616,-0.063921325,0.07382564,0.25545684,-0.28445584,-0.19184488,-0.023198614,-0.36304936,-0.13224995,-0.26334906,-0.3299912,-0.0924628,-0.7378753,-0.3304943,-0.18295276,-0.4188544,-0.24778068,-0.07793997,-0.21015468,0.09383358,-0.2033346,-0.52516186,0.03750468,-0.61940414,0.020264123,0.26161107,-0.3346595,-0.108081356,0.18082006,0.18087043,-0.3236534,0.30100325,-0.26663586,-0.19857818,-0.1150475,-0.22306171,-0.46494976,-0.32278544,-0.25103542,0.3484654,-0.19503261,0.3035327,-0.13268451,-0.07654386,0.3882675,-0.39134315,0.2726349,-0.2422648,-0.17374183,-0.12005403,-0.440835,-0.3129427,0.16507362,0.0648914,-0.2091472,0.010625065,0.06977156,-0.17382832,-0.67071426,-0.384822,-0.061717805,-0.19085044,-0.4508001,-0.13047458,-0.0038288913,-0.37986642,-0.39410758,-0.13159813,-0.33792418,-0.13517985,-0.3365138,-0.36946386,0.1551111,-0.3547036,-0.031844683,-0.013166912,-0.3911651,-0.46617126,-0.22141069,0.0028227072,0.027849056,0.1628212,-0.11605498,0.047717374,-0.2804335,-0.23034635,-0.16673034,-0.034163762,0.049465187,-0.33149323,0.36639512,-0.20483947,0.07250612,-0.41967267,-0.36459848,-0.081066824,-0.21421643,0.14780979,0.220655,0.25807974,0.37795585,-0.2715691,-0.06604223,0.05951509,-0.40103564,-0.27486652,-0.052730486,-0.10115492,0.06158421,0.021766165,-0.056330357,-0.36119434,0.18763752,-0.18117188,-0.14981039,0.20586067,0.031659603,-0.1036361,-0.098562375,-0.3425011,-0.106190816,-0.23696359,-0.15281959,-0.32273766,-0.27561563,-0.3519862
-0.0023796454,0.072110705,-0.18087961,0.02234447,-0.15102732,0.2425724,0.004587169,-0.12932931,-0.05384814,-0.16036253,0.066257626,-0.07789166,-0.1469025,-0.05501008,-0.19194162,-0.024857424,0.14397134,-0.08470991,0.12532869,0.023094729,0.008548559,0.05593594,-0.107796185,-0.3122132,-0.1408685,0.08450899,-0.055384953,0.094827995,0.024191942,-0.09058483,-0.3615535,-0.0035986686,-0.19386268,-0.19657643,-0.18286283,-0.13892344,-0.18393661,0.08385644,-0.25528604,0.1267763,0.10869022,-0.28772134,-0.22841433,-0.20598802,-0.15903407,-0.1030542,-0.022564573,-0.28828177,-0.030599797,0.20505339,-0.14771406,0.08719878,-0.3333202,-0.03775822,0.0465159,-0.28941545,-0.04155596,-0.07699652,0.1442084,-0.26314867,-0.3501952,-0.25303116,-0.53975,0.09331763,-0.23456419,-0.38027322,0.037933927,-0.18094236,0.10629587,-0.03781207,-0.21482733,-0.31227842,-0.068631954,0.1778733,-0.15107964,-0.030023897,-0.09978539,-0.029679213,-0.32231113,-0.35622385,0.020152982,-0.10027999,0.1534384,-0.025619494,0.11776043,0.02532409,-0.19944625,0.29984367,-0.13360722,0.19546491,0.27658975,0.058068536,-0.06792073,-0.04319177,-0.09197667,-0.19470474,-0.086142085,-0.27092463,-0.1539926,-0.16593513,-0.14460826,0.11217951,-0.5031354,-0.1610594,0.16020082,-0.08220429,-0.81238747,-0.15720122,0.0058096605,-0.2554847,-0.2684359,-0.038623363,-0.1859664,-0.097187124,-0.13762029,0.11291036,-0.24777658,-0.28350234,-0.097053625,-0.42561334,-0.07441695,-0.25941217,0.07786057,-0.06918572,0.022763867,-0.022180593,0.17250913,-0.0726373,0.08285755,0.002056582,0.4412841,0.26849234,-0.17767827,-0.094124205,-0.099495605,0.027902642,0.40859723,0.011042413,-0.27056947,-0.00811979,0.050299693,0.15186638,-0.07092466,-0.0030132844,0.1749403,-0.32924294,0.031927925,-0.016040297,-0.16545804,-0.088216275,-0.01649693,0.17835088,-0.086617805,-0.43486005,0.017854057,0.15453215,0.15526856,0.28183508,-0.20985009,-0.00027200943,-0.1363006,-0.13641472,0.23327418,0.023037693,0.09255742,-0.09503476,-0.22979169,-0.044839434,0.26236123,-0.42442033,0.124684244,0.19396672,-0.098549485,0.057655428,0.1558227,0.36408848,-0.010691026,0.16739915,-0.080277756,0.19449642,0.16374266,0.012484979,-0.24395365,-0.095181435,0.3145874,-0.09157453,-0.11072781,0.08453249,0.2320913,-0.1829913,-0.34778914,0.03229776,0.14839132,-0.16270515,-0.07108329,-0.36841452,0.017540324,-0.46022353,-0.16648166,0.41716012,-0.20919815,-0.30304018,-0.0100896675,0.24096961,0.075030334,0.17925861,0.02197656,-0.2824045,-0.18500426,0.14618851,0.20143355,0.06298382,-0.11653384,0.21896797,-0.4733837,0.15985946,0.016474273,0.048924047,0.52992857,0.008950026,-0.020186659,0.12317614,-0.25188145,-0.1889643,-0.17824894,-0.4813404,-0.0067610196,-0.25599816,0.3236026,0.10923848,0.2586985,-0.00630431,-0.07461958,0.031563498,0.0061135776,0.29673576,-0.35094023,-0.0229575,0.09871722,0.06834761,-0.08012234,-0.07696493,0.05374689,-0.25851345,-0.02091226,0.009665035,0.06964164,-0.24758646,-0.042209998,0.03815671,0.08992017,-0.39068726,-0.20511511,-0.11898102,0.028513046,-0.08836945,0.11470645,0.27299666,0.34015226,-0.27986494,0.1510355,0.14471136,0.03476317,-0.017196314,-0.032860886,-0.44947362,0.20660093,-0.064025976,0.01552725,0.060767118,0.248147,-0.07406802,-0.13044177,0.1506478,0.25901848,0.07510502,-0.17464964,0.2570972,-0.04649225,0.23580141,0.015763018,-0.17187294,-0.044792686,-0.07692947,-0.124791674,0.10020499,0.007378694,-0.14731663,0.43866208,-0.29692146,-0.12432138,-0.0050042877,-0.032322023,-0.106922746,-0.2301061,-0.1851741,0.2445157,-0.3624402,0.03639772,0.11710135,0.075670846,0.07571731,0.14953789,-0.1913768,0.16180551,0.033137865,-0.013953423,-0.13061354,-0.112090275,0.19054648,0.20557083,0.09673694,0.21396698,-0.1594325,0.22117317,0.022974683,-0.012846984,-0.008842311,0.18402752,-0.00047562455,-0.038394343,0.003573086,-0.44404584,0.088925846,-0.09542822,0.116136104,0.11804951,-0.23436248,0.17061785,0.040127717,-0.18326308,0.039247505,-0.08324962,0.08901708,0.18057938,0.14540368,0.09203294,0.26559442,-0.16101263,0.30698922,0.12847817,0.114372574,0.055528834,-0.0642178,0.16094974,-0.0703986,0.0723592,-0.020577632,0.34733686,-0.36640978,-0.22371195,-0.23212224,-0.013498572,-0.13023873,-0.00087859563,0.16465963,0.0013353472,0.23090132,-0.016380649,-0.11221111,0.40528667,-0.19322784,-0.07243599,-0.39357808,0.12772499,-0.46352673,-0.052475955,-0.09981137,0.35156864,-0.036653034,0.47298157,-0.02048771,-0.018852174,-0.13994381,0.40695605,0.40297246,0.0015798802,-0.21911594,0.0848001,-0.019074293,0.42326736,0.0073631597,-0.13084874,-0.23643662,-0.10895661,-0.3442213,0.19940345,-0.21423882,-0.16528171,-0.3773525,-0.42865485,-0.061911542,0.0987813,-0.098498784,-0.12881505,-0.22320105,-0.29211757,0.015106499,-0.09809569,0.016584873,-0.1946874,-0.22802727,0.049043067,-0.21434467,-0.1270872,0.008886528,-0.17871152,0.06682162,-0.25570163,-0.20767996,0.028863482,-0.067125775,-0.24954797,-0.21993954,-0.22334102,-0.23997752,-0.0525357,-0.09403632,0.07741574,0.052241426,-0.03658189,-0.24983443,-0.34425437,-0.44584888,0.0356457,-0.07076607,0.14550477,-0.26374862,-0.108967215,-0.31809345,-0.00567461,-0.11160874,-0.18223365,-0.40103966,-0.0024196543,-0.091181256,-0.06599875,0.00661706,-0.22340974,-0.22727038,0.059078746,-0.054908678,-0.13890348,-0.17910391,-0.06852133,-0.19300818,-0.05280582,-0.27593994,-0.16601342,-0.39569554,-0.05731732,0.05931909,-0.2604234,-0.41623583,0.013789109,0.046721626,-0.18268706,-0.052858487,0.1317432,-0.31097677,-0.19284554,-0.07077158,-0.12094533,-0.6889272,-0.21373743,-0.013834924,-0.32536092,0.018640589,0.09252873,-0.30082324,-0.29505497,-0.28723773,0.031108046,-0.10465052,-0.17856614,0.05296241,-0.13183734,-0.07697071,-0.18023075,-0.12926203,-0.02191594,-0.15276334,-0.2262055,-0.24592286,0.1982324,-0.072724216,0.08122228,-0.21404867,-0.032216765,-0.6280781,-0.17918418,0.19654256,-0.20796894,-0.052664854,0.09851574,-0.11427038,-0.14062981,-0.32235485,-0.3467851,-0.51982427,-0.17498665,0.047179308,-0.20755921,-0.067366175,-0.04980869,-0.3606506,-0.11476811,0.0016612988,-0.2689553,-0.26478785,-0.21303202,0.03950098
-0.22943358,-0.18727884,-0.6021131,-0.012169207,-0.40425792,-0.27247095,-0.15478328,-0.6979383,-0.18094255,0.0015385828,-0.18573566,-0.46277288,-0.42987594,-0.55020565,-0.4090469,-0.2425262,0.027799746,-0.5578243,-0.31401193,-0.791593,-0.45612392,-0.52565324,-0.1825392,-0.33145297,-0.58387476,-0.67691743,-0.9876359,-0.4339677,0.15349767,0.023572627,-0.002352658,-0.11974705,0.020210074,-0.10875917,-0.3302884,-0.14953235,-0.24791725,-0.3231738,-0.12037818,-0.47064412,-0.22136569,-0.34699526,-0.3109163,0.000553541,-0.37414935,-0.35024917,0.07631798,-0.22741848,-0.26828375,-0.41495338,-0.15907405,-0.812322,-0.35719752,-0.044562817,-0.4153402,-0.2972761,-0.71374965,-0.06493081,-0.18561377,-0.13974442,-0.32042867,-0.4696043,-0.12771986,-0.71038955,-0.394809,-0.08027638,-0.5158098,-0.2309994,-0.47861686,-0.43987334,0.05404768,-0.18552034,-0.18203679,-0.59611034,-0.30238885,-0.17771976,0.07014117,-0.5137368,-0.41296458,-0.70939374,-0.15045537,-0.49849418,-0.19974789,-0.638497,-0.3189713,0.06303515,-0.30867517,-0.51093316,-0.5932439,-0.20546392,-0.052057125,-0.13286239,0.31565648,-0.3351977,-0.55425817,-0.24598905,-0.10279943,0.048187256,-0.33948535,0.13615716,-0.3584473,-0.31961295,-0.4524519,-0.3246539,-0.42985734,-0.41407967,-0.4578425,-0.19819891,-0.5193331,0.14010303,-0.29404607,-0.14953618,0.01352048,-0.08426038,-0.7126764,-0.43893647,0.15054052,-0.29419777,-0.4632969,0.14083685,-0.6379548,-0.44881925,-0.51837754,-0.099749684,-0.78552055,-0.7552031,0.04075959,0.088032834,-0.3068474,-0.16719255,0.14795431,-0.36124888,-0.2387403,0.40383402,-0.07139053,-0.20733804,0.2629589,0.14844002,0.19235498,-0.206714,-0.08527227,-0.27550372,0.07771549,0.7683622,0.44269228,0.38802466,-0.13515106,0.084943175,0.13842736,-0.19803256,-0.14830545,0.19220509,0.22626196,-0.17503844,0.14494756,-0.12230601,0.48966366,-0.037134666,0.10299358,-0.17816252,-0.0050242245,-0.43859813,-0.11001746,0.20167303,0.2764781,0.107213855,-0.02915662,0.16949281,-0.3414357,0.016753228,0.318996,0.124272175,-0.22008836,0.21439861,-0.27301592,-0.07663622,-0.00017976091,0.41424555,0.11681419,0.32378623,-0.17175007,-0.16222368,0.2891204,-0.4817688,-0.24139865,-0.17346461,0.06658418,0.018746037,0.24711123,0.22378705,-0.052741103,-0.05217832,-0.0015768823,-0.2702253,-0.12429459,0.05146389,0.13859504,0.28404686,0.22220767,-0.37926427,0.14081973,0.27437642,0.45995513,0.30022547,-0.1007525,0.30999327,0.034370236,-0.5897426,0.30627394,-0.26004162,0.27799934,0.082172036,0.4299933,0.008345788,0.17746267,0.22820002,-0.43094808,0.5951443,0.11396971,-0.24165583,-0.65145415,-0.12863359,0.050695606,-0.10149264,0.16629915,0.7286173,-0.16616508,0.092138775,-0.38186422,0.035849657,-0.31416523,0.04713809,-0.18461308,-0.016776742,0.2223016,-0.21775307,-0.062382154,0.011482507,-0.040907476,0.25849304,-0.14451271,-0.44484422,-0.24247944,-0.0068773376,0.17937456,0.49668398,-0.37740824,0.059507538,-0.03043746,-0.03523634,0.16546693,-0.076993845,0.26579806,-0.18527561,0.16948132,-0.042982362,-0.18477632,-0.16894674,-0.06623787,0.26208153,0.076357,-0.140867,-0.2864735,-0.046766467,-0.22016922,-0.19321454,-0.31791413,0.13668731,-0.088503465,0.09267704,0.077401556,0.001492669,-0.19233856,-0.043768566,-0.19237496,-0.46471748,0.029774511,-0.12535763,0.07502129,0.057115924,-0.02588993,-0.09903558,0.2075083,-0.08203427,-0.021480475,-0.010770503,-0.07454975,-0.039095324,-0.12284719,0.21835026,0.20669807,-0.020264009,-0.3323465,0.032066353,0.14728598,0.1926215,-0.06247365,0.24101691,-0.11151034,-0.016586978,-0.040020645,-0.28700078,-0.06764523,0.021794872,0.014954845,0.03984351,-0.010843684,0.21395291,0.018683702,0.100041926,0.0024610916,-0.1265046,-0.007425802,-0.018496756,-0.15242052,-0.049172517,-0.19459927,-0.14845386,-0.38370645,-0.039008718,0.040305763,-0.17024681,0.04332192,-0.016569614,-0.023574827,0.28899738,-0.13053982,0.16739477,-0.13994935,0.050362814,0.103953466,-0.024990244,-0.19265133,-0.031749174,-0.024161559,0.059973665,-0.017350439,-0.0474163,0.21616885,-0.44306192,-0.033692233,-0.12250046,-0.049191862,-0.09559091,-0.20381531,0.15440656,-0.090061635,0.04302464,-0.24495608,0.14522831,0.4402924,0.042816233,-0.19377953,0.04916028,-0.015188709,-0.36716655,-0.11747824,-0.3184323,-0.054761346,-0.15366523,0.096601754,0.12001867,-0.038903333,0.1785748,-0.016009668,0.12566243,0.029185731,0.094922625,0.08395674,0.05906818,-0.071322896,0.12669362,-0.035570953,0.17406312,0.116494976,0.27500063,0.053826746,0.15273991,-0.067258336,0.0078524435,0.23716746,-0.071763635,0.03367004,0.1639416,-0.38945076,-0.083694264,-0.1879655,-0.2474878,-0.49266025,0.08589951,-0.013869433,-0.5580907,0.080763765,-0.105836086,-0.253305,-0.31676084,0.17180131,-0.2962938,-0.7751873,-0.35885885,0.06392763,0.10984025,-0.4470451,0.055908393,-0.07637771,-0.5935014,-0.110863246,-0.37587792,-0.046762466,-0.42648786,-0.11463807,-0.06544209,0.18922079,-0.08743744,0.0583531,-0.43450812,-0.13344452,-0.5272173,-0.47283646,-0.47176197,-0.23286372,-0.20277539,0.0938345,0.2426253,-0.30041015,-0.21670341,-0.19907106,0.07258458,-0.55136967,-0.18116058,-0.26129305,-0.27105358,-0.17619282,-0.052533146,0.16042958,-0.05427424,-0.2857523,-0.386758,0.034586012,-0.85453486,-0.7273966,-0.16665298,-0.10850134,0.040889483,-0.3989713,-0.0684729,-0.21621493,-0.58931786,-0.15796494,-0.29389355,0.0364335,-0.24098897,-0.15008013,-0.33621794,-0.28531137,-0.27234155,-0.2825925,-0.055410065,-0.109944485,0.41495806,-0.16159812,0.11400537,-0.23729686,-0.68194574,0.02550517,-0.38226414,-0.041629873,-0.0229751,0.22671852,-0.09268951,-0.376602,0.05326969,-0.5615853,-0.044531398,0.0924374,-0.32216653,0.17986129,-0.45288712,-0.54130495,-0.30258355,0.05319956,0.016569402,-0.08486335,-0.031050844,-0.43773916,0.027400525,-0.4705882,-0.07320485,-0.37413576,0.032170292,0.08456765,-0.10308094,-0.2172383,-0.09883865,-0.6701877,-0.1252889,-0.46444413,-0.081195526,-0.648915,-0.021853661,0.058346532,-0.048128847,-0.5423504,-0.2808295,-0.66281,-0.18681154,-0.15230179,-0.24371968,-0.22169863,-0.70347345,0.35394895,0.050565846
0.13493563,-0.19436988,-0.007038045,-0.21478185,-0.2811903,0.12058663,0.034719482,0.050034877,0.5663309,0.027085576,0.13870893,0.121661395,0.40802613,0.19178471,-0.33538264,0.2788261,-0.46366006,-0.067739725,-0.14710441,0.17289121,-0.17497993,0.40722904,0.106068544,0.083831325,-0.09049529,-0.05867385,0.15968576,-0.33314285,0.13757132,-0.009167394,-0.4002082,0.04347646,0.39902943,-0.0037174253,-0.21348673,0.20933408,0.24237224,-0.06223247,-0.014583789,0.5083143,-0.20317751,0.116782844,-0.32117245,-0.17258973,-0.028146852,0.40707675,-0.3920467,0.24125722,-0.09334265,0.06549704,-0.45081142,0.38511854,0.545278,0.18249391,-0.4430601,-0.14167358,0.10635065,-0.019168312,-0.3871939,0.2913533,-0.067237236,-0.25756514,0.10091323,0.050556116,0.31941864,0.105046295,-0.32943457,-0.013431644,0.14494072,0.1305825,0.009643769,-0.30768055,-0.33511594,0.017605582,0.46587664,0.017559214,-0.23597896,-0.08426443,-0.22686824,0.09590113,-0.20282955,0.13762394,-0.17758024,0.3380128,-6.620775e-05,-0.03867673,-0.06461894,0.22868505,0.3783379,0.1272165,-0.74501735,0.080931105,-0.6064132,0.3521887,0.042443424,0.04954202,-0.013243867,0.17093779,0.26266384,-0.26936185,-0.35698295,-0.076797165,0.046496503,0.3320398,-0.072531484,-0.091735475,0.2234998,-0.0049134204,-0.27011892,0.103650875,0.038227707,-0.273535,-0.10436086,-0.07767536,-0.05538806,-0.07403183,0.28323776,0.6184441,-0.04032447,0.028121496,0.23339848,0.16233557,0.36616835,0.55061907,-0.08927869,0.34047398,-0.17586103,0.29943383,-0.076912716,0.076067306,0.0006208391,0.06611787,0.14116584,0.43591672,-0.07532186,-0.15530084,0.07113381,-0.050158158,0.20199315,-0.31243894,-0.045630302,0.0628445,0.1971885,0.037360497,-0.450467,-0.063230604,-0.11189023,-0.114818536,-0.12289054,-0.0227531,0.2224684,-0.017213529,-0.007577515,0.24869399,-0.06982371,-0.101489544,0.039084703,0.033913597,-0.026385026,0.31949487,-0.00018012131,0.328409,-0.03517976,-0.19024996,0.1379181,0.020318486,0.21247612,-0.1767408,0.20811737,-0.10787822,0.19889244,-0.025656788,-0.049297705,0.041305806,0.050053243,-0.020595293,-0.20571525,-0.1863665,0.36514965,-0.11812537,-0.40860885,0.15007457,0.16161148,0.37375373,0.083804704,0.23143035,0.3872009,0.10453018,0.18886316,-0.06624859,-0.16504185,0.108024135,-0.17061768,0.04832993,-0.039822098,0.24117848,-0.3712255,0.18318807,0.15691094,0.13867825,0.19519117,0.16859789,0.14107062,0.22171243,-0.060744215,-0.1644977,-0.029101094,0.08837173,0.02822796,0.1657901,-0.23901789,0.17953607,0.18914244,-0.31058472,0.13819608,0.10260743,0.24315435,-0.31597522,-0.52793187,0.06956645,0.48061815,-0.44955692,0.07793502,-0.09490009,-0.15894844,-0.36810407,0.057071403,-0.08725573,-0.14468068,-0.415982,0.24281883,-0.24560824,-0.111947276,0.12595859,-0.2665351,-0.05242946,0.019812187,-0.0715018,0.26804957,-0.24290247,0.06358123,0.09041693,0.046475824,0.19417942,0.07713971,-0.2450562,0.17053078,0.06924458,0.07269852,-0.077153675,0.30171683,0.25693783,0.22004992,0.120448835,-0.11886704,0.06189073,-0.09298119,0.20898545,-0.120943755,0.023862055,0.017134264,-0.3093302,0.44184774,0.15951706,-0.0052771205,-0.00013711877,0.13855791,-0.68998396,0.16347845,-0.09140499,0.10914351,-0.092918634,0.22560431,0.021221058,-0.018282253,0.16223459,0.17701547,0.5242081,-0.34982273,-0.19336766,-0.07948896,0.27320725,-0.05431295,0.10673951,-0.12960233,0.04265265,0.11990126,-0.011397471,0.18778542,0.1644382,-0.010816688,0.40205798,-0.011116246,0.21601185,0.32112342,0.079882264,0.052737944,-0.1082168,-0.10430931,-0.06807067,-0.05402418,-0.26961264,-0.07345284,0.26583353,-0.060258232,0.12730008,-0.058177732,0.2898457,0.20353016,0.3159111,-0.09664089,0.11809817,-0.1389283,-0.13533074,-0.09813199,-0.29146487,-0.065987244,-0.19142655,0.041244663,-0.19212791,-0.019235011,-0.02731694,0.030173428,-0.008738481,-0.027572287,0.16484688,0.2506436,0.002663555,-0.030679122,-0.11595009,-0.004381914,-0.21559489,-0.17770615,-0.31770387,0.16258034,0.041398212,0.3197379,-0.13969137,0.10965112,0.09106518,-0.023142835,0.1598437,0.15828179,-0.16354746,0.14961648,0.17553434,-0.30675054,-0.35235682,0.14929825,-0.41987285,-0.086902045,-0.14132097,-0.095857464,0.11537635,0.083474666,-0.2174309,-0.037700694,0.20804685,0.06739638,0.24658152,-0.039261643,0.1443715,-0.07837088,0.17721282,0.04055308,0.41660675,0.02248378,0.010099316,0.16086882,-0.27177122,-0.41268092,-0.4129225,0.005079483,0.21624628,-0.18922094,-0.06483593,-0.1739946,0.029748054,-0.07930601,0.39151487,-0.039741974,0.032920398,-0.21815905,0.03768441,0.20387372,0.00820842,-0.053748984,-0.08224854,0.2666312,0.20578364,0.1422506,0.20458455,-0.092201784,-0.14023516,0.2595773,-0.3450885,0.21692543,0.40846956,-0.0674192,-0.24041313,-0.2870248,0.38754126,-0.07703536,0.009818768,0.19236563,0.34603748,0.30448145,0.06737962,0.14040364,0.278647,-0.07413798,-0.08416715,0.39135012,0.07095361,-0.13513052,0.5853658,0.34487212,0.15862665,-0.16719335,0.068487,0.5555605,0.030350538,-0.034866273,-0.33436614,0.23366338,0.07916118,0.10787598,-0.14101724,0.12710105,0.09901244,-0.007879786,0.18523836,-0.13845628,0.11818584,0.32318035,0.22434509,0.20082486,0.31357148,0.07789479,0.001989947,0.28991643,0.124155566,-0.2600057,0.13464318,0.010564901,-0.22931014,-0.1426279,0.43162304,0.095645964,0.0031875693,0.13937028,0.20128846,0.1869209,0.23090798,-0.072746366,-0.067155465,-0.20681462,0.141283,-0.07188633,0.18247186,-0.21146551,-0.08920736,0.033412628,0.12804335,-0.018557403,0.1139413,-0.09848857,0.018988494,-0.1824391,-0.09892995,-0.19626744,-0.03142626,0.4309947,-0.29001254,-0.36932808,0.30397302,-0.6198155,0.23516646,0.3107456,-0.12579882,0.06422687,0.25065687,0.30711958,-0.02117745,-0.30890217,-0.24484704,-0.006028624,0.050934665,0.055003006,-0.081889704,0.06277868,0.061274644,0.02923138,-0.024412734,0.23514353,-0.107305154,0.02262896,0.06638366,-0.43308735,0.100424744,0.27651814,0.0076037375,-0.14611398,-0.18188511,0.31697166,0.091804065,0.24412456,0.24170254,0.06458072,0.43885276,-0.30024976,0.121688575
-0.16396229,-0.20138556,-0.5588916,0.41057345,-0.12089207,0.13521887,-0.10942389,0.0055608163,-0.23507498,-0.096694306,0.15594377,-0.12177591,-0.013596946,-0.090251304,0.073934816,0.056358296,0.8683469,0.01182996,0.1399729,0.0013559284,0.10621778,0.1727289,-0.082729384,-0.55842227,0.18466365,-0.364782,0.36708295,0.14549395,-0.09250794,0.19317529,-0.060790155,0.1714099,-0.2028763,0.02769063,-0.19505438,-0.12511665,0.11419372,-0.087745205,0.2938478,-0.033308107,0.08428717,0.092583425,0.045678433,0.11640004,-0.116378516,0.1334534,0.12568568,-0.1836146,-0.2320313,0.62444764,-0.15873846,0.15924886,-0.36193034,-0.21204147,0.98726755,-0.19929865,-0.2142123,0.049829613,0.20730114,0.21878847,-0.04668379,0.081821546,-0.083545566,0.38796297,-0.09684339,-0.20724605,0.12940931,-0.11629717,0.38146615,-0.06480445,0.019448942,-0.4238583,-0.053022802,0.33805436,-0.13639864,0.10292783,-0.2787254,-0.1128727,0.3029154,-0.42348245,0.0008450801,0.04511983,0.61312944,0.083582036,0.012739054,0.74694103,-0.25163224,0.52927077,-0.20296603,0.49713725,0.51010257,0.16660392,0.08288813,-0.14889254,0.24162848,-0.31242946,0.055577613,0.020099217,0.29061314,0.012237887,-0.09540721,0.27443764,-0.039791457,-0.24824776,0.0108742155,0.06884168,-0.00227388,-0.066819064,0.15254682,-0.39389503,-0.40937355,0.24860474,0.08218813,-0.23196374,-0.18411784,0.11082118,-0.067071564,-0.124799244,-0.036198467,-0.08687289,-0.0128822485,-0.16216026,-0.06294527,-0.14148062,0.1174173,0.18512556,0.09324372,-0.15432179,-0.04047703,-0.15981281,-0.0469331,0.37952062,-0.13706216,-0.43281096,0.33915132,0.4246419,0.3891301,0.09838706,-0.08896917,0.3424073,0.30523163,0.4932546,-0.024048673,-0.12315128,0.4065432,-0.4894309,-0.039466243,0.69460994,-0.33275503,0.49159577,0.046148993,0.08908683,0.24429184,-0.09912219,0.052701194,0.18636844,-0.046469536,0.36757496,-0.23851362,0.22924305,0.22498311,0.54920095,0.10423734,0.2442146,0.47516912,0.12305476,0.07519737,0.454988,0.28203955,-0.016678784,-0.08930578,0.07059663,-0.09835702,0.22847916,-0.023245888,0.24751107,-0.053531684,0.20639496,-0.32827842,0.1538148,0.29124644,0.15467724,-0.22586271,0.14156179,-0.019744763,-0.13266009,0.084699966,0.008194381,0.2733439,-0.14420725,0.06777293,0.030966599,0.14144571,-0.15821812,-0.31431234,-0.4492443,0.22105172,-0.29647833,-0.45846066,0.03894284,-0.13583234,-0.091494955,0.19926196,0.31640223,-0.07661798,0.18940073,-0.04809514,0.08383074,0.02670695,0.29384235,0.16748138,0.14900056,-0.5405657,0.43081266,-0.25311452,0.34321263,0.124757506,0.0036515922,0.12397192,-0.20533256,-0.16046607,0.37368748,0.09860405,-0.18846607,-0.10018821,-0.53368264,-0.06046429,-0.040459476,-0.37533015,0.2611066,0.105223075,0.29052567,-0.028656181,0.5761722,0.25404593,0.2138144,-0.17643161,0.013595523,-0.015227949,-0.026065234,0.19051555,0.07702713,0.14499238,0.14508285,0.11688491,0.13361876,-0.047055982,0.010622892,0.25322974,0.38568294,0.17324314,-0.022484798,-0.42655703,0.16108675,0.47060072,-0.18126732,0.124205135,0.54793453,0.07675756,-0.1891339,-0.011049294,0.27883142,0.030850422,0.24577408,-0.19860543,-0.2841135,0.23973633,0.14608337,-0.3901918,0.056283597,0.15655491,-0.07590146,-0.3473362,0.11383592,0.015507051,-0.14474884,-0.16701008,0.042555425,-0.37661174,0.03692325,-0.03527861,0.059726972,-0.08818214,-0.20639835,0.13610229,-0.42461985,-0.13737689,-0.013641196,0.4382575,-0.2676847,0.084541924,0.25784782,0.06771941,-0.27572918,-0.37882742,-0.029273435,0.3564825,-0.15124536,0.18532847,0.5166298,0.118256725,0.004777402,0.050006494,-0.35115805,0.3869125,0.06590068,-0.271852,-0.043999933,-0.18569319,-0.00925735,-0.0388269,0.06684032,0.33582214,-0.35226476,0.18698177,-0.19992234,0.17453746,-0.04915532,-0.0019764176,-0.13083257,0.27509612,-0.17114058,-0.4258814,-0.13165191,0.007886212,-0.32984146,0.11705373,0.09999559,0.17728753,0.012150953,0.14573017,0.16758731,0.17064868,0.055811744,-0.22450241,0.32102922,-0.054856773,0.13690689,0.0956311,-0.077062264,-0.093815796,-0.36879182,0.06393104,0.08102479,0.37706852,0.21321778,0.26231816,0.08796415,-0.004325719,-0.0095809,-0.17018117,0.047021016,-0.1667931,-0.27676067,0.017419111,0.107270226,0.43406302,-0.12063242,0.1540212,-0.45875525,0.26529232,-0.12631339,0.2050042,-0.36823517,-0.0128279505,-0.28388706,-0.3188914,0.0060084783,0.16498451,-0.27111134,-0.10447639,-0.2368279,-0.15916976,-0.30496144,0.21081337,0.22175068,-0.39268512,-0.16844125,-0.04663553,-0.085690476,-0.122713685,-0.023695773,0.053130027,-0.03885292,-0.3077712,-0.40403128,0.18771575,0.3108045,-0.28700078,-0.46103054,-0.0883834,-0.067302145,0.29808968,0.08209498,-0.007879654,0.121191755,0.13007526,0.1277335,-0.043097947,0.16341074,0.78799856,-0.34923723,-0.2384653,-0.062015966,-0.26990113,0.020452738,-0.23349966,0.25033408,-0.29227462,-0.42300618,-0.13061294,0.027211227,-0.2723474,0.08976461,0.016973995,-0.17070709,-0.09643024,0.16990684,0.064782575,0.1620528,-0.05494522,-0.32241055,0.16336381,0.14329109,0.19770013,-0.18898514,-0.1934433,0.16039082,-0.09473249,0.07967332,-0.06693115,0.31917763,-0.28792742,0.09273608,-0.12346644,0.052936796,0.23037302,0.2515016,-0.02116672,0.03586261,0.0708351,0.050021324,0.3893044,-0.05512716,0.11258303,-0.022273289,0.50958705,-0.120962515,0.08580514,-0.2934553,-0.06597588,-0.28018418,0.11223596,-0.071228385,0.18312567,0.19910716,-0.1820412,-0.023103941,-0.28241044,0.1769656,-0.26323375,0.10805016,0.27326217,-0.44476137,0.086793475,0.16473621,0.16701008,-0.11580495,-0.38809332,0.21126044,-0.1833345,0.18827832,0.25124577,0.21410532,0.4978424,-0.01054648,0.48658004,0.16377051,0.056123793,-0.34789386,-0.1087951,-0.3767128,0.011576191,-0.28388837,0.018115263,-0.14785385,0.2232557,0.160475,-0.020668793,-0.013055339,0.24455744,0.07892151,-0.14217351,-0.004514209,-0.0058204746,-0.09839791,0.11102988,-0.025663497,0.12558705,0.048890192,0.15339316,-0.20801729,0.039757915,0.18904273,0.0029672692,0.109995954,0.269674,-0.101446286,-0.35356665,0.072923556,0.04573304,0.073534414
0.07090407,0.3581728,0.5780062,-0.1008837,-0.01855288,0.15525068,0.31582618,0.1931784,-0.20115924,0.28517735,-0.038849745,0.13459203,0.37898356,0.2677131,0.3155211,0.29687455,0.03530979,0.14894617,0.18329978,-0.14981945,0.08947426,-0.08308905,-0.45853698,0.6238503,-0.16119352,0.31261468,-0.30641165,0.5222943,0.016072119,-0.64831877,0.0678859,0.18167815,-0.21470872,0.34664646,0.37320495,-0.17377968,0.023205435,0.163747,0.23279096,0.03418412,-0.28144607,0.18814486,0.33924532,-0.07834902,0.3211821,-0.42242515,0.085498534,0.5762367,-0.050270695,-0.07362285,0.056168515,-0.2463596,0.47139242,0.31761965,-0.20521806,0.031772904,0.36712787,-0.01777563,0.29878402,-0.16016144,0.24427234,0.22507799,0.15821348,0.014676165,0.21955794,0.030748188,-0.22791778,0.10247983,0.016683852,0.37980124,-0.23172289,0.5843108,0.3922336,0.25206837,-0.5323916,0.14822328,0.2003258,0.1593928,0.09141162,0.37520948,-0.13554096,0.04587568,-0.21592464,-0.24453154,-0.13497286,-0.565458,0.21020786,-0.07806183,-0.31695652,-0.26487926,-0.30635005,0.70652574,-0.04045688,0.06334299,0.045737635,0.13698778,0.14977835,-0.17021446,-0.08261905,0.14559181,0.030672861,0.10293824,0.08420246,0.387183,0.10629843,0.27240452,0.33947507,0.16883537,-0.14981301,-0.06951592,0.63161075,-0.39725715,0.052698124,-0.20144135,0.29217142,0.33748743,-0.25498843,-0.20118575,0.27425036,0.18523061,0.14893326,0.15883288,0.031609796,0.026497092,0.251744,0.16769771,0.37078503,-0.38702282,0.05092278,0.057593152,-0.22983676,-0.21356851,0.28713608,-0.11576035,0.026876828,-0.21847513,-0.3581668,-0.4053128,0.0037916964,-0.16551088,-0.4665593,-0.2972573,-0.039528146,-0.4884543,-0.43069366,-0.09369036,-0.18850219,-0.04103475,-0.003037175,0.0052095433,-0.04075904,-0.54233885,-0.42233232,0.31059164,-0.29281208,-0.22012667,-0.07095078,-0.1389029,-0.057841443,-0.25251117,0.17922434,-0.01929659,0.14642543,0.055436417,-0.115763456,-0.012873095,-0.15478797,-0.19465844,-0.1066117,0.38092566,-0.23117556,-0.116085134,0.1900602,-0.47327307,-0.25313655,-0.16366415,0.11148943,-0.4945504,-0.48873562,-0.45301083,-0.22013721,0.029779812,0.057860028,-0.15795438,-0.21439178,-0.36755028,0.036443077,0.018528635,-0.2949142,-0.35540015,0.36798945,-0.0065655317,-0.33884072,0.4842729,-0.32513958,-0.10841404,-0.22887662,0.5565306,0.086190276,-0.03941442,-0.09733873,0.033169627,-0.7411451,-0.29805443,0.14209846,-0.50315094,-0.07475418,0.14417006,-0.28557262,0.025409846,-0.4340836,-0.27252617,-0.07941024,-0.7210105,-0.11512093,-0.3887335,-0.17692478,-0.4813703,-0.57542455,0.3040702,-0.12095413,-0.18496348,-0.10979377,-0.03802429,0.10434907,0.1255814,0.1574111,0.2785505,0.3091186,-0.07179499,-0.2655125,-0.41217417,-0.030330447,-0.3440908,-0.45916316,-0.10207759,-0.18491885,0.33979225,-0.04026331,-0.419378,0.06692455,-0.18101011,0.008862874,-0.14367512,-0.38658917,-0.47800928,0.059472006,-0.28886598,-0.23934212,-0.07444721,-0.18890512,0.28598782,0.30217028,-0.24166171,-0.080696575,-0.19343153,0.32368073,-0.2022488,-0.1741006,0.26064718,0.27942416,-0.124119215,0.20817809,-0.32783693,-0.09850929,0.0017440558,-0.17543407,-0.009893454,0.29327467,-0.36076084,-0.120420106,0.004043655,-0.06479885,0.09202508,-0.2349283,0.07519227,0.12321003,-0.102716506,0.371347,-0.13083048,-0.25733832,0.24601592,0.15623084,-0.04165472,0.1703499,0.06709892,0.10956985,-0.31636763,-0.52384907,0.050726842,-0.2010312,-0.48367116,0.10100062,0.1865747,0.3774145,0.11235604,-0.17155746,-0.020445796,-0.40934187,-0.114359386,-0.23944288,0.1585475,0.33931908,0.13124645,-0.11866186,-0.17272031,0.124043345,-0.16988878,0.25939447,0.35251,-0.087061405,0.07254635,-0.5639116,0.44593933,-0.06627479,-0.15237364,-0.115207486,0.19296955,-0.15827629,-0.06009977,-0.14622116,0.080110595,0.36000952,-0.123831026,0.03906379,0.15383196,-0.100732625,-0.034330267,-0.041056246,0.03703673,0.21355554,0.009398801,-0.08338188,0.07228098,0.06636164,0.12223135,-0.092751816,-0.105748646,0.051614817,0.4982857,0.06520515,-0.014519279,-0.05056435,0.08478923,-0.5555888,-0.1971185,-0.0809391,-0.18945299,-0.110965684,0.14843822,-0.12305014,-0.0903192,0.15906326,0.07915561,0.37968522,-0.087810375,-0.1797669,0.24369586,-0.2339436,0.30334312,-0.36166307,0.08575831,-0.21162185,0.12774022,-0.053661495,0.27829912,-0.14899221,-0.026771765,0.23621333,0.18210138,0.004725659,0.09407572,0.17622343,0.17934729,-0.12261197,-0.33334234,0.22424,-0.00029924425,0.22684138,0.30743176,0.030585203,0.086153075,0.20001855,0.5418042,0.17001024,0.1483192,-0.2792523,-0.09618279,0.10114641,0.03500905,0.558538,0.21508269,-0.7557197,0.015010958,0.03763792,-0.32399473,0.051784866,-0.13236803,0.43472928,0.118100785,-0.2674209,-0.29247624,0.15360388,-0.27095705,-0.22991768,-0.1133636,-0.006940218,-0.4277994,-0.39370856,0.14666711,-0.21300966,0.22962439,-0.0901949,0.17339498,0.048706,0.37778863,-0.061737232,0.13113113,-0.26203343,-0.095649384,-0.17901254,0.020093828,0.025701154,0.110236906,-0.41631478,0.038209867,-0.26719224,-0.19122006,0.4662768,-0.003232461,0.0051091346,-0.031412244,0.20615046,-0.014086282,-0.59870857,0.09360729,-0.07958307,0.23123401,0.08143794,0.060935177,-0.003236528,0.037759844,0.44595596,-0.41253537,0.047468342,-0.001123304,-0.16507918,-0.04795542,0.09367004,0.033201855,-0.37479177,-0.2959356,0.22322647,0.34822264,-0.517152,0.11491398,0.40353292,0.099693865,-0.5062528,0.054612424,0.29193476,-0.09460195,0.27608642,0.30738002,-0.35896847,0.035859037,0.14227405,-0.52165693,-0.28806463,-0.24066786,0.09068773,-0.012078824,-0.13011922,0.1406197,-0.42935854,0.5694271,-0.13738684,-0.3806965,0.019522194,0.22987503,0.21460465,0.011584155,-0.18702209,0.3996349,-0.12763423,0.20186733,0.10667014,-0.049562924,0.040922638,-0.1458256,-0.25728604,-0.10789044,-0.13431183,0.063306615,-0.105526425,-0.111323185,0.0043409215,0.03458161,0.16018488,0.0008883348,-0.5446273,-0.2016303,0.24902087,-0.22890316,0.319594,-0.16379733,-0.05650292,0.24105547,0.16218007,0.2947561,0.03311815,-0.45558226
-0.056996692,0.3265168,0.14003524,0.2867236,0.09002756,-0.20070845,-0.04793227,0.05146167,-0.09758912,-0.087782316,0.051858578,-0.053503722,-0.20581104,0.030806525,-0.12141614,-0.0423391,0.13220522,0.24887423,0.20727834,0.008177692,0.19692925,0.24753214,0.19822606,0.50960857,0.18581212,0.27008384,-0.023073569,0.4959447,0.067910135,-0.02625576,0.10845853,0.32885608,0.18943872,0.42430782,0.5649973,0.3685438,-0.048248537,0.43595007,0.51510274,-0.3408112,0.2518946,0.16880435,0.012461232,0.2835093,0.37376928,-0.58613247,0.6440761,0.32839984,0.19522002,-0.5296041,0.15606125,-0.64872193,0.3256413,0.23111087,-0.005592071,0.052109145,0.3648895,0.08999162,0.26035193,0.23951723,0.06784083,-0.23159064,0.104030594,0.02054937,0.18859357,0.13394284,0.13141721,0.31094378,-0.08435266,0.33859846,-0.13408019,0.3681728,-0.32120454,0.03380703,0.018330779,0.10032141,0.025141263,-0.047389146,0.077819094,0.30352333,-0.2783612,0.0030310852,-0.27913743,0.187732,0.17864452,-0.16473283,0.13991418,-0.10325879,-0.014318555,-0.4545486,0.13721023,0.17997417,0.13962243,0.08155668,0.13182999,-0.11794774,-0.010639318,0.015380515,0.01894193,0.1264503,0.18513095,0.17673504,0.1692439,0.24658175,0.26118195,0.15575542,0.29430047,-0.051038153,0.18078195,0.26061183,0.09684568,-0.004184568,0.36242172,0.13886788,0.36824912,-0.039067574,0.29943946,-0.043439433,0.28653896,0.1437002,0.065331705,0.11241342,0.1237275,0.15229873,0.05476691,0.17288835,0.30689278,0.015846182,0.08175746,0.20346181,-0.4947206,-0.23634772,-0.09125537,0.26323372,-0.07819898,-0.16396627,0.10311464,0.017986128,0.26249373,0.05939659,-0.13948654,0.026392044,-0.18652149,-0.040009424,-0.09905073,0.31180394,0.21404171,0.26844975,0.40712336,0.15935983,-0.11076087,-0.32438385,-0.20198777,0.23696466,0.19492537,0.006064641,0.20278232,-0.12222079,0.099854045,0.29285693,0.26724073,0.2354885,-0.42728165,-0.038180176,-0.10029011,0.24007237,0.3652025,0.25158077,0.06640007,0.057392452,-0.025040925,0.07689488,-0.009712068,-0.51265335,0.09341591,0.0492644,0.41944417,-0.500555,0.11383335,-0.36307004,-0.08638677,-0.19912511,0.3148108,-0.22840692,-0.2671224,0.073804036,0.2996632,0.011427596,-0.07910727,-0.14030601,0.2535661,-0.19653475,0.06281935,-0.10971249,0.33877766,0.21365602,0.08737842,0.14288424,0.022701073,-0.20046352,-0.06667201,0.3686064,0.004648057,-0.16923203,-0.07386689,-0.43916634,0.22189198,0.23359735,-0.103237666,0.00043581965,-0.47824675,-0.107127234,0.32306257,-0.2569902,0.14274913,-0.20756125,-0.1094545,-0.3630639,-0.012996619,0.1427336,-0.13269743,0.10947489,0.3634763,0.15013911,0.36746356,0.33791897,0.15282671,0.27801892,0.09281117,0.07349724,-0.29881546,0.16223307,0.120634556,0.031355374,-0.13553627,0.12354987,0.133919,0.29593027,-0.064947486,-0.039781388,0.12612954,-0.05390873,0.06285889,0.025365537,-0.0085701095,-0.18542682,0.20096952,0.14302242,0.011277542,0.15343218,-0.19563225,0.37312478,0.21972622,-0.08396104,0.1333597,0.1143873,0.16284917,-0.27834958,-0.23715961,0.36798638,0.0111796195,0.06381242,-0.10709005,-0.1275563,-0.14930166,-0.1485128,-0.06748009,0.22913058,0.07760945,0.050784018,-0.15142423,-0.04555698,0.020503644,0.03514586,0.13640639,-0.22173168,0.049086947,-0.13638888,-0.056234885,-0.040862687,-0.04054956,-0.06884308,0.2613466,-0.06007997,-0.10286915,-0.06553055,-0.1025645,0.024278332,-0.006050009,0.24145661,-0.22358182,-0.21621957,0.04342929,0.0988134,0.09561684,-0.16978395,-0.1902104,0.07450609,-0.119165674,-0.34040332,0.07764429,0.13438638,0.03396418,0.2496734,-0.07498301,-0.12946981,-0.0034059254,-0.17396162,0.22976102,-0.20761079,-0.040665172,-0.2878743,-0.20281444,0.09219042,-0.10323016,0.124003544,0.006582705,-0.07610421,0.07393934,0.1135713,-0.047660384,-0.050090156,-0.11241254,-0.086727664,0.12168828,0.14466111,-0.10012691,0.09233466,-0.034935888,-0.19143759,0.13880342,0.0056309,0.10966276,0.146027,-0.11813303,-0.05748752,-0.2111582,0.25231975,0.0928919,-0.10232863,-0.038779378,0.081984155,0.04674494,-0.006440815,-0.36678958,-0.2478885,-0.09997902,-0.06780898,-0.24484019,0.4150706,-0.044870954,0.1419785,-0.08239267,0.09433405,0.06479788,0.10534751,0.2283579,0.0022659618,-0.016263999,0.0612076,-0.2628525,-0.15334404,0.11420964,0.0589189,-0.16439144,-0.012488529,-0.20906915,-0.02339087,0.03511066,0.1896246,-0.13232891,0.34046954,0.24448633,-0.024143195,-0.09363945,-0.050938394,0.052895956,-0.042736705,0.19292054,0.06252785,-0.10336703,0.19897403,-0.036703132,-0.0668369,0.074231766,0.24357997,0.050059848,0.30081767,0.23256011,0.07752643,-0.0141252605,0.03950252,-0.45816532,0.3840978,0.119031675,0.25115994,0.03685375,0.26831394,-0.13951756,-0.090240434,0.051308807,-0.029667255,0.25946602,-0.006554413,0.03729543,0.34599274,0.09392299,-0.045149334,-0.19891785,0.4162375,-0.0012844902,-0.2039259,0.009571124,0.37235317,0.12104512,0.3753037,0.26610526,0.57976246,-0.465008,0.033866,-0.35572326,0.34341913,0.49187413,0.10218066,0.0493097,-0.13996793,-0.089688905,0.65442497,0.16122682,0.2965779,0.34662747,0.06327067,0.35371035,0.21645705,-0.042872272,0.200858,0.07997314,-0.10880774,0.17636478,0.060840964,-0.04963271,0.03189065,0.31029677,-0.1276441,-0.1447085,-0.30796167,-0.05109112,0.07432673,0.073906146,-0.10878765,0.23565881,-0.18735217,0.14645705,-0.20113295,-0.09479838,0.14482422,-0.075404994,0.023121651,-0.30010048,-0.010949279,-0.3643786,-0.03616839,-0.028721863,0.40956792,-0.1653915,0.21904828,0.503933,-0.2057196,0.26818866,0.12676835,0.11546672,0.4114203,-0.23997532,0.14563999,0.17395347,-0.15326175,0.21929534,-0.2895157,0.04011639,0.044295244,0.294191,0.11978953,0.06330031,0.25631812,0.15872827,0.041699737,0.1755612,0.17760603,0.3646448,0.017856477,0.10365944,0.21095741,0.13297823,0.116048865,0.15606692,0.13639326,0.18438585,0.18828833,0.647444,0.17428674,-0.18021265,0.20078005,0.61476165,0.051549345,0.1547973,-0.3364146,-0.16602059,0.13460329,0.0962377,0.16219003,0.13998726,-0.045928895
0.23708153,0.061946675,0.6963673,0.18610159,-0.086665384,-0.056988005,0.027273169,0.35888135,0.2762029,-0.3648493,0.1641271,0.06162961,-0.07362885,0.106964074,-0.0012668171,-0.056012627,-0.34588104,0.2354311,0.074776396,-0.07209568,0.0033089519,0.30317497,-0.02078205,0.64397705,0.46475217,0.45988947,-0.28653124,0.3982633,0.25220153,-0.17504309,0.022481931,0.07003785,0.14772794,0.18186589,0.50998664,0.082839966,0.014751675,0.16284887,-0.017122312,-0.12338655,0.28666472,0.20916833,0.1241951,0.20870082,0.7265428,-0.31137553,0.22054584,0.5557505,-0.11656277,-0.12608194,-0.10343997,-0.4323005,0.44686767,0.5022609,-0.25664872,0.38739726,0.38530093,0.05073521,0.008382451,0.035441175,-0.007344647,-0.2262639,0.19075163,0.23419489,0.46926716,0.073344,0.0617904,0.31427446,-0.4722314,0.22148252,-0.22856273,0.27238002,-0.08083564,0.1982907,0.20295368,0.04521997,0.006066346,-0.08432131,0.33124673,0.05983911,-0.05319995,0.46962985,-0.30144152,-0.15183589,0.0966304,-0.27846166,0.33858928,-0.12219137,-0.03325248,-0.45530918,-0.4321113,-0.09287132,-0.19781496,0.08477935,0.026062055,0.11625283,-0.011156659,-0.15665758,0.11924777,0.2636427,0.16579534,0.2558652,0.09524813,0.38471097,0.32227138,0.110277615,0.32281822,-0.23745957,0.2534917,-0.0024427008,-0.074979395,-0.402252,0.20877403,-0.06522955,0.44445476,-0.06392192,0.09232733,-0.3592659,0.13152331,0.19034559,0.4697508,0.50877976,0.26899388,0.092514,-0.55455685,0.2598893,0.0319472,0.46855396,0.18835114,0.08890654,-0.715473,-0.19601189,0.06271296,0.36193267,-0.022369623,-0.007352083,-0.016763303,-0.2401769,0.35733232,0.04705844,0.07270845,-0.067596726,-0.17105752,-0.18811317,-0.26439905,0.23578228,0.005576136,2.7225098e-05,0.22014998,0.3421045,0.19380468,-0.5497154,0.2861178,0.12996894,0.16548437,-0.16594543,0.6335298,-0.7086845,0.124902755,-0.22338569,0.15127313,0.17602834,-0.2609061,0.24478124,0.6333705,0.08998391,0.13453709,0.21382932,0.19417907,0.34127504,-0.32738864,0.16881426,0.10775673,-0.46582377,-0.08397899,-0.42344856,-0.06666731,-0.51109266,-0.0056089736,-0.40726137,-0.18985833,0.018960187,0.40996084,0.28723773,-0.37988743,0.09199489,0.12795226,0.037359796,-0.46457002,-0.060112927,0.4516563,-0.07635815,-0.20816693,-0.027385281,0.27283257,0.26357713,-0.24319609,0.2665921,-0.2584274,0.05093629,-0.21257487,0.15406623,0.15449062,0.102597564,-0.097470194,-0.5600036,0.21380824,-0.15322582,0.066032365,-0.20027976,-0.042698916,-0.08899863,0.33426166,-0.40443072,0.09525892,-0.19778861,-0.0020587253,-0.2747781,-0.029474802,0.31903687,0.056947593,0.40805775,0.09797614,0.07679179,0.19495626,0.27813378,0.098674335,0.29563162,0.30596757,0.2943364,-0.12785967,-0.053318974,0.2548449,0.14987157,-0.29231566,-0.16181903,0.030647246,-0.039497554,-0.1277652,-0.22663306,-0.13720492,0.041677807,0.17412099,0.3134558,0.2940715,-0.32374844,0.2982948,0.14467028,-0.04368943,0.5952164,-0.19251853,0.21812065,0.122498736,0.17381915,0.07568909,0.58736914,0.27932033,0.04198091,-0.07569439,0.14920624,-0.1579857,-0.10069209,-0.108798064,-0.09985792,0.12612066,-0.13384894,0.035372164,-0.036694665,0.17207646,0.17763908,0.19227798,0.20396632,-0.009581863,-0.021134665,0.06638278,0.051872663,-0.1886756,-0.011971545,-0.1416372,-0.4097231,0.06990896,-0.16692412,0.19955039,0.10186254,-0.12196256,0.41851905,0.009358246,-0.13777627,0.08355056,0.022031376,0.22140633,-0.31331536,-0.00450794,-0.044860024,-0.06389985,0.0542405,-0.17753431,-0.070936345,0.17732958,0.013148266,-0.14438756,0.22300172,0.12718216,0.23820084,0.14436631,-0.1706549,-0.27323318,-0.35491824,0.47561267,-0.14003335,0.1386429,-0.35163707,-0.12351331,0.0070123235,0.16544576,-0.24729744,0.1758145,-0.12834178,-0.016379338,-0.049763113,-0.11655564,-0.03603904,-0.22816192,0.13573189,-0.1285121,0.24942258,0.31400394,0.1291139,0.36192393,-0.07539352,-0.107684806,-0.13358824,0.15474166,0.027783213,-0.020420348,0.18387556,0.0033499643,-0.10092288,-0.0647606,0.22207075,0.1840525,0.1344549,-0.017909963,-0.056385487,-0.16275837,-0.17132108,-0.08868906,-0.043912664,0.014864593,0.10497754,0.03385717,-0.059727706,0.22299768,-0.19196841,-0.22595859,0.00084719114,0.0028969045,0.13602322,0.0757267,0.3981637,-0.10447912,-0.08260403,-0.26151285,-0.38296196,-0.029508606,-0.111633405,0.20866098,-0.1886186,-0.13896549,-0.037982017,-0.028291577,-0.18040699,0.14121437,-0.09385524,-0.2392683,0.13018188,0.13340084,-0.048724744,0.25349912,-0.21917623,0.18270679,-0.26642886,-0.04796585,-0.23390996,0.37342167,0.086668834,-0.31595936,0.08599522,0.19684039,0.31879574,0.14845265,0.370102,-0.1260176,-0.017165769,0.16447484,0.08187588,0.36535382,-0.030895961,-0.29569638,-0.35348907,-0.08931898,0.07323056,0.18473361,-0.088921025,0.11403916,0.37478966,-0.015213371,-0.16285232,-0.21091753,0.47436652,0.055376187,0.115809634,0.20179817,-0.05059423,0.078282684,0.015613485,0.14694665,0.13276888,-0.120366946,-0.035258923,0.16829893,0.12616667,0.025080103,0.10276454,0.17811297,-0.040322367,-0.25656307,0.40288585,0.3775341,0.15810163,-0.022610819,-0.21943913,-0.123979986,-0.117804535,-0.2590962,-0.13493633,0.08334711,0.051703844,0.26498207,0.35547936,-0.05294666,-0.2425824,0.2681692,-0.14447892,-0.2722619,-0.26117012,-0.114625454,0.18136564,-0.117331,-0.031066077,0.4065257,-0.34501672,-0.05354403,-0.09769528,-0.31938076,-0.0030996725,-0.075010225,0.052866634,-0.37060985,0.2718655,-0.074052535,-0.29038486,0.18530037,0.11319811,0.052928016,-0.08543032,0.51969004,-0.3951156,0.10224591,-0.088213295,-0.05476496,-0.06959882,-0.09825025,0.065283425,0.47220087,-0.08741499,-0.19244854,-0.041948285,0.109175846,0.051509786,0.14828336,-0.06795277,0.14638743,0.20999904,0.10867706,0.32278597,0.044197924,0.009713951,0.31510442,0.41184914,-0.14978749,-0.19372557,0.0857542,-0.113503926,0.069984004,-0.22713791,-0.044343248,0.0919885,0.4906621,0.17303726,-0.22025667,-0.20726591,0.16184482,-0.032276157,0.39182293,0.21823385,-0.2808055,0.07079858,-0.14814134,0.3325796,-0.049963903,0.32953545
