0,1,2,3,4,5,6,7,8,9,10,11,12,13,14,15,16,17,18,19,20,21,22,23,24,25,26,27,28,29,30,31,32,33,34,35,36,37,38,39,40,41,42,43,44,45,46,47,48,49,50,51,52,53,54,55,56,57,58,59,60,61,62,63,64,65,66,67,68,69,70,71,72,73,74,75,76,77,78,79,80,81,82,83,84,85,86,87,88,89,90,91,92,93,94,95,96,97,98,99,100,101,102,103,104,105,106,107,108,109,110,111,112,113,114,115,116,117,118,119,120,121,122,123,124,125,126,127,128,129,130,131,132,133,134,135,136,137,138,139,140,141,142,143,144,145,146,147,148,149,150,151,152,153,154,155,156,157,158,159,160,161,162,163,164,165,166,167,168,169,170,171,172,173,174,175,176,177,178,179,180,181,182,183,184,185,186,187,188,189,190,191,192,193,194,195,196,197,198,199,200,201,202,203,204,205,206,207,208,209,210,211,212,213,214,215,216,217,218,219,220,221,222,223,224,225,226,227,228,229,230,231,232,233,234,235,236,237,238,239,240,241,242,243,244,245,246,247,248,249,250,251,252,253,254,255
-6.0779416e-07,-1.4841974e-06,-3.3235546e-07,-1.268179e-06,1.1722092e-06,-1.00879e-06,2.6493524e-08,-7.97168e-07,-1.374281e-06,-7.8013727e-07,1.0361467e-06,3.0946046e-07,-9.1526204e-07,1.9870434e-08,-8.447463e-07,1.2234962e-07,-6.884581e-07,-8.77465e-07,-1.8819242e-07,-1.7944575e-07,3.8370007e-07,-7.5292814e-07,5.1164324e-07,1.0119477e-06,6.296881e-07,-4.1584752e-07,1.0394907e-06,-8.77565e-07,-3.0218825e-07,1.5337213e-06,-1.0887004e-06,8.6285786e-07,-1.6622391e-06,-1.1399967e-06,7.48406e-07,1.7021736e-07,-1.0836344e-06,-9.570912e-07,-1.0481363e-06,-4.947872e-07,3.0497287e-07,-5.0253425e-07,-2.046593e-08,-2.3718741e-07,-1.2649293e-06,-6.464612e-08,1.2006619e-06,-3.8058624e-07,-1.1639513e-06,-6.2931906e-07,-1.6421909e-06,-5.3354046e-07,-1.0464512e-06,-9.1482923e-07,-6.4665244e-07,1.6384603e-06,8.8106896e-07,2.2126828e-06,-8.4976875e-07,-7.9694223e-07,2.3956142e-07,-6.160193e-07,-9.480544e-09,-3.6296638e-07,-4.4084598e-07,-1.2643839e-06,-5.3161152e-08,-9.730541e-07,7.901973e-07,-9.75394e-07,7.279644e-08,-3.1778194e-07,5.231844e-07,-9.2287246e-07,-2.2020735e-08,1.2309073e-07,-5.9540184e-07,3.179714e-07,-5.697302e-07,1.4464973e-07,-8.9412833e-07,-5.556843e-07,8.066042e-09,1.7567014e-07,6.322091e-07,-4.1880926e-07,2.5170806e-07,1.7925099e-06,6.7867364e-07,-1.3542771e-07,8.652841e-07,-7.6521445e-07,-9.6542365e-08,1.8696556e-06,-1.8656414e-07,5.2214006e-07,-1.3564462e-06,-1.1036402e-06,2.772771e-07,-9.626062e-07,-3.441857e-07,-7.015672e-07,-9.989217e-07,-4.5098403e-07,-3.1652573e-07,-2.3429172e-07,-7.602601e-08,2.4008136e-07,-9.452756e-07,-4.231684e-07,1.0242858e-06,-3.6897194e-07,-7.285812e-07,-2.2080596e-07,-6.548001e-07,-5.4000344e-07,-5.6417343e-07,-1.2015399e-06,-3.7155735e-07,1.5518134e-06,-2.8992892e-07,1.7382395e-06,-8.903074e-07,-8.7708287e-07,6.17361e-07,-8.205457e-07,1.3885511e-07,-2.0074222e-07,-3.2992295e-07,2.4516473e-06,2.6440864e-07,1.1992801e-06,3.0812836e-07,-7.2531964e-07,-5.2572125e-07,-8.3106244e-08,-2.7233027e-06,-7.36953e-07,3.0983813e-07,-5.729837e-07,-1.8180737e-07,-1.4104813e-06,-2.7626356e-07,-3.669533e-07,6.505202e-07,-7.651028e-07,-1.5813196e-06,4.9721007e-07,7.3455794e-08,3.6584993e-09,-1.9780441e-07,1.231466e-06,1.2425652e-07,-4.961443e-07,1.6704518e-06,-4.9340485e-08,1.9020865e-07,-2.037508e-06,8.072991e-07,-2.1775732e-06,-6.3548987e-07,1.9252383e-08,-1.9255017e-07,-5.1285286e-07,8.138971e-07,-1.0320585e-06,-1.4392449e-06,2.6485732e-06,1.501832e-06,-3.0413332e-08,-3.9571518e-07,-2.7727253e-07,-3.0377976e-08,-1.4914592e-06,-2.739653e-06,1.1300251e-06,-5.163739e-07,-1.145998e-06,-2.249111e-07,-6.295466e-07,3.8134175e-07,-1.0169982e-06,3.6990565e-07,2.987503e-07,-6.857233e-07,-2.341188e-06,4.9304873e-07,-1.4085572e-06,5.336582e-06,8.974588e-07,1.9077152e-06,-7.0605023e-07,1.0064157e-06,8.874454e-07,-1.6205177e-06,-4.5456756e-07,2.861863e-06,7.67329e-08,-1.0268982e-06,6.357459e-07,-5.010333e-06,-3.655126e-07,-1.2319344e-06,-1.4236367e-07,9.576374e-07,7.48051e-07,-3.6236446e-07,-1.1629146e-06,-1.7434367e-06,-7.783899e-07,8.586403e-08,-1.0269689e-07,3.129356e-07,-5.9962156e-07,-8.6711145e-07,1.0159624e-08,-1.04542806e-07,-1.7842071e-06,-5.4950084e-07,-1.360011e-06,1.7873692e-06,-8.1554754e-07,-4.3360427e-07,3.6913548e-08,1.9668073e-07,-1.351002e-06,2.6724163e-06,-9.0125053e-07,-7.945888e-07,-2.5341976e-07,-1.5875465e-06,-1.7755207e-06,3.0436956e-06,-1.6559709e-06,-1.7539298e-06,-6.035404e-08,-1.9790189e-06,1.777815e-07,2.2475047e-06,-1.0732339e-06,-8.1401834e-07,-1.7246551e-06,-1.7235614e-06,-5.1231444e-07,-2.5192323e-06,-2.406365e-06,-2.0635955e-06,2.8527743e-06,1.1891586e-06,7.170895e-07,-1.4317591e-07,-2.5663608e-06,4.961401e-07,-2.499637e-07,6.434826e-07,-3.3221943e-07
-8.821483e-07,-2.1826713e-06,-6.497379e-07,-2.1874807e-06,1.3998497e-06,-1.4413529e-06,-4.1143002e-07,-6.851016e-07,-5.335054e-07,-1.0670192e-06,7.2219314e-07,7.623791e-08,-1.2756063e-06,3.178757e-07,-1.1203022e-06,3.0042858e-07,-6.178742e-07,-9.3115875e-07,-7.8356425e-07,-5.2999735e-07,-1.4836735e-07,-1.220862e-06,-2.8392395e-07,-1.5722787e-07,4.8343986e-07,-8.33826e-07,2.551912e-07,-6.0785715e-07,-3.2595386e-07,1.1259533e-06,-2.3395753e-06,-3.6478764e-07,-2.297127e-06,-1.4305228e-06,5.169775e-07,-6.897763e-07,-1.4104767e-06,-1.623098e-06,-1.5241015e-06,-1.0120458e-06,2.5064077e-07,-8.9077855e-07,9.730528e-08,-7.3078496e-07,-1.1524553e-06,3.0727222e-07,9.541372e-07,-6.2546496e-07,-1.441241e-06,-5.330844e-07,-1.5765673e-06,-5.298242e-07,-1.1839333e-06,-9.81149e-07,-1.0048327e-06,1.2753459e-06,7.027194e-07,1.9161507e-06,-1.0750687e-06,-1.1225352e-06,-9.6179576e-08,-3.3083612e-07,-4.9390394e-08,-5.4466074e-07,-6.7635614e-07,-1.3356193e-06,-3.1435835e-07,-1.3036823e-06,7.2692745e-07,-1.0008491e-06,-2.996025e-07,-7.717992e-08,4.479689e-07,-1.2033804e-06,1.0515478e-08,-5.6715237e-09,-8.1430267e-07,3.666257e-07,-7.228143e-07,4.3738248e-07,-6.797901e-07,-4.3549088e-07,-3.4951623e-07,-1.8429918e-07,3.3653816e-07,-5.904516e-07,-2.0647082e-07,1.3254664e-06,6.1255275e-07,-5.4871003e-07,4.189036e-08,-5.9484097e-07,3.1603633e-08,1.4652029e-06,-1.5105421e-07,-3.1532738e-07,-1.7459288e-06,-1.1233649e-06,2.6699638e-07,-1.4526365e-06,-5.4086e-08,-1.0252576e-06,-1.3916786e-06,-9.621203e-07,-1.4776458e-07,-2.685158e-07,9.446001e-09,4.2824098e-08,-9.1540494e-07,-9.2266575e-08,8.9041197e-07,-5.3277756e-07,-1.1796388e-06,-9.730735e-08,-6.3576107e-07,-3.2140838e-07,-6.899551e-07,-1.1593424e-06,-7.190448e-07,1.3313751e-06,-7.388957e-08,1.5979081e-06,-9.931714e-07,-7.571996e-07,4.3555198e-07,-6.894777e-07,1.0119473e-07,-3.8146516e-07,-1.4457446e-06,1.4013455e-06,-4.9451086e-07,-4.3168814e-07,-4.147997e-08,-1.7023476e-07,-1.0658408e-06,-2.4501745e-07,-1.277159e-06,-1.7932216e-06,8.1856905e-07,-1.009793e-06,-9.650536e-07,-6.017566e-07,-1.3852001e-06,-4.0982655e-07,3.3579365e-08,7.871045e-07,-1.4301579e-06,1.2645326e-06,-4.513431e-07,-7.923468e-07,-8.4687986e-07,1.5835401e-06,7.7358925e-07,-9.3697895e-07,1.9960157e-06,9.1370777e-07,5.2886566e-07,-1.1163621e-06,2.5829033e-06,-2.2192094e-06,8.1220844e-07,9.1270726e-07,1.5521971e-07,1.2836178e-06,3.5102374e-07,-1.3871415e-06,-2.5210122e-06,3.2863115e-06,1.0689433e-06,5.355258e-07,-3.192887e-08,-1.0855208e-06,-4.3393052e-07,-7.111397e-07,-3.4338423e-06,1.4055069e-06,-1.656344e-06,-2.8241553e-07,-7.346449e-07,-5.0381423e-09,-4.1060719e-07,-3.5329882e-07,-1.36698e-07,-4.0947884e-07,-1.4780898e-07,-1.8659883e-06,4.2130353e-09,-2.8252066e-07,3.8744483e-06,-3.8931054e-07,1.4878608e-06,-8.597728e-07,5.73765e-07,-8.1572443e-07,-2.5950708e-06,-1.3540719e-06,2.3333728e-06,-5.7611186e-07,-2.0346836e-06,3.2526555e-07,-3.8526778e-06,-1.2928299e-06,-2.0584416e-06,1.6923815e-07,1.0597762e-07,8.1156935e-07,-7.694009e-07,-6.0151535e-07,-1.1233885e-06,-5.717215e-07,-5.9643486e-07,-6.095177e-07,-2.3096521e-07,-1.0876381e-06,-1.9791732e-06,-8.01086e-07,-3.4144125e-07,-2.5049972e-06,-1.8822986e-06,-1.0519402e-06,1.8984385e-06,-1.8088094e-06,-1.4280643e-06,-1.9336999e-06,-5.061708e-07,-1.9394215e-06,2.427369e-06,-2.2963934e-06,-7.988406e-07,-1.1796641e-06,-2.0205578e-06,-3.0565839e-06,2.1465034e-06,-1.6443128e-06,-1.2213268e-06,-4.4955112e-07,-1.8724122e-06,3.4884943e-07,1.7846955e-06,-1.7137612e-06,-1.3536519e-06,-1.0589899e-06,-1.8603421e-06,-6.5911803e-07,-2.517384e-06,-2.5614054e-06,-2.5068211e-06,2.4582182e-06,8.867946e-07,5.5088105e-07,-3.0576663e-07,-2.1711214e-06,-5.042647e-07,-3.2755787e-07,4.4565547e-07,-7.3381557e-07
-7.928313e-07,-1.745819e-06,-5.334151e-07,-1.9326299e-06,1.0364264e-06,-1.5627468e-06,-3.9317078e-07,-8.6403304e-07,-8.4565346e-07,-7.2127415e-07,7.108826e-07,1.7291508e-07,-1.1012667e-06,1.05068665e-08,-8.8625507e-07,1.5609234e-07,-5.8092024e-07,-7.7975733e-07,-6.0286516e-07,-5.410416e-07,2.5350857e-08,-1.1188171e-06,2.0206949e-07,1.2141766e-07,5.084515e-07,-7.0554756e-07,6.532661e-07,-8.5008185e-07,-2.010333e-07,1.3976913e-06,-1.9021654e-06,9.68754e-08,-1.9947586e-06,-1.3739161e-06,2.7681864e-07,3.158871e-07,-1.0019664e-06,-1.2008879e-06,-1.5245075e-06,-1.3740485e-06,5.250443e-07,-8.2027793e-07,-1.8057841e-07,-5.830321e-07,-1.2013384e-06,3.3113855e-07,6.3238423e-07,-6.8549974e-07,-1.3075284e-06,-5.117317e-07,-1.2558833e-06,-8.513841e-07,-1.1109275e-06,-9.4587546e-07,-6.333944e-07,1.3647515e-06,6.960711e-07,1.9583179e-06,-9.613622e-07,-1.4066961e-06,8.29437e-08,-4.0310866e-07,1.2206897e-08,-4.5701842e-07,-5.602536e-07,-1.4007212e-06,-3.1893356e-07,-1.358683e-06,6.080496e-07,-8.9283344e-07,-3.9866245e-07,-2.310384e-07,1.8546189e-08,-9.514566e-07,4.3449248e-08,-7.772286e-09,-6.3878394e-07,2.8498204e-07,-6.1686126e-07,1.6909536e-07,-7.382042e-07,-4.886625e-07,-2.3831774e-07,-1.9662554e-07,3.8612419e-07,-5.463974e-07,1.7709431e-07,1.3384272e-06,4.9412546e-07,-3.6498125e-07,3.448271e-07,-7.434131e-07,2.8598379e-08,1.3600339e-06,-1.1452437e-07,-3.827182e-08,-1.464262e-06,-1.0191891e-06,2.9065197e-07,-7.2933e-07,-1.8477331e-07,-8.373431e-07,-1.3610402e-06,-9.412237e-07,-2.3891516e-08,-3.2021165e-07,-1.758271e-07,1.6321442e-07,-9.372754e-07,-1.6613151e-07,6.86597e-07,-4.3114755e-07,-1.0342835e-06,-1.0957436e-07,-5.820914e-07,-5.770345e-07,-5.9832223e-07,-1.0846449e-06,-5.0072833e-07,1.3518795e-06,-1.5495198e-07,1.5205338e-06,-8.97928e-07,-8.1283883e-07,4.4218174e-07,-5.992105e-07,1.4458061e-07,-2.4627255e-07,-1.2627768e-06,1.2266985e-06,-7.369459e-07,-5.151703e-07,-1.2236222e-06,2.0348494e-08,-8.1535507e-07,-1.0473051e-06,-1.9270265e-06,-2.2891302e-06,1.1676013e-06,-1.4720756e-06,-1.2494999e-06,1.0387217e-07,-1.7848938e-06,-6.782097e-07,-1.8555653e-08,9.2700805e-07,-1.6140027e-06,1.3821999e-06,-6.02954e-07,-1.7291684e-06,-1.0458143e-06,3.0461379e-06,1.4443664e-06,-1.7607356e-06,2.5688578e-06,1.0735519e-06,7.6677594e-07,-1.326582e-07,2.5704333e-06,-2.8078207e-06,1.0168574e-06,1.4202633e-06,5.902729e-07,1.0522349e-06,-5.1191222e-08,-2.3022105e-06,-2.326679e-06,2.8925951e-06,3.8665323e-07,6.863006e-07,6.059155e-07,-1.2708061e-06,-7.013792e-07,-5.691232e-07,-4.896426e-06,1.6848301e-06,-1.5794477e-06,-3.8106714e-07,-1.7210772e-06,-5.0696187e-08,-4.2549811e-07,2.9844955e-07,-3.5369462e-07,1.2130675e-07,-1.5401063e-06,-2.987866e-06,-4.3909571e-07,4.8639407e-08,4.751006e-06,-5.952778e-07,2.1444598e-06,-1.0387566e-06,2.7247978e-07,-4.1245585e-07,-2.7606984e-06,-1.9140111e-06,1.3662674e-06,-7.962006e-07,-2.2331544e-06,-8.9384474e-07,-2.383362e-06,-1.8267574e-06,-2.5006304e-06,-4.2953056e-07,-9.420205e-08,2.4111255e-08,-1.0527776e-06,-1.8355429e-06,-1.6846338e-06,-1.1342349e-06,-1.0576947e-06,-1.3684883e-06,-6.391518e-07,-1.2639422e-06,-1.5548917e-06,-2.0213752e-06,-1.2068947e-06,-2.97518e-06,-2.1529436e-06,-1.9262482e-06,9.813787e-07,-1.9095828e-06,-9.101729e-07,-1.5407634e-06,-7.6242225e-07,-2.4711605e-06,1.1891132e-06,-1.8427577e-06,-1.3865131e-06,-1.5315679e-06,-3.0767455e-06,-3.4977063e-06,1.7317642e-06,-2.3513776e-06,-2.2547235e-06,-9.1373073e-07,-2.289073e-06,-5.7139147e-08,9.743204e-07,-1.9744487e-06,-1.8804622e-06,-2.4767664e-06,-2.3886246e-06,-1.6659e-06,-3.2112675e-06,-2.7672772e-06,-2.6729178e-06,2.1652081e-06,1.8825165e-07,-4.211705e-07,-8.3600423e-07,-3.4092157e-06,-3.8799118e-07,-5.32482e-07,-7.901078e-07,-1.1916193e-06
-5.7686435e-07,-2.132836e-06,-6.6577263e-07,-1.7813775e-06,1.3799935e-06,-1.1885463e-06,-4.5776255e-07,-5.502249e-07,-9.408812e-07,-9.254894e-07,5.8627813e-07,-8.101033e-08,-1.0657818e-06,1.7328435e-07,-1.0857793e-06,1.6087284e-08,-6.8979085e-07,-8.8112927e-07,-6.372204e-07,-3.6331676e-07,-1.6762459e-07,-9.181606e-07,-2.3131668e-07,-1.5143019e-07,3.954695e-07,-7.149129e-07,3.2149302e-07,-6.356353e-07,-3.6047336e-07,5.297577e-07,-1.7855202e-06,-8.465156e-08,-1.9474194e-06,-1.3212848e-06,6.254147e-07,-3.644182e-07,-1.3780516e-06,-1.4283717e-06,-1.3484797e-06,-1.1983191e-06,1.5489434e-07,-7.797484e-07,1.3153322e-08,-5.612118e-07,-1.0451971e-06,2.1014687e-07,7.2015166e-07,-7.948232e-07,-1.2301538e-06,-6.9999726e-07,-1.3512035e-06,-6.333613e-07,-1.0279642e-06,-1.0552445e-06,-6.840757e-07,1.1617698e-06,6.285223e-07,1.6234683e-06,-1.3051832e-06,-1.1295617e-06,5.766111e-08,-4.1304563e-07,-2.645223e-07,-4.222894e-07,-5.211657e-07,-1.2541127e-06,-2.675827e-07,-1.0349631e-06,8.816727e-07,-8.562772e-07,-3.4900617e-07,-7.328043e-08,2.1234601e-07,-8.8821395e-07,-4.5554934e-08,-1.4405671e-07,-5.5542046e-07,4.0259798e-07,-6.668622e-07,2.7464475e-07,-6.4033503e-07,-4.5299208e-07,-2.7862797e-07,3.6076642e-08,2.8395675e-07,-4.3464007e-07,-1.6903854e-07,1.2054853e-06,5.5190696e-07,-4.77609e-07,9.342574e-08,-6.3052414e-07,-1.7414692e-08,7.940487e-07,-9.817949e-08,-2.1741238e-07,-1.4504324e-06,-1.026607e-06,2.9911226e-07,-1.3176116e-06,-1.3858164e-07,-8.7628894e-07,-1.0728648e-06,-8.1900396e-07,-3.995175e-07,-2.2555605e-07,-6.9207246e-08,1.4764382e-07,-8.563627e-07,-1.3407406e-07,8.8977123e-07,-6.1910305e-07,-9.68529e-07,-1.286647e-07,-5.00651e-07,-5.367863e-07,-6.381697e-07,-9.68016e-07,-3.770652e-07,1.2105719e-06,-8.207499e-08,1.4978211e-06,-1.0396757e-06,-5.774075e-07,5.158888e-07,-6.9002976e-07,7.44121e-08,-3.3744394e-07,-4.9409016e-07,1.6293229e-06,8.764829e-08,2.9519128e-07,3.156985e-07,-3.8410425e-07,-9.609723e-07,-1.04817644e-07,-4.905231e-07,-1.2646215e-06,4.86722e-07,-7.290059e-07,-1.0332401e-06,-7.7928564e-07,-1.4476258e-06,-4.2486272e-07,-8.837592e-08,6.14734e-08,-1.0581091e-06,9.992611e-07,-1.4796314e-07,-2.698685e-07,-7.0519326e-07,6.74523e-07,1.0078797e-07,-5.3101326e-07,1.3872212e-06,6.2614106e-07,4.831923e-07,-1.4098275e-06,2.0310274e-06,-1.7862371e-06,4.7777485e-07,3.907914e-07,1.2471271e-07,1.0271201e-06,9.533707e-08,-1.2689593e-06,-2.369547e-06,2.4823744e-06,1.2267882e-06,3.3620543e-07,-2.0579935e-07,-7.398498e-07,-1.2331621e-07,-8.878615e-07,-2.90127e-06,1.113967e-06,-1.1798925e-06,8.080989e-08,-3.664195e-07,-2.8690272e-07,1.7763386e-07,-3.9330564e-07,-2.5308125e-08,-3.515243e-07,1.2322886e-07,-1.4094651e-06,-7.452433e-07,-3.0642834e-08,3.2669036e-06,4.1112938e-07,1.4180027e-06,-7.106864e-07,7.455949e-07,-4.036532e-07,-1.8804351e-06,-5.743768e-07,2.746514e-06,-2.2760094e-07,-1.2982612e-06,5.271408e-07,-3.0784386e-06,-6.466847e-07,-1.8277377e-06,-2.3875006e-07,4.5104287e-07,1.1461362e-06,-5.092553e-07,-8.5782114e-07,-1.0604198e-06,-4.00384e-07,-3.3063614e-07,-2.325146e-07,-8.064433e-09,-2.8765675e-07,-1.7660049e-06,-3.203794e-07,3.603715e-08,-1.8687251e-06,-1.2560924e-06,-7.807673e-07,1.7946904e-06,-2.0934247e-06,-7.785398e-07,-1.3058568e-06,-4.7435546e-07,-1.3373957e-06,2.1693747e-06,-1.9750096e-06,-6.459978e-07,-8.325415e-07,-1.3438917e-06,-2.5134025e-06,1.705916e-06,-1.452874e-06,-1.117621e-06,-1.3509771e-07,-1.5744512e-06,5.907988e-07,1.6675683e-06,-1.0847041e-06,-1.1133086e-06,-1.2415385e-06,-1.3726847e-06,-8.1794855e-07,-2.3477e-06,-2.048055e-06,-1.8417375e-06,2.1856213e-06,9.752345e-07,1.1293674e-06,-1.4422761e-07,-2.1265453e-06,-1.1583404e-07,1.626767e-08,5.041313e-07,-6.038171e-07
-4.382975e-07,-1.2066253e-06,-1.4071897e-07,-9.592154e-07,1.110596e-06,-4.7226703e-07,4.151417e-08,-1.16166234e-07,-8.6502456e-07,-3.273492e-07,3.4454985e-07,3.8434416e-07,-4.387993e-07,3.461595e-07,-5.6305106e-07,3.340699e-07,-3.8591082e-07,-6.001113e-07,-4.803477e-07,-5.9132944e-08,5.617339e-07,-6.1946855e-07,2.990217e-07,8.834518e-07,6.413218e-07,-2.6897692e-07,6.0774835e-07,-5.359463e-07,-1.2262137e-07,1.1609433e-06,-9.173526e-07,4.522072e-07,-1.491055e-06,-8.636773e-07,3.8854031e-07,3.3199404e-07,-8.0624665e-07,-8.8031436e-07,-8.855207e-07,-2.3824029e-07,4.8407514e-07,-5.4241553e-08,1.06850415e-07,1.7395197e-07,-8.511924e-07,4.332798e-07,1.4851374e-06,3.8152905e-08,-8.8286765e-07,-1.3021129e-07,-8.265593e-07,-7.4614974e-08,-9.573166e-07,-5.2415317e-07,-3.2915972e-07,1.4114321e-06,7.8636947e-07,1.6799795e-06,-1.404087e-06,-9.2018746e-07,2.106851e-07,6.2550576e-08,4.600767e-08,-3.4200286e-07,-5.544028e-07,-7.980475e-07,-3.2254962e-07,-7.5836374e-07,3.4180534e-08,-9.60572e-07,-1.5900653e-07,3.0281342e-09,-1.9844038e-09,-1.2091671e-06,1.0464412e-08,1.5450284e-07,-6.536619e-07,2.7709652e-07,-4.997738e-07,1.8103657e-07,-8.8200363e-07,-5.791853e-07,-4.4613057e-07,-1.6790378e-07,3.9203758e-07,-6.200702e-07,6.292821e-08,8.4100424e-07,3.8460655e-07,-3.5758956e-07,3.7022124e-07,-5.7116637e-07,2.8084642e-08,1.2701079e-06,-1.01248034e-07,1.4126167e-07,-1.2281996e-06,-1.1309673e-06,1.2634449e-07,-8.772733e-07,-3.7501263e-07,-1.0552724e-06,-1.3353377e-06,-4.0016712e-07,-1.0663896e-08,-1.5549007e-07,-2.1223384e-07,1.4387516e-07,-8.577739e-07,-4.7131368e-07,6.2238126e-07,-1.6544254e-07,-7.650096e-07,2.355128e-08,-3.3098087e-07,-3.704656e-07,-6.1884987e-07,-1.1738159e-06,-6.014729e-07,1.3223002e-06,-5.7085794e-07,1.3574072e-06,-1.236563e-06,-9.442638e-07,-2.5276967e-07,-6.4691505e-07,9.302413e-08,-2.3501985e-07,-9.850529e-07,8.386799e-07,-4.7251444e-07,-2.273897e-07,-1.5234848e-06,2.9888082e-07,-6.6817654e-07,-2.7243686e-07,-3.030143e-06,-2.2390914e-06,5.662598e-07,-1.184201e-06,-9.4119764e-07,5.789925e-07,-6.2134006e-07,-5.052193e-07,2.6721711e-08,8.9699694e-07,-1.0192196e-06,1.0921162e-06,-1.9229611e-07,-1.092789e-06,-6.917044e-07,1.3804117e-06,6.288401e-07,-2.3207472e-06,2.1822757e-06,1.2177351e-06,7.1210985e-07,-3.9104015e-07,9.0728895e-07,-1.2447142e-06,8.874017e-07,1.314326e-06,4.0520735e-07,9.910821e-07,-9.351194e-07,-1.4279359e-06,-1.7286347e-06,1.0490514e-06,-6.641767e-07,3.696974e-07,5.037729e-07,-2.8919396e-07,-6.125525e-07,9.125816e-08,-2.9731343e-06,1.3224266e-06,-1.4023915e-06,1.1586451e-08,-1.5250155e-06,7.307122e-07,-7.28866e-07,-2.5695755e-07,-6.6032726e-07,-5.020959e-07,-1.9331694e-06,-2.015303e-06,-5.0442435e-07,1.5100676e-07,4.7055455e-06,-1.7679838e-06,1.1527346e-06,-7.0593285e-07,5.9459717e-07,1.862366e-07,-2.1503608e-06,-6.3457014e-07,2.2639592e-06,7.024531e-07,-1.8001206e-06,3.4109738e-07,-3.0026997e-06,-3.5370834e-07,-2.5159834e-06,8.1365314e-08,8.2257736e-07,7.111899e-07,1.0278933e-07,-1.7773459e-06,-9.380012e-07,-2.8646386e-07,-1.209449e-06,-6.393842e-07,-1.1847203e-06,-9.0030403e-07,-5.14879e-07,-1.4282411e-06,-7.1493616e-07,-3.4811153e-06,-1.46912e-06,-1.0908291e-06,1.1511338e-06,-1.7740774e-06,-3.9748312e-07,-6.1489794e-07,-4.718146e-08,-1.9518998e-06,1.2892493e-06,-1.3672612e-06,-1.3571507e-06,-1.2972087e-06,-2.7732415e-06,-2.480846e-06,1.2240102e-06,-1.7558e-06,-2.1597214e-06,-7.231629e-07,-2.7218675e-06,1.2882074e-07,2.7160459e-06,-8.0310406e-07,-6.998914e-07,-2.3750317e-06,-1.9353565e-06,-1.3032167e-06,-2.9312864e-06,-1.8672695e-06,-2.9806183e-06,3.1812774e-06,5.006087e-07,-6.26855e-09,-1.1056923e-06,-3.2842074e-06,-5.236818e-07,-8.646724e-08,-7.995037e-07,-6.623471e-07
9.0871174e-07,2.3798527e-06,7.6480967e-07,2.1697688e-06,-1.1693402e-06,1.8080934e-06,4.4416586e-07,1.165899e-06,7.054501e-07,9.193716e-07,-5.579674e-07,2.5605615e-07,1.555144e-06,1.9981267e-07,1.5578946e-06,-6.574655e-08,1.0121074e-06,9.918926e-07,5.5322414e-07,7.045127e-07,-2.5103765e-07,1.1939214e-06,3.7626407e-07,-3.1217155e-08,-2.1277884e-07,1.0692811e-06,-5.4527743e-07,1.2682533e-06,4.0537884e-07,-1.5435937e-06,2.0460725e-06,5.739289e-07,2.5784857e-06,1.6023505e-06,6.217493e-07,-1.8379194e-07,1.5514779e-06,1.7333307e-06,2.0388798e-06,8.465911e-07,9.1410755e-08,8.895094e-07,-9.131069e-08,6.343164e-07,1.138464e-06,-7.240304e-08,-5.9865096e-07,5.0259933e-07,1.5681748e-06,9.335887e-07,1.7338259e-06,5.719757e-07,1.4964603e-06,1.4261806e-06,8.7815437e-07,-1.0963437e-06,-7.0967627e-07,-1.5810252e-06,1.9303725e-06,1.6128943e-06,-5.5929945e-08,3.739966e-07,3.821407e-08,6.306824e-07,9.139736e-07,1.2902658e-06,3.0890817e-07,1.4523151e-06,-1.161549e-07,1.4569054e-06,3.3448632e-07,3.708287e-07,-5.7808916e-07,1.774107e-06,3.352124e-08,1.9905391e-07,1.3434642e-06,1.1549659e-08,1.0385274e-06,-2.4959334e-07,1.1927835e-06,6.960479e-07,2.507448e-07,4.3444808e-07,-4.7076608e-07,7.4697914e-07,1.6302491e-07,-1.3032287e-06,-4.1167527e-07,7.731592e-07,-4.5333047e-07,1.0081858e-06,1.7577463e-08,-1.5459281e-06,1.8173935e-07,3.3198586e-07,1.8869646e-06,1.3403123e-06,2.0266458e-07,1.0963811e-06,6.4374854e-07,1.5297849e-06,2.1407404e-06,7.090896e-07,2.90763e-07,2.401029e-07,6.3185475e-08,-4.3761432e-08,1.0242176e-06,6.448836e-07,-3.5784623e-07,5.22155e-07,1.1255078e-06,1.4900988e-07,7.9781717e-07,6.9106295e-07,9.2576244e-07,1.8705638e-06,7.413721e-07,-1.0878375e-06,4.4592818e-07,-1.3262039e-06,1.7249156e-06,9.015075e-07,1.0017631e-07,9.5366653e-07,-3.7081634e-08,4.3457817e-07,1.3818101e-06,-1.1794747e-06,5.203069e-07,2.2654956e-07,7.5504397e-07,2.1025213e-07,1.1776787e-06,1.2946318e-06,3.6991262e-06,2.0325745e-06,-6.4391077e-07,1.2434599e-06,1.3610602e-06,1.4367877e-06,1.4243376e-06,9.4729154e-07,-2.8265765e-07,-3.0695276e-07,2.1894707e-06,-1.0653358e-06,5.060516e-07,1.1799603e-06,9.2190623e-07,-2.850647e-06,-5.522089e-07,1.1162649e-06,-2.6063967e-06,-8.546906e-07,-2.0091706e-07,9.360813e-07,-2.4091337e-06,2.6436946e-06,-8.283215e-07,-1.3413141e-06,-3.637413e-07,-1.6480768e-06,-2.4237553e-07,2.2856275e-06,2.7167316e-06,-4.230321e-06,-8.4559224e-07,-7.5528703e-07,-1.2140066e-07,1.389997e-06,6.9689236e-07,9.170559e-07,5.2240657e-06,-2.1950166e-06,1.9145812e-06,8.897505e-07,1.0612322e-06,2.3914902e-07,3.8332053e-07,3.8611967e-07,8.254102e-08,6.494176e-07,2.0168554e-06,2.9503592e-06,4.3723358e-07,5.933059e-07,-5.0841513e-06,1.2359408e-06,-2.2894933e-06,1.1030115e-06,-9.926168e-08,7.3736146e-07,2.9054208e-06,1.9894387e-06,-1.6576249e-06,7.597716e-07,2.9012626e-06,1.2279088e-06,5.4689767e-06,1.7561927e-06,3.3009585e-06,1.4605054e-06,5.487141e-07,6.951236e-08,9.3634054e-07,2.6613386e-06,1.570079e-06,1.1008686e-06,1.3417443e-06,1.6315129e-06,1.2901162e-06,1.2949308e-06,1.8804824e-06,2.180758e-06,1.2496062e-06,4.456107e-06,2.0982422e-06,2.5035479e-06,-1.5026912e-06,1.5600828e-06,1.7333541e-06,2.0440618e-06,6.739896e-07,3.0657811e-06,-8.565683e-07,2.3271473e-06,1.8232988e-06,2.3674295e-06,3.976937e-06,3.1542904e-06,-1.1002148e-06,2.4764413e-06,1.923314e-06,1.1165721e-06,3.0876329e-06,5.138778e-07,-1.0538286e-06,2.2387912e-06,1.8697367e-06,2.5299823e-06,2.8669429e-06,1.495805e-06,3.7556108e-06,3.3444721e-06,3.5038343e-06,-2.3580653e-06,5.0258643e-07,7.3960678e-09,1.93102e-06,3.4718219e-06,1.0571453e-06,1.6167849e-06,7.388947e-07,1.3290526e-06
-6.041263e-07,-1.5788852e-06,-4.2397303e-07,-1.6136335e-06,1.1250089e-06,-1.218956e-06,-4.6770342e-07,-5.803838e-07,-8.1964225e-07,-3.2300542e-07,4.145691e-07,-1.6105272e-07,-1.0649972e-06,4.8489696e-08,-8.881388e-07,1.6034991e-07,-5.547708e-07,-4.6440982e-07,-4.960429e-07,-5.3952203e-07,5.081597e-08,-9.225081e-07,1.7077005e-07,1.6843615e-07,4.1789502e-07,-7.751794e-07,6.616416e-07,-6.9449743e-07,-2.072137e-07,7.0683785e-07,-1.6470623e-06,-2.86974e-08,-1.8286189e-06,-1.1957698e-06,9.493878e-08,8.264226e-07,-1.0096646e-06,-1.1731206e-06,-1.363461e-06,-9.1255316e-07,4.98433e-07,-6.8903506e-07,-3.289694e-07,-4.363954e-07,-8.828361e-07,2.835684e-07,5.275692e-07,-5.142723e-07,-1.1447902e-06,-3.8133854e-07,-1.0285046e-06,-7.690815e-07,-9.2890343e-07,-8.3235295e-07,-8.222345e-07,1.1252886e-06,8.962965e-07,1.1635286e-06,-1.0551447e-06,-1.1244979e-06,2.3237646e-07,-8.127661e-08,5.815201e-08,-4.569481e-07,-6.2751997e-07,-1.0563717e-06,-3.5613323e-07,-1.0823777e-06,3.478102e-07,-9.2317975e-07,-5.079994e-07,1.27703e-08,5.3488003e-07,-8.0346535e-07,2.6702338e-09,-1.6252164e-07,-8.9621847e-07,1.1854579e-07,-6.565398e-07,2.0170904e-07,-7.0891724e-07,-3.5077323e-07,-2.2791282e-07,-3.8285924e-07,2.7530868e-07,-5.249581e-07,6.45268e-08,9.894044e-07,3.9868632e-07,-4.706094e-07,2.4940098e-07,-5.104209e-07,1.3040196e-07,6.2940427e-07,-8.064387e-08,-1.5152187e-07,-1.290892e-06,-9.229437e-07,1.7720015e-07,-6.542392e-07,-3.0995517e-07,-9.977234e-07,-1.3825801e-06,-6.544625e-07,-2.290713e-08,-2.1134466e-07,-2.8695524e-07,5.831008e-08,-8.0807496e-07,-3.324607e-07,2.978488e-07,-3.5236064e-07,-9.695223e-07,4.3359563e-08,-4.837613e-07,-5.475112e-07,-5.542058e-07,-1.069116e-06,-6.870316e-07,1.0473675e-06,-1.6383758e-07,9.4489e-07,-1.051405e-06,-7.501933e-07,2.4184732e-07,-5.359426e-07,9.817771e-08,-2.7701702e-07,-8.005185e-07,7.6663343e-07,-3.3498787e-07,-3.6163158e-07,-5.0177215e-07,2.019244e-07,-5.491303e-07,-7.820307e-07,-2.374888e-06,-1.6606941e-06,4.2274038e-07,-1.0005926e-06,-1.216127e-06,-6.482428e-07,-1.0420347e-06,-4.068565e-07,9.1167166e-08,2.1090358e-07,-1.2412492e-06,7.195408e-07,4.5498894e-08,-1.214155e-06,-4.6226336e-07,2.0715893e-06,4.6668808e-07,-9.63237e-07,1.571336e-06,6.732545e-07,8.014966e-08,-3.8703675e-07,2.1188891e-06,-2.2819804e-06,9.0138934e-07,1.1610521e-06,3.8554347e-07,1.115724e-06,-2.4312534e-08,-1.8109879e-06,-1.9187794e-06,2.229636e-06,-9.456804e-08,4.2718165e-07,2.4795463e-07,-1.07494e-06,-5.104146e-07,-2.9062875e-07,-3.5147568e-06,1.5787284e-06,-1.3285094e-06,-6.208252e-07,-7.5585666e-07,-2.8656768e-07,-2.6244615e-07,3.808418e-08,-1.4422874e-07,-3.2926783e-07,-1.6395805e-06,-1.9988643e-06,-7.638767e-07,-2.6007837e-07,3.7084264e-06,-9.074184e-07,1.48673e-06,-7.062844e-07,-7.1106115e-08,-1.1594077e-06,-2.306283e-06,-1.5804437e-06,1.0035868e-06,-6.9565147e-07,-2.4489998e-06,-7.019405e-07,-1.7794489e-06,-1.7155268e-06,-2.13378e-06,-4.0217046e-07,-7.1705097e-07,-1.0724095e-07,-9.4833274e-07,-1.5337238e-06,-1.2407324e-06,-8.3472236e-07,-1.1781663e-06,-1.3385021e-06,-1.0569878e-06,-1.054999e-06,-1.5453497e-06,-1.736047e-06,-8.6814987e-07,-3.014826e-06,-1.701714e-06,-1.5335471e-06,4.847031e-07,-1.6615633e-06,-1.1707323e-06,-1.7630587e-06,-9.363031e-07,-2.0825591e-06,2.6004534e-07,-1.9675535e-06,-1.8500439e-06,-1.6842561e-06,-2.7414092e-06,-2.7710544e-06,2.3528065e-07,-1.6918234e-06,-1.6945949e-06,-1.0775236e-06,-2.1018868e-06,-5.2937014e-07,6.064009e-07,-1.6155901e-06,-1.6626425e-06,-1.8050116e-06,-1.8753188e-06,-1.5887169e-06,-2.7745828e-06,-2.281298e-06,-2.7958617e-06,1.3891554e-06,-1.9443264e-07,-3.5360887e-07,-1.1247265e-06,-2.9145108e-06,-1.1176477e-06,-5.3381865e-07,-7.857271e-07,-1.1854688e-06
-9.60148e-07,-3.156878e-06,-6.696631e-07,-2.8302993e-06,1.5687604e-06,-2.018376e-06,-1.7982842e-07,-1.2354644e-06,-8.739425e-07,-1.4095299e-06,7.072522e-07,3.1352684e-07,-1.5570101e-06,-1.3330792e-07,-1.7434286e-06,1.2607586e-07,-1.0499313e-06,-1.3829465e-06,-7.105939e-07,-6.8001987e-07,-1.3647309e-08,-1.4962291e-06,-4.7288546e-07,7.2229795e-09,6.1373714e-07,-1.0239971e-06,6.399672e-07,-1.0604758e-06,-4.9933465e-07,1.6676587e-06,-2.7291148e-06,-2.9996795e-07,-2.887561e-06,-2.036886e-06,-1.6274689e-07,-6.948781e-07,-1.8364443e-06,-2.0562197e-06,-2.035335e-06,-9.917965e-07,4.0970738e-07,-1.0727854e-06,-1.0520637e-08,-8.269591e-07,-1.443344e-06,1.7860705e-07,1.1453559e-06,-8.7791267e-07,-1.8731412e-06,-1.2350077e-06,-1.8133385e-06,-7.4808094e-07,-1.5092808e-06,-1.6627696e-06,-1.0675726e-06,1.5112494e-06,7.092752e-07,2.3026523e-06,-1.7840591e-06,-1.6333674e-06,-1.880511e-08,-3.3948865e-07,-2.3685647e-07,-8.025806e-07,-8.399317e-07,-1.6780289e-06,-3.513392e-07,-1.7505247e-06,8.644332e-07,-1.4475719e-06,-2.434022e-07,-7.1221274e-07,-7.9570384e-08,-1.4858743e-06,-2.4643864e-08,-6.188421e-08,-9.323989e-07,1.6343219e-07,-1.0250378e-06,3.8685383e-07,-1.0802082e-06,-8.8867387e-07,-2.8618263e-07,-2.0441166e-07,5.25432e-07,-7.73082e-07,-2.721527e-07,1.6597153e-06,6.3652203e-07,-7.68619e-07,4.0476004e-07,-9.661695e-07,7.1678784e-08,1.8586841e-06,-4.28229e-07,-2.7946908e-07,-2.3337577e-06,-1.6975315e-06,-1.5193173e-07,-1.6848692e-06,-3.6511491e-07,-1.3848298e-06,-1.6947533e-06,-1.117377e-06,-2.6242873e-07,-4.0375053e-07,-1.2586055e-07,6.3967775e-08,-1.1905278e-06,-4.129007e-07,1.0738756e-06,-6.892212e-07,-1.3517983e-06,-3.153611e-07,-7.7194966e-07,-6.348798e-07,-8.8631805e-07,-1.7296754e-06,-8.604948e-07,1.5568386e-06,-3.4747464e-07,1.9582708e-06,-1.4987099e-06,-1.0292567e-06,6.054921e-07,-9.4233224e-07,5.2805262e-08,-5.0242926e-07,-7.1291015e-07,1.8927084e-06,-3.1299294e-07,2.5836698e-07,-1.2744611e-07,-2.3243055e-07,-1.2534989e-06,3.6647094e-07,-2.6365983e-06,-2.0118869e-06,6.06913e-07,-8.258787e-07,-5.806779e-07,-1.4749695e-06,-7.38794e-07,-1.9916631e-07,4.6537906e-07,-6.492257e-07,-1.7459189e-06,9.40567e-07,-1.8719317e-07,9.2334744e-08,-1.0002594e-06,1.6863869e-06,8.9711915e-07,-4.6297987e-07,2.5823356e-06,6.306816e-07,3.6681888e-07,-2.2140719e-06,2.327221e-06,-2.8374825e-06,-3.477237e-08,6.824579e-07,1.0592812e-07,1.1596226e-06,7.866795e-07,-6.8639105e-07,-1.8673911e-06,3.7208692e-06,7.908141e-07,2.4084034e-07,-2.7924682e-07,-7.8036913e-07,-3.2435318e-07,-1.3119909e-06,-4.4588633e-06,1.2708978e-06,-1.3392673e-06,-1.1813288e-06,-5.2717496e-07,-6.927373e-08,1.007582e-07,-1.1258566e-06,2.5987964e-07,-1.2478668e-07,-5.106523e-07,-2.0622208e-06,9.346809e-07,-7.691668e-07,4.577119e-06,-5.7819557e-07,1.4661184e-06,-6.690161e-07,8.2850335e-07,-5.4740997e-07,-3.1747084e-06,-1.334161e-06,3.0926049e-06,-8.785225e-07,-2.2245545e-06,-7.742549e-07,-8.17076e-06,-1.0795613e-06,-2.7881224e-06,-7.7602414e-07,8.3803434e-07,7.776021e-07,-1.0702836e-06,-2.1939707e-06,-1.7719734e-06,-6.8239433e-07,-8.517409e-07,-9.706719e-07,-5.9470227e-07,-1.079309e-06,-2.3355838e-06,-1.5029558e-06,-1.0424212e-06,-3.5993794e-06,-2.185739e-06,-1.9589677e-06,2.336695e-06,-1.7624525e-06,-1.6329905e-06,-2.2899549e-06,-5.5851115e-07,-3.098217e-06,2.1630126e-06,-2.8713876e-06,-1.2539365e-06,-1.7411468e-06,-3.374578e-06,-3.5851435e-06,2.5259365e-06,-2.4602748e-06,-2.1012584e-06,-7.1027273e-07,-2.7589635e-06,9.577451e-08,2.3992643e-06,-1.7600914e-06,-2.2585841e-06,-2.4828653e-06,-2.1001524e-06,-1.4614404e-06,-3.723549e-06,-3.6539868e-06,-3.175391e-06,3.172862e-06,5.733479e-07,1.2484932e-06,-1.170399e-06,-3.3284748e-06,-2.1618939e-07,-1.0540405e-06,-1.2020598e-07,-9.560171e-07
-5.109275e-06,-1.1417512e-05,-1.4438444e-06,-1.0972928e-05,5.02241e-06,-6.998559e-06,-3.962382e-07,-6.9085445e-06,-5.924185e-06,-7.4449144e-06,1.1539277e-06,7.2013745e-07,-6.5021277e-06,-4.6055976e-07,-7.4888094e-06,1.3587749e-07,-3.3817494e-06,-5.7947054e-06,-2.2335066e-06,-2.0783873e-06,-5.7255374e-07,-6.1006886e-06,-1.4140564e-06,-2.771671e-06,2.8394443e-06,-5.1137868e-06,1.267967e-06,-5.1766087e-06,-2.8056393e-06,1.706449e-06,-1.0484637e-05,-1.6047993e-06,-1.1201228e-05,-8.412567e-06,1.8684267e-06,-5.3024637e-06,-6.4171177e-06,-8.770882e-06,-9.028114e-06,-5.8053392e-06,1.3458234e-06,-5.0408016e-06,-2.478761e-08,-4.4864787e-06,-6.3119496e-06,9.585642e-07,2.4710619e-06,-4.9682076e-06,-9.233421e-06,-4.2215224e-06,-9.176917e-06,-3.5365458e-06,-6.106905e-06,-5.8887576e-06,-4.1889753e-06,5.7332686e-06,8.036406e-07,5.593352e-06,-6.1652086e-06,-5.418328e-06,3.1786453e-07,-1.9840415e-06,-1.867551e-06,-3.5831397e-06,-3.0747476e-06,-7.66347e-06,-9.832595e-07,-6.8156523e-06,4.461134e-06,-3.9309525e-06,-1.2412679e-06,-4.536614e-06,1.2753696e-06,-5.756149e-06,-8.956904e-07,-1.3427564e-06,-4.2961947e-06,8.701845e-07,-4.46135e-06,1.2214482e-06,-3.594515e-06,-3.2706034e-06,-6.818194e-07,5.9265517e-08,1.6361323e-06,-2.858416e-06,-7.326737e-07,5.255413e-06,2.7127892e-06,-3.836907e-06,3.6987126e-07,-4.602495e-06,-6.4497397e-07,5.0293893e-06,-2.1257633e-06,-1.9809906e-06,-9.351844e-06,-6.1608685e-06,3.9724125e-07,-7.96041e-06,-8.5164686e-07,-5.111511e-06,-6.1137007e-06,-5.126115e-06,-1.8165574e-06,-2.204502e-06,-4.3800472e-07,-4.134081e-07,-5.1968764e-06,-3.2899277e-07,3.9542733e-06,-3.7202688e-06,-5.9770764e-06,-1.3035077e-06,-5.209008e-06,-2.6534876e-06,-3.7566706e-06,-5.6434137e-06,-3.1691932e-06,5.9231206e-06,-1.870636e-06,5.1500806e-06,-5.631764e-06,-4.348711e-06,3.5808882e-06,-3.6129436e-06,-7.799616e-07,-2.4329427e-06,-4.1593094e-06,9.030784e-06,-1.1487509e-06,1.3023428e-06,2.8157613e-06,-1.6778664e-06,-5.5311048e-06,5.993027e-06,3.0046142e-06,-5.660009e-06,6.945503e-07,-3.5272633e-06,-3.1588684e-06,-8.586828e-06,-1.3056533e-06,2.3408957e-06,1.2434385e-06,-3.0820154e-06,-4.692988e-06,3.953428e-06,2.64773e-07,3.5115727e-06,-3.83292e-06,-1.0903013e-06,1.3506394e-06,1.3218028e-06,7.3108276e-06,3.2608973e-06,2.3474631e-06,-1.5941738e-05,8.112258e-06,-7.5553303e-06,-4.830281e-08,6.842754e-07,-5.4007927e-08,-3.012815e-07,4.8854463e-06,9.937671e-07,-7.0203632e-06,8.718331e-06,1.8365683e-06,-3.685832e-07,-3.055758e-06,-3.7828372e-06,2.3652609e-07,-6.664467e-06,-1.7876599e-05,2.6548328e-06,-2.619959e-06,-3.4044247e-06,-1.8266919e-06,1.6382528e-06,-1.3573242e-06,-6.3841276e-06,3.3683368e-06,1.5132559e-06,5.0132276e-06,-1.7047635e-06,7.957832e-06,-3.9993492e-06,1.4505213e-05,1.1076025e-06,1.6586731e-06,-4.534779e-07,2.7548704e-06,-2.4868523e-06,-9.674819e-06,-3.8204007e-06,1.1060499e-05,-3.314328e-06,-4.5169236e-06,-1.4464024e-06,-3.20714e-05,-6.3864136e-06,-8.440771e-06,4.870226e-07,3.5760759e-06,3.298803e-06,-5.6924255e-06,-1.2930599e-06,-5.6492927e-06,-2.4746791e-06,9.528537e-07,-1.3884096e-07,1.3132767e-06,-3.4999487e-06,-9.151441e-06,-3.3742444e-06,-9.947476e-07,-7.710476e-06,-6.7119113e-06,-5.316285e-06,6.05802e-06,-1.3509752e-05,-4.7550648e-06,-7.859824e-06,-2.5267411e-06,-8.255925e-06,9.626149e-06,-1.01393225e-05,-2.0176474e-06,-4.015877e-06,-1.0094856e-05,-1.2584464e-05,1.1928526e-05,-6.6775283e-06,-4.264448e-06,-1.2978805e-06,-5.728145e-06,2.5748902e-06,6.862555e-06,-4.340157e-06,-9.26245e-06,-5.281914e-06,-7.887724e-06,-3.4010416e-06,-9.486215e-06,-9.789906e-06,-7.0609026e-06,9.120326e-06,4.3207674e-06,3.2864236e-06,-1.3351229e-06,-8.108116e-06,2.0092548e-06,-2.3924682e-07,6.0202456e-07,-2.377912e-06
-7.644686e-07,-1.822404e-06,-1.6711462e-07,-1.899664e-06,1.6873631e-06,-5.753702e-07,2.054183e-07,-3.6629777e-07,-1.5374334e-06,-2.0753546e-07,1.682602e-06,1.0946746e-06,-8.504338e-07,9.05902e-07,-4.2686136e-07,5.583047e-07,-3.9648808e-07,-6.558978e-07,-5.2178956e-07,3.5579546e-08,4.6886686e-07,-9.656197e-07,9.748856e-07,1.8428817e-06,1.6476113e-06,2.591517e-07,1.6897038e-06,-5.594856e-07,-1.251693e-07,2.5260997e-06,-1.633688e-06,1.7312843e-06,-1.9997242e-06,-1.2553551e-06,1.4056943e-06,1.2675793e-06,-8.886234e-07,-1.0504173e-06,-1.0771166e-06,-1.1485248e-06,1.3527417e-06,-5.6657296e-07,-4.5157655e-08,1.7328432e-08,-1.3151264e-06,9.601846e-07,1.6352146e-06,-5.1093974e-07,-1.4256105e-06,-1.2527573e-07,-8.31552e-07,-6.700609e-07,-1.2074597e-06,-6.305697e-07,3.7957187e-07,2.3458774e-06,1.2715776e-06,4.2879938e-06,-1.1277505e-06,-1.061029e-06,4.7374584e-07,2.4485388e-08,3.34817e-07,-3.431648e-07,-3.114199e-07,-1.1312359e-06,-2.564911e-07,-1.2268691e-06,1.1829219e-06,-6.275604e-07,-1.043951e-07,-3.526273e-08,4.5108888e-07,-4.8574896e-07,-3.1314826e-08,5.9005845e-07,-3.640066e-07,1.2391309e-06,-4.4918727e-07,4.7156826e-07,-9.639132e-07,-5.7268585e-07,-2.8925274e-07,4.0514692e-07,6.8507745e-07,-4.5280515e-07,6.149305e-07,2.472531e-06,1.2264869e-06,5.0418925e-07,1.0218998e-06,-6.4060197e-07,3.4652174e-08,2.61906e-06,-1.6171633e-08,8.316229e-07,-1.6475346e-06,-1.2950646e-06,8.348818e-07,-8.466204e-07,2.1090108e-07,-5.80892e-07,-1.2810162e-06,-7.760168e-07,2.397254e-07,-4.0116367e-07,-2.1508873e-07,5.5423135e-07,-1.1702542e-06,-4.384124e-08,1.356323e-06,-3.9215033e-07,-1.1114282e-06,-4.0613855e-08,-2.004814e-07,-6.1060575e-07,-6.765895e-07,-1.0980239e-06,1.192198e-07,2.320741e-06,-2.2404858e-07,3.2628413e-06,-8.9381103e-07,-1.0598527e-06,1.0360753e-06,-7.323025e-07,4.0620512e-07,-2.1120712e-07,-2.0800803e-06,8.7794774e-07,-8.275302e-07,-1.0061715e-06,-3.1706757e-06,3.8347895e-07,-8.6893743e-07,-1.129722e-06,-3.5991982e-06,-3.4202076e-06,1.2080633e-06,-2.0696943e-06,-1.7669656e-06,1.8870584e-06,-1.9535391e-06,-5.1283547e-07,6.66529e-08,1.782969e-06,-1.5749771e-06,2.4555175e-06,-6.654524e-07,-2.0284383e-06,-1.0608339e-06,3.1504774e-06,1.5788081e-06,-4.534171e-06,3.6119345e-06,2.190159e-06,1.3416354e-06,4.0971358e-07,2.2946626e-06,-3.2587818e-06,1.4760567e-06,1.7670886e-06,9.735703e-07,1.3526217e-06,-9.590647e-07,-2.626105e-06,-3.0398623e-06,2.1326239e-06,-1.1372296e-06,8.1199613e-07,5.793495e-07,-1.0638585e-06,-9.913869e-07,1.1467819e-08,-6.5320583e-06,1.5340303e-06,-1.929126e-06,-2.1503516e-07,-2.8846073e-06,6.068175e-07,-9.757788e-07,-9.559301e-09,-8.288997e-07,3.560579e-07,-2.7113906e-06,-4.2342226e-06,-1.020583e-06,8.796617e-08,7.5206885e-06,-2.0058467e-06,2.8139254e-06,-1.380276e-06,1.999578e-06,1.7743944e-06,-3.1105546e-06,-7.828025e-07,3.5820244e-06,6.0343467e-07,-2.1495775e-06,4.3884114e-07,-1.773813e-06,-1.6991692e-07,-2.6471569e-06,-7.155989e-08,2.4356705e-06,2.1748795e-06,-1.3560901e-07,-2.5849872e-06,-2.3074401e-06,-6.9228975e-08,-6.90394e-07,-5.3114275e-07,-1.3883101e-07,-2.6383475e-07,-1.4230576e-06,-4.9493667e-07,-1.0178844e-06,-3.0952779e-06,-2.2251256e-06,-1.7544806e-06,2.2845304e-06,-2.3775688e-06,1.0615405e-06,-7.126456e-07,5.4122484e-07,-1.959344e-06,3.5354785e-06,-1.4754032e-06,-1.7851565e-06,-1.1029176e-06,-2.987461e-06,-3.7437942e-06,4.394242e-06,-3.344092e-06,-3.4352583e-06,-2.1986713e-07,-2.976055e-06,6.5791494e-07,3.2362502e-06,-1.4514233e-06,-2.497457e-06,-3.7471552e-06,-1.9121812e-06,-2.3474956e-06,-4.472414e-06,-4.0932664e-06,-3.0944675e-06,4.5114743e-06,1.4729103e-06,1.1989785e-06,-2.120527e-07,-4.8834504e-06,4.1112662e-07,2.3424448e-07,-5.5119756e-08,-6.5044696e-07
7.5255844e-07,1.1167765e-06,2.3061806e-07,1.443591e-06,-1.117561e-06,1.0861995e-06,1.7371298e-07,5.82192e-07,1.8963536e-06,2.6964085e-07,-1.3484171e-06,-2.1666003e-07,1.0489796e-06,-9.6330695e-09,8.5322296e-07,-1.4920525e-07,5.50625e-07,8.574276e-07,2.7953433e-07,2.3814366e-07,-4.2138117e-07,6.3160167e-07,-5.5298625e-07,-1.1423635e-06,-8.729769e-07,2.665979e-07,-1.2221152e-06,9.2569303e-07,8.392729e-08,-2.224968e-06,1.1746847e-06,-9.367483e-07,1.6332821e-06,1.0607697e-06,-8.1733384e-07,-8.220402e-07,7.8257733e-07,9.855443e-07,1.4137532e-06,6.0774516e-07,-5.979049e-07,5.5785165e-07,1.4908653e-07,1.6958623e-07,1.2774849e-06,-3.0287777e-07,-1.094294e-06,3.535518e-07,9.236752e-07,4.0266738e-07,1.3959776e-06,6.858134e-07,1.1474737e-06,8.614614e-07,3.8013386e-07,-1.5891558e-06,-1.0679846e-06,-2.733511e-06,8.626364e-07,1.3532831e-06,-5.170844e-07,2.4574882e-07,-1.5478764e-07,2.8894635e-07,3.4128712e-07,9.2930054e-07,9.2956995e-08,1.0088056e-06,-8.317413e-07,7.773632e-07,2.0488173e-07,-1.0949464e-09,-4.869679e-08,4.2648563e-07,-3.652275e-09,-1.0006775e-07,3.9888147e-07,-4.3375715e-07,5.617947e-07,-1.5728153e-07,7.791832e-07,3.8121772e-07,4.1614868e-08,-4.7385754e-08,-6.0621414e-07,3.272416e-07,-4.163571e-07,-1.8932521e-06,-7.8997755e-07,-8.9314824e-08,-8.0214477e-07,7.4004186e-07,-6.946999e-08,-1.8535779e-06,-7.454608e-08,-4.479935e-07,1.1564246e-06,1.0096916e-06,-5.4318303e-07,7.714614e-07,-1.3841989e-07,5.788514e-07,1.2505371e-06,4.6007605e-07,6.518083e-08,1.7884896e-07,1.7348894e-07,-3.0201966e-07,9.924945e-07,2.7175213e-07,-9.645249e-07,2.3779359e-07,6.1777774e-07,9.570584e-08,6.263053e-07,6.31291e-07,5.718136e-07,1.0577915e-06,2.251397e-07,-1.525762e-06,-2.7653243e-08,-1.9264628e-06,7.5297356e-07,8.063451e-07,-9.94263e-07,6.124349e-07,-2.502831e-07,9.081126e-08,9.887067e-07,-1.3451058e-06,4.339316e-07,6.7731264e-08,1.836692e-06,7.9830436e-08,6.3274217e-07,1.2151315e-06,3.6544632e-06,1.9527363e-06,-1.5036071e-06,1.6229801e-06,1.2671628e-06,-4.0439988e-07,2.4155083e-06,1.0836013e-06,9.876942e-08,-1.5474874e-06,1.7681441e-06,-8.752513e-07,-3.1842653e-08,1.4773209e-06,6.843968e-07,-2.578376e-06,-1.7901667e-06,1.5823243e-06,-1.9130584e-06,-1.0228148e-06,-1.1121274e-06,-7.0855157e-07,-2.0271102e-06,2.554099e-06,-7.8439166e-07,-1.1438742e-06,-9.748234e-07,-6.532869e-07,-3.3103981e-07,2.3951034e-06,2.6268417e-06,-3.2773546e-06,-5.789871e-07,-4.0719812e-07,-8.816018e-07,1.3127745e-06,8.9108994e-07,3.7592292e-07,4.176498e-06,-2.139298e-06,1.2579537e-06,1.1352156e-06,1.7585003e-06,5.7765624e-07,4.4175104e-07,-3.3976852e-07,-1.0580635e-07,-2.2785466e-07,2.1073108e-06,4.003211e-06,-1.9629974e-07,-3.8919836e-08,-4.900163e-06,8.617408e-07,-2.7705805e-06,1.3448141e-06,-8.1510507e-07,-8.524527e-07,2.1834803e-06,1.6171853e-06,-1.4287431e-06,6.5125516e-07,2.1539101e-06,-8.823804e-09,2.242685e-06,1.5725166e-06,2.3140833e-06,7.812856e-07,-5.3333713e-07,2.0289954e-07,9.2671826e-07,2.2753916e-06,1.8680313e-06,9.988348e-07,6.563576e-07,1.1723826e-06,2.8523135e-07,1.2290885e-06,1.0346328e-06,1.5565056e-06,1.1774025e-06,2.4328788e-06,2.0769617e-06,2.1322383e-06,-1.4466513e-06,7.8760786e-07,4.7552007e-07,3.9043465e-07,-2.7759427e-08,2.4687465e-06,-2.3445948e-06,1.3222216e-06,9.252921e-07,1.0476203e-06,3.0839697e-06,2.7342676e-06,-2.416675e-06,2.4966412e-06,2.5055708e-06,5.793165e-07,2.7852036e-06,1.1797465e-07,-1.3991277e-06,1.5303924e-06,1.6748465e-06,2.5884344e-06,2.3931836e-06,1.6996474e-06,3.2869582e-06,3.293966e-06,2.5602792e-06,-2.8639283e-06,-2.7221182e-07,2.046026e-07,8.1060494e-07,3.5072226e-06,1.1898618e-07,8.1890755e-07,4.7830656e-07,8.352256e-07
-6.953299e-07,-1.4333427e-06,-3.6922046e-07,-1.5181156e-06,1.1702119e-06,-9.264378e-07,-4.2631842e-07,-5.8568776e-07,-5.8118354e-07,-1.8268355e-07,6.9872345e-07,-4.3135472e-08,-8.3607506e-07,9.3566385e-08,-6.9012594e-07,2.555543e-07,-3.9036811e-07,-6.2588333e-07,-4.1245414e-07,-4.1323273e-07,2.2861536e-07,-8.073094e-07,7.0537834e-07,7.1884017e-07,5.170366e-07,-6.6622374e-07,9.3698577e-07,-6.12415e-07,-1.4535789e-07,1.2663556e-06,-1.3367278e-06,6.2693357e-07,-1.6680672e-06,-1.0611897e-06,5.484683e-07,1.3940078e-06,-7.127986e-07,-8.7996244e-07,-1.1710016e-06,-8.8829415e-07,8.54256e-07,-5.2491777e-07,-3.234554e-07,-2.6200138e-07,-1.0207659e-06,3.5702413e-07,8.5120234e-07,-3.336599e-07,-1.0294763e-06,-2.0441138e-07,-1.2169439e-06,-6.73022e-07,-9.746622e-07,-6.410176e-07,-7.2105985e-07,1.5474138e-06,1.0890332e-06,1.7131772e-06,-7.8196103e-07,-1.0950866e-06,4.5877098e-07,-2.271834e-07,1.6166518e-07,-4.0550918e-07,-4.2020383e-07,-1.138415e-06,-1.6919931e-07,-1.1017206e-06,7.1949114e-07,-6.767427e-07,-3.9127724e-07,6.435698e-09,5.0699225e-07,-3.94508e-07,2.7928614e-08,-9.3336894e-11,-6.481365e-07,2.631992e-07,-5.4599843e-07,1.7925274e-07,-6.30913e-07,-3.692359e-07,-1.4561144e-07,-1.8477252e-07,4.2173144e-07,-4.1840414e-07,4.2526491e-07,1.4410653e-06,5.764507e-07,-2.2946719e-07,5.6115914e-07,-4.8025686e-07,9.9715834e-08,1.2181617e-06,-7.91729e-09,2.1605388e-07,-1.1400311e-06,-9.1388796e-07,3.929567e-07,-4.111869e-07,-1.1240729e-07,-6.756194e-07,-1.1707618e-06,-6.039183e-07,5.2586202e-08,-1.6894677e-07,-2.6065007e-07,1.9945072e-07,-7.9186213e-07,-1.8237192e-07,7.0238326e-07,-2.98261e-07,-7.728805e-07,5.9238886e-08,-5.7720763e-07,-4.5771202e-07,-4.6069593e-07,-9.3329936e-07,-4.3655893e-07,1.4016888e-06,3.955151e-09,1.2393824e-06,-7.238365e-07,-8.536185e-07,6.610351e-07,-5.2403357e-07,1.6303701e-07,-1.6618337e-07,-1.0843551e-06,1.1893111e-06,-1.315226e-08,-8.5751594e-08,-6.5926395e-07,-2.0747157e-07,-1.9733784e-07,-7.716826e-07,-1.4794789e-06,-1.3433012e-06,6.6491486e-07,-6.9948703e-07,-6.644863e-07,-3.105656e-07,-1.1355723e-06,-4.0595063e-07,4.6585058e-08,5.542465e-07,-1.3748622e-06,6.302431e-07,1.6244326e-07,-1.4088457e-06,-3.8165552e-07,2.0258894e-06,7.9220547e-07,-1.0896049e-06,1.4279526e-06,5.8828164e-07,2.739082e-07,-5.1107185e-07,1.6306915e-06,-2.4506157e-06,5.812994e-07,1.0374512e-06,3.090901e-07,4.2357533e-07,2.4028228e-07,-1.9877125e-06,-1.8495939e-06,2.0891466e-06,5.6761803e-07,3.9891276e-07,3.6385381e-07,-9.0416904e-07,-4.524784e-07,-7.6783977e-07,-3.0659942e-06,1.4288219e-06,-1.1250052e-06,-8.8333496e-07,-8.908453e-07,-4.805404e-07,-4.170561e-07,2.730971e-08,4.2039176e-08,-2.6065322e-07,-1.5407544e-06,-2.5154677e-06,-2.2073331e-07,-3.4354562e-07,4.019525e-06,-4.031961e-07,1.6710924e-06,-8.643547e-07,2.6038717e-07,-3.424634e-07,-2.1443218e-06,-1.6342974e-06,1.3973275e-06,-3.7907915e-07,-2.1257404e-06,-5.913965e-07,-1.474092e-06,-1.3249017e-06,-2.1707876e-06,-3.3147745e-07,1.8348402e-08,-2.0724077e-08,-6.54303e-07,-1.960939e-06,-1.2362241e-06,-1.0016207e-06,-1.3059663e-06,-1.3927421e-06,-9.78318e-07,-9.389412e-07,-1.245983e-06,-1.7742217e-06,-1.2858343e-06,-2.6859032e-06,-1.81573e-06,-1.6962466e-06,9.621149e-07,-8.990828e-07,-7.838497e-07,-1.2043529e-06,-4.944028e-07,-2.225325e-06,8.014671e-07,-1.7611414e-06,-1.5590783e-06,-1.4440598e-06,-2.4557467e-06,-2.826876e-06,8.1765484e-07,-1.910661e-06,-2.226435e-06,-1.0635297e-06,-2.3596517e-06,-4.7175902e-07,1.1775676e-06,-1.2536331e-06,-1.7419239e-06,-2.1960666e-06,-1.9739298e-06,-1.5629082e-06,-2.9338055e-06,-2.5001675e-06,-2.5546801e-06,1.9145714e-06,-5.183344e-08,-3.202146e-07,-1.0246438e-06,-3.2962569e-06,-7.6262825e-07,-6.3153743e-07,-7.2548613e-07,-1.2807969e-06
-3.424921e-07,-1.6317979e-06,-1.4542614e-07,-1.4199247e-06,7.7503125e-07,-8.4743044e-07,5.546937e-08,-8.8705656e-07,-2.023654e-06,-4.8358277e-07,9.132051e-07,2.8412128e-07,-9.76646e-07,-1.9743544e-07,-9.231806e-07,-7.2299414e-08,-7.99349e-07,-5.995904e-07,-4.998087e-08,-2.7256777e-07,-6.536729e-08,-6.518296e-07,4.2357436e-07,8.6445567e-07,7.7676566e-07,-3.223222e-07,1.0849434e-06,-6.8317803e-07,-2.4535393e-07,1.01415e-06,-9.758337e-07,7.4233714e-07,-1.4321938e-06,-1.1901278e-06,5.819409e-07,4.856496e-07,-1.0395077e-06,-9.632561e-07,-1.0047904e-06,-2.0068177e-07,4.3579706e-07,-6.542276e-07,-1.7566542e-07,-2.611238e-07,-1.2429839e-06,2.1649463e-08,1.0398691e-06,-3.8073026e-07,-9.468556e-07,-7.863194e-07,-1.3958121e-06,-6.635842e-07,-7.2467014e-07,-1.0688188e-06,-4.5686704e-07,1.5197314e-06,8.320993e-07,1.825573e-06,-1.3549356e-06,-1.0539388e-06,3.333118e-07,-5.259143e-07,-1.3370652e-07,-3.3050821e-07,-3.880785e-07,-1.3324047e-06,-1.1453646e-07,-1.1247577e-06,2.0035725e-07,-1.0296637e-06,-1.03867706e-07,-4.8147257e-07,3.7280893e-07,-8.3123086e-07,8.623108e-09,5.073062e-08,-5.813352e-07,1.0346789e-07,-5.629049e-07,7.943332e-08,-8.790745e-07,-4.335456e-07,2.3229909e-08,-6.542424e-08,1.7006339e-07,-4.4034402e-07,8.5844846e-08,1.4412916e-06,6.4360916e-07,-3.1631475e-07,7.014497e-07,-5.9027536e-07,1.1328751e-09,1.2987056e-06,-1.6731457e-07,2.6056705e-07,-1.1790083e-06,-1.0897819e-06,2.564522e-07,-8.890952e-07,-4.177395e-07,-8.2991687e-07,-1.0044077e-06,-3.4562007e-07,-3.5173173e-07,-2.9823147e-07,-2.2359029e-07,9.864637e-08,-1.0306204e-06,-5.2707907e-07,5.705372e-07,-3.0991436e-07,-6.725028e-07,-1.9675394e-07,-6.4644837e-07,-6.6414486e-07,-5.0546e-07,-1.2846411e-06,-3.9600195e-07,1.327026e-06,-5.41462e-07,1.3494997e-06,-1.100456e-06,-6.477575e-07,3.0208514e-07,-8.5450205e-07,8.6817366e-08,-2.2830315e-07,-6.299365e-08,1.9167815e-06,-1.0221933e-07,8.975355e-07,4.2162716e-07,-2.9772e-07,-5.6364e-07,-2.2117757e-07,-2.2185532e-06,-4.122878e-07,2.1380686e-07,-3.5566e-07,-4.5360514e-07,-1.0785612e-06,-3.4550777e-07,-7.6800796e-07,2.0975781e-07,-6.928772e-07,-1.2509279e-06,2.6970844e-07,-1.8772492e-07,2.3435115e-07,-1.9462615e-07,8.1639917e-07,3.0178583e-07,-4.3178517e-07,1.0612036e-06,-8.45223e-08,-7.6549895e-08,-1.9870336e-06,8.291379e-07,-1.9458307e-06,-2.8739055e-07,1.16750584e-07,6.8320375e-08,-2.4319047e-07,4.2333858e-07,-7.2871137e-07,-1.313939e-06,2.1904789e-06,2.7344208e-07,1.0841005e-07,-3.441756e-07,-4.014151e-07,-1.4727922e-07,-6.9482206e-07,-2.5750915e-06,9.66154e-07,-6.3429115e-07,-7.394584e-07,4.4664262e-07,-4.4641797e-07,3.5283793e-07,-7.6555307e-07,3.159746e-07,3.1753203e-07,-8.983206e-07,-1.4199433e-06,-3.0244547e-07,-7.810138e-07,4.684757e-06,2.6668042e-07,1.1608769e-06,-4.3513052e-07,8.4886267e-07,2.821062e-07,-1.4243154e-06,-5.711309e-07,1.8439381e-06,-5.477426e-08,-1.5034382e-06,9.75684e-08,-4.762069e-06,-4.833097e-07,-1.1364302e-06,-4.587086e-07,5.647777e-07,5.671261e-07,-5.535461e-07,-1.3425581e-06,-1.472617e-06,-8.147728e-08,4.5678433e-08,-1.1764868e-07,-2.6575842e-07,-3.2485573e-07,-1.0004752e-06,-1.9513828e-07,-8.8737245e-08,-2.128737e-06,-7.6989926e-07,-1.087097e-06,1.2255784e-06,-9.2820216e-07,-4.4486538e-07,-5.0699134e-07,5.054943e-08,-1.2700481e-06,1.915849e-06,-8.616393e-07,-1.049751e-06,-7.417458e-07,-1.9537765e-06,-1.3941476e-06,2.0898472e-06,-1.3321751e-06,-1.3856533e-06,-1.3508205e-07,-2.0725988e-06,-1.6481215e-07,1.9103404e-06,-1.2770909e-06,-9.3432413e-07,-1.71555e-06,-1.3815018e-06,-7.594549e-07,-2.13081e-06,-2.3512982e-06,-1.8639266e-06,2.343213e-06,5.8927424e-07,2.442625e-07,-7.2661027e-07,-2.1525886e-06,-1.51714e-07,-5.257069e-07,1.6824873e-07,-8.988181e-08
5.7599283e-07,1.3418646e-06,1.180931e-07,1.0655131e-06,-1.1055137e-06,5.703149e-07,3.12844e-08,4.2605964e-07,1.2778123e-06,3.4882217e-07,-5.005278e-07,-3.1371385e-07,7.92171e-07,-2.3683393e-07,7.7668454e-07,-2.0278674e-07,6.673289e-07,7.4012985e-07,3.0924969e-07,1.7048195e-07,-2.5543153e-07,6.381879e-07,-1.231634e-07,-7.927381e-07,-7.315995e-07,4.020642e-07,-7.67844e-07,7.1325724e-07,3.1696672e-07,-9.49514e-07,9.4493095e-07,-4.5012575e-07,1.5888721e-06,9.731485e-07,-4.8723524e-07,-3.144237e-07,9.822686e-07,1.0461513e-06,1.03312e-06,3.470962e-07,-3.9895463e-07,3.7293623e-07,-1.3695143e-09,1.0680347e-07,8.3118516e-07,-3.7098934e-07,-1.3160792e-06,2.458304e-07,1.0085923e-06,4.9995515e-07,9.68971e-07,3.375261e-07,1.0148353e-06,7.5662047e-07,3.6024844e-07,-1.2451659e-06,-8.816203e-07,-1.4107158e-06,1.353311e-06,8.851898e-07,-2.7787547e-07,-4.8641372e-08,8.746582e-09,3.836984e-07,6.2314587e-07,1.0178017e-06,2.744756e-07,8.384077e-07,-2.3828966e-07,9.1327803e-07,2.8548016e-07,1.2831157e-07,-8.553408e-08,1.0384633e-06,6.526045e-08,5.7583236e-09,8.128086e-07,-2.5421846e-07,6.6874225e-07,-1.12731655e-07,1.0287176e-06,5.978244e-07,3.192296e-07,1.8756793e-07,-2.1296371e-07,4.9771074e-07,1.1038205e-07,-9.443696e-07,-4.2497567e-07,4.1126742e-07,-4.7721596e-07,6.7348617e-07,1.143672e-07,-1.0882563e-06,8.383286e-08,-1.4386217e-07,1.3055187e-06,9.94298e-07,-1.5407608e-07,7.8544764e-07,5.4106033e-07,1.0922984e-06,1.3338124e-06,4.476787e-07,1.3135539e-07,3.3052515e-07,2.565276e-07,-1.5979474e-08,8.047931e-07,4.4564038e-07,-6.105569e-07,3.5799962e-07,7.9230347e-07,1.2722681e-07,5.707245e-07,4.7629686e-07,6.7653e-07,1.3162096e-06,5.2741257e-07,-1.1405145e-06,3.0130545e-07,-1.0814205e-06,1.3347286e-06,9.994792e-07,-1.7658657e-08,5.706779e-07,-3.61116e-08,2.6204515e-07,5.8297434e-07,-7.242623e-07,2.0200038e-07,-2.68902e-07,8.928066e-07,-3.5224403e-08,4.87486e-07,3.4363964e-07,3.4510856e-06,1.6085482e-06,-2.0077675e-07,1.0650956e-06,8.4285944e-07,7.081436e-07,2.75713e-07,1.5743957e-07,-5.165763e-07,3.3241588e-07,9.351701e-07,-6.965504e-07,-8.800555e-08,3.7480675e-08,4.5116735e-07,-1.0096306e-06,-2.3157901e-07,1.4462393e-06,-1.6669984e-06,-5.9965055e-07,-1.966356e-07,6.222197e-07,-1.0137126e-06,1.6813569e-06,-4.1290696e-07,-8.0892323e-07,-1.2783278e-07,-5.412771e-07,1.3224412e-07,8.644811e-07,1.5287685e-06,-1.7777193e-06,4.672257e-07,1.8796347e-07,3.1499692e-07,3.8956955e-07,3.4302298e-07,4.3145786e-07,2.6603777e-06,-8.9225404e-07,1.187421e-06,6.652934e-07,3.0920035e-07,1.9088034e-08,1.11092334e-07,8.442539e-07,5.676881e-09,3.1653886e-07,1.2586809e-06,1.6003434e-06,4.656699e-08,8.2885157e-07,-4.278278e-06,7.758337e-07,-1.1979639e-06,5.2760913e-07,-5.497482e-07,7.8570395e-08,1.802238e-06,5.639429e-07,-2.0614623e-06,-3.881464e-07,1.4063932e-06,-1.7005323e-07,3.729191e-06,3.67773e-07,1.5997753e-06,1.714838e-08,-4.314664e-07,-5.483574e-07,3.039657e-07,1.2200406e-06,1.2695677e-06,3.3921074e-07,4.715887e-07,3.340721e-07,5.804267e-07,7.863215e-07,9.055754e-07,6.201116e-07,3.5403033e-07,2.582872e-06,9.066024e-07,1.0363893e-06,-7.164223e-07,1.7151888e-06,-8.776453e-09,3.3876046e-07,2.004638e-07,1.4403745e-06,-1.3836625e-06,1.0772784e-06,1.2480309e-06,1.0116842e-06,2.089881e-06,1.8650389e-06,-1.2279477e-06,1.509456e-06,1.7341836e-06,5.198714e-07,1.9760455e-06,1.17834645e-07,-2.3005412e-06,1.2636499e-06,5.3169225e-07,1.8821025e-06,1.7605207e-06,1.1212272e-06,2.3304137e-06,1.836872e-06,2.2144254e-06,-2.4377455e-06,-6.073141e-07,1.6198248e-07,8.667841e-07,2.7449066e-06,-1.1204085e-07,5.6618433e-08,4.6368385e-07,3.1886998e-07
-5.7291896e-07,-1.246259e-06,7.0141937e-10,-1.5669111e-06,1.3515407e-06,-8.929586e-07,5.0317965e-08,-4.7499358e-07,-1.2062062e-06,-5.1255483e-07,1.2642862e-06,6.644441e-07,-8.5952905e-07,3.2940613e-07,-8.684806e-07,3.38436e-07,-6.892733e-07,-8.2962606e-07,-3.8046525e-07,-2.4028688e-07,3.1348912e-07,-9.598962e-07,8.507268e-07,1.3933425e-06,8.5005524e-07,-1.615017e-07,1.3146356e-06,-6.26181e-07,-2.3926577e-07,2.101397e-06,-1.229698e-06,9.1466075e-07,-1.6835838e-06,-1.2203642e-06,7.3866465e-07,1.2235554e-06,-1.0557899e-06,-1.1038005e-06,-1.0177215e-06,-4.675935e-07,1.1168893e-06,-5.8503e-07,-4.1497657e-08,-1.7961861e-07,-1.2293607e-06,4.9398705e-07,1.1006769e-06,-3.8094538e-07,-1.3191027e-06,-5.0560163e-07,-1.2373622e-06,-5.626168e-07,-9.776895e-07,-8.5836393e-07,-2.9262128e-07,1.7028592e-06,1.2330681e-06,2.5951872e-06,-1.0940664e-06,-1.2072156e-06,2.974672e-07,-7.796449e-08,7.243594e-08,-4.825039e-07,-3.6252214e-07,-8.6912405e-07,6.082033e-08,-9.305262e-07,1.0025644e-06,-6.467083e-07,-1.5700158e-07,-1.4750319e-07,1.284983e-07,-7.9811616e-07,-3.670356e-08,3.5275875e-07,-4.0897834e-07,5.521394e-07,-6.062762e-07,4.890984e-07,-9.295102e-07,-6.3626584e-07,-1.5927903e-07,1.6634016e-07,5.92442e-07,-5.278738e-07,5.7759394e-07,2.0395912e-06,6.56878e-07,2.2089068e-08,9.670359e-07,-5.193218e-07,1.151202e-07,2.0310154e-06,-2.7198833e-08,4.4660788e-07,-1.2973846e-06,-1.0920121e-06,4.4770204e-07,-5.632483e-07,-9.174843e-08,-7.1274576e-07,-9.829446e-07,-4.691131e-07,1.8256364e-07,-2.7617824e-07,-1.565873e-07,3.6451087e-07,-1.0999486e-06,-1.877961e-07,1.078229e-06,-1.7601178e-07,-9.016162e-07,-6.2938796e-08,-3.40662e-07,-5.5630034e-07,-4.826285e-07,-1.08274e-06,-2.4331635e-07,1.6400118e-06,8.476749e-08,2.0186935e-06,-9.471612e-07,-9.150763e-07,7.6264905e-07,-5.9079605e-07,2.6140648e-07,-2.8664886e-07,-6.1923487e-07,1.0749998e-06,-3.0507016e-07,8.656764e-08,-1.2785124e-06,1.8505342e-07,-2.0068093e-07,-5.244569e-07,-4.1606263e-06,-1.7069227e-06,2.4397374e-07,-5.605918e-07,-9.775188e-07,-5.998261e-07,-4.3366748e-07,9.113555e-08,6.2283164e-07,-1.2610593e-07,-1.3421871e-06,1.257876e-06,1.0698534e-07,-4.0872936e-07,-4.6821475e-07,1.640539e-06,1.0797853e-06,-1.7729549e-06,2.1431167e-06,2.333727e-07,-1.01059875e-07,-9.564267e-07,1.7054762e-06,-2.8870713e-06,2.3389345e-07,8.278312e-07,2.924246e-07,7.515141e-07,2.4924248e-08,-1.0649749e-06,-1.6769135e-06,2.5240397e-06,9.8053874e-08,2.2821465e-07,3.580537e-08,-4.925242e-07,-3.6203855e-07,-6.49046e-07,-3.2889752e-06,9.904741e-07,-7.63644e-07,-1.1087699e-06,-4.3519407e-07,-4.1904505e-07,2.6313955e-07,-5.138844e-07,1.60989e-07,-1.1585006e-07,-2.0085995e-06,-2.168303e-06,8.588735e-08,-6.6635397e-07,4.9507707e-06,-6.4580246e-07,1.8934835e-06,-7.6532194e-07,1.165817e-06,8.254881e-07,-2.2454449e-06,-7.9905357e-07,2.5783422e-06,-1.1331724e-07,-1.5302678e-06,1.8871663e-07,-3.7657517e-06,-5.9084186e-07,-1.6660755e-06,-7.166676e-09,1.3155379e-06,8.311585e-07,-7.5948714e-07,-1.4877562e-06,-2.023148e-06,-4.5244428e-07,-3.2018045e-07,-4.020835e-07,2.4001886e-07,-9.1041636e-07,-1.2414823e-06,-1.8004351e-07,-9.227945e-07,-2.2090744e-06,-1.264214e-06,-1.6332763e-06,1.7552578e-06,-9.341245e-07,-8.009374e-08,-5.562397e-07,2.4290517e-07,-1.8602775e-06,2.4752521e-06,-1.0584862e-06,-6.9517245e-07,-7.136186e-07,-2.5548002e-06,-2.3782648e-06,2.9077335e-06,-2.012152e-06,-2.1666244e-06,-4.203855e-10,-2.195779e-06,3.514079e-07,2.187112e-06,-1.2455595e-06,-1.4633381e-06,-2.1762753e-06,-2.099216e-06,-1.1287964e-06,-3.004904e-06,-2.7964616e-06,-1.8978071e-06,3.0212548e-06,9.741455e-07,4.830085e-07,-3.2513137e-07,-3.0030126e-06,7.628127e-07,-4.3952494e-07,-1.9050702e-07,-5.22777e-07
-4.2727655e-07,-1.6436636e-06,-3.8411704e-07,-1.3777108e-06,1.2951072e-06,-5.3965016e-07,-2.7234614e-07,-2.6467387e-07,-4.172221e-07,-4.3779323e-07,2.1180078e-07,8.819944e-08,-8.3050475e-07,4.1778424e-07,-6.2033587e-07,3.3794132e-07,-4.955182e-07,-5.5292804e-07,-6.6577184e-07,-3.183922e-07,1.9729907e-07,-7.810764e-07,-9.3989854e-08,4.5305956e-07,3.754879e-07,-4.330082e-07,3.600365e-07,-4.426156e-07,-2.6558914e-07,4.4173711e-07,-1.4510409e-06,9.5767405e-08,-1.8521853e-06,-9.979593e-07,1.9341331e-07,1.3188583e-07,-1.3144713e-06,-1.1473617e-06,-9.934586e-07,-7.3149994e-07,4.2406626e-08,-4.1226508e-07,-4.538359e-08,-2.0564983e-08,-6.409672e-07,2.122467e-07,9.813463e-07,-3.6105718e-07,-1.0166722e-06,-3.4642284e-07,-5.099474e-07,-2.1132502e-07,-1.172111e-06,-7.8743267e-07,-4.1141558e-07,1.0360123e-06,6.8176234e-07,1.2855692e-06,-1.4037312e-06,-1.0091244e-06,-1.8859339e-08,-9.0200075e-08,2.1536493e-08,-4.8523873e-07,-5.845129e-07,-6.4442213e-07,-3.3001294e-07,-6.95876e-07,3.216211e-07,-8.267045e-07,-3.6377247e-07,1.0391415e-07,3.1902368e-07,-1.2466513e-06,-1.3896941e-07,8.729435e-08,-8.853268e-07,4.1115194e-07,-6.304126e-07,4.618029e-07,-8.627536e-07,-5.649541e-07,-4.7179583e-07,-2.7232733e-07,2.697352e-07,-5.435757e-07,-1.6481044e-07,1.0188354e-06,3.9795628e-07,-3.7348042e-07,2.4789807e-07,-3.3335408e-07,5.3498695e-08,5.535559e-07,-5.7449814e-08,3.1795366e-09,-1.3492497e-06,-1.0222968e-06,1.4542125e-07,-8.773855e-07,-5.3957194e-07,-9.971425e-07,-1.381992e-06,-4.9901587e-07,-2.1076038e-07,-1.7982227e-07,-2.0303449e-07,1.8235981e-07,-7.8104716e-07,-4.9565136e-07,6.5323803e-07,-2.607173e-07,-8.7264425e-07,8.30276e-08,-3.302759e-08,-3.2793577e-07,-6.892118e-07,-1.2625603e-06,-4.6881698e-07,1.1249776e-06,-3.4343753e-07,1.1808221e-06,-1.3268678e-06,-9.616479e-07,-2.4776662e-07,-6.7594397e-07,1.1180066e-07,-3.3878155e-07,-5.311849e-07,1.0602934e-06,1.5654166e-08,1.55632e-07,-2.847236e-07,-9.9745854e-08,-2.7271238e-07,-1.8896189e-07,-2.1630808e-06,-1.597654e-06,3.9058946e-08,-5.3099603e-07,-8.07045e-07,-8.2146903e-07,-4.2573288e-07,2.4551474e-07,3.6191545e-07,-5.6340104e-07,-6.473704e-07,5.695558e-07,4.3956624e-07,-5.912413e-07,-3.0900864e-07,3.000683e-07,3.54096e-08,-1.0427665e-06,1.3235866e-06,3.6822388e-07,4.796575e-08,-3.397555e-07,1.1996297e-06,-1.3789972e-06,5.5071087e-07,8.83203e-07,-9.930859e-08,7.872545e-07,-2.4288607e-07,-9.336546e-07,-1.5753201e-06,1.4964088e-06,7.331976e-08,-3.271701e-08,-3.025332e-07,-3.3748375e-07,-2.1656946e-07,-4.088322e-07,-2.463856e-06,7.32962e-07,-1.1043801e-06,-5.7178977e-07,-3.718878e-07,-2.5620164e-07,-9.8879866e-08,-5.5026055e-07,7.0667355e-08,-1.4162049e-06,-1.1279875e-06,-1.276732e-06,-5.332468e-07,-6.2857987e-07,3.7768257e-06,-1.2444505e-06,1.0242738e-06,-5.2572364e-07,4.993079e-07,-5.6265475e-07,-2.5786358e-06,-9.774933e-07,2.7517244e-06,7.420548e-07,-1.8971225e-06,-3.344951e-07,-1.7199274e-06,2.0620485e-07,-2.2937534e-06,-1.6299492e-07,2.339396e-07,9.711754e-07,1.3675646e-07,-1.4585819e-06,-7.1425234e-07,-2.0072065e-07,-1.497923e-06,-1.0768126e-06,-1.4614216e-06,-5.9838476e-07,-1.4581074e-06,-1.2778853e-06,-6.9555034e-07,-3.2363607e-06,-1.597095e-06,-1.1607792e-06,1.6022834e-06,-1.7503104e-06,-6.483093e-07,-1.1863069e-06,-6.545331e-07,-1.8338684e-06,9.69573e-07,-1.8039705e-06,-1.9599004e-06,-1.3843471e-06,-2.3694308e-06,-2.790281e-06,3.2712302e-07,-2.3322095e-06,-2.2340107e-06,-8.57685e-07,-2.0584848e-06,-1.7277813e-07,2.348192e-06,-1.5675964e-06,-6.8996866e-07,-2.2179556e-06,-1.4467721e-06,-1.7766392e-06,-3.0708502e-06,-2.2956583e-06,-2.5291072e-06,2.5218915e-06,3.776232e-07,3.385939e-07,-9.912754e-07,-3.8754592e-06,-4.132949e-07,-2.3296168e-07,-9.106276e-07,-1.0463415e-06
-2.369488e-07,-1.5237083e-06,-2.703622e-07,-1.2061439e-06,1.0196945e-06,-7.1053665e-07,-1.255226e-07,-4.4092337e-07,-7.7346664e-07,-3.4414506e-07,8.8312845e-07,2.4136114e-07,-7.758731e-07,8.100912e-08,-6.536037e-07,8.347165e-08,-6.7916136e-07,-4.7801103e-07,-2.587903e-07,-3.0045283e-07,-1.4531167e-08,-5.7736474e-07,5.2076496e-07,9.311898e-07,3.9900868e-07,-1.8843855e-07,9.702364e-07,-5.8708093e-07,-1.3256704e-07,1.2829009e-06,-1.0823879e-06,7.5117543e-07,-1.4457505e-06,-1.0102452e-06,7.514448e-07,8.6279607e-07,-1.1922325e-06,-9.070244e-07,-8.128582e-07,-5.583695e-07,1.3225598e-07,-5.6013187e-07,-1.9996197e-07,-1.1163564e-07,-9.793313e-07,-6.820043e-08,9.028671e-07,-5.0119365e-07,-6.9291184e-07,-5.1123595e-07,-7.9288145e-07,-6.36678e-07,-9.0062133e-07,-8.667448e-07,-3.6863634e-07,1.2894554e-06,8.8532363e-07,2.1899739e-06,-1.1843357e-06,-8.78744e-07,1.3042903e-07,-3.3406036e-07,1.2197145e-07,-2.3844336e-07,-3.485894e-07,-9.675872e-07,-1.3747534e-07,-8.6833387e-07,4.2883744e-07,-8.3286017e-07,-1.2037268e-07,-5.3504124e-08,4.173465e-07,-8.24467e-07,4.537099e-08,2.3791245e-07,-4.533286e-07,3.2749213e-07,-4.5115576e-07,2.193108e-07,-8.5595224e-07,-4.6181623e-07,-1.12033554e-07,-6.8485164e-08,1.9336616e-07,-3.2654768e-07,1.7010456e-07,1.4401684e-06,4.371603e-07,-1.13622306e-07,7.338282e-07,-4.6172244e-07,2.2925917e-08,1.2092719e-06,-9.484822e-10,3.756542e-07,-1.097211e-06,-1.0050512e-06,4.4156445e-07,-7.870618e-07,-4.5053446e-07,-6.502434e-07,-9.3217426e-07,-3.5646252e-07,-4.3484403e-07,-2.2446036e-07,-1.619688e-07,2.3410375e-07,-8.378667e-07,-6.2347e-07,5.7230375e-07,-2.9200658e-07,-5.790529e-07,-1.6866149e-07,-1.7422671e-07,-6.5311644e-07,-4.986939e-07,-1.1486638e-06,-2.4904358e-07,1.241741e-06,-2.8855925e-07,1.6873342e-06,-1.03276e-06,-7.9385694e-07,1.9408367e-07,-7.050816e-07,2.2435607e-07,-1.8474788e-07,-3.238963e-07,1.2623054e-06,-7.5105845e-08,4.6130162e-07,-3.370991e-08,-4.0380516e-07,-6.040347e-07,-1.3863609e-06,-2.1302064e-06,-8.493233e-07,5.582663e-07,-3.5608952e-07,-6.0569846e-07,-9.0255804e-07,-1.3077708e-06,-8.5550755e-07,2.2184746e-07,-6.460084e-09,-1.4555053e-06,5.6989984e-07,-2.9553837e-07,-9.4689045e-07,-2.823266e-07,1.4193577e-06,4.594105e-07,-9.48094e-07,1.204117e-06,7.3104616e-08,-2.7178174e-08,-4.4582498e-07,1.2417617e-06,-2.1132275e-06,2.478996e-07,4.9092046e-07,2.2347594e-07,7.5761585e-07,3.9189163e-07,-1.6093933e-06,-2.0032217e-06,2.8173317e-06,3.3101762e-07,2.675223e-07,3.0871973e-08,-5.999801e-07,-3.307622e-07,-4.487695e-07,-2.9617963e-06,1.1396845e-06,-1.0761917e-06,-7.6927483e-07,3.458922e-09,-9.2273456e-07,1.6589814e-07,-2.668423e-07,3.0114217e-07,-3.2341407e-07,-1.6454868e-06,-2.0917878e-06,-6.563299e-07,-6.6677575e-07,5.160665e-06,-4.5304097e-07,1.6819063e-06,-7.875529e-07,7.273073e-07,7.0857624e-08,-1.9348988e-06,-9.2767414e-07,2.0280568e-06,2.4527807e-07,-1.6092897e-06,-3.1082763e-07,-2.531121e-06,-3.0716419e-07,-1.5410558e-06,-3.408402e-07,3.1118674e-07,4.4446242e-07,-3.480847e-07,-1.5311596e-06,-1.6350426e-06,-5.0709446e-07,-4.5848716e-07,-7.9718245e-07,-8.4969594e-07,-7.7976125e-07,-1.0015565e-06,-8.2364187e-07,-6.8710847e-07,-2.148683e-06,-1.2481244e-06,-1.5519236e-06,1.156733e-06,-1.1598624e-06,-6.2509264e-07,-6.9735944e-07,-4.6898148e-07,-1.6387019e-06,1.6162348e-06,-9.983746e-07,-1.8015684e-06,-9.850496e-07,-1.9470995e-06,-2.0840016e-06,1.4396375e-06,-2.1167991e-06,-2.2365666e-06,-6.1006676e-07,-2.0585478e-06,-6.265459e-07,1.6365445e-06,-1.9222584e-06,-6.7216547e-07,-2.2628249e-06,-1.4371643e-06,-1.5448354e-06,-2.6621599e-06,-2.5408779e-06,-1.9952097e-06,2.2154381e-06,4.879485e-07,5.9195287e-08,-8.220348e-07,-3.2131618e-06,-2.4385568e-07,-2.944618e-07,-3.1724818e-07,-6.10876e-07
4.0099906e-07,1.201612e-06,4.2415462e-07,8.218941e-07,-9.4749095e-07,5.392824e-07,8.261682e-08,3.6050693e-07,1.0840793e-06,2.644119e-07,-5.088984e-07,-1.8818606e-07,5.895971e-07,-7.788845e-08,6.3857414e-07,-2.4183578e-07,3.7678697e-07,5.217781e-07,2.8085944e-07,9.332922e-08,-3.967867e-07,5.0089227e-07,-3.7174033e-09,-6.214859e-07,-4.255748e-07,2.2619312e-07,-5.53001e-07,6.5932056e-07,1.5949675e-07,-6.5139807e-07,8.509534e-07,-6.099395e-07,1.3456718e-06,9.536618e-07,-3.9807213e-07,2.3227862e-07,8.5466104e-07,8.105526e-07,7.550365e-07,3.5472817e-07,1.3059562e-08,3.013402e-07,1.1789225e-07,1.9145261e-08,9.445077e-07,-3.3052984e-08,-1.0476392e-06,9.754817e-08,8.46372e-07,1.6263579e-07,1.1253637e-06,3.244271e-07,8.4200747e-07,6.124661e-07,5.4473196e-07,-1.1860919e-06,-5.3314596e-07,-1.6222841e-06,1.1507058e-06,6.4617115e-07,-3.4295647e-07,2.4285487e-07,-8.4921396e-08,2.5508325e-07,4.4030475e-07,9.3748963e-07,2.8375163e-07,7.3139563e-07,-2.6920154e-07,8.3146557e-07,1.7718241e-07,2.0768779e-07,-5.106896e-07,8.8612757e-07,5.9174422e-08,-7.957141e-08,6.739305e-07,-1.9048373e-07,5.697913e-07,-2.2794167e-07,7.541279e-07,4.6195922e-07,2.0785316e-07,6.526037e-08,-3.6706786e-07,4.2214293e-07,5.923259e-08,-1.0493025e-06,-4.0532498e-07,3.0259386e-07,-3.680076e-07,6.1354854e-07,3.1154627e-08,-8.240334e-07,1.6108108e-07,-2.304802e-07,1.1676632e-06,1.0455332e-06,-1.2051746e-07,1.1653535e-06,4.5349515e-07,8.721425e-07,1.0941226e-06,3.278806e-07,3.789956e-07,1.7559589e-07,2.1132692e-07,-1.4055875e-07,8.957061e-07,5.2933865e-07,-5.3172965e-07,2.7282994e-07,6.536504e-07,-7.720911e-08,5.3018573e-07,4.7321137e-07,5.3208595e-07,1.0927172e-06,4.2246444e-07,-1.1418625e-06,4.8307413e-07,-1.2199009e-06,1.165721e-06,7.981526e-07,-5.527739e-08,7.0415194e-07,-8.718598e-08,1.7171288e-07,2.598733e-07,-1.5813782e-06,-2.5765726e-07,-6.5009493e-07,-2.9863784e-08,4.2604256e-07,4.525515e-07,-2.2633303e-07,1.7947434e-06,9.2880975e-07,-1.2964205e-07,2.590557e-07,3.0854156e-07,4.6260283e-07,1.4777697e-07,3.521861e-07,-1.7697694e-07,4.6546776e-07,7.8596327e-07,-3.4747424e-07,-4.856079e-07,1.676666e-07,-8.006421e-08,-8.960616e-08,-2.2174538e-07,3.827875e-07,-9.89511e-07,-1.1611354e-07,-4.105327e-07,1.177199e-06,-2.2922953e-07,7.674213e-07,2.9692677e-07,-3.9059492e-07,1.4863588e-07,2.9720042e-08,7.515487e-08,5.700106e-07,1.1514112e-06,-1.0240624e-06,-5.099758e-07,2.2485017e-07,9.870442e-08,-5.607582e-08,1.8059491e-07,5.9333445e-07,2.4109731e-06,-7.5776916e-07,8.797004e-07,3.9960935e-07,2.2566115e-07,3.702526e-08,2.0155457e-07,8.576033e-07,2.6344196e-08,5.8154257e-07,5.969221e-07,1.3798577e-06,1.264331e-07,4.7688064e-07,-3.8515213e-06,4.2173298e-07,-8.6240817e-07,5.216334e-07,-7.306969e-07,-6.9467205e-08,1.64281e-06,5.570055e-07,-2.072053e-06,-4.3957345e-07,1.1699495e-06,-1.1066085e-07,3.6040985e-06,2.9756853e-07,1.6327964e-06,-2.4234069e-08,-6.240017e-07,-6.490849e-07,1.18259095e-07,1.1438883e-06,8.0187783e-07,3.5318936e-07,5.0227715e-07,3.6334112e-07,6.0388754e-07,3.8412247e-07,6.9428967e-07,7.7950517e-07,4.5816478e-07,2.2201875e-06,1.0835593e-06,1.0800078e-06,-1.2992456e-06,1.6546242e-06,2.9506018e-07,3.1990623e-07,1.3211158e-07,1.3444425e-06,-1.386777e-06,1.1444172e-06,1.2029601e-06,9.253492e-07,1.6687175e-06,1.7839443e-06,-1.2326448e-06,1.4405257e-06,1.7139448e-06,4.7567602e-07,1.9650913e-06,1.2721928e-07,-2.0901598e-06,9.11537e-07,6.3309164e-07,1.7277328e-06,1.5105767e-06,8.307511e-07,2.2121603e-06,1.802836e-06,1.980412e-06,-2.4471642e-06,-5.0564023e-07,-2.3339172e-07,6.659289e-07,2.5928698e-06,1.8887079e-08,2.4628326e-07,8.1985235e-08,4.4512842e-07
-3.435007e-07,-1.076201e-06,-3.465452e-07,-9.572607e-07,8.516894e-07,-8.292613e-07,-3.4038493e-08,-5.723123e-07,-4.829613e-07,-3.2693276e-07,1.0140233e-06,1.9943411e-07,-7.561903e-07,2.2485668e-08,-6.938082e-07,1.7911105e-08,-6.5289584e-07,-4.9996135e-07,-2.136942e-07,-1.278104e-07,3.1358658e-07,-5.268229e-07,5.2338225e-07,1.0569219e-06,5.4629453e-07,-2.583956e-07,1.0185423e-06,-6.667213e-07,-1.0984003e-07,1.3790863e-06,-7.8113413e-07,7.9044287e-07,-1.2391081e-06,-8.6610737e-07,5.5814735e-07,6.680844e-07,-9.285449e-07,-7.839583e-07,-8.5195273e-07,-3.3692032e-07,2.1211449e-07,-3.6241318e-07,-9.027656e-08,-5.0526268e-09,-1.0332585e-06,-6.2520193e-09,1.1098928e-06,-2.2296146e-07,-7.666361e-07,-4.848126e-07,-1.0999172e-06,-4.9592745e-07,-8.285095e-07,-7.570545e-07,-2.5620506e-07,1.4063818e-06,8.168803e-07,2.2436664e-06,-1.1564615e-06,-9.1108836e-07,2.6034178e-07,-4.3029948e-07,1.6414106e-08,-1.8385171e-07,-3.807397e-07,-9.661655e-07,-1.9772891e-07,-8.419994e-07,2.6345487e-07,-9.739166e-07,6.329893e-08,-1.6238724e-07,2.9906386e-07,-7.5834964e-07,-6.465918e-09,1.7274145e-07,-4.32577e-07,2.745384e-07,-3.50293e-07,1.1215064e-09,-8.5809654e-07,-4.091356e-07,-1.11263404e-07,4.602273e-08,4.0722088e-07,-3.8943517e-07,2.0112545e-07,1.4456639e-06,4.831819e-07,-2.7113515e-08,7.628574e-07,-5.4236546e-07,-3.1240475e-08,1.3328096e-06,-1.0013356e-07,4.6313795e-07,-1.0710687e-06,-9.361552e-07,2.5804826e-07,-7.794086e-07,-2.6931602e-07,-6.447481e-07,-9.354367e-07,-2.9260804e-07,-3.0496722e-07,-1.4952889e-07,-1.6189149e-07,2.4954127e-07,-7.98822e-07,-5.873215e-07,6.3038254e-07,-2.2167669e-07,-5.3548007e-07,-1.2338398e-07,-4.230823e-07,-5.965718e-07,-4.733069e-07,-1.0420346e-06,-2.2708757e-07,1.2851169e-06,-4.2448193e-07,1.6711347e-06,-8.7253784e-07,-6.4821353e-07,3.2466292e-07,-7.5624706e-07,1.6267155e-07,-1.15210725e-07,-7.010586e-07,1.4180166e-06,-1.46813e-07,4.1632757e-07,-5.9186937e-07,-2.8345553e-07,-5.863362e-07,-6.415182e-07,-1.9992844e-06,-9.472031e-07,5.970594e-07,-7.7790145e-07,-7.970848e-07,-6.1085956e-07,-1.038383e-06,-5.7290754e-07,2.1301307e-07,3.2589077e-07,-1.5311705e-06,9.813467e-07,-4.577128e-07,-7.8488404e-07,-4.118622e-07,1.7534055e-06,2.7908465e-07,-9.746434e-07,1.5905819e-06,4.913116e-07,3.0621737e-07,-1.1065684e-06,6.496956e-07,-1.8080698e-06,5.5141527e-08,5.513111e-07,2.3421883e-07,6.11154e-07,1.9468492e-07,-1.5504728e-06,-1.9100066e-06,2.5378504e-06,8.24526e-07,4.404949e-07,1.7856257e-07,-5.922497e-07,-3.0684515e-07,-6.807902e-07,-3.176621e-06,1.286236e-06,-8.341535e-07,-4.1763192e-07,-8.6908756e-07,-3.5968134e-07,-1.2203986e-07,-1.9101753e-07,1.0585184e-07,1.5808166e-07,-1.3713675e-06,-2.5242748e-06,-4.846212e-07,-6.073396e-07,4.7522667e-06,-1.8150547e-07,1.999123e-06,-9.0180436e-07,8.826916e-07,7.155511e-07,-1.6015429e-06,-6.3634815e-07,1.7691137e-06,-3.0719534e-08,-1.5856195e-06,4.6690351e-07,-3.1059026e-06,-7.322261e-07,-1.6253313e-06,-3.6715412e-07,5.065668e-07,5.4514294e-07,-3.1996598e-07,-1.4296897e-06,-1.7882547e-06,-5.395207e-07,-2.8267586e-08,-2.9704808e-07,5.2691362e-08,-7.1941565e-07,-5.159802e-07,-1.2355812e-07,-2.9729773e-07,-2.1301469e-06,-9.1008e-07,-1.3152237e-06,1.4020756e-06,-1.0246658e-06,-3.2849834e-07,8.44702e-08,1.8169797e-07,-1.4234396e-06,2.1284752e-06,-6.9795607e-07,-1.0700666e-06,-6.1124746e-07,-1.7485933e-06,-1.6900206e-06,2.1629378e-06,-1.4964359e-06,-1.7166304e-06,8.3588205e-08,-2.183297e-06,-1.2793595e-07,1.7999066e-06,-1.4380834e-06,-5.8431095e-07,-1.829894e-06,-1.7319234e-06,-6.6211874e-07,-2.64507e-06,-2.2773802e-06,-2.1919132e-06,2.7034287e-06,4.8448584e-07,2.8779198e-08,-4.6460445e-07,-2.3192142e-06,-9.2949534e-08,-4.4217626e-07,3.5585253e-07,-2.0606682e-07
5.041782e-07,1.2678082e-06,2.280897e-07,1.2659503e-06,-9.162331e-07,1.2988509e-06,2.3611506e-08,1.1556922e-06,1.4898358e-06,5.7666784e-07,-1.1457483e-06,-3.3259386e-07,8.8720867e-07,1.1804205e-07,9.867383e-07,-2.2282165e-08,7.2778585e-07,5.8250697e-07,2.0127032e-07,2.587077e-07,-2.7133348e-07,7.9242847e-07,-2.8054527e-07,-7.8429036e-07,-5.759278e-07,4.6034592e-07,-1.1366426e-06,1.0724787e-06,8.29459e-08,-1.4072623e-06,1.500204e-06,-5.202962e-07,1.6041934e-06,1.2056018e-06,-2.937388e-07,-3.993884e-07,8.4195506e-07,9.4577274e-07,1.1743239e-06,6.6342534e-07,-4.0026836e-07,5.659732e-07,8.8675876e-08,2.7651726e-07,1.2979614e-06,-3.6242866e-09,-7.3537433e-07,3.78493e-07,1.0567305e-06,5.04779e-07,1.4478081e-06,6.894883e-07,8.2942967e-07,9.568965e-07,4.8111536e-07,-1.3247566e-06,-7.5220487e-07,-2.3407547e-06,1.0832118e-06,8.709144e-07,-3.477602e-07,4.603642e-07,-1.49132e-07,2.551136e-07,4.1293697e-07,1.3700684e-06,1.15957256e-07,1.1695987e-06,-5.2738e-07,9.545006e-07,1.6576328e-07,4.6549096e-07,-4.5920956e-09,8.1300584e-07,-1.0635512e-08,-8.523301e-09,5.026866e-07,-1.612737e-07,5.509951e-07,-9.335594e-09,8.5548476e-07,3.890323e-07,2.4428196e-08,6.0962336e-08,-4.8321647e-07,4.5159913e-07,-2.229552e-07,-1.7039707e-06,-4.7095733e-07,2.5460983e-07,-7.3075637e-07,9.15396e-07,-4.1771244e-08,-1.6379489e-06,1.8452005e-07,-2.8623305e-07,1.2869416e-06,9.933063e-07,-2.5541655e-07,7.292349e-07,1.8816239e-07,7.850275e-07,1.0262808e-06,4.92849e-07,9.839046e-08,2.3040594e-07,8.26472e-08,-2.6483767e-07,9.725559e-07,4.794481e-07,-5.589188e-07,3.5702487e-07,7.025774e-07,1.0467399e-07,8.7694843e-07,6.0211914e-07,4.9543735e-07,1.1992547e-06,4.108685e-07,-1.2841709e-06,2.590221e-07,-1.5443607e-06,8.9434025e-07,6.178028e-07,-6.2394e-07,6.9162667e-07,-1.5611474e-07,1.3644981e-07,6.9775274e-07,-1.6403002e-06,4.8219385e-07,-4.823107e-07,7.27424e-07,1.0984496e-07,8.297692e-07,7.2802504e-07,2.4651993e-06,1.2541229e-06,-6.3323773e-07,9.944232e-07,6.6251164e-07,7.2711487e-07,7.0996555e-07,5.9138443e-07,-3.7634544e-07,-1.9919298e-08,1.6334262e-06,-9.280005e-07,3.1824277e-07,1.5140336e-07,6.0869354e-07,-2.5924248e-06,-8.6195394e-07,8.732721e-07,-2.042459e-06,-3.8537576e-07,-1.3755678e-07,1.2914513e-06,-1.8573769e-06,2.5616457e-06,3.0590513e-08,-6.3894515e-07,-2.4163882e-07,-6.489619e-07,-5.7758905e-07,1.28578e-06,1.6591689e-06,-2.9376656e-06,-5.394378e-07,-3.4387625e-07,2.0384462e-08,7.41504e-07,2.1740782e-07,7.5562207e-07,4.337637e-06,-1.2550221e-06,1.1259657e-06,7.50941e-07,5.4338994e-07,4.0560715e-07,7.086146e-08,5.071704e-07,-3.675808e-08,-4.3235048e-07,1.3156723e-06,2.5686682e-06,1.2140707e-07,6.0234424e-07,-4.6393675e-06,-4.103174e-08,-2.0357143e-06,8.8293393e-07,-9.938427e-07,-2.6524958e-07,2.0815605e-06,8.8942545e-07,-1.711145e-06,6.8038867e-07,1.538906e-06,6.118782e-07,5.0318304e-06,1.219722e-06,1.4888192e-06,5.86899e-07,-3.7224578e-07,-3.5108764e-07,1.0013389e-06,1.2912722e-06,1.7976507e-06,5.5165344e-07,-8.5701615e-08,6.279697e-07,-2.6552732e-07,8.666906e-07,1.2289239e-06,4.63915e-07,6.931103e-07,2.0808934e-06,1.2781943e-06,1.9912811e-06,-1.266846e-06,1.2417956e-06,3.9968256e-07,7.784708e-07,6.263343e-08,1.7729457e-06,-1.9291217e-06,1.0932889e-06,6.081885e-07,6.9100366e-07,2.060694e-06,2.2537522e-06,-2.0900766e-06,1.631754e-06,1.6885659e-06,3.1435263e-09,1.8041173e-06,3.3783186e-07,-1.0849268e-06,2.048162e-06,1.1643435e-06,1.7194263e-06,1.901506e-06,9.063406e-07,2.6285602e-06,2.6566559e-06,1.874415e-06,-2.0209948e-06,-3.1869092e-07,-3.486378e-07,4.6976544e-07,2.1311675e-06,-4.5043538e-07,7.0354787e-07,-1.3046343e-07,4.104826e-07
-5.044817e-07,-1.2628427e-06,-6.818691e-08,-1.1807037e-06,1.1275249e-06,-6.829008e-07,1.2826064e-07,-2.9341223e-07,-1.1740572e-06,-5.2457017e-07,1.1702792e-06,5.687148e-07,-7.762089e-07,2.7541654e-07,-6.338896e-07,2.3366967e-07,-5.944224e-07,-5.819412e-07,-4.487905e-07,-1.0670655e-07,2.8757222e-07,-8.5406737e-07,3.5536993e-07,8.663355e-07,7.4500133e-07,-2.1110415e-07,9.355032e-07,-6.5080764e-07,-9.7847874e-08,1.275297e-06,-1.2443033e-06,6.455232e-07,-1.5776664e-06,-1.1176081e-06,7.099259e-07,4.7192208e-07,-1.0387274e-06,-1.0232247e-06,-9.1832476e-07,-5.627647e-07,3.9918436e-07,-3.8126603e-07,-1.7585208e-08,-1.3889164e-07,-1.0731362e-06,2.6731814e-07,1.3660805e-06,-3.7527076e-07,-1.0658202e-06,-2.7760612e-07,-8.9159676e-07,-5.4812017e-07,-1.0197572e-06,-6.56259e-07,-3.1269965e-07,1.3974422e-06,9.1049554e-07,2.2511688e-06,-1.1567054e-06,-8.2419126e-07,3.1966104e-07,-7.416759e-08,1.0055285e-07,-3.06777e-07,-4.568123e-07,-1.0956207e-06,-2.142044e-07,-9.3886285e-07,5.1886417e-07,-8.064708e-07,-3.4584417e-08,-3.963467e-08,2.6821454e-08,-9.389079e-07,-4.519115e-08,2.0384282e-07,-5.063828e-07,3.7944872e-07,-4.4742148e-07,1.6585703e-07,-8.5789566e-07,-4.4524154e-07,-3.152227e-07,4.322645e-08,3.9183365e-07,-5.684236e-07,1.358198e-07,1.4046499e-06,4.694366e-07,-1.2133603e-07,5.3548195e-07,-6.027937e-07,3.898208e-09,1.1521122e-06,-1.1976603e-07,3.0057845e-07,-1.3163508e-06,-1.1654781e-06,3.7432125e-07,-9.971221e-07,-1.6115392e-07,-8.0683276e-07,-1.0030735e-06,-5.481659e-07,-1.8121584e-07,-2.3489177e-07,-1.5794839e-07,1.6643634e-07,-9.22331e-07,-4.5231593e-07,8.713544e-07,-3.6281799e-07,-7.9873473e-07,-5.695952e-09,-4.898889e-07,-5.392834e-07,-5.355975e-07,-1.0364163e-06,-4.0883094e-07,1.3710383e-06,-3.0121788e-07,1.6647273e-06,-9.0700286e-07,-8.845747e-07,3.5502234e-07,-5.6243283e-07,1.6067489e-07,-1.9290144e-07,-8.2412555e-07,7.1694205e-07,-3.8912037e-07,-5.581603e-08,-7.604683e-07,4.627853e-08,-7.1440513e-07,-4.768523e-07,-2.4598812e-06,-1.50759e-06,5.793725e-07,-1.15548e-06,-8.826747e-07,-3.349731e-07,-9.047203e-07,-3.8297745e-07,2.4894885e-07,3.0566997e-07,-1.141266e-06,1.0592307e-06,-2.7275917e-08,-5.652822e-07,-5.091415e-07,1.4240509e-06,4.0323593e-07,-1.9319461e-06,1.7432249e-06,6.0682993e-07,4.454659e-07,-2.763054e-07,1.1724895e-06,-1.7294942e-06,5.8102546e-07,7.924457e-07,3.16325e-07,1.1185224e-06,1.2045405e-08,-1.308546e-06,-1.8484335e-06,1.9112922e-06,-2.6438872e-07,1.3267031e-07,-4.7476007e-08,-5.183494e-07,-3.4140947e-07,-1.4821404e-07,-3.2452429e-06,1.1981517e-06,-1.1079468e-06,-4.7052208e-07,-1.0616761e-06,-1.4678719e-08,-2.4963333e-07,-5.247153e-07,4.427899e-08,-1.3499694e-07,-1.463747e-06,-2.304934e-06,-1.4649495e-07,-5.3798914e-07,4.778771e-06,-1.009762e-06,1.5677219e-06,-6.391543e-07,1.2865044e-06,4.008245e-07,-2.129884e-06,-3.2020188e-07,2.5602262e-06,3.3517213e-07,-1.4266358e-06,6.3498305e-07,-3.1560273e-06,-5.5000294e-07,-1.7829304e-06,2.3217598e-07,1.1779314e-06,9.571843e-07,-4.6315114e-07,-1.1827341e-06,-1.6497675e-06,-3.15595e-07,3.526499e-08,-1.8124227e-07,-4.885601e-08,-7.889108e-07,-8.6132354e-07,-3.2068806e-07,-4.9209075e-07,-2.0235145e-06,-1.2335843e-06,-1.3230442e-06,1.322991e-06,-1.8994479e-06,-3.4761095e-07,-3.6075926e-07,2.0015739e-07,-1.7004373e-06,2.5505378e-06,-1.1212078e-06,-1.2596372e-06,-5.540569e-07,-2.1027406e-06,-2.595356e-06,1.9970446e-06,-1.7158535e-06,-2.0689715e-06,-8.6672856e-08,-2.0844e-06,9.848975e-08,2.4931946e-06,-1.4403516e-06,-9.127664e-07,-2.0028992e-06,-1.7051323e-06,-1.2413045e-06,-2.8366635e-06,-2.215703e-06,-2.1049163e-06,2.9657397e-06,1.0954665e-06,1.6504015e-07,-3.5605922e-07,-2.8761972e-06,2.9967464e-07,2.9086095e-07,-1.3858283e-08,-5.984782e-08
-2.4078003e-07,-1.1943839e-06,4.1738772e-08,-1.0447569e-06,1.109985e-06,-4.2374535e-07,2.5551896e-07,-9.128664e-08,-9.849813e-07,-1.1543395e-07,1.2623577e-06,7.534592e-07,-5.3275664e-07,3.7261614e-07,-3.2830422e-07,1.3963779e-07,-5.783364e-07,-4.7351517e-07,-3.813468e-07,5.5746355e-08,3.530862e-07,-4.66561e-07,4.1165322e-07,1.284467e-06,9.580575e-07,6.0957746e-09,1.1506977e-06,-2.0710421e-07,-8.438491e-08,1.5272709e-06,-9.054802e-07,8.881725e-07,-1.4255986e-06,-9.0927256e-07,6.239604e-07,9.666875e-07,-8.513705e-07,-8.6215505e-07,-7.6514596e-07,-2.6777715e-07,7.176973e-07,-2.895248e-07,-6.92153e-08,6.266916e-08,-7.039366e-07,4.9623566e-07,1.3595788e-06,-3.256596e-07,-6.713016e-07,-2.8193514e-07,-3.0681687e-07,-4.16775e-07,-7.793944e-07,-5.915779e-07,3.0763627e-07,1.262468e-06,9.5180326e-07,2.5893728e-06,-1.2870987e-06,-8.537843e-07,3.681237e-07,2.311634e-07,6.9834414e-09,-1.7663635e-07,-3.2087482e-07,-7.334912e-07,-2.0579151e-07,-7.402274e-07,4.5184487e-07,-6.906266e-07,-2.1030587e-08,8.054488e-08,-7.02195e-08,-6.574027e-07,-1.29558835e-08,2.8946502e-07,-2.887588e-07,5.761457e-07,-3.6470794e-07,1.9361082e-08,-8.566323e-07,-4.8505416e-07,-3.7979422e-07,1.877331e-07,3.4345706e-07,-3.7709952e-07,1.9103568e-07,1.3697073e-06,5.5508696e-07,8.563964e-08,6.7388027e-07,-4.09146e-07,-4.5921666e-09,1.3519252e-06,-4.7817892e-08,4.0054258e-07,-1.1507811e-06,-9.570208e-07,3.5192826e-07,-5.109825e-07,-2.3767902e-07,-7.9120684e-07,-9.890241e-07,-4.1316866e-07,6.525435e-08,-2.799232e-07,-2.5659955e-07,2.399832e-07,-6.785195e-07,-3.321246e-07,8.1417494e-07,-3.7751607e-07,-6.22092e-07,-6.241795e-08,-1.3629767e-07,-5.453513e-07,-5.0793307e-07,-9.1265076e-07,-7.883234e-08,1.2519887e-06,-1.9815167e-07,1.9041618e-06,-9.461274e-07,-7.093277e-07,3.1309298e-07,-4.173582e-07,1.5843366e-07,-1.2412178e-07,-4.932023e-07,1.394003e-07,-4.0103828e-07,-2.222015e-08,-1.2544568e-06,3.3765397e-07,-3.7500243e-07,-4.1725576e-07,-3.241962e-06,-1.9649383e-06,5.640115e-07,-1.4857662e-06,-1.208588e-06,2.891583e-07,-1.1792058e-06,-3.9060305e-07,2.0251228e-07,2.0363555e-07,-8.3646984e-07,1.1357788e-06,-1.3053747e-07,-5.856226e-07,-3.7683475e-07,1.757646e-06,7.0038266e-07,-2.2938739e-06,1.7088353e-06,9.896717e-07,4.46507e-07,2.4744128e-07,7.79811e-07,-1.610401e-06,3.8862092e-07,7.918418e-07,3.1410048e-07,1.159834e-06,-3.905297e-07,-1.2405227e-06,-1.6589802e-06,1.664389e-06,-6.4120746e-07,1.1933327e-07,-5.1811714e-08,-4.2157333e-07,-4.0593198e-07,2.6255123e-09,-3.014402e-06,9.818526e-07,-1.1480189e-06,-2.4288482e-07,-1.3171649e-06,-1.1970812e-07,-5.964441e-08,-2.8375445e-07,3.5013628e-08,-1.9102994e-07,-2.0720397e-06,-2.2789732e-06,-1.2107388e-06,-1.6712349e-07,4.4431804e-06,-1.3881455e-06,1.7925807e-06,-6.061689e-07,1.4168955e-06,1.1843463e-06,-1.83477e-06,1.4637408e-08,2.5199645e-06,7.023931e-07,-1.5060787e-06,1.1299147e-06,-2.0228238e-06,2.5606062e-07,-1.6856608e-06,3.4773656e-08,1.8881108e-06,1.287348e-06,2.3331665e-09,-1.6211675e-06,-1.5645212e-06,-1.5975075e-08,-1.4634982e-07,2.2807257e-07,3.3216622e-08,-9.976333e-08,-7.5228047e-07,4.140469e-08,-4.2516683e-07,-2.144228e-06,-8.879557e-07,-7.653051e-07,1.3980566e-06,-1.3846595e-06,8.974407e-07,-7.4437935e-08,6.283774e-07,-9.4876617e-07,2.3361652e-06,-6.910749e-07,-1.185799e-06,-4.6703508e-07,-2.0579598e-06,-2.0633934e-06,2.3814555e-06,-1.5715727e-06,-1.8386485e-06,2.9365398e-07,-2.0121242e-06,5.9656264e-07,2.4993876e-06,-1.0625258e-06,-9.2128573e-07,-2.2329207e-06,-1.4990478e-06,-1.2573361e-06,-2.4624662e-06,-1.9122385e-06,-1.9855474e-06,3.075267e-06,1.0999341e-06,6.476674e-07,-7.17837e-08,-2.8286672e-06,2.743879e-07,5.7385654e-07,1.1226396e-07,2.441678e-07
-1.2632242e-06,-2.7782355e-06,-7.495055e-08,-3.419933e-06,2.8376617e-06,-2.9624694e-06,-1.6761896e-07,-1.5386942e-06,-4.779175e-07,-1.9161444e-06,2.3246353e-06,7.5978033e-07,-1.932268e-06,7.977211e-07,-2.4027638e-06,6.551812e-07,-1.2181745e-06,-1.3559501e-06,-8.6047146e-07,-4.9725315e-07,4.6378875e-07,-2.1236735e-06,1.6295825e-06,2.501416e-06,1.8506079e-06,-3.750505e-07,2.2443567e-06,-2.4817184e-06,-2.8138737e-07,5.65513e-06,-3.3627955e-06,1.0885799e-06,-3.4567834e-06,-2.4312772e-06,9.1306356e-07,2.829761e-06,-1.7396517e-06,-1.947587e-06,-3.197302e-06,-1.972612e-06,1.5718811e-06,-9.710093e-07,7.843863e-07,-6.561574e-07,-3.0108524e-06,1.1997661e-06,1.374277e-06,-9.867586e-07,-2.6739037e-06,-7.967138e-07,-3.5496796e-06,-1.5803913e-06,-1.8011378e-06,-1.463686e-06,2.3150324e-07,3.2557305e-06,2.5554966e-06,5.0360345e-06,-9.100484e-07,-1.7189916e-06,4.7484764e-07,-4.3990997e-07,2.5302882e-07,-6.1859714e-07,-4.8870083e-07,-2.1534358e-06,5.894865e-07,-2.1570947e-06,2.5030367e-06,-1.3287726e-06,-2.7833778e-07,-2.9279164e-07,9.3916185e-08,-1.6421477e-06,-2.49306e-08,3.4644893e-07,-4.9419407e-07,1.0588338e-06,-1.1480006e-06,8.727143e-07,-1.322858e-06,-7.165925e-07,-1.200858e-07,5.635021e-07,1.4327047e-06,-1.0475368e-06,1.7990542e-06,5.266341e-06,1.567686e-06,2.960387e-07,1.6798319e-06,-1.8426529e-06,1.3999721e-07,5.3803915e-06,-2.0924548e-07,5.347755e-07,-2.4017827e-06,-1.5340579e-06,9.538401e-07,-4.6587812e-07,3.4950438e-07,-7.1924137e-07,-2.1082437e-06,-1.5337861e-06,6.514122e-08,-3.0738704e-08,7.551531e-07,9.88551e-07,-2.1485102e-06,1.9875995e-07,1.7816255e-06,-8.6742375e-07,-1.7986924e-06,-1.6787669e-07,-1.6279299e-06,-9.331384e-07,-9.210999e-07,-1.521671e-06,9.351356e-08,3.0264464e-06,6.87009e-07,3.530284e-06,-8.36903e-07,-6.8154384e-07,1.6076749e-06,-7.7564835e-07,5.042829e-07,-3.3819077e-07,-2.8761535e-06,7.382894e-07,-7.924399e-07,-9.454004e-07,-1.019514e-06,-6.14657e-08,-1.1059049e-06,-2.1283631e-06,-1.9011084e-06,-2.032185e-06,1.2473959e-06,-2.1746384e-06,-2.047066e-06,-2.0486652e-07,-2.713702e-06,-1.1240992e-06,3.658467e-07,2.0831396e-06,-2.8950867e-06,3.75924e-06,-1.0407608e-06,-2.3268217e-06,-1.4926621e-06,5.700233e-06,2.0586458e-06,-2.1993728e-06,3.6391305e-06,1.0197726e-06,7.3539854e-07,-1.9449278e-08,4.92728e-06,-6.706452e-06,1.4216032e-06,1.8649482e-06,9.685772e-07,2.8680017e-06,1.0522912e-06,-4.091175e-06,-3.7032323e-06,7.0049664e-06,1.4636075e-06,1.3567472e-06,8.85339e-07,-3.013974e-06,-7.0799246e-07,-9.2141715e-07,-8.479237e-06,2.800867e-06,-2.1134642e-06,-1.320869e-06,-1.5688106e-06,-1.203535e-06,-3.0114563e-07,4.8249194e-07,1.1971613e-07,1.1759315e-06,-3.1214258e-06,-5.589101e-06,-7.5073274e-07,-8.49532e-07,8.795481e-06,-6.712097e-07,4.3040104e-06,-1.8355533e-06,2.4636074e-06,3.1360478e-06,-3.6664005e-06,-1.162286e-06,4.3309747e-06,-1.8513321e-06,-3.0987155e-06,7.1429656e-07,-1.0405096e-06,-3.369947e-06,-3.1606369e-06,-7.256596e-07,2.483653e-06,1.5615191e-06,-2.7947115e-06,-1.5585214e-06,-4.1056933e-06,-4.2171678e-07,8.469977e-07,-2.3252767e-07,1.3194858e-06,-2.194896e-06,-2.1580836e-06,-3.3880406e-07,-1.0820046e-06,-2.7690044e-06,-2.4487358e-06,-4.1164253e-06,2.8882873e-06,-1.8429212e-06,-2.012182e-06,-1.7180716e-06,8.407085e-07,-4.0851246e-06,5.153845e-06,-8.2238216e-07,-2.6916575e-07,-8.1436735e-07,-5.414118e-06,-5.033631e-06,7.214039e-06,-2.535673e-06,-2.6272908e-06,9.14984e-07,-3.932709e-06,1.3181923e-06,2.5002007e-06,-2.9938499e-06,-3.4946436e-06,-2.8789175e-06,-3.8808253e-06,1.5818136e-07,-5.711773e-06,-5.3063363e-06,-3.2141738e-06,4.8730826e-06,2.470489e-06,7.3591934e-07,7.2912337e-07,-2.2832269e-06,3.627772e-07,-6.5944187e-07,9.715101e-07,-5.3314244e-07
4.922825e-07,1.356688e-06,-1.2004213e-07,1.3632454e-06,-2.2626248e-06,7.6244424e-07,-3.1064434e-07,6.021361e-07,1.831158e-06,4.626521e-07,-2.024009e-06,-1.3439742e-06,6.7163154e-07,-8.394162e-07,1.0796671e-06,-4.771998e-07,6.31489e-07,6.360498e-07,4.2787485e-07,-2.2743748e-07,-5.683903e-07,8.8553526e-07,-1.4748261e-06,-2.7899837e-06,-1.7748797e-06,-2.271558e-07,-2.2829104e-06,1.1672191e-06,-5.433293e-08,-3.814752e-06,1.1546133e-06,-2.0826715e-06,1.7863111e-06,1.139866e-06,-1.8519837e-06,-1.5030668e-06,1.0837218e-06,9.261323e-07,1.3371218e-06,1.1223367e-06,-1.8492581e-06,3.1141184e-07,-3.7166603e-07,-2.0786189e-07,2.1456872e-06,-8.367349e-07,-2.096225e-06,3.7059783e-07,1.4277247e-06,4.1296917e-07,1.7816495e-06,5.7155194e-07,1.0698311e-06,8.770122e-07,-2.4979659e-07,-2.873272e-06,-1.7361724e-06,-4.396815e-06,9.2825314e-07,7.235948e-07,-7.0245517e-07,2.2845215e-07,-2.0190853e-07,2.392152e-07,2.1760033e-07,1.2815719e-06,-1.3147486e-07,9.448962e-07,-1.6794114e-06,7.2962746e-07,-3.2273846e-08,2.2481743e-08,-1.7166911e-07,5.0118115e-07,-3.4807563e-08,-6.980114e-07,-5.311179e-08,-1.0845982e-06,4.2636242e-07,-5.4623115e-07,9.029527e-07,3.8668452e-07,1.4209206e-07,-6.939572e-07,-9.895942e-07,5.4014004e-07,-1.1568467e-06,-3.6454494e-06,-1.4131282e-06,-4.2891793e-07,-1.4905814e-06,1.0255196e-06,-9.7905016e-08,-3.500837e-06,8.1203524e-08,-1.0589997e-06,1.5650394e-06,1.0267711e-06,-9.935834e-07,7.3843137e-07,-4.379274e-07,2.9728758e-07,1.0765857e-06,7.16301e-07,-3.4206116e-07,1.5713073e-07,-1.7354718e-07,-8.193982e-07,1.6218033e-06,6.0036605e-08,-1.8783824e-06,2.760785e-07,9.2196285e-07,5.0461466e-08,8.2396286e-07,5.214589e-07,5.529434e-07,1.0825784e-06,-5.7095406e-08,-2.689978e-06,6.568568e-08,-3.1485863e-06,5.915092e-07,6.281293e-07,-1.275028e-06,7.403532e-07,-3.8296926e-07,1.5042966e-07,1.2646113e-06,-1.745149e-06,5.69424e-07,-2.883337e-08,2.062787e-06,-3.7129382e-08,8.3494257e-07,3.0590118e-07,2.9087325e-06,2.2194704e-06,-1.1338418e-06,1.4998399e-06,1.5358293e-06,-6.947464e-07,1.7041261e-06,2.0914348e-07,-2.0013587e-07,-1.1930135e-06,1.6336287e-06,-2.5146994e-06,8.897281e-07,8.41532e-07,1.2108009e-06,-2.367542e-06,-1.0319194e-06,3.6947513e-06,-2.9885891e-06,-1.2008957e-06,-1.2438456e-06,5.4696454e-07,-1.7227349e-06,3.2058474e-06,-6.937737e-07,-9.486866e-07,-5.98711e-07,-9.446772e-07,7.376799e-07,2.1694748e-06,2.6021894e-06,-2.288725e-06,2.8914886e-07,-7.2175175e-07,-3.188773e-07,6.812905e-07,4.9207165e-07,5.3382826e-07,5.2692567e-06,-1.5691417e-06,1.1263144e-06,1.3936997e-08,1.9590466e-06,-2.4996592e-07,2.9296814e-07,9.569851e-08,3.376458e-07,-1.0376655e-06,2.1044748e-06,3.553983e-06,2.3746091e-07,3.6799105e-07,-7.896305e-06,5.5601765e-07,-2.750654e-06,1.2114091e-06,-2.2183297e-06,-3.0780172e-06,2.0442385e-06,-1.9107267e-07,-3.945954e-06,-2.5852597e-07,1.1265412e-06,-1.2161909e-06,2.4006026e-06,2.9717148e-07,1.3082602e-06,-5.1152574e-07,-2.4957565e-06,-1.8315617e-06,7.5676746e-07,1.186998e-06,2.667865e-06,-1.7216593e-07,-5.9163017e-07,-4.136692e-07,-1.1141523e-06,7.6321896e-07,7.3417e-07,-1.0869138e-06,-1.0441913e-07,1.8096919e-06,8.580601e-07,1.5412022e-06,-3.0471808e-06,8.0694576e-07,-3.64316e-07,-2.539233e-07,-9.951402e-07,1.3852081e-06,-4.527428e-06,-2.6203656e-07,1.06680886e-07,-4.7789456e-08,2.1908188e-06,2.655645e-06,-6.609481e-06,1.9955178e-06,2.2643292e-06,-6.897277e-07,2.5325294e-06,-1.045035e-06,-3.464303e-06,1.2089497e-06,8.837373e-07,2.0586995e-06,1.8542517e-06,7.441764e-08,3.610251e-06,3.375949e-06,1.9525055e-06,-4.344892e-06,-2.6224236e-06,-1.5388741e-06,-7.9516263e-07,2.9461414e-06,-1.5171242e-06,-5.5584206e-07,-1.2502865e-06,-1.9160612e-07
5.593196e-07,1.7410938e-06,6.7061615e-07,1.6951487e-06,-1.3230365e-06,1.2970058e-06,3.083377e-07,4.915935e-07,9.75589e-07,3.8033068e-07,-1.1417944e-06,-2.1506085e-07,8.842949e-07,-7.093334e-09,6.4681586e-07,-8.1440675e-08,6.137419e-07,7.816567e-07,5.547824e-07,4.7173347e-07,2.0775417e-08,9.0793435e-07,1.8871256e-07,-1.2923147e-07,-6.378442e-07,4.995376e-07,-7.1837167e-07,4.7035667e-07,3.5648185e-08,-1.118435e-06,1.6008291e-06,-3.0425986e-07,1.8957575e-06,1.2553628e-06,-2.7334784e-07,1.0953036e-07,1.1655682e-06,1.1413307e-06,1.1090382e-06,9.931618e-07,-2.7126407e-07,8.238236e-07,4.3698702e-07,4.4323826e-07,9.3479053e-07,-1.4690113e-07,-1.1577583e-06,4.432967e-07,9.775069e-07,5.0885484e-07,7.7391894e-07,6.117007e-07,9.735668e-07,9.54224e-07,7.35333e-07,-1.2206531e-06,-8.122893e-07,-2.114632e-06,1.1680054e-06,1.2281897e-06,-1.8714502e-07,2.0216675e-07,-1.7862061e-07,3.396321e-07,5.544763e-07,1.2524174e-06,5.5314865e-07,1.1707856e-06,-6.9814985e-07,9.719435e-07,2.4912947e-07,1.6703837e-08,-5.230687e-07,5.791693e-07,-1.0966123e-07,-6.3225485e-08,4.7124635e-07,-3.5115906e-07,4.5241725e-07,-1.895944e-08,7.056393e-07,4.1438437e-07,2.2706557e-07,2.3862285e-07,-3.3466998e-07,4.5097312e-07,2.570907e-07,-1.0499149e-06,-5.937187e-07,2.3717297e-07,-3.352538e-07,4.7408963e-07,-1.12688284e-07,-9.1392855e-07,9.577604e-08,-1.419615e-07,1.3369743e-06,1.1343667e-06,-2.025707e-07,1.0877156e-06,2.4210408e-07,8.4327985e-07,1.0742158e-06,7.427031e-07,1.2054777e-07,3.6344912e-07,3.762733e-07,-1.18353825e-07,7.026947e-07,4.1685465e-07,-8.751137e-07,3.5635347e-07,8.731479e-07,7.151945e-08,2.859635e-07,4.4023906e-07,4.91797e-07,1.0647325e-06,5.4025895e-07,-1.2863218e-06,1.738832e-07,-1.5797326e-06,8.341952e-07,8.128011e-07,-5.0795984e-07,6.0192536e-07,-2.8905959e-07,1.8583063e-07,3.7727528e-07,-1.2198689e-06,2.966791e-07,9.366886e-09,6.3151197e-07,-1.7448002e-08,7.51559e-07,7.1545435e-07,3.5619585e-06,1.910597e-06,-7.569056e-07,7.6928177e-07,8.9505556e-07,-1.6968613e-07,1.4874784e-06,1.0286205e-06,7.933352e-10,-1.9139709e-07,1.4755816e-06,-9.2020747e-07,1.9368056e-07,1.322262e-06,4.741774e-07,-1.8213286e-06,-1.0177183e-06,1.7909424e-06,-1.6577411e-06,-6.3413506e-07,-5.133262e-07,2.7062143e-07,-2.0665957e-06,2.4033056e-06,-5.037974e-07,-8.864535e-07,-4.1819212e-07,-9.804439e-07,1.2359716e-07,1.738004e-06,1.8901635e-06,-2.668693e-06,-7.060961e-07,-3.7958876e-07,-9.6272416e-08,8.303083e-07,5.8045305e-07,3.616905e-07,3.2780288e-06,-1.5474399e-06,1.219491e-06,6.260865e-07,6.7663365e-07,2.9005258e-07,-2.3593583e-07,1.2004725e-07,2.8399734e-07,1.75947e-07,1.379206e-06,2.478873e-06,9.2049726e-07,-1.5324639e-07,-4.503764e-06,5.925223e-07,-1.8550761e-06,9.3483806e-07,-6.551476e-07,5.242158e-07,2.5763766e-06,1.2538837e-06,-2.3031662e-06,1.0132919e-07,1.9840618e-06,1.6762982e-08,3.232713e-06,8.547212e-07,2.0267275e-06,2.4985667e-07,-3.9654248e-07,-6.056666e-07,4.2955153e-07,1.8598724e-06,1.4830487e-06,9.685652e-07,1.1623277e-06,1.0762549e-06,8.181027e-07,7.1601295e-07,1.4328612e-06,1.5786245e-06,6.7934604e-07,2.8838633e-06,1.8433961e-06,1.300207e-06,-1.3095071e-06,1.7521415e-06,2.5117032e-07,1.0331685e-06,5.287721e-07,1.9084496e-06,-1.624764e-06,2.0667062e-06,1.5267201e-06,1.3226199e-06,2.4243013e-06,3.1248032e-06,-1.5209515e-06,2.3099167e-06,2.3960702e-06,8.4695915e-07,2.2381166e-06,5.1382727e-08,-1.963486e-06,1.3325671e-06,1.3932124e-06,2.7240835e-06,1.7316531e-06,1.8968213e-06,3.0052188e-06,2.5804145e-06,2.81176e-06,-2.6744867e-06,-5.896564e-07,-2.296049e-07,7.182935e-07,3.759792e-06,3.2787216e-07,2.491838e-07,3.1859753e-07,8.9640804e-07
-3.8099859e-07,-1.7403116e-06,-1.8142424e-07,-1.6630931e-06,1.5293845e-06,-3.487176e-07,-2.5436123e-08,-2.1663152e-07,-9.3156206e-07,-1.6139057e-07,9.185641e-07,5.484455e-07,-5.450486e-07,7.0854196e-07,-6.1894696e-07,5.0110543e-07,-5.2153734e-07,-6.217141e-07,-4.693219e-07,-1.7337825e-07,1.6203285e-07,-8.579355e-07,5.226076e-07,1.2979168e-06,8.285052e-07,-2.2659577e-07,1.0118433e-06,-3.0714176e-07,-3.2526145e-08,1.757334e-06,-1.3602643e-06,8.157923e-07,-1.8762714e-06,-1.0477537e-06,6.2127293e-07,8.872694e-07,-1.0074817e-06,-1.0551229e-06,-7.438466e-07,-2.9980782e-07,1.0012557e-06,-4.3938263e-07,8.2101344e-08,-1.820236e-07,-1.0014405e-06,5.813297e-07,1.4362895e-06,-2.2103109e-08,-1.1155032e-06,-2.6693382e-07,-9.84858e-07,-3.2334117e-07,-8.8625484e-07,-7.406949e-07,-5.604952e-07,1.6583926e-06,1.1597193e-06,2.368722e-06,-1.1779713e-06,-7.631931e-07,2.931999e-07,1.681517e-07,1.8899337e-07,-3.7608856e-07,-4.890661e-07,-9.990567e-07,-2.496751e-07,-1.1795573e-06,6.178224e-07,-7.3118343e-07,-3.0396765e-07,2.1874229e-08,2.0732205e-07,-8.715492e-07,6.45929e-08,2.5130996e-07,-6.3111645e-07,6.2332805e-07,-6.365898e-07,4.7836124e-07,-9.787809e-07,-6.2564595e-07,-3.023781e-07,-3.6225885e-08,3.354615e-07,-5.5190014e-07,2.6643167e-07,1.5891986e-06,6.7023876e-07,-2.2118863e-07,7.4129446e-07,-3.867574e-07,2.4174471e-07,1.7151061e-06,1.3776917e-09,3.276429e-07,-1.3903533e-06,-1.1410776e-06,3.4313206e-07,-7.2345836e-07,-3.3193805e-07,-1.0284526e-06,-1.2485712e-06,-4.7318952e-07,2.0985686e-07,-2.6449516e-07,-1.6296097e-07,1.7343257e-07,-1.0015331e-06,-3.8532414e-07,9.525863e-07,-1.8073729e-07,-8.9395394e-07,6.88793e-08,-3.2753564e-07,-4.113179e-07,-5.9228756e-07,-1.3327528e-06,-5.8420756e-07,1.5690305e-06,-1.9626005e-07,1.8153437e-06,-1.1750325e-06,-9.2175776e-07,2.0617411e-07,-5.922819e-07,1.6667738e-07,-3.0722114e-07,-9.2848484e-07,5.1343267e-07,-4.053566e-07,-4.4798344e-07,-1.2946157e-06,5.582811e-08,-6.829406e-07,-8.86698e-07,-4.1759613e-06,-1.8265556e-06,3.7617434e-07,-6.329233e-07,-7.4507443e-07,1.3663615e-07,-5.7089335e-07,-4.434252e-07,3.0290607e-07,5.7004945e-07,-1.0087144e-06,1.0232765e-06,-8.205774e-08,-8.3717043e-07,-4.9424716e-07,1.2791161e-06,5.918716e-07,-2.5153222e-06,2.162761e-06,5.436126e-07,2.5856863e-07,-2.0769178e-07,1.7150861e-06,-2.0509913e-06,8.409091e-07,1.1535526e-06,2.6859544e-07,9.93821e-07,-3.6874522e-07,-1.1938366e-06,-1.995697e-06,1.6748372e-06,-7.7970276e-07,1.266238e-07,6.232157e-08,-3.2469427e-07,-6.3642375e-07,5.6890542e-08,-3.2805185e-06,1.1180954e-06,-1.350206e-06,-4.882936e-07,-4.523654e-07,2.468152e-07,-2.3142653e-07,-5.090449e-07,-3.6350616e-07,-5.2733003e-07,-2.2586123e-06,-1.4875094e-06,-3.1556934e-07,-3.675509e-07,5.4261636e-06,-1.9248832e-06,1.2618892e-06,-6.102672e-07,1.0578229e-06,5.0368442e-08,-2.5580275e-06,-8.1136466e-07,3.1250565e-06,8.353838e-07,-2.133279e-06,-2.403243e-07,-3.3577448e-06,4.453318e-08,-1.9135296e-06,-8.551507e-08,1.2500649e-06,1.4069489e-06,-1.9592278e-07,-1.8518851e-06,-1.1204477e-06,1.01751596e-07,-1.3510287e-06,-7.400214e-07,-1.3163614e-06,-5.994174e-07,-1.3143862e-06,-1.0747578e-06,-9.3194717e-07,-3.3767972e-06,-1.5949197e-06,-1.4258266e-06,1.8201862e-06,-8.84006e-07,-2.094676e-07,-1.2943699e-06,-8.594003e-08,-1.9461747e-06,1.6710845e-06,-1.6975191e-06,-1.4905686e-06,-1.4521578e-06,-2.6049395e-06,-2.5381273e-06,2.1232609e-06,-2.0964146e-06,-2.3640052e-06,-1.1064349e-06,-2.669726e-06,-2.1843317e-07,3.0315368e-06,-8.857132e-07,-1.3878464e-06,-2.4292715e-06,-1.6398919e-06,-1.5447686e-06,-3.2137098e-06,-2.771858e-06,-2.8967881e-06,3.1609618e-06,7.1339684e-07,6.3806925e-07,-1.0500788e-06,-3.6253593e-06,-3.5646758e-07,-4.7541428e-07,-7.452627e-07,-7.9013796e-07
6.855789e-07,1.3578053e-06,5.9548313e-07,1.5078069e-06,-8.8365215e-07,1.4552809e-06,3.1792382e-07,6.121621e-07,4.415796e-07,3.7900108e-07,-9.454359e-07,-2.1655244e-07,8.4842213e-07,1.69553e-07,4.2126342e-07,-1.4594869e-07,4.999153e-07,7.618245e-07,5.648819e-07,5.5091596e-07,-1.0804092e-07,9.294377e-07,-3.2821296e-07,-1.5819182e-07,-4.352696e-07,5.0568065e-07,-7.25444e-07,4.4871703e-07,1.8568751e-07,-9.258418e-07,1.684012e-06,-5.1216193e-07,1.7156954e-06,1.2186919e-06,-3.970756e-07,-6.705018e-07,1.0034439e-06,9.177899e-07,9.1151026e-07,1.086473e-06,-5.3739944e-07,7.3100625e-07,4.969208e-07,3.4156704e-07,9.648585e-07,-2.550269e-07,-7.834781e-07,5.48301e-07,1.1806818e-06,4.898402e-07,6.6934325e-07,7.2625176e-07,9.805686e-07,7.429769e-07,7.128936e-07,-1.3643172e-06,-8.4778236e-07,-2.1741535e-06,9.106766e-07,1.3334441e-06,-1.072263e-07,2.7012373e-07,-1.600821e-07,3.3510426e-07,4.5727427e-07,1.2438614e-06,4.471838e-07,1.1924126e-06,-6.2812086e-07,8.95712e-07,3.3238808e-07,6.136719e-08,-4.396328e-07,5.1313054e-07,-4.2803023e-08,-1.2200103e-07,4.55083e-07,-2.7228353e-07,3.6182217e-07,1.2920566e-08,6.9835323e-07,4.7310874e-07,2.1276102e-07,2.2606622e-07,-3.8449886e-07,4.2681717e-07,-9.116711e-08,-1.1423299e-06,-4.4990628e-07,5.6863627e-08,-4.6352673e-07,4.1026829e-07,9.348317e-08,-6.2369065e-07,6.4399856e-08,-2.2934938e-07,1.2664872e-06,1.075331e-06,-3.049913e-07,7.34716e-07,3.4363592e-07,6.257425e-07,9.2176185e-07,7.4958103e-07,2.3032456e-08,3.882036e-07,3.90061e-07,-2.370154e-07,7.0471094e-07,3.0106145e-07,-7.4000565e-07,2.5640628e-07,9.233658e-07,1.8342003e-07,2.1995271e-07,4.9604955e-07,4.4610823e-07,9.569717e-07,4.3933164e-07,-1.4195002e-06,2.8176501e-08,-1.6360518e-06,6.8189513e-07,1.0182872e-06,-5.38714e-07,5.1590786e-07,-2.2617064e-07,1.3415723e-07,8.5615204e-07,-1.0482239e-06,6.0675893e-07,1.7253774e-07,1.423527e-06,-9.634098e-08,4.8083075e-07,1.3203037e-06,3.329935e-06,1.9199927e-06,-1.1075231e-06,9.495459e-07,7.816782e-07,-8.826538e-08,1.4220554e-06,7.5604055e-07,-1.9282102e-07,-3.7224754e-07,1.8761708e-06,-9.494289e-07,2.578508e-07,1.6400718e-06,8.147699e-07,-3.2913103e-06,-1.446667e-06,1.7346167e-06,-2.6649861e-06,-9.2548254e-07,-4.9753066e-07,-5.146932e-08,-2.4478466e-06,3.1527372e-06,-6.072267e-07,-1.3394592e-06,-5.670204e-07,-1.4841438e-06,-1.2597224e-07,2.0616449e-06,1.973141e-06,-2.7646565e-06,-2.9179276e-07,-5.586808e-07,-5.356908e-07,8.0918636e-07,8.2437134e-07,5.3953914e-07,4.3832742e-06,-1.283242e-06,1.3363863e-06,9.635722e-07,1.5364465e-06,3.0001868e-07,9.956938e-08,-1.9822704e-07,3.5377568e-07,2.587177e-08,2.1630553e-06,3.394541e-06,4.6942415e-07,3.1977962e-07,-5.317744e-06,6.3826155e-07,-2.4481662e-06,1.0686236e-06,-3.2878813e-07,6.43539e-07,2.7597466e-06,1.8460217e-06,-1.4877309e-06,4.6474125e-07,1.8666711e-06,7.195903e-07,2.876435e-06,1.028877e-06,2.1358828e-06,2.3867753e-07,2.8498789e-08,-1.2822885e-07,5.509106e-07,2.1012688e-06,1.9288286e-06,1.3820015e-06,1.1768259e-06,1.3849384e-06,5.5304827e-07,9.817777e-07,1.4539545e-06,1.5519784e-06,1.2636343e-06,2.7689878e-06,1.940347e-06,1.5277017e-06,-1.0060824e-06,2.0609068e-06,4.3269173e-07,1.2760893e-06,7.912214e-07,2.1969001e-06,-1.3519254e-06,2.1406986e-06,1.7954344e-06,1.4511331e-06,2.2582283e-06,3.3765864e-06,-1.2570799e-06,2.6180503e-06,2.8233746e-06,8.068434e-07,2.0571515e-06,3.4959402e-07,-1.3521228e-06,2.059117e-06,1.5873751e-06,3.1363231e-06,1.954458e-06,2.2642853e-06,3.358221e-06,2.8318227e-06,2.6437542e-06,-2.350382e-06,-2.316795e-07,2.7684905e-08,8.2162273e-07,4.1114113e-06,3.0585738e-09,3.90779e-07,5.893771e-07,1.1480798e-06
