0,1,2,3,4,5,6,7,8,9,10,11,12,13,14,15,16,17,18,19,20,21,22,23,24,25,26,27,28,29,30,31,32,33,34,35,36,37,38,39,40,41,42,43,44,45,46,47,48,49,50,51,52,53,54,55,56,57,58,59,60,61,62,63,64,65,66,67,68,69,70,71,72,73,74,75,76,77,78,79,80,81,82,83,84,85,86,87,88,89,90,91,92,93,94,95,96,97,98,99,100,101,102,103,104,105,106,107,108,109,110,111,112,113,114,115,116,117,118,119,120,121,122,123,124,125,126,127,128,129,130,131,132,133,134,135,136,137,138,139,140,141,142,143,144,145,146,147,148,149,150,151,152,153,154,155,156,157,158,159,160,161,162,163,164,165,166,167,168,169,170,171,172,173,174,175,176,177,178,179,180,181,182,183,184,185,186,187,188,189,190,191,192,193,194,195,196,197,198,199,200,201,202,203,204,205,206,207,208,209,210,211,212,213,214,215,216,217,218,219,220,221,222,223,224,225,226,227,228,229,230,231,232,233,234,235,236,237,238,239,240,241,242,243,244,245,246,247,248,249,250,251,252,253,254,255,256,257,258,259,260,261,262,263,264,265,266,267,268,269,270,271,272,273,274,275,276,277,278,279,280,281,282,283,284,285,286,287,288,289,290,291,292,293,294,295,296,297,298,299,300,301,302,303,304,305,306,307,308,309,310,311,312,313,314,315,316,317,318,319,320,321,322,323,324,325,326,327,328,329,330,331,332,333,334,335,336,337,338,339,340,341,342,343,344,345,346,347,348,349,350,351,352,353,354,355,356,357,358,359,360,361,362,363,364,365,366,367,368,369,370,371,372,373,374,375,376,377,378,379,380,381,382,383,384,385,386,387,388,389,390,391,392,393,394,395,396,397,398,399,400,401,402,403,404,405,406,407,408,409,410,411,412,413,414,415,416,417,418,419,420,421,422,423,424,425,426,427,428,429,430,431,432,433,434,435,436,437,438,439,440,441,442,443,444,445,446,447,448,449,450,451,452,453,454,455,456,457,458,459,460,461,462,463,464,465,466,467,468,469,470,471,472,473,474,475,476,477,478,479,480,481,482,483,484,485,486,487,488,489,490,491,492,493,494,495,496,497,498,499,500,501,502,503,504,505,506,507,508,509,510,511
6.2107355e-09,3.3600628e-07,-6.3753384e-07,-5.9320566e-09,-7.075982e-08,-2.5298635e-07,-4.722734e-08,3.311467e-08,-1.3058067e-07,-1.7596914e-08,3.169407e-08,-1.8179069e-08,-1.4571818e-07,-3.993697e-09,-3.0372053e-08,4.4400943e-07,1.4775501e-06,7.136751e-08,2.6723804e-08,-1.4146124e-07,-2.149568e-08,-6.118635e-08,1.8652466e-07,-1.8263512e-07,2.2850264e-07,3.628888e-08,2.1329306e-07,1.7795922e-07,-1.2255578e-07,-2.3575424e-07,6.236846e-08,-6.100746e-08,9.9155514e-08,-8.664404e-09,-3.6437445e-08,7.2188755e-08,9.421909e-08,-4.103651e-08,3.5609289e-09,-4.4107917e-09,7.6424776e-08,-5.2199628e-08,5.455505e-07,-7.8688906e-08,-6.4448034e-09,-1.1224728e-07,1.6258102e-07,2.0836798e-07,-2.8036979e-08,-7.348498e-08,-1.6467252e-08,-1.6059354e-07,-2.009675e-08,2.0151885e-08,1.5103204e-08,-7.0546704e-08,-1.08808e-08,-2.0802078e-08,-5.6839664e-08,5.5176184e-08,3.7443527e-08,2.4621736e-08,-1.7768981e-07,-6.97326e-09,-2.9899954e-09,-5.9016447e-08,2.1836044e-08,-5.228598e-09,-1.1029432e-08,-6.9176664e-08,9.425668e-08,1.0538959e-07,-3.7469814e-09,7.895831e-09,8.70155e-08,-4.1533087e-07,2.6496645e-07,-3.521974e-08,1.4946991e-08,2.3380824e-08,-3.2736686e-08,-3.6668652e-08,1.2289996e-07,1.2474806e-07,-1.6562565e-07,-1.5110001e-07,-6.896383e-08,-3.781145e-08,-4.842793e-11,-6.9762507e-07,-1.2410019e-06,-2.2334017e-08,-7.1468335e-08,4.537509e-08,4.2329766e-09,-2.8982267e-08,2.0254316e-08,-4.0433028e-07,8.771874e-09,6.39404e-08,-7.492745e-08,3.185392e-08,-7.4205964e-08,2.5723175e-08,1.6738166e-07,-3.2608533e-08,-8.9232444e-10,1.8855218e-07,2.7028705e-08,-1.9010468e-08,2.132732e-08,-4.090024e-08,-1.6979582e-08,4.4644715e-08,7.4180264e-08,-9.741289e-09,4.2189995e-08,4.2804714e-07,6.165304e-08,-4.30978e-09,-3.9151786e-08,-7.4302335e-08,-2.7435767e-08,-1.2209003e-07,-8.463757e-08,-5.9788112e-09,-4.68956e-08,-1.2320512e-08,2.1384905e-08,-1.42499346e-11,2.9049204e-07,-2.1002724e-09,-2.9758581e-08,-3.2775954e-08,2.1328585e-08,1.899144e-08,-1.3626021e-08,-2.811725e-09,8.074735e-09,3.1636276e-08,-7.7996365e-10,6.610188e-08,-3.9453294e-08,3.9732804e-08,7.00173e-08,5.1455523e-08,-4.508185e-09,-6.41897e-08,-2.5916662e-09,6.7939354e-08,-1.7422341e-08,9.259409e-09,1.3331075e-07,1.7559323e-08,1.4625826e-07,4.5628084e-08,1.6389794e-07,8.476619e-08,4.937243e-08,-6.1656285e-09,6.921353e-08,6.3719413e-10,2.7367443e-08,5.264646e-09,-2.986101e-07,6.0941443e-09,-4.3365627e-09,1.7773255e-08,4.9579132e-08,-1.0652861e-08,-2.7736764e-09,-1.3057792e-07,1.9215088e-08,7.049781e-08,9.880968e-08,2.6001167e-08,4.0136225e-08,1.5611548e-07,2.2969544e-08,3.783968e-09,2.7295592e-08,1.6756664e-08,-1.13035e-08,3.6438e-08,2.9154016e-08,-1.2868915e-08,8.789906e-08,-6.3374706e-08,-1.6291805e-08,4.3755044e-08,-5.378591e-08,1.143574e-08,1.4945013e-09,1.8993584e-08,-1.5923813e-08,2.4436622e-08,2.627531e-09,-5.7666405e-08,1.2563997e-07,-3.0210026e-09,-3.159533e-08,8.672796e-08,-4.726661e-08,-6.1479053e-09,-5.9086094e-08,2.6919378e-07,9.3547445e-09,4.1141742e-08,-4.3205688e-08,1.569441e-08,-4.2331294e-09,1.605966e-07,-7.800455e-08,-4.5260887e-08,-1.8670477e-08,1.6795578e-07,1.0807703e-08,-3.1914915e-08,1.4975903e-08,3.184034e-08,-1.5110082e-09,-5.375574e-08,-1.0593003e-08,-3.569852e-09,1.7244785e-08,5.3915e-08,1.2135895e-09,3.4292116e-09,5.816295e-07,-2.6621905e-08,-4.8255973e-08,2.0727375e-08,9.703416e-08,-5.6912103e-08,-1.5045906e-08,1.2797209e-07,5.8952487e-09,2.626933e-09,-1.3508935e-07,-2.8346147e-08,2.2505946e-08,6.252988e-08,-2.2127509e-07,-3.4725915e-08,5.766001e-09,8.273479e-08,6.88809e-08,-4.311869e-09,7.0667565e-09,-2.3441875e-09,-6.3206613e-09,-1.0094037e-07,3.28344e-08,2.8979357e-09,-3.1655155e-08,4.4305473e-08,3.423602e-10,1.2639039e-07,4.89385e-07,-4.858552e-08,6.742152e-08,-4.3541387e-08,-1.3247288e-07,-1.3064195e-07,-2.1940104e-07,2.5619062e-08,1.1353815e-07,3.5481378e-09,-2.0735698e-09,-4.6656677e-08,2.8708624e-09,9.3174634e-07,5.879599e-07,1.9219462e-07,5.4239237e-08,-4.0254994e-07,-7.974447e-09,3.459061e-08,-7.8324376e-07,2.7616838e-09,4.288974e-07,-8.522888e-08,-3.8099776e-07,-8.246921e-08,-6.686047e-07,3.685748e-07,-3.948212e-07,-8.5252125e-08,1.3941457e-07,-1.9454749e-08,1.9689921e-07,6.0374487e-07,-5.1102e-08,-2.0551209e-08,-7.278441e-08,-1.2590982e-07,1.4114502e-07,-8.391384e-08,6.7545955e-07,-3.3838907e-07,-1.104452e-08,8.649977e-07,2.910951e-07,-3.9709514e-07,7.2090444e-08,-7.76223e-08,-1.7076733e-08,-1.8502291e-07,-1.4575986e-07,-1.1343197e-08,-2.5998972e-07,-3.2401044e-08,2.7432446e-07,-2.5128298e-07,-2.534407e-07,-1.5972387e-07,-1.1063792e-08,-1.4250563e-07,1.5473778e-07,1.0677788e-07,4.207383e-09,1.12183145e-07,-4.8232558e-08,1.1635347e-07,-7.885527e-09,-9.2730595e-08,1.8581763e-07,2.0907981e-07,-1.4207129e-08,-4.9937633e-08,-5.18113e-07,4.345015e-08,4.020032e-07,9.913275e-08,-1.8425865e-08,2.8232233e-07,9.125006e-08,6.967081e-08,-2.2183144e-07,4.7804242e-08,-1.0165784e-08,3.543342e-07,-2.9822604e-07,6.900812e-08,2.5204102e-07,-3.1780925e-07,-7.168927e-07,-5.5927885e-09,3.951047e-07,-1.1283069e-07,-4.4026457e-08,-5.397535e-08,-4.207295e-08,9.44021e-08,-9.3359525e-09,1.2193587e-07,-1.1981565e-07,1.5265444e-08,2.6063645e-07,-8.608998e-10,2.50801e-07,2.7241779e-08,6.02242e-08,-7.636969e-07,8.3488096e-08,7.084438e-08,2.417279e-07,-2.3826388e-07,-1.6497232e-08,-7.768133e-08,9.2230685e-08,2.949435e-07,-7.870153e-08,-3.491995e-06,2.3142713e-08,-2.7963411e-08,5.1637258e-08,2.1191358e-08,-3.117512e-07,3.0300006e-07,3.1028313e-07,-6.6184835e-11,-9.165166e-08,-7.88971e-08,2.2590111e-08,-4.2582222e-08,4.2577565e-07,6.3012275e-09,3.87426e-09,-1.4671765e-08,-3.677726e-08,2.57714e-08,2.8896136e-07,3.2996827e-08,5.7348352e-08,2.3648951e-08,-6.3434186e-08,1.2579564e-09,-5.640705e-08,6.533609e-08,2.612776e-07,2.6214408e-07,-5.7159317e-09,7.6621245e-07,4.0779207e-09,-1.3863135e-08,5.3493505e-08,1.0596011e-07,7.238948e-07,-7.738372e-08,1.0579884e-06,6.3575726e-08,4.64169e-07,2.5721738e-07,2.1074791e-07,-1.3043067e-08,7.5961104e-08,-1.0071195e-08,7.813172e-08,2.817605e-07,-7.84316e-07,-2.6798412e-09,-2.4386487e-08,1.387394e-07,4.1561133e-08,1.11589085e-08,3.298327e-07,-1.1928547e-07,4.334569e-08,1.3929407e-07,1.0410861e-07,2.4235103e-08,3.2815027e-08,1.4743733e-07,-2.9378727e-08,2.9729534e-07,4.922955e-08,2.0370734e-08,-2.305691e-08,-9.692081e-08,-1.2963525e-07,8.963599e-08,-8.611685e-08,-3.4593788e-07,-5.9132795e-08,7.9703435e-09,-5.6557482e-08,-8.853267e-08,-4.0108027e-08,-8.0131946e-09,3.1364888e-08,1.7590448e-08,2.9620166e-08,-1.8257626e-07,-6.629476e-08,2.7182205e-08,-1.0592913e-08,5.2877e-08,4.2502046e-07,-2.1434069e-08,-3.089219e-08,3.233751e-07,3.0626284e-09,1.8190264e-08,2.3142093e-09,2.6515785e-08,-2.1527443e-08,6.973697e-07,-1.9657905e-07,5.7489835e-08,-4.503228e-08,8.388977e-08,-9.976865e-09,2.7476648e-07,5.69111e-07,-9.776719e-08,-1.8969621e-07,9.3073865e-08,-7.5358714e-10,-2.1865144e-07,1.4576135e-08,-4.543271e-08,3.391139e-09,1.1125048e-07,2.3434336e-07,-5.4635166e-07,1.3266808e-07,6.422467e-08,1.1111297e-07,-2.2199368e-08,-1.2695982e-07,1.09705056e-07,2.492183e-09,-6.647976e-08,-2.586604e-07,1.1784501e-08,4.251257e-08,2.789574e-07,-9.877597e-07,4.826029e-08,1.3940955e-08,4.9902394e-07,2.649806e-08,-7.138497e-09,-4.0279918e-08,7.9561175e-08,-6.6691136e-08,-1.9303452e-07,-2.4368273e-07,-2.2497195e-09,1.5232148e-07,8.8463196e-08
-1.3146754e-07,2.6921075e-06,-2.9548382e-06,-3.864028e-07,-3.776542e-07,-6.618427e-07,1.1104441e-06,1.0503211e-06,1.5975598e-07,2.2490454e-08,-2.4077025e-07,6.502629e-08,3.889605e-07,2.7424576e-07,-1.8761827e-07,-1.9405757e-06,-4.1275425e-06,-1.9577786e-07,1.6161247e-06,1.0999669e-06,7.2698805e-07,8.800922e-07,-2.8676486e-06,-1.6911783e-06,-8.7397837e-07,2.9612738e-07,1.0161191e-06,-4.189511e-07,-3.9346537e-06,-4.5238278e-07,-1.2433743e-06,-1.5146885e-07,2.3306342e-07,2.3185106e-07,2.2791252e-07,-9.938456e-07,-1.402431e-06,-5.077203e-07,-1.9086669e-07,2.0702618e-07,-9.2119836e-07,7.04198e-08,-6.0439334e-07,4.1561158e-08,8.480183e-07,3.5137663e-07,4.5685616e-07,-1.2945047e-05,-5.9843836e-07,-1.2965534e-06,7.058975e-08,-5.31684e-07,-4.317267e-06,7.309674e-07,-7.1707785e-07,5.6568354e-07,-1.1118384e-06,1.348389e-07,3.9493685e-08,5.8717114e-07,-1.9075112e-06,1.1549233e-08,8.815097e-07,1.4731148e-07,-2.1821035e-07,-1.4997335e-07,9.913073e-07,-5.188761e-06,-2.3553484e-07,-4.7223187e-07,-3.330688e-07,9.3958363e-07,6.396701e-08,1.1518182e-08,1.6485295e-06,2.2690037e-06,2.3574023e-07,-1.7946091e-06,5.465659e-08,-8.754636e-07,-5.862771e-07,4.0894858e-07,-1.6256624e-06,-1.0891665e-06,5.2261873e-07,8.114898e-08,8.285565e-07,-1.5533465e-07,-8.252391e-07,1.991378e-06,-1.1131822e-06,1.8233957e-08,3.2881968e-07,3.1999974e-07,6.3015625e-07,1.2291567e-06,-9.4742035e-08,7.5761363e-07,9.418332e-08,-2.2569964e-08,-6.6857126e-07,1.2093399e-06,1.2548838e-06,-1.2418517e-06,1.6229734e-06,7.3627643e-07,-4.6144334e-07,-1.1125051e-06,4.916545e-07,6.351698e-07,1.3053358e-06,4.6403056e-07,1.5245591e-07,-4.0782098e-07,1.5925153e-07,-7.386772e-08,1.0638518e-06,4.8696647e-06,2.8418867e-07,-3.984079e-07,3.2995064e-07,1.4162889e-06,-1.6888903e-06,-6.8677394e-07,-1.6147421e-06,-7.664706e-09,5.6878474e-07,1.7908105e-06,2.1237273e-08,-6.992507e-07,-1.6843269e-07,-4.866627e-09,-2.3883044e-07,5.4447526e-07,4.714563e-07,-3.176189e-08,-5.1766904e-07,-1.8947475e-07,-1.9824295e-08,-1.8579865e-07,8.07619e-07,1.3716215e-06,2.687168e-07,3.2594949e-06,-3.5011017e-06,1.1629031e-06,1.2462723e-06,2.7933215e-06,-2.5361118e-07,4.6419427e-07,-1.8174758e-06,1.9372067e-07,7.6459867e-07,-2.6986436e-06,-1.2608465e-06,-6.938427e-07,-2.7788477e-07,2.055063e-08,-1.3483067e-06,-9.701936e-07,-5.7138516e-07,-5.592998e-08,4.5504171e-07,-8.9756384e-07,1.2327317e-06,-2.8951325e-07,-2.3139935e-07,-9.146467e-08,-5.2468516e-07,-1.3112284e-06,2.296039e-06,1.9661083e-07,5.7601846e-07,6.823541e-07,2.1113568e-07,-4.3003365e-06,-1.13478265e-07,-4.297281e-07,-7.316581e-08,9.0045654e-07,-9.454871e-07,1.3356733e-07,-2.6764395e-08,1.1366063e-06,-4.4241864e-07,-6.397072e-07,8.78274e-08,-1.3369531e-06,5.662953e-07,1.3064883e-06,4.5372406e-07,-9.090948e-08,6.5392663e-07,-2.2444122e-07,4.777322e-07,-6.1562396e-06,-1.5023487e-07,-5.1950764e-07,-4.7283282e-07,-9.576634e-07,-1.947354e-07,-3.1021233e-07,1.5970238e-06,8.27823e-07,3.5794535e-06,4.7933224e-07,4.203831e-08,-2.9355665e-06,1.1633723e-07,1.281328e-07,-8.624969e-07,1.8661765e-07,1.993026e-06,-2.0186862e-06,-1.2667904e-06,7.311056e-07,-4.219685e-07,-2.359663e-06,-2.1454935e-07,6.181971e-07,8.2611916e-07,1.160919e-07,7.531794e-08,9.598173e-07,-4.063766e-07,-1.5319426e-06,1.2910463e-07,-3.0305978e-07,6.658161e-07,-1.088727e-06,6.705668e-07,-4.511952e-07,-9.2201367e-07,3.2592828e-07,-5.00685e-07,-2.2287538e-06,2.8342626e-08,-1.9166437e-06,4.9484504e-07,5.7844926e-07,-2.8320173e-09,-6.9180317e-07,1.4096286e-06,-1.5412188e-07,5.746843e-07,9.393882e-07,-8.5858076e-08,-1.7727774e-07,1.271877e-07,3.694566e-07,9.642182e-08,-8.7800123e-07,-1.1099809e-06,3.9344474e-08,-7.6832947e-07,-8.370772e-08,2.7295425e-07,-6.021909e-06,-2.0860016e-06,-6.1097614e-07,1.366245e-06,6.2221466e-07,-1.8075149e-06,5.4712467e-07,-1.0016656e-07,-1.1488901e-06,8.5574845e-07,2.7924932e-07,2.472192e-07,2.876759e-07,-5.2360747e-09,-1.2442276e-06,-1.9743564e-05,5.5471705e-08,-3.962901e-06,8.3734585e-06,-3.2640714e-06,4.591692e-07,-8.431654e-07,1.0972025e-06,2.5163577e-06,-2.004089e-06,7.8864705e-06,3.5744606e-06,1.4996049e-05,-8.251487e-06,-5.6683352e-06,-8.137694e-07,3.4120894e-06,-8.0084357e-07,5.895519e-06,-2.4326841e-06,-8.897999e-07,-1.9581596e-06,-2.6634616e-06,-3.1213182e-07,-4.2364786e-07,-2.1242653e-07,1.33933345e-05,-1.1946298e-08,-1.0022127e-06,4.6384116e-06,-2.7993615e-06,2.8442313e-05,2.235202e-08,-2.3477695e-07,-6.511127e-07,-6.433177e-06,-4.521898e-06,-2.0175264e-06,-3.818152e-06,-1.3074242e-07,3.849134e-06,-2.2104286e-06,5.4964613e-07,-1.16498924e-07,-4.674505e-07,-2.3466673e-07,-5.900467e-07,-7.7654244e-07,-6.4211076e-07,2.1252617e-09,-1.8666035e-06,-4.0118357e-06,-1.04452e-06,-4.028218e-06,4.5887663e-07,-2.0671282e-06,-4.574615e-07,-5.110528e-07,-1.303403e-06,4.0434813e-07,-8.991123e-06,-5.412003e-07,-9.534254e-07,1.2272233e-06,5.4485713e-07,2.710128e-06,3.5547615e-07,-2.2048757e-06,-7.836236e-06,-1.4430808e-05,7.0546002e-06,-5.3301335e-08,1.0538431e-06,2.1499764e-06,9.4309075e-07,2.2215718e-06,8.68332e-08,2.052875e-06,-1.2033352e-06,2.688531e-06,-5.527454e-07,-2.9008386e-06,-7.960548e-09,-4.389148e-06,-4.3284228e-07,-6.531972e-06,-1.5984378e-06,-1.5225379e-06,-1.0271257e-05,2.0144262e-06,2.9025838e-07,7.792988e-08,6.2701e-07,-6.121304e-06,4.744091e-06,2.3964544e-06,4.5913967e-07,4.4232047e-07,-5.416768e-06,-1.9664596e-06,-2.6760754e-06,1.0403104e-05,-2.623158e-06,1.6092351e-06,-1.6843168e-06,-8.7471426e-07,-1.0525131e-06,-2.0339876e-06,-4.997745e-06,-2.6853087e-07,1.7278328e-06,-9.899828e-06,-9.1924335e-08,2.0643686e-06,-1.5515841e-06,-5.640645e-08,-8.124928e-08,-1.4229577e-06,6.7948014e-07,9.0836994e-07,2.4175583e-06,-2.3584681e-07,2.0329907e-07,2.1711101e-07,1.1438576e-06,-2.7877522e-07,-3.6541095e-08,1.2962386e-07,-1.1884683e-06,1.8092494e-06,2.441193e-06,2.864078e-06,1.200487e-07,2.0421235e-06,1.5002691e-06,-1.1825832e-06,-2.915347e-06,1.8357679e-07,-7.581966e-06,-1.0779141e-07,-1.7627825e-06,-4.3595662e-08,-4.2461406e-07,-9.295387e-07,4.0943385e-07,1.9337722e-07,4.6582332e-07,3.040617e-07,4.2767363e-07,-1.3606333e-06,-1.1619245e-07,-8.1373834e-08,-7.301012e-07,-2.0006696e-06,1.1427283e-06,-8.101395e-09,1.3408844e-06,3.3266673e-08,3.917661e-07,-2.1215994e-06,-7.519372e-07,-1.221093e-06,-1.104725e-06,3.4729817e-06,-5.808356e-06,1.0156934e-06,-2.3792172e-06,1.2892915e-06,-1.6180222e-06,8.0123976e-07,-2.5137263e-07,-7.9162163e-07,-4.1553886e-07,-8.709843e-07,-1.3477762e-06,2.3003659e-07,8.416357e-07,-4.837394e-07,2.020411e-07,-6.317187e-07,-2.8631024e-07,-1.3192208e-06,-1.3315586e-06,1.1637942e-06,-2.3809383e-07,-9.0852575e-07,-7.2889034e-06,3.5914559e-06,4.2349183e-07,-1.93054e-07,-1.3714148e-07,-7.40971e-07,-1.2407835e-06,4.527928e-07,-5.8593387e-06,-2.3089844e-06,2.379086e-06,-1.7822924e-07,1.7763607e-06,2.242307e-06,-1.9166487e-06,-1.7293994e-06,-4.7103202e-07,5.357315e-07,1.2994008e-08,-3.19402e-06,6.458922e-07,7.7714805e-07,-3.986224e-07,7.4978147e-06,-1.00943765e-07,-3.7519004e-07,-6.49691e-07,3.592205e-07,3.084708e-07,-1.227777e-06,1.114895e-07,1.2380355e-06,-1.5925272e-06,-3.9624647e-06,4.1989753e-07,-2.570992e-07,5.337011e-07,1.8926094e-06,1.2563756e-07,-9.0801984e-07,1.8934489e-06,2.1537375e-07,2.242285e-06,1.2471475e-07,-8.740973e-08,-1.7993536e-07,-3.3956536e-07,1.1375643e-06,-1.9904687e-07,-2.297135e-06,-2.1867731e-06,-6.063227e-08,9.657668e-07,1.7095681e-06
1.4212475e-07,4.4093213e-06,2.7879255e-06,7.3102058e-09,3.1482216e-08,-5.5705264e-06,1.0514747e-06,-4.6849067e-08,4.0210995e-07,-9.807536e-07,-4.58939e-08,4.893421e-07,1.5809644e-07,8.609404e-07,3.3540928e-07,1.0335379e-05,2.6270993e-07,-2.1110745e-06,1.8873252e-06,8.797359e-08,2.5749262e-07,1.096092e-06,-3.340261e-06,2.93876e-07,9.2578284e-07,-1.0274673e-06,-3.5631188e-06,6.873185e-08,7.332642e-07,1.7683665e-06,-4.124244e-07,-6.443537e-07,1.2868826e-06,-1.5261215e-06,-1.3750666e-06,-2.6978636e-08,5.9243894e-07,-6.981554e-07,9.340293e-07,-1.6967195e-07,8.7309616e-07,-1.8650436e-06,3.4851278e-06,6.7809896e-07,8.591714e-07,-1.2140737e-06,-1.3810437e-06,3.8811013e-06,1.1784292e-06,-5.786091e-08,-1.3290469e-06,-7.732252e-07,1.8306235e-06,2.5139893e-06,-8.7134265e-07,-2.0432908e-06,1.9918218e-08,-7.138726e-07,-1.3178669e-06,-9.5367045e-07,2.1169371e-06,-3.3709972e-07,-3.3814706e-06,1.535333e-07,8.061477e-08,4.929926e-07,-9.821305e-08,-2.1799633e-06,-6.19373e-08,-1.1490408e-07,7.818246e-07,-3.6505077e-07,-8.5567376e-07,-1.362146e-06,6.9645967e-07,-1.1411537e-05,5.450072e-06,-2.2142863e-06,-3.0381532e-08,-1.8907496e-06,8.763465e-07,1.8936731e-07,-1.9042271e-06,-4.2394575e-07,4.394558e-07,7.975581e-07,7.437842e-07,-1.7665142e-06,-6.28586e-07,2.6832363e-06,1.1735075e-06,-3.5632831e-07,-8.10677e-07,-8.0479987e-07,3.1108243e-07,3.000443e-07,1.1173347e-06,-9.702884e-07,-1.3356722e-08,-1.4289299e-06,-4.0126997e-07,-9.914841e-07,2.7183853e-07,4.4627038e-07,1.4427969e-06,-2.9759443e-07,-7.804357e-07,-7.514466e-07,-7.7889376e-07,-2.7420467e-06,1.1028906e-06,-4.1101333e-07,-7.604227e-08,-1.0018098e-06,3.5970658e-08,-1.6689131e-07,3.955124e-06,-4.169663e-06,2.8116398e-07,5.053999e-07,-1.00763316e-07,5.44553e-07,-8.804116e-07,-2.093701e-06,-4.4915055e-07,4.97192e-07,-2.725756e-06,1.8053368e-06,-2.7509312e-08,2.7581575e-07,5.599501e-06,9.1615405e-08,-7.458946e-07,-2.4289502e-06,9.287684e-07,-1.4334674e-07,2.079698e-06,-4.5098022e-07,-2.5303144e-08,3.4000863e-08,3.036654e-06,4.0437326e-06,1.6752201e-06,1.0755861e-05,-2.9185898e-07,8.585766e-07,2.7029336e-07,8.6364446e-07,-4.6822834e-07,3.2340424e-07,-3.6479997e-07,7.3649426e-07,1.2300334e-06,-4.764006e-06,-2.6390696e-06,1.2163972e-06,1.9897216e-06,1.1123773e-06,-1.193438e-06,-9.656562e-07,9.232062e-08,-6.045343e-07,1.918171e-06,2.850768e-07,1.3627109e-06,3.5814898e-07,-5.7368425e-07,-5.993344e-08,-2.0235369e-07,-1.7061202e-06,4.7094513e-06,-2.8222644e-07,5.6343697e-07,1.9138915e-06,2.135704e-06,-3.3282545e-06,2.0490342e-07,7.273154e-07,8.632455e-09,3.4303145e-07,-8.684762e-07,8.62766e-07,-7.937656e-07,1.5494415e-06,1.3300511e-06,-3.64392e-07,-1.3753805e-06,-7.019454e-07,1.1102818e-06,1.0398294e-06,-1.5423168e-06,1.626658e-07,1.2245465e-06,-1.0595684e-07,-2.530183e-08,-3.5609337e-06,-2.4429642e-07,3.742257e-07,8.838869e-08,6.288535e-07,-4.0886277e-07,-5.382196e-07,-1.4318098e-06,3.4381173e-06,1.3053017e-06,2.0843233e-06,-6.050029e-08,-4.2602524e-06,1.13137354e-07,4.779329e-07,6.95116e-07,1.8086896e-06,8.3250455e-07,-1.2025218e-06,-7.9903197e-07,6.566089e-07,1.0442449e-06,4.3295754e-06,-1.2163604e-06,1.2075698e-06,1.2202509e-06,-5.4224103e-08,-4.878027e-07,6.541927e-07,4.4146026e-07,3.5737503e-07,1.7706216e-07,-1.6757382e-07,6.401532e-07,-6.7033267e-07,4.6562327e-06,3.5089806e-07,1.9451713e-06,-1.4663682e-07,-3.870894e-07,-6.4777925e-07,-1.159774e-07,-7.5733146e-07,4.477361e-06,9.925024e-07,2.6650074e-08,-4.998809e-08,-9.211441e-07,-1.2678285e-06,1.8764163e-06,1.5016184e-06,-5.657404e-08,1.16925094e-07,1.6257087e-07,2.2051797e-06,1.1558818e-06,-1.052878e-06,1.0913217e-07,3.8028836e-07,-1.5034934e-06,-6.230906e-07,2.2226826e-07,-1.7425544e-05,2.4805333e-06,2.3266564e-07,3.5149037e-06,-9.227014e-06,-2.1917665e-06,3.0329631e-06,-2.3639366e-06,3.2272152e-07,-1.5957648e-06,-1.4406493e-06,9.3959926e-07,1.541743e-07,-1.0426088e-06,3.2570756e-06,-1.6076729e-05,-6.4011545e-07,7.318122e-07,5.177894e-06,-3.268202e-06,8.369342e-07,3.6988022e-06,-2.5655953e-07,1.0982802e-05,-6.727402e-06,-3.964522e-06,-1.4362655e-07,3.0554133e-06,1.3938245e-07,-6.050859e-07,1.4822419e-06,7.399499e-07,-5.2989907e-07,1.9236668e-06,-5.9493254e-07,-2.9674557e-06,1.1436907e-06,2.4267376e-07,-4.8711786e-07,-2.5691609e-06,-7.1081996e-07,1.3703152e-05,-4.496217e-07,-3.4450596e-07,-3.3215929e-06,-1.8853792e-06,1.6346465e-05,3.2920755e-07,4.9521486e-06,2.8823044e-07,1.1306707e-05,3.3153447e-07,-5.2438395e-06,7.018542e-06,3.4631628e-06,5.3548597e-06,-1.3592648e-06,-7.845312e-06,2.0632112e-06,-4.1262706e-07,3.5144037e-06,5.3949793e-07,1.1419343e-06,-2.617337e-06,-2.2714744e-07,1.9347885e-07,-2.007454e-06,1.9004665e-06,-6.9599787e-07,-3.9187694e-06,3.4671655e-07,-2.2957167e-06,1.4002052e-06,-5.4957363e-06,-1.055484e-05,-7.127028e-07,-5.779261e-06,-1.5521891e-08,-1.9221761e-06,1.4058184e-06,-2.5091063e-06,2.0636668e-05,-2.3069254e-06,-2.9228545e-06,1.6567268e-06,2.4547708e-06,-8.81232e-06,-5.139764e-07,2.3176262e-05,1.6202086e-05,2.7432966e-06,1.0624087e-05,-1.5125314e-06,-3.6671547e-06,-2.2754596e-06,4.6630716e-06,1.0619959e-06,-6.054581e-07,-3.2096048e-06,-3.1355676e-06,4.6861605e-06,-3.9419745e-10,-2.1004632e-06,-1.268727e-05,8.919756e-09,-6.9912795e-07,8.301898e-06,1.1205101e-06,-5.8052506e-06,9.469062e-08,-2.7453625e-06,8.8893216e-07,-1.253669e-06,-5.792704e-06,-3.7792688e-07,6.282828e-07,6.792963e-06,-1.6274475e-06,4.4391953e-08,-3.132675e-06,7.20327e-07,-7.265599e-07,-8.598696e-06,-2.9781738e-06,-8.2451515e-07,-2.677295e-07,-1.1368212e-05,1.4948618e-07,4.1971657e-06,1.46782495e-05,1.1226507e-07,-1.759883e-07,8.350993e-07,1.8573293e-06,-2.407244e-07,1.7365999e-06,-3.400238e-07,1.9045088e-06,3.676509e-07,3.3705387e-06,1.0971835e-06,8.6651653e-07,2.892236e-06,2.7002304e-06,-1.4761368e-06,8.402116e-07,2.3626312e-06,-3.824564e-07,1.6912269e-06,1.2798016e-06,6.9860293e-06,1.8735159e-07,-1.772031e-07,-5.695929e-06,2.4048384e-06,8.990415e-07,2.9611497e-06,-1.507602e-06,-1.5201209e-06,1.1109005e-06,-2.585561e-06,1.0696359e-05,1.8406405e-06,1.1394372e-06,-2.2594361e-07,2.2239422e-07,3.7640177e-08,7.3953106e-07,-1.9477056e-06,-9.25545e-07,6.629307e-07,7.461235e-07,2.199959e-06,1.5441473e-06,1.0249254e-05,8.8017566e-07,3.0791832e-06,-2.9892627e-07,8.7915134e-07,5.1690276e-06,2.504589e-06,-1.7467498e-06,2.3983583e-07,2.3978937e-06,1.2099373e-06,-1.958856e-06,-8.2595204e-07,3.0684646e-06,-5.1656184e-07,-2.5002096e-06,2.0006925e-07,2.9612138e-06,5.0204257e-08,2.0385997e-08,-1.8050599e-06,1.4675327e-06,-1.3121098e-07,-1.957124e-07,1.8182249e-06,-1.3319834e-06,-1.6324082e-06,-2.8829147e-06,6.3326856e-06,1.8265666e-06,5.307178e-06,-2.5533717e-07,-5.803682e-06,4.87144e-07,-3.2518489e-07,-9.461926e-07,-2.992971e-08,1.5210512e-06,-1.5219734e-07,9.733093e-07,2.288267e-06,1.7819335e-07,7.11496e-06,3.9797214e-06,1.6617474e-07,1.0115541e-06,1.5156053e-07,-1.0780254e-06,6.081042e-07,1.2004352e-06,5.5736286e-06,-7.807396e-08,-2.1575274e-06,2.2366689e-07,8.4897005e-07,2.3527564e-06,6.616669e-07,2.1261724e-06,-1.9544505e-06,6.4222163e-06,-2.8270406e-06,-2.9267298e-07,-1.7402072e-06,4.4975604e-07,4.0793384e-06,-1.908413e-07,-5.121262e-07,-7.6184745e-07,-7.984543e-07,4.821467e-06,2.1971548e-06,-8.6469896e-08,6.1112644e-07,-5.073349e-07,-8.3815365e-07,1.8872416e-06,-2.6050666e-06,9.873244e-07,7.412366e-07,-2.8370687e-06,1.1650408e-06
-1.741163e-08,-1.550881e-08,-6.201108e-07,-2.6397263e-08,-7.865383e-08,1.9656316e-07,3.275936e-09,-4.6791833e-08,-1.9783987e-07,5.3771345e-08,-4.68369e-07,4.989704e-08,2.7261091e-09,-3.7025877e-08,-7.697771e-09,-4.7596887e-07,-1.6831396e-07,4.5231513e-08,9.001759e-08,-1.8144532e-07,-4.1021213e-08,-9.962891e-08,-1.4765965e-07,1.5871775e-08,1.7436203e-07,-5.404948e-08,7.3036176e-07,6.395665e-08,-1.0527432e-06,2.713468e-07,1.2724859e-08,7.234094e-08,-1.9075217e-07,1.8653587e-08,-1.3649668e-09,-9.300076e-08,7.55229e-08,-2.2498897e-08,-6.678182e-08,3.452331e-08,-3.8274027e-07,2.3637173e-07,7.778891e-08,-2.9215343e-07,-4.003864e-09,-1.7276334e-07,4.8440274e-08,2.0599407e-07,-7.38321e-08,-7.840368e-09,-1.4599286e-07,-8.5445215e-09,-1.04132475e-07,6.505463e-08,-1.0173907e-07,-6.603536e-08,1.1747548e-07,7.839361e-08,-6.003555e-08,2.4401897e-08,-1.1918253e-07,-9.2811545e-09,-8.414037e-08,-1.229737e-07,-5.0616368e-08,4.331983e-08,-1.1496125e-07,-7.493159e-08,-3.7707895e-08,5.2846804e-08,-1.4580337e-07,3.597513e-07,-6.088922e-08,3.690487e-08,3.677162e-08,-9.124568e-07,-3.1140763e-07,5.102634e-07,-1.4033012e-08,-6.6923114e-08,-1.4404898e-07,-7.517827e-08,5.5266668e-08,6.287543e-08,2.2265283e-08,3.1351692e-07,2.6185404e-07,-2.18021e-08,6.754715e-08,2.353589e-07,-7.78477e-09,9.3489156e-08,-1.1054001e-08,-7.4719075e-08,-1.2789548e-07,4.3401407e-08,-7.633951e-08,-1.4155533e-07,-8.7842333e-10,1.2458707e-07,2.877885e-08,1.8599664e-07,3.5193594e-07,-6.175971e-08,1.5209096e-07,-6.8119114e-08,3.7855514e-08,-1.3856493e-07,8.1649326e-08,-2.5876343e-08,-1.04811924e-07,9.754151e-08,1.2767262e-07,-1.0445228e-07,-5.2397578e-08,-7.215924e-08,-1.11741855e-07,1.1827407e-06,-6.468214e-08,3.3317935e-09,-1.026725e-07,1.1406664e-08,2.2602661e-08,4.567698e-08,-1.7955892e-07,-1.8323995e-08,-2.351586e-08,2.1679217e-07,3.1115384e-09,-1.2976723e-07,-4.981678e-07,-3.728426e-08,5.2794178e-08,-2.2688289e-07,9.327154e-09,1.3752584e-08,-3.489284e-08,3.367923e-08,3.217538e-08,-3.6059022e-10,9.209889e-08,-1.5574186e-07,-3.1569664e-07,-1.0163885e-06,4.0792656e-07,-2.4905577e-07,-4.5256447e-09,-5.4130844e-08,-3.5629588e-10,-3.4376292e-08,-7.471442e-08,-7.3054602e-09,-1.3056882e-07,-1.4479475e-09,7.8255306e-07,3.1198527e-07,-4.0483363e-07,-1.8748574e-08,5.3029165e-08,3.334867e-08,-5.0361484e-09,-1.5066131e-09,-6.706158e-08,-5.5607067e-08,-4.398472e-08,2.1963423e-08,1.0756587e-09,1.4074158e-07,6.6101855e-08,-6.522882e-09,-9.888983e-07,1.8693038e-07,-6.940608e-08,-3.685061e-08,-2.1352353e-08,7.0097144e-08,2.4488496e-09,2.561034e-08,-3.4353e-08,-8.4763016e-08,-1.4592791e-07,-1.1543107e-07,1.8908512e-08,-3.872362e-09,-6.367066e-08,1.507508e-08,-4.3502233e-08,2.1572701e-07,-1.9814216e-08,-3.7941945e-08,2.144934e-08,3.4154134e-08,-3.9278817e-08,2.6674643e-08,-1.8203964e-07,-1.8902941e-08,1.3211997e-08,8.769282e-08,-2.594487e-08,3.8995378e-07,-1.3171099e-08,-9.21615e-08,-1.5311485e-07,7.1761775e-08,6.6547204e-07,1.3542999e-07,5.9290233e-08,-5.1859324e-08,3.564456e-08,4.1082593e-08,5.5354427e-08,-1.461281e-07,-1.7930539e-07,1.8137173e-07,3.3419003e-08,-1.2958537e-07,1.212624e-07,1.6397178e-07,5.830398e-08,2.8804916e-08,1.1407335e-07,2.8041047e-08,-4.5818485e-08,1.2358308e-08,9.512571e-09,4.1687763e-08,-2.110066e-09,2.1729505e-08,-9.165252e-09,-7.1144804e-08,2.610413e-07,-6.937656e-09,5.7307226e-09,4.521035e-09,6.423819e-08,2.9706037e-08,1.0385903e-08,-6.4799025e-08,7.645922e-08,1.782031e-08,1.00748956e-07,4.6327536e-08,2.6375423e-07,2.9615862e-07,-7.99032e-08,2.8234953e-07,1.2783023e-07,6.186532e-09,-1.1686867e-08,-9.708326e-08,-8.4984556e-08,7.837604e-08,-2.0384736e-07,-3.519477e-08,3.9174534e-08,5.8986938e-08,-3.2700918e-08,3.3085925e-09,-3.3479418e-07,-9.811369e-08,-5.9745574e-08,-1.0239272e-06,2.0909253e-08,-2.516476e-07,1.6635835e-07,4.5051518e-08,-1.12511295e-07,1.0549966e-07,-1.5085662e-07,-1.3387273e-07,2.2631338e-07,-6.0657067e-07,9.228364e-08,-7.085269e-08,-4.008039e-08,-5.5188565e-07,-6.020797e-08,-9.0163624e-08,3.4025425e-07,-2.3566551e-08,-8.970121e-07,-3.788743e-07,8.37489e-08,4.856191e-07,2.2629172e-07,-5.4395116e-07,-1.5629492e-07,2.0550809e-07,3.3646606e-07,9.892146e-09,-3.9296253e-07,1.2494368e-07,3.2773653e-07,2.0660572e-07,-4.4929955e-08,4.4505484e-08,9.491381e-08,2.5022194e-07,-2.744699e-07,-6.2545134e-09,4.4632262e-08,-5.59428e-07,-3.794475e-07,1.0219381e-06,3.7292576e-08,1.2668808e-07,1.2796347e-07,2.7264593e-07,9.0977335e-07,-2.7594677e-08,-2.8083238e-07,-2.022123e-07,-1.7284773e-07,1.3131948e-06,2.974363e-07,1.2718235e-07,-1.5465693e-07,7.057601e-08,-4.0395754e-08,1.1442252e-07,-1.0854427e-07,-1.4832469e-07,5.359233e-09,-3.5079285e-07,2.464285e-07,4.3117458e-07,-2.7766805e-07,-2.3392502e-06,9.701946e-08,4.4310917e-07,3.9866705e-07,-1.0371252e-06,-5.7619644e-07,1.9288859e-07,6.518695e-09,-7.543232e-07,-6.0451026e-07,4.08535e-07,2.0631082e-06,1.5357276e-07,-2.3775296e-07,-9.022856e-08,3.9131226e-07,-6.159481e-07,-3.5038106e-08,8.3921594e-07,-1.5358873e-07,2.1979939e-07,-3.0419528e-07,6.552038e-07,-5.2229286e-08,2.0356826e-07,-1.462776e-07,4.5969327e-07,1.1044376e-08,1.00356544e-07,1.8509252e-07,5.7947875e-07,2.4114676e-08,-8.278397e-08,2.8379839e-07,4.318646e-08,-6.259005e-08,1.5984418e-07,1.5625339e-07,-1.1093051e-07,-8.403532e-07,3.0045473e-07,-7.661049e-08,2.1233475e-07,2.1290097e-07,-6.6646656e-08,-2.7356506e-08,-4.6451514e-06,1.5247696e-08,-5.343063e-09,3.816293e-08,8.8393264e-08,2.2746887e-08,3.0214647e-07,1.7102397e-07,-3.0883484e-08,-1.1807628e-07,2.611147e-07,-6.713937e-09,-1.963465e-07,-3.57393e-07,-7.500493e-08,9.814484e-08,1.4017041e-07,1.127022e-07,-5.4234345e-08,1.4950294e-07,1.07357806e-07,1.919654e-07,-5.998369e-08,1.2737509e-07,-7.3380605e-08,-1.09064665e-07,1.4857085e-07,1.8605581e-07,-2.3876663e-07,1.1924116e-07,-1.7584313e-08,-5.77718e-08,-1.5833047e-07,-1.5775173e-07,1.689335e-07,4.5382997e-08,-1.1275768e-07,6.5130394e-07,5.7618524e-07,-1.915653e-08,5.700823e-08,-1.4634924e-07,3.816161e-07,-1.0472456e-07,-2.7309559e-08,-8.015183e-08,-2.9157897e-07,9.198434e-08,-1.11849936e-07,-1.2837066e-07,2.6869628e-07,3.67341e-07,5.4850773e-08,1.5431144e-07,-1.9987548e-08,-4.6200547e-08,4.2466667e-08,3.126972e-07,-5.2236473e-09,1.513763e-08,1.4225441e-07,1.16593284e-07,-1.2766947e-07,-2.4809708e-07,1.0913222e-08,3.4723064e-07,4.0445588e-07,-2.7315556e-07,9.027126e-08,-4.3897845e-08,5.950268e-08,-1.2441645e-07,4.0456563e-08,-1.0690192e-07,-4.8890847e-09,-3.4071483e-08,9.263759e-08,-1.7095525e-07,-5.20202e-08,3.0855375e-08,-3.7712923e-08,1.588069e-07,4.467953e-07,-4.218261e-08,8.4101515e-08,4.1528196e-08,3.2809414e-08,1.0439317e-07,2.0655442e-07,4.215245e-08,-1.1362747e-08,-3.0352695e-08,7.665405e-08,3.9084824e-07,2.882488e-07,-1.9711747e-07,3.0622203e-07,2.2937945e-07,-1.8575918e-07,1.2561469e-07,4.0923035e-07,6.8498304e-07,1.15489286e-07,6.629281e-08,-5.2178746e-07,-3.246865e-07,3.296533e-08,-6.96816e-08,-2.2380578e-07,-3.952957e-09,1.0725915e-07,-7.9273825e-08,5.201516e-07,7.687245e-07,-2.2365664e-07,7.114027e-08,-7.919418e-08,3.3017594e-07,-2.4967628e-07,6.8071245e-08,1.1701004e-07,5.68666e-07,-1.964879e-07,3.3812648e-07,-2.2634288e-07,2.5409858e-07,1.7929392e-07,-1.1293981e-07,6.085405e-08,1.0375633e-07,-3.7593388e-08,-1.12449115e-07,-1.3591581e-08,-1.6010706e-08,2.4319365e-07,-1.02767984e-07,-5.4707975e-08,-6.3292546e-08,5.4819355e-07
-8.099903e-08,-9.2326115e-07,-1.2582516e-06,-1.2485305e-07,-3.5776935e-07,1.525582e-06,-1.1394089e-07,1.9322652e-08,-5.9365374e-07,2.2575173e-07,1.0694819e-06,-1.2824822e-07,-2.6603564e-07,-4.234037e-08,5.935111e-07,1.0344066e-06,-2.720103e-06,3.6916677e-07,-7.175423e-08,1.5415688e-07,-2.4531872e-07,7.245782e-08,-8.7945e-08,-1.31858e-07,8.8799155e-08,4.9778947e-08,2.6162905e-07,-1.15926696e-07,-1.3111884e-06,-6.5288276e-07,5.4763163e-09,2.405871e-07,-7.9001126e-08,2.4871264e-07,1.3907997e-07,4.106427e-08,-7.3021477e-07,2.5985076e-07,2.9761935e-08,-1.9813217e-07,-1.985342e-07,-3.2211966e-07,3.9286812e-07,3.872885e-08,-2.2473763e-07,-5.024828e-07,1.5720852e-07,6.870075e-07,-2.1242921e-07,3.767233e-07,-3.7446434e-08,5.5540994e-07,-2.4704352e-07,-1.859735e-07,-2.2826036e-07,8.3700434e-07,-6.429249e-07,2.5576946e-07,-1.2431974e-07,6.999524e-07,5.6452016e-08,3.3124732e-07,-1.0298959e-07,-8.97974e-08,7.500809e-08,-3.4740285e-07,-2.3930472e-08,-2.3429763e-08,1.5862793e-07,1.2665075e-07,3.1668839e-07,2.7361332e-07,4.836892e-07,3.408198e-07,-2.3729115e-08,-1.5693428e-07,2.2131636e-07,8.541689e-07,1.9736332e-07,3.361754e-07,-2.1811752e-07,1.6919624e-07,6.8434787e-07,1.2251265e-06,-5.1669637e-08,-4.5289593e-07,-3.4416226e-07,3.6594722e-07,-1.6633876e-07,-2.268856e-06,4.8724536e-07,-2.0912498e-08,2.0713001e-07,-1.5741409e-07,1.834069e-07,-6.0484915e-09,-5.1085074e-08,8.478903e-07,1.7752877e-08,1.5262259e-07,-1.9500287e-07,-4.5915203e-07,-5.3853006e-07,-1.3174659e-07,-2.4046741e-07,-2.907258e-07,3.8706224e-07,1.0216706e-06,4.2514745e-07,2.786558e-07,-1.2599895e-06,-5.8710434e-08,-3.4608853e-08,-3.719559e-08,-3.8138117e-07,-5.6914206e-07,6.338588e-08,1.2401405e-06,-1.2257374e-08,-1.9798343e-08,1.51705e-08,-1.6502835e-07,-9.4287174e-08,2.9274668e-08,-3.5998775e-07,-1.0210866e-07,2.070023e-07,6.723648e-08,2.3213861e-08,3.7380272e-07,-1.0756472e-06,3.7783934e-08,-1.6437954e-07,2.6387696e-08,-1.0331164e-07,3.086432e-08,-1.18785195e-07,2.4329495e-08,1.398415e-07,-3.8610448e-08,-2.5463518e-07,-6.6478054e-07,1.8497494e-07,7.531993e-08,1.4668014e-07,-5.772912e-07,-1.5496822e-07,-2.1752857e-07,1.08270555e-07,-5.5863367e-09,-2.0304913e-07,-2.5633148e-07,-5.054079e-07,1.8807208e-07,8.4755015e-07,2.058875e-08,1.9041555e-07,-5.9927174e-08,1.6585162e-07,1.6759033e-07,-2.6608872e-08,2.0920119e-07,-3.6196138e-07,8.576441e-08,-5.805289e-07,1.2583305e-07,7.0917665e-08,-6.412917e-08,-1.2554734e-07,1.05622625e-07,-1.6612696e-06,3.6094573e-07,-2.9524045e-09,-1.3854748e-07,2.1991957e-07,-8.183387e-07,9.822236e-10,1.1951064e-07,-2.0517805e-07,1.7350277e-07,1.6025703e-07,1.3324957e-08,9.438686e-08,2.6419855e-07,-3.8588735e-07,2.5729975e-07,7.510815e-08,-7.908671e-08,1.2583417e-08,1.3190756e-07,2.563453e-07,7.230827e-08,-7.239228e-08,7.493226e-08,-7.993407e-08,3.1040395e-07,9.6358306e-08,1.3883198e-07,2.1692293e-07,-1.5147751e-07,2.9155058e-07,1.9144065e-07,-1.3626789e-06,1.4758521e-07,2.58018e-07,2.9038443e-07,7.905003e-09,4.1894245e-07,8.80755e-10,1.7629719e-07,-6.6193145e-08,-3.4075015e-08,3.859752e-08,7.4086574e-07,1.8726335e-07,-1.9755618e-07,-3.476221e-08,2.1205483e-07,-6.120445e-08,-2.5768255e-08,4.5224272e-07,-1.5682497e-07,-5.8441774e-08,-1.321458e-07,-1.2296962e-07,-4.56523e-09,-1.4513675e-08,1.7714149e-07,-2.9412325e-08,3.4012382e-07,-2.2241233e-07,-2.3873525e-07,-1.8067138e-07,-5.9802694e-08,1.4734567e-07,9.4375494e-08,5.3535956e-08,4.966529e-08,-1.0679726e-06,4.676589e-08,6.1738255e-08,2.4815054e-07,2.2187072e-07,-2.778595e-07,-1.2725465e-09,-6.2308885e-08,-1.0164642e-07,-1.7631304e-08,1.4091601e-08,-4.4897342e-07,-3.551962e-07,2.0898707e-07,7.5771446e-08,-2.7283953e-08,2.5110796e-07,-1.2116074e-08,1.3705433e-07,2.1470544e-06,-2.3317198e-06,1.3792007e-07,-1.12093005e-07,-3.38005e-07,3.41312e-07,-9.050283e-08,-4.2307653e-07,7.4523e-09,6.034555e-07,2.2187908e-07,-8.431465e-08,-6.4971425e-07,-4.2086552e-07,-3.2038906e-06,-4.400755e-06,-1.9916894e-07,-2.1275682e-08,-1.5405216e-06,7.3290624e-07,4.630072e-07,1.4266277e-07,-3.6011414e-08,-1.6996271e-06,3.117416e-07,1.9808483e-06,-1.5456362e-07,-3.0266242e-06,-1.2322138e-06,-6.125944e-08,-2.4887328e-07,2.0370185e-06,8.121384e-08,-3.7041518e-06,1.5348233e-07,9.0869264e-07,1.456985e-07,-2.080397e-07,-5.616936e-07,6.509938e-07,-8.499335e-07,-1.9230756e-06,4.3487535e-07,-1.02913674e-07,-1.8073108e-06,-2.0530862e-08,1.3218371e-06,5.170604e-08,2.4376544e-07,2.7772998e-07,1.2905442e-06,-3.9825426e-07,5.3845224e-07,-7.224496e-07,-5.1343454e-07,-1.2435676e-06,1.5105406e-06,-2.1565643e-07,-1.0543267e-06,-5.9122556e-07,1.7427134e-07,2.7801323e-07,3.2076485e-08,2.0859194e-07,1.8061466e-07,-3.3444678e-09,9.3639585e-08,5.3472917e-08,7.558605e-07,3.6909194e-07,-2.2506076e-06,1.24308315e-08,-4.2408672e-07,2.1293586e-06,-7.349067e-07,-7.012215e-07,-1.9384102e-06,-4.8502966e-07,-3.5607025e-07,-1.268609e-07,4.467691e-07,9.660628e-07,-6.8241013e-07,2.394098e-07,-1.6979694e-06,-4.399074e-07,-3.8608636e-07,1.725868e-06,8.900795e-07,-5.384153e-07,3.886474e-08,-2.9931502e-06,8.507948e-07,-2.3985822e-07,2.6880187e-07,-5.428189e-07,5.7334796e-07,1.2070016e-07,-8.5965226e-08,5.339891e-07,2.0349172e-07,-6.731669e-07,3.7414642e-07,1.6005133e-06,6.5094537e-07,-3.2979955e-07,-9.051777e-07,5.02709e-07,-7.764939e-07,-2.9856087e-06,1.145771e-06,1.0448055e-08,-1.511844e-07,-5.0556775e-07,3.0371706e-07,-8.117888e-08,3.3259744e-06,-1.01707414e-07,4.8158633e-09,1.08851e-07,5.99207e-07,5.5804435e-07,1.2856835e-06,9.4662505e-07,2.1951973e-07,-4.2814995e-07,2.9833794e-07,-5.3941726e-08,-1.2814493e-06,-1.5128142e-06,-1.8647519e-07,-4.2845096e-07,-4.7203116e-07,-6.177487e-08,-3.7082714e-08,-9.2492274e-07,-5.4923433e-08,1.6584546e-07,-5.0163187e-08,-4.056118e-07,-7.267104e-08,8.6615515e-08,6.080333e-07,2.8265714e-07,1.110331e-07,3.45833e-08,-1.0622946e-06,1.8136232e-08,1.8875176e-07,-1.6379953e-07,-1.806771e-07,-1.6798921e-06,-4.722819e-07,6.9070705e-07,-4.0134194e-07,-1.1624267e-06,5.359641e-07,2.7222603e-07,2.6089845e-07,-1.761425e-08,5.629906e-07,4.872395e-07,-2.4038872e-08,-1.0842583e-06,1.7772393e-07,1.0975466e-07,-3.4609627e-07,-3.5439396e-07,-4.193511e-08,-1.6959046e-06,1.01984284e-07,-1.3274833e-07,9.425372e-08,3.9767386e-07,2.2256441e-07,6.8720595e-08,2.7094157e-07,9.033171e-08,1.0071169e-07,2.7106537e-07,-1.9455078e-07,1.872329e-07,9.736618e-07,-3.459855e-07,-3.3122873e-08,9.409541e-08,3.4227844e-07,3.8178223e-07,3.5636089e-07,4.2362018e-08,3.5086693e-08,1.822562e-07,-1.0177946e-07,-1.12895414e-07,1.7530871e-07,3.763082e-07,1.8600844e-08,4.0660598e-07,7.540594e-07,3.265007e-07,7.083612e-07,-1.5431543e-07,3.9234374e-07,-8.594285e-07,8.514004e-07,3.6998773e-07,1.0290773e-06,-6.1582405e-08,3.1935542e-07,3.0767063e-07,-5.96705e-08,-4.6432497e-08,-8.398626e-07,7.752998e-10,2.541732e-07,-2.5745074e-08,-1.697191e-07,-1.5228331e-06,-2.2439238e-08,5.825153e-08,-1.610407e-07,-1.04117035e-07,-2.7652592e-07,-1.7027617e-08,-1.4167681e-06,3.1777123e-09,5.0616234e-07,-8.0916635e-08,-2.2680192e-06,-5.776333e-07,-1.1378957e-07,-2.0559783e-07,-1.0547437e-06,3.4326143e-07,3.6280716e-07,2.177483e-07,1.6406179e-07,-1.472116e-06,1.6398735e-07,3.564086e-08,5.9667667e-07,-8.5504745e-08,-2.7537934e-07,-4.3582205e-10,2.5722727e-08,-3.8689167e-09,-1.2981423e-07,7.1464946e-08,-7.169338e-07,-2.5947693e-07,5.4922495e-08,-1.2086673e-07,-9.2533966e-08,1.177097e-07,-1.4180392e-07
-3.088431e-08,-6.7510194e-07,-1.253196e-06,-1.6665462e-08,2.8838377e-07,-4.610647e-06,-8.908801e-08,-9.144069e-08,-3.3291056e-07,3.4834878e-07,1.5845772e-07,1.2429329e-08,6.943496e-07,6.684439e-08,8.8014744e-08,9.024697e-07,3.4942248e-06,7.521641e-08,-7.539376e-08,3.259198e-07,-1.4344246e-07,-4.7114207e-07,-6.2182596e-07,-1.4110427e-07,-1.190364e-06,-6.5561267e-07,8.3130647e-07,5.3689707e-08,-4.5351717e-06,1.8727845e-07,3.4156193e-07,5.911304e-07,-8.378542e-08,3.846114e-08,3.523442e-07,3.2175336e-08,5.9330114e-07,1.0570437e-08,4.1311917e-08,-7.227711e-07,-4.7689605e-07,3.4897232e-07,2.1827873e-08,-3.9452075e-07,-1.9821616e-07,7.735575e-08,-3.301091e-07,-2.7900242e-07,1.615744e-07,5.4644113e-07,-1.963964e-07,1.4149875e-06,-7.439843e-07,-2.1795236e-07,-3.025263e-07,-5.426909e-07,-8.482615e-07,9.957525e-08,-1.4503617e-06,-1.671645e-07,-1.532166e-07,1.0281813e-07,6.676794e-08,-2.3397276e-07,3.8466766e-07,-3.1237005e-07,-3.9916682e-07,-6.966298e-08,1.0409053e-07,1.236566e-07,5.0086335e-08,2.6183804e-07,1.4267017e-07,5.5089956e-08,3.65149e-07,1.7313221e-06,-3.1938725e-07,1.4425917e-06,9.288864e-08,2.4971294e-07,-4.3660458e-07,-3.12027e-07,-1.9793774e-06,6.5772855e-07,-1.7711336e-08,-1.332553e-06,7.686991e-08,4.0670437e-07,-1.2861585e-07,3.337826e-06,-1.5609996e-06,-1.7271685e-07,3.3746392e-07,-9.844922e-07,2.3986144e-07,-3.4440994e-08,-1.2649863e-07,3.0511358e-06,4.174286e-09,1.374869e-07,3.872061e-07,1.2606097e-06,-5.7956674e-07,-1.1752182e-07,-5.437924e-07,1.488612e-07,8.154895e-07,3.200783e-07,2.063498e-07,3.3908339e-07,-1.1136158e-06,5.9290585e-07,4.8729863e-08,-6.6398707e-07,-2.555925e-07,3.1067323e-08,-4.6167024e-08,2.1618569e-06,-1.6014337e-07,5.5603305e-08,2.0462655e-07,2.4822435e-07,-2.8208493e-07,1.3015398e-07,2.1685972e-07,-4.484273e-08,3.6257117e-07,1.06232086e-07,9.99733e-09,5.5662355e-07,-2.5174459e-06,4.2152916e-08,-5.62245e-07,1.7491592e-06,-4.482965e-08,2.6873575e-08,-9.30621e-07,-1.5858467e-07,-2.2039993e-08,6.644475e-08,-1.840059e-06,2.3030591e-07,-2.9545615e-07,1.1148045e-06,-1.3662091e-06,3.7306322e-06,-5.8883536e-08,4.198802e-07,1.8768738e-07,-2.1819021e-07,1.8148626e-08,-1.2436682e-07,4.7404907e-07,-4.3414596e-07,3.0543042e-06,-6.306348e-07,-1.0068661e-06,-4.453799e-07,3.0809517e-07,5.2204757e-07,-4.474767e-08,2.684858e-07,-2.276314e-07,-1.9342863e-08,-8.7372536e-07,-2.8202825e-07,1.3888372e-07,-2.08947e-07,-3.7970565e-07,4.813236e-07,-2.084066e-06,-1.04336095e-07,-5.470163e-09,-2.1438916e-07,-2.803715e-07,3.0137733e-07,3.288711e-08,-1.3640911e-07,4.9928366e-07,4.9099094e-07,9.7051725e-08,-1.9483929e-07,2.0171278e-08,-7.4479374e-09,-1.0790523e-06,3.2113928e-07,8.548912e-08,1.6140773e-07,-2.8307127e-08,-1.6494965e-09,-1.08798474e-07,-7.790911e-09,-2.0452948e-07,1.2085955e-08,-9.216007e-07,3.5837812e-07,-8.1443986e-08,-2.1483825e-07,1.1085558e-07,-4.4053246e-07,1.7985016e-08,1.8232123e-07,-1.2860125e-06,-2.0387948e-07,8.530603e-07,1.9800146e-07,-1.0399438e-08,3.9307255e-07,4.628508e-08,7.5519347e-07,-1.5955645e-06,-3.0307876e-07,1.046541e-06,-3.0449744e-06,4.9142136e-07,-2.8807128e-07,1.8039882e-08,-5.2991345e-07,-1.2778403e-06,-9.368418e-08,-4.818859e-07,-5.0684196e-07,-4.780097e-08,2.0557752e-07,-1.963373e-07,-3.799877e-08,6.7295427e-09,2.4385258e-09,1.9190557e-07,7.15653e-07,-1.6247665e-06,-7.0696515e-08,-4.433355e-07,-5.666184e-07,-4.5333084e-07,-1.2632538e-07,5.6061683e-08,4.8540517e-07,-1.2712335e-06,2.980821e-07,7.361504e-08,1.7231677e-07,-2.2399706e-07,-1.048864e-07,-9.2157656e-08,8.6430487e-07,1.7356989e-07,1.5765584e-09,6.584109e-08,-4.7600388e-08,-3.827567e-07,8.827163e-07,-5.786803e-07,-6.203291e-09,2.0899838e-06,2.5852273e-08,-1.567051e-08,-1.8294676e-07,-1.8032085e-07,-8.1329816e-08,-1.6426839e-07,1.1455073e-06,4.130332e-07,8.864029e-08,5.532536e-07,5.5546667e-07,-4.832512e-08,-1.9777126e-08,-1.3942905e-06,-1.5746201e-07,2.4137432e-07,-2.322996e-06,3.9815885e-05,1.3818897e-07,-4.5554356e-07,-1.3960798e-06,2.4746592e-07,-9.207325e-08,3.1964927e-07,6.2864024e-07,-2.3848193e-06,5.995175e-07,1.5380781e-06,3.4309318e-07,3.6020373e-07,-1.9555314e-06,-5.7025375e-07,9.525882e-07,4.1482295e-08,5.081945e-07,1.6775402e-08,3.6003095e-07,7.9347086e-07,4.9674964e-07,5.0038705e-07,4.5139552e-07,-5.0338014e-07,-5.4338074e-07,-8.316788e-07,-3.642182e-07,4.1896797e-08,-9.310576e-07,-1.694296e-07,1.9873717e-06,-3.0261614e-07,6.889445e-08,-1.5019366e-07,-6.359471e-09,6.57469e-07,-2.0799956e-07,-1.1835e-06,1.7487396e-06,-6.950311e-07,1.3213918e-05,8.0333865e-07,1.0139229e-07,1.1998594e-07,4.376972e-07,-1.3672724e-07,4.828924e-07,9.1047724e-08,4.837084e-07,-1.4262183e-07,-7.1942384e-07,6.3520486e-07,7.1512636e-07,8.824992e-07,-2.1798194e-06,2.7385002e-07,5.320377e-07,1.4292176e-06,2.2463446e-06,-8.021125e-07,2.5482593e-06,-8.203379e-08,-3.896983e-06,-5.530696e-07,-5.999888e-08,-1.4998121e-06,-1.3213707e-06,-6.8954364e-07,3.1262061e-06,1.0770061e-06,-1.10688305e-07,6.028847e-07,-7.625294e-06,1.015125e-06,-3.1397116e-07,-8.030965e-07,4.5404678e-07,3.3865462e-07,5.906128e-07,-1.4388996e-07,-2.2357227e-07,6.354917e-08,8.2232714e-07,1.1411975e-06,-2.0581867e-06,4.809571e-07,1.6397033e-06,6.9346254e-07,5.539263e-07,1.5524142e-07,5.7374416e-07,-1.6382467e-07,2.2323282e-07,-2.5738734e-06,1.6948544e-06,-3.1091946e-07,3.9548357e-07,8.799438e-07,-1.336331e-07,2.7733643e-07,-4.1222995e-07,-5.8216372e-08,-8.593591e-08,1.2764957e-07,5.5934674e-07,2.4640502e-07,1.5628829e-06,-4.5422874e-07,4.4263473e-08,8.420246e-07,8.0625625e-07,-2.2654188e-08,-1.0021874e-06,-2.2158747e-06,-7.594409e-09,-4.884607e-07,-9.769368e-07,-2.9077164e-08,-1.196392e-07,-3.5617586e-06,-2.1166056e-07,-7.472772e-07,1.11320006e-07,-2.5027452e-06,4.6591484e-07,-1.1712537e-08,7.898452e-07,-7.1657246e-06,4.0532536e-06,1.8705244e-07,-6.4251776e-07,1.0964567e-07,-1.0114438e-06,-1.1368046e-06,-3.9425402e-07,-2.002116e-06,-7.062198e-07,2.8375064e-06,-2.308033e-06,-2.272485e-07,5.0427195e-07,1.1975883e-06,-1.1644846e-06,-1.0515767e-07,1.3096829e-07,-1.5985929e-06,-2.2536256e-06,-1.484347e-06,-7.0146893e-07,2.7803685e-07,-1.8779876e-07,-6.4993617e-07,5.2890266e-07,-2.6428763e-06,-2.861787e-07,-1.0724487e-07,2.6960322e-07,-1.2760288e-06,-1.1163352e-06,2.951959e-07,-6.2609115e-07,3.0840406e-06,1.1661632e-06,-8.0859775e-07,-3.5688598e-07,-3.3184444e-06,1.5134094e-07,-1.2431132e-06,-2.1181868e-06,-2.4939163e-07,-2.1192899e-07,-2.6603294e-07,5.640107e-07,5.1258326e-07,-1.3402725e-07,-1.6459567e-06,-1.3206319e-07,-7.140179e-07,1.4884367e-06,-3.320916e-07,-3.832934e-07,1.867322e-06,-3.7402134e-07,1.3300297e-07,2.1654294e-06,1.1161119e-06,4.7083176e-07,-1.0685933e-06,1.1446847e-06,2.1442713e-07,5.249154e-07,-1.0762403e-07,7.6884857e-07,-5.753016e-06,-1.5277644e-07,1.164643e-06,-6.5514528e-06,5.1593474e-07,2.9400746e-06,1.45671315e-08,-2.390823e-06,-7.1711615e-06,-2.08384e-07,-4.1121766e-08,-3.6150282e-06,-1.2478343e-07,-4.1962185e-08,-1.9604109e-07,6.7345155e-07,-2.99294e-08,-6.0331047e-09,3.181925e-07,-2.390902e-06,-2.2022336e-06,-2.7268275e-08,-9.185251e-07,-7.5810914e-07,-1.5298886e-06,-9.446684e-07,2.6492813e-07,6.1828024e-07,-3.2465857e-06,-2.0944449e-06,1.6926981e-07,-1.3719728e-09,-2.1262586e-07,-1.3467019e-07,-2.7440021e-06,2.7352874e-06,-3.1119438e-08,2.1945413e-08,2.4865335e-07,-5.4907855e-07,5.164388e-07,6.997103e-07,-1.0396734e-06,-7.33278e-08,1.5074781e-06,1.03219065e-07
-2.0568152e-07,-8.7338196e-07,1.0976003e-06,1.659869e-07,-6.124465e-07,1.822538e-06,-4.2331195e-08,-7.2423546e-08,-1.2480989e-07,-1.8058913e-07,-4.429311e-07,3.194799e-08,8.09362e-08,-3.0114634e-08,1.4025511e-07,-4.7185404e-06,-7.295367e-08,6.604316e-07,-2.4322253e-07,3.8051024e-07,-6.404418e-08,-7.031841e-08,-9.490434e-08,7.2669486e-08,2.7796693e-07,2.979425e-08,-7.642892e-07,5.016752e-07,5.864683e-07,-5.194514e-07,7.7328946e-07,2.6697046e-08,-1.2545289e-06,5.066857e-07,7.9641325e-09,2.924643e-07,-9.2442065e-08,2.578338e-07,-9.1189054e-07,4.794066e-07,-9.769493e-08,-3.5253896e-07,2.773073e-06,3.6485105e-08,-2.1780654e-07,2.3298721e-06,1.6508151e-06,-1.946501e-06,-7.786754e-08,-4.7546973e-07,1.0627175e-06,1.3158541e-06,4.2838997e-07,-9.794247e-08,-1.6241815e-07,4.37086e-07,2.1760789e-07,1.0915114e-06,7.184233e-07,-6.847527e-07,-5.4843423e-07,1.7363746e-09,2.6002976e-06,-2.9244736e-08,2.0583548e-07,1.4739356e-07,-1.1970381e-07,8.659413e-07,-3.745456e-07,6.4839256e-08,-1.986329e-07,-1.3499938e-06,1.9967739e-07,2.3992862e-07,-1.3874255e-06,7.8157655e-06,-8.1726387e-07,1.3944797e-06,-9.650334e-08,2.8987472e-07,3.9482015e-07,3.7628962e-07,6.1030676e-07,-3.6741525e-08,-7.3395745e-07,2.0011362e-07,4.0737305e-07,-2.7243484e-08,1.8119644e-07,-1.1061088e-06,4.0556031e-07,2.9539734e-08,1.088245e-06,-4.722968e-07,2.8910915e-07,2.3686994e-07,-5.506019e-08,1.5873701e-07,2.7463294e-09,3.193847e-07,-1.676919e-07,1.5654161e-06,-4.3692103e-07,1.1580302e-07,-4.025068e-07,6.5294586e-08,-3.655259e-08,-8.578368e-08,2.022454e-07,3.1539562e-07,2.8230556e-07,9.356548e-07,1.2200374e-08,9.0969576e-07,-9.864053e-09,2.059079e-07,-1.4185607e-06,-8.30424e-07,1.9167407e-08,-7.3758905e-08,2.3838649e-07,8.8235225e-08,2.6044043e-07,1.2871993e-07,1.02177346e-07,3.120502e-08,1.8481117e-06,-5.871731e-07,-1.9599392e-08,-5.021181e-07,2.3096052e-07,3.201413e-08,4.7157545e-07,6.728151e-07,-1.579331e-07,8.4777504e-08,-4.958767e-07,-2.859521e-08,-9.443454e-08,-5.206132e-08,-5.314843e-07,-2.3768104e-07,-7.881516e-07,-6.818107e-06,-1.2172546e-07,3.1489446e-08,3.5115946e-08,-6.0176085e-08,7.897393e-09,3.7355225e-08,6.5260934e-08,-4.4220883e-07,-1.440471e-08,-1.3787684e-08,-3.064991e-07,-1.7309392e-06,4.1968704e-09,-2.8462165e-07,5.007665e-07,-1.6573681e-08,5.4286698e-08,9.742429e-08,-2.9450968e-07,-4.5974096e-07,-5.7426593e-08,-1.0740166e-08,4.4857336e-07,3.326736e-07,1.5483556e-07,-4.7988e-07,-2.2770355e-06,-4.6639428e-07,-1.309919e-07,-2.623144e-07,-1.1818775e-06,1.8148911e-06,4.8900255e-08,-4.182592e-08,-5.5199024e-08,-3.1188952e-07,-7.8206784e-07,-2.5582796e-07,1.3181219e-07,-1.4123722e-06,-4.9463586e-07,-7.156869e-08,4.2530604e-07,-8.772576e-08,-1.3757517e-07,-4.8651526e-07,5.2221174e-07,-8.804051e-10,-1.3337686e-07,-7.5928526e-08,1.7212894e-07,3.578807e-07,1.6901204e-07,1.7522333e-07,-1.760646e-08,-8.983353e-07,1.0726132e-07,3.5182172e-08,7.6043796e-07,-9.685274e-07,-1.9255954e-06,-4.4405294e-07,-1.3782002e-07,1.4109187e-07,-1.5840956e-07,-7.336838e-07,2.5300093e-07,1.6564529e-06,1.3136429e-07,5.896744e-07,3.5537568e-07,6.581319e-08,-1.4396579e-06,-1.0261738e-06,1.2777475e-06,-2.4544144e-10,-1.2081828e-06,1.2370911e-07,4.3916145e-07,5.0112753e-08,2.919817e-08,7.170105e-08,-9.292805e-08,1.8425301e-07,1.9490102e-07,6.7152605e-08,-3.1619338e-06,-1.4159735e-08,-1.04515024e-07,-1.6883526e-09,-1.4070648e-07,2.6792915e-07,2.5645786e-08,-2.9805153e-07,-1.0002212e-06,-2.040795e-07,-2.0624942e-07,-1.1456713e-07,-2.941058e-07,1.900408e-07,-2.1693427e-07,-8.3483474e-07,-2.7460266e-07,1.0687888e-08,2.9670362e-08,-3.9908485e-08,-6.036761e-07,1.4154146e-08,6.0426764e-08,-8.9706845e-08,-4.9410637e-08,1.4973158e-07,2.3262639e-07,-5.2460695e-07,-2.3761347e-06,-5.361622e-07,-6.7029134e-07,3.322215e-07,-2.8576736e-07,5.4561315e-07,3.8488295e-07,-5.1277016e-07,6.533589e-08,2.6848738e-07,-3.9638732e-07,5.877837e-09,2.0498885e-07,1.8474213e-07,-2.716303e-06,-5.737391e-07,-5.277105e-07,1.47781e-06,5.701131e-07,4.966007e-07,1.9806964e-07,-6.0089303e-07,-6.365548e-07,-8.313104e-08,-1.001951e-06,3.489949e-07,5.580913e-07,-4.2584588e-07,-2.761039e-07,-5.224687e-07,-4.3170468e-07,2.8287326e-07,-5.622924e-08,-1.17686724e-07,-8.347331e-08,5.739816e-08,1.282137e-06,1.0948891e-06,3.5765194e-07,1.0125796e-06,1.0864079e-07,-2.9400357e-07,-9.6604296e-08,2.7160784e-06,1.4131209e-06,-3.7407794e-06,-5.2509836e-07,-3.5554735e-06,-4.5309153e-07,-5.4768834e-06,-1.8357355e-08,3.8360002e-07,-2.8635714e-06,-6.366962e-07,-8.8614314e-07,3.1408574e-06,3.197347e-06,-7.157372e-07,7.228637e-07,-2.017358e-07,-2.4239514e-06,1.107367e-07,2.3513317e-07,2.2027264e-07,7.799286e-08,-5.78091e-07,-1.2209988e-06,6.579464e-07,7.8499846e-07,1.3018354e-06,1.7668728e-07,7.0597406e-07,-2.1107562e-07,9.143971e-06,-1.2931995e-06,1.1192745e-06,1.2073792e-07,-1.148592e-06,-7.242204e-07,-1.3680892e-07,-1.5288688e-05,2.2685913e-06,5.3387646e-07,-4.4072874e-07,5.568241e-07,6.9820253e-06,-4.500956e-07,-1.1685443e-05,-2.296618e-06,-5.958777e-07,-3.1605143e-06,-2.1470113e-07,1.5754512e-06,3.535978e-07,-8.125854e-07,7.7266975e-07,-5.332744e-09,3.4222376e-07,8.077484e-07,-4.3109226e-06,1.1549516e-06,-3.5783984e-07,8.2908537e-07,-1.3409634e-07,3.0520087e-07,-1.4907723e-06,-1.8689838e-07,9.64478e-07,2.1002168e-06,2.4592705e-06,-8.737917e-09,-7.2620236e-07,1.4519915e-06,8.8641585e-08,4.653719e-07,2.4207066e-06,8.1825874e-08,-9.014485e-08,-1.6223184e-07,-3.8748152e-07,-4.1088363e-08,8.8720213e-07,1.4481881e-07,5.6542667e-08,6.6008477e-07,4.0734085e-06,-2.496991e-07,-5.502357e-07,-5.1225898e-06,3.5982075e-07,-2.6250518e-08,1.0513166e-06,-6.320674e-07,2.7485794e-07,5.696777e-07,-5.684185e-07,-1.8452619e-06,-1.0079964e-07,-1.4623465e-06,1.1669213e-06,-4.339231e-07,-8.350164e-07,-2.330829e-06,1.8445357e-06,3.6107122e-07,6.8169277e-07,4.104448e-08,4.0360254e-07,2.448872e-07,-5.281443e-06,1.1647932e-06,-1.26371e-07,-1.2763473e-06,-2.0083485e-06,1.2372573e-07,-5.714718e-07,5.753383e-07,6.0621505e-07,-8.890744e-07,2.7245036e-07,-3.1554066e-06,1.9286708e-07,-4.3226464e-08,-5.651531e-07,-4.5987923e-07,-6.2803167e-07,-3.159866e-07,-7.717042e-07,2.0013604e-06,-6.14039e-07,-2.213473e-07,7.9589995e-08,9.312916e-08,-6.066192e-06,1.1462874e-07,-2.4259775e-06,4.585156e-07,1.7509726e-06,-5.608641e-06,-9.164053e-08,8.9280184e-07,-1.2795581e-06,-9.147116e-07,2.0379096e-06,9.046929e-07,-2.2007204e-07,-7.842692e-07,-6.6502656e-07,3.833825e-07,4.6961148e-08,-3.859364e-07,2.739617e-07,-6.92859e-08,8.41152e-07,-9.3165096e-07,-7.073072e-08,3.9244924e-07,-3.371385e-06,1.313655e-07,4.7541448e-07,-1.037469e-06,-2.984329e-06,2.9418788e-07,-4.164791e-06,-2.6263203e-07,-3.4811075e-07,3.1806275e-07,7.829158e-09,-3.268259e-07,1.6354103e-07,-8.169686e-07,-6.6595135e-07,8.166592e-08,5.923812e-07,-9.642472e-07,-5.961063e-06,-2.484996e-06,2.3387392e-07,2.1768273e-08,-3.6933875e-07,2.2090267e-06,1.5229045e-07,8.381106e-08,7.8988535e-07,-3.700643e-08,2.697974e-07,3.0216628e-07,2.3157604e-06,-2.825978e-06,3.062509e-07,-1.17512876e-07,1.8076865e-06,-6.2938725e-06,1.02217015e-07,8.265107e-08,-3.054258e-08,1.1053628e-06,1.4013249e-06,-4.2745523e-07,2.0665746e-07,-3.8850408e-07,3.1357942e-07,1.15170046e-07,-1.0674472e-06,-2.7093392e-07,-1.1503192e-07,3.635388e-07,8.355627e-07,-1.041869e-06,-4.432308e-08,2.7868364e-07,-7.2611456e-08,5.886825e-07,-8.7393204e-07
4.534896e-08,4.3367642e-08,-3.2763046e-07,1.7505505e-07,7.395647e-07,-2.5177854e-07,-1.0331729e-07,-1.0141912e-07,-1.0048046e-07,8.312676e-09,1.799989e-07,6.984125e-08,-1.4851831e-07,1.9717982e-07,6.91387e-08,9.922413e-07,5.0666694e-07,-6.327399e-08,-7.6535514e-07,-5.748016e-08,1.7182708e-07,4.7637574e-08,1.0391788e-07,8.669516e-08,-2.4892773e-07,-4.3904308e-08,7.6534616e-07,-1.4443728e-07,-9.261434e-08,9.127262e-07,-3.3131334e-07,6.985644e-08,-3.629673e-08,-9.407782e-08,-8.429493e-08,-6.5579235e-09,6.16904e-08,-5.868965e-08,3.1474895e-07,-4.5956747e-07,1.7065591e-07,4.1063905e-07,-1.9732083e-06,-2.1096244e-07,1.5212859e-07,3.1873974e-08,-5.656723e-07,2.552932e-07,1.2854616e-07,5.101874e-07,-3.0710203e-07,3.1306048e-08,1.0749033e-07,-1.020024e-07,4.471287e-07,-9.300019e-08,-4.5092527e-08,1.7471044e-07,-4.4768137e-07,1.2222525e-07,2.622526e-07,2.414754e-07,-2.8634452e-07,2.7980028e-07,2.25346e-07,-2.2634264e-08,-6.847672e-08,-1.7819288e-07,2.41972e-07,2.5510033e-08,6.824342e-08,-1.2201045e-07,-1.3409589e-08,-1.2565108e-07,2.5534283e-07,-3.2794806e-06,-1.7727442e-07,4.3254158e-07,-6.3098426e-08,1.260865e-07,-7.846528e-08,-5.7129608e-08,6.069596e-07,-1.1977968e-07,2.9693402e-07,8.7379476e-07,-1.0961809e-08,4.3015166e-07,1.2792533e-07,4.094102e-07,-9.2694177e-07,1.42736045e-08,-3.8798206e-08,4.2297344e-07,-2.2798191e-07,5.8089885e-08,6.96911e-08,1.14851574e-07,-6.8085996e-08,-1.9487625e-07,-6.5360496e-08,2.7412725e-08,8.8546685e-08,3.3378385e-07,-4.283842e-07,1.4275261e-07,-5.0670856e-08,2.7359934e-07,-3.2910094e-07,8.5334115e-08,-2.594298e-07,5.519503e-07,-1.7878774e-07,-4.3277885e-07,9.4367806e-08,-2.845302e-07,3.3851694e-07,4.5534424e-07,-4.997537e-08,9.441087e-08,-7.0292444e-08,2.2496813e-08,-1.3566068e-07,-3.8503714e-08,1.025848e-06,4.2580673e-08,-7.005731e-07,-1.6704331e-07,-1.41986325e-08,-4.0494996e-07,-5.749252e-07,8.38126e-09,6.0721895e-08,-1.1681575e-07,-4.4552994e-08,-1.8503453e-08,9.7399024e-08,-4.39167e-08,-9.548124e-09,-2.5490486e-08,2.85834e-07,-5.0600283e-07,-6.205911e-08,2.3185508e-07,4.8684416e-07,1.6108893e-07,-5.4245113e-08,-5.929519e-08,1.7372313e-08,-2.3284606e-08,2.927748e-07,-5.126476e-08,-2.1859633e-07,-8.0049745e-11,3.083033e-07,8.821614e-07,-1.073292e-06,1.9884553e-07,-2.2319302e-08,6.802766e-08,-1.4410665e-07,-1.6366162e-08,-1.4033444e-07,6.0382284e-08,3.7666513e-08,4.6685777e-08,-2.0449954e-07,7.5400834e-08,-1.0055863e-07,1.4319968e-07,-1.0076619e-07,3.494619e-08,-1.6745972e-08,8.563222e-08,2.1102099e-07,3.3395813e-07,2.4677451e-08,1.26633966e-08,1.1326461e-07,1.5637124e-08,-1.9608606e-07,-4.4203293e-08,-4.083416e-08,1.9909758e-07,-8.7420965e-08,3.3284813e-08,-1.6825753e-07,1.2042426e-07,3.9572043e-08,2.722368e-07,3.736199e-07,-1.18766806e-07,-3.6768625e-08,7.87804e-08,-7.233836e-08,4.441221e-08,-3.4480134e-08,-7.5797736e-08,1.0151551e-07,2.555863e-07,-3.168997e-09,2.5882073e-08,1.2526215e-08,1.4638246e-07,7.9557077e-07,-1.970787e-08,3.1712922e-08,-3.411215e-07,2.4890092e-08,1.7136834e-08,-2.2619126e-07,-5.040086e-07,-9.576625e-09,-1.16325616e-07,6.6813215e-08,3.9612907e-08,4.3683482e-07,4.160864e-07,-4.553606e-07,-7.746568e-08,4.0553243e-07,5.1302365e-08,-1.4815292e-07,-1.2272162e-07,2.991913e-09,-1.3391328e-07,5.1158136e-09,-8.11309e-09,3.8531155e-08,4.22854e-08,1.068904e-06,-1.4445763e-07,-4.9644643e-07,-3.2200184e-08,2.2159192e-08,-5.5960392e-08,4.666417e-09,-4.7087866e-08,-1.1628788e-07,2.5827453e-07,-6.140526e-09,9.730159e-08,1.2677854e-07,4.88042e-07,-5.4204108e-08,2.3310986e-07,3.49408e-08,-1.1107351e-09,-5.890581e-08,-1.7441428e-07,-7.526233e-08,9.380263e-08,-1.0637495e-07,1.3058028e-08,-1.1541803e-07,-7.260307e-08,-1.979409e-07,1.2920293e-06,-1.3630713e-06,1.4008313e-07,-3.6281256e-07,-2.5897816e-07,3.753204e-07,-3.8033448e-07,-3.3138792e-07,2.7738e-07,-6.698273e-08,-3.2417975e-07,3.2284487e-07,-9.0167205e-08,-1.9655643e-07,-1.0011224e-06,-2.5839379e-06,8.239105e-08,1.16417525e-07,-7.183939e-07,-1.1636208e-07,-3.4748348e-07,7.0909095e-08,-1.2446046e-07,-1.9431427e-06,4.3353003e-07,2.078478e-06,2.411547e-07,2.049212e-06,-1.3503498e-07,-1.4957811e-07,5.5105136e-07,-1.1052441e-06,4.4978783e-08,-2.840379e-07,-3.7102294e-07,1.337992e-07,2.5800009e-07,-4.4105825e-08,-2.8848707e-08,-4.841504e-07,-9.881642e-08,-2.346509e-06,-4.0057384e-07,3.8093805e-07,-2.5215234e-06,-1.0439703e-06,-5.846872e-07,-9.8112835e-08,1.0808953e-06,4.4463184e-07,9.566855e-07,-1.6073956e-07,3.4216168e-07,5.060429e-07,2.4886378e-07,1.2283202e-07,-4.7728213e-07,-9.2933055e-07,1.1871653e-06,-9.3824934e-07,1.4878032e-06,5.0579314e-07,-2.1246873e-07,-1.06025354e-07,3.3190673e-07,-4.4820337e-07,6.3385096e-07,6.1549264e-07,-5.0274895e-07,-4.6555408e-07,-1.0270145e-07,-5.8239756e-08,5.2604713e-07,9.930136e-07,-2.8949348e-06,-3.330435e-07,-1.3356976e-06,2.6707775e-07,-1.9157274e-06,-5.9374067e-08,1.312873e-07,6.2950885e-06,-1.552889e-06,-3.335509e-07,-9.796986e-07,3.9793792e-07,-2.63045e-06,-1.820656e-07,5.4666484e-06,-1.7464931e-06,8.532782e-08,3.1301784e-07,9.444596e-08,-5.531129e-07,6.2387187e-07,-4.5715728e-07,-4.2403576e-07,1.1824519e-08,1.1169287e-07,-4.0027777e-07,1.5689708e-06,-3.3350145e-07,-1.1375914e-07,8.165628e-07,1.0454815e-07,-1.6261325e-07,-4.363786e-07,-8.401751e-07,-3.7349986e-07,-8.8212084e-07,1.0301024e-07,-2.1336385e-07,-2.5863514e-08,6.0506386e-07,-9.9126886e-08,-2.6534968e-07,-2.1683027e-07,4.300093e-08,2.870542e-08,3.2271217e-07,-3.3153452e-07,1.4240369e-07,-4.0003098e-07,-1.7995814e-06,2.2138481e-07,4.663476e-07,3.3768669e-07,3.5275225e-08,-8.347494e-08,7.755639e-07,1.919673e-08,1.0705817e-07,-1.6537787e-07,-2.5156545e-08,-1.3780763e-07,8.005266e-08,1.215207e-07,4.756385e-07,2.1052184e-09,3.8358186e-07,-6.309646e-07,7.5680745e-08,5.8919676e-07,1.0063377e-06,-3.845404e-07,-1.6314594e-07,-6.688083e-07,-3.1741791e-09,-1.4375667e-07,4.023072e-07,1.3780659e-06,-6.8609225e-09,-5.099776e-07,-1.2920341e-07,1.003774e-06,-3.4141394e-07,4.2356626e-07,-3.1590795e-07,1.2642398e-07,-2.3317442e-07,4.29115e-09,6.5443464e-07,-2.3605517e-07,1.9055912e-07,2.8293488e-07,2.428424e-07,4.9224985e-07,2.6190785e-08,2.752685e-07,1.647003e-07,-1.4323741e-07,1.4576283e-07,1.6347528e-08,-2.4472826e-07,1.6845929e-06,-2.8917025e-08,9.16458e-07,1.3375639e-07,-3.845588e-07,9.712011e-07,-1.2942021e-07,-3.1891943e-08,2.9893522e-07,4.6103176e-07,-6.32512e-07,-3.8664245e-07,1.2265679e-07,1.6635248e-07,2.699369e-07,3.4864186e-07,-4.0913505e-08,4.2083574e-08,2.1164031e-07,-1.6767062e-07,-4.6231685e-07,2.3299494e-07,4.1413804e-07,6.8823383e-09,7.4530317e-07,8.852637e-08,8.3091116e-08,1.3776356e-07,1.0192903e-06,6.5013786e-08,1.1883652e-06,1.3091311e-07,-3.5321204e-07,-1.5558525e-07,-1.9490653e-07,5.9964015e-07,-2.2992742e-07,3.701881e-07,9.954997e-07,1.2988967e-08,1.3892573e-07,6.569667e-07,2.3241787e-06,1.288605e-06,-1.3626792e-08,1.1407784e-07,2.6747529e-08,-6.731227e-07,-5.569354e-08,3.9290633e-08,1.2195409e-07,6.523771e-08,-4.3276394e-08,-9.785434e-08,-1.1649544e-07,9.659335e-07,1.42194e-07,-1.853202e-07,1.9732937e-08,1.8103638e-06,-1.7864872e-07,-9.0548006e-08,-6.122556e-08,-9.474297e-08,2.7502935e-08,-2.1485764e-07,1.3570381e-07,1.6973488e-07,2.7075739e-08,-3.0652564e-07,4.1407472e-07,-4.0469345e-08,1.6747406e-07,-5.816352e-08,3.3434393e-08,-1.9218968e-08,3.0397555e-07,5.1466472e-08,5.2547193e-08,-5.2102064e-07,-1.11674716e-07
8.777583e-08,1.17093705e-07,1.2297072e-05,1.0167126e-07,-1.5334276e-06,-2.475812e-06,-1.6656155e-07,1.2744985e-08,4.1329673e-07,-1.0832188e-06,3.7846416e-07,-8.56051e-08,1.4839908e-06,-5.731906e-07,-2.2893023e-07,-1.0880879e-06,-5.9258485e-07,-1.4890684e-07,1.2361798e-07,-4.2696703e-07,1.10671365e-07,5.328592e-07,-1.9960771e-07,-1.0201991e-06,3.5172159e-06,7.0525005e-08,-6.362228e-07,-4.5770906e-07,1.5904812e-06,-1.8809434e-06,2.125709e-06,-2.800919e-07,-1.3883542e-07,-4.2768158e-07,-3.197402e-07,-9.5220905e-08,2.799316e-06,-7.485132e-07,-7.377854e-07,1.2080757e-07,1.0453667e-06,8.147098e-07,5.321277e-06,1.3559948e-06,3.1133152e-07,-7.63317e-07,-1.4711133e-06,9.660492e-07,-4.5983683e-07,-2.353873e-06,4.682463e-07,-1.237637e-07,1.2740775e-06,1.7355569e-07,-3.1583318e-07,-1.5327102e-07,1.3082788e-06,-5.1961683e-07,-2.990057e-07,-1.6030009e-07,-4.3338375e-07,-2.4647397e-07,7.173434e-06,-2.586896e-07,-2.0324129e-07,4.033149e-07,-2.1166724e-07,2.8206247e-07,-1.4454429e-06,7.517931e-07,1.1197528e-08,-5.117464e-07,3.302529e-07,5.4985037e-07,2.1830097e-06,9.86682e-06,-5.0073504e-07,-6.496259e-07,-4.052024e-07,1.9279828e-07,1.2456557e-06,5.244635e-07,-3.2705905e-06,-2.833089e-06,-1.4340796e-07,-5.1071893e-06,3.9115463e-07,3.1877107e-08,7.022031e-07,5.30948e-06,2.8358573e-07,6.166486e-08,8.8286953e-07,6.5173276e-07,-4.833176e-07,2.1942478e-07,2.534526e-07,2.0334193e-07,1.1082771e-07,1.2516668e-06,-2.0959496e-06,2.9200257e-06,-1.0400681e-06,1.4550935e-07,-8.969402e-07,-2.2631863e-07,-2.5767886e-06,-1.2577937e-07,1.8019983e-07,7.9440025e-07,4.9145647e-06,-3.1069197e-07,-1.0816333e-06,2.7148968e-07,5.4415534e-07,5.740974e-07,-2.6422796e-07,-7.9264e-07,-8.4753435e-07,-7.061233e-08,4.408052e-08,5.550547e-07,3.762287e-06,2.121148e-07,1.9756334e-07,4.174366e-08,7.050388e-07,-2.6471264e-07,-3.5916548e-09,6.19508e-09,4.152156e-06,7.837599e-09,1.4361773e-06,4.7372814e-06,-3.9227007e-07,-3.6478056e-09,3.474613e-07,-1.4060663e-07,-6.7374756e-08,-3.0830066e-08,-3.1684258e-06,-4.687978e-07,5.3869235e-07,-6.0185503e-06,-4.735089e-06,1.8868096e-06,1.4592715e-07,2.2239124e-06,-3.30752e-08,2.0004202e-07,-1.0861481e-07,2.286522e-07,3.7965021e-06,-1.41583385e-08,9.984376e-08,-2.7432402e-06,2.1735411e-06,-9.4912946e-07,-1.0933303e-07,-2.794095e-07,-3.976045e-08,-6.2704237e-07,5.579567e-07,1.9170092e-07,1.3449701e-06,-7.5069187e-07,-3.1369774e-07,6.27909e-07,9.1448817e-07,-9.1795937e-07,1.0621001e-05,3.238314e-08,2.3446482e-07,-2.7366327e-06,-1.8505068e-06,-1.3973951e-06,-1.2764292e-07,-3.293461e-06,7.4294303e-07,-5.6565597e-07,-5.344391e-06,3.2006955e-07,6.772417e-07,-7.221616e-07,2.1341093e-06,-4.8168226e-07,1.826169e-06,-3.3027527e-07,-3.5565927e-07,1.5630967e-07,2.8923184e-06,-4.2420048e-08,1.4748666e-07,2.8845678e-08,-6.661365e-08,2.2017564e-07,-2.2490897e-07,3.990085e-07,1.4828792e-07,2.422547e-07,3.1946658e-07,3.764884e-07,1.0630712e-05,-3.6155723e-06,-1.0210908e-06,-4.6218274e-06,-5.3717926e-08,4.2472806e-08,-2.413323e-07,-1.6668959e-06,-1.8409385e-07,3.1764946e-06,7.146996e-07,-4.4585147e-07,2.2444732e-07,1.1046282e-07,-4.0394525e-07,-6.369196e-06,6.7237045e-07,-1.7325468e-07,-2.1068334e-07,1.0891348e-06,1.1801208e-07,-5.614446e-09,2.1735357e-07,3.243375e-07,-7.1617503e-09,2.5984122e-08,-6.0692224e-07,3.717869e-07,-2.864269e-06,1.1319525e-07,7.898029e-08,-2.309406e-07,-2.0318862e-06,2.9905348e-07,2.926003e-08,3.5208902e-07,4.1345743e-06,-5.3444575e-07,-3.2216394e-07,3.8054935e-07,5.2160168e-08,7.580775e-07,-2.8450035e-07,-1.335477e-06,-2.1633004e-07,1.4001549e-08,9.258961e-08,1.2493686e-06,2.097615e-06,-6.2352484e-08,4.3638613e-07,5.401625e-09,3.665306e-06,1.9471265e-08,-1.8489791e-07,5.7614443e-08,1.0785052e-05,5.8844133e-08,-4.766474e-06,1.0201582e-05,-8.301367e-07,1.7684418e-07,-1.0640767e-06,-4.0533027e-07,-2.1126155e-07,-3.205798e-07,-2.0153464e-06,1.8737416e-06,-1.0779769e-06,6.6812904e-06,6.0853083e-05,-6.746379e-08,-5.7061055e-08,7.52507e-06,-1.8664016e-07,6.4814697e-07,4.0302695e-07,9.428871e-07,4.7405874e-06,1.3205224e-07,-1.6149038e-06,-5.730606e-07,9.608374e-07,5.5899295e-06,9.779969e-07,8.728637e-09,-1.386039e-06,1.17846e-06,-9.710188e-07,-2.8272893e-07,-1.1341081e-06,-1.5575424e-06,-1.595144e-07,7.9584015e-06,5.6444935e-07,4.4023054e-06,3.433529e-07,-2.624939e-07,-4.0029445e-07,8.621933e-06,-9.369685e-07,1.3522356e-07,-1.4650766e-07,-5.9148724e-06,-1.349002e-06,-9.885747e-06,-1.9602257e-06,7.751472e-07,-9.067799e-07,-1.528904e-06,-6.433322e-08,6.3475823e-06,2.6716214e-06,-1.2106244e-07,-1.4248542e-07,3.267785e-07,-3.1368368e-06,-6.58565e-08,1.9172859e-09,-2.9685455e-07,5.0685486e-07,4.5118952e-08,8.3912255e-10,-2.3337952e-07,1.754072e-07,-8.7162186e-07,-8.5263e-08,6.422118e-07,-7.561182e-06,9.908336e-06,-3.031957e-06,8.563531e-06,1.8460332e-07,-2.8789822e-07,1.9188e-06,1.7730921e-06,-2.2489552e-05,9.351007e-06,7.90672e-07,5.3978574e-06,6.966104e-07,4.830412e-06,1.0251529e-06,-2.399146e-05,-2.0806754e-06,-3.1768664e-07,-3.4787995e-06,-6.7704576e-07,6.843756e-07,-1.6404778e-07,4.454887e-08,6.3685724e-07,2.577899e-07,3.1126845e-07,-4.952491e-06,-3.5099592e-06,4.2196716e-06,-2.8213157e-07,-6.05207e-07,-6.7900595e-07,6.463771e-07,3.3924557e-06,-1.0002577e-06,2.1429212e-06,4.028014e-06,-1.2377665e-06,9.005318e-07,-2.7616163e-06,-8.186959e-07,-4.997619e-07,7.2267517e-07,-5.145845e-06,7.5933673e-07,-7.2400894e-08,-4.2341347e-07,-6.6572795e-08,-2.0337425e-06,5.26297e-07,-7.3296826e-07,3.6303383e-08,5.3615076e-07,1.3944446e-06,1.0209646e-07,4.525383e-07,-3.216236e-06,3.823742e-07,-8.8050683e-07,4.4270887e-06,-1.3778402e-06,5.529654e-08,3.8083733e-06,-1.6519073e-06,1.0393637e-07,8.9596355e-08,-2.840001e-06,-3.2003725e-06,8.2417785e-08,-4.703518e-06,-7.889267e-06,1.4531767e-06,1.675329e-07,4.785057e-06,8.221728e-08,8.9193304e-07,4.29063e-07,-3.8179354e-07,9.912148e-06,-1.4454166e-07,-1.7019373e-06,-4.128078e-06,1.8029634e-06,-6.0476777e-06,7.1635e-07,6.49564e-06,-8.4241975e-08,-1.8926886e-07,-3.1595243e-07,-1.0264907e-06,5.0030358e-06,-6.31432e-07,-1.1558318e-06,-1.0732006e-06,4.0152595e-06,-1.167088e-06,1.8128347e-05,7.388182e-07,4.6791592e-07,-6.0179445e-06,-2.8601612e-06,-2.2250138e-06,-5.750472e-07,-6.9780654e-06,1.8136874e-06,1.7243547e-06,-4.266273e-06,4.4235497e-07,-2.466761e-07,-1.6221514e-06,1.7670418e-06,-3.646816e-07,6.7040264e-07,2.8864713e-07,7.4888885e-07,1.4724475e-07,9.1055006e-07,-1.0429247e-07,9.071255e-08,4.0975902e-07,-2.0431105e-07,5.9609346e-07,-1.8729199e-06,8.9248806e-07,1.5903166e-06,-1.0071473e-06,8.8896184e-07,1.6293836e-06,1.4570774e-06,-5.1172665e-06,4.354282e-06,-1.2904568e-05,-1.0051268e-06,8.072075e-08,8.1608135e-07,-3.6925137e-06,2.0630068e-06,-1.310093e-07,-1.0848554e-07,3.5530622e-06,3.423534e-07,6.523362e-07,1.2831472e-07,-1.1170474e-05,1.1706061e-06,4.7233965e-07,-7.7901814e-07,-2.4535263e-06,-8.743777e-08,1.7250558e-07,1.1005466e-06,2.7841172e-06,7.648417e-09,1.938494e-06,-7.618678e-07,9.627518e-06,-5.4774077e-06,2.1248259e-07,-6.717476e-07,1.1086378e-05,-7.3576975e-06,-1.151879e-06,6.049801e-07,1.1149389e-06,1.2674911e-05,-1.4053544e-06,-9.678478e-07,9.574283e-07,1.6271349e-07,5.459992e-07,-7.818383e-07,-8.7713124e-07,-7.5515464e-07,-6.9439125e-08,1.5727976e-07,3.3779688e-06,1.0039804e-06,1.0417311e-06,4.117161e-07,4.6388426e-08,9.706023e-07,-1.4637351e-07
-1.6471712e-07,1.6601575e-08,1.7848323e-06,1.3458943e-07,-6.318727e-07,6.352848e-07,5.7965178e-08,-9.905962e-08,1.8845878e-08,-2.8025815e-07,-4.944275e-07,5.7691416e-08,3.876852e-07,-1.375441e-07,1.1891309e-07,-4.096703e-06,-1.5965068e-07,6.8291206e-07,-7.805725e-08,1.1766743e-07,-7.7052945e-08,-1.14142324e-07,1.0031481e-08,1.9134544e-07,6.7958024e-07,3.957787e-07,-8.8578915e-08,5.079095e-07,9.346275e-07,-7.5988453e-07,5.024732e-07,-1.2846304e-07,-9.694893e-07,1.8563878e-07,3.4917971e-07,8.922e-08,-2.136204e-09,-1.2133258e-07,-6.888181e-07,5.509775e-07,-2.5817852e-07,-3.8382217e-07,1.3491696e-06,-1.23585e-07,1.0457446e-07,1.3364531e-06,5.2207736e-07,1.1751862e-06,-8.962097e-09,-4.366832e-07,6.549642e-07,4.579048e-07,1.3440932e-06,1.4270711e-07,1.2488617e-07,-1.5730328e-07,6.1804803e-07,4.5136647e-07,3.0185052e-07,-2.679581e-07,-3.1073677e-07,7.925243e-08,1.6701282e-06,-2.0697106e-09,1.1715258e-07,1.4552452e-07,-2.1128383e-07,8.5410426e-07,-1.984841e-07,-1.515603e-07,-4.5642363e-07,-5.55629e-07,-1.3438626e-07,1.18003385e-08,-1.0225335e-06,8.238682e-06,-1.1995777e-06,3.0702586e-07,-1.10506384e-07,-2.98732e-07,9.420225e-08,1.2204686e-07,-1.2009716e-07,-4.2601414e-08,-4.4852976e-07,-1.3648371e-06,4.0369642e-07,2.9442987e-07,2.7964114e-07,-2.7337504e-07,6.4866924e-07,8.756824e-08,8.8115485e-07,-3.970606e-07,4.716449e-08,8.010779e-08,-1.4383815e-07,-2.962939e-07,2.675208e-08,6.7350766e-07,-7.4092895e-08,1.1997355e-06,-2.0502004e-07,2.202901e-07,-4.7287136e-07,9.910808e-08,-7.1694714e-08,-1.6473841e-06,-5.196196e-08,-1.12827706e-07,3.2789933e-07,6.227545e-07,5.4195354e-08,5.441183e-07,-2.6041695e-07,2.77156e-07,-1.0316433e-06,-6.365391e-07,2.6003041e-08,-8.0469846e-08,-2.4792062e-08,2.7417715e-07,3.6371037e-07,-2.908717e-07,3.9334344e-07,1.1761581e-07,1.3851932e-06,-8.2344364e-08,-2.2519373e-08,1.8540211e-07,-2.6133182e-07,3.2896565e-09,1.4960324e-07,9.956634e-07,-9.891259e-08,4.4480785e-08,-9.433849e-07,-3.640247e-08,5.4610158e-08,-5.4100756e-08,-1.069618e-06,-1.8617641e-07,-9.639446e-07,-5.871184e-06,-1.5125518e-06,4.359116e-07,4.8518586e-08,6.913865e-09,1.600326e-08,-4.2064308e-08,-1.2027391e-07,-5.448749e-07,-2.1507749e-07,1.6727299e-07,-6.622016e-07,-2.049644e-06,8.276872e-07,-1.388743e-07,4.0869702e-07,-3.442658e-07,1.2906581e-07,2.703942e-08,-4.3028962e-07,-3.666415e-07,-5.2176333e-08,-3.5119183e-07,3.6571262e-07,2.1342424e-07,2.1857966e-07,-5.794203e-07,-1.6764474e-06,-1.5083324e-07,-1.1689059e-07,-3.8502577e-07,-1.1946715e-06,-7.2801924e-09,1.4381314e-08,-3.1865378e-07,1.3416528e-07,-3.2563258e-07,-8.563096e-07,-2.068698e-07,3.1084232e-07,-8.77607e-07,-5.34848e-07,-3.2869062e-07,6.623108e-07,9.975647e-10,-2.9971923e-07,-5.6062305e-07,-6.0474065e-08,8.384702e-09,-9.328644e-08,8.971667e-09,-1.9122258e-07,3.8346957e-07,-4.462642e-09,1.6203717e-07,-2.6751832e-07,-4.5437514e-07,-2.2417366e-07,-3.7666535e-08,6.517329e-07,-1.3125302e-06,-1.8587378e-06,-1.090707e-06,4.8784905e-09,-3.4806266e-07,-8.642927e-09,-3.2789941e-07,1.3576661e-07,6.7475696e-07,-2.4412799e-08,-1.1273306e-07,1.2459613e-07,-1.9427858e-07,-1.0027194e-06,-2.631992e-06,6.523246e-07,1.2350858e-07,-9.0192685e-07,-6.7258156e-08,3.272998e-07,1.2123138e-08,-1.2430217e-08,1.057107e-07,-7.36836e-08,1.2370955e-07,3.4549103e-08,-4.0807907e-07,-3.1984118e-06,9.006172e-08,1.3458148e-07,2.0961025e-08,-3.041447e-07,1.4311561e-07,-4.2999357e-08,-4.7170923e-07,-7.887184e-07,-2.9893005e-07,-7.053289e-08,-1.9026092e-07,-1.2476706e-07,1.4165533e-07,-7.5654555e-08,-9.92028e-07,-7.3571876e-08,4.0783654e-08,4.911842e-08,6.4848535e-07,-3.6208348e-07,-1.8707287e-07,1.886888e-07,-4.97291e-08,4.8859795e-07,4.7229477e-08,3.1268587e-07,-4.946743e-07,7.1224576e-07,-3.3514306e-07,-5.550873e-07,3.5745356e-06,-4.772254e-07,1.2454788e-07,2.015615e-06,-4.463822e-07,1.9051056e-07,1.0145253e-07,-8.318055e-07,4.2222433e-07,3.318588e-07,3.7799991e-06,1.6021295e-05,2.4626604e-07,-3.7876873e-07,1.7269346e-06,4.5791126e-07,2.3393778e-07,2.4856217e-07,-6.1174426e-08,1.1070615e-06,-1.9843469e-08,-8.121592e-07,4.562464e-07,-4.9259955e-07,8.1825044e-07,-2.098045e-07,-5.8091535e-07,-1.0151698e-06,5.4062986e-07,2.5250284e-07,1.1100447e-08,-4.4716825e-07,-5.7541007e-07,1.1764739e-06,1.0087141e-06,-1.446003e-07,5.6826434e-07,2.1579679e-06,3.2867597e-08,-1.4709275e-07,3.6574156e-06,1.162177e-06,-1.2457948e-06,-4.8135473e-07,-3.2560613e-06,-2.646783e-07,-6.2870067e-06,-2.3590228e-07,3.1651393e-07,-1.5165382e-06,-1.5506659e-07,-2.6321686e-07,2.7982908e-06,3.7540426e-06,-7.3200016e-07,9.802283e-07,-1.1318035e-06,-1.2297994e-06,-5.4297388e-08,-1.355545e-09,-4.1512045e-08,-2.452711e-07,4.816198e-07,-8.029656e-07,-9.738244e-08,8.160621e-07,-2.6700914e-07,2.3223376e-07,5.247556e-07,-1.4853267e-06,8.261087e-06,5.376653e-07,3.1448844e-06,2.3235071e-07,1.0929094e-06,-3.948774e-07,-1.6365724e-06,-1.6979451e-05,2.346058e-06,4.6928528e-07,2.127391e-06,1.642372e-07,5.9542426e-06,1.0313715e-07,-1.516491e-05,4.2958955e-06,-2.4018541e-07,-2.0487666e-06,-9.0767526e-07,1.1146254e-06,-1.9771826e-07,6.908149e-07,1.4303978e-07,-5.7659406e-09,5.313178e-07,5.174597e-07,-2.9598284e-06,9.3484573e-07,-5.3290545e-08,-9.3700135e-07,6.695847e-08,3.0052e-07,-1.0582221e-07,-2.2229308e-07,8.1297196e-07,4.24263e-06,1.1557618e-06,3.3341195e-07,-2.772344e-07,6.49393e-07,1.2935269e-07,8.4104977e-07,-1.7261132e-06,-7.731909e-09,-1.566377e-08,1.6656593e-08,5.306318e-07,3.811809e-08,-1.1753265e-07,9.742818e-07,-2.5658846e-07,6.162174e-07,1.6217398e-06,-2.033984e-07,5.619062e-07,-5.138192e-06,1.0923367e-07,-2.4121985e-07,1.0161632e-06,-3.9783592e-07,1.5997858e-07,-1.1997031e-08,-6.8735375e-07,-1.0855666e-06,-1.8924072e-07,-1.9680597e-06,6.2461197e-07,-6.4008594e-07,-1.6772719e-06,-3.261341e-06,1.4516055e-06,2.8080963e-08,7.680245e-08,-1.5945915e-07,7.594707e-08,4.2631143e-09,-4.0076748e-06,1.233981e-06,7.7776815e-07,-4.8474726e-07,-2.4945332e-06,6.766133e-07,-1.5046205e-06,5.8418186e-07,-4.6651996e-07,-5.434281e-07,3.1021077e-07,-4.6790524e-06,-1.10288454e-07,4.916984e-07,-3.410152e-07,-1.9299581e-07,-5.9070726e-07,2.663629e-07,-8.363238e-07,1.1260643e-06,-3.7664745e-07,-2.643098e-08,-6.040511e-07,-1.2792541e-06,-4.1492676e-06,-3.6545085e-08,-2.0702767e-06,3.7384228e-07,3.9014424e-07,-4.7796034e-06,1.1176292e-07,6.395152e-07,-8.5648816e-07,-8.658769e-07,1.0051326e-06,4.907314e-07,-3.957462e-07,-1.0901194e-06,-2.8202578e-07,3.106682e-07,1.4976978e-07,-1.545679e-07,2.7211118e-07,-1.3784671e-07,7.775857e-07,-6.6048983e-07,-1.5215534e-08,-3.1604452e-07,-1.8317925e-06,-2.3534574e-07,2.5968598e-07,-6.564124e-07,-2.9982248e-06,-4.6682896e-07,-4.6509026e-06,-1.7264865e-07,-1.1965702e-06,1.8078643e-07,2.0250286e-07,-3.9652411e-07,-4.2837122e-08,-6.354356e-07,-1.7933304e-06,-1.3228785e-08,6.2555233e-07,-4.6988333e-07,-5.505863e-06,-1.568257e-06,1.5927495e-07,-1.139256e-07,-2.4425347e-07,1.4819686e-06,9.742324e-08,-1.4901545e-07,6.866223e-07,3.2882816e-08,4.0574116e-07,1.03966315e-07,8.0849e-07,-2.8603438e-06,2.2050506e-07,2.9262793e-08,1.9787933e-06,-5.4019565e-06,1.9871055e-07,-1.5988212e-07,4.0107096e-08,1.6721455e-06,4.445629e-07,1.3670977e-08,5.2338578e-08,-1.6535338e-07,1.6697938e-07,4.3970198e-07,-1.366654e-06,-7.033916e-08,-9.6494944e-08,1.625724e-07,1.0026678e-06,-6.436464e-07,-5.3872213e-07,4.3333733e-07,2.5353543e-08,1.6020506e-06,-1.6404023e-07
4.458217e-08,-1.4434333e-07,-8.8770065e-08,3.2980182e-08,9.44965e-10,-2.1196445e-06,-8.473938e-08,-7.734433e-08,-6.3574396e-07,1.0865506e-08,-5.3354887e-07,-5.2091313e-08,9.713656e-07,-7.751697e-08,6.093211e-08,6.104852e-07,9.783798e-07,-5.5532844e-08,9.1184184e-08,6.420511e-07,-6.81038e-08,2.7465518e-07,-9.324731e-07,-1.8008639e-07,8.5510544e-07,-8.557974e-07,6.62086e-07,-6.684265e-07,-4.8634724e-06,3.1825363e-07,-6.1528986e-08,5.262613e-08,9.809155e-08,-1.0519475e-07,5.4129643e-08,-2.0567249e-07,6.5275174e-07,-1.8493417e-07,1.5761015e-07,-7.162446e-07,-6.750195e-07,1.6792285e-07,3.4133777e-07,-4.2482418e-07,2.39239e-08,-5.615707e-07,-1.5452207e-07,1.5567166e-07,3.65033e-08,-1.1574361e-08,-2.029376e-07,6.263434e-11,-4.7952705e-07,1.3708118e-08,-2.0562767e-07,-4.385853e-07,-4.566179e-07,-4.3768134e-07,-6.107174e-07,2.9033978e-07,-1.7936125e-07,1.521356e-08,2.6232982e-07,-2.3281608e-08,3.2223048e-07,-3.3779635e-08,-9.835011e-08,-2.4825053e-07,-1.9605406e-07,1.6277102e-07,5.8060927e-08,9.4997006e-07,1.1673745e-08,7.38077e-08,9.672692e-07,1.1062234e-06,-3.731578e-07,5.834524e-07,1.4779035e-07,-5.941651e-08,-2.3479831e-08,-9.154643e-08,-1.4658814e-06,-1.6747296e-07,-1.7541834e-07,-7.8817015e-07,-1.9040929e-08,2.71573e-07,5.016293e-08,1.3920012e-06,-2.8975758e-06,-1.5827192e-07,1.56559e-07,-4.9963415e-07,-1.9900527e-07,-3.0854068e-08,3.0344843e-08,-1.7929706e-07,1.3726596e-08,-1.2496271e-07,1.594122e-07,2.9830267e-07,1.8585058e-07,-4.262651e-07,2.9496297e-07,1.535937e-07,7.329266e-09,-1.4018433e-07,6.391298e-08,-9.8509645e-08,-2.3881788e-07,-9.548289e-07,6.056312e-08,-2.9851776e-07,-1.0980042e-07,4.3274294e-08,4.7273367e-08,7.04279e-07,-4.214929e-08,2.7799278e-08,-1.5451388e-08,-2.1621456e-07,4.7145146e-08,-9.10322e-08,5.087668e-07,-3.2198004e-09,1.7050802e-07,1.4169318e-08,3.2141811e-10,1.6183176e-07,-7.194344e-07,-2.6576565e-08,-9.987342e-08,6.7107726e-07,-5.110436e-08,-2.0552444e-09,-4.8371976e-07,-2.4797566e-07,8.478722e-08,-1.4527993e-08,-7.0700344e-07,-8.912146e-08,6.82316e-08,1.005569e-06,-1.4442962e-06,1.4905471e-06,1.0158014e-07,5.397887e-07,8.447853e-08,1.3329937e-07,3.2032887e-07,8.281727e-08,8.931693e-07,-3.5321654e-07,1.7840413e-06,-5.19568e-07,-1.0832938e-06,-1.6558346e-07,-3.1831098e-07,7.479071e-08,-9.7216564e-08,-4.9180917e-09,-2.3223667e-08,2.0388477e-08,1.4120278e-07,-2.1379523e-07,1.4344614e-09,-2.923975e-07,-1.0913862e-07,-6.326167e-08,5.3330797e-07,2.9316823e-07,1.0495535e-08,-6.68132e-07,-5.0181182e-08,-9.637535e-07,-2.4404915e-08,-3.7002428e-07,2.4483882e-07,2.3028501e-07,1.3523828e-07,-3.6907483e-08,-2.2967382e-07,7.534525e-08,-2.648173e-07,-7.101761e-07,-1.2630394e-08,7.695797e-07,-2.0088493e-07,5.928503e-08,5.956094e-08,1.4181286e-08,1.7956431e-07,-8.078376e-09,-3.6542397e-07,1.9850965e-09,-1.7908637e-07,-2.1104224e-08,2.8568511e-08,-1.5731167e-07,-1.2443456e-07,2.4347514e-08,8.8732335e-08,-1.1807533e-06,4.7682477e-07,-2.1999439e-07,8.5781096e-08,-2.4928438e-08,1.3005993e-07,2.8849112e-07,-2.8064267e-06,-2.4612956e-07,5.34724e-07,-1.9565496e-06,-8.36541e-08,-3.0500814e-07,4.4668738e-08,-4.728112e-07,-4.4270714e-06,-9.790895e-08,1.3859781e-07,-5.375232e-08,-8.4619245e-08,3.433071e-08,-8.8080185e-08,7.788034e-08,4.362614e-09,-7.1153934e-08,-2.1793e-08,5.3765927e-08,-7.5562207e-07,-1.2531551e-07,-2.4187645e-07,-7.8857205e-08,-3.6463027e-07,6.748728e-09,2.218118e-08,-7.639099e-08,2.041628e-07,-8.4328775e-08,1.2523844e-07,7.28338e-08,3.328885e-07,2.7718573e-07,2.4644493e-07,1.8024127e-07,2.2549146e-07,-8.463962e-09,1.4539549e-08,-3.8172246e-07,6.6814714e-09,2.6296718e-07,-6.5543696e-07,8.629478e-09,8.712322e-07,-4.0109012e-07,4.7853597e-08,1.6779227e-06,1.0693714e-06,-1.6238789e-07,-1.4200171e-07,1.4832433e-06,4.5551823e-07,-4.3001947e-07,4.5690678e-07,2.4976367e-07,-1.3875378e-07,-3.6084568e-08,-1.3805399e-06,9.900232e-07,4.273347e-08,4.0787828e-07,2.9901763e-05,1.9132729e-07,-1.4295483e-07,3.898885e-07,-3.8419117e-08,-1.4573848e-07,-7.4239676e-07,1.0018765e-06,4.795606e-07,-8.32637e-07,-1.1684275e-07,-2.426355e-07,-6.7005215e-07,-7.037983e-08,-1.0435481e-06,5.3314795e-07,-7.053558e-10,-5.3792917e-08,4.8753986e-07,1.9945132e-07,-2.3275268e-07,4.7149558e-07,2.3744244e-07,3.665769e-07,-3.9986978e-07,1.1349392e-07,1.4145289e-06,1.1924404e-08,1.18977084e-07,4.5151452e-08,-4.3149245e-07,6.38952e-07,6.592322e-08,-3.667346e-07,-7.216464e-09,-2.2855302e-06,-5.2844587e-07,-1.699096e-07,3.042837e-07,6.6450707e-07,1.263576e-06,5.576921e-06,4.1516753e-08,4.0363304e-09,1.5871047e-09,-4.7470856e-08,5.9934706e-09,-7.284272e-08,3.0545826e-07,2.1280924e-08,-1.1057196e-07,3.8056243e-08,2.5983113e-07,1.06474346e-07,8.314936e-07,-2.0223754e-06,-3.680664e-08,2.649263e-07,-1.4228779e-06,8.7658566e-07,-2.3849998e-07,1.9569338e-06,-9.162527e-08,2.529426e-07,5.685823e-07,3.2259575e-07,-1.6404078e-06,3.48663e-07,2.4510214e-07,1.7858569e-06,-2.5247854e-07,-1.053178e-09,3.0689822e-07,-6.252516e-06,-8.1267103e-07,-1.1794996e-06,7.161689e-07,5.8879726e-07,-1.5075992e-07,3.9062133e-08,3.1333352e-07,-1.4016246e-06,-3.7960447e-08,-1.4695789e-07,4.985818e-07,1.6793575e-07,6.0261226e-07,6.756104e-07,-1.3196097e-07,4.2061373e-07,3.2935063e-07,8.701056e-08,2.736702e-07,-5.237507e-07,-3.7039604e-07,1.0186544e-06,9.038527e-08,-4.817263e-07,5.3523713e-08,-8.0893034e-07,1.8530254e-07,-2.4384244e-06,1.1836679e-07,2.2285558e-08,6.575436e-08,3.9722016e-07,1.1989911e-09,5.115216e-07,8.9818246e-07,-9.4818226e-08,3.584891e-07,-1.8132163e-06,2.8616258e-08,5.952286e-08,-1.8099953e-06,-4.6284825e-09,-5.17171e-08,-2.021905e-06,-2.4277359e-08,-9.177741e-08,-1.6867691e-06,-2.866525e-07,-8.417024e-07,-7.196282e-08,-1.2874661e-06,-5.7864163e-08,1.8972024e-08,2.7254978e-07,-3.1969514e-06,2.7645888e-06,-5.8233937e-08,4.0452372e-07,-3.3459787e-07,2.3161682e-07,6.8836044e-07,2.2133586e-08,4.290568e-07,-3.8000616e-07,1.5720337e-06,-9.389069e-07,-3.817915e-06,1.8386223e-07,-9.772012e-07,5.199696e-07,5.143592e-08,-3.6820584e-08,-3.9285723e-08,-1.9273596e-06,5.0467605e-07,-3.3642158e-07,1.1086928e-07,-2.505104e-07,-1.125483e-08,-4.6994742e-08,9.182657e-07,6.69355e-08,4.6611476e-08,-1.2932741e-06,1.6100927e-07,-1.6780409e-07,5.0431513e-08,-6.3510396e-07,1.6078061e-06,1.5276003e-06,-3.18939e-07,-1.461346e-07,-1.6326486e-06,2.7530405e-07,-1.9332722e-07,-3.0672634e-06,-2.5828382e-07,2.1814517e-06,-2.4449994e-07,-5.732778e-07,2.1282294e-07,8.136216e-08,-1.9054933e-06,-4.351098e-08,-1.1146695e-07,3.6362596e-07,-5.062028e-07,1.7846881e-07,1.0122933e-06,3.6394837e-07,-3.0749515e-08,8.147575e-07,5.7804823e-07,1.6634445e-09,-4.983531e-07,8.185471e-07,4.0448563e-07,3.7052338e-08,2.2526561e-07,3.1112336e-07,-4.7809262e-06,1.4235234e-06,5.354539e-07,-2.271703e-06,8.919938e-08,1.1113422e-06,-5.3845767e-08,-1.938821e-06,-3.4377395e-06,-9.588366e-07,4.5765443e-08,-1.8957483e-06,-5.9531385e-07,-2.0495152e-08,-1.15827106e-07,6.2626515e-07,-1.2810569e-08,-6.5702345e-08,-1.5442795e-08,-5.2304665e-07,1.2043495e-07,-5.8000245e-07,-1.1717429e-07,-6.68002e-08,-1.3524505e-06,-6.131097e-07,7.280044e-08,3.9491545e-07,-9.79906e-07,-2.460428e-06,3.7654863e-07,-2.3701521e-07,5.744914e-07,1.6694963e-07,-4.3028476e-06,1.9067477e-06,2.3336443e-07,2.4126845e-08,-2.5092701e-08,-7.305701e-07,7.6836284e-07,8.517182e-07,-9.584336e-07,-1.6053267e-08,8.7585784e-07,-4.027125e-08
-2.6448788e-08,2.4005948e-07,-2.7860717e-06,3.4543817e-08,-1.164868e-08,-1.4387227e-07,-1.0333951e-07,3.665828e-08,6.614599e-08,2.4752995e-07,6.981991e-08,1.9379032e-09,-2.0644594e-08,7.229371e-09,1.7920924e-07,3.222625e-07,2.9574005e-06,4.0553397e-07,-2.334193e-08,-3.3113542e-07,2.6645587e-08,3.7601016e-08,2.9226482e-07,-1.5612606e-07,-3.7734966e-07,1.5055707e-07,9.647329e-07,-3.5882022e-07,-3.851038e-07,-9.013796e-07,-4.2581684e-07,-2.3635265e-07,7.199682e-08,-1.684958e-08,-2.321731e-07,5.7048615e-09,-6.7180036e-07,8.7377625e-09,6.162267e-08,-3.4509e-08,2.2517835e-07,8.1047624e-08,-3.923528e-06,1.8085561e-07,1.1896928e-07,-5.457343e-08,8.1877964e-08,-6.5061846e-07,-1.1407285e-07,-1.9912895e-07,-2.6217643e-07,-1.0316133e-07,-3.494241e-07,-6.957157e-08,5.6773746e-07,3.1301164e-07,2.5562127e-07,1.4590128e-07,1.00880776e-07,1.08934636e-07,4.227764e-07,2.2733607e-07,4.5180848e-08,-2.5381183e-08,7.559577e-08,-1.6306412e-08,4.134601e-07,-3.7102275e-08,1.5213416e-07,4.0086146e-08,2.1755285e-07,-1.6788893e-07,1.7850313e-07,8.908823e-08,1.0356374e-06,1.3228936e-07,8.2654765e-07,-6.3345857e-07,-6.0008645e-08,-2.0333829e-08,-7.9164425e-07,-1.223964e-07,1.896595e-06,6.915886e-07,-9.415193e-08,4.4201615e-06,-1.13419645e-07,-2.9723225e-08,-1.3044309e-08,2.82551e-07,-4.2059847e-07,-3.2690927e-08,3.4396624e-07,6.242989e-07,-9.599193e-09,6.757771e-08,-6.515138e-08,2.6089063e-07,2.8320517e-08,-1.06810596e-07,-4.3696758e-08,-8.76592e-08,4.8750786e-07,-1.0923889e-07,1.4583756e-07,6.4466555e-08,1.7909626e-07,7.347863e-07,2.1768791e-08,1.4568853e-07,-7.835659e-08,4.441685e-07,-2.5106761e-08,-2.37801e-08,2.1928271e-07,-2.1233244e-07,-3.926697e-09,5.2060034e-07,7.194187e-08,3.5378722e-09,-4.590649e-08,-2.922797e-07,-2.4864082e-07,-3.3534366e-08,4.7625434e-07,-1.5841852e-09,-2.7505928e-07,-8.782503e-08,1.3368e-09,-1.9931574e-07,-2.7586154e-06,2.3073145e-08,-6.733607e-08,1.0797382e-07,-5.602561e-09,-6.694642e-09,2.2081646e-07,-1.1247393e-07,-3.46831e-10,1.4290583e-07,1.7621552e-07,-1.4857548e-07,-1.0718462e-09,-3.6869207e-07,3.1025766e-07,1.629225e-07,3.198232e-08,-6.920824e-07,6.716863e-08,-5.5230057e-08,4.6761537e-07,-3.5030752e-09,-7.3942283e-07,1.4459701e-07,1.1403165e-06,2.8225867e-07,-1.3807579e-07,-3.0852615e-07,-1.8555963e-07,-4.5185793e-08,-1.1367766e-07,3.067542e-08,-7.1262306e-08,1.7331878e-09,-1.8242466e-07,1.2400596e-09,1.5800113e-08,2.7327434e-07,-2.9024772e-08,2.4375986e-08,-1.3339277e-06,-2.3569466e-08,-3.831977e-08,-1.4675243e-07,3.3374423e-07,2.1365922e-07,6.5644885e-09,-1.2191975e-07,4.6998974e-08,-6.500876e-08,3.955079e-07,-2.5258457e-08,1.6665473e-08,-1.9277144e-07,1.9921026e-07,2.2298835e-08,4.2805375e-08,-2.5960264e-07,-3.4716848e-08,1.5479499e-08,4.924233e-07,-6.3358264e-08,-2.6291156e-08,3.84352e-08,4.2477424e-08,1.2230777e-07,7.573799e-09,-1.828378e-08,7.210969e-08,2.610716e-07,-7.815567e-09,1.2740426e-07,-1.2824377e-06,2.3087978e-07,-4.790627e-07,-1.4589254e-07,2.3375092e-08,5.6129394e-09,4.7586454e-08,1.9376412e-07,1.8416503e-07,-1.3245717e-06,-2.1786589e-07,-3.1734095e-07,-1.4442294e-07,-4.5485272e-08,9.0188905e-08,-1.11677636e-07,1.3210283e-07,-8.808887e-08,-2.2845586e-07,2.2569766e-07,2.7780736e-08,-1.0298816e-07,5.5907876e-08,-1.7134406e-07,-5.863682e-09,-3.095346e-09,9.0064503e-07,1.7111394e-07,-1.298662e-06,4.6818396e-08,-8.350408e-08,-2.0016305e-08,5.638458e-07,-5.0149342e-08,6.7581363e-09,-6.9260455e-09,-1.7888342e-06,4.750505e-09,-2.2172006e-09,-4.2431555e-08,1.5518918e-07,1.6174251e-06,6.082255e-08,2.1857312e-07,1.1039159e-07,-1.0459604e-08,-2.7991007e-08,-4.4209287e-07,-1.629934e-07,-2.5353e-08,-1.728071e-07,-1.0212459e-08,-3.1810245e-08,-7.195315e-08,-6.798732e-08,1.2243685e-06,-6.1365154e-06,-1.4581127e-07,-1.5937505e-07,1.2882991e-06,2.163773e-07,-8.0214775e-08,-6.076351e-08,-5.536822e-09,1.6689047e-07,2.7224945e-07,1.2886241e-07,-2.041625e-07,-2.6347558e-07,-6.204328e-07,1.1335817e-07,1.0527594e-06,-7.547412e-08,-8.195272e-07,3.795907e-07,5.806916e-08,-7.271802e-07,3.278326e-07,-3.0583076e-06,5.3837862e-08,2.8771528e-06,-9.851531e-07,3.0806763e-07,-1.2205032e-06,2.1315245e-08,-3.090573e-07,-1.1888655e-07,-3.4190379e-07,7.34598e-07,2.1181656e-07,1.6378316e-06,-8.6436216e-08,-2.663505e-07,3.7243476e-07,3.3257876e-07,1.0654318e-08,-3.0920987e-06,-2.1758359e-07,-1.6221321e-08,1.8049356e-07,3.959331e-07,3.5015177e-07,1.511204e-07,2.5152707e-07,4.4582814e-07,-5.094399e-07,-6.20718e-07,-2.675973e-07,-1.4188007e-06,2.3753586e-07,6.1576725e-07,-3.9330874e-07,2.1849564e-06,2.1437266e-07,-4.4654524e-07,2.8587166e-08,-1.888843e-07,-1.6882902e-07,-9.667584e-08,3.4130483e-07,-2.5769563e-07,-9.438541e-08,5.169284e-08,1.5599689e-07,8.4012123e-07,2.7859467e-06,-1.508816e-07,-5.6607786e-07,2.622923e-06,2.5594173e-07,-2.851772e-07,-6.057695e-07,-2.3145546e-07,6.28513e-07,3.7649976e-08,-7.977237e-08,2.959399e-06,-1.8299644e-06,-9.016318e-07,-2.4558328e-06,-3.123439e-07,1.0571503e-07,-1.4510572e-07,3.3613833e-07,-2.326936e-06,5.4476153e-08,-1.4786501e-06,5.9471734e-09,9.266948e-08,1.2781497e-07,-2.467586e-07,-1.8881228e-06,5.3455064e-08,-3.4188932e-07,-3.2661913e-07,1.178434e-06,-6.3649424e-07,-2.2320722e-07,6.1515254e-07,-3.0277008e-07,-4.1254887e-07,-1.673972e-06,-8.0838824e-08,-2.7363018e-07,-2.5035372e-06,-9.924349e-09,-8.262099e-08,-4.6414215e-07,-6.6936207e-07,-4.5079523e-07,-3.6241963e-07,1.4427519e-06,-4.8086832e-08,1.13754126e-07,3.494401e-07,-4.0691623e-07,-3.777899e-08,3.5270273e-07,-2.3798148e-07,4.8971046e-08,-9.936142e-07,-3.9029246e-07,-2.684662e-08,-1.2397419e-07,-3.205642e-07,8.3635086e-08,-6.193868e-08,9.967115e-08,-9.678755e-08,3.791926e-09,-2.0071777e-08,-2.2978835e-08,3.42456e-08,1.4819224e-07,1.2714139e-07,-5.664662e-08,1.8313787e-07,-9.1191e-09,1.5820577e-06,2.773712e-07,2.8286582e-08,-1.6533745e-06,3.495951e-08,9.488078e-08,7.31781e-07,-2.163862e-09,-2.7192206e-07,2.4948764e-07,9.128013e-07,9.781986e-07,1.0099659e-07,-1.8636607e-07,-3.2323896e-07,-3.422705e-07,-1.3504179e-07,2.0098561e-08,4.939472e-07,2.7341953e-08,1.5784786e-07,4.171038e-08,5.6248552e-08,1.6076528e-06,-5.513764e-08,-1.8559425e-07,-2.2030531e-07,1.489059e-07,8.3331194e-08,-2.0472768e-07,-5.8975672e-08,8.0421773e-07,-1.1648129e-07,-1.4949129e-07,2.699781e-08,5.7288077e-09,7.119363e-07,-7.786962e-08,5.893419e-07,-8.74611e-08,5.6464387e-07,5.78075e-08,2.751364e-07,-1.7841693e-07,5.5170112e-08,7.533343e-08,-1.7967946e-07,-1.9845194e-08,-2.150933e-08,1.947439e-08,2.1050079e-07,6.675508e-08,1.0691025e-07,-5.2197224e-09,9.397124e-08,5.603711e-08,9.124517e-08,1.8119043e-07,-2.1344032e-07,3.5485613e-08,-4.645677e-07,-7.703824e-08,-3.0534313e-08,1.7470795e-07,-3.7026925e-07,2.9246365e-07,-1.7268653e-07,-7.1245506e-07,1.3791933e-08,-1.5098688e-07,-1.6566648e-07,-1.9465166e-07,9.3756526e-08,3.2217366e-07,7.8647975e-07,-1.7661962e-07,-1.4978075e-07,5.7378224e-07,6.807445e-08,8.825679e-08,-1.3364071e-07,-6.587328e-08,1.9108287e-08,-1.4505204e-08,2.118929e-07,-6.1562974e-07,-2.2962342e-07,1.2206395e-07,-3.8123126e-08,-1.5631372e-07,9.71978e-07,-3.9037744e-08,-5.8483568e-08,1.4665495e-07,2.843483e-07,1.2035295e-07,-5.1461523e-08,-1.2112092e-07,2.196182e-07,6.7021693e-07,-2.8635446e-08,2.3758018e-07,2.8951195e-08,-6.0623293e-09,-9.0739164e-08,-6.081854e-07,-4.8303274e-08,2.3169093e-08,-2.5718413e-07,-8.0685565e-09,-4.971923e-07,-1.833398e-07
-3.181465e-07,-1.0791032e-06,2.3010293e-06,-2.275987e-08,-8.749497e-07,1.0809614e-06,1.07824675e-07,-4.4763155e-08,8.8563115e-07,-1.4908662e-07,5.259194e-07,-1.4912534e-07,3.1842896e-07,-8.1438614e-08,1.3704326e-07,-4.9085093e-06,-3.000476e-07,2.8944135e-07,-2.9015808e-08,9.967353e-07,-3.91071e-07,-1.4876689e-07,1.8793244e-07,7.915948e-08,-6.0114996e-07,7.308824e-07,-1.2954636e-06,2.0599114e-06,1.3170801e-06,-1.4685863e-06,1.427361e-06,3.9742716e-07,-1.6046702e-06,7.9831625e-07,2.184153e-07,1.10902306e-07,6.242425e-08,3.9845943e-08,-1.0874675e-06,1.0431074e-06,9.877908e-09,1.3675199e-07,5.0789904e-06,8.173977e-07,-1.7491371e-07,2.4994185e-06,1.6325597e-06,1.0472424e-06,-7.2679455e-07,-3.777648e-07,1.3027206e-06,1.6274588e-06,1.5099727e-06,-2.0328e-08,-1.1222991e-06,8.7760014e-07,7.851878e-08,1.1526197e-06,4.7619088e-07,-3.5546356e-07,-5.671918e-07,1.8837017e-07,5.252918e-06,-1.4990903e-07,2.189158e-07,2.852704e-08,-3.9544713e-07,8.613574e-07,-2.8760934e-07,2.5982644e-07,-2.0391894e-07,-8.837446e-07,5.959389e-07,2.6097973e-07,-2.1089195e-06,9.723854e-06,-7.339768e-07,2.0532595e-06,1.0479954e-07,4.5972965e-07,7.7262604e-07,2.2304647e-07,-1.2217079e-06,-1.7596357e-06,-8.097173e-07,-3.1072925e-06,7.6336664e-07,2.692789e-07,1.2049784e-07,6.902221e-07,-1.2290066e-07,3.647126e-07,1.0541776e-06,-4.6670885e-07,3.5758788e-07,-1.0087499e-08,2.3809554e-07,5.1551615e-07,4.201328e-08,6.035814e-07,-1.5034315e-06,2.732613e-06,-1.0704584e-06,3.9706956e-07,-1.5324349e-06,-2.1705232e-07,-1.2871077e-07,-5.382807e-07,7.243975e-07,2.0715196e-07,8.1081794e-07,1.5095753e-06,-1.9522166e-07,1.3110505e-06,5.907885e-07,5.2668054e-07,-1.589786e-06,1.0694033e-06,-2.1381307e-07,-2.035674e-07,2.5112465e-07,4.52441e-07,1.0083922e-06,5.062165e-08,-2.3308539e-07,-3.1934487e-08,2.328077e-06,-1.7315668e-07,-4.0457016e-09,-1.545224e-07,7.2468623e-07,4.57168e-08,2.101777e-07,1.9418583e-06,-2.2699179e-07,6.911778e-08,-6.1104697e-07,2.0503288e-07,4.2155197e-08,-1.2978342e-07,-1.3580138e-06,-4.5608732e-07,-4.560905e-07,-4.4155104e-06,-9.939127e-07,1.2244192e-06,1.2043404e-07,1.0226979e-06,-3.464673e-08,-1.2661435e-08,-2.0828958e-07,-6.490975e-07,-4.33934e-07,6.187927e-07,-2.0939495e-07,-2.3601438e-06,1.1304477e-06,-5.7969146e-07,7.0616545e-07,-2.1163137e-08,-1.806697e-07,8.868378e-08,-8.765028e-07,-3.667951e-07,-3.013623e-07,-2.322902e-07,4.6744896e-07,5.793142e-07,4.409295e-07,1.7208322e-08,-1.3772608e-06,-2.2573383e-07,-1.3673144e-08,-2.7686968e-07,-1.1466656e-06,-2.4789372e-07,-8.178895e-08,-2.961715e-07,2.902365e-07,-2.8244892e-07,-3.4091215e-06,-1.4832457e-07,2.1815711e-07,-1.253969e-06,-5.8866266e-07,4.350236e-07,6.4670326e-07,-4.7217668e-07,2.1245896e-08,-5.3592225e-07,1.2450082e-06,5.4414222e-08,-1.2134265e-07,-9.141485e-08,4.3785857e-07,6.255552e-07,1.808105e-07,4.916822e-07,-9.7019225e-08,-1.495745e-06,3.2646193e-07,-4.8537823e-09,2.2389333e-06,-6.839845e-07,-6.144762e-07,-4.4317906e-07,-2.477046e-07,2.8693142e-07,-4.4357878e-07,-6.973262e-07,1.7959427e-06,4.5176253e-06,3.9650797e-07,5.652566e-07,8.3723637e-07,-8.4329564e-08,-1.4619993e-06,-1.4290039e-06,3.062179e-06,2.7289718e-07,-8.846843e-07,2.4668597e-07,5.5482064e-07,5.0601983e-08,-2.4503578e-07,1.544232e-07,-1.2095556e-07,2.9969337e-07,1.9220177e-08,1.1823826e-07,-3.0515007e-06,-1.5847307e-07,-5.4521934e-07,-1.659005e-07,-7.774243e-07,3.4409794e-07,4.783378e-08,-7.719357e-08,-7.311046e-07,-1.444948e-07,-2.5486457e-07,-1.1874906e-07,-1.7553592e-07,-2.002966e-06,-3.1748763e-07,-9.177953e-07,-2.5086263e-07,1.5074242e-08,9.253078e-08,9.773895e-08,-5.742038e-07,-3.4025653e-08,4.5928562e-07,-1.1273603e-07,3.3177312e-07,3.2352384e-07,1.5066286e-07,1.5004726e-06,1.2100236e-07,-6.84648e-07,-1.7930072e-06,1.6109591e-06,-6.726395e-07,9.1407065e-07,-1.2840196e-06,-7.015035e-07,5.257865e-07,7.5415744e-07,-8.9002174e-07,-3.1621437e-07,-3.0461433e-07,-8.146096e-07,1.6636794e-05,-1.1447818e-06,-4.3143717e-07,2.6972282e-07,7.08036e-07,1.3911258e-06,7.6230475e-07,-1.4835889e-06,-1.803404e-06,3.5715317e-07,7.510231e-07,1.8619943e-07,2.2411386e-06,-1.6218803e-06,9.828779e-07,-5.403626e-07,2.436064e-06,6.235443e-07,-3.4290179e-06,4.595281e-07,5.6121746e-07,-2.7074356e-07,7.747993e-07,3.3972913e-06,1.6278195e-06,1.7584408e-06,-4.0485875e-06,-1.6032925e-07,-3.1646331e-07,3.846616e-06,-5.3750534e-07,3.2275043e-06,-1.9294902e-07,-4.458776e-06,-7.8460306e-07,-6.2097015e-06,2.2711265e-07,8.041826e-07,-2.7079943e-06,-1.1130551e-06,-4.012343e-06,4.4290114e-06,2.1473174e-06,-1.3071441e-06,2.9687675e-07,-2.8801085e-07,-2.0238688e-06,-4.7732584e-07,-3.5929816e-07,-6.926226e-08,9.516192e-08,-1.0454825e-06,-1.134455e-06,2.2347772e-06,3.4357078e-07,1.25272e-07,1.8833008e-07,1.1985142e-06,8.192852e-07,1.0627282e-05,-4.4934654e-06,2.8127106e-06,-1.8456834e-07,-4.3897526e-06,-2.393233e-06,9.8579534e-08,-2.0291462e-05,1.6735663e-06,1.3096798e-07,-4.4406113e-07,2.5748927e-06,7.874061e-06,7.878251e-07,-1.6044414e-05,-3.3834026e-06,1.911909e-07,-4.9406844e-06,-1.0754178e-07,1.9432293e-06,5.3702644e-07,-9.292811e-07,1.987888e-06,1.9545924e-07,9.992833e-07,1.2750141e-06,-4.4653107e-06,2.2530953e-06,-7.6664946e-07,2.7471922e-06,1.9799273e-08,1.8006186e-07,-2.3382158e-06,2.5877557e-07,5.003784e-07,-1.8927972e-07,3.3742856e-06,2.2249024e-07,-1.8567694e-06,1.727758e-06,9.99865e-07,4.8427034e-07,5.4137777e-06,1.1379451e-07,-1.690531e-07,-8.805491e-07,-4.7435225e-07,-1.2722114e-07,1.8993641e-06,-8.708163e-07,9.7721134e-08,4.1518646e-07,3.6921601e-06,-2.9245598e-07,-1.03797e-06,-3.090297e-06,3.178293e-07,-6.333257e-07,5.108038e-06,-6.624873e-07,2.686558e-07,1.7221631e-06,-3.6819046e-07,-1.5117365e-08,-3.9575502e-07,-1.2320992e-06,1.2631559e-06,5.9431216e-09,-1.3011568e-06,-2.7962813e-06,1.156189e-06,5.746739e-07,1.9911222e-06,1.9858985e-07,3.6006543e-07,-4.8062554e-07,-5.1822876e-06,6.7329506e-07,1.8367464e-07,-2.91575e-06,-2.2152942e-06,2.6268938e-06,-1.1417416e-06,1.3218391e-06,2.203367e-06,-1.196986e-06,4.680226e-07,-4.451769e-06,1.3915121e-06,2.0455582e-07,-8.2491374e-07,-7.6013333e-07,-1.661019e-06,1.322315e-06,4.7658972e-08,1.5502126e-06,-2.5827413e-07,-1.4067285e-07,8.515599e-08,-9.738372e-07,-6.849971e-06,-5.70265e-07,-3.7071418e-06,1.0358733e-06,2.051041e-06,-6.2066024e-06,1.1692484e-07,1.50987e-06,-6.907344e-07,-1.4245225e-06,4.51943e-06,6.4724304e-07,-1.0558998e-06,-1.3714815e-07,6.342376e-08,4.7756816e-07,1.2025014e-07,1.6303325e-06,2.0574073e-07,-3.2820742e-07,1.0720756e-06,-6.5851884e-07,-2.300834e-07,7.9439667e-07,-4.0339046e-06,6.0171453e-07,6.9707966e-07,-3.3511599e-06,-2.4144285e-06,1.1726422e-06,-6.2833496e-06,-1.509574e-07,6.395146e-07,2.9910262e-07,-1.1430652e-06,7.6030904e-07,-1.197539e-06,-1.2766302e-06,7.4097056e-07,7.1947045e-07,1.2422421e-06,-1.083766e-06,-6.641476e-06,-2.7875053e-06,1.5571185e-06,-3.4392625e-07,-1.3067882e-06,2.1802684e-06,-3.8405616e-08,4.854636e-07,3.0089582e-06,8.783502e-09,9.886148e-07,-9.116808e-08,4.296641e-06,-3.6479005e-06,2.5708974e-07,-1.4554348e-06,4.9649866e-06,-6.432634e-06,-1.2485444e-07,5.131817e-07,-2.2131304e-07,1.0903627e-06,2.8542445e-06,-6.2914324e-07,1.0600437e-06,4.6497257e-07,-4.7612204e-07,2.9846055e-06,-1.5620653e-06,-4.3642285e-07,-4.623407e-07,6.120906e-07,1.4130053e-06,-1.211216e-06,-7.377494e-08,1.7277323e-06,-8.917752e-08,9.510461e-07,-1.7257477e-07
