0,1,2,3,4,5,6,7,8,9,10,11,12,13,14,15,16,17,18,19,20,21,22,23,24,25,26,27,28,29,30,31,32,33,34,35,36,37,38,39,40,41,42,43,44,45,46,47,48,49,50,51,52,53,54,55,56,57,58,59,60,61,62,63,64,65,66,67,68,69,70,71,72,73,74,75,76,77,78,79,80,81,82,83,84,85,86,87,88,89,90,91,92,93,94,95,96,97,98,99,100,101,102,103,104,105,106,107,108,109,110,111,112,113,114,115,116,117,118,119,120,121,122,123,124,125,126,127,128,129,130,131,132,133,134,135,136,137,138,139,140,141,142,143,144,145,146,147,148,149,150,151,152,153,154,155,156,157,158,159,160,161,162,163,164,165,166,167,168,169,170,171,172,173,174,175,176,177,178,179,180,181,182,183,184,185,186,187,188,189,190,191,192,193,194,195,196,197,198,199,200,201,202,203,204,205,206,207,208,209,210,211,212,213,214,215,216,217,218,219,220,221,222,223,224,225,226,227,228,229,230,231,232,233,234,235,236,237,238,239,240,241,242,243,244,245,246,247,248,249,250,251,252,253,254,255
-5.7924847e-08,-5.8597163e-08,-6.8748056e-07,-1.5704984e-08,-5.793175e-08,-1.3121058e-07,-6.489014e-07,-2.6442234e-07,2.1578596e-06,-2.6367289e-08,-1.7148609e-07,-6.192101e-07,-2.429871e-08,-1.4290798e-07,-1.58637e-07,-4.0952045e-08,2.5678798e-08,-7.66768e-08,-1.0206959e-07,-1.7449463e-07,-8.3824574e-08,-1.2463235e-07,-8.455273e-08,-4.975936e-07,-7.166635e-07,-2.7428962e-07,-5.01329e-07,-6.7812095e-08,2.6497485e-08,5.722368e-08,-3.254296e-08,-3.0309667e-07,-4.467695e-08,-5.2713347e-08,-2.7274902e-07,-6.618777e-07,-2.6137316e-08,-2.5382327e-08,-6.732748e-08,-7.381368e-07,-3.4423763e-08,-3.1000224e-07,-1.2719106e-07,-4.19215e-07,-2.0493171e-07,-4.849581e-07,-5.3536485e-07,-1.2689108e-07,-5.334385e-08,1.273675e-08,-5.1381045e-07,-1.4259009e-08,-7.155195e-08,1.05717355e-08,-8.5235723e-07,1.010022e-08,-2.2161831e-07,-3.760406e-07,-2.8176009e-08,-1.3715719e-07,-1.0885454e-07,-3.91367e-07,7.2821685e-08,-1.8871535e-09,1.1042284e-07,1.2893274e-07,9.152723e-08,9.52774e-08,3.094045e-07,3.253038e-07,-4.638941e-09,1.4859653e-08,-3.536865e-07,1.456264e-07,5.0189826e-09,-1.0249701e-07,1.0060984e-07,1.944794e-08,8.405355e-09,1.6786856e-07,1.4855691e-07,-1.6036839e-09,3.060878e-08,1.1419017e-07,1.4021472e-08,-1.0477585e-08,1.1193378e-07,1.2679757e-07,1.2018165e-08,-5.991204e-09,1.0367525e-07,-5.635647e-08,4.4338517e-08,1.2432524e-07,-5.007987e-09,6.607469e-08,4.525098e-08,2.0079028e-08,-1.03424735e-08,5.874269e-08,1.2586212e-07,1.2871224e-07,1.9567455e-07,1.9060247e-09,5.1465793e-08,-3.3910162e-08,6.4604365e-08,1.3035838e-08,-1.9788901e-08,1.077306e-07,1.2582387e-07,-3.013926e-08,2.9242862e-08,-1.1200009e-08,-7.699642e-08,6.313409e-08,7.557697e-08,2.3605051e-07,-4.659483e-08,7.831307e-08,1.8804363e-07,-9.630458e-08,1.5989806e-07,-3.271856e-09,8.480932e-08,8.011547e-08,8.728294e-08,2.4269748e-09,1.2173983e-07,9.579025e-08,1.0052134e-07,-4.9818063e-08,-1.6937929e-07,-3.921765e-07,1.9205028e-07,-4.3082466e-08,-6.167214e-07,-8.9053266e-08,1.6155401e-07,-1.3164895e-07,1.2287865e-08,1.4121476e-08,8.145436e-08,1.6762216e-07,-3.1056526e-08,-5.8248123e-08,3.1765985e-08,-6.97387e-08,3.1372025e-08,9.5856954e-08,8.030481e-09,4.5919354e-08,-5.295791e-08,-5.9290258e-08,8.5256104e-08,5.8279426e-10,6.784899e-08,7.61714e-07,2.064064e-08,6.6189855e-08,-1.460744e-07,-1.7855542e-07,-6.78018e-08,-1.1140959e-07,-1.4044312e-07,2.9594787e-09,-2.5958528e-08,1.0648511e-08,6.8266496e-07,1.7953772e-08,-1.3301863e-08,1.200797e-07,6.86098e-08,-1.1109907e-07,7.950109e-08,-8.236151e-08,2.3344462e-07,-3.1935254e-08,-3.8902012e-08,7.038926e-08,2.177905e-08,-7.745987e-08,1.5890375e-07,5.8146e-08,-6.9242724e-08,-8.255887e-09,-1.43882e-07,7.666303e-08,3.7977262e-08,6.3247136e-08,1.8771004e-07,5.5219562e-08,-3.474357e-07,-7.2313736e-07,-2.6805222e-07,-1.0123977e-06,-4.2398503e-07,-3.2693663e-07,-1.4194569e-07,-4.6293889e-07,-6.7597234e-08,-7.651632e-07,-7.1901724e-07,-1.9226573e-07,-7.762829e-07,-3.9437953e-07,-3.023722e-07,-1.6526879e-07,-3.0814405e-07,-1.3594291e-06,-6.4375746e-07,-6.986849e-07,-7.903662e-07,-5.2654156e-07,7.5410966e-08,-9.397704e-07,-8.090901e-07,3.4793973e-07,-4.969879e-07,-1.1445035e-06,9.787048e-08,5.594489e-08,-8.4397607e-07,-3.4225744e-07,-5.9078553e-07,-6.1269657e-07,-5.815594e-07,-2.1551696e-08,-4.0833453e-07,-4.5611375e-07,8.4603016e-08,-7.206319e-07,-4.3985636e-07,-7.9668786e-07,-8.016366e-07,-9.83142e-07,-3.51941e-07,-3.76862e-07,-5.847058e-07,-3.681741e-07,-1.7717511e-07,-1.1946183e-06,-5.896005e-07,5.057162e-08,-4.6531702e-07,-2.71932e-07,-1.6692285e-07,-6.615304e-08,-4.4729902e-07,-9.542664e-07,-2.2502507e-08,-9.889052e-07,-2.5244555e-07,-6.4650243e-07,-3.300256e-08,-7.462062e-07
1.1386361e-06,8.1215046e-07,-2.4331098e-06,9.848992e-07,-2.2296874e-06,1.0548152e-06,-2.3208663e-06,-8.237957e-07,7.32952e-07,-1.9147299e-06,3.2595474e-07,-1.7459673e-06,1.4776967e-06,1.5359594e-06,4.6609566e-07,-1.1227309e-06,1.7969039e-06,9.834589e-07,-2.1331673e-06,1.3145965e-06,-2.0804242e-07,1.0030277e-06,8.693938e-07,-1.4867561e-06,-1.6917182e-06,-1.2923695e-06,-3.5394187e-06,1.504626e-06,2.486576e-06,7.3703336e-07,-3.6102784e-07,-1.4721516e-06,3.4725502e-09,1.3434136e-06,-1.5049406e-07,-1.7444698e-06,7.367538e-07,7.6128195e-08,-9.428263e-07,-4.5529405e-06,1.8244527e-06,9.1316235e-07,1.5035454e-06,6.384932e-07,-1.4653057e-06,-4.0329445e-07,-2.2789031e-06,-3.6503215e-07,1.9608287e-06,3.932806e-06,-4.7817133e-07,-2.7726009e-07,3.296456e-07,1.9883428e-06,6.8579203e-07,4.5413717e-08,-2.763467e-06,-1.556148e-06,2.9667646e-07,1.9341705e-06,-1.5961535e-06,-1.4719814e-07,-8.501045e-07,5.99827e-07,9.482838e-07,6.1088826e-07,8.384453e-07,6.7448644e-07,-1.4326781e-06,1.0601851e-06,-5.2694645e-07,-2.2030207e-07,-4.758108e-06,-1.3028797e-06,-2.0532599e-07,-3.58207e-07,1.3353955e-06,1.1355039e-06,2.4640977e-07,3.614695e-08,1.5862614e-06,6.25031e-07,-1.2177727e-06,8.787439e-07,2.4643194e-07,5.147912e-07,2.3913233e-06,4.944176e-07,-2.898517e-09,-1.0449315e-06,-1.8469633e-06,4.1988548e-07,1.3419022e-06,-1.4568574e-06,-2.9394423e-07,-1.0418294e-06,1.2352282e-07,1.8431916e-06,9.0177844e-07,7.1248496e-07,1.6786844e-06,9.514315e-07,-7.4398025e-07,-1.2398783e-06,1.0521941e-06,1.5602818e-06,1.6811059e-06,1.1071415e-06,-1.1715983e-06,6.657929e-07,-9.2413137e-07,-3.0255035e-07,6.238446e-07,1.3316885e-06,-1.947962e-07,-7.836327e-08,-1.3214637e-07,2.3048924e-06,1.0004148e-06,-5.114676e-07,-1.2536209e-06,-1.1376633e-06,1.151151e-06,2.6488563e-06,-1.2663389e-06,6.461579e-07,-7.729376e-07,3.143926e-07,-3.2803162e-06,-3.8238677e-06,-5.295051e-06,-4.8731285e-06,-2.2743384e-06,2.0708967e-07,-5.5023037e-07,3.6829413e-06,2.0690532e-05,-2.5422814e-06,7.520401e-06,-4.2402053e-06,-5.8697797e-06,8.2550405e-06,-1.1020033e-05,1.937053e-06,-6.8446047e-06,1.4908481e-05,3.0991007e-06,4.67632e-06,-5.065829e-06,-6.8808276e-06,-5.4083735e-06,-2.055755e-06,4.560107e-06,-4.8945776e-06,-2.0662555e-06,6.777028e-06,7.642659e-06,6.510638e-06,8.1919507e-07,1.1147884e-05,6.621528e-06,2.9053708e-06,4.348998e-06,2.0017449e-06,-4.44835e-06,-1.4351484e-06,-3.7496256e-06,-1.0552984e-05,-4.7275707e-06,5.309709e-06,5.3126605e-06,-5.321442e-06,-1.0498281e-06,4.884242e-06,-7.4093637e-06,1.862777e-06,-2.38548e-06,9.475296e-06,-8.2720835e-06,4.099994e-06,-5.1097686e-06,6.3397583e-06,1.0884313e-06,3.7264829e-06,7.1728135e-07,5.5079317e-06,1.5347311e-07,1.0027074e-05,-6.4442793e-06,-6.7463557e-06,-4.8834936e-06,-6.2238007e-07,3.0325413e-07,6.6235634e-07,3.3509053e-09,-6.5305613e-07,-2.9114656e-06,8.516812e-07,-2.5181448e-06,9.633196e-07,1.4957835e-05,-4.4098774e-06,-2.2665959e-06,-7.9264555e-07,-1.1766255e-06,9.6621385e-08,-2.195393e-07,-2.4357876e-06,2.5985653e-07,-1.9752165e-06,-3.5264188e-06,-7.662121e-07,-1.7570349e-06,-6.6313083e-07,1.8608217e-06,-2.5227623e-06,1.2711459e-07,-1.600333e-07,-2.8247189e-06,-1.5402932e-06,2.437103e-06,1.0307638e-06,-1.6010911e-06,-1.1880142e-06,-4.0566076e-07,6.3822193e-07,-3.213333e-08,5.233073e-07,-2.0033852e-08,-9.146173e-07,-5.124042e-07,-3.7446785e-06,1.1910619e-06,4.701842e-07,-2.6811787e-07,-7.553795e-07,-2.785205e-06,3.14852e-07,-1.960394e-06,-1.4660878e-06,7.0653687e-07,1.8367491e-07,-1.3388195e-06,2.1147675e-06,-1.7947308e-06,1.2693249e-06,-6.899287e-07,1.1704292e-06,-1.6538337e-06,-1.654602e-06,6.989033e-07,6.6007027e-07,-3.0543822e-06,4.2200494e-07,5.2709606e-07,-1.0924341e-06
9.266164e-07,7.225374e-06,4.860861e-07,6.1310693e-06,-3.1250036e-06,4.8066804e-06,3.6455253e-07,-2.1874399e-07,-5.014006e-06,9.094751e-07,-3.2965204e-06,-7.843155e-07,1.7865539e-06,1.8294204e-06,-6.158249e-07,-2.206539e-06,8.3750626e-07,6.365576e-07,-8.0425934e-08,1.6769077e-06,-1.6671106e-07,3.631562e-06,1.5809226e-06,2.1595315e-07,-4.829858e-07,1.4722889e-06,-5.1927856e-07,-1.6502742e-07,6.309551e-08,-2.1766932e-06,4.5463266e-06,2.2659071e-06,3.6968736e-06,2.2455379e-06,3.92593e-07,-3.1558903e-07,1.1953757e-06,2.1948526e-06,6.5648896e-07,-1.0123074e-06,1.0223698e-06,1.8170438e-06,5.9108186e-07,5.7312286e-07,-2.3723243e-07,1.1307469e-06,-2.3691605e-06,2.0839145e-06,1.998314e-06,8.94512e-07,-3.9798954e-07,1.3610238e-06,2.6184343e-06,1.9637007e-06,2.1966434e-06,-1.6423797e-07,-2.580078e-06,-2.8390255e-06,2.410195e-06,4.298223e-06,4.3462705e-08,-6.696827e-07,-2.6104094e-06,1.02418994e-07,9.211046e-07,3.686513e-06,1.3978042e-06,3.6352676e-06,-2.6324226e-06,2.1498527e-06,6.6601444e-07,-1.9491138e-06,-3.3667575e-06,1.576873e-06,-1.2113303e-06,-1.5350871e-07,1.099143e-06,8.2074075e-07,8.241899e-07,-1.0858259e-06,5.953261e-07,4.6391912e-07,-4.409771e-07,1.5385027e-06,-2.1674418e-07,1.4711613e-06,2.065944e-06,-8.408623e-07,3.074904e-07,8.794974e-07,-3.4654306e-07,-6.8788313e-07,-1.2072084e-07,-2.3046658e-07,-5.9634704e-07,1.1187667e-06,2.1494704e-06,2.2619986e-06,8.1409803e-07,1.7923605e-06,2.6666717e-06,2.2545664e-06,8.210801e-07,9.495109e-07,7.415348e-07,1.5594367e-07,2.0258989e-07,-8.833365e-08,1.6491342e-07,1.2246969e-06,-1.8449443e-06,5.939929e-07,2.2024806e-06,3.8501992e-07,-1.5089157e-07,8.453503e-08,-3.1303853e-07,2.0830691e-06,1.7900541e-06,-9.761402e-07,-1.367942e-06,-1.895292e-07,9.395567e-07,1.6811753e-06,5.7467014e-07,1.2120358e-07,-1.2261883e-06,-9.9220074e-08,-8.9859486e-07,-6.539135e-07,-2.0595157e-06,-2.703367e-06,-7.657989e-06,1.918603e-06,1.3661179e-07,6.2743934e-06,9.046447e-06,-1.7638479e-06,1.3390782e-06,-4.538823e-06,-9.2216817e-07,3.7905895e-06,1.0848839e-06,5.818263e-06,-3.6302033e-06,5.5548335e-06,5.679432e-06,2.602982e-06,-7.729641e-07,5.1854963e-06,-3.7942066e-06,-8.586834e-06,2.692892e-06,-4.3872615e-07,7.659219e-08,3.633448e-06,3.8141807e-06,4.5832508e-06,-8.627529e-06,9.082945e-06,1.3621179e-06,-3.1631384e-07,1.2650072e-06,-1.2392652e-06,-4.596978e-06,3.9604192e-06,4.4949968e-07,-1.1991088e-05,-3.2868882e-06,3.3892047e-07,1.4868122e-06,-8.891743e-08,1.0829904e-06,5.5228948e-06,-5.0566246e-06,-4.2899655e-06,8.065923e-07,8.611743e-06,-4.8783636e-06,8.116067e-06,-2.734692e-06,1.047845e-06,5.068998e-07,4.699974e-06,1.2442215e-06,5.044006e-06,1.0294116e-08,2.788536e-06,-7.632614e-06,-1.7584791e-06,-5.2859023e-06,1.607709e-06,1.9866002e-06,6.2321787e-06,6.7570745e-06,7.188056e-06,8.4206556e-07,3.42978e-06,4.1941557e-06,4.456146e-06,9.747249e-06,2.2311453e-06,9.3629956e-07,-4.7940017e-07,7.908732e-07,3.7913e-06,1.454725e-06,7.020778e-06,3.0499473e-07,2.2910178e-06,4.367835e-06,5.572845e-06,2.9573148e-06,3.1121485e-06,5.8426313e-06,4.270645e-06,3.3132374e-06,7.2580333e-06,3.7821842e-06,-9.1019365e-07,-1.6898047e-06,-2.0532057e-06,-5.1814186e-07,5.20964e-06,1.3132421e-07,4.894945e-06,-1.3904464e-07,6.8300733e-06,3.956963e-06,4.958645e-06,6.141663e-06,6.576549e-06,6.2215972e-06,5.0053245e-06,2.9882935e-06,2.8969935e-06,3.084528e-06,8.5698235e-07,-1.0881827e-06,7.0570286e-07,6.4325905e-06,4.10005e-06,3.6444812e-06,4.94728e-06,7.0195665e-06,4.503603e-06,6.010985e-06,-4.941126e-07,2.3833393e-06,-1.3875388e-07,4.224469e-06,6.913939e-06,3.1932304e-06,2.5128252e-06,3.6564452e-06,2.5625104e-06
-1.6785457e-08,-4.737768e-08,1.5778265e-06,-1.5828388e-07,-1.562169e-07,1.806153e-07,1.0237031e-06,5.173539e-07,4.7630397e-07,1.081982e-08,5.0958164e-07,9.670667e-07,-4.2580334e-07,-4.890337e-09,3.5840478e-07,5.126925e-08,8.3071974e-08,-1.1266464e-07,2.95148e-07,2.8475304e-07,3.9943362e-07,-1.6600278e-08,4.879202e-07,9.0180833e-07,9.440608e-07,2.7027357e-07,8.7955283e-07,2.1270017e-07,-2.4326674e-08,-4.4907203e-08,9.070156e-09,6.47467e-07,3.0830705e-07,4.652968e-09,6.287156e-07,5.778022e-07,-8.7344844e-08,-6.2535754e-08,1.3218522e-07,1.1785257e-06,-3.1131646e-07,3.378617e-07,2.359314e-07,4.944106e-07,1.5392061e-07,3.4354082e-07,3.4175923e-07,4.120942e-07,6.5307646e-08,2.6618402e-08,6.7138086e-07,5.8396697e-08,-2.0720879e-07,-1.2634762e-07,1.0720983e-06,-4.8171966e-08,1.2455497e-07,7.2196207e-07,-1.0872915e-06,-7.3893216e-07,2.1962921e-07,4.2924182e-07,-2.9265577e-08,-4.0720312e-08,1.6877229e-08,-1.08778835e-08,-2.666603e-08,-8.162274e-09,-4.033898e-08,-1.5408098e-08,1.0114392e-07,-8.844172e-09,2.955185e-07,-8.708184e-09,-1.7985549e-08,1.3554704e-07,4.0279033e-08,-8.642682e-08,3.4526103e-08,4.4262226e-08,9.9658966e-09,2.6834503e-08,1.5382788e-09,-5.0348056e-08,4.244045e-08,-6.960672e-10,-1.3426279e-07,9.791881e-08,-1.31760824e-08,-2.8559356e-08,8.6008264e-08,3.3220587e-08,-4.0625686e-08,1.8264764e-08,-2.7027731e-08,6.2437685e-08,-5.6501126e-08,-9.2641805e-08,1.3332855e-08,-2.721927e-07,4.1652743e-08,3.738908e-08,5.2651036e-08,8.762661e-08,-1.7377016e-07,5.3566325e-08,-6.449478e-08,1.1881802e-08,-8.5198856e-08,-4.9279013e-08,6.904088e-08,4.784895e-08,2.3763683e-08,-3.205016e-08,-1.02112736e-07,-8.385718e-08,2.7054892e-08,-3.809612e-08,9.1950724e-08,8.511496e-08,-2.4578034e-08,1.3471463e-07,3.8890917e-09,-9.756988e-08,8.281302e-08,-6.964944e-08,4.0328565e-08,9.890177e-09,-9.054688e-08,8.658419e-08,3.3148496e-07,8.906312e-08,4.2764725e-07,1.5319816e-07,-1.4009525e-07,-3.9851447e-09,9.339378e-07,2.8543235e-07,-3.7866494e-07,3.2219893e-07,1.9496703e-07,-3.974377e-07,2.7351865e-07,-2.3084915e-07,8.9291795e-08,-7.236959e-08,-1.9039702e-07,1.0497345e-07,9.4206285e-08,9.0885166e-08,3.5144467e-07,-2.7144137e-07,-3.0492856e-07,5.0375706e-07,7.652074e-08,-2.6864046e-07,-1.3477758e-07,-6.9451835e-07,-2.3009571e-07,-1.254454e-07,-2.9970315e-07,-1.2253996e-07,-1.8199964e-07,-6.301596e-07,7.301156e-09,-7.9323996e-08,-1.9624359e-08,3.0198146e-07,-3.203436e-07,1.5053992e-08,1.15176135e-08,1.0025117e-07,-5.3078338e-08,-3.1289284e-07,4.0103578e-07,2.9366043e-07,1.4588777e-07,-1.47773225e-08,2.0082368e-07,-1.1325711e-07,5.5229677e-08,-6.908182e-08,-2.610022e-07,-1.4559356e-07,5.644349e-07,-1.8801873e-07,-1.0375027e-07,-2.5052285e-07,2.3135551e-07,1.6680454e-07,1.6109362e-07,-8.9846175e-08,2.0794639e-07,1.6578728e-06,2.9158437e-07,6.5000705e-07,-1.2207163e-08,1.8351714e-07,8.109053e-07,3.3475047e-07,-3.548319e-07,6.9944e-07,6.867824e-07,-1.969612e-07,1.4527177e-06,-2.438998e-07,3.6914554e-07,-1.3763062e-07,1.0880035e-06,1.5330686e-06,6.030729e-07,5.287313e-07,1.649352e-06,2.1623177e-07,-2.0726381e-07,1.0190296e-06,2.894727e-07,-2.7457123e-08,-2.2526812e-07,1.3723583e-06,4.224566e-07,2.1731795e-07,1.3492678e-06,8.088948e-07,1.4323922e-06,2.504613e-07,1.574854e-06,2.3348147e-07,2.0783436e-06,8.2541777e-07,-4.191433e-07,6.2611656e-07,7.0580575e-07,3.3642067e-07,1.0042279e-06,1.4546488e-06,5.9386554e-07,1.0540463e-06,1.7572611e-07,1.0901252e-06,-3.1260495e-07,1.5664002e-06,4.3005688e-08,-1.0999486e-07,6.626574e-07,4.7533277e-08,1.0376239e-06,3.5867959e-07,3.654709e-07,1.1901833e-06,-4.2611808e-07,6.3078704e-07,1.6482127e-06,3.5604342e-07,-6.26441e-07,8.179422e-07
5.291124e-07,-2.0706096e-08,8.5435266e-07,-2.0031402e-07,2.914012e-07,-3.1609227e-07,4.403913e-07,3.9679286e-08,1.193464e-06,3.7448532e-07,8.133912e-07,5.5099486e-07,4.2273484e-07,-2.253115e-07,2.8872978e-07,-6.0155564e-08,7.0390136e-08,5.5495025e-07,2.6318034e-07,-1.9567617e-07,9.6534045e-08,2.776906e-07,4.304291e-08,1.1555485e-06,2.2209498e-08,4.5471484e-07,3.3124059e-07,3.2386905e-07,4.4556703e-07,-3.640774e-08,2.034489e-07,1.2106815e-07,3.7916615e-07,4.04454e-07,1.9082395e-07,-7.3864146e-07,-2.3658525e-07,5.700363e-07,9.4449115e-07,1.0226772e-06,2.705386e-07,-2.0062068e-09,-2.4409866e-07,8.2379515e-08,2.677908e-07,-3.674247e-07,2.8314298e-07,7.8884426e-08,2.7440908e-07,2.2966816e-07,7.384273e-07,2.3360957e-07,3.0243535e-07,-1.0474676e-07,3.671781e-07,-2.0951123e-07,-1.6843877e-09,6.114723e-07,2.44721e-07,-7.0145454e-08,-1.327775e-07,-2.3731074e-07,4.538052e-07,3.0410138e-07,3.0291017e-07,-4.239388e-08,1.3708555e-07,-2.2908367e-08,4.0021496e-07,-1.0199911e-07,1.4039983e-07,-1.2407004e-07,1.2132226e-07,5.6587896e-07,2.573586e-07,4.9769113e-07,5.844793e-07,-5.0041905e-08,1.9160514e-07,4.7462688e-08,2.6110698e-07,3.7218868e-07,3.8450895e-07,1.6345506e-07,3.0325472e-07,1.5167798e-07,2.0446684e-07,4.7518208e-07,-7.2544864e-08,1.5041758e-07,2.817676e-07,2.3937085e-07,2.9328942e-07,3.4495292e-07,1.8630749e-07,4.765363e-08,3.9663558e-07,2.9423003e-07,1.543472e-07,1.4925777e-07,-2.2399293e-08,5.2615036e-07,8.5106325e-07,6.8514936e-07,1.182176e-07,1.3305375e-07,-1.8336542e-07,1.3672039e-07,1.5309737e-07,-2.6837952e-07,6.851998e-08,8.6896506e-08,1.5862e-07,2.309236e-07,4.4504353e-07,2.009071e-08,4.3471155e-07,3.2663323e-08,2.1948743e-07,1.7545947e-08,-4.9513567e-09,9.368063e-08,3.0868563e-07,1.15687016e-07,4.9594217e-08,-2.7181326e-07,2.590776e-07,2.7141326e-07,2.4281967e-06,1.3678916e-06,1.639205e-06,1.5292285e-06,2.3740777e-06,6.851077e-07,1.1306778e-06,6.696864e-07,1.301604e-06,9.574351e-07,-1.7586796e-06,2.7040205e-06,1.9502545e-06,-1.6646207e-07,2.1841904e-06,3.0266895e-07,7.7664015e-07,-2.4717444e-06,8.021951e-07,-1.2877181e-06,1.1348486e-06,1.6250053e-06,1.6884053e-06,-2.0830255e-06,2.6447773e-07,2.3982673e-06,-7.5710955e-07,-1.0613121e-06,-1.1359343e-06,-1.828101e-06,-2.7097997e-07,-8.21383e-07,-1.5195756e-06,-1.2886549e-06,-1.294496e-06,-1.9783702e-06,8.8104076e-07,1.1660363e-06,1.6220166e-06,-8.2743e-07,5.853542e-07,-7.739595e-07,3.175918e-07,1.8601461e-06,5.824812e-07,-9.3063954e-07,4.341732e-06,-1.1467014e-06,2.1247429e-06,-1.4740782e-06,2.9519226e-06,-1.2191049e-06,1.6793718e-06,2.3039307e-07,-3.7688525e-07,-5.685025e-07,7.8821483e-07,1.3921466e-06,-1.06073784e-07,-7.9132485e-07,-7.1703397e-07,1.141854e-06,-6.524466e-07,6.782963e-07,4.1185265e-07,7.1936677e-07,2.1589412e-07,1.1535966e-06,5.98487e-08,3.3691308e-09,-4.4983705e-07,-1.2132386e-07,1.471537e-06,7.34231e-07,6.4275395e-07,-1.1928677e-07,5.1244655e-07,-1.2473726e-07,-4.9184956e-07,-2.2886546e-09,2.1190627e-07,8.015563e-07,6.94333e-07,1.6743353e-07,4.42153e-07,3.0547818e-07,6.9204376e-08,1.0812099e-06,-2.6916882e-07,2.3922948e-07,3.1806195e-07,7.825878e-08,-2.4827654e-07,-2.592039e-07,4.7159222e-07,1.0619713e-07,4.8654096e-07,6.7941954e-07,4.5415092e-07,6.10585e-07,1.3315886e-07,7.0928894e-07,9.730548e-08,1.1091108e-06,7.66802e-07,2.2868204e-07,-2.1560236e-07,4.911854e-07,1.0471706e-07,-2.5888906e-07,-3.5420462e-07,-1.464146e-07,-4.1200641e-07,9.0987115e-08,2.5553317e-07,6.998089e-08,3.6008896e-07,-3.912679e-07,1.0586845e-07,-4.6266604e-07,1.15430275e-07,1.8475487e-07,-1.8413004e-07,3.2539052e-07,-4.03525e-07,1.7735776e-07,-5.3986844e-07,2.5308688e-07
9.616226e-07,1.0552412e-06,5.954245e-06,8.0074744e-07,3.0776658e-07,4.6218713e-07,3.9343786e-06,1.912191e-06,2.9240093e-06,3.2295662e-07,1.0846907e-06,3.8904964e-06,5.7782074e-07,-1.8097563e-07,1.6362414e-06,6.8783214e-07,5.5172194e-07,1.302864e-06,1.3284402e-06,3.5391915e-07,1.1704471e-06,1.0057074e-06,1.1584515e-06,3.2861628e-06,2.467263e-06,2.403961e-06,1.9513316e-06,1.3311392e-06,5.693801e-07,7.1667904e-07,1.1618191e-06,9.3446647e-07,1.657625e-06,8.9365886e-07,1.7489614e-06,4.8864052e-08,1.6052144e-07,1.0447754e-06,1.5559367e-06,5.1280067e-06,1.7909875e-07,2.420945e-06,1.8943829e-06,2.5296554e-06,1.6008995e-06,1.1055164e-06,1.0535033e-06,2.0973978e-06,4.649507e-07,6.2850006e-07,3.4226794e-06,1.2470097e-06,3.2013276e-08,3.9569184e-07,4.3098285e-06,-1.1943705e-06,1.495321e-06,1.4536837e-06,-1.8017141e-07,7.448486e-08,-2.2219297e-08,1.8455423e-06,2.9722185e-07,1.9038396e-07,4.4417948e-07,7.2888383e-07,1.0369489e-06,6.7812164e-07,1.4449395e-07,8.246276e-08,1.5824795e-06,4.333016e-07,6.3435795e-07,4.660771e-08,5.5132283e-08,1.6247506e-06,7.4827483e-07,-4.3647117e-07,3.5790086e-07,8.6635464e-07,6.196575e-07,7.1796325e-07,5.891062e-07,2.53643e-08,7.0792174e-07,3.0494104e-07,5.9077166e-07,3.3669423e-07,-9.295279e-08,6.3775445e-07,5.186349e-07,1.1537408e-06,1.9118679e-07,5.937873e-07,1.3192731e-07,1.8773352e-07,1.2636227e-06,1.2279597e-07,-6.712311e-08,1.8575767e-07,4.1914568e-08,7.446168e-07,1.0631959e-06,1.2213018e-06,-3.3170164e-08,1.1515306e-06,7.645587e-07,7.5030164e-07,5.8849446e-07,-1.8717225e-07,-1.6159825e-07,9.981774e-07,3.2455353e-07,5.168151e-07,7.324783e-07,6.2592227e-07,1.0576256e-06,3.5297973e-07,8.2833293e-07,-3.7240562e-07,3.751183e-07,-8.441835e-08,7.1388604e-07,8.424473e-07,-8.190361e-07,3.805188e-07,3.295804e-07,3.9623302e-07,2.6855785e-06,3.7154973e-07,2.5807155e-06,1.9943466e-06,3.9689853e-06,7.7680727e-07,1.0577327e-06,1.1871408e-06,1.4883464e-06,3.273687e-06,-2.181678e-06,3.6008994e-06,2.2175905e-06,-1.394349e-06,4.0873556e-06,-5.0446005e-08,9.076377e-07,-3.8630737e-06,7.6629783e-07,-1.7893663e-06,2.6550747e-06,1.312137e-06,2.7213066e-06,-1.3973553e-06,-2.8195416e-06,3.5059375e-06,-1.3904419e-06,-1.9238228e-06,-1.9972579e-06,-2.2456713e-06,-5.100213e-07,1.1359659e-06,-2.6996759e-06,-1.8990346e-06,-2.167841e-06,-2.436073e-06,6.4809296e-07,1.6636939e-06,2.4646538e-06,-2.592626e-07,-8.0326566e-07,-7.8922017e-07,-4.335196e-07,2.278378e-06,4.33844e-07,-9.574251e-07,8.142565e-06,5.5477386e-07,3.9609813e-06,-1.3831027e-06,2.8745435e-06,-1.2966975e-06,1.5546427e-06,-6.84437e-07,-1.8249037e-07,-2.7621168e-06,1.5446976e-06,3.4511876e-07,-4.039253e-07,-2.5303493e-07,-1.9274985e-06,9.4457414e-07,-1.0104064e-06,6.138228e-07,8.52304e-07,5.5287283e-06,3.08598e-06,5.711937e-06,2.0225855e-06,1.6769934e-06,4.0470227e-06,1.82775e-06,1.16690046e-07,4.7855606e-06,3.4824393e-06,1.5244999e-06,6.807746e-06,4.380072e-07,1.8806483e-06,2.7609512e-06,5.6780295e-06,6.33305e-06,4.2488073e-06,2.844877e-06,5.5612695e-06,2.9053874e-06,1.1397983e-06,4.7596122e-06,1.6410206e-06,2.9628482e-06,1.7639686e-06,6.444537e-06,1.0845993e-07,1.0717879e-06,2.4523804e-06,2.41905e-06,4.691736e-06,2.2394706e-06,3.5381302e-06,1.7890097e-06,5.928361e-06,4.2090646e-06,1.2656193e-06,4.260575e-06,1.5283492e-06,4.902155e-06,6.256058e-06,7.0393835e-06,4.310481e-06,3.697237e-06,2.2401503e-07,5.3635467e-06,1.8223724e-07,7.5747816e-06,3.5326664e-06,2.0549558e-06,5.2530086e-06,3.0043636e-06,4.2625325e-06,-1.0939792e-06,2.5224656e-06,6.5003355e-06,1.1130719e-06,7.0828396e-06,2.977711e-06,3.623833e-06,-1.6284082e-07,3.917775e-06
-4.2716078e-07,-2.8014372e-07,-2.9836133e-07,-1.1767119e-06,2.7373224e-07,2.1148026e-07,-9.301684e-08,-1.2758437e-06,1.8858273e-06,6.278972e-07,-4.8255254e-07,4.020243e-07,-5.528693e-07,-7.7665604e-08,-1.5974098e-07,3.4407006e-07,-4.4681468e-07,3.1367415e-07,2.0987001e-07,3.8414296e-07,3.5441818e-07,-3.4943668e-07,5.1039467e-07,6.735074e-07,1.7425717e-07,2.6094176e-07,4.8605256e-07,-1.9956288e-07,7.190539e-07,1.1461079e-06,4.0311966e-07,4.6969086e-07,-3.967609e-07,-2.4887655e-07,1.0115876e-06,1.6073309e-06,1.551137e-06,-1.9554989e-09,-1.0134888e-06,-6.2736683e-07,6.326943e-07,-5.952728e-07,-1.3696402e-07,-2.2605653e-07,4.2486496e-07,6.862508e-08,6.383688e-08,-3.1832815e-07,-5.736198e-07,3.3455268e-07,4.2472357e-07,-2.0139623e-07,-4.8991097e-08,-4.3787995e-07,8.497912e-08,1.9220184e-07,2.9684608e-07,2.636243e-06,-2.8550776e-06,-1.2648444e-06,9.72326e-07,2.19605e-07,9.3447926e-07,1.3583985e-07,1.8113924e-07,-7.7769715e-07,-5.1432885e-08,-6.648528e-07,3.9075192e-07,-9.490192e-08,-8.884557e-08,2.9850128e-08,-9.125509e-08,-8.257487e-09,-3.4705277e-08,2.3494547e-07,-3.5623447e-07,2.7883104e-07,-3.2133795e-07,-4.7060453e-08,-1.1992708e-07,3.837123e-07,-4.6837638e-08,1.2472239e-07,4.2073616e-08,1.8337829e-07,1.0000441e-07,4.4933302e-07,2.031353e-07,2.8738813e-07,3.9093962e-07,-1.8474417e-07,-1.6109612e-07,8.6654074e-07,8.654577e-09,-1.396644e-07,-3.561931e-08,-6.0142085e-08,1.087484e-08,2.0853459e-07,-4.6316825e-07,-5.1827436e-07,-4.719676e-07,-1.9352791e-07,5.6998086e-08,-1.12740736e-07,5.709134e-08,1.0145198e-07,-1.16548105e-08,4.2099774e-08,2.3494144e-07,-1.727521e-07,-5.2796068e-08,-3.3627984e-08,3.6385373e-08,-5.075352e-08,-1.7323438e-07,-7.185439e-07,4.8561765e-07,1.0427674e-07,6.8503404e-08,6.014199e-07,-1.419531e-07,6.725289e-07,3.4462732e-07,-6.9069465e-08,-3.274103e-07,-6.368555e-08,-1.8451095e-07,7.995219e-09,-5.4136535e-09,1.1009904e-07,1.6419509e-07,-1.6695546e-07,4.171903e-08,-2.0746054e-07,1.8520375e-06,4.02963e-10,-3.844686e-07,2.0058707e-08,3.1908644e-07,-1.7261458e-07,1.5950157e-07,8.870752e-08,-4.1720625e-08,-1.2980394e-06,-6.158871e-08,1.6435001e-07,-7.247552e-07,-3.067538e-07,-9.127677e-08,2.2708214e-07,-1.7383793e-07,-6.3423414e-08,3.1228083e-08,4.9871517e-08,-4.136079e-07,-3.4980465e-07,-4.3067253e-08,-5.250631e-07,-1.1508183e-07,1.4953751e-07,-2.6652424e-07,4.63826e-07,4.9221273e-07,2.293539e-07,-3.0042142e-07,7.0374205e-07,8.820547e-08,1.1871684e-07,-1.9502318e-07,4.4682142e-08,3.034358e-07,-2.171992e-07,-1.3786948e-07,-2.3019837e-08,-5.4717674e-07,-2.1452279e-07,1.0734583e-07,3.11421e-08,3.463493e-07,-4.0440838e-07,3.414331e-07,6.0843604e-08,-2.870081e-07,2.9013123e-07,-2.1371545e-07,-1.5284908e-07,5.158523e-07,4.0209777e-08,-2.4596767e-07,2.1534844e-07,4.7668865e-07,1.7612491e-06,8.627789e-07,-2.3373252e-07,8.181458e-07,4.568734e-07,1.3477302e-06,8.6608577e-07,4.4394125e-07,1.289078e-06,3.5110418e-08,3.8970535e-07,1.9342481e-07,1.0103895e-06,8.649991e-07,3.01799e-07,-2.9412766e-07,1.212877e-06,1.3462327e-06,1.796137e-06,1.17107e-06,8.252397e-07,9.882815e-07,1.9899871e-06,1.1100959e-06,6.3576636e-07,-2.4044567e-08,9.904812e-07,6.1258805e-07,-7.8549465e-07,1.9042501e-06,1.3329594e-06,1.5834306e-06,9.3947494e-07,1.9476695e-06,1.9233944e-06,4.299992e-07,1.5032441e-07,1.7672164e-07,1.4355089e-06,1.4308087e-06,-2.2867708e-07,5.728101e-07,3.5711952e-07,3.1992943e-07,9.396296e-07,1.3164613e-06,8.172543e-07,1.7445817e-07,1.8423269e-07,3.3370742e-07,5.970905e-07,7.3289954e-07,1.9613101e-07,7.8307386e-07,-4.6454435e-08,4.4256112e-07,1.1867432e-06,9.858181e-08,5.87641e-07,1.0650615e-06,8.158942e-07,-2.595022e-07,8.155884e-07
1.0333903e-07,5.6791414e-08,6.582768e-07,8.667571e-08,1.2350621e-07,1.4376528e-07,6.447692e-07,4.032361e-07,9.866734e-07,1.4440286e-07,-3.341645e-08,5.3458484e-07,6.249201e-08,2.4620962e-07,1.12925065e-07,3.3203953e-08,1.240735e-07,-1.3480151e-07,1.12595636e-07,8.437723e-08,1.3302197e-07,5.5735736e-08,1.8149159e-08,1.5015729e-07,5.0688647e-07,3.980445e-07,5.1225686e-07,-6.477306e-08,-1.7304326e-07,-9.2678226e-07,7.1005964e-08,-1.0207037e-07,1.300482e-07,4.3111203e-08,-3.873828e-08,9.737076e-07,-1.16493524e-07,9.474231e-08,-9.713463e-08,5.3370906e-07,-3.3253838e-07,3.3977312e-07,1.3719306e-07,4.465241e-07,3.1979184e-07,2.9759056e-07,8.927772e-08,6.381704e-08,-5.191509e-08,-2.0423299e-07,6.347968e-07,-3.4785092e-08,3.098338e-07,1.5306573e-07,9.375972e-07,-3.0560227e-07,1.5718621e-07,-3.241952e-08,3.5758575e-07,3.8006766e-07,3.5928593e-08,3.0147734e-07,-3.1461173e-07,-3.373099e-08,9.537606e-09,5.997199e-08,-1.2816358e-07,6.663927e-08,-1.06061336e-07,-7.713916e-09,6.6719906e-08,4.4493145e-08,6.072221e-08,-5.343228e-10,-3.685928e-08,-2.0501442e-08,-3.1478212e-08,-6.1626515e-08,2.7580764e-09,1.1003104e-08,9.650723e-09,2.2876373e-08,2.0326766e-08,-7.751987e-09,-3.147137e-08,-1.740054e-08,-1.7670749e-07,-2.4025405e-07,-7.576219e-08,4.351967e-08,-5.2695018e-08,-4.2241346e-08,-1.7867722e-08,-5.4144704e-07,1.0923069e-08,-5.878292e-08,5.6408954e-08,3.7095543e-08,-1.1526887e-07,1.7169994e-07,-1.5030892e-07,-4.1428088e-08,-3.6471363e-08,-1.3292312e-09,-1.4676795e-07,1.0775263e-08,2.4496138e-09,5.1827953e-08,1.3245182e-07,-1.5264305e-08,-1.0380902e-07,-2.4094138e-08,9.565602e-09,4.4480622e-08,6.431377e-08,-3.2712553e-08,4.119297e-08,-4.2505124e-09,1.554957e-07,-1.8033805e-07,1.7279117e-08,-2.2136213e-07,5.912229e-09,7.526329e-08,-9.459362e-08,1.0441211e-08,1.886463e-08,2.2271873e-08,-3.8340374e-07,-1.48669415e-08,2.552987e-07,-1.2931035e-07,4.707614e-07,1.777025e-07,-2.9845074e-07,-4.832625e-08,-3.7560415e-07,6.0316336e-07,-4.7787034e-07,3.4272756e-07,-1.3408624e-07,1.8797806e-08,-2.8844462e-07,-1.0963417e-06,3.0791043e-08,9.571444e-08,-2.4391267e-07,2.5044451e-07,2.0923036e-07,-7.473615e-07,1.5265844e-07,2.8108872e-07,-1.9793659e-07,1.4441856e-07,2.5613082e-07,-9.102507e-08,-4.1137778e-07,-1.1778114e-06,6.468609e-08,-4.1341383e-07,6.650789e-08,-1.05942064e-07,4.3704915e-09,5.3428425e-07,5.7520822e-08,-3.1656788e-07,1.9154392e-08,5.038546e-07,-1.06657694e-07,2.6875742e-07,2.3003213e-07,-3.2588608e-07,-1.3473245e-07,-1.1414862e-07,2.2233016e-07,2.4673234e-08,-7.526869e-08,8.488105e-08,7.910421e-08,-1.737481e-07,-5.503074e-08,8.6871434e-09,-4.9526574e-07,-2.4350658e-07,-3.5193196e-08,1.1668023e-07,-8.938146e-07,1.9760301e-07,-3.4370066e-07,-3.1126802e-08,-1.3193542e-07,-3.7606817e-08,3.5903176e-07,7.210508e-07,5.766972e-07,1.0661327e-06,3.208876e-07,2.7025862e-07,7.178172e-07,4.6360597e-07,3.4250294e-07,9.989335e-07,7.589688e-07,4.128397e-07,1.0901804e-06,3.8138472e-07,2.828636e-07,7.3710834e-07,8.6992526e-07,1.328467e-06,6.1002544e-07,6.1844474e-07,6.115776e-07,3.5839705e-07,2.2279947e-07,5.961821e-07,6.9963403e-07,5.123697e-07,4.937365e-07,8.726762e-07,-3.992135e-08,3.9401918e-08,6.4019855e-07,1.6076758e-07,5.6868026e-07,5.7524045e-07,2.706745e-07,3.1805104e-07,1.1757134e-06,6.76555e-07,-1.00721316e-07,6.175118e-07,1.8876275e-07,7.528709e-07,9.082847e-07,1.0608285e-06,6.0588724e-07,7.137199e-07,2.3572723e-07,9.820216e-07,2.4418773e-07,1.2324941e-06,7.875682e-07,-3.2532096e-08,6.986694e-07,6.815818e-07,9.196891e-07,-9.04364e-08,6.7221225e-07,8.441997e-07,5.515714e-07,1.3175353e-06,5.648757e-07,5.345817e-07,1.7416752e-09,6.4216795e-07
-8.062416e-06,-1.2047823e-05,-6.380421e-06,-1.755931e-05,3.3442354e-06,-1.19489105e-05,-7.731339e-06,-1.0328126e-05,9.539751e-07,-7.846973e-06,-3.2565613e-06,-4.5778843e-06,-7.302911e-06,-6.826831e-07,-8.07239e-06,-4.9968946e-07,-2.7606677e-06,-5.9895065e-06,-4.6449636e-06,-5.6380263e-06,-4.906771e-06,-9.274021e-06,-7.4107697e-06,-1.3660906e-05,-3.0729243e-06,-9.060088e-06,-6.0146203e-06,-3.7204427e-06,-4.04762e-06,2.006845e-07,-1.2527315e-05,-1.4820241e-05,-1.352993e-05,-8.704951e-06,-3.559988e-06,-6.067266e-06,-5.453765e-06,-9.161433e-06,-1.0826257e-05,-1.648597e-05,-1.16402e-06,-9.505795e-06,-2.177037e-07,-9.978323e-06,-2.43399e-06,3.0748115e-06,-3.88224e-06,-9.141879e-06,-1.0186465e-05,-5.1862858e-06,-7.798726e-06,-5.031281e-06,-6.6847474e-06,-5.7596862e-06,-7.0565625e-06,-7.2576387e-07,-4.317336e-07,-6.063997e-06,5.6287263e-08,-7.2517682e-06,-3.2126693e-06,7.772613e-08,-2.5420863e-06,-4.6221758e-06,-5.8953337e-06,-1.0455977e-05,-2.5668157e-06,-1.1495069e-05,-1.02472086e-07,-5.8286146e-06,-5.0023905e-06,-4.290172e-06,-6.596986e-08,-6.894301e-06,-3.6439928e-07,-3.8102394e-06,-5.7944717e-06,-3.122044e-07,-4.2623287e-06,-1.6537902e-06,-3.7542204e-06,-3.475029e-06,-2.1170217e-06,-3.9673446e-06,-2.3329549e-06,-2.9264395e-06,-4.4647386e-06,-6.186174e-07,-1.04191436e-07,-5.592893e-06,-4.11305e-06,-3.2566356e-06,-1.0010199e-06,4.5486354e-07,-3.782799e-07,-9.082092e-06,-8.961311e-06,-2.3053199e-06,-9.162258e-08,-4.1230355e-06,-7.1512954e-07,-6.5528566e-06,-8.861524e-06,-1.0121089e-05,-5.3903113e-07,-3.0103156e-06,2.8820455e-08,-2.6788946e-06,-1.3382294e-06,1.3069678e-06,-2.2811917e-06,-4.759034e-06,-8.112003e-06,-2.0840553e-06,-3.3192507e-06,-2.8946824e-06,-4.9761666e-06,-7.0336555e-06,-4.2271668e-06,-1.273494e-06,2.62612e-07,-5.724515e-07,-2.7889664e-06,-3.4322982e-06,-4.0613918e-07,-1.0469415e-06,-1.622276e-06,-3.0850517e-06,-1.1133009e-05,-5.3308986e-06,-9.577293e-06,-1.2000002e-05,-1.2018952e-06,3.6669971e-06,-5.405989e-06,-5.576284e-06,1.0443684e-06,-1.1540767e-05,2.1311762e-06,-8.161202e-06,-5.331099e-06,-2.4854455e-07,-7.708178e-06,6.2720744e-08,-4.5171242e-07,5.7867314e-06,-2.1700416e-06,8.332849e-06,-3.6568576e-06,-5.925635e-06,-9.063533e-06,1.3478149e-05,7.68118e-06,-4.342335e-06,1.0193557e-05,6.8943646e-06,2.2449462e-06,2.0733194e-06,2.4017423e-05,-1.3378322e-05,9.390197e-06,1.0028933e-05,2.489641e-06,1.3203368e-05,-2.4952578e-07,-5.2557434e-06,-1.0557949e-05,1.5012927e-05,8.379402e-09,3.7490058e-06,-8.520972e-07,-1.3131561e-05,-1.4944933e-06,-7.305606e-07,-3.0354224e-05,2.4237438e-06,-1.29852115e-05,2.4736578e-06,-3.929431e-06,1.4513869e-06,-2.1561223e-06,2.14402e-08,-3.267314e-06,6.51674e-07,4.0314453e-07,-1.6648494e-06,5.5524526e-07,-8.3398504e-08,1.9982099e-07,-2.4622893e-06,1.767243e-06,-1.361224e-06,-5.3728536e-06,-1.243399e-05,-1.2185688e-05,-1.2946148e-05,1.4450754e-06,-9.482495e-06,-1.2790841e-05,-1.0075641e-05,-3.208021e-06,-1.3948929e-05,-1.2825951e-05,-7.879435e-06,-1.1802309e-05,-2.3320774e-07,-8.5932315e-06,-3.7337315e-06,-6.4983083e-06,-6.012604e-06,-3.7189031e-06,-4.9131822e-06,-3.9204515e-06,-5.8876385e-06,-1.3788049e-05,-1.0543601e-05,-1.3235135e-06,-1.2145534e-05,-9.326115e-06,-7.971711e-06,-2.057623e-06,-1.1714825e-05,-9.543277e-06,-1.7438428e-05,-9.938228e-06,-7.952579e-06,-1.8650387e-06,-1.244059e-05,-7.091041e-06,-1.0759923e-05,-1.4167965e-05,-1.5479174e-05,-6.2845265e-07,-7.2669195e-06,-1.8638791e-06,-6.253922e-06,-4.4276626e-06,2.3891866e-06,-3.8770922e-06,-1.8639286e-05,-7.902567e-06,-4.10957e-06,-9.567772e-06,-4.2307706e-06,-9.968714e-06,-8.197851e-06,-6.792481e-06,-1.8720704e-06,-2.186518e-06,-5.737442e-06,-4.6738874e-06,-4.220083e-06,-5.888548e-06,-1.5859241e-06,-5.2070213e-06,-5.3414988e-06
-8.54038e-07,-4.3818488e-07,-1.0233525e-06,-1.7703892e-06,8.5758194e-07,9.138458e-08,-9.875846e-07,8.793137e-08,9.0512754e-07,-1.2277968e-07,-4.433075e-07,-6.966417e-07,-1.662871e-06,2.5511946e-07,7.079802e-08,9.434963e-07,7.086034e-07,-2.1964905e-07,-1.9833567e-07,1.3469207e-07,1.2217369e-06,-9.3581775e-07,5.407778e-07,4.9034094e-07,-3.3040268e-07,-6.2395117e-07,-7.946764e-07,-4.420251e-07,6.5581366e-07,6.11741e-07,2.5252689e-09,1.12325665e-07,-1.0887107e-06,-1.8330047e-07,1.2589226e-06,3.104154e-07,6.410813e-07,-3.325972e-07,-9.751757e-07,-1.5785106e-06,5.2898486e-07,-2.689818e-07,1.2113986e-07,2.908033e-07,-5.058842e-07,2.5090037e-07,6.5332586e-08,-6.4816084e-07,-8.587434e-07,1.566987e-06,-7.4860077e-07,2.2327168e-07,-1.0418996e-06,2.1716784e-07,-1.290811e-06,6.9825626e-07,6.1728275e-07,9.403825e-07,-2.2874478e-06,-2.4456695e-06,2.0543183e-07,1.8151648e-07,8.44534e-07,-4.372894e-07,-1.838832e-07,8.2837914e-08,2.665331e-09,-2.3954613e-08,9.3859273e-07,2.2963746e-08,-1.9540497e-07,6.746965e-07,1.2246306e-07,-6.082277e-07,-7.286946e-08,-3.1886046e-08,-4.8554966e-07,6.3999437e-07,-3.705485e-07,7.055837e-07,-1.0998933e-07,-1.1789044e-07,-3.8761561e-07,6.262272e-08,8.6107565e-07,-9.109385e-08,2.1935634e-07,8.451832e-07,5.3771225e-07,-8.045524e-08,-1.2277499e-07,-2.2587496e-07,1.2459277e-07,6.962383e-07,7.5357285e-09,1.17265415e-07,-6.321951e-07,-4.7652713e-07,7.4972526e-08,-1.2817581e-07,-1.746099e-08,-5.080303e-07,-8.9454113e-07,-4.886727e-07,2.8882866e-07,2.6645213e-07,1.901605e-07,6.374674e-07,-5.3561473e-07,4.6953065e-07,1.0553207e-06,-9.233014e-08,-5.011676e-07,3.3752573e-07,-7.097728e-08,3.009811e-07,-3.4811734e-07,-2.509083e-07,-2.2355776e-07,1.0208008e-06,5.4245754e-07,7.694563e-07,-4.3782822e-07,-4.4366953e-07,9.309642e-08,-6.148717e-10,7.9977e-08,-1.6558701e-07,-5.4546604e-07,8.647467e-07,4.8694847e-07,-1.4502916e-08,-3.0183367e-07,-2.2410453e-07,1.4653978e-08,8.110335e-07,-1.2966149e-07,-1.751665e-06,5.280249e-07,-5.737255e-07,-5.694664e-07,5.18025e-07,-3.8776324e-07,7.029697e-07,-1.8435257e-07,8.30922e-07,-2.1988772e-07,7.075553e-07,3.7987584e-07,-7.4459854e-07,-7.00515e-08,-7.744379e-08,1.4171783e-07,-8.3227326e-07,9.0710444e-07,5.3572325e-07,5.1133344e-07,7.4116434e-07,-2.799273e-07,-1.8938596e-07,5.7943953e-07,5.643409e-07,-1.0275885e-07,8.6757495e-08,-4.0573306e-07,-7.2142717e-07,-8.3529363e-07,4.0813657e-07,1.6321111e-06,1.4920204e-07,4.4031984e-07,7.175706e-08,-2.6769982e-07,-1.3758198e-07,-6.1670653e-07,-1.0585251e-07,-1.1933954e-06,1.3773567e-07,-9.678355e-07,4.2565011e-07,-2.721461e-07,4.6428994e-08,-2.8473997e-07,-1.9461122e-06,7.50839e-09,-1.5606186e-06,-4.668337e-07,9.448792e-07,1.2540904e-06,-1.1888005e-06,5.9222435e-07,-5.257832e-07,-5.7738225e-07,1.6615459e-06,-1.450779e-06,-2.8419547e-06,1.17631e-06,-4.8054652e-08,-1.3977458e-07,1.1679424e-07,2.8853242e-06,-6.0202564e-07,-3.5862438e-06,-1.9103345e-07,-1.1810364e-06,-2.2988289e-07,1.0909657e-06,-2.2744316e-06,-2.3303441e-07,-1.4689762e-06,-2.9185635e-06,-2.0821258e-06,-6.4620065e-07,-1.4032098e-06,9.439998e-07,-1.5186331e-06,-1.4834891e-06,-3.405167e-06,-3.1038228e-06,-2.1047761e-07,3.4152433e-06,4.7294827e-07,-3.076994e-07,9.385874e-07,7.4659374e-07,-2.8326747e-06,1.953083e-06,6.6726955e-07,3.3273565e-07,-1.7361727e-06,-3.1572342e-06,-2.7373935e-06,-1.2375952e-07,-3.9342235e-06,-2.372972e-06,-1.1294488e-06,-2.7116107e-06,1.6702769e-06,2.4410922e-06,5.3102042e-08,-9.816957e-07,-2.5088375e-06,-2.423778e-06,-7.5402187e-07,-4.1808785e-06,-1.946618e-06,-2.259027e-06,2.9146554e-06,-3.7644884e-07,-3.472582e-07,-2.0602831e-06,-5.3665985e-06,8.037616e-07,-1.4262368e-06,-2.4691165e-06,-2.0702255e-06
4.5763738e-07,-3.2893703e-07,2.656779e-06,3.6335868e-07,-1.1494548e-06,-2.0290959e-07,9.813234e-07,2.788161e-07,3.4942155e-07,9.654944e-08,3.582702e-07,3.3487873e-07,3.0113944e-07,-2.1413508e-07,1.0032613e-06,2.0883363e-07,2.6734682e-07,5.477514e-07,-7.535872e-08,-7.8849337e-07,-6.1066356e-07,3.367603e-09,-1.0477197e-06,-3.24474e-06,-2.2024386e-07,-4.2303247e-07,-1.3390886e-06,1.357445e-06,3.3010042e-07,-4.151335e-06,-4.205126e-07,-3.1182356e-06,-1.1598912e-07,1.3615889e-07,-1.7823363e-06,-1.7036792e-06,5.456032e-07,-6.7861706e-08,6.5126187e-07,2.8144045e-06,-1.4222463e-06,6.4910455e-07,1.01087295e-07,2.1435524e-07,2.5371942e-06,-4.966255e-07,-1.4631876e-06,8.9778246e-07,4.2420328e-07,5.189136e-07,3.8451203e-06,1.639335e-07,5.861141e-07,1.3556159e-07,1.1495315e-06,-2.9969783e-06,-1.2288864e-06,-2.360446e-06,6.318442e-07,1.1520126e-06,-9.440811e-07,7.256008e-08,3.5081433e-07,1.3144563e-07,-1.12973105e-07,-3.696666e-08,-4.4881068e-07,-1.0935851e-07,-1.5529772e-06,-1.284705e-07,-1.6218684e-07,4.3400306e-08,-1.2668838e-07,-5.9740677e-07,7.837248e-09,-6.4999693e-07,-8.635876e-07,-8.9717156e-07,-1.4648859e-07,-2.5338161e-07,4.958745e-07,4.798609e-07,-1.3647731e-07,-9.755856e-07,-6.8605885e-07,-2.9255379e-08,-1.7159349e-06,-3.6674605e-06,-9.557791e-07,-8.451557e-07,-1.9758495e-06,1.0450728e-06,-1.037714e-07,-4.290349e-06,1.1331558e-09,-1.6710317e-06,2.7469895e-07,2.9601446e-07,-1.012702e-06,-2.973041e-07,-7.3393613e-07,-7.301553e-07,-1.0887258e-07,1.6431724e-07,-3.4826655e-07,1.2429186e-07,-2.0370504e-07,-4.873429e-07,1.4874477e-06,-2.8039494e-07,-1.4689801e-06,4.4735117e-08,7.0289275e-08,2.9413457e-07,8.5094706e-07,2.1480797e-07,1.7844549e-07,9.661167e-08,-4.134778e-07,-1.9908862e-06,-3.2709357e-07,-2.456928e-06,-1.9744432e-07,4.95233e-07,-1.2993746e-06,1.2033887e-07,-2.475688e-07,-1.662417e-08,-3.0891636e-07,-6.7933206e-07,1.3429883e-08,-2.93887e-07,5.977376e-07,5.3336976e-07,-2.5210616e-07,-4.5187733e-07,8.163066e-07,-4.264632e-07,8.712525e-08,1.6520913e-07,-5.4352192e-08,-8.206505e-07,-3.6194987e-07,-2.3946532e-07,-3.277263e-07,1.2071539e-06,5.5068043e-08,-1.2240166e-06,-2.7033892e-08,-6.5355994e-07,2.3053327e-07,-1.640705e-08,4.8935576e-08,9.5291705e-07,-3.5174097e-07,6.0539935e-07,-8.758657e-08,2.3091197e-07,5.4105016e-07,1.1310035e-06,5.2650694e-07,4.907924e-07,-6.963685e-08,-1.0016048e-07,-3.8617418e-07,1.0427757e-07,-3.097146e-07,1.1939578e-06,-1.8147989e-06,-2.5769303e-08,2.6422947e-07,-2.690823e-07,-6.691354e-07,-5.2946664e-08,1.4013526e-06,1.3090882e-06,-6.390181e-07,6.8877466e-07,-1.0269555e-06,1.3803505e-07,-7.698819e-07,2.7965297e-07,-1.3921266e-07,-1.2677522e-06,1.2244395e-06,4.269731e-07,-5.3771646e-07,5.424637e-07,-4.278965e-06,-8.7807825e-07,-4.599422e-07,-1.560262e-07,5.776433e-07,-3.1737852e-06,1.925807e-06,3.4893687e-06,1.9113794e-07,5.114463e-07,1.5512176e-06,1.0310264e-06,-1.7989144e-06,2.5333597e-06,2.2498493e-06,1.3161883e-06,1.6044344e-06,1.193793e-06,1.2702897e-06,3.5223622e-06,4.352729e-06,3.64583e-06,1.9116085e-06,1.8557585e-06,1.8813007e-06,2.2972542e-06,-6.153574e-07,2.1713943e-06,1.5692267e-06,2.1693345e-06,1.9114532e-06,4.060026e-06,-1.0184449e-06,-9.432603e-07,2.3730092e-07,-1.5531323e-06,6.97524e-07,1.6388991e-06,-2.2112536e-06,-1.4002611e-06,2.1764542e-06,2.1986423e-06,2.358602e-06,2.8824586e-06,-6.169974e-06,5.052525e-06,4.9096075e-06,3.4956986e-06,4.3003247e-06,1.6118263e-06,-1.5311617e-06,3.0540814e-06,4.1694602e-07,5.827663e-06,3.5178336e-06,1.2233377e-06,3.2668422e-06,3.989173e-06,1.8454606e-06,-2.5500767e-06,-2.8826852e-07,2.7150484e-06,1.5423301e-06,7.3233155e-06,-4.7187103e-07,1.0382835e-06,1.2063799e-06,2.2188804e-06
8.307249e-08,-6.882502e-08,1.7105424e-07,-3.962227e-07,-1.3053534e-07,-1.0066846e-07,-3.014755e-08,1.1701677e-07,-1.2344594e-06,-2.6895162e-07,4.1526297e-07,8.065517e-08,-1.7576166e-07,-1.9720702e-07,1.4528294e-07,-3.3987294e-07,-1.3516043e-07,-2.4875965e-07,-6.7121604e-08,-3.220003e-07,-2.6590516e-07,-4.0906545e-07,3.6198543e-07,-8.418694e-07,-4.2567453e-07,-1.7362878e-07,3.0395153e-08,-1.9277445e-07,2.6975104e-07,1.527107e-07,1.02530606e-07,-3.851641e-07,-6.062168e-08,-2.440564e-07,-4.604998e-08,1.1128209e-06,-4.604942e-07,-1.220252e-07,-1.1232143e-07,-3.0080636e-07,5.6017377e-08,-1.8161079e-07,-2.64668e-07,-4.176658e-07,-2.5092928e-09,-9.083868e-08,-1.3625486e-06,4.4294005e-08,-3.524063e-07,7.0621894e-08,5.79306e-07,-5.523884e-08,1.3072065e-07,-4.110006e-08,-2.0907973e-07,-5.950208e-07,-3.4240125e-07,7.425459e-08,-3.2142765e-07,-3.7468116e-08,9.072247e-08,-9.633514e-08,1.7600351e-07,-1.6854287e-08,3.382882e-07,5.3147573e-07,3.184107e-07,2.4123347e-07,9.873945e-07,1.0822633e-06,-8.3135376e-08,-2.6887829e-08,-3.7545018e-07,5.5406605e-07,7.470575e-08,-1.1919792e-07,4.9567484e-07,-2.383215e-08,4.844174e-08,4.1151293e-07,5.6572634e-07,-7.891937e-09,1.0692167e-07,3.5312422e-07,-1.7957287e-08,-3.2838138e-08,2.8671658e-07,-8.1354e-08,-3.0233313e-08,-1.0522816e-07,-1.5588415e-07,-2.0038381e-07,9.922651e-09,-6.161211e-08,-3.2999456e-08,-1.3250857e-07,2.1357845e-07,6.5107756e-08,-3.5205616e-08,4.1757806e-07,5.7530167e-07,4.3579024e-07,5.938888e-07,3.336236e-08,5.5565405e-08,-1.9906619e-08,-4.199191e-09,6.0879856e-08,6.284291e-08,5.653936e-07,4.205166e-07,-5.963831e-08,1.2405982e-07,-1.5660292e-07,1.2469042e-07,2.4721885e-07,2.2714765e-07,9.262447e-07,4.1624455e-07,6.903559e-08,6.3430815e-07,-2.4480627e-07,2.0448276e-07,2.1592837e-07,3.2747747e-07,3.912898e-07,4.2782514e-08,3.6140175e-08,8.393545e-07,3.7703305e-08,6.727578e-07,-2.3791905e-07,3.3623155e-07,-6.35708e-07,6.4621537e-07,-1.6029307e-07,-2.8403622e-06,2.4208475e-07,1.5120848e-07,-1.9053371e-07,1.6947546e-08,-1.771729e-07,-5.8995545e-07,-2.2965816e-07,-4.643232e-08,1.0073357e-07,4.3262403e-08,-4.381532e-07,2.195882e-07,1.9903567e-08,-1.05458014e-07,-2.1968773e-09,-1.0339173e-07,3.2482382e-07,-2.2955703e-08,2.1688773e-07,7.993542e-08,3.1074032e-07,2.0480746e-07,-6.714024e-07,-8.7954355e-09,-7.6623627e-07,1.7643607e-07,4.91203e-07,1.8409565e-08,-2.0890684e-07,-2.3746395e-08,6.771995e-08,4.5525755e-07,-7.457686e-08,3.1956123e-08,4.6250221e-07,-4.7724235e-08,-2.175452e-08,1.5813285e-06,4.3553484e-08,8.279293e-07,-2.3321232e-07,-4.8862574e-08,-1.5798466e-07,3.101933e-07,-1.2200795e-07,5.327512e-07,1.6806456e-07,-5.13234e-07,4.6077508e-07,-1.4873896e-07,1.0166586e-07,-1.2372814e-07,-6.114233e-08,-8.015863e-08,-2.25549e-08,-5.788889e-08,2.3959774e-07,3.4178842e-07,-2.8996385e-07,1.8188278e-07,-1.088072e-07,1.8705585e-06,-3.732702e-07,-6.079099e-07,4.840884e-07,-1.3314363e-07,4.9549936e-07,1.4701501e-06,-3.861303e-07,-3.1692e-07,1.3467144e-06,1.3257227e-06,-3.6296512e-07,-1.1933567e-07,-2.8010805e-07,-1.6472303e-07,-4.8401193e-07,2.520003e-08,-6.760767e-07,-1.3821341e-06,2.3563741e-06,-4.3828265e-07,-5.1423325e-07,2.1088505e-07,-1.5116331e-08,-3.8712855e-09,-4.3308307e-07,8.687963e-08,-5.4260624e-07,-1.9680401e-07,2.693807e-07,1.4863315e-06,6.694895e-07,3.710293e-07,-6.0960815e-07,-2.246571e-08,-4.246704e-07,-3.0139446e-07,-3.7941038e-07,1.1289926e-06,7.227323e-07,-9.873222e-07,1.6620211e-06,-6.581545e-07,-3.2875462e-07,4.4494033e-07,-5.8592235e-08,1.0179133e-06,6.562457e-07,1.9266574e-06,-6.486106e-07,6.68195e-07,1.3803529e-07,1.0028157e-06,-9.039444e-08,1.6486075e-06,2.2587388e-07,-3.1808173e-07,-1.14324266e-07
-1.337056e-06,-1.6867814e-06,-1.3497078e-06,-2.8319846e-06,7.4171874e-07,-8.4224695e-08,-1.7915295e-06,-3.7439559e-06,3.0068916e-06,-9.820791e-07,1.5350604e-06,-1.5647686e-06,-1.1731892e-06,-2.7395e-08,-1.1743676e-06,-2.1552256e-07,-2.3889496e-07,3.51911e-07,6.4359e-08,-8.194472e-08,-1.5911311e-07,-6.617135e-07,2.5392913e-07,4.851338e-07,7.475822e-08,-1.8746182e-06,1.9818054e-07,-4.0585155e-07,-4.24701e-07,-6.3583707e-07,-5.2059363e-08,-3.2043772e-09,-3.6063984e-06,-8.4463767e-07,1.1532433e-06,3.6834726e-07,9.958342e-07,-4.8562833e-07,-2.0318835e-06,-3.950753e-06,-6.2528875e-07,-1.761061e-06,-5.475444e-07,-7.1484703e-07,-4.3663073e-07,5.408748e-07,1.5766454e-07,-2.9894425e-06,-9.78745e-07,7.1093393e-07,-2.476531e-06,-9.831907e-07,-1.6132528e-06,-3.1425122e-07,-1.1677537e-06,7.567191e-07,7.118367e-07,3.3994945e-06,-1.1272016e-06,-1.3243434e-06,7.883538e-07,-5.564662e-07,1.2257045e-06,-1.8374146e-07,-2.8935375e-07,-2.131129e-06,-4.0966685e-07,-1.754576e-06,9.4046675e-07,-7.402994e-08,-7.7959425e-07,-3.192552e-07,9.989315e-07,-3.957358e-07,5.6897107e-08,-4.2069365e-07,-9.371488e-07,9.27418e-07,-9.060662e-07,-7.8823587e-07,-9.3078717e-07,1.236117e-09,4.9164658e-08,2.369346e-07,-6.8326855e-09,2.5270134e-07,-2.6782743e-07,1.0588212e-06,4.2194898e-07,-2.559941e-07,7.674741e-07,-4.5773663e-07,-1.8578282e-07,1.3372642e-08,-1.04058934e-07,-1.4052068e-07,-1.0212766e-06,-2.8322864e-07,3.7895774e-07,-2.5006094e-07,-3.7620546e-07,-1.396615e-06,-1.376234e-06,-9.989053e-07,-6.2710836e-07,-7.8380464e-07,-2.2188125e-07,2.4139555e-07,-4.205866e-07,3.2590776e-07,9.940504e-07,-8.527314e-07,-3.491914e-07,-3.2955438e-07,-3.6689235e-07,-3.235943e-07,-8.518391e-07,-1.7066568e-06,4.262157e-07,8.862725e-07,4.1996915e-07,2.0997286e-06,-2.7269806e-07,-6.395441e-07,1.2805232e-06,-1.415546e-07,-2.839195e-07,-1.12997895e-07,-1.9224253e-06,2.2816278e-07,1.9408124e-07,-2.0178823e-07,1.6374886e-06,-1.2689648e-06,-1.0233898e-06,-1.0583689e-06,7.4319782e-06,-3.696348e-07,-2.9025975e-07,3.9789154e-07,3.1573757e-07,-1.0078937e-07,-1.1591724e-06,-1.1983051e-06,4.53052e-09,-9.061098e-07,-6.5677926e-07,5.644003e-07,-8.9617055e-07,-9.3155046e-07,7.5689195e-07,1.2411757e-06,-1.4852718e-07,9.3922057e-07,2.1482998e-07,9.75804e-07,-1.0277296e-07,-1.4422676e-06,-1.5199191e-07,-1.8242421e-06,5.0777e-07,2.3284491e-07,-3.3247548e-07,-7.128189e-07,1.1410858e-06,-1.3451036e-06,-3.1305972e-06,3.0928368e-06,3.1725726e-06,1.6413347e-07,-1.0862837e-07,-6.160503e-07,3.3584755e-07,-7.15356e-07,-2.6854211e-06,-1.0369823e-06,-2.3212644e-06,-2.4666994e-07,1.2851385e-06,-5.0087664e-07,8.733203e-07,-3.5055527e-07,-8.040728e-07,4.5735987e-07,7.5618937e-07,-9.4755706e-07,-6.3797086e-07,-6.892977e-07,2.0664181e-06,1.3813417e-06,1.3307897e-06,-6.615942e-07,2.2617435e-06,7.597463e-07,-4.5017757e-07,-9.775588e-07,7.731118e-07,1.1838159e-06,3.0584027e-07,7.722618e-07,2.1209821e-06,7.551471e-07,-4.2848302e-07,1.1219845e-07,3.5040745e-07,2.428032e-06,7.954579e-07,-1.8101725e-06,-2.24307e-06,2.0284105e-08,7.5053316e-07,1.745545e-06,1.6975598e-06,2.2608087e-06,1.16509e-07,3.8676344e-06,1.3402512e-06,4.2884966e-07,-9.4266795e-07,5.542971e-07,1.6268888e-06,-2.0586726e-06,4.5832035e-06,2.7479036e-06,6.0084335e-07,1.2717641e-06,2.9471983e-06,1.2123072e-06,-7.054883e-07,-5.968012e-07,1.9536085e-06,-1.7426545e-07,2.593621e-07,-2.2136282e-06,-1.6323098e-06,7.4170475e-07,-2.4563755e-07,1.0036351e-06,3.6435647e-06,-1.5213391e-06,2.0878403e-07,-3.0347858e-06,-5.36975e-07,-6.5258405e-07,-2.007037e-06,-1.9001768e-06,-4.769107e-07,2.1633127e-06,-3.416306e-07,1.6424525e-06,5.702253e-07,-2.3700659e-06,2.2193985e-06,-1.5540951e-07,1.0910941e-06,7.6056926e-07
9.794846e-07,1.2874166e-06,1.4043853e-06,1.7149221e-06,-8.033437e-07,1.2193295e-06,8.4841554e-07,-7.4973735e-07,-6.8592936e-07,1.2494526e-06,7.626876e-07,5.4681686e-07,1.9313732e-06,-4.3508695e-07,1.3769485e-06,-8.729722e-07,-2.5441147e-07,2.999604e-07,9.792598e-07,1.6735555e-07,2.2233576e-07,1.2042582e-06,2.2482552e-06,7.60386e-07,6.660881e-07,1.5368564e-06,1.3580526e-06,2.499923e-07,7.873311e-07,1.4142611e-06,8.677375e-07,1.1750172e-06,1.5494439e-06,6.322336e-07,-4.757025e-07,4.1246285e-06,2.2698666e-06,1.1700156e-06,1.7504528e-06,2.6290754e-06,2.020829e-06,7.5895605e-07,-3.778021e-07,1.8034899e-07,2.3075168e-07,4.5756556e-07,-3.5364025e-07,1.3571771e-06,1.432426e-06,2.1554445e-07,9.845264e-07,4.1155369e-07,1.5578859e-06,1.1349068e-06,1.4081386e-06,2.5245865e-07,1.1109156e-06,5.9130275e-07,2.6799953e-06,1.8324365e-06,4.4903737e-07,8.2694675e-07,-1.3807835e-09,7.850158e-07,7.7545053e-07,7.536089e-07,8.2408496e-07,7.516197e-07,-2.340355e-07,6.178036e-07,6.3809324e-07,-6.518314e-07,-1.1796561e-06,1.3388974e-06,2.7205576e-07,3.4933367e-07,1.1560087e-06,-5.846662e-07,9.263084e-07,-8.7711254e-07,3.322181e-07,6.497705e-07,5.2713165e-07,4.389267e-07,1.8141947e-07,4.119374e-07,1.1229117e-06,1.9814138e-07,3.1492846e-07,9.586134e-07,7.7446646e-07,4.0099602e-07,1.0444322e-07,1.0741664e-06,1.7577972e-07,7.2903146e-07,1.0866962e-06,4.967694e-07,3.5624655e-07,1.0262552e-06,5.669941e-07,9.452426e-07,1.8818348e-06,9.716579e-07,8.2210295e-07,1.9476653e-07,-8.972485e-08,5.6422124e-08,4.3559015e-07,-1.6868651e-07,-5.9604923e-07,5.40015e-07,8.9645386e-07,-9.169315e-08,3.147271e-07,2.850456e-07,5.86221e-07,1.1069844e-06,5.7745643e-07,-4.1836827e-08,-2.1285007e-07,2.4857056e-07,5.1449416e-07,5.45375e-07,5.8652273e-07,-4.564552e-08,1.9787703e-07,5.320475e-07,2.839638e-07,-2.354141e-06,-8.472526e-07,6.6419926e-07,-2.4090818e-06,8.8317563e-07,1.3883852e-06,-7.1632655e-07,-1.895214e-06,2.5602276e-09,1.4445543e-06,-1.0032953e-06,-4.8935016e-07,4.000062e-07,-1.6448482e-07,1.6359954e-07,3.6687337e-07,1.6594428e-06,9.439475e-09,-3.070477e-07,-7.6056625e-07,6.3331754e-07,-4.4727113e-07,1.5254911e-06,1.3696133e-06,-1.7448449e-06,-4.0973705e-07,4.0826012e-07,-2.3516124e-07,9.434986e-07,6.489449e-08,-3.5493215e-07,1.9403188e-07,7.6039015e-09,1.3561285e-06,1.2818568e-06,7.146393e-07,8.647751e-07,1.2761502e-06,-7.6403404e-07,-2.9984171e-06,2.9048874e-07,8.7758565e-08,-2.1055817e-07,-1.155951e-07,1.5644775e-06,-2.1178857e-06,7.35491e-07,1.5511615e-06,-8.7925105e-07,-1.266917e-06,-2.7875586e-07,-3.1973406e-07,8.6475404e-07,1.6839822e-06,2.5606614e-06,-2.4586066e-06,-2.9439548e-08,7.999256e-07,-1.5198918e-07,2.7950247e-07,-1.980258e-06,6.6046783e-07,8.426554e-08,1.4057417e-06,-3.7544527e-07,2.3257844e-06,2.769123e-06,1.03148594e-07,1.1427089e-06,4.4268444e-07,-4.3561954e-08,-2.981863e-06,1.5157502e-06,2.7503122e-06,3.2455543e-07,1.155086e-06,9.850369e-07,3.3831188e-07,8.977507e-07,-1.492518e-06,1.1560354e-06,1.7539204e-06,1.6326264e-06,-4.2083485e-07,1.2602032e-06,1.1801064e-06,1.4479964e-06,7.6001476e-07,1.5708414e-06,2.5650988e-06,-7.9462545e-08,-1.3335417e-06,2.7754904e-06,3.497837e-07,-5.4046706e-07,7.02841e-08,1.4829211e-06,-1.3993044e-06,1.8637814e-06,-7.466405e-07,9.7266e-07,1.6268968e-06,2.196491e-06,1.7632722e-07,2.0886503e-06,7.8214754e-08,-6.073004e-07,6.1086257e-07,-1.8030073e-06,6.387839e-07,8.8102746e-07,2.744256e-07,-6.5071674e-08,3.132025e-06,1.277317e-06,1.0150873e-06,1.1320502e-06,5.800781e-07,-1.0789851e-06,8.5468923e-07,1.835449e-06,1.1018219e-06,1.4824467e-06,-1.6439532e-06,6.4862627e-07,2.0249784e-06,1.324911e-06
-1.1523173e-06,-2.5929066e-06,-2.3704106e-07,1.0696381e-07,4.0520172e-07,-3.1574956e-07,1.5392885e-08,-2.7430497e-07,-1.4439324e-06,2.159195e-07,-1.0876633e-08,-1.8803874e-07,1.8091944e-07,1.3916555e-07,7.2576455e-08,7.956486e-08,7.585418e-07,-7.694554e-08,4.128203e-08,4.4319773e-07,-1.8520328e-07,4.811883e-07,-6.4229977e-07,6.3797074e-09,2.5462128e-07,3.5362837e-07,-3.1678522e-07,1.64116e-07,6.204634e-08,-4.848902e-07,-7.107504e-07,-1.3368275e-07,1.5259484e-07,6.378517e-07,-3.9645948e-07,-1.3116577e-06,1.2685872e-06,4.1610122e-07,5.086361e-07,2.6104334e-07,-4.944062e-07,1.7558204e-07,5.906786e-08,-1.0005082e-07,1.9782821e-07,1.9533215e-07,1.2949926e-07,1.0018116e-07,3.2363604e-07,1.6114797e-08,-1.47278e-07,9.403448e-08,1.1576691e-06,6.1929904e-07,3.8708382e-07,2.8642162e-08,-1.5006466e-07,-3.4766026e-07,3.2030052e-06,6.205363e-07,3.702076e-07,-1.5075e-07,-2.604193e-07,6.858845e-08,-2.4750983e-07,-2.3968244e-07,2.6774376e-07,3.3875985e-08,2.3188561e-07,-2.6783516e-07,-9.54401e-10,6.543623e-08,-1.8742227e-07,3.8733978e-07,-3.8531496e-08,-1.4621563e-08,-2.3362148e-08,1.5825474e-07,4.5506557e-08,-5.081421e-08,3.5879938e-07,6.127443e-08,1.5450445e-07,3.6639713e-07,2.2172273e-07,2.9287102e-07,-8.872377e-09,1.3118871e-07,2.6894892e-07,3.3154504e-07,-1.0190031e-07,1.1272096e-07,1.4253065e-07,4.8702304e-08,1.3659179e-08,-5.1036842e-08,2.2993636e-07,6.698319e-07,2.770716e-08,-5.447049e-07,5.3289125e-07,3.7765855e-07,-1.06738135e-07,-5.647083e-08,-3.379077e-07,1.2585262e-07,1.6589513e-07,-1.716996e-08,1.0564726e-07,4.5661338e-07,-1.2345512e-07,1.2790294e-07,1.14906214e-07,1.2391925e-07,1.0651694e-07,3.060245e-07,8.532683e-08,8.364503e-08,4.1002815e-07,-4.871977e-07,5.96293e-08,-2.2079688e-07,5.7797666e-07,2.9922222e-07,1.1104627e-06,-1.6278469e-07,-6.0496575e-08,7.010106e-08,-5.633763e-07,-9.835111e-07,3.7540985e-08,4.8571884e-08,3.220399e-07,3.386815e-07,-1.03854234e-07,1.1048535e-06,4.9525454e-07,1.4772913e-06,3.095613e-08,2.8656734e-07,-4.3420633e-07,2.2424298e-07,-7.4731594e-07,8.050512e-07,-8.847021e-07,2.2419309e-07,3.6440753e-07,9.158534e-08,-1.9319202e-08,5.458112e-07,5.763773e-07,-1.9236336e-06,1.0289995e-06,1.8725668e-06,-2.118202e-06,-1.0084494e-07,3.1104e-08,-7.25394e-07,1.2474774e-07,6.85683e-07,3.3655382e-07,-2.3758801e-08,2.9098013e-07,-1.1611282e-06,1.8768637e-06,1.5920549e-06,-3.5647918e-07,5.239391e-07,1.5834985e-08,8.5131276e-08,3.201053e-07,-5.0649925e-07,-3.9517576e-07,3.4889854e-07,3.111551e-07,-1.3469298e-06,1.767279e-08,3.6160355e-07,3.9408954e-07,3.0682685e-07,2.1493884e-07,2.7876627e-07,-1.3559588e-07,9.607779e-07,3.1841657e-06,1.320913e-06,1.6829671e-06,2.844651e-07,-5.0137105e-06,2.2617283e-07,-7.8448693e-07,-1.0230586e-07,-1.0667815e-06,-2.1229666e-06,-5.525269e-07,-1.096857e-06,-3.3252443e-06,-2.7794363e-06,-2.8878892e-06,-2.7073243e-06,-2.618122e-07,-2.8886902e-06,9.755283e-07,-3.037257e-06,-3.4308796e-06,-9.558254e-07,-9.628998e-07,-4.6376317e-06,-1.6000355e-06,-9.3236685e-07,-1.2132051e-06,-1.7219621e-06,-3.4183148e-07,5.9691195e-07,-2.6788705e-06,2.5961214e-07,-6.4053665e-07,-3.7758284e-06,1.0504703e-07,-5.108625e-07,-4.5283883e-07,2.4724134e-06,-4.786063e-07,-2.3117896e-06,-7.709529e-07,-1.1973248e-06,-2.2577415e-06,-4.0070513e-06,-2.3189286e-06,-2.6992357e-06,-4.023413e-07,-3.142567e-07,-1.6196741e-06,1.0060225e-07,3.9116676e-07,-9.086011e-07,-6.920181e-07,-2.4142246e-06,-3.3908404e-06,-1.0777018e-06,-3.8398875e-06,9.1872147e-07,-5.0135945e-08,-4.6915687e-07,-2.7742042e-06,-3.0318683e-06,-3.502907e-06,-2.6021942e-06,-3.4440025e-06,6.8621364e-07,-3.292609e-06,-5.6781806e-07,-3.7185607e-06,-3.2197986e-06,1.2897138e-07,-1.948597e-06
1.1890996e-06,7.586913e-06,9.40158e-07,6.2131885e-06,-2.5323575e-06,2.9446915e-06,1.1729221e-06,-6.6457864e-07,-3.4760847e-06,1.6082934e-06,8.739588e-07,-4.608641e-07,9.806292e-07,-1.6950298e-07,7.2358796e-07,-1.956977e-06,4.6835544e-07,1.1404547e-06,2.183486e-06,1.2284254e-06,1.1262614e-06,3.2673956e-06,5.7721655e-07,1.3813569e-06,-4.150655e-09,2.402775e-06,7.9065387e-07,7.694216e-07,1.1195239e-06,1.7572268e-06,4.854569e-06,2.5900742e-06,5.788033e-06,3.4874208e-06,9.737976e-07,1.6207508e-07,3.177426e-06,2.7764388e-06,2.5394452e-06,1.873879e-06,2.7117153e-07,1.1840503e-06,-8.8629136e-08,7.338326e-07,1.3469854e-06,-5.339603e-07,-2.1747028e-06,9.0064646e-07,2.7479477e-06,9.72658e-08,4.6860146e-07,1.3470946e-06,2.6715156e-06,1.1532862e-06,2.7028077e-06,-1.0235586e-06,-9.991536e-07,1.3653118e-07,3.0289461e-06,2.3696748e-06,1.6357736e-06,2.0645768e-07,-7.8103824e-08,1.277114e-06,8.036851e-07,2.8838324e-06,1.0825299e-06,2.8936984e-06,-1.4840803e-06,1.3065888e-06,8.5359545e-07,-1.4327153e-06,-1.4512225e-06,1.8391675e-06,6.385628e-08,-3.7009437e-07,1.0630303e-06,-6.292373e-08,6.225756e-07,-1.517127e-06,3.526501e-07,4.8631307e-07,1.0761322e-06,9.557687e-07,1.010809e-07,1.7444931e-06,1.2633859e-06,1.921046e-08,1.8487017e-07,1.5460237e-06,1.1704723e-06,2.574835e-07,8.243474e-07,1.0569775e-06,3.003384e-07,1.8529892e-06,3.2414953e-06,3.252647e-06,9.379238e-07,1.8450021e-06,1.5856158e-06,2.1286187e-06,1.1552479e-06,2.0892385e-06,8.2853904e-07,5.946697e-07,2.7568385e-07,4.6388607e-08,1.1863697e-06,1.5821497e-07,-2.609294e-06,6.343713e-07,2.4457925e-06,7.7850956e-07,8.828205e-07,2.2934444e-08,3.2473156e-07,1.0741029e-06,2.1787434e-06,-1.9401377e-06,6.7474167e-07,8.3395435e-07,9.540182e-07,2.1101393e-06,1.7571256e-06,9.020819e-07,1.8944336e-07,6.9761484e-07,1.7403856e-06,-2.9398143e-07,-1.839519e-07,2.0155342e-06,-2.3026107e-06,-4.0120972e-07,2.3829145e-08,-2.753682e-06,5.0528433e-06,3.4593563e-07,2.710238e-06,-1.9498243e-06,6.340575e-07,4.1648077e-06,-2.3603911e-06,-8.500613e-07,-1.6600208e-06,2.9827477e-06,3.3519382e-06,-2.091828e-06,-1.862486e-07,2.1043402e-06,1.1082079e-06,-2.5432523e-06,3.1448312e-06,1.09522034e-07,-4.452615e-06,1.5694582e-07,8.658978e-07,5.536445e-06,-3.8612034e-06,5.314404e-06,-1.613514e-06,-1.2025914e-06,3.6932755e-07,-2.7074689e-06,2.5712632e-06,2.8672603e-06,2.4149856e-06,-2.8490717e-06,1.1549675e-06,-1.4450256e-06,7.97402e-08,-1.3085025e-07,1.4225066e-09,2.78807e-06,-4.731018e-06,-9.847921e-07,5.7888815e-07,3.5153352e-07,-1.8141518e-06,1.2710296e-07,1.0135573e-06,1.0812025e-06,2.801771e-06,3.909093e-06,2.2482045e-06,4.6699483e-08,2.0349391e-06,1.6943945e-06,-7.457457e-06,4.3301e-06,-1.4406277e-06,6.589557e-07,-3.3917775e-07,7.0804585e-06,7.173861e-06,5.073e-06,-3.432494e-06,-7.406295e-07,2.914679e-06,2.8529075e-06,8.688495e-06,-2.837096e-07,6.035013e-06,-1.8474532e-06,-1.9853253e-06,6.449235e-08,1.7771515e-07,3.762904e-06,-1.8027941e-06,-1.2770302e-06,6.5467198e-06,4.7077506e-06,9.943424e-06,2.994802e-06,4.640562e-06,9.697177e-06,5.7455873e-06,5.93862e-06,8.701097e-06,1.4967127e-06,-7.802669e-09,7.50853e-06,2.7316914e-06,9.736088e-06,1.8546743e-06,7.1854524e-06,1.6352341e-06,4.160005e-06,4.825849e-06,5.141407e-06,8.221594e-06,8.745291e-06,6.8984955e-06,7.0210945e-06,7.1011186e-06,6.1872324e-06,5.5313335e-06,7.406907e-07,-5.273239e-06,2.3105902e-06,5.2365203e-06,1.0339579e-05,5.8725436e-07,8.273754e-06,3.895401e-06,4.557024e-06,4.0859536e-06,-3.2943403e-06,4.741089e-07,1.8776477e-06,2.4207322e-06,1.1093174e-05,3.37154e-06,1.5680456e-06,6.987542e-06,4.086503e-06
3.3787496e-06,3.4203658e-06,-2.5004056e-07,4.360566e-06,-4.2781894e-06,2.069986e-06,2.1466235e-06,3.880624e-06,2.4520884e-06,4.331237e-06,-8.179678e-07,2.0208927e-06,5.3236818e-06,-8.4292026e-07,4.5612687e-06,-1.4298344e-06,1.572307e-06,2.7346116e-06,1.3221504e-06,2.1649937e-06,-2.355458e-06,3.7791006e-06,1.5087357e-06,9.510113e-07,-3.3099127e-08,4.9026635e-06,-4.5580714e-07,3.8840526e-06,2.9225587e-06,-3.3304161e-06,7.203351e-06,3.716637e-06,1.0314668e-05,5.7405487e-06,1.7538507e-06,-2.4049627e-06,1.76222e-06,6.8209383e-06,9.648186e-06,5.3519047e-06,-3.009402e-07,7.6643596e-07,-2.3945756e-06,4.136011e-06,4.576919e-06,-3.9757706e-06,3.4682746e-06,5.3495796e-06,4.3007735e-06,3.0190663e-06,9.0419635e-06,2.3023215e-06,6.8441395e-06,8.485547e-07,2.341108e-06,-3.0636352e-06,-2.8423617e-06,-1.8979044e-06,4.591278e-06,2.259728e-06,-1.5776714e-06,-2.2898698e-06,1.0892447e-06,2.2754832e-06,3.3691795e-06,4.550115e-06,-1.641784e-06,4.642597e-06,-9.718831e-07,2.7566107e-06,3.5551332e-06,1.5338924e-07,-3.0871354e-06,7.042575e-06,5.9979e-07,3.7857646e-06,6.0406373e-06,2.3644702e-08,5.2291416e-06,-2.0414177e-08,3.906433e-06,1.3446156e-06,1.3321053e-06,1.8956965e-06,-1.7070188e-06,1.1643072e-06,-2.5270128e-07,-5.1827947e-06,-7.757447e-07,4.4275366e-06,-1.3364888e-07,4.744012e-06,1.240936e-06,-4.6679197e-06,-8.540115e-07,3.2111398e-06,7.619905e-06,2.9597907e-06,-1.2599567e-06,1.232866e-06,9.451506e-08,7.112928e-06,9.71925e-06,4.8932566e-06,-1.718495e-07,-2.0983231e-07,-7.5090287e-07,4.0418882e-07,4.046557e-06,-7.7848347e-07,9.542875e-07,4.4364697e-06,4.1462504e-06,1.0088208e-06,6.3268735e-06,2.1042658e-06,5.1252555e-06,4.435815e-06,2.7442554e-06,-2.3875223e-06,-2.0786433e-06,-2.67178e-06,4.908039e-06,3.344491e-06,-1.5939565e-06,-2.533382e-07,1.3043439e-06,1.5855384e-06,9.228577e-06,5.3364142e-06,1.5762316e-07,3.1963757e-06,5.143285e-06,2.1000992e-06,4.3439977e-06,9.8565215e-06,8.339689e-06,8.897288e-06,-7.985691e-06,1.5721673e-05,7.4479635e-06,4.7818376e-06,8.22226e-06,1.0683395e-06,-3.1159936e-07,-4.1190933e-06,5.372328e-07,-2.0137902e-06,-2.516936e-06,-6.1240905e-07,4.4597873e-06,-8.507142e-06,-2.116144e-07,9.141826e-06,-6.1396313e-06,-3.1137442e-06,-3.9665356e-06,-1.1719123e-05,-1.0334168e-05,2.9900084e-06,-8.866649e-06,-7.397315e-06,1.2709188e-07,-8.697061e-06,-2.8673157e-06,6.6534362e-06,1.3865067e-05,-1.032215e-05,7.678682e-06,3.71011e-06,5.7100874e-06,6.189355e-06,1.696093e-06,3.6738822e-07,3.7367103e-05,-5.0835033e-06,1.1739966e-05,2.2135341e-06,8.300822e-06,2.0592893e-08,7.1279132e-06,4.589463e-06,-3.8209064e-06,4.7405124e-06,5.4754983e-06,6.4472806e-06,-1.1163077e-06,7.605042e-06,-1.4869283e-05,8.196745e-06,-6.932093e-06,9.022065e-07,-5.01542e-08,3.207263e-06,7.28389e-06,5.8307533e-06,-5.836303e-06,1.6239596e-06,5.183022e-06,8.952495e-06,9.617635e-06,4.6205914e-06,6.5292647e-06,4.428086e-06,3.0143558e-06,-1.2432938e-06,3.885155e-06,3.8703643e-06,2.0218865e-06,-6.0511934e-07,2.5204458e-06,3.523037e-06,1.3116497e-06,2.6164032e-06,8.478348e-06,4.2255424e-06,3.576099e-06,1.116597e-05,5.200023e-06,9.01306e-06,-4.3996592e-06,-7.076874e-07,4.4371814e-06,1.1354331e-05,6.462272e-06,8.047426e-06,2.4149426e-07,4.506329e-06,-1.5788667e-06,7.0974447e-06,1.2583056e-05,9.854033e-06,1.1361047e-06,4.2425627e-06,3.8316202e-06,4.6337227e-06,5.6132117e-06,-3.4868265e-07,-9.93748e-07,8.91391e-06,1.8136004e-06,6.8917057e-06,6.9566768e-06,2.737473e-06,7.718276e-06,5.293169e-06,4.3630007e-06,-4.8004217e-06,3.5583616e-07,-7.644193e-06,5.013916e-06,7.9467845e-06,-7.5114913e-06,4.858698e-07,1.7693355e-07,1.6982193e-06
2.838393e-07,7.496157e-07,5.7206653e-06,4.4332603e-07,-4.5462272e-07,1.3967677e-06,4.3818054e-06,2.596478e-06,3.2553264e-06,1.0550737e-06,1.8355571e-06,4.419692e-06,-1.9908728e-07,9.138918e-07,2.806812e-06,2.447779e-07,9.058525e-08,6.2096177e-07,3.6040004e-07,4.903938e-08,-2.8919413e-07,7.414993e-07,-7.0298887e-07,2.859476e-07,3.497567e-06,2.5848594e-06,1.3256374e-06,3.2397527e-06,4.7485035e-08,-1.4449262e-06,3.5085438e-07,-5.163675e-07,3.4697112e-07,7.8000346e-07,5.101306e-07,-3.6171875e-07,-4.074592e-07,-3.1708424e-07,1.0806708e-06,6.242346e-06,-1.3759523e-06,2.2376962e-06,1.2419426e-06,1.8881516e-06,4.233439e-06,2.3461948e-06,1.5750403e-06,2.013406e-06,3.8694932e-07,1.8253324e-07,7.385513e-06,7.995619e-07,2.8641853e-07,3.9600997e-07,6.3397088e-06,-2.9784956e-06,5.289274e-07,2.7991853e-06,3.503457e-07,6.817055e-07,-1.2087138e-06,3.2743967e-06,-6.2158946e-08,1.7012238e-07,-7.196311e-07,-2.8949056e-08,-3.7860264e-07,-1.0776593e-07,-2.3625832e-06,-1.5525371e-06,9.028315e-07,5.8719996e-07,1.0932864e-06,-5.2620226e-07,1.6442559e-07,1.5420003e-06,-8.5363405e-07,-9.421329e-08,1.6310793e-07,-7.175247e-07,-3.3170414e-07,7.7002795e-08,-3.0537262e-07,-7.4746674e-07,-4.411403e-07,4.4109862e-07,-1.6922411e-06,-2.9376044e-06,-1.329731e-07,6.946683e-07,-1.4124508e-06,2.0031505e-06,-5.7159802e-08,-4.807459e-07,2.3576743e-07,-1.2082132e-06,1.7973184e-07,1.9732526e-07,-8.694972e-07,-8.5217187e-07,-9.7193e-07,-9.309403e-07,-8.4906634e-07,3.9396326e-07,-3.283997e-09,8.0414947e-07,-8.478625e-08,-3.834563e-07,2.1100795e-06,-6.6223356e-07,-1.5279228e-06,4.747763e-07,-1.657436e-07,3.0028187e-07,2.8339591e-06,1.2343168e-07,-4.8513e-08,-9.7795e-07,9.928754e-07,-2.0665564e-06,-5.8077273e-07,1.0284388e-06,-4.903018e-07,6.206107e-07,-1.5350013e-06,6.329882e-08,-2.033939e-07,1.0392193e-07,1.4856177e-08,-3.6949566e-06,-2.4825695e-07,-1.5183583e-06,1.5046801e-08,2.5867882e-06,-4.382231e-07,-1.2098693e-06,9.317034e-07,-1.0384751e-06,7.756602e-08,-1.41395e-07,3.2335862e-07,2.9700556e-07,-9.193377e-07,-7.0566193e-07,5.974904e-09,6.552116e-07,6.930278e-08,-5.591264e-07,-2.3185555e-07,-1.3808537e-06,7.7205357e-07,-7.680354e-08,4.834349e-07,-1.733646e-06,-1.18071654e-07,1.2203982e-06,1.600412e-07,2.5170375e-06,1.4988696e-07,9.653885e-07,1.0029172e-06,1.134465e-06,-1.1738949e-07,1.0447496e-06,1.2603245e-07,1.0240445e-07,-5.058418e-07,2.3016937e-06,-6.6466723e-06,3.2522948e-08,5.462125e-07,-1.5047537e-07,-1.2825988e-06,8.056384e-07,6.095284e-07,1.8254358e-06,-7.2235076e-07,5.974208e-08,-2.3189157e-06,3.2827293e-07,-5.7104717e-07,1.654754e-07,-1.8888896e-07,-1.6300953e-06,7.7698786e-07,-1.630483e-06,1.5012158e-07,-2.4264224e-08,-3.6111492e-06,-3.4007153e-06,2.0944745e-07,-1.141469e-07,2.8882614e-06,5.6993017e-06,3.0848958e-06,8.796675e-06,4.0753876e-06,3.070006e-06,1.2208711e-06,6.563813e-06,1.5097304e-06,7.2389576e-06,5.1313204e-06,1.9062414e-06,7.856848e-06,5.0372173e-06,4.1365056e-06,3.5869912e-06,4.6660357e-06,9.527185e-06,6.919449e-06,6.968571e-06,8.270887e-06,5.7382254e-06,1.8438334e-07,9.661848e-06,5.629648e-06,1.3305845e-06,4.1241483e-06,8.969152e-06,8.9549826e-07,5.9697726e-07,5.615108e-06,2.9754078e-06,6.3956354e-06,5.1255206e-06,6.8180166e-06,5.1976946e-07,3.892494e-06,5.580353e-06,1.1954849e-06,6.2328904e-06,2.151669e-06,7.951782e-06,9.026849e-06,1.1048265e-05,4.6074974e-06,5.57149e-06,2.6424532e-06,4.14758e-06,6.586097e-07,1.0995302e-05,5.1584225e-06,1.6310055e-06,5.5715323e-06,4.036899e-06,2.0713653e-06,4.994965e-07,3.902772e-06,8.049358e-06,1.884337e-06,1.2144918e-05,1.3825803e-06,5.4252655e-06,2.0653065e-06,7.1468785e-06
-1.9748532e-07,-5.9421313e-07,1.5744385e-07,-5.075245e-07,-2.026185e-07,-4.468145e-07,-3.814047e-08,-1.31453834e-08,8.577191e-07,-6.267068e-08,2.7486934e-07,-1.570045e-08,-5.09e-07,-3.0495335e-07,-3.000753e-08,-1.4483108e-07,-3.5758137e-07,-2.1831747e-07,-1.1352476e-07,-2.2543374e-07,1.4415647e-07,-1.4248819e-07,6.040234e-07,1.9583612e-07,-1.297185e-07,-1.399634e-07,3.8528756e-07,-8.710474e-08,-2.014055e-07,3.5802583e-07,-4.0043201e-07,1.14759885e-07,-2.6836688e-07,-2.333297e-07,-2.1181097e-07,1.0980757e-06,-2.2076071e-07,-5.411308e-08,-5.8669844e-08,1.3430655e-07,3.763256e-07,-1.8713197e-07,-1.6995222e-07,-1.09475195e-07,-1.4973455e-07,-2.9587937e-07,-1.808779e-07,-8.43531e-08,-1.2837857e-07,-3.362582e-07,-3.3203804e-09,-3.702085e-07,-2.7564147e-07,-3.3122598e-07,-1.9957561e-08,2.2382032e-07,4.6989453e-07,4.100251e-07,-4.3504292e-07,-6.8660165e-07,-7.205773e-08,-2.140761e-07,3.1239043e-08,-2.3254182e-07,-9.672074e-08,-7.117528e-08,7.210081e-08,-2.2464867e-07,-1.0796275e-07,-1.8378952e-07,-7.606454e-08,5.4863506e-08,3.1684306e-07,-1.7867808e-07,-6.646297e-08,-4.8425292e-08,-1.5050038e-07,-1.5964966e-07,-8.490595e-08,-3.497442e-08,-2.384653e-07,-8.348414e-08,-4.8861345e-08,-1.9050654e-07,6.012901e-08,-9.322457e-08,2.694233e-07,1.2981315e-07,-1.4794556e-07,-1.5070277e-08,1.2353198e-07,-1.0437169e-07,-1.6410493e-07,1.14100224e-07,-1.290239e-09,4.2160472e-08,-1.15754375e-07,-2.566455e-07,-9.0599286e-08,2.7230448e-07,-1.9430945e-07,-2.7060148e-08,-5.1856873e-08,-1.8464519e-09,7.373957e-08,-9.885448e-08,-1.0536843e-07,-2.6527779e-08,-8.795828e-08,-2.3640615e-07,-7.430142e-08,-6.520727e-08,-6.7047964e-08,-1.626278e-07,-1.9280463e-07,-3.2885015e-07,-7.1208156e-08,-1.7394214e-07,-1.5579843e-07,1.5785696e-07,1.3677447e-07,1.8106189e-07,-1.2020226e-07,-2.401458e-07,1.19606405e-08,-1.0358751e-07,7.833742e-09,-1.0780473e-07,4.6257924e-07,-2.1741585e-08,-1.01194175e-07,3.9116813e-08,-1.0056294e-07,-9.2779175e-08,2.3908365e-07,-7.752642e-07,-1.483143e-06,-1.6019408e-07,-1.8283374e-07,-1.0520958e-07,4.908615e-07,-1.4608253e-06,6.375461e-07,-4.6985025e-07,8.7122766e-07,-2.2109018e-07,-6.791901e-07,-2.3640139e-07,2.539711e-07,-1.2769014e-08,-1.3299302e-07,1.72405e-06,-5.38265e-07,8.6847706e-08,1.0952114e-06,-2.7420245e-07,-5.6275144e-07,8.4816566e-07,3.3292943e-07,-7.8491314e-07,-3.3736617e-07,1.571338e-07,2.813265e-07,1.09171594e-07,1.0955902e-06,-5.906818e-07,3.7594074e-07,5.3370707e-07,-2.5353052e-07,-8.295604e-08,-3.2368323e-08,-1.340775e-07,9.1419174e-08,-7.695121e-07,-1.3783745e-07,-4.7181516e-08,-1.8255255e-07,-1.2142737e-06,4.700155e-08,-7.513422e-07,4.1612827e-07,-7.5538786e-08,7.182925e-07,1.6382961e-07,-1.2856347e-06,-1.6721003e-06,-4.5710635e-08,-1.0703407e-06,9.525386e-07,-3.6213137e-07,3.1657325e-07,9.2960384e-08,-4.0302155e-07,-2.8050718e-07,-9.311523e-07,-7.5917194e-07,-8.960407e-07,-1.0197838e-06,-8.878849e-07,-8.317512e-07,1.952238e-07,-6.910304e-07,-8.4797625e-07,-1.1480099e-06,-3.4947576e-07,-8.3212524e-07,-4.974933e-07,-1.5060051e-06,-4.401895e-07,-4.5283065e-07,-9.761109e-07,-1.3259436e-06,-6.86705e-07,-4.8144346e-07,-9.622328e-07,-1.237412e-06,-1.2476055e-06,-1.2248012e-06,-1.0729436e-06,-8.826846e-07,3.8692317e-08,-1.5749252e-07,-4.0534837e-07,-7.199903e-07,-1.5172758e-07,-1.15729e-06,-6.973033e-07,-1.0729736e-06,-5.92055e-07,-7.1224497e-07,-1.0157968e-06,-8.7943334e-07,-9.3137317e-07,-1.0422177e-06,-8.0722305e-07,-6.5393283e-07,-9.40605e-07,-7.366887e-07,-7.228428e-07,-4.9643256e-07,-1.0977797e-06,-1.0162606e-06,-7.7020417e-07,-1.3399252e-06,-1.1139231e-06,-1.3104035e-06,-8.887931e-07,-2.7385365e-08,-8.248045e-07,-2.4977462e-07,-9.0275574e-07,-1.5297461e-06,-2.6786103e-07,-8.809584e-07,-5.7231546e-07,-8.0473876e-07
-1.3878426e-06,-2.5122927e-06,-1.4131695e-06,-3.0762908e-06,-1.5300884e-06,-3.4508403e-06,-1.4503076e-06,-8.08017e-06,3.5052285e-06,-2.7702085e-06,-2.3634473e-06,-2.9597106e-06,-2.7642823e-06,-2.4379676e-06,-3.649885e-06,-2.4111498e-06,-1.1723359e-06,-9.440612e-07,-1.2503551e-07,-1.3248625e-06,9.2820187e-07,-3.7930982e-07,-3.1895725e-06,-5.845854e-06,-2.0817752e-06,-4.3368045e-06,-1.4098821e-06,-2.9725256e-06,-1.347008e-06,-3.4443262e-06,-5.4819393e-06,-5.60047e-06,-3.284309e-06,-2.8504182e-06,-3.3456606e-06,-3.0021602e-06,-6.9968473e-07,-2.575478e-06,-3.2513603e-06,-4.2741895e-06,-2.6395617e-06,-2.1269957e-06,-5.074461e-07,-2.9000125e-06,-6.560764e-07,4.2033946e-07,-5.8058968e-06,-3.606234e-06,-1.9128977e-06,-2.910097e-06,-2.711137e-06,-3.7207272e-07,-1.97883e-06,-1.3831253e-06,1.0588667e-07,-1.8979409e-06,-2.9845355e-06,-1.2567472e-06,-2.834718e-06,-1.0105052e-06,6.010483e-07,-1.2849442e-06,-2.2428271e-06,-1.3859534e-06,-1.4174357e-06,-1.8031618e-06,-3.439499e-07,-2.1395704e-06,-1.4703716e-06,-1.2521459e-06,-1.80481e-06,-5.408315e-06,1.6597855e-06,-3.0311355e-06,-1.0840074e-06,-2.4709445e-06,-2.4268202e-06,-1.5432006e-06,-2.2115635e-06,-1.9838292e-06,-1.6917498e-06,-1.1745001e-06,-1.8434507e-07,-8.7976133e-07,1.2052462e-07,3.6018574e-07,-1.4686568e-06,-2.916368e-07,-9.4163255e-07,-3.3724918e-06,-3.6477846e-07,-2.7550639e-06,-6.982741e-07,-8.224762e-07,-8.666036e-07,-3.5190765e-06,-2.4279816e-06,-2.5540626e-07,-3.1987335e-07,1.7171885e-07,-1.0832246e-06,-2.1445403e-06,-3.0083959e-06,-2.145871e-06,-1.246314e-06,-4.79158e-07,-2.7495412e-07,-4.827872e-07,-8.6190244e-07,1.8589103e-07,-2.8864165e-06,-2.8346285e-06,-1.1231012e-06,-8.900808e-07,-2.2004879e-06,-1.2472742e-06,-2.2503757e-06,-2.1835413e-06,-3.156306e-07,-1.3161479e-06,-7.422365e-07,1.840191e-07,-2.6448668e-06,-7.317441e-07,1.8218549e-07,-8.8667e-07,-1.8368385e-06,-1.1953866e-06,-3.611235e-07,1.0934332e-06,-4.953133e-07,-1.5428691e-07,5.073781e-06,-1.2428981e-06,-1.3464139e-06,-1.1946454e-06,1.5180819e-05,-2.4620394e-06,6.0588195e-07,-2.6097428e-06,2.2595582e-06,-6.0560615e-06,-1.4932559e-06,8.425029e-07,8.37526e-07,-1.1258285e-06,2.0145872e-06,-1.4897464e-06,1.7556763e-06,2.2587967e-06,-1.8311891e-06,8.886218e-08,2.2828751e-06,5.8291644e-06,1.3140431e-06,2.855395e-06,8.1869945e-07,-2.5177856e-06,5.190079e-06,-2.1845267e-06,-2.24411e-07,1.2058556e-06,-1.1369709e-06,-1.000137e-06,3.994452e-06,1.2961209e-06,-1.3276697e-06,2.2746308e-06,2.1527053e-06,-1.7021467e-06,-2.1424607e-06,-2.591988e-06,9.988092e-07,-3.1517156e-06,-1.678556e-05,-2.7587037e-06,-1.1826904e-06,-1.842563e-07,-1.0052191e-06,-8.812366e-07,5.789161e-08,-1.6995389e-06,3.7224386e-06,1.3494307e-06,3.4276964e-06,1.3275284e-06,1.8390517e-06,-3.9515676e-06,-2.9321047e-06,1.6293052e-06,3.2285845e-07,2.4316414e-06,-1.4939224e-06,-2.4362014e-06,-3.269737e-06,-2.8127354e-06,-7.0199053e-07,-2.6420432e-06,-3.4905001e-06,-9.200741e-06,6.1323783e-07,-3.289885e-06,-4.286937e-06,-6.994399e-06,-3.074027e-06,-1.4234415e-06,-3.65717e-06,-3.8441563e-06,-1.2306537e-06,-6.451826e-07,-4.6072404e-07,-1.1054486e-06,3.4040463e-07,-4.2388348e-07,-4.9776404e-06,-4.572129e-06,-2.929808e-06,-4.5735123e-06,-2.6321702e-06,-5.5276073e-06,-8.1417454e-07,-1.9885242e-06,-3.8385497e-06,-7.408603e-06,-2.8612294e-06,-3.526997e-06,-2.9200978e-06,-4.597975e-06,-3.766201e-07,-3.0928031e-06,-4.432425e-06,-4.905633e-06,-2.4734163e-06,-1.58602e-06,-3.8466263e-07,-1.267251e-06,-7.1574885e-07,1.9561207e-07,-5.1004845e-06,-6.4928204e-06,-2.0492457e-06,-1.2385143e-06,-3.849813e-06,-8.9351624e-07,-2.0722296e-06,-1.2151198e-06,-2.8939809e-08,-2.5622878e-06,-3.3271401e-06,2.1134761e-07,-3.182971e-06,-7.848374e-07,1.0206933e-06,-1.8723254e-06,-2.6520831e-06,-7.8834273e-07
-2.8194398e-07,-3.4593077e-07,-5.4480665e-06,2.4632008e-08,1.2622954e-07,-7.0615613e-07,-3.4837708e-06,-1.3464347e-06,-9.210563e-07,2.3582082e-07,-9.869707e-07,-3.3737747e-06,3.1503762e-07,-1.5798997e-07,-1.3080981e-06,-1.7054174e-07,-1.9784537e-08,-1.2007264e-07,-5.6983345e-07,-1.9127175e-07,-3.1645678e-07,3.938181e-08,-1.6181517e-06,-1.877323e-06,-2.6556793e-06,-1.7601113e-06,-2.1675003e-06,-8.792177e-07,5.7058244e-08,-4.7182826e-07,1.5580659e-07,-1.0127387e-06,-3.5351246e-07,1.2166343e-07,-1.3216818e-06,-4.7432654e-06,2.0539026e-07,5.9369683e-08,-3.0264033e-07,-3.6291256e-06,-5.397572e-07,-1.4354362e-06,-1.1441155e-06,-1.3013839e-06,-1.2815249e-06,-1.6077893e-06,3.683916e-08,-1.0992313e-06,-1.5394457e-08,3.0574437e-08,-3.0799695e-06,-3.0847178e-07,1.5171256e-07,3.4106563e-08,-4.253455e-06,1.0853299e-06,-9.470818e-07,-1.9863298e-06,1.1365505e-06,6.3165805e-07,-2.0118037e-07,-1.5342043e-06,5.2339168e-08,2.7191895e-08,-2.5492483e-07,-1.9041649e-07,-6.049877e-07,-1.5887251e-07,-3.9384372e-07,-3.5454067e-07,-8.250582e-07,-4.793699e-08,-2.0581022e-07,-1.3007723e-07,4.2161215e-08,-9.593202e-07,-3.727295e-07,1.3411466e-07,-1.2198443e-07,-3.663034e-07,-4.3640287e-07,-2.8583304e-07,-9.195218e-08,-1.7223115e-07,-1.5995407e-07,-6.097831e-08,-3.8860614e-07,-2.347672e-07,-1.9004344e-07,-3.7495474e-07,-3.406444e-07,-5.6575425e-07,3.835688e-08,-5.500606e-07,1.9214724e-08,-3.196777e-08,-2.7722675e-07,2.4138231e-08,7.01982e-08,-5.5973993e-07,-1.08637096e-07,-3.1229308e-07,-5.3505386e-07,-2.89478e-07,-6.797932e-08,-4.7043488e-07,-4.158873e-07,-2.3316167e-07,-3.6972938e-07,-2.5966673e-07,-9.066176e-09,-3.668266e-07,-1.18860086e-07,-9.497265e-08,-4.3495356e-07,-1.2700512e-07,-5.460497e-07,-4.5630665e-07,-8.6275924e-07,1.09110495e-07,-3.695295e-07,-2.6460606e-07,-2.9843991e-07,-4.6665738e-07,3.2737354e-08,-4.0819124e-08,-1.0122598e-07,-6.945935e-08,-3.131418e-07,4.305909e-07,-4.1789343e-07,-3.6351065e-07,-1.5519206e-06,-2.1408407e-07,-7.123252e-08,-2.7939183e-07,-7.327043e-07,-1.6369497e-06,1.0561913e-06,-9.312715e-07,-8.5590534e-07,7.849332e-07,-8.479902e-07,4.4042957e-07,-4.4578928e-07,9.21413e-07,-2.975899e-07,4.402808e-07,-8.2961395e-07,-4.7235557e-07,-1.4335751e-07,2.0030625e-07,8.671632e-07,-6.878575e-07,3.1165825e-07,3.618218e-07,9.697305e-07,6.691826e-07,4.8817583e-07,1.3867927e-07,9.3490627e-07,7.7915297e-07,6.0212176e-07,-2.2693348e-06,-4.2638527e-07,-5.616488e-07,-6.3636344e-07,-1.7615959e-07,3.325998e-06,3.6446954e-07,3.7379667e-07,-6.623027e-07,2.0553634e-07,-3.1934232e-07,-1.8416364e-06,-5.6973624e-07,-7.8029746e-07,1.8689897e-07,-3.9748429e-07,3.791909e-07,-1.18703305e-07,6.469893e-07,6.898997e-08,3.4215782e-07,1.0276872e-06,2.2659447e-07,1.3496454e-08,7.336489e-07,6.531367e-07,7.74548e-07,8.542592e-07,-4.0637659e-07,-1.2410887e-06,-5.110419e-06,-1.9006953e-06,-4.7352737e-06,-1.9310253e-06,-1.620417e-06,-3.7180982e-06,-2.1136307e-06,-4.0476692e-07,-4.236916e-06,-3.3191995e-06,-1.2939015e-06,-7.016718e-06,-1.1266212e-06,-1.6015512e-06,-2.7309961e-06,-4.846365e-06,-5.837101e-06,-3.4309937e-06,-3.1551108e-06,-4.8175125e-06,-2.3032126e-06,2.0639477e-07,-3.7021064e-06,-1.523532e-06,-2.8005777e-06,-1.1698093e-06,-5.5246223e-06,-4.74657e-07,-3.777999e-07,-3.3912152e-06,-1.9907689e-06,-4.0523614e-06,-1.7907986e-06,-3.7115165e-06,-8.067086e-07,-5.5356027e-06,-4.0059217e-06,1.1979915e-07,-2.5203433e-06,-2.5382906e-06,-3.4101429e-06,-4.80831e-06,-5.6364966e-06,-4.0416267e-06,-3.945022e-06,-3.1613862e-07,-5.0692197e-06,6.8067413e-07,-6.3413445e-06,-2.9306477e-06,-3.6558146e-07,-4.5334705e-06,-2.5352547e-06,-4.1637754e-06,6.5497443e-07,-3.1644113e-06,-5.74535e-06,-1.2452841e-06,-5.255405e-06,-4.204493e-06,-3.3765666e-06,7.327672e-07,-3.4954662e-06
-2.2618627e-07,1.4073476e-07,1.5373057e-06,2.1227257e-07,1.1982672e-07,1.0908886e-06,1.8445564e-06,1.3251565e-06,2.1382018e-06,-3.9400723e-07,-8.589839e-07,1.6943035e-06,-1.2860845e-07,9.3427565e-07,5.5715367e-07,2.9937905e-07,6.2463147e-07,3.358995e-08,-4.0526777e-07,2.7826925e-07,-1.1007579e-08,-1.1166833e-08,-7.4929494e-07,3.777126e-07,1.4374087e-06,9.64622e-07,2.7143074e-07,4.7799847e-07,-1.4856829e-07,-7.342669e-07,-2.4785086e-07,1.997899e-07,4.093424e-08,3.7528437e-08,2.714831e-07,5.0343397e-07,2.9154245e-07,-1.5372869e-07,-3.2032548e-07,8.5588005e-07,-7.5910015e-07,8.002087e-07,5.6839696e-07,7.301518e-07,8.7062404e-07,1.435472e-06,-1.7630211e-07,1.3689024e-07,3.3384222e-07,3.5198428e-07,2.1986057e-06,1.4008654e-07,7.44848e-08,3.7379212e-07,2.7760696e-06,-7.997599e-07,-2.4669373e-07,7.806819e-07,6.033348e-07,8.3370105e-07,2.841711e-07,1.2478904e-06,-5.073823e-07,-1.0239631e-07,-2.6234224e-07,4.6190863e-07,-8.272116e-08,2.399717e-07,-1.2841467e-07,3.3024747e-07,2.3522779e-07,1.9503838e-07,-4.938735e-07,-4.134421e-09,-3.7111292e-07,7.856917e-08,-9.24213e-08,2.921839e-07,-2.0854456e-07,1.5667972e-07,4.1696418e-07,-3.8986066e-08,-5.5072394e-07,8.1030834e-08,-1.8858525e-07,1.8462973e-07,-3.445766e-07,-3.701655e-07,2.3300208e-07,-3.5072418e-08,-4.6127667e-07,1.2824472e-07,3.2404785e-08,-6.6944676e-07,-1.0870711e-07,-3.8974906e-07,-6.399735e-08,2.9911487e-07,-7.486426e-08,2.901433e-07,3.3782175e-07,1.5903439e-08,-3.8041384e-07,-4.262276e-07,-2.6712686e-07,-5.5839013e-08,2.1300998e-07,-1.02301655e-07,2.2125063e-07,5.8955027e-07,-3.5785794e-07,-2.3924252e-07,1.2330409e-07,2.6317863e-07,3.8531755e-07,1.598073e-07,-5.5917383e-08,2.785882e-07,7.399703e-07,-6.50952e-07,-7.1158013e-09,1.6039655e-07,1.488593e-07,4.615107e-07,-2.569277e-07,3.4139097e-07,-3.6731964e-07,-1.0453893e-07,2.2780056e-07,-8.0096436e-07,2.761194e-07,-1.2352241e-06,7.6566994e-07,6.0352073e-07,-7.926694e-07,2.1674523e-06,8.310534e-06,5.8681815e-07,-6.0807406e-07,2.7939143e-07,-3.4775695e-08,2.0524017e-06,-5.90842e-07,-4.678713e-07,-1.542407e-06,-6.692568e-07,1.6299259e-06,1.6434569e-07,1.0851724e-06,2.8254453e-07,4.2824047e-07,-2.631231e-06,3.5393248e-07,8.3313887e-07,-1.7325904e-06,-2.1056002e-07,3.4517785e-07,-1.9371373e-07,-1.9810855e-06,2.5124411e-06,2.2113971e-07,-3.845583e-07,-1.566151e-07,6.005962e-08,-1.2032781e-06,1.0183016e-06,1.2908022e-06,-3.266767e-06,-9.385084e-07,-3.9935344e-07,2.1712529e-07,-2.7829816e-07,1.1666222e-07,1.5314563e-06,9.604133e-07,-3.7326726e-07,-1.4723727e-06,2.121311e-06,-9.571839e-07,1.060352e-06,-1.6706698e-06,-3.3490346e-07,-7.444675e-07,-1.5015601e-06,2.0879331e-06,1.2504797e-06,-4.3180785e-07,2.0173347e-06,-3.5054813e-06,-8.428715e-07,-2.728866e-06,4.2675933e-07,-6.2029045e-08,2.6724765e-06,7.312956e-07,3.0568103e-06,1.1455293e-06,1.5962086e-06,1.7406115e-06,1.1212677e-06,5.2598334e-06,2.6851244e-06,1.1252828e-06,1.0076093e-06,3.3323258e-06,1.2491417e-06,1.1459792e-06,1.6806289e-06,2.9240473e-06,2.91438e-06,1.5589151e-06,2.0970788e-06,2.306152e-06,1.8277693e-06,-1.6718445e-08,1.9814806e-06,1.5067237e-06,1.1475992e-06,9.723858e-07,3.3268664e-06,5.0895906e-08,-1.4848954e-06,1.7685375e-06,9.5218013e-07,1.3294662e-06,1.2358644e-06,1.1747745e-06,1.9281993e-07,1.2953374e-06,1.6830897e-06,2.5734457e-07,1.1591328e-06,1.2091537e-06,2.0067848e-06,2.4648034e-06,2.8449715e-06,2.2382953e-06,2.164479e-06,3.8154928e-07,2.1969486e-06,3.1495324e-07,3.7932246e-06,1.8342015e-06,8.031063e-08,2.7104184e-06,1.8207957e-06,1.8442644e-06,-4.9009986e-07,1.6518161e-06,2.4309343e-06,7.3298094e-07,3.4986174e-06,1.762339e-06,2.4694564e-06,-2.0545096e-07,1.9652643e-06
-1.2923141e-07,4.1917673e-07,2.7528613e-06,-5.202986e-07,2.456299e-06,1.2020594e-06,3.7420668e-06,1.2712081e-07,-4.441931e-06,2.7256357e-07,4.333776e-06,6.3374973e-06,-4.1188483e-07,1.0570138e-06,1.675851e-06,-5.230895e-08,-7.401878e-07,-1.1758143e-06,9.0873436e-07,1.2488075e-06,6.617486e-07,3.7335462e-07,3.995461e-06,7.642882e-06,4.367691e-06,3.1479012e-06,5.4585485e-06,1.7800273e-06,3.1055936e-07,7.2176877e-06,-2.2601114e-08,7.524179e-06,-3.5458976e-07,-1.294806e-06,5.9046624e-06,2.0772511e-07,-8.5180307e-07,1.3799038e-07,1.2718294e-06,2.9682858e-06,2.8957916e-06,6.737529e-07,5.6228725e-07,1.1521819e-06,-2.244582e-06,9.2679113e-07,4.1232097e-06,1.6417509e-06,-1.951867e-06,-1.3025555e-06,7.452476e-07,-6.4495293e-07,-1.0788921e-07,-1.1482069e-06,3.1215882e-06,4.9931455e-06,1.8491646e-06,1.1339562e-05,-4.6199904e-07,-9.0146654e-07,1.944029e-06,-3.0227307e-07,-2.7812533e-07,6.849099e-08,5.359657e-07,-1.3286146e-06,1.4822178e-06,-6.3391553e-07,3.2670741e-06,1.4094411e-07,2.0612556e-06,-7.121072e-07,-1.6970744e-06,1.9465274e-06,-7.8856544e-08,3.7867744e-06,1.5296462e-06,2.0860882e-06,4.7018128e-07,2.732661e-07,-7.71259e-07,-6.0459956e-07,6.4144723e-07,2.4466942e-06,1.368527e-06,5.6559765e-07,3.4512695e-06,6.929233e-06,3.027856e-06,2.790659e-06,3.905905e-06,2.8762256e-07,4.1978535e-07,8.443354e-06,-4.5472865e-07,3.3972467e-06,-9.472084e-07,-1.5269715e-06,2.750304e-06,-1.5488603e-06,1.2846962e-06,1.0752947e-06,1.0396609e-06,2.9758587e-07,4.4044307e-07,-1.02363416e-08,-6.2641455e-08,1.2780562e-06,-1.7418225e-06,-8.264137e-08,3.6518172e-06,4.854174e-07,-3.8442818e-07,-4.6313625e-07,1.1038688e-06,-6.889388e-07,1.2275564e-08,-1.065278e-06,1.8404713e-06,4.392139e-06,-4.2678013e-07,8.38534e-06,-7.539296e-08,-9.575319e-07,3.0947053e-06,-9.19839e-07,8.122428e-07,1.6250657e-07,5.305666e-07,3.774274e-06,-5.624129e-07,1.9006576e-06,-1.716322e-06,7.993051e-07,8.826191e-09,2.0624384e-06,-7.494814e-07,7.486983e-08,1.1178931e-07,-6.307127e-07,8.022745e-07,1.4236215e-06,-2.1494327e-07,6.304984e-07,3.4818592e-07,-1.9810177e-06,-1.0863424e-06,1.556274e-06,-6.8534035e-07,8.752146e-07,-8.009579e-07,-1.7260913e-06,2.3852606e-06,-5.2827713e-06,1.6252538e-06,1.1825273e-06,1.3912002e-06,-3.3995993e-06,-9.754885e-07,-2.552445e-06,-1.4848599e-06,-1.4474389e-06,1.2438303e-06,-3.2125668e-06,-5.021685e-07,3.443815e-07,-1.3730266e-06,3.3512288e-07,-8.76188e-07,-5.1425296e-08,6.3100316e-07,2.8479573e-07,2.4383958e-08,-3.5052656e-07,-4.613057e-06,1.0226055e-06,2.4657502e-06,-1.5317647e-06,-1.648296e-06,8.305769e-07,7.5906394e-07,-1.7136907e-06,5.225055e-07,3.560871e-06,7.6929666e-08,-3.6983092e-06,3.1081584e-06,-1.4448128e-06,1.0119124e-05,8.5740487e-07,1.5015169e-06,-1.0316842e-07,4.8190655e-06,1.3102321e-05,4.4742e-07,6.1040632e-06,9.107531e-06,3.397252e-06,1.7496006e-06,5.7214634e-06,-5.899528e-06,6.754386e-06,2.1132728e-06,1.264016e-06,1.1174097e-05,5.4809652e-06,1.7552198e-06,-5.216667e-07,-1.9906176e-06,4.924228e-07,7.761396e-06,6.5269887e-06,9.32871e-06,5.8449696e-06,1.4487737e-06,9.844871e-06,3.336194e-06,3.808177e-06,3.1710883e-06,2.3150144e-06,6.784376e-06,4.315911e-07,3.6561303e-06,5.9774675e-06,5.251958e-06,2.689244e-06,1.3690067e-05,2.961038e-06,2.673761e-07,5.9922063e-06,3.2503199e-06,2.0229973e-06,1.907281e-05,8.03897e-07,8.5112475e-08,6.7221176e-06,-8.1682686e-07,3.837393e-06,6.5187514e-06,1.9454721e-06,-1.6432496e-06,1.2601263e-06,-1.7897156e-07,1.9160448e-06,9.776812e-07,-3.579224e-06,2.3936832e-07,7.084922e-06,8.429619e-06,6.2536637e-06,2.7527622e-06,-1.6692474e-07,6.1979904e-06,5.659665e-06,6.1973005e-06,5.4783986e-06
8.551079e-07,1.7376468e-06,2.0490333e-07,2.0261552e-06,-2.722348e-07,9.745004e-07,2.998621e-07,5.3014105e-07,-1.3101605e-07,3.253808e-07,1.6114967e-08,-5.613919e-08,8.4116306e-07,6.0615565e-07,-1.286362e-07,-1.0478869e-06,4.6898987e-07,2.1746828e-07,4.5946422e-07,2.0406704e-07,-4.2024055e-07,1.3031669e-06,2.738502e-07,-2.7298626e-07,-1.9851824e-07,1.2639678e-06,-1.7707347e-07,-5.3867905e-07,-1.077969e-06,1.3630472e-07,1.9315833e-06,-6.331385e-08,1.5500996e-06,5.8256956e-07,2.149865e-07,7.4049456e-07,9.239087e-07,1.0338435e-06,6.23788e-07,4.9635213e-07,1.0537204e-07,6.5574875e-07,1.4081012e-07,2.5188092e-07,-2.0856123e-07,3.0846223e-07,-9.3300986e-07,3.0312196e-07,3.4383544e-07,-1.3385663e-06,-1.2811614e-07,4.1523032e-07,2.26016e-06,4.0771613e-07,1.1336527e-06,-8.7432824e-08,-2.378626e-07,-8.669567e-07,3.8911244e-06,2.7165759e-06,3.2835578e-07,1.2561726e-07,-1.326752e-06,3.5901147e-07,4.6992835e-07,1.4201511e-06,4.56169e-07,1.131333e-06,-1.0329461e-07,8.0097294e-07,2.898394e-07,-1.7341743e-07,-2.6348437e-07,9.1320146e-07,-3.6742114e-07,-5.13628e-08,4.4737277e-07,-5.7892663e-08,1.3113888e-07,-1.6704526e-07,5.3098586e-07,4.938065e-07,3.6386422e-07,8.8726654e-07,-2.1134751e-07,2.9591115e-07,7.661237e-07,-5.1877244e-08,6.3952015e-08,4.0404444e-07,-1.466137e-07,-1.2261016e-07,-2.3228806e-07,-2.148208e-07,-6.287836e-08,1.4235152e-07,8.4297574e-07,8.248149e-07,3.721006e-08,7.3388867e-07,7.0227e-07,8.9035933e-07,8.555631e-07,1.5820687e-07,4.127896e-08,-1.6517677e-07,-1.2872198e-07,-8.933792e-08,5.064817e-08,6.680732e-07,-3.0297446e-07,-2.8147383e-08,1.9026123e-07,-2.7254845e-07,8.677724e-08,-6.210101e-09,2.3943008e-07,1.147917e-06,6.746779e-07,-1.6918963e-07,1.8839651e-07,-3.2017715e-07,4.911271e-07,4.502267e-07,4.5847435e-07,2.8132953e-07,-1.8139364e-07,5.2860813e-08,2.918621e-07,4.3569415e-08,9.0312426e-07,-1.2215949e-07,4.5530103e-07,-2.4823893e-07,5.607858e-07,1.7734607e-06,2.2103268e-06,3.5037874e-07,-7.9053456e-07,2.4980523e-08,5.7418083e-07,2.3246281e-07,1.2735763e-06,8.743724e-07,-1.16520255e-07,-2.5380444e-07,1.2386602e-06,2.5504096e-07,1.3397836e-06,1.1030285e-06,2.9165932e-08,-2.3846274e-06,-1.153231e-06,1.797929e-06,2.3405434e-08,9.927946e-07,1.3269255e-07,2.6040655e-07,-2.3134528e-06,1.9837403e-06,-1.0596979e-06,-9.2538755e-07,-6.4235314e-07,-2.910337e-07,-9.55541e-08,1.3892687e-06,1.5781238e-06,-3.1301258e-06,4.769529e-07,-4.5374242e-07,-2.4124546e-07,5.248125e-07,4.2918117e-07,-6.886779e-08,2.8376494e-06,-1.1065385e-06,1.0868296e-06,4.2415425e-07,-1.138692e-06,7.1855925e-07,-1.5511176e-08,2.596041e-07,1.8215619e-07,2.0844978e-07,7.3813095e-07,8.7952816e-07,7.425747e-07,-5.9246304e-08,-2.6628131e-06,6.5799196e-07,-1.048371e-06,4.5308684e-07,1.080209e-06,1.5963371e-06,3.41427e-06,3.1260352e-06,2.405669e-06,1.0877726e-06,2.612588e-06,3.4935483e-06,3.9231722e-06,1.8194014e-06,1.6499278e-06,1.93467e-06,2.1217259e-06,1.927147e-06,4.2917782e-07,3.9949086e-06,1.0047404e-06,6.574089e-07,1.7822074e-06,2.6443224e-06,9.4706905e-07,1.4148038e-06,1.4596679e-06,2.458692e-06,1.8037947e-06,3.9659712e-06,4.0971386e-06,1.2446296e-06,-4.6774653e-07,4.750903e-07,2.9380516e-07,1.2368231e-06,-9.361788e-07,3.0299523e-06,-5.265693e-07,1.8801385e-06,2.1794976e-06,2.198747e-06,3.6273716e-06,2.5368888e-06,2.835517e-06,3.1668485e-06,1.7113712e-06,1.7622552e-06,1.8876171e-06,1.3091102e-06,1.0822564e-06,3.1014156e-06,2.2904899e-06,2.453697e-06,2.8813558e-06,2.563045e-06,2.8490379e-06,2.6445157e-06,3.0923197e-06,2.731577e-07,2.8290196e-06,1.4464374e-06,4.100008e-06,3.6623287e-06,9.001652e-07,2.0565842e-06,3.4820823e-06,1.3697248e-06
-1.0651102e-06,-8.827044e-07,-2.0004447e-06,-1.661271e-06,-1.4455513e-06,8.0021846e-07,-2.5307295e-06,-4.0269234e-07,7.824258e-06,-1.6575964e-06,-2.5695058e-06,-3.4640116e-06,-2.3673751e-06,1.0163358e-06,-4.765172e-07,-1.4401553e-06,-6.942994e-07,-9.662542e-07,-2.623387e-06,-2.979578e-07,-2.1479696e-06,-3.8727e-07,-9.767358e-07,-3.786587e-06,-2.4273324e-06,-3.5421435e-06,-3.6609142e-06,1.10555e-06,-1.0657437e-06,-7.171444e-06,-1.8551968e-06,-3.6943443e-06,-2.015345e-06,1.5831534e-07,-8.598033e-07,1.2722742e-06,-1.4015486e-06,-1.6806887e-06,-1.7672331e-06,-4.1943877e-06,-2.0677298e-06,-1.432071e-06,-8.884004e-07,-7.2243375e-07,1.0782661e-06,6.886127e-07,-2.418749e-06,-3.5224766e-06,-8.234159e-07,3.3893457e-07,3.13685e-07,-1.6446152e-06,-9.5189006e-07,9.508592e-07,2.98035e-07,-2.0545149e-06,-6.7098574e-07,-4.2315155e-06,5.953811e-07,-1.834404e-06,-1.3530256e-06,4.3054513e-07,-1.9996637e-06,-9.2147434e-07,-1.4700616e-06,-9.332434e-07,-1.7538374e-06,-6.184683e-07,-3.4619584e-06,-7.0810063e-07,-2.494178e-06,2.852362e-07,-9.550229e-07,-3.3172723e-06,-1.043407e-06,-2.317416e-06,-2.2120803e-06,2.4682e-07,-9.969871e-07,-1.9388306e-06,-1.4477488e-06,-8.5065307e-07,-2.2468796e-06,-1.4887587e-06,-1.965768e-06,1.8519228e-07,-1.4300863e-06,-3.0067852e-06,-2.2611516e-06,-2.9504235e-06,-3.0941821e-06,7.6953e-08,-8.053128e-07,-7.1838326e-06,-4.2780525e-07,-2.5497004e-06,-9.3712885e-07,1.0862773e-06,-2.657348e-07,1.3942929e-06,-7.2465286e-07,-1.492347e-06,-3.2086189e-06,-2.2012791e-06,-1.4942577e-06,-7.367329e-07,-4.1963534e-07,-8.438242e-07,5.132232e-07,-2.0873637e-07,-2.8348206e-06,-2.2159943e-06,-9.794078e-07,-1.9003923e-07,-1.4502331e-07,-1.13754e-06,-1.9041297e-06,-1.7967471e-07,-3.3914765e-07,-2.336945e-06,-9.4270865e-07,-1.792292e-06,-6.916935e-07,-1.1660034e-06,-1.8543949e-06,2.2222304e-07,-1.6862018e-06,-8.228597e-07,-2.7911383e-06,-5.5255505e-06,-1.7014266e-06,-5.80453e-06,2.1513013e-06,2.504197e-07,-7.4463503e-07,7.050653e-08,2.534104e-05,-1.083399e-06,3.294821e-07,-3.3095498e-06,3.046673e-07,-3.7418372e-06,-3.1431591e-06,4.7273682e-07,-4.702071e-07,1.0904167e-06,3.3453925e-06,6.8816314e-07,8.8729905e-07,-3.7422776e-06,-1.6833221e-06,-1.5115462e-06,-4.808534e-06,7.204991e-06,2.3399764e-07,2.655103e-06,5.4510167e-08,5.3178246e-06,-2.4834765e-06,4.7443345e-06,3.985696e-06,1.8143136e-06,-4.5003162e-07,4.9351966e-06,2.7142776e-06,-3.322931e-06,-4.066717e-07,-3.7664981e-06,-3.3673034e-06,-8.0690296e-07,-1.5114854e-06,-3.3336403e-06,1.2138686e-06,1.068575e-06,2.5869494e-06,-3.0534104e-06,-1.9595363e-06,2.9363962e-06,-1.2633509e-06,1.7339204e-07,-2.1497135e-06,2.3521097e-06,3.2375538e-06,-1.8612493e-06,-2.2133686e-07,3.388037e-06,-1.0477459e-06,-2.8767174e-06,-9.03338e-06,-1.8936001e-06,-6.855662e-07,1.3001077e-06,-2.143419e-06,-4.6323767e-06,-2.5551303e-06,-1.4312822e-06,-2.9122436e-06,-5.074179e-08,-4.658233e-06,-1.0386605e-06,2.3570175e-05,-3.0200558e-06,-3.1678537e-06,-2.5864501e-06,-6.19735e-06,4.0852365e-07,2.272111e-08,-2.442724e-06,-1.2944968e-06,-1.5607255e-06,-3.5190562e-06,-4.973233e-07,-1.2543356e-06,1.1486117e-06,-3.2534563e-06,-1.2829125e-06,6.252181e-07,-6.5256872e-06,-1.9501913e-06,1.9962883e-06,-2.473233e-06,-7.003482e-06,-6.296586e-07,-2.9531839e-06,-2.8311347e-06,7.713623e-07,-4.3455684e-06,-2.9245477e-06,-6.009716e-06,-3.3898568e-06,-5.79593e-07,-1.9099102e-06,-8.570043e-06,-9.0556966e-08,6.72227e-07,-9.4985603e-07,-1.0581299e-06,-1.0153569e-06,-2.1942378e-06,-4.9398013e-06,-3.199467e-07,1.0673994e-06,-1.7348286e-06,-2.608175e-06,-1.4947384e-06,1.2682522e-06,-3.1135753e-06,-2.5298214e-06,-3.1848544e-06,-3.2391008e-06,-1.9004118e-06,-1.2432365e-06,-3.9778643e-06,-3.2547607e-07,-2.094497e-06,-9.280386e-07
1.4577238e-06,2.6087423e-06,2.4293213e-06,2.8162929e-06,-8.945716e-07,2.9653158e-06,1.2766009e-08,3.6409648e-07,-4.2149227e-06,1.4280718e-06,6.2442905e-07,4.233749e-06,3.2359512e-06,2.8168358e-06,1.6656589e-06,-1.2905386e-06,3.1435195e-06,8.457837e-07,-5.284649e-07,3.0659219e-06,8.0484153e-07,2.1526198e-06,3.3106137e-06,-9.990721e-07,2.220215e-06,5.251879e-07,-1.8504504e-06,3.5036733e-06,3.0751507e-06,5.55687e-06,1.590279e-06,-3.8733396e-07,1.9546765e-06,2.289213e-06,3.5600615e-06,-6.5562676e-06,3.6266597e-06,-6.531468e-08,8.566619e-07,-7.8818994e-07,6.7376504e-06,2.1379915e-06,2.5819231e-06,1.9104868e-06,4.43877e-07,4.621592e-06,1.6286663e-06,2.282459e-06,-5.056587e-07,3.6620381e-06,4.0308128e-06,3.925753e-06,1.7728715e-06,2.3849645e-06,1.0621727e-06,1.5309357e-06,-2.6325022e-06,6.2902467e-07,-4.5855018e-08,4.0184364e-06,-5.4582245e-07,3.2503535e-06,-6.8870264e-07,1.1954227e-06,6.8402085e-07,1.2697892e-06,1.3047656e-06,6.739143e-07,-1.2806588e-06,2.0103723e-06,-3.5461971e-07,-6.662251e-07,-6.433256e-06,8.0539564e-08,1.204849e-06,2.358703e-06,1.4306016e-06,1.5027598e-06,9.339135e-07,-1.3233313e-07,1.8534113e-06,2.5721056e-07,-9.10774e-07,1.668735e-06,5.0585123e-07,7.1835916e-07,3.0973476e-06,-1.7389733e-06,1.6720653e-06,-1.5749805e-08,-1.5256139e-06,1.6177983e-06,2.0757413e-06,2.783161e-06,3.708197e-07,-8.8042316e-07,1.4436466e-07,1.1860147e-06,2.0855796e-06,-2.1052056e-06,3.5035096e-06,-2.469892e-07,-1.286996e-07,-4.796022e-07,4.4203025e-06,7.6621114e-07,8.4164304e-07,5.619708e-07,-3.224187e-07,2.922568e-06,6.295538e-07,1.6956121e-06,-1.0512963e-08,1.8763278e-06,2.1159142e-06,2.0078653e-06,4.963007e-07,1.5643375e-06,-2.1017343e-08,9.422612e-07,-1.4873503e-06,9.89453e-07,2.2474161e-07,2.4459582e-06,-6.490006e-07,1.6571075e-06,-6.492917e-07,3.2873513e-07,-6.4260025e-06,-6.8116724e-06,-8.8652505e-06,-7.868451e-06,-1.7784967e-05,6.3465536e-06,1.1318264e-06,4.926931e-06,4.3734326e-07,-1.3762967e-05,1.0335998e-05,-8.797103e-06,-1.0347714e-05,2.2103804e-05,-1.0315042e-05,1.2251833e-05,-6.740641e-06,1.5356007e-05,5.693254e-06,8.2800725e-06,-9.759163e-06,-4.8315333e-06,-7.283497e-06,-7.706735e-06,1.009676e-05,-2.6814427e-05,1.3364889e-06,1.3289822e-05,9.493446e-06,8.397769e-06,3.5403948e-06,1.1776453e-05,1.3184406e-05,6.0750695e-06,7.378892e-06,-2.9823846e-06,-1.686207e-05,4.9961263e-06,-8.855105e-06,-1.5303722e-05,-1.1740032e-05,6.9334246e-06,6.9332964e-06,-1.7993034e-06,-3.944644e-06,1.06794305e-05,-1.3889159e-05,7.886671e-06,1.4597492e-06,1.3336332e-05,-1.7445478e-05,1.4089012e-05,-1.1623208e-05,6.482949e-06,-2.0643608e-06,6.9345824e-06,2.9383134e-06,4.0867594e-06,4.3869804e-06,1.7101558e-05,-4.0722707e-06,-1.2467747e-05,-5.9537197e-06,-2.359395e-06,9.113943e-07,1.617987e-06,1.1825405e-06,1.2908833e-06,-4.8015977e-07,2.3931018e-06,-1.0224975e-06,8.9937544e-08,-6.0242187e-06,4.4171355e-07,-1.04440744e-07,3.1642983e-06,2.808323e-06,2.4515143e-06,9.46283e-07,-1.6161226e-06,1.7993598e-06,1.2389754e-06,-8.60268e-07,2.1147835e-06,2.5207422e-07,1.2877315e-06,5.126398e-06,-1.3353075e-06,1.7956108e-06,3.156217e-07,-1.6714861e-06,2.1572546e-06,2.2287907e-06,3.712199e-06,1.7720937e-06,-5.903405e-08,1.3609522e-06,1.347913e-06,2.9036407e-06,9.656566e-07,2.6607381e-06,-4.1669932e-07,3.436705e-07,-1.092612e-06,9.593688e-06,1.3018353e-06,1.7320493e-06,6.1568505e-07,-2.483601e-07,2.9239775e-06,1.5679051e-06,1.431272e-06,-4.740092e-07,2.3330158e-06,1.7595431e-06,2.4882427e-06,9.435095e-07,1.4988177e-06,-8.4570405e-07,1.8763494e-06,1.8393436e-07,-5.5349176e-08,-1.6221458e-07,3.1676805e-06,-4.931241e-07,2.677323e-06,-7.506791e-07,2.300455e-07
5.850036e-07,-3.789777e-07,-7.450023e-07,-5.4015527e-07,2.6350594e-06,-1.2193475e-08,-5.083906e-07,-2.0920425e-06,-7.83371e-06,7.243446e-07,4.3116966e-06,1.907779e-06,1.8729427e-06,1.1383771e-06,-1.8190253e-06,1.3892839e-06,3.3396287e-07,-4.0012952e-07,1.913422e-06,5.9619913e-07,3.8703044e-07,-8.2684e-07,8.821307e-07,2.3070045e-06,1.489449e-06,1.4353215e-06,1.9525041e-06,-2.1354206e-06,9.662214e-07,9.472973e-06,1.8961396e-06,1.3248514e-06,-4.5696078e-07,-9.054115e-07,2.0929629e-06,-1.4426452e-06,2.0460948e-06,6.111242e-08,-2.9756103e-07,1.2502077e-06,4.1555177e-06,3.1268442e-08,1.5131075e-06,6.034092e-08,-2.1414012e-06,-1.1274743e-06,2.0218665e-06,2.985375e-06,-1.5821677e-06,1.5436605e-07,-4.8003662e-06,9.729496e-07,6.651996e-07,-1.2633449e-06,-2.9535142e-06,2.8438076e-06,1.157604e-06,2.5020652e-06,-7.6895395e-07,1.3835723e-06,1.0777019e-06,-3.5992525e-07,1.6965565e-06,1.0084433e-06,1.2005208e-06,-3.2521496e-07,1.8363021e-06,-5.5186717e-08,4.4669823e-06,1.4677356e-06,9.258282e-07,-6.5339225e-07,3.081459e-07,2.1617125e-06,9.896171e-07,1.3713559e-06,1.9217973e-06,1.0135503e-06,6.0129906e-08,1.8754178e-06,5.1748526e-07,4.454418e-07,1.7917412e-06,1.6321354e-06,1.246475e-06,-4.485474e-07,1.7001136e-06,3.1816758e-06,2.2565896e-06,1.5831979e-06,2.549669e-06,-1.0853979e-06,1.0742933e-07,8.505842e-06,1.0642706e-06,1.5952296e-06,-2.5553686e-07,-6.979436e-07,1.2412414e-06,-1.0303804e-06,1.2031103e-06,1.2711503e-06,1.666848e-06,1.076705e-06,2.1956348e-06,1.2353344e-07,1.4689529e-06,7.9313656e-07,-7.2341743e-07,6.0877426e-07,2.9451485e-06,1.7038699e-06,-7.2495475e-08,-2.4214015e-07,-2.3127013e-06,8.998869e-07,9.528886e-07,-1.8662209e-07,-5.9821986e-07,2.5997547e-06,1.3743406e-06,1.2563098e-06,-3.980527e-07,7.107685e-07,1.9916072e-06,3.1232105e-07,1.418505e-06,4.381503e-07,-2.0017937e-06,1.345006e-06,-2.414572e-06,-7.7046167e-07,-1.1585405e-05,1.05396694e-07,-1.5440692e-06,-5.142364e-06,-3.698291e-05,-2.9470284e-06,4.4117983e-06,-2.031181e-06,-4.6793793e-06,5.374676e-06,-3.1161728e-06,-1.7124544e-06,-8.164563e-07,7.13606e-06,-5.942401e-06,3.2263702e-06,-5.5246674e-06,1.4094235e-07,-2.3374334e-06,4.999766e-06,4.7989524e-06,-1.3595423e-05,3.5952773e-06,2.1382236e-06,1.7183554e-06,2.1611017e-06,8.580681e-06,-5.641729e-06,2.128428e-06,1.4163544e-06,3.6109714e-06,6.378275e-08,-4.6085993e-06,-1.984987e-06,-6.618021e-06,9.1602315e-06,-1.304558e-06,3.5865432e-06,2.2480772e-06,-9.1500965e-08,-3.1593645e-06,1.5763317e-07,-8.284509e-06,6.97204e-06,-1.6689725e-06,8.2578407e-07,-2.2619824e-06,1.3759736e-06,-3.026415e-06,-1.1883371e-06,-1.7354953e-06,4.738505e-06,-5.703939e-06,-8.844665e-06,3.9511924e-06,3.6608328e-06,1.3036957e-05,-5.504743e-07,5.1010734e-06,-4.789294e-06,4.5968786e-06,2.9180505e-06,1.584999e-06,1.0044651e-07,4.8812544e-06,-9.557292e-08,3.1974923e-06,1.5324745e-06,-2.3537183e-05,-3.274111e-07,1.8224057e-06,2.5701022e-06,5.1215e-06,1.2406975e-06,-1.6411102e-06,2.683093e-06,-7.740615e-07,-6.625104e-07,3.1937536e-06,9.550879e-07,3.4027458e-08,-2.1126061e-06,2.770602e-06,-1.0143927e-07,1.3806599e-07,5.79061e-06,7.09615e-07,-3.4983366e-06,2.6328823e-06,2.561416e-06,-1.03021314e-07,1.4600129e-06,2.223789e-06,-1.64691e-06,4.9029372e-06,3.0960105e-06,6.5218246e-06,2.7403612e-06,6.202961e-07,1.1155338e-06,8.643608e-06,-9.734903e-07,-1.1390547e-06,-6.8692344e-08,-8.4535564e-08,1.4650049e-06,3.6906636e-06,3.5623116e-06,-1.2702623e-06,-1.558278e-06,-1.8662377e-06,3.7744267e-06,-4.6009697e-07,-2.841679e-06,2.1846502e-06,4.4791577e-06,3.0193185e-06,3.7108788e-07,2.5320533e-06,-1.3638531e-07,3.468053e-06,-1.4815223e-06,2.7617903e-06,8.028637e-07
