0,1,2,3,4,5,6,7,8,9,10,11,12,13,14,15,16,17,18,19,20,21,22,23,24,25,26,27,28,29,30,31,32,33,34,35,36,37,38,39,40,41,42,43,44,45,46,47,48,49,50,51,52,53,54,55,56,57,58,59,60,61,62,63,64,65,66,67,68,69,70,71,72,73,74,75,76,77,78,79,80,81,82,83,84,85,86,87,88,89,90,91,92,93,94,95,96,97,98,99,100,101,102,103,104,105,106,107,108,109,110,111,112,113,114,115,116,117,118,119,120,121,122,123,124,125,126,127,128,129,130,131,132,133,134,135,136,137,138,139,140,141,142,143,144,145,146,147,148,149,150,151,152,153,154,155,156,157,158,159,160,161,162,163,164,165,166,167,168,169,170,171,172,173,174,175,176,177,178,179,180,181,182,183,184,185,186,187,188,189,190,191,192,193,194,195,196,197,198,199,200,201,202,203,204,205,206,207,208,209,210,211,212,213,214,215,216,217,218,219,220,221,222,223,224,225,226,227,228,229,230,231,232,233,234,235,236,237,238,239,240,241,242,243,244,245,246,247,248,249,250,251,252,253,254,255,256,257,258,259,260,261,262,263,264,265,266,267,268,269,270,271,272,273,274,275,276,277,278,279,280,281,282,283,284,285,286,287,288,289,290,291,292,293,294,295,296,297,298,299,300,301,302,303,304,305,306,307,308,309,310,311,312,313,314,315,316,317,318,319,320,321,322,323,324,325,326,327,328,329,330,331,332,333,334,335,336,337,338,339,340,341,342,343,344,345,346,347,348,349,350,351,352,353,354,355,356,357,358,359,360,361,362,363,364,365,366,367,368,369,370,371,372,373,374,375,376,377,378,379,380,381,382,383,384,385,386,387,388,389,390,391,392,393,394,395,396,397,398,399,400,401,402,403,404,405,406,407,408,409,410,411,412,413,414,415,416,417,418,419,420,421,422,423,424,425,426,427,428,429,430,431,432,433,434,435,436,437,438,439,440,441,442,443,444,445,446,447,448,449,450,451,452,453,454,455,456,457,458,459,460,461,462,463,464,465,466,467,468,469,470,471,472,473,474,475,476,477,478,479,480,481,482,483,484,485,486,487,488,489,490,491,492,493,494,495,496,497,498,499,500,501,502,503,504,505,506,507,508,509,510,511
-1.1907072e-07,-2.4141207e-06,-6.2354898e-06,-2.242135e-07,-1.209007e-06,-6.843009e-07,3.6686177e-07,3.3860456e-07,-1.311098e-06,-5.9557334e-07,2.1806935e-07,-7.7803705e-08,1.1211347e-06,-3.6565422e-07,5.121993e-07,-3.7951943e-06,-5.8020414e-06,1.1923765e-07,-3.5491195e-07,-9.913388e-07,-6.8140275e-07,-9.571938e-07,-1.6528355e-07,-1.5182327e-06,1.9636652e-06,-6.6296434e-07,1.5316211e-06,-7.052903e-07,-8.5169097e-07,4.9537357e-07,7.4841523e-07,-2.4728731e-08,1.0550253e-06,7.141208e-07,6.044872e-07,-2.7931264e-07,-1.5517628e-06,2.6196912e-07,5.2495784e-07,-1.9560865e-07,2.2757709e-07,1.214788e-06,-2.588658e-06,1.1304279e-06,6.8134185e-08,-1.6292028e-06,-1.4472298e-06,1.2844246e-06,3.5977922e-07,-1.1631353e-06,-7.287708e-07,-2.5823551e-06,1.409174e-07,-7.4689825e-07,-5.588439e-07,6.012314e-08,-1.3969143e-06,-2.0205352e-06,1.1664389e-06,1.0769951e-06,-1.276859e-07,6.574761e-07,2.9311466e-06,2.6939557e-07,-1.1984409e-06,2.0135364e-07,4.6836985e-07,1.4062638e-07,-7.129905e-07,1.058868e-06,-2.3924144e-07,6.656579e-07,-3.0802923e-08,4.6510928e-07,1.5672445e-06,-2.3165117e-06,-3.9918e-07,-3.4604404e-06,1.6613777e-07,2.3950895e-07,2.1435957e-07,-3.7970756e-07,6.0542413e-07,2.9838075e-06,2.779321e-07,7.493112e-07,1.6262426e-08,2.720963e-07,-1.2352484e-07,1.181033e-06,2.9301787e-06,-3.1806616e-07,-1.2694808e-06,1.30016815e-08,5.208212e-07,-5.9029365e-08,-2.4154e-07,-7.368467e-08,2.125902e-07,-7.159983e-08,-7.2083355e-07,-1.5539578e-07,1.3678965e-06,6.4142284e-07,4.582129e-07,-1.0724746e-06,-3.258271e-06,8.464986e-07,4.6550312e-07,-5.583736e-07,1.0035003e-06,-9.628545e-07,-5.8856307e-07,1.7416739e-06,-1.8670949e-07,4.3187572e-07,-1.7878162e-07,-1.5746264e-06,-7.159957e-08,-1.4054439e-07,3.1885583e-07,-2.86414e-07,-2.6650387e-06,-7.0978194e-07,7.1304737e-07,-4.649703e-08,4.1950182e-07,4.1541114e-07,-2.3329829e-08,-1.4781776e-08,3.157536e-07,-4.455501e-08,5.1692166e-07,1.014012e-06,1.303907e-07,5.6334146e-09,4.2383624e-07,-3.285139e-07,7.014951e-08,-6.443459e-08,-1.7459477e-08,3.2318499e-06,3.4717576e-07,-9.562823e-07,1.4075952e-07,-4.886148e-07,-1.4109364e-07,-2.5393817e-07,2.0582645e-07,-5.517119e-08,7.212406e-07,-3.2444447e-07,8.8695566e-07,1.2862323e-06,-1.9747606e-06,8.882296e-07,-6.1605755e-07,-1.0775419e-06,7.8669933e-07,4.5382842e-07,1.6626885e-07,2.5922938e-07,4.1130303e-08,2.0604082e-07,-9.568959e-07,2.0764818e-07,-4.936639e-08,2.3952177e-07,7.5085765e-08,2.1173946e-07,3.1056331e-06,5.5514016e-07,-9.773733e-08,-6.2366405e-07,3.429957e-07,-1.3956005e-06,-4.054763e-08,-8.24588e-07,-2.2541273e-07,5.1318125e-07,-9.303687e-07,1.7889281e-08,-7.4570465e-07,2.484702e-07,-7.973544e-08,-6.525175e-07,-1.1742625e-07,3.1348532e-07,-1.2062733e-07,1.18208575e-07,1.2428916e-06,1.3485115e-07,-1.166802e-07,-1.7707295e-07,4.519742e-07,1.2581505e-07,-1.6996177e-07,4.157926e-07,-2.4657402e-07,2.8743247e-07,1.797262e-07,8.2719754e-07,1.1711508e-06,-9.3350525e-07,7.463925e-07,-6.914837e-08,1.8729975e-07,8.7308575e-07,-1.9880508e-07,-1.6891745e-07,1.0915791e-07,-2.3996477e-06,-4.3291604e-07,7.261e-07,-4.078478e-07,-2.3699782e-07,2.5897964e-07,4.813432e-06,6.407145e-07,-1.6290676e-07,2.418823e-07,9.165355e-08,1.4740152e-07,-4.8137906e-07,1.5147543e-07,2.539244e-07,2.1094519e-07,2.84772e-07,-2.2859035e-07,1.0255936e-06,9.583504e-07,1.15814984e-07,2.2784354e-07,2.9141566e-07,-5.3771015e-07,3.832808e-07,2.822263e-08,1.322692e-07,3.1633903e-07,-1.1475918e-06,-4.9952575e-09,-2.6219826e-07,4.3547283e-07,8.827615e-07,-2.0737997e-07,-1.447278e-06,2.4720885e-07,-4.4650015e-08,-3.098437e-08,-2.476933e-07,1.4639022e-07,1.819125e-07,3.8326385e-07,-4.4830106e-08,-5.8570386e-08,1.0693492e-08,2.9513296e-07,5.291684e-06,2.8900058e-06,-1.8335383e-07,-1.2782968e-06,6.128351e-06,-1.3101056e-06,-1.2556834e-06,9.81905e-06,1.525865e-08,-5.3544852e-08,7.1881686e-07,-1.2163966e-06,1.2821299e-06,-1.6650972e-08,4.6558916e-06,2.4493094e-05,-7.7488033e-07,-1.6034056e-07,2.3882974e-06,1.8333043e-06,-1.1897174e-07,3.81434e-07,1.8827022e-06,8.653153e-07,6.9354263e-07,1.913595e-06,1.7166717e-06,-4.5101647e-06,2.0689035e-06,-4.0831133e-06,-1.55961e-06,4.2411407e-06,-2.5945235e-06,-1.5630148e-06,1.5891693e-06,-3.6680394e-06,5.3497024e-07,4.2750423e-07,3.062407e-06,3.8118765e-07,2.380287e-06,4.716955e-06,1.0407124e-06,-2.1373168e-07,2.6780044e-06,-1.8634801e-06,1.682597e-07,1.8770801e-07,-6.7708515e-07,-3.0551166e-07,2.9741705e-06,-2.1261844e-06,1.2452581e-06,2.2608072e-06,7.7875296e-07,-2.4831597e-06,-4.8507936e-06,-7.1234786e-07,-4.280917e-06,1.1336435e-06,-1.6511899e-06,-5.588341e-07,-1.3675227e-06,3.9448773e-07,1.0267626e-06,5.9537376e-07,-1.2336203e-06,8.248492e-08,1.0066675e-06,-3.153582e-07,2.6325216e-07,1.0150114e-07,-2.349506e-06,2.6879798e-06,-5.8672567e-06,-1.6700891e-06,-4.3599807e-06,3.249702e-07,3.936135e-06,1.6229749e-06,-7.0437095e-06,-1.8576467e-06,4.32383e-06,2.166905e-06,1.1004298e-06,1.3853497e-06,-4.6851108e-07,1.8113769e-06,-3.3714155e-06,-1.3697396e-06,-1.1968098e-06,-1.3982748e-07,3.3421233e-07,7.6552334e-07,-6.4900675e-08,1.3492021e-06,-3.9839472e-07,-2.6827203e-07,8.8415834e-07,-3.0008796e-06,-1.5655303e-08,-6.6787766e-07,1.6604965e-06,2.3784146e-06,9.699398e-07,4.3267403e-07,-4.33375e-06,1.8639174e-06,-5.990833e-08,4.8127777e-06,5.9778125e-07,4.784871e-07,-1.9022359e-06,-1.114062e-06,-8.353103e-07,3.2794537e-07,-2.5756945e-06,3.4930972e-07,-4.7851995e-07,5.501696e-07,7.755084e-07,7.2932005e-07,1.7908453e-06,-4.0532734e-07,-3.3685794e-07,1.5240562e-07,9.790208e-07,-9.853008e-08,-1.8946265e-06,-7.671393e-08,-4.8107336e-07,1.1583066e-06,1.9709369e-06,2.0923466e-07,-2.9259773e-08,1.4327629e-06,6.172758e-07,1.7625839e-06,-3.1992928e-07,-3.9326125e-07,-9.2444753e-07,8.8945916e-07,-1.0403402e-06,3.2883922e-06,-2.1365973e-07,-1.0456181e-06,-1.0440708e-06,-4.584188e-08,-2.009194e-07,5.8806694e-07,8.496506e-07,2.6099974e-06,2.4625626e-07,1.5995427e-06,3.5932737e-06,5.454178e-07,2.782462e-07,-2.6022585e-07,2.0213593e-06,3.7384484e-07,4.5944574e-07,1.6008803e-06,6.1808737e-07,1.9112574e-07,1.7395403e-06,-3.3103788e-08,1.2777664e-06,2.0318178e-06,1.0338413e-06,2.1907294e-06,1.2590449e-06,1.00994264e-07,-2.620439e-06,4.678903e-07,1.9675929e-06,-2.3363745e-07,-3.1211016e-07,-7.590786e-07,-7.0477984e-07,4.972786e-07,-3.8858545e-08,1.2567759e-06,3.6581963e-07,-3.749469e-07,-4.8725246e-07,-5.998455e-07,1.930765e-06,7.74152e-07,9.1888126e-07,3.8873873e-07,6.0050087e-07,-6.7854296e-07,1.7640645e-08,4.4538558e-07,-2.918826e-07,-8.7688136e-08,7.231133e-07,-5.545387e-07,1.5413311e-06,8.2122466e-07,5.405918e-07,1.1797246e-06,-1.7369464e-06,1.2289368e-06,-1.832741e-06,-2.4877028e-07,1.5193491e-06,1.119474e-07,-1.7522578e-07,3.1831582e-06,-1.2493997e-06,3.7196708e-07,3.3733365e-06,-9.387673e-07,-2.3593539e-06,-6.8183226e-07,2.987895e-06,4.4108165e-06,-5.315578e-07,-1.2278872e-06,2.1314947e-06,-5.547933e-07,-4.5335184e-07,3.7863128e-07,-8.132824e-07,2.1181807e-08,5.192697e-07,-5.7766476e-07,2.279505e-06,2.4172532e-06,-2.4347628e-07,1.2225643e-06,1.3429598e-06,8.2098006e-07,-5.232218e-08,-2.7021014e-07,3.1122417e-07,2.6674047e-06,-1.3649798e-06,-2.0940718e-08,8.560653e-07,1.7665e-06,1.0077661e-06,-2.1684258e-08,-8.2388135e-07,2.5981623e-07,-3.9663112e-07,-9.160577e-08,-4.6062024e-07,4.251878e-07,-9.003159e-07,8.8501076e-07,-1.157521e-07,1.486073e-06,3.710332e-07
-5.19055e-10,-6.214744e-07,-3.267785e-06,-6.4645826e-07,-3.5173016e-06,-5.060212e-06,7.390385e-08,8.364514e-07,-1.8959342e-06,-8.724476e-08,5.929884e-07,9.1516355e-08,6.964142e-07,-3.8684504e-07,2.83496e-07,-1.1497659e-06,-3.604184e-06,-2.977834e-07,3.6171613e-07,-1.248697e-06,-1.2758965e-06,-8.337969e-07,-1.6489237e-06,-3.5525815e-07,6.6444574e-07,9.82601e-09,5.5102333e-08,4.734258e-07,2.4771448e-06,1.7853808e-06,4.0835272e-07,-6.94698e-07,7.054953e-07,-1.9808756e-07,7.306931e-07,-3.455176e-07,-1.039417e-06,9.9421584e-08,-1.0485179e-07,-7.4611404e-07,-5.8679797e-07,-7.8607246e-07,-1.277881e-06,1.0150436e-06,-4.1011924e-07,-7.1886365e-07,-1.0324273e-06,-2.9836062e-06,-1.5040601e-07,-5.386721e-07,-1.1260008e-06,-1.9467298e-06,9.526139e-07,6.391734e-08,-5.1984574e-07,-5.429264e-07,-1.2735351e-06,-2.0921982e-06,8.875928e-07,2.3568084e-08,-5.928606e-07,-1.3487413e-07,-6.444574e-08,2.732539e-09,-7.632452e-07,2.6044486e-07,2.6402245e-07,-1.6188183e-06,-4.6315e-07,-2.3323477e-07,5.5386283e-07,4.3923725e-07,-6.557269e-08,-9.957748e-08,-3.3019506e-07,-6.699211e-06,4.5543425e-07,-2.6325863e-06,4.915908e-07,-4.133122e-07,-7.6269714e-08,-5.544088e-08,1.9248573e-06,-1.2500576e-06,-4.864224e-07,-5.397024e-08,3.3432207e-07,-1.5145758e-08,-5.379845e-07,4.3342716e-06,3.4255852e-06,3.8222504e-07,8.794942e-07,-1.1606706e-06,1.4829244e-06,6.180916e-08,6.08292e-07,2.6081733e-07,1.7479103e-07,-2.3471924e-07,4.538329e-08,-5.0103665e-07,1.2086599e-06,1.8145646e-07,5.149767e-07,-1.0033295e-06,-1.8469926e-06,-7.826022e-07,8.305093e-07,-7.3675903e-07,-3.615322e-06,4.603015e-07,-2.6038924e-07,2.9309143e-07,6.2709705e-07,-8.3681647e-07,7.825271e-07,-2.0647376e-06,2.4987884e-07,-1.2633927e-07,5.840651e-07,-8.780573e-07,-1.6354343e-06,-2.9665017e-07,2.1283843e-06,-1.5227145e-07,-5.3746464e-07,2.5106635e-07,-1.4232425e-08,1.0762492e-06,1.2447664e-06,-1.7495404e-08,1.753884e-07,7.0121416e-07,1.4647033e-07,8.533213e-08,2.6614813e-07,-1.9670499e-07,5.2793784e-08,-1.6558543e-07,5.9546846e-07,1.4397896e-06,-5.723917e-08,-2.219221e-06,1.7738776e-06,2.3273556e-06,-1.4450609e-07,-1.0625142e-06,1.2447795e-07,5.806545e-07,-6.350719e-08,-9.028379e-08,7.028328e-07,9.910904e-07,-1.1295558e-06,7.2781336e-07,-9.415761e-07,-2.1476112e-07,7.612504e-07,-1.0535963e-08,8.608441e-08,2.993213e-08,2.5863483e-07,1.2935239e-07,1.5662829e-07,-3.4722476e-08,-1.5364827e-07,2.0701367e-07,-2.0214198e-07,-7.856743e-07,2.0926877e-06,2.942364e-07,-1.8476675e-07,4.3844602e-07,5.047997e-07,1.0601356e-06,-5.572746e-08,-2.5468174e-07,1.9668002e-07,4.309506e-07,1.1960687e-07,-2.4696396e-07,-1.0215979e-06,1.3130722e-07,-2.493681e-07,-6.1165673e-07,-5.8494845e-07,2.39636e-08,-4.13797e-07,7.758818e-08,7.947185e-07,1.4739437e-07,8.873618e-08,-2.5662192e-07,3.870897e-07,4.4929692e-07,-1.3542687e-07,4.14297e-07,-3.253909e-07,4.6469924e-07,-1.4141489e-07,4.438747e-07,5.525684e-07,1.0043162e-06,-2.8506292e-08,9.818967e-07,1.0686348e-07,-1.9946367e-07,-6.2494934e-09,-3.1672067e-07,-5.096755e-08,-1.2778537e-06,9.0690014e-07,-8.631912e-07,-5.87158e-07,4.166825e-08,2.934974e-07,7.3587494e-06,5.802565e-07,1.6084522e-07,-5.9998405e-07,8.364624e-08,7.060914e-08,-4.5436144e-07,-1.6295539e-07,2.596902e-07,2.96144e-07,1.1206866e-07,-9.62621e-07,7.949533e-07,4.8061827e-07,1.6774972e-07,5.0402366e-07,-1.06186754e-07,-3.2460326e-07,3.7951224e-07,-5.2167152e-08,-7.214024e-07,-3.5941173e-07,-5.38102e-07,4.4656566e-08,-5.796945e-09,1.9949371e-07,3.3039683e-07,5.4172597e-07,-1.1538206e-06,2.4093207e-09,-4.0949065e-08,2.2529393e-07,-5.0791613e-08,1.3409064e-07,1.7811054e-07,5.5768845e-07,1.1937951e-08,-5.7586084e-07,-4.3734286e-07,-5.8752015e-08,-2.1335015e-06,2.1114101e-06,2.8968415e-07,-1.5341668e-06,2.0030147e-06,-3.5545702e-07,7.865463e-07,6.5603494e-06,3.2478476e-07,3.805496e-07,3.9822237e-07,4.0191776e-07,-4.5640874e-08,-1.8496733e-06,4.93265e-06,8.602222e-06,3.0638742e-07,4.059686e-08,2.360314e-06,9.561725e-07,1.3452504e-06,2.4609042e-07,1.1006168e-06,5.9726453e-06,-2.5299573e-07,4.0073678e-07,3.173804e-06,-2.2598322e-06,-1.1659492e-06,-3.0624446e-06,-5.1400013e-07,6.6471903e-06,-1.9732286e-06,1.6069145e-06,2.0641633e-06,-7.0138134e-07,2.0832351e-06,7.008882e-07,7.8022055e-07,1.5037496e-06,1.46968e-06,1.2117322e-05,5.778546e-07,1.5193586e-07,1.0918529e-06,-6.014351e-06,5.3176814e-06,9.386478e-07,1.3846714e-06,-2.8093078e-07,5.494782e-06,-4.4065308e-07,-2.4004004e-07,4.7359827e-06,2.6484659e-06,1.9367462e-08,-4.3528066e-06,-1.7506165e-06,-3.6472973e-06,2.1388444e-06,-1.2742298e-06,-7.434851e-07,-7.0521594e-07,-5.518167e-07,1.2591009e-06,-3.4354005e-07,-7.332271e-07,-6.594732e-07,6.0965846e-07,-5.653771e-07,1.7687921e-06,-9.526234e-07,-1.6871187e-06,-3.311378e-06,-1.0161968e-05,-1.13823035e-07,-6.2731524e-06,-3.1336913e-07,4.7518015e-06,-2.553443e-07,-8.450631e-06,7.642945e-06,2.7716665e-06,1.8390999e-06,-3.234658e-06,2.1558742e-06,-2.8377212e-06,1.0872009e-06,1.0506228e-05,4.767198e-06,5.228167e-07,1.8092453e-07,-1.5360492e-06,-2.836746e-09,-1.925051e-06,1.6324545e-06,-8.059926e-07,-5.8402276e-07,4.6809112e-07,3.195659e-07,-5.8459227e-07,-1.1916609e-06,2.8366521e-06,-3.562273e-06,2.3211717e-06,-1.1686122e-06,-3.1367258e-06,2.9044852e-06,-2.4144788e-06,3.1269374e-06,-3.0910113e-07,3.5142722e-07,-5.2656554e-07,-3.5586181e-06,-3.247159e-07,-1.8873266e-07,-3.066424e-06,3.3149092e-08,-3.4853102e-07,-1.2054369e-06,6.985403e-07,5.544195e-07,3.2688274e-06,-4.450897e-06,-5.143675e-07,1.0158659e-06,-3.1700047e-06,1.09893975e-07,2.8677482e-07,9.1001846e-07,-7.3287055e-07,3.2246862e-07,1.0035416e-06,4.941677e-07,4.6174048e-07,-4.3383977e-07,5.608788e-07,1.2500507e-06,-1.4396658e-08,1.7801734e-06,-1.7082525e-06,5.376322e-07,-2.368075e-06,8.7491355e-07,1.2692841e-06,-7.1969663e-07,5.6384135e-07,-5.091385e-08,9.004715e-07,8.1793826e-07,3.0921212e-06,1.8279046e-06,1.7075133e-06,1.6813256e-06,9.21208e-07,-3.8635943e-07,-5.0723656e-09,-3.4178726e-08,-6.645678e-07,4.4088037e-07,1.1740997e-07,2.7373e-07,1.1006472e-06,2.7704738e-07,1.7495241e-06,-3.3436e-07,1.3818806e-06,-7.485575e-08,6.226579e-07,2.8334032e-06,6.608234e-07,-2.2186828e-07,-1.0835647e-06,-8.413345e-07,2.8752936e-06,-4.963555e-07,-9.407987e-07,1.9295962e-07,2.81326e-06,4.2372276e-06,-7.655817e-07,-1.0129095e-06,-1.6424309e-07,-9.933606e-07,-9.4948575e-07,-1.885103e-07,9.1822125e-07,9.730423e-07,-4.3030823e-08,-1.7770037e-07,2.7861003e-07,-9.692053e-07,-2.4667696e-07,5.3508273e-08,-1.4436901e-07,-8.099147e-08,-5.0563415e-08,-3.9379916e-07,9.772477e-07,-3.3441786e-08,2.9892522e-07,7.054937e-07,1.5143883e-07,8.061331e-07,-1.1181313e-06,2.13697e-07,9.550181e-07,-1.1784611e-07,-9.177794e-07,-2.0230232e-07,-1.7982624e-07,7.279375e-07,2.6383088e-07,-4.613442e-07,6.232369e-08,-1.2253468e-06,2.1652395e-06,2.958826e-06,-2.6488436e-07,-2.629645e-07,-7.247257e-07,-2.8955733e-07,-3.2007156e-07,1.0865083e-06,3.2199298e-06,-1.1435429e-07,2.6217157e-07,-2.0402294e-07,-2.996228e-08,1.0727776e-06,7.0397306e-08,7.580901e-07,7.773164e-07,1.9132838e-06,-1.3710789e-07,-2.561468e-07,-1.238446e-06,2.38776e-06,1.0020716e-07,1.04523565e-07,4.0624658e-07,8.785044e-07,2.1611842e-07,-6.2000026e-07,2.4355938e-06,4.3675024e-07,-5.408449e-07,5.5632256e-07,-1.8731756e-06,2.6433312e-07,5.8306443e-07,-4.43484e-07,-1.9548838e-07,-3.0217493e-06,-8.383973e-07
-2.2223182e-07,1.1084821e-06,2.0892885e-06,3.058574e-07,3.8916937e-06,2.565062e-07,-2.4505627e-07,2.974566e-07,2.007848e-06,-1.2574731e-08,-2.3494793e-07,4.139384e-09,-2.2985162e-07,-2.5651298e-07,-5.3700717e-08,1.7291038e-06,3.2587327e-06,2.2481967e-07,-1.7587976e-07,4.294124e-07,9.4804705e-07,1.1541566e-06,9.657778e-07,5.34199e-07,1.303739e-06,-5.42467e-07,1.4986442e-06,1.1070398e-08,1.6335459e-06,1.7885112e-06,-2.7311495e-07,9.944835e-07,-1.2543983e-06,-2.3683273e-07,-4.2565404e-07,2.859185e-07,1.7711415e-06,-2.5644394e-07,-2.7050396e-07,-2.841366e-07,-1.6442979e-07,3.474467e-07,3.5960334e-06,-7.8874166e-07,1.5256035e-07,-2.144339e-07,-3.180787e-07,-2.5861023e-06,1.1427881e-07,6.588772e-07,5.116022e-07,2.4460678e-06,9.5256587e-07,-4.3927457e-07,8.907501e-07,-7.86948e-07,9.435598e-07,4.332419e-07,-7.99694e-08,2.2103117e-07,-2.2284857e-08,5.383214e-07,-5.0367487e-07,3.0053923e-07,1.5764833e-08,-1.5871956e-07,-2.0904e-07,-9.666913e-07,5.06419e-07,-5.425579e-07,1.2714567e-07,3.9126633e-08,4.4576265e-07,2.4303912e-07,2.3338634e-07,8.9250807e-07,-1.0061139e-07,1.668278e-06,-2.3019662e-07,5.4870765e-07,-3.372534e-07,6.4287707e-07,-5.038428e-07,-3.7749095e-07,1.089272e-06,-2.4006124e-06,5.682507e-07,5.726404e-07,5.2272036e-08,-5.7196684e-07,-1.9618983e-06,8.266036e-07,2.5886058e-07,1.2793239e-06,-6.256803e-07,5.751167e-07,-5.4549287e-07,1.564354e-06,-1.6380027e-07,-2.2995147e-07,8.743285e-07,4.4460216e-07,-1.599341e-06,-3.1918557e-07,5.159676e-07,6.571365e-07,1.2850105e-06,-1.5010897e-06,-4.0137945e-07,1.5991553e-06,3.9764927e-08,-3.1634247e-07,-1.8523629e-07,-7.839652e-07,9.3969527e-07,5.9578076e-07,2.2141086e-07,-2.3955747e-06,-1.958687e-07,2.008112e-07,2.6253156e-07,5.356713e-07,1.0675678e-06,1.0481042e-06,5.202156e-07,-2.8038418e-08,-7.610536e-07,-6.760107e-07,1.6777605e-08,-1.1789049e-06,1.3232366e-06,8.462708e-09,3.4194514e-07,-5.508565e-08,-5.171312e-08,-2.3580963e-08,-1.8172287e-08,2.5543875e-07,2.6078188e-09,-1.601225e-08,-3.194792e-07,-1.9795912e-06,-2.3789151e-07,-9.559886e-07,8.401807e-08,7.358551e-09,5.7287266e-08,4.205309e-07,1.7855749e-07,-4.923402e-07,-1.2184655e-06,-4.0601023e-07,-7.349947e-07,4.4821672e-07,1.8798023e-06,4.140029e-07,5.456991e-07,-8.010802e-08,-8.50785e-08,-2.5513506e-08,7.292223e-08,8.656606e-08,-4.2398167e-07,-2.058577e-07,1.0965073e-07,3.6045932e-08,2.9065879e-08,-2.5274926e-07,-2.691092e-07,4.1648426e-07,-1.8859413e-06,-1.393666e-07,6.646634e-08,2.5021774e-07,-5.4441136e-07,3.1919471e-06,-4.6909285e-09,1.6812469e-07,4.1183746e-08,-5.2190813e-08,3.639868e-07,-4.096035e-08,3.3331276e-07,-2.3256291e-08,3.800431e-08,2.2656647e-07,1.9802167e-07,6.715575e-08,1.0634726e-07,-1.6461728e-07,-5.063917e-07,-8.06852e-08,-2.0929603e-07,5.2589968e-08,-2.6850165e-07,1.489002e-08,2.2728795e-08,7.122202e-08,-1.4731171e-07,3.5909912e-07,-6.301416e-08,-4.411802e-07,-6.84427e-07,2.3778881e-07,4.6903605e-07,-1.0121971e-06,-1.0134755e-08,3.286864e-07,-3.243698e-08,-3.0296757e-08,-1.3344312e-07,1.154064e-06,9.054617e-09,-5.1377566e-07,4.0012023e-07,-1.4413749e-07,-1.2767202e-08,-4.107089e-06,-1.6083754e-07,2.4415264e-08,2.2362056e-07,-1.2240072e-07,-5.28332e-07,2.1518602e-07,7.047573e-08,-1.1074056e-06,-2.9423433e-07,1.9433665e-07,-3.2772914e-07,-1.0473116e-06,6.3677993e-07,1.0320525e-07,-4.0922188e-07,-1.367831e-07,2.5022153e-08,3.036729e-08,7.8664534e-08,6.378944e-07,4.5137156e-07,1.9046817e-07,1.1517761e-08,-1.3429872e-07,1.1768337e-07,2.488997e-07,-7.416401e-08,-5.630267e-07,9.9741584e-08,-7.965937e-09,1.2999681e-09,-4.0444297e-07,-3.801166e-07,-3.1180195e-07,4.318672e-07,3.0096206e-08,-8.543972e-08,2.3162593e-07,-1.3310266e-07,-4.8669435e-06,-1.3379478e-06,-4.5593964e-08,-1.7367231e-06,-7.7680056e-07,-4.0331713e-07,1.044575e-06,-1.9606896e-06,-6.410269e-07,4.031325e-07,-4.5707196e-08,1.2752899e-07,-1.1268838e-08,2.0637586e-07,-1.8568261e-06,-5.756293e-06,6.552539e-07,1.963619e-08,1.3076606e-06,2.336893e-07,-7.891396e-07,3.045169e-07,1.1538326e-06,-2.2607737e-06,1.8895508e-06,9.249701e-07,-1.2707465e-06,5.9499134e-06,-4.5953493e-07,1.7458117e-06,8.3245885e-07,-5.662545e-06,1.801295e-06,4.698957e-06,-1.6911629e-06,3.5585742e-08,-9.885453e-07,-1.210654e-06,-8.8690354e-07,-6.971324e-07,-9.2346914e-07,-2.7189903e-06,-2.991916e-07,4.216536e-07,2.9841203e-08,3.7995192e-06,-4.6618093e-06,1.18319754e-07,-4.3931828e-07,-5.394041e-07,-7.4455106e-06,-9.583401e-07,1.2814477e-06,-1.0625895e-06,-1.2481428e-07,-5.0771837e-07,-4.6210698e-07,-3.919455e-09,2.9169487e-06,-1.3071584e-06,-6.868191e-08,5.9307365e-07,6.256033e-08,-1.5339944e-07,7.376377e-08,-6.8818036e-07,-8.493983e-07,-1.5694599e-07,-9.96459e-08,7.7357674e-07,-8.096509e-07,9.303436e-07,1.1862292e-06,1.0238336e-06,3.8879707e-06,9.545546e-07,5.8118135e-06,-1.06746796e-07,-5.276106e-07,3.5354049e-07,3.4773361e-06,-4.2275374e-07,-1.9659512e-06,-3.252438e-06,1.8188323e-06,6.4840475e-07,-7.532772e-07,-5.1963127e-07,-1.7572887e-08,-2.388653e-06,-9.903429e-07,2.8748445e-06,-7.440773e-08,-5.0547237e-07,-9.832083e-07,6.159481e-07,9.079882e-07,7.3337e-07,1.8979736e-07,1.3689928e-06,1.7810778e-06,8.36748e-07,-8.632502e-07,1.1492361e-06,-4.931991e-07,7.0110536e-07,1.0706258e-06,-2.2060433e-06,6.249431e-07,4.7787785e-07,-3.1234001e-06,-4.2020403e-07,5.040766e-07,2.4074666e-07,-4.6857053e-08,-1.4251677e-06,1.9046373e-06,-1.5869329e-06,5.785937e-07,-8.41924e-07,-1.111773e-06,-1.0520771e-06,-2.318883e-07,-2.8862503e-06,-2.3331646e-07,8.521626e-07,4.1092912e-06,-2.1400594e-07,-1.2407636e-06,-3.2709988e-07,8.486437e-08,1.0487829e-06,-1.8740587e-07,2.993687e-09,3.3889174e-07,-1.5617377e-06,6.606539e-07,-7.4099194e-07,-2.4728394e-08,7.1430856e-07,-5.438997e-07,-2.7223953e-07,1.1573363e-06,-2.1893127e-06,-8.554224e-07,4.852433e-07,2.4701527e-07,7.9616717e-07,-6.7782605e-07,-2.184645e-06,-4.4946708e-07,-2.3574826e-06,-5.461641e-07,-2.3124635e-06,-5.689185e-07,-4.6562963e-07,-1.225101e-07,3.6784982e-07,-4.6897102e-07,-7.1842175e-07,-2.42995e-07,-1.5242235e-06,-8.342312e-07,-7.5630317e-07,-4.3653955e-07,3.4741566e-07,-3.1687406e-07,-1.9194616e-07,4.7778076e-07,-1.5316908e-07,-6.40949e-07,1.0579823e-07,-1.8638133e-07,-6.1557387e-07,-1.5119922e-06,1.0236694e-07,1.1104452e-06,5.916725e-07,-9.90855e-07,-1.6838791e-06,-5.129284e-07,8.3140424e-07,1.7248598e-07,5.049835e-07,6.260193e-07,4.1446302e-07,-3.1015068e-07,-8.6256387e-07,1.8232129e-08,1.7045519e-06,-2.2663853e-07,-1.4787102e-07,-6.1069363e-07,-3.2727002e-07,-1.3310634e-07,1.2222766e-07,9.885979e-07,5.1554593e-07,6.3215515e-07,-4.5130457e-07,-1.1826299e-07,-6.406749e-07,6.4682774e-07,-6.1619664e-07,6.0531045e-07,1.3548132e-07,6.388487e-07,-1.5851009e-07,6.7702643e-07,4.947746e-07,-7.6789536e-07,-6.352566e-08,-8.2770055e-07,5.686983e-07,-1.9416024e-07,7.2403384e-07,-3.7419233e-07,-1.1550286e-06,3.8157265e-07,7.752195e-07,-7.472985e-07,-1.718189e-08,5.189022e-07,-1.2078547e-06,-2.9849502e-07,-1.2937605e-08,1.7934542e-07,1.6457682e-07,-7.98075e-07,-3.7461092e-08,2.2101742e-07,-9.498907e-07,-8.61803e-07,5.0656104e-07,6.6846574e-08,1.337174e-07,6.4699e-07,-1.1475631e-06,-6.9442314e-07,-1.0481602e-07,-3.850001e-07,4.4471687e-07,3.840512e-07,-5.5780686e-07,1.7439282e-07,-1.8113441e-07,4.813065e-07,2.5901343e-07,7.633445e-07,-8.250279e-07,3.4959487e-07,9.621565e-07,5.2488396e-08,5.488505e-07,-1.7824556e-07
-1.4969308e-07,-6.4225867e-07,8.610801e-06,-1.1414777e-08,4.802412e-07,1.0487418e-06,2.3348906e-07,6.219132e-08,3.2435296e-06,5.0179125e-07,-2.9809252e-07,-7.150054e-08,2.8738876e-07,1.7004231e-07,-6.0662967e-07,4.50295e-06,1.212155e-06,-6.700622e-07,-2.8171377e-07,4.825738e-07,3.1285703e-07,-1.4550577e-06,-2.7014164e-07,1.665791e-06,-1.7426996e-06,7.521024e-09,-7.953929e-07,6.971713e-07,-3.2866083e-08,2.6288385e-06,8.8823765e-07,-1.5655525e-07,-8.5058934e-07,5.751287e-07,-1.9567867e-07,1.7781451e-07,4.2537926e-07,-3.9294758e-07,1.9578857e-07,-1.17771044e-07,-6.536818e-07,-6.379366e-07,7.0081444e-07,-5.361549e-07,1.2315417e-07,-5.659198e-07,-2.700375e-08,-4.1761864e-06,-6.84078e-07,1.5208323e-06,-1.0856901e-06,2.3294565e-06,8.1649966e-07,1.6175963e-07,1.6147044e-07,-6.315824e-08,6.1646836e-07,4.5026937e-07,-4.947945e-07,-3.9213006e-07,7.622808e-07,-1.1583993e-06,-3.869148e-07,2.866169e-07,3.8005766e-07,-3.770696e-07,-1.0996476e-07,1.2250455e-06,3.9720788e-07,1.2656599e-08,1.1124203e-07,-4.0896268e-07,2.8005264e-08,-1.0731562e-06,-5.604618e-07,6.192989e-06,-6.446997e-07,4.844391e-06,1.2254566e-07,1.0425562e-06,-6.3859903e-07,-1.5155203e-07,-2.6651344e-07,-6.4152846e-07,7.9587903e-07,-3.0423812e-06,-5.132338e-07,2.0411352e-07,2.9321237e-07,-1.2798522e-06,-6.50234e-07,2.4848953e-07,-1.3538508e-07,-2.685767e-07,-8.7186856e-07,-5.159031e-07,-1.9009794e-07,5.4443643e-07,1.5939307e-07,7.9987774e-07,1.0197242e-06,9.69615e-07,5.882583e-07,-4.2388132e-07,-1.706637e-06,4.2258523e-07,1.9376591e-06,-1.0070407e-06,9.985297e-08,1.1035142e-07,2.4147533e-07,-5.291819e-07,2.4513693e-07,-8.222602e-07,-4.985344e-08,2.7137617e-07,-2.0263519e-07,1.984481e-07,-3.2542488e-07,-5.15411e-07,4.9924125e-08,-1.633884e-07,1.8454465e-06,8.9433746e-07,-1.7476116e-06,6.698726e-08,-3.901734e-07,1.2261049e-07,3.4066936e-08,-3.935311e-07,1.5165795e-06,-1.0280458e-07,-2.9900517e-07,-1.1535255e-06,-3.9878898e-07,1.2612176e-07,3.4684086e-07,3.0639715e-08,-1.2147659e-08,-7.79729e-08,-1.2944996e-06,-8.557529e-07,1.5080255e-07,2.3929822e-06,-1.5397126e-06,-1.1418861e-06,4.9703056e-07,-4.1477685e-07,9.3111694e-08,6.0704224e-07,-5.034082e-07,-6.608001e-07,2.7195853e-07,5.4350295e-07,1.7276341e-06,-3.714112e-08,1.0026557e-06,1.4125588e-06,3.2044358e-07,-2.2923618e-07,2.4350612e-07,3.670223e-07,-2.0078681e-07,-2.515234e-07,-5.1591478e-08,7.881012e-08,4.4791324e-08,-1.1375643e-07,-2.345642e-07,4.1066903e-07,-2.4061037e-06,-1.4631871e-07,5.228448e-08,3.3922095e-07,4.121253e-08,4.8155384e-06,-1.9804222e-08,4.315323e-07,-5.1773054e-07,-1.4917757e-07,2.7306123e-06,-9.6071176e-08,9.8714e-07,-4.823964e-08,-2.271889e-07,-2.5641276e-07,1.2987246e-07,6.7110896e-08,5.317474e-08,-1.5376138e-07,3.6329646e-07,-6.758234e-08,-9.544426e-08,-3.6708688e-08,1.7114247e-07,-5.2155542e-08,-7.135796e-09,3.4483617e-07,8.6052665e-08,9.364555e-09,-1.5830905e-07,-5.0917777e-07,-1.4931777e-06,1.1722534e-08,-6.0739694e-07,-1.5005919e-06,-2.0515944e-08,6.7112694e-07,-2.5304001e-09,3.32503e-07,8.26859e-08,1.9259892e-06,2.7163748e-07,1.6665488e-06,4.866527e-08,1.2212219e-07,1.4074663e-08,-9.605538e-06,-6.8177854e-07,1.906148e-07,4.1449027e-08,-5.149442e-07,2.382741e-07,8.97749e-08,-4.1129955e-08,-7.795676e-07,2.1299856e-07,2.2064607e-07,3.607662e-07,6.513186e-07,8.9850755e-07,3.4952592e-09,-8.973365e-08,5.0779683e-08,3.0916394e-07,-7.401185e-07,3.2876528e-09,5.118015e-07,-5.374386e-08,4.394048e-07,-1.4582437e-08,1.376155e-07,-2.102368e-09,-1.2509904e-06,1.5588449e-07,1.376071e-06,9.3061e-08,-5.8993074e-08,7.7534864e-08,-1.5759791e-07,-9.640587e-08,5.7032554e-07,-2.0567862e-07,-4.6572993e-08,3.2013597e-07,3.9142154e-07,-2.731136e-07,-9.3536687e-07,5.6086856e-07,6.071158e-07,-1.3933914e-06,-3.875465e-06,6.7254973e-07,3.6806065e-07,-7.1391414e-06,-1.0984519e-06,-1.022227e-07,1.3491119e-06,5.326291e-08,-4.4507578e-07,-7.3952316e-07,-4.3665004e-06,6.8417976e-06,2.0924227e-07,1.1483516e-07,-1.1465854e-06,-1.522987e-07,-1.7151566e-06,1.5810224e-07,1.0237936e-06,4.324645e-07,3.119113e-07,-5.4080047e-06,-2.697455e-07,-2.7319147e-06,-3.5199419e-06,3.4796062e-06,4.7592425e-07,-5.6274043e-06,3.99887e-06,-2.5603292e-06,-1.1865862e-06,-3.455693e-06,-1.502166e-06,-1.4149462e-06,-1.0999831e-06,-2.6119642e-07,-1.8932923e-07,-4.8127067e-06,-9.974773e-07,-2.0640509e-07,-2.6594626e-06,-9.1024015e-07,-7.339334e-06,-2.1310302e-07,5.8773884e-07,-3.5935813e-08,-7.4358763e-06,-2.5884933e-06,-5.9477077e-07,-3.8979438e-06,-5.419748e-07,-1.0475981e-06,7.4216575e-07,1.3109448e-07,1.2429425e-06,3.0089308e-07,-9.972e-07,-7.982436e-07,-1.7598749e-06,1.9408597e-07,-1.5415593e-06,8.305276e-07,-2.7904482e-06,-5.1797933e-08,1.359065e-06,4.5177535e-07,-1.255599e-06,-7.5838886e-07,1.2541195e-06,-1.409381e-06,6.7403007e-06,4.2921242e-06,1.0542691e-05,-7.451962e-08,7.813854e-07,3.438373e-07,7.1919917e-06,-5.931426e-06,-6.782858e-07,1.0399023e-06,2.58368e-07,-3.4046375e-06,-1.1133345e-06,-7.2416356e-07,-7.0026904e-06,2.3327002e-06,-1.0048716e-06,-3.1672832e-06,-1.4752287e-06,-3.6080138e-07,-8.4278236e-07,-7.571664e-07,-2.9334856e-07,-5.1966504e-07,1.0254355e-06,1.1153404e-06,1.5385191e-06,-9.856935e-07,-2.7100577e-06,9.334585e-07,6.17038e-08,-7.793367e-07,2.9935186e-06,-2.0120851e-06,4.1548283e-06,-6.2368144e-06,-4.415638e-06,-8.257911e-07,5.28995e-07,1.9066782e-06,1.2591141e-07,1.0372771e-06,6.7845053e-07,-1.0445694e-06,6.4692745e-07,4.9530723e-07,-5.93291e-07,-8.125342e-07,-1.123992e-06,5.033606e-06,1.912601e-07,5.06741e-07,2.86122e-06,-1.2739494e-07,1.8510535e-07,-5.1725743e-07,9.412639e-08,2.3967988e-07,1.2301062e-06,2.1100524e-07,1.6574691e-07,1.8537168e-06,-9.583858e-07,-5.5718186e-07,1.5664435e-07,1.1485388e-06,-7.294751e-07,-2.4762403e-07,4.974424e-07,1.8654514e-06,-1.6948105e-06,2.6810852e-07,2.567973e-07,5.6015944e-07,-5.64699e-07,-6.619248e-07,5.0046e-07,3.604647e-07,4.9897346e-07,1.8016718e-07,1.1766367e-06,1.0268081e-06,9.46158e-08,1.8667955e-06,7.421281e-07,-2.452886e-07,7.6923925e-07,-2.4510922e-07,1.3831148e-08,-4.5034983e-07,-5.695357e-07,5.0630564e-07,8.688255e-08,-5.4649536e-07,1.6134745e-06,4.098955e-07,-1.1009979e-06,1.6508149e-07,-2.1158958e-06,3.223268e-07,-6.6535506e-07,-1.1676177e-06,-3.6237492e-07,-1.8577445e-06,-2.1145113e-06,1.4785958e-06,-5.930523e-07,1.2860044e-06,1.1331588e-06,-8.695732e-07,-1.7101023e-06,-9.813803e-08,-5.77249e-07,-3.3102012e-07,-2.0646298e-06,2.3211499e-06,7.2624076e-08,-2.1037573e-07,-9.665392e-09,1.37735e-07,-7.103691e-08,-3.304425e-07,6.725837e-07,-1.1891404e-06,6.521299e-08,-3.7980385e-07,-6.378592e-07,1.187164e-06,5.9439185e-07,-5.672738e-07,-2.1406163e-07,7.0749377e-07,2.365014e-06,-1.4762747e-06,1.4970634e-07,2.4081035e-06,2.1938554e-06,3.988282e-07,4.0660884e-06,1.6834315e-07,-2.015215e-06,7.547533e-07,1.3322071e-06,1.1110446e-06,6.10011e-07,7.39376e-08,-2.4664286e-07,-1.0556055e-06,-5.001334e-07,-6.1567516e-07,-2.281721e-06,1.15436755e-07,1.1573414e-06,1.9567187e-06,1.0205822e-06,2.1416754e-06,1.5873316e-07,-1.4322834e-06,1.7452484e-06,6.9148945e-07,-1.8934562e-06,3.141602e-07,6.2011225e-07,-1.3951637e-07,-1.8727308e-06,1.2611325e-07,-2.8453223e-07,9.637643e-07,-6.512719e-07,-4.943887e-07,-2.388606e-06,-2.6445605e-08,-2.2584457e-07,7.036052e-07,1.2061815e-06,2.5974686e-07,1.3431421e-06,1.0232764e-06,5.8248112e-08,-3.3514507e-07,7.607149e-07
2.6991364e-07,7.784686e-07,9.0903313e-07,4.162135e-07,2.8940608e-06,1.8121843e-06,4.7452338e-07,-1.136671e-06,7.1857003e-06,2.0000061e-07,4.6800875e-07,-2.1103259e-07,-1.2617149e-06,1.6822239e-07,3.3271124e-07,3.6204901e-06,2.421307e-06,-9.452302e-08,6.861903e-07,-2.332396e-07,1.3503418e-06,1.2420152e-06,-2.219064e-07,8.22121e-07,-2.3014627e-06,-1.8217133e-07,-2.5078225e-06,1.1520429e-07,-1.3021145e-06,3.816805e-07,6.485285e-07,1.0276542e-06,5.4205776e-07,3.3733713e-07,-3.3336516e-07,7.581766e-07,1.0522194e-07,6.4103847e-07,2.8668978e-09,-4.3781816e-07,1.2029102e-06,-3.654995e-08,-1.5464071e-06,-1.37276e-06,6.4036226e-07,7.478234e-07,2.3826094e-06,7.5872513e-06,1.0387213e-06,1.6036131e-06,8.510549e-07,2.0368025e-06,1.2954808e-06,-1.9490834e-07,1.0455647e-06,3.5423517e-07,-6.8960657e-07,2.4594913e-06,-1.3229064e-07,1.8891383e-07,8.3847004e-07,1.7133596e-07,-4.78856e-07,1.6358237e-07,2.2629632e-07,-2.3224892e-07,2.2627634e-07,2.8001946e-06,2.4583233e-07,9.506987e-07,-2.8138388e-07,-4.425538e-07,-2.4144117e-07,7.038024e-07,-2.346539e-06,4.2979627e-06,1.8019721e-06,4.5864626e-06,-1.7069563e-07,8.4540375e-07,4.5993426e-07,1.5679987e-07,2.528591e-06,1.6130142e-06,5.146356e-07,-1.0060894e-06,-1.1100697e-06,1.5248776e-06,6.2414387e-07,-2.6822465e-06,-6.758483e-06,4.3603563e-08,-3.8002548e-07,-5.1300555e-07,-1.6242669e-06,-8.9487355e-07,-5.1037017e-07,-2.7818245e-07,-2.3293286e-08,4.2787084e-07,1.8392784e-07,-1.0149182e-06,-4.3111783e-08,-5.4136007e-07,-7.6959907e-07,1.2037858e-06,1.4310685e-06,5.327087e-07,-1.2709396e-06,-6.0211605e-08,8.273603e-07,-6.432566e-07,5.130248e-07,-6.0970933e-07,-8.423104e-07,3.4380574e-07,-4.1800914e-07,-2.515979e-06,-3.9944373e-07,6.387096e-08,-4.288819e-07,3.8684897e-07,5.2031146e-07,1.2183401e-06,-2.4646451e-06,5.2559386e-08,6.725064e-07,-3.9794304e-07,-3.0852963e-08,-2.9505162e-07,-9.032189e-08,-1.1007582e-07,3.7181294e-08,-1.2761309e-06,-1.8438753e-07,-1.4249798e-07,-5.618122e-07,2.553638e-07,5.330536e-09,-4.451167e-08,-1.8337454e-06,-1.9797676e-06,-2.0701647e-07,4.952343e-07,-1.167303e-06,-1.1269632e-06,-2.898563e-07,-1.0785172e-06,-2.9088784e-07,-4.4293955e-07,9.760568e-07,-8.9070404e-08,-9.4789175e-07,3.8221822e-07,7.1313127e-07,-8.04251e-07,1.3973579e-06,-1.4075286e-07,-3.3865615e-07,1.4609942e-07,3.3641933e-07,1.3580137e-07,-5.871676e-07,5.4296564e-08,-6.6150363e-07,3.9046958e-07,1.1808656e-07,-4.112484e-07,1.9590145e-07,6.5615825e-07,-4.278134e-06,-1.6973473e-07,-1.971901e-08,-2.3081071e-07,-2.2762931e-07,-1.7243437e-06,7.495181e-08,2.176568e-07,-1.2749872e-08,-5.8049196e-08,5.426224e-07,1.9702462e-08,5.212519e-07,-3.5475807e-07,-1.7569418e-07,5.364421e-07,-4.897465e-07,2.665775e-07,2.0461741e-07,-1.7287248e-07,-4.1494764e-07,-3.6804457e-09,-2.3313146e-07,1.3206689e-07,2.0905001e-07,3.9797504e-07,-1.101175e-08,-2.6720676e-07,-5.729621e-07,-8.3623223e-07,-2.6324437e-07,-6.081282e-07,-2.7302733e-06,-2.857567e-07,-4.2924609e-07,-1.656796e-06,-5.9298866e-08,2.783529e-07,-9.6485415e-09,-1.2039688e-07,3.8728382e-07,2.37492e-07,-8.089341e-07,4.642772e-07,4.0074724e-07,-2.6470883e-07,-1.3578297e-07,-6.955031e-06,5.039235e-07,-1.9675281e-07,-2.0543332e-08,2.40615e-07,-4.8680107e-07,-2.0420333e-07,1.494e-07,5.534038e-08,-1.262768e-07,-4.1651504e-08,4.5408984e-07,1.8219791e-07,-1.12138565e-07,-5.702776e-08,-8.1312373e-07,-9.1528655e-08,2.853026e-07,3.119005e-07,1.743502e-08,5.245921e-07,-5.3578884e-07,2.9459378e-07,8.916035e-08,-5.394685e-08,-2.8204434e-07,-2.5848857e-07,-4.4807786e-07,9.1711655e-07,-7.3148854e-08,5.429447e-10,-2.580126e-07,-3.6529195e-07,-3.193984e-07,-1.07721355e-07,-1.478937e-07,-3.7510645e-08,-4.1407952e-07,4.1360977e-07,-1.9404254e-07,5.9331114e-06,-5.2896503e-06,1.6895142e-06,3.1111506e-07,-3.7851119e-06,1.2158716e-07,-2.0589578e-06,-2.2193203e-06,-1.4460662e-06,-1.862587e-06,1.8847793e-07,2.1170709e-07,2.0257633e-07,8.2477135e-07,-4.557913e-06,-3.4786808e-05,-4.0756524e-07,6.1013e-08,-1.3739766e-06,-2.6793655e-06,-2.4328551e-06,5.5780004e-07,-9.5270514e-07,-4.938238e-06,3.9459796e-06,4.2921158e-07,-5.968212e-07,6.639684e-07,-3.4807258e-06,5.307046e-06,2.4720043e-07,-8.171946e-06,1.9508007e-06,-2.01661e-06,-1.3995214e-06,-2.7692076e-06,-6.724431e-07,-1.5888481e-06,-2.286411e-06,-3.0508327e-06,-1.7349839e-06,-9.173595e-06,-8.6833944e-07,-4.7962277e-07,-2.420982e-06,1.7640225e-06,-3.377243e-06,-6.176214e-07,-2.3847616e-07,1.203672e-07,-1.4707406e-06,2.346072e-06,-2.9092496e-07,-2.1074063e-06,-1.8368235e-06,-1.1053197e-06,2.1115463e-06,-9.766882e-07,3.5780106e-06,-2.4050712e-06,-6.967386e-07,2.4381478e-08,4.6893905e-07,5.484672e-07,-2.115006e-06,1.3564372e-06,1.5887466e-06,-1.0026442e-06,-2.7618944e-06,-8.3233004e-07,2.9616166e-07,6.202653e-07,9.3764436e-07,3.6625088e-06,6.9560765e-06,-5.0860144e-06,6.2022436e-06,-5.409045e-07,-1.294397e-06,-2.4640164e-07,8.577947e-06,-5.5091623e-06,2.4432615e-07,-3.2540356e-08,-8.581254e-06,-1.9070993e-06,1.04113155e-07,-1.8672759e-07,-4.552937e-06,-6.7244855e-08,5.2430295e-07,-1.3908199e-06,-7.4539713e-07,-1.0058661e-06,5.395997e-07,-2.1965045e-06,1.4610685e-06,1.0583661e-07,-2.0716494e-07,8.9942205e-08,2.834935e-06,-1.5902275e-06,-6.0098655e-06,3.7575496e-06,-7.455656e-07,1.6983779e-07,-1.5945535e-06,-3.5144158e-06,3.2254543e-06,-2.2470053e-06,-2.2661252e-06,-1.5159459e-07,1.2237574e-06,7.0573587e-06,7.939197e-07,3.5925194e-07,1.1684693e-05,1.6937223e-06,4.5832874e-07,2.2518814e-06,-7.351176e-07,-5.380359e-08,-4.034764e-06,3.434983e-06,3.5802947e-07,4.0691262e-07,2.6821072e-06,7.93691e-08,-1.1414149e-06,1.176784e-06,-7.697608e-08,-8.1036103e-07,-2.3735536e-06,3.6016576e-07,-5.360147e-07,3.938045e-07,-3.595585e-07,3.3918383e-08,-2.2067846e-07,-1.5999701e-06,-2.07491e-06,9.848175e-08,1.2565453e-06,1.8841927e-06,-4.1594308e-07,-3.3937994e-08,-4.7659955e-07,-9.393349e-07,-1.5710735e-07,-1.284284e-06,-1.0630176e-06,-3.886963e-06,1.1501147e-06,-1.7215069e-06,3.8963577e-08,1.5207432e-06,1.5784248e-06,-1.4573033e-07,9.787834e-07,4.3116052e-07,7.879864e-07,-3.0078078e-07,-2.2568354e-06,-1.0077389e-06,8.98101e-08,-3.1205852e-07,-9.2048185e-07,-3.5397562e-07,-4.619954e-07,-3.931816e-06,-2.6734185e-07,5.38152e-08,6.696682e-07,2.056172e-06,1.1924985e-06,9.792338e-07,1.9143267e-06,-6.817236e-08,-1.2514676e-06,7.595162e-07,4.1167624e-07,-2.4108829e-08,-1.2555432e-08,4.46326e-08,6.7431057e-07,-1.2794467e-07,-5.4444865e-07,-6.216522e-07,-5.580463e-07,1.3451759e-06,-2.0536534e-07,-7.8954827e-07,2.9716372e-07,1.8733255e-07,1.0777827e-06,-6.50756e-07,1.1629871e-06,-3.1695066e-08,-3.469006e-08,-1.391352e-07,1.336279e-07,-1.4786498e-06,5.3855842e-08,-1.1681626e-07,3.3212589e-06,2.9676445e-07,-5.919592e-07,9.0560485e-07,8.6512784e-08,1.5540325e-06,1.464424e-07,-1.0796306e-06,1.5456123e-07,5.5240304e-07,3.8123062e-08,1.620765e-06,1.7172823e-06,-8.713469e-07,-2.2689467e-07,1.5156095e-07,-7.2395096e-07,-1.8851467e-06,-6.000057e-07,-7.970456e-07,-2.9637822e-06,3.578211e-08,1.5286746e-07,4.3805855e-07,8.47723e-09,7.3484205e-07,-1.1682237e-06,-6.563237e-07,-7.6936124e-07,-2.764799e-07,6.511547e-07,-4.1107486e-07,4.0970082e-07,-1.7075582e-06,-9.998232e-07,3.4259253e-07,6.366284e-08,-1.0357418e-06,-5.336493e-07,-1.1174592e-06,-7.448617e-07,-5.463898e-07,5.745871e-07,5.4594904e-07,8.4866565e-07,-1.023935e-06,-6.9666635e-07,-9.336703e-07,2.7508307e-10,1.9658592e-06,1.9498086e-07
7.095666e-10,4.487178e-06,-7.078049e-06,3.2842112e-07,2.9551904e-06,1.1796723e-06,-1.0932165e-06,3.9394354e-07,5.2691476e-06,-3.6026347e-07,1.5022022e-07,-2.0179816e-07,-1.0525829e-06,2.6296837e-07,6.9589686e-07,9.678388e-07,1.2302087e-06,5.2385303e-07,-1.1573778e-06,1.6696137e-06,1.3863166e-06,1.7408354e-08,1.0622149e-06,-1.1006132e-06,-1.921805e-08,1.6176556e-06,1.9582335e-06,-2.4589306e-07,-3.2893226e-06,1.4461425e-06,5.586735e-07,8.862239e-07,-1.8744438e-06,-3.1416891e-07,-1.3183763e-06,6.245646e-07,-2.9151403e-07,1.174392e-07,-5.7897296e-07,-2.6010295e-07,8.726422e-07,-1.1234713e-06,7.93872e-07,-1.6102802e-06,-1.1192452e-07,2.9438814e-07,5.751869e-07,1.8335775e-06,7.065733e-07,1.6210233e-06,4.868617e-07,2.4186459e-06,-2.766992e-07,2.0470027e-07,4.5125532e-07,1.18495365e-07,2.5888794e-06,1.0257971e-06,-1.3529399e-06,2.917132e-07,-1.574846e-07,1.7577671e-06,-1.2605138e-06,2.8619645e-08,1.1370355e-07,1.9486946e-07,-1.4721602e-06,-2.7644576e-06,7.920519e-07,-1.6909723e-07,6.7565446e-07,-3.677854e-07,1.0388151e-06,1.8117013e-06,2.3382258e-06,1.7450536e-06,2.5216588e-07,3.9649817e-06,-5.805633e-07,-3.699639e-07,1.3325001e-07,4.946262e-07,9.954032e-07,3.6890808e-06,-1.9605744e-07,4.8684956e-07,1.9936263e-07,2.7568735e-06,5.0143205e-07,-1.7030891e-06,-4.355911e-06,2.775949e-07,6.222781e-07,1.0535285e-07,-1.2144106e-06,-3.0086905e-08,5.4295083e-07,-1.346931e-06,-5.21849e-07,-7.044213e-08,1.832267e-07,3.28314e-07,-1.6312846e-06,2.5429964e-07,2.7651765e-06,1.32091e-06,-1.2729299e-07,1.296014e-06,-9.84727e-07,1.8223309e-06,3.62058e-06,-1.18789316e-07,-2.426486e-07,-9.029343e-07,6.006624e-08,-4.003441e-07,-3.3084348e-07,2.7604237e-06,-7.5035456e-07,4.0428085e-07,3.4770898e-07,5.1956675e-07,-7.693103e-07,6.406567e-07,-1.5500817e-06,-1.603556e-07,-4.3576574e-07,-1.0140909e-06,-2.0891171e-08,1.1676551e-06,-1.7877198e-06,-5.4932134e-08,-5.7645536e-07,-2.7568972e-06,-7.421605e-07,-5.3332972e-08,-5.6291975e-07,-9.109027e-08,1.05285544e-07,1.4517002e-07,-2.3475798e-06,-9.406076e-06,3.897074e-07,-6.849041e-08,-1.6207088e-06,-6.7887163e-07,-7.4268587e-07,2.9497846e-07,-7.8501685e-09,-5.249161e-07,5.261908e-07,-5.550186e-07,-1.7263451e-06,1.963656e-06,2.1263345e-06,4.9327423e-07,3.5108885e-06,3.224926e-08,-1.6170276e-07,-2.0245247e-07,2.5053825e-07,1.6819226e-07,-1.0559583e-07,1.0007972e-07,-1.2058846e-06,4.2142045e-07,-1.3902971e-07,-2.0747171e-07,-8.606406e-09,2.4967147e-07,-2.3923797e-06,-1.5128052e-08,-3.677514e-07,-3.2488498e-07,1.5691651e-07,1.4786826e-06,5.8898504e-08,4.330077e-07,3.3808288e-07,-3.503438e-07,-8.0529776e-07,1.2221946e-07,8.03498e-07,-2.3927947e-07,1.4791266e-07,5.32473e-07,-1.0892652e-06,4.8748564e-07,1.3283002e-07,1.5904159e-07,-9.710135e-07,-2.9980807e-08,-1.5874231e-07,1.1726743e-07,-3.786795e-09,2.499725e-06,-4.898989e-08,-4.8399573e-07,2.3305599e-07,1.2058679e-06,3.4728217e-07,-4.9706557e-08,-2.532756e-06,-7.1026776e-08,-7.842922e-07,-7.642009e-07,5.1399002e-08,-6.125006e-08,-5.590502e-08,-2.609339e-07,8.847605e-07,-4.8394236e-07,-4.6437037e-07,1.5122364e-06,8.0650756e-07,-5.9258196e-07,3.078141e-07,-5.574325e-06,1.7044744e-06,-2.7842308e-08,8.332928e-08,-3.0263436e-08,-8.3200683e-07,-6.1473804e-07,-2.459642e-07,4.4642064e-08,-2.3603316e-07,-2.9103015e-07,1.6622963e-07,1.7573584e-06,1.0189765e-06,-7.5468996e-08,-7.781369e-07,-1.3465339e-08,6.283266e-07,6.76352e-08,2.158481e-08,8.6279346e-07,-5.5333084e-07,6.5964696e-07,3.122627e-08,2.4418202e-07,3.1835896e-07,1.7837993e-07,-1.6346556e-07,8.375621e-07,1.1764668e-07,4.030172e-08,-1.1288307e-08,-4.8016557e-07,-6.404763e-07,-3.4766526e-07,2.058614e-07,-4.8766026e-08,-1.3354762e-06,4.0970625e-07,-5.6974716e-07,1.7708296e-06,-5.7506654e-06,1.2808624e-06,1.03473155e-07,-5.8557644e-06,9.1684285e-07,4.222057e-07,-4.260769e-06,-7.165976e-07,-1.8668687e-06,-8.400359e-07,8.364828e-07,-1.6790312e-06,-1.3025516e-06,-9.767749e-06,-2.3783787e-05,-1.5354414e-07,1.942949e-06,-2.3003713e-07,1.2631915e-07,-2.83293e-07,-9.255326e-07,-3.4580733e-06,-7.567666e-06,3.422135e-06,2.9433759e-06,-1.2065165e-06,3.854285e-06,-5.3093563e-06,4.4153367e-06,-2.422534e-07,-7.647508e-06,2.276114e-06,-4.599643e-06,-1.3215781e-06,-1.2408459e-06,-6.411789e-08,-7.6654885e-07,-2.872291e-06,-1.1146547e-06,-1.6642639e-06,-1.3037898e-05,-1.3750325e-06,1.8020046e-06,-3.2027428e-06,1.5862056e-06,2.6936605e-06,-4.821773e-07,2.0361952e-07,4.7027314e-08,-6.6875155e-06,6.190299e-06,-1.7711602e-07,-1.4560744e-06,2.3631785e-07,-2.8058794e-06,-2.4223277e-06,-2.3679986e-06,2.8749141e-06,-6.807266e-06,2.74629e-06,1.929863e-06,3.8152632e-07,1.6385818e-07,1.1552379e-06,6.5863117e-07,3.538696e-07,-4.0245448e-07,-2.7487522e-06,1.1706295e-06,-2.5324505e-06,-3.429235e-07,7.966653e-07,6.6812754e-06,3.6079286e-06,-4.570862e-06,4.010527e-06,1.6504418e-07,-4.7498984e-06,1.2558047e-06,7.677795e-06,3.0929112e-07,-4.6681116e-06,-2.233357e-06,-6.6620723e-06,2.6425346e-06,-1.5381204e-06,-5.059096e-07,-2.3589128e-06,4.9880884e-07,-1.2333809e-06,6.038447e-07,1.030041e-06,-6.28362e-07,-7.2285775e-07,-2.5050458e-06,-9.546743e-07,1.2334755e-07,-6.384272e-08,4.415063e-07,7.943802e-06,8.030221e-07,-2.4373126e-06,1.6314382e-06,-1.670046e-06,-3.067062e-07,-1.9486672e-06,-3.3101032e-06,-4.77904e-07,-2.3097082e-06,-5.381895e-08,-1.5180857e-06,6.3232943e-07,9.369247e-07,-5.0975473e-09,-9.639609e-07,8.447103e-06,-1.3727763e-06,3.64121e-07,7.789582e-07,-9.750468e-07,1.2210255e-06,-2.4985475e-06,1.5140803e-06,5.1777346e-07,-1.7655109e-06,1.7523059e-06,-9.8768595e-08,2.5151138e-07,1.4193978e-06,1.8225722e-07,-1.4326461e-06,-3.2018198e-07,-1.3223281e-07,4.8503233e-07,1.4468242e-07,9.868129e-07,5.539972e-07,2.3206631e-07,-1.0263112e-07,-1.6943851e-06,8.395126e-07,2.624875e-06,3.943676e-06,-1.436638e-06,-3.6939116e-07,-6.080536e-07,1.8208252e-07,-1.3136844e-06,-3.9662075e-07,5.6921914e-07,-3.1496284e-06,-1.778314e-06,6.8717463e-07,-1.3190271e-07,5.1652376e-07,3.5289831e-06,3.9798397e-07,-1.2531682e-06,-1.2572893e-06,3.1026426e-07,2.5357062e-06,-4.943975e-07,-1.5556064e-06,1.1402052e-07,5.6459783e-08,-8.414159e-08,-7.3266824e-07,-1.2935815e-06,-6.7345377e-07,-3.8697473e-07,-3.448432e-07,1.3972644e-06,7.335514e-07,3.0609506e-06,4.2818192e-07,3.433681e-06,1.364106e-07,-8.7674283e-07,8.3639884e-07,2.1399161e-07,-8.333719e-07,5.647585e-07,2.3285859e-06,1.2748692e-06,-1.601782e-06,-7.7783454e-07,1.1529607e-06,1.384298e-06,1.9037213e-07,1.5608866e-07,1.2107769e-06,2.693352e-07,-4.2190572e-07,1.4019554e-07,9.969626e-07,5.119843e-07,9.2134457e-07,-2.1264214e-08,9.0745147e-07,9.751953e-07,6.3346613e-07,2.2177128e-06,-2.5721096e-07,4.135695e-06,-2.9838708e-07,-1.6870825e-06,-1.3078287e-07,-7.283447e-07,3.1154163e-06,1.5798958e-07,-6.542675e-07,1.3525325e-06,7.9275486e-07,5.5391905e-07,1.4044956e-06,5.534193e-06,8.6416685e-07,4.3204705e-07,5.7847126e-07,1.1555204e-07,-1.9363115e-06,-7.689699e-07,-1.7553009e-07,-1.855726e-06,-1.6696359e-07,-5.5514965e-07,-6.798107e-07,-2.039377e-06,1.1913538e-06,8.071126e-08,1.6179479e-07,-3.0980195e-06,2.2912727e-06,1.2478467e-06,-6.665021e-08,7.074342e-07,-8.779019e-07,1.5711506e-06,-7.058526e-08,-2.8754118e-07,5.146903e-07,-5.1220417e-07,1.0314045e-06,-8.988926e-07,-3.2244833e-07,7.925578e-07,8.3048536e-07,1.3027263e-06,-1.5080619e-06,-1.726898e-07,-4.3462842e-07,4.6146837e-08,-1.0461456e-06,-1.2451809e-06
-4.8525345e-07,1.1547346e-06,3.5192966e-06,5.0207827e-08,-3.0084135e-07,-3.9591765e-07,5.340475e-07,1.9037759e-07,3.481613e-06,1.1526664e-06,2.9111328e-07,2.7327437e-07,-6.4286e-07,9.480266e-08,-6.1371884e-07,6.836742e-07,-7.5608395e-06,2.2850725e-07,1.0187077e-06,8.110769e-07,2.4703152e-07,-6.468885e-07,-1.6494273e-06,1.5085982e-07,-4.1548202e-07,1.1302177e-09,-8.161913e-07,-9.095272e-07,7.5706084e-06,2.260177e-06,3.7562754e-07,5.804202e-07,-9.4636835e-07,-3.7505117e-07,-8.972405e-08,5.103188e-07,7.30337e-07,5.109372e-07,-2.168074e-07,-6.3550544e-07,-1.8069753e-07,1.1502261e-06,-7.5710784e-07,9.480926e-07,-2.4967318e-07,1.0451015e-06,8.8147146e-07,-5.7480443e-06,-1.6951167e-07,1.1550378e-06,-1.9260864e-07,2.7189121e-06,-5.1932085e-07,2.0487334e-08,4.4793282e-08,-5.067646e-07,1.4144321e-06,-1.1629447e-07,-2.3125818e-07,6.365882e-07,-4.3115e-07,2.2503197e-07,8.234926e-07,-3.3614523e-07,5.1219854e-07,-2.1349021e-07,-2.7182824e-07,-2.989992e-06,9.338786e-07,2.3316602e-08,-7.938116e-08,5.1103007e-07,4.778171e-07,-6.060354e-07,-1.736902e-06,-8.008775e-06,-1.2553995e-06,4.9043133e-06,2.7730118e-07,-1.9062666e-07,1.5113854e-07,4.992624e-07,-5.128567e-07,-1.0218062e-06,-1.6954598e-08,-1.365009e-06,1.1035481e-06,9.17097e-07,-6.9527715e-07,-1.3464521e-06,-8.816182e-07,5.671161e-07,1.3558789e-06,1.8129849e-06,1.5759866e-07,-3.0454612e-07,-9.595024e-08,-1.0521278e-06,-1.2875888e-07,1.1393058e-06,1.1348021e-07,7.5870685e-07,-3.1778814e-07,1.715851e-07,-1.1031549e-06,2.1376381e-07,2.1763522e-06,-1.2729384e-06,6.8005e-07,7.063755e-07,-1.1784724e-06,7.872595e-07,-1.0947517e-07,2.7816523e-07,-7.9630775e-07,-5.7360836e-08,4.2510507e-07,-9.088335e-07,-7.6964426e-07,-7.1954524e-08,1.1255534e-07,2.832603e-07,1.6928919e-06,-3.1430795e-07,2.0364573e-06,1.8754687e-07,-4.6032034e-07,-5.4931786e-07,-3.0893894e-08,2.1523832e-07,-6.7852164e-07,9.263513e-08,1.8279108e-07,4.062751e-07,1.0845609e-07,9.9573626e-08,-4.4716376e-07,-1.3055035e-07,-1.8444057e-07,6.385172e-08,6.1911084e-07,-4.842046e-06,-1.1205135e-08,-4.5191166e-07,2.959112e-06,-5.0172775e-07,8.0014125e-08,-6.019409e-07,2.3409387e-07,2.0868474e-07,8.139587e-09,-6.08512e-07,-1.12457e-06,-1.3526784e-06,-9.35197e-07,7.254332e-07,-1.4356441e-06,-4.5185905e-07,-9.129354e-08,-2.3588163e-08,-6.063923e-07,-2.497732e-07,2.600196e-07,1.9235902e-08,4.7262336e-07,2.5190437e-07,-1.07212415e-07,3.2504107e-07,-1.430966e-07,5.9131037e-07,-1.9694926e-06,-2.8578933e-07,1.07564816e-07,1.5420534e-07,-1.3431818e-06,-1.6806991e-06,1.0291636e-07,6.209025e-07,2.096481e-07,-5.9914305e-07,-1.1530852e-06,3.1458278e-08,-4.904988e-07,1.9214913e-07,5.1444454e-07,7.120434e-07,6.9979755e-09,-5.0962876e-07,-1.4794999e-07,1.9758498e-07,8.3255674e-07,1.4369446e-07,-1.5352245e-07,-9.2690684e-08,-2.0141823e-07,-1.0314797e-06,-2.0713901e-07,-2.4443787e-07,-2.9829218e-07,3.889553e-07,-1.10907465e-07,-1.3216956e-07,-6.037512e-07,5.255286e-07,1.6173354e-06,2.0535351e-06,4.0909285e-08,-4.8914546e-07,-2.2085547e-07,-4.843611e-07,5.907546e-07,-2.2695367e-06,1.0758931e-06,-5.204466e-07,1.7020481e-07,1.4368217e-07,1.3508696e-09,6.2466293e-06,-1.4119021e-06,1.850578e-07,3.2009356e-07,1.5855389e-07,1.67163e-07,4.4007112e-07,-2.5837278e-07,2.9872332e-08,1.8897246e-08,2.6692442e-07,2.9366882e-07,1.4206366e-06,6.9619534e-07,3.2843525e-07,-4.7397964e-07,2.961994e-07,1.7931845e-07,-8.522426e-07,9.0862926e-08,-3.2392734e-07,4.4227124e-07,-5.2250705e-08,-3.7621326e-08,7.485877e-08,2.9664463e-07,3.1824928e-07,-4.992798e-07,1.3975366e-06,-2.230061e-08,2.2739389e-08,1.6564465e-07,1.7316411e-07,-4.4752636e-07,4.2083533e-07,-2.95621e-07,4.2202156e-08,-2.0988445e-07,-2.6930138e-07,4.8386954e-07,-5.0260196e-06,-1.0580254e-05,8.842973e-07,-3.7547647e-07,-4.29102e-06,-6.875706e-07,1.731828e-06,-2.7016142e-06,-7.066265e-08,1.0691941e-06,6.808651e-08,1.0877727e-06,-1.0276159e-06,1.6258906e-07,-5.093796e-06,-1.4655133e-05,5.9106014e-07,1.3484777e-06,3.224634e-06,2.7330977e-06,6.4777277e-07,-3.3015272e-06,5.753634e-08,8.7915436e-07,-1.7130949e-06,1.6030043e-06,-1.8476103e-07,4.4021554e-06,-5.4202214e-06,2.1055362e-06,1.5940384e-07,7.357311e-06,-6.3287985e-07,2.686222e-06,1.3587255e-06,-2.8578181e-06,2.620479e-06,-1.085193e-06,-1.5290632e-06,1.7522366e-06,-4.7298886e-07,1.3952324e-06,-4.3525355e-07,1.027749e-06,-7.4923037e-06,-1.7469665e-06,1.0123962e-05,4.939711e-08,1.7239652e-06,4.3167017e-07,7.769067e-06,1.5642751e-06,3.8136812e-07,2.1842773e-06,2.186512e-06,-6.640206e-07,2.0301354e-07,-8.900258e-07,-1.2467578e-06,-1.1743427e-06,1.6838883e-06,-1.4935633e-06,8.3243407e-07,9.088153e-07,9.9173e-07,2.9277896e-07,-3.0967847e-06,-4.141533e-08,2.8808658e-06,-5.5017694e-08,-2.163641e-06,-1.6325691e-07,1.0534052e-07,-1.2078156e-06,-9.718061e-06,-1.0764936e-06,-8.78274e-06,-7.4237823e-07,-9.027188e-06,1.0691557e-06,7.8398e-06,1.7659788e-05,5.293373e-07,-3.104102e-06,-6.8101835e-06,3.2574637e-06,-4.209346e-06,6.5982204e-07,1.9136456e-05,4.7655843e-07,-1.4438349e-06,-1.0232361e-06,-2.3805014e-06,-4.790422e-07,-1.2960023e-06,-1.3061631e-06,-2.0658408e-06,8.752622e-09,7.853009e-07,1.6319614e-06,5.6975546e-06,-1.2462334e-06,-3.414271e-06,-3.1993322e-06,-3.726748e-07,-5.87082e-07,1.9867334e-06,7.996508e-07,-5.818165e-06,6.034579e-06,-1.0306932e-06,-1.0601599e-06,-1.695035e-07,-2.1437395e-06,1.5910751e-07,-1.4834095e-06,7.3526653e-06,-2.7228753e-06,-3.2703016e-07,-4.7916717e-07,-1.2396958e-06,-2.847334e-07,-1.3016805e-06,-7.168972e-06,-5.1889515e-08,3.4737639e-07,-3.3793658e-06,-5.054722e-07,-5.250927e-07,-1.8599371e-06,3.6833063e-07,1.7723174e-07,2.2883949e-06,1.0689554e-06,1.839669e-07,8.483116e-07,-6.427662e-07,-4.891739e-07,5.693303e-07,3.1102343e-06,-1.9357353e-06,-1.6208588e-07,4.5798123e-07,-1.3617706e-06,-3.922654e-07,1.2371042e-06,1.042974e-06,8.9750085e-07,-1.246687e-08,-4.4538842e-07,1.6003406e-07,-2.270042e-09,-1.8399237e-06,-1.8016837e-06,2.0353102e-07,-1.0127043e-06,-1.5172864e-06,6.8869406e-07,-1.5936957e-06,-6.440468e-07,-3.751427e-07,8.1980653e-07,1.61023e-06,1.1177235e-06,-2.6507104e-07,1.8837648e-07,7.921722e-07,-8.115105e-07,2.63825e-07,1.6094716e-06,1.2888339e-07,-6.342599e-08,-6.076147e-07,-1.3594139e-06,-1.6709048e-06,1.1952099e-07,5.491976e-07,2.632831e-07,-1.4759748e-06,-2.5987313e-06,3.7453003e-07,-6.1810215e-07,9.709354e-07,1.3395767e-07,1.7823179e-06,3.5227593e-08,-2.3228029e-07,-8.540171e-07,5.278573e-07,3.8801315e-07,-2.8485718e-07,1.7920293e-06,-2.2006111e-07,-2.890077e-07,-1.2006826e-06,-4.0765536e-07,-8.885364e-07,6.8944324e-08,-9.750197e-08,-4.3666478e-07,-1.954732e-07,3.8492894e-07,3.3523922e-06,2.227745e-06,-8.0720065e-07,2.671042e-07,-9.164356e-08,1.226492e-07,-1.0317534e-06,2.3971916e-06,-1.6497379e-06,1.9661115e-06,9.029624e-07,1.0603087e-06,-1.9408819e-07,-4.4598687e-07,8.0898894e-07,9.633509e-07,1.6427424e-06,1.8313401e-06,3.0431164e-07,-5.5307487e-07,1.0151658e-07,1.9167766e-07,8.521765e-07,-2.8971786e-07,5.7842215e-07,4.997098e-07,2.1253302e-06,-1.6645461e-06,5.306424e-07,-1.1495331e-07,1.1053874e-06,2.0372336e-06,-7.5578043e-07,5.941156e-07,-9.486938e-07,1.3390705e-06,4.3595057e-07,-1.6968035e-07,5.127458e-07,2.9211367e-07,-4.5819263e-08,2.0131974e-06,2.310415e-08,-5.732978e-07,-1.1326231e-07,9.999028e-07,1.1032996e-06,-1.0691817e-06,-2.0503398e-06,4.971781e-07,2.590425e-07,-6.7747e-07,-5.7844744e-08
-3.4405986e-07,5.977361e-07,7.353868e-06,-3.302478e-07,-2.521641e-06,-1.313166e-06,-1.5453777e-07,-8.236196e-08,-9.552856e-07,6.533187e-07,3.2334202e-07,2.0538016e-07,-1.105736e-06,6.122882e-07,-6.743203e-07,-1.1345987e-06,-9.689227e-07,-4.5920928e-07,-9.056202e-07,-3.6525213e-07,-1.0409364e-06,-3.4525473e-07,-1.6241208e-06,1.227484e-06,-1.2391599e-06,1.1628853e-06,-2.4254143e-06,-1.334337e-06,8.4021315e-07,-1.1456308e-07,-6.8501686e-07,-1.0087323e-08,5.97548e-08,-9.661397e-07,-9.095284e-08,1.6242349e-07,1.9624117e-06,-8.448465e-08,-3.169716e-07,-3.9573737e-07,-9.865531e-07,-1.0374869e-06,-1.2672583e-06,1.431307e-06,-6.362409e-07,-4.826518e-08,-4.105438e-07,-3.2743985e-06,-1.0949879e-06,1.1659918e-06,5.410711e-07,5.862157e-07,-7.365133e-07,3.5248272e-07,-1.2615444e-06,1.4717452e-07,-4.1886872e-07,-2.6941618e-06,-1.3779784e-06,9.851833e-08,-5.483554e-08,-1.2162039e-07,-2.522993e-06,-8.561783e-07,7.777615e-07,-2.5141475e-07,2.967263e-07,-6.9571394e-07,7.538954e-07,-1.3642575e-06,2.6361127e-07,7.9600113e-07,-4.588248e-07,1.135445e-07,-1.3003548e-06,-7.016821e-06,5.97218e-07,7.669148e-07,4.1271971e-07,-7.2873473e-07,2.3117877e-07,1.2050378e-07,-6.759425e-07,-3.45266e-06,-5.45966e-07,-2.3416646e-06,-1.1979314e-06,-2.4761675e-07,-3.4096024e-07,-2.8246268e-06,5.7998665e-07,-2.1957251e-07,4.2477913e-07,1.2399931e-06,6.421421e-07,-3.963487e-08,-1.9523472e-07,-5.217588e-07,-4.355221e-08,1.5753633e-07,7.2280153e-07,8.154127e-07,-6.507741e-07,-3.4341656e-07,-6.6786583e-07,-9.330901e-07,2.8347613e-06,-3.9531267e-07,9.451176e-07,-3.9458058e-07,-2.7413323e-06,-3.7964554e-07,2.884459e-07,5.504959e-07,-5.07599e-07,4.6080393e-07,7.1301275e-07,-3.4294726e-07,-2.4660653e-07,1.1547133e-07,-2.8381902e-07,-5.946745e-07,2.0489636e-06,-7.6325387e-07,-1.1164567e-06,2.0090333e-08,-6.012141e-07,-2.9157277e-07,1.1925322e-08,-8.3424334e-07,3.2419243e-07,5.562251e-09,-5.705276e-07,-3.1427197e-07,-1.3202634e-07,-8.2949896e-08,-2.6751565e-07,3.769484e-07,-7.9226666e-08,2.0507805e-08,2.0809054e-08,-1.9803729e-06,-3.9635836e-07,1.1184668e-06,2.2604825e-06,-1.3603653e-08,-3.1560626e-07,2.1884131e-07,-6.2035657e-09,1.7421188e-07,-1.8220028e-06,-1.3049039e-07,-9.65635e-07,-6.628177e-07,1.2402736e-06,3.9280144e-07,-1.8464859e-06,1.6302613e-06,-4.801229e-07,-1.8094046e-07,3.5312726e-07,-4.0619295e-07,-1.4263173e-07,-2.825966e-08,1.3919859e-07,-9.351906e-08,-3.931993e-08,-4.5243632e-07,-3.2671386e-07,-3.8212735e-07,-4.507888e-06,-4.3528672e-07,3.5623806e-09,7.1483277e-07,-8.785546e-07,2.1606556e-06,8.696618e-08,1.1227337e-06,2.7351012e-07,-2.9093982e-07,1.4436607e-06,1.0442918e-09,-7.973656e-07,4.3782234e-07,-4.2375885e-07,3.2359083e-07,4.2969454e-08,-6.704044e-07,-1.0221692e-07,-1.18956294e-07,-1.0702056e-06,1.2068008e-07,4.996945e-08,1.7615133e-07,-1.4590147e-07,-1.5640317e-07,2.3869653e-08,-4.0827356e-07,3.145881e-07,-3.2564557e-07,-2.9054252e-07,-5.086474e-07,-4.0135774e-08,1.2385242e-06,1.7164658e-07,3.2327728e-06,-2.1503977e-08,-5.189464e-07,9.439773e-08,2.013452e-07,5.4756094e-07,8.2636046e-07,7.064336e-07,-1.242241e-07,2.5040269e-08,3.9137885e-07,-6.641078e-08,7.3582937e-06,-9.97286e-07,9.840071e-08,5.104181e-07,-2.55942e-07,1.6398973e-08,3.8427976e-07,8.4615884e-08,5.9083476e-08,-1.5354469e-07,-1.9506801e-07,1.811146e-07,-1.3959627e-06,1.8121258e-06,1.5650095e-08,2.1442773e-07,-2.1021111e-07,-3.4233096e-09,-8.2785095e-07,-9.14783e-08,-3.9649717e-07,-1.6273052e-06,2.0519285e-07,-9.233796e-08,-2.5849118e-09,4.0985947e-07,-1.2630867e-06,1.5070995e-08,1.6649698e-06,-1.4044775e-07,1.0339337e-07,-5.122813e-08,-1.535496e-07,-4.183062e-07,-5.0860046e-07,-7.1254647e-07,-1.4997894e-08,3.8375535e-07,-1.4939329e-07,6.9827007e-07,-3.688825e-06,4.1538096e-06,7.9118604e-07,1.1584317e-06,-5.013043e-06,1.5870852e-06,-8.275159e-07,-4.649203e-06,1.3105116e-06,1.8194775e-06,-1.6744309e-06,8.167874e-07,-2.2620302e-06,8.2782657e-07,2.7049207e-06,-1.9969733e-05,-1.4288926e-07,1.0302558e-06,-2.4442577e-06,1.6674325e-06,5.777431e-07,-2.7773063e-07,2.9243148e-07,6.903153e-07,-5.0586095e-07,-7.912094e-07,-1.4315399e-06,-3.8182884e-06,2.5766894e-08,2.2302856e-08,1.3232885e-06,6.549624e-06,-1.1685048e-06,1.6616024e-06,-3.4059985e-07,1.4839267e-06,2.5743054e-06,4.3842533e-08,-1.9619974e-06,3.5390376e-06,-2.200959e-06,-8.067453e-07,2.6672973e-07,5.110474e-07,-6.497549e-06,-2.6889386e-06,-9.294446e-06,-8.2726757e-07,1.4377836e-06,1.8979475e-06,3.906881e-06,-4.3710443e-06,-5.7644024e-07,2.0150953e-06,-7.417901e-08,1.6558101e-06,2.4009607e-06,-1.9122515e-06,-2.5515649e-06,-4.3232518e-07,1.4935279e-06,7.796628e-07,1.9564136e-06,-7.9898706e-07,-1.7457583e-07,3.6452863e-07,3.8074168e-06,6.837497e-07,3.584697e-06,-3.6525688e-07,2.2963127e-06,-5.0092734e-07,1.588412e-06,-3.5867208e-06,-1.0049544e-05,1.0239813e-05,-8.171576e-06,-8.266675e-07,-1.7899554e-06,-1.2198751e-06,3.7418217e-06,1.0685151e-05,-2.4263077e-06,-4.0814184e-06,-3.683558e-06,-4.3654773e-06,-2.8297281e-06,-5.382147e-07,1.928567e-05,-2.0902303e-06,-1.3807371e-06,2.5423624e-06,-3.105342e-07,-9.747679e-07,-2.4767422e-07,3.31944e-07,1.5600183e-06,2.5586945e-07,2.8972988e-07,3.8727285e-06,1.6744398e-06,-1.0691342e-06,6.575342e-07,-1.1872671e-06,-7.430684e-07,-1.2296024e-07,7.075979e-06,3.8680446e-06,-2.0972457e-06,5.0349786e-07,-7.881306e-07,-3.855627e-07,1.3414393e-07,8.21565e-07,9.3030735e-08,1.7486997e-07,1.4085846e-06,-8.8402635e-07,-8.390057e-07,1.862465e-07,-4.9691937e-07,-6.7270435e-07,3.1361592e-06,1.1570772e-06,3.8192223e-07,1.0134812e-06,-1.5249514e-06,-3.3306716e-07,7.2789413e-07,-1.2011878e-06,1.8029354e-08,-6.917617e-07,-1.9296276e-06,7.0745955e-08,-2.2240248e-07,-2.5635825e-06,2.1595577e-07,-3.922786e-07,2.7745912e-07,-8.7050296e-07,-1.7677127e-07,-8.872887e-07,1.0713292e-06,-3.0856272e-06,-3.18737e-07,-4.111141e-07,1.7732626e-07,-1.1380167e-07,2.911483e-07,-1.6740054e-06,-6.820437e-07,-5.770747e-07,1.0457445e-07,-8.446401e-07,-7.869056e-07,-1.7871582e-06,3.170332e-07,5.5122666e-07,-3.448724e-07,3.840002e-07,-5.3480085e-07,-1.0931368e-06,1.2082622e-06,-3.1947343e-07,-4.3061016e-07,-2.7881237e-07,-1.2847806e-06,-2.1929359e-06,-1.5679225e-07,-4.9902055e-06,5.933367e-07,-5.1214846e-07,3.4131735e-06,-2.6722844e-07,-1.2469773e-07,3.0803258e-07,1.4742276e-06,1.2851824e-06,1.532652e-07,-1.7883619e-06,6.727058e-08,-1.0124304e-06,6.9455587e-07,-1.2800207e-06,-6.97291e-08,-4.1370285e-07,-9.751814e-07,-1.2144015e-06,8.133865e-07,-2.093568e-06,-4.4341283e-07,1.1477525e-06,1.561726e-08,1.16551604e-07,-2.7888282e-07,6.3163844e-07,-3.1157235e-06,1.0114837e-06,6.647877e-07,-9.59917e-07,-1.6155303e-07,-1.478464e-06,3.0572003e-06,-1.2982639e-06,2.8606466e-06,2.937611e-07,-2.1974724e-06,6.821456e-07,7.8179164e-07,-2.3648563e-06,-9.641367e-07,7.355756e-07,-3.1014656e-06,-7.368548e-07,2.7194121e-06,1.2141612e-08,1.3134782e-06,-3.4481404e-06,1.542987e-07,1.2637367e-06,-1.0113959e-06,-6.300332e-08,6.203254e-07,-2.4360088e-07,1.1368237e-06,-2.0212804e-07,-2.5133636e-07,6.4269847e-07,-3.9723586e-06,5.60711e-07,1.6831268e-07,-8.965617e-07,-3.0553854e-06,1.0745757e-06,5.2911844e-07,3.2702224e-07,-1.0290354e-07,-4.086958e-06,5.277244e-07,-1.2183682e-07,2.1668234e-07,-7.8824667e-07,-5.784864e-07,6.8866706e-07,1.7999628e-07,-2.5547334e-07,-3.14047e-07,2.4184675e-07,-2.7360497e-07,-6.979841e-07,-1.5253844e-06,-1.6759856e-07,4.5973227e-08,1.0468957e-06,-5.337389e-07
1.9568138e-07,4.918065e-07,-3.0626104e-06,-2.3535868e-08,-1.093339e-06,-9.1381366e-07,-3.4557243e-07,5.560764e-07,-9.606829e-06,2.0078355e-07,-2.1482087e-09,6.323735e-08,3.1022196e-07,-5.778241e-07,-5.4743816e-07,-8.355644e-07,-4.6499977e-06,1.6298127e-07,2.596696e-07,-8.322374e-07,2.711539e-08,-3.031215e-07,5.175952e-07,-9.0855883e-07,1.460527e-06,-8.9989373e-07,-3.2013244e-07,7.736748e-07,1.060695e-06,-8.894525e-07,-1.960352e-06,-2.1671053e-07,-4.218179e-07,4.3058134e-07,2.5784374e-07,-1.0309577e-06,-6.021006e-07,-4.9607496e-07,1.3129779e-06,5.8396625e-07,3.848858e-08,6.521847e-07,5.926238e-07,-3.7308786e-07,4.5413165e-07,2.601874e-08,-2.236317e-06,-2.763709e-06,-5.62235e-07,-1.2614234e-06,-9.38609e-07,-1.6326003e-06,-1.1501099e-06,5.1562927e-07,3.706883e-07,-2.4514642e-07,-7.26925e-08,8.656811e-07,1.8090965e-08,-8.455765e-07,-5.6476347e-07,5.146801e-07,-1.6091998e-06,-3.214353e-08,1.8411214e-08,5.887662e-07,-7.129519e-07,-1.5725319e-06,1.6006285e-07,-4.9627374e-07,-3.2322578e-07,-4.734165e-07,-1.8923947e-07,-1.2241762e-06,1.6784595e-06,-1.7788144e-06,-5.2780763e-07,-3.6854835e-06,1.2969924e-08,-4.810416e-07,-6.702683e-07,-2.0469668e-07,-4.1760854e-06,-1.5843616e-06,-4.388162e-07,-2.0323855e-06,1.2613353e-06,-2.6606747e-06,-4.650057e-07,2.258312e-06,3.0855554e-06,5.1463485e-07,2.2390893e-07,-1.0657143e-06,2.916758e-07,5.6699e-07,-4.0208673e-07,-9.2092466e-07,-6.53574e-08,-7.893934e-07,-4.4341618e-07,1.17571616e-07,-1.4892166e-06,1.1410056e-06,-3.7934643e-07,-1.1091127e-07,-7.6073013e-07,1.6096207e-06,2.421345e-07,1.6522991e-06,-2.1359335e-06,2.822327e-07,3.5023137e-07,-1.1679415e-06,-2.140461e-07,3.4943918e-07,-2.0941458e-07,8.152256e-08,8.3703986e-07,8.237022e-08,9.1862184e-08,1.0316405e-07,3.849093e-07,-3.0234614e-07,1.4660341e-06,7.027771e-08,-1.9795756e-07,1.4293086e-07,-1.5942433e-08,5.544704e-07,-5.7274303e-07,2.0947141e-08,-7.118004e-09,7.9928964e-07,5.6924637e-07,2.685839e-08,-1.6640838e-07,-1.3890428e-07,-1.4554446e-07,-6.8619975e-08,2.6207501e-06,1.8542539e-06,-1.555191e-07,7.6750695e-07,4.847276e-07,8.337044e-07,4.7415247e-07,3.154671e-07,-3.0544204e-08,8.908074e-11,-6.208226e-08,4.96969e-07,9.509883e-07,-1.398446e-06,2.4329304e-07,3.169535e-08,-1.1005504e-06,-1.2381662e-08,-4.6349982e-07,-1.2788945e-07,-6.412802e-07,-2.9100414e-07,1.5599355e-08,-8.811462e-08,3.970701e-07,-3.7110655e-07,-5.2044985e-08,-1.9631074e-08,-5.548153e-08,-1.2449567e-07,2.2426261e-06,-3.3476326e-07,2.7813294e-07,-1.9733318e-07,5.116979e-07,-1.5232083e-06,-6.0152544e-08,-1.4959534e-07,-8.545519e-08,-3.6916958e-09,-1.7800685e-06,1.2352508e-07,1.3282849e-08,-2.5388923e-07,3.4808943e-07,-1.8820191e-07,4.3894835e-07,2.4355637e-07,7.894721e-08,2.0374507e-07,-2.60528e-07,-3.8143207e-07,1.2074338e-07,3.0767666e-08,-4.6477052e-07,-7.1977735e-07,-1.8322075e-07,-2.9140392e-07,-6.6938924e-08,-2.2520037e-07,-2.7010526e-07,-2.4361879e-07,1.2539472e-06,4.0344213e-07,4.699324e-07,-5.1630252e-08,-1.6408077e-07,-7.271454e-07,-5.6550142e-08,3.4904693e-07,-5.7943305e-07,3.4799254e-07,-1.1161312e-07,-2.4727342e-07,-2.8496862e-07,-5.3637947e-08,3.6130842e-08,1.2150505e-06,5.938358e-07,-1.3910056e-07,-2.3824649e-07,-2.0118064e-08,3.541967e-07,1.5179205e-07,-1.10900785e-07,-1.09763825e-07,1.18075185e-07,6.685712e-08,1.3570805e-07,-7.8618336e-07,-1.2536765e-07,-4.6298706e-07,-1.7284866e-07,-4.345923e-07,-2.614167e-07,-4.4514024e-07,-6.3846734e-08,-2.3476865e-07,2.9971022e-07,2.0348028e-07,8.544056e-08,7.918075e-08,-6.825289e-07,2.5266792e-07,1.8914747e-08,-1.3100064e-06,-1.60193e-07,-3.5885677e-08,6.7213044e-08,6.2559116e-07,2.8651698e-07,1.6245346e-07,-7.362571e-08,2.216951e-08,5.511054e-07,-7.938809e-09,-8.357492e-08,-6.0504117e-06,-1.7896011e-06,-1.4965465e-06,1.1937373e-06,4.695255e-06,-2.7636375e-08,1.7512156e-06,4.2085344e-06,6.5380203e-07,1.3296545e-07,1.1031028e-07,-1.9314251e-07,2.0240441e-07,9.261679e-07,1.8981755e-06,2.8297394e-05,2.088835e-07,-7.7899523e-07,-1.9803003e-06,7.894817e-09,1.085335e-06,-8.1601314e-08,-7.3243814e-07,-2.3146924e-07,-7.3478617e-07,4.8100333e-08,3.7675952e-07,1.2660746e-06,5.8706128e-06,-5.593501e-06,-6.868707e-07,3.2496948e-06,-2.0105986e-06,1.8579506e-06,1.4887146e-06,4.81635e-06,-1.5394046e-06,2.5492452e-06,5.599892e-07,-1.5949129e-06,2.6251337e-07,4.9405116e-06,1.1001678e-06,-5.757186e-07,4.1449953e-06,4.5752286e-06,6.707479e-06,1.5659753e-06,4.399522e-07,-2.3749806e-07,-8.3802365e-07,2.7230008e-06,3.878244e-07,7.308684e-07,6.720705e-07,1.1633301e-06,5.4203574e-06,1.4749144e-06,-3.1192542e-09,2.8969732e-06,4.2595272e-07,3.8983458e-07,-5.30229e-07,-4.4387826e-07,2.264906e-06,-1.2491506e-06,-7.9498636e-07,1.1858127e-06,-3.538005e-07,1.5218075e-06,-1.9933236e-06,1.2527846e-06,-3.084554e-07,-1.6445216e-06,1.7083606e-06,-2.5493616e-06,-6.9273835e-07,1.8084216e-06,-1.7127993e-06,-9.4109464e-07,-1.3344193e-05,1.6405288e-06,-1.440281e-06,2.3246553e-06,1.4806562e-05,2.8724207e-06,1.1594274e-06,2.401387e-07,-1.5039167e-06,-4.03862e-06,7.2829397e-07,2.052018e-06,1.6393575e-06,4.3817e-07,2.5224626e-06,1.796021e-06,-5.138675e-07,4.223873e-08,-2.7790861e-06,-1.1459097e-06,-7.456462e-06,4.1595226e-06,7.531244e-06,-2.3744524e-06,7.0618046e-07,4.2825604e-07,-8.514277e-07,5.3760584e-07,2.9347316e-06,1.3428381e-06,6.7539004e-06,4.2424784e-07,4.7173415e-07,-3.4868244e-06,-2.1358989e-07,-5.0988547e-11,-9.5045325e-06,-1.0527408e-06,3.939664e-07,-1.930061e-06,1.1679247e-06,9.797131e-08,6.9284334e-07,-3.6243462e-06,-1.2976315e-07,7.690643e-07,4.505407e-07,1.8695793e-07,4.6469424e-07,-1.0462568e-06,5.0673947e-08,-2.3856185e-07,-1.2633091e-06,2.0718073e-08,1.5964012e-07,-2.0895238e-06,3.051335e-07,-1.4297623e-06,-1.1370613e-07,5.061076e-07,3.531635e-06,-5.6625964e-07,1.6070294e-07,-6.3263924e-06,1.1750824e-06,5.213186e-07,1.1591635e-07,2.0276748e-07,-6.5513905e-07,-1.731633e-06,1.6115179e-07,9.24127e-07,-2.9415628e-06,-1.7822213e-06,-4.028594e-06,-4.918445e-07,-2.0370844e-06,-3.6928856e-07,-3.6307079e-06,-6.7232565e-07,-3.081223e-07,-1.1820866e-06,-1.5739648e-06,-4.4259093e-07,-7.4523194e-07,1.3652023e-06,8.871684e-07,-1.0124018e-06,-1.7365057e-06,1.7175294e-06,-1.0477712e-06,5.54762e-07,-6.1971696e-07,-2.7440667e-06,-2.9790456e-06,-1.0527958e-06,-1.4034481e-06,-1.1410263e-07,8.4449636e-07,-2.8803843e-06,8.5856834e-07,-2.4841681e-06,-1.172641e-06,-1.8071182e-07,-2.139055e-06,8.669403e-07,-1.860154e-07,-9.157285e-07,-1.2717777e-07,-9.3601625e-07,-3.968465e-07,-1.1885871e-07,-7.965941e-09,-7.033033e-07,2.5876753e-07,-3.660669e-07,-4.958134e-07,-3.430208e-07,-2.668859e-07,-6.3389456e-07,-4.941361e-07,-4.7020012e-07,-3.441237e-07,-9.2214736e-07,-3.2240619e-06,1.7561005e-07,8.1969074e-07,-1.2366752e-06,6.11367e-07,-4.2823194e-06,-4.5840324e-07,-8.3817525e-07,-4.632076e-06,3.1775735e-07,7.211284e-07,-8.8806627e-07,-5.889976e-06,3.590177e-07,4.6713188e-07,-6.442108e-07,-2.4215421e-06,2.6396706e-06,8.9285834e-07,1.4988572e-07,-4.6170692e-07,2.608058e-07,-8.1139706e-07,-1.2736199e-06,1.5424646e-07,-2.8158138e-06,4.791611e-07,3.0595055e-07,-1.7544171e-06,-1.3994427e-06,-2.2703439e-06,-8.923e-08,-9.2161724e-07,-4.8985834e-07,-2.8171924e-06,2.1121748e-07,-4.4968724e-07,-2.2523514e-06,8.529096e-07,-4.5381225e-07,-1.3765192e-06,1.4733892e-07,-1.7497781e-07,-1.4213829e-06,-8.309274e-07,1.0180289e-06,1.5906973e-07,-9.681587e-07,-1.10222075e-07,-1.6530167e-07,1.024587e-08
-5.3157017e-08,1.399843e-06,-2.225978e-07,1.4152971e-07,1.8661713e-06,3.1171685e-06,-5.939799e-08,6.3174605e-07,3.1950005e-06,-5.663111e-08,-1.7593842e-07,7.1523964e-08,-2.775637e-07,-2.6719152e-07,3.7785213e-08,1.228494e-06,3.7292493e-06,7.7709194e-07,3.599847e-07,1.206138e-06,9.6623936e-09,1.2154029e-06,4.553787e-07,4.024045e-07,-1.8081e-06,-3.837347e-07,1.5389668e-06,3.0950412e-07,2.1314731e-06,-1.6887147e-06,6.9515136e-07,5.6139703e-07,-2.5287193e-08,-1.5989147e-07,-3.37574e-07,3.7035161e-07,2.4197561e-06,-1.8822713e-07,-9.90165e-07,5.516863e-07,-3.8884275e-07,6.522614e-07,-1.8652972e-07,-1.8771874e-07,-5.353611e-07,4.1199692e-07,2.704776e-06,2.160221e-06,2.5430242e-07,2.8668222e-07,1.0755692e-06,1.2512648e-06,2.4283988e-06,-4.2813943e-07,2.570311e-07,-1.0860152e-06,-2.5457936e-07,1.1132679e-06,7.8745677e-07,1.5992822e-07,1.1981933e-07,-7.909456e-08,-1.387595e-07,3.3591132e-07,5.1380215e-07,-5.28732e-07,-1.9750746e-07,-1.5092489e-06,5.7722536e-07,2.580415e-07,6.027017e-07,-5.194851e-07,5.9221996e-09,7.686311e-07,-4.0394568e-07,3.7386085e-06,-1.5765942e-06,5.243536e-07,-1.3820065e-07,3.9345397e-07,8.5979843e-07,-1.1995749e-07,-1.8620387e-06,-2.0234502e-06,-3.926434e-07,-3.2201187e-06,6.400995e-08,-3.1807116e-07,6.1166264e-07,-5.033912e-06,-6.1271353e-06,-9.871961e-07,6.9691043e-07,-7.1717716e-07,-4.4451167e-07,-3.438538e-08,-2.0596956e-07,9.5261225e-07,-1.3268215e-07,-1.2849749e-06,7.4167065e-07,8.8422365e-07,-6.767835e-07,-7.888013e-07,8.261827e-07,3.0394864e-07,2.8282602e-06,2.0187046e-07,-2.7991996e-07,5.579211e-07,6.682915e-07,2.1276726e-07,-5.164449e-07,6.2623394e-07,1.0143359e-06,3.2172085e-07,-7.6533604e-07,2.6799066e-06,-3.2184496e-07,2.396386e-07,3.3743834e-07,-6.2032706e-07,-9.1688355e-07,-6.835755e-07,-2.285248e-06,1.6049555e-07,7.0579387e-07,1.2504489e-07,1.4178177e-08,-1.5796642e-06,-1.167705e-06,2.5890586e-08,-4.1025186e-07,6.895666e-07,-7.729468e-08,-1.569513e-07,2.2893227e-07,2.146281e-07,-1.42855505e-08,-2.206991e-07,-1.2872812e-06,-1.1392934e-06,-3.1094612e-07,-1.3428214e-06,9.073638e-08,-5.9868574e-07,7.44474e-09,1.1619481e-06,-1.1952972e-07,-5.341296e-07,-1.3431535e-06,-8.0847644e-07,7.357863e-07,-3.0506752e-07,5.8032106e-07,-6.7078986e-07,1.5471092e-06,-2.2398042e-07,9.281994e-08,6.89558e-08,-4.168568e-08,-8.959217e-08,-4.863616e-07,-1.3027733e-07,1.3596205e-07,-2.4584975e-07,2.1297336e-07,-3.7273188e-07,-8.662245e-08,-1.6524523e-07,1.4084114e-07,2.371394e-07,-1.0502032e-07,-3.8990095e-07,-7.924003e-07,-1.4414087e-06,-5.2133453e-10,-5.830552e-07,-2.5469154e-07,1.12500885e-07,-9.659303e-07,-1.766901e-07,3.6909586e-07,1.374525e-07,-9.750199e-07,6.4292396e-07,3.073026e-07,-4.5151086e-07,-1.9960463e-07,1.3665246e-07,-7.317941e-07,1.9816784e-07,-1.3324237e-07,-5.0430824e-08,-3.3875585e-07,3.6405368e-07,-1.3784488e-07,-4.8633694e-08,7.1438e-09,-2.8031408e-07,-5.175456e-08,-1.10521114e-07,1.1272034e-06,-8.6973154e-07,-1.0859031e-06,-1.0562363e-06,-9.3916075e-09,-1.8457132e-07,7.75766e-08,2.5246152e-08,-8.0544226e-07,8.7310985e-07,3.0488758e-07,-3.039941e-07,-4.3404498e-09,-8.4713804e-08,-3.2675118e-07,-1.5571914e-07,-1.6660555e-06,-7.8441875e-09,-1.7279754e-07,-9.291539e-08,7.3760035e-08,1.3210988e-07,7.045655e-08,-2.692758e-07,-2.2701525e-07,-3.5873228e-08,-8.494972e-07,-4.3277745e-07,-2.28081e-06,-3.80477e-08,-4.2550502e-07,3.7041372e-07,-7.344139e-07,2.5327557e-07,4.3900485e-08,-2.4713123e-07,1.6082182e-06,-3.3862239e-07,-1.988904e-08,-4.3890088e-07,6.5186595e-07,-6.3518905e-07,-6.0330336e-09,-6.115341e-07,1.7416541e-07,3.6406863e-08,-2.6831034e-07,-3.2485775e-07,1.7473525e-08,-6.6247577e-07,-5.0521174e-07,3.7655376e-08,3.305005e-08,-6.325034e-08,-1.0128508e-07,-5.114638e-06,-1.075646e-06,-2.1099491e-07,-5.1133173e-07,-2.6658076e-06,5.6852696e-07,-4.980413e-08,-6.2836643e-06,-4.258206e-07,-5.523282e-07,-5.573088e-07,2.2620094e-07,-5.929995e-07,2.2021312e-07,-4.291965e-06,1.2091813e-05,7.1266606e-07,1.131133e-06,6.9100406e-07,-1.257657e-06,3.024141e-08,7.974288e-07,1.2495605e-09,3.0067895e-08,1.02877934e-07,5.9147226e-07,-2.9471396e-06,2.4384387e-06,-8.234326e-08,1.744026e-06,1.2344696e-06,1.2819913e-07,4.238941e-07,-2.9373937e-06,-1.4423704e-06,-2.1900576e-07,9.981432e-07,-3.4998214e-07,2.88305e-07,8.235147e-07,-6.567643e-07,-6.9406287e-06,4.865758e-07,8.7992595e-07,5.143026e-07,3.2451885e-06,-4.4475623e-06,-4.9133305e-08,-1.3910684e-06,-4.9124105e-07,-5.7788484e-06,-2.1327169e-07,-1.8606661e-07,-7.870981e-07,1.1923611e-06,4.3511292e-07,-2.3284495e-06,1.3181344e-06,4.1380076e-06,-5.822751e-07,-2.7159075e-08,-2.7341429e-08,-4.709716e-08,3.496088e-07,-5.5539135e-07,-1.2771633e-07,1.7807165e-06,-1.2357477e-06,6.5308933e-07,3.5178434e-07,7.179383e-07,1.19120486e-07,1.1604725e-06,2.629822e-07,7.0228225e-07,1.3731644e-06,6.725309e-07,-1.2437284e-06,-2.0159403e-06,-4.4915328e-07,5.1677107e-06,-9.194469e-06,4.392703e-07,-3.7342184e-06,2.854693e-07,-1.8780172e-06,3.0739857e-06,-2.0588172e-07,-1.9931492e-06,-3.899405e-06,-5.8835224e-07,-1.7625343e-06,-2.369822e-07,-1.3438408e-06,-1.2300991e-06,-1.7771907e-06,4.105939e-07,1.3209103e-07,1.4411899e-06,1.2741395e-06,2.7321223e-06,-1.5332525e-06,-1.5103574e-06,-1.3142524e-06,-2.2299957e-08,2.6153657e-07,5.1218117e-06,-2.1785446e-07,-5.6319373e-06,1.9843567e-06,-1.7777455e-06,-3.309303e-07,5.9599716e-07,3.090962e-07,2.69294e-07,2.2069327e-07,-3.1470925e-06,-6.798466e-07,-1.4959456e-07,2.8314116e-07,-2.1425132e-07,-4.787417e-07,-1.1765763e-06,2.1236795e-06,8.79292e-08,-3.6378125e-08,-4.744265e-06,-4.7601933e-08,-1.4894749e-07,-1.7953682e-06,-7.2475466e-09,-2.5811602e-09,-6.135997e-08,-1.9646862e-07,6.449303e-07,-1.8579683e-06,6.0820395e-07,-8.0692683e-07,1.16805104e-07,-8.227129e-07,-1.1820346e-06,-1.8628424e-07,6.56549e-07,-7.530475e-07,6.538572e-07,7.061223e-07,2.8314673e-07,1.1182319e-07,1.1448609e-07,2.8049894e-07,-2.3835537e-06,-2.7454853e-06,-1.080857e-06,-1.5844593e-06,-3.578828e-06,-1.6694493e-06,3.440621e-07,4.056821e-07,-1.934334e-06,-2.6270882e-07,-3.2434664e-07,-5.1818284e-07,2.8304464e-07,-9.945336e-08,-7.440824e-07,-4.4320302e-07,-1.3087686e-06,2.0201355e-07,-1.5956803e-07,-1.1322217e-06,5.1447626e-07,-3.1346906e-07,7.599824e-07,-5.3206276e-07,-2.0187429e-06,2.5192372e-07,-3.4551698e-07,5.0812116e-07,2.6188684e-07,-4.022416e-06,-8.8337595e-07,1.1474982e-06,1.4036596e-07,1.340709e-07,2.233413e-06,7.057285e-07,-1.1885437e-06,3.7999317e-07,1.0437611e-07,6.46702e-07,1.2827692e-07,-7.047477e-07,-6.5831335e-07,-2.950452e-07,-1.8883654e-07,-2.2596424e-07,6.4784535e-07,4.5268047e-07,5.833824e-07,-4.6545063e-07,-1.207939e-07,3.9709334e-08,-1.3705913e-06,8.4372414e-07,-6.9771136e-07,-9.845846e-08,-3.6587653e-07,1.0327713e-06,2.6708562e-07,-7.0964586e-07,-1.725338e-06,9.213771e-08,-2.1592095e-06,1.2480065e-07,-9.820491e-07,6.4163214e-07,-3.2038504e-06,-5.7191746e-06,-8.2702667e-07,7.0727725e-07,-1.2040312e-06,7.5074945e-07,3.1814776e-07,-6.6426253e-07,1.0473802e-06,-2.099246e-07,-7.3796366e-07,-3.3792168e-07,-7.2659594e-07,-1.8859871e-06,-1.743696e-07,-1.4090621e-06,-5.232472e-07,-2.1444644e-06,2.208101e-06,-1.8691586e-07,1.7648411e-07,-1.7239736e-06,6.9356975e-07,-5.8555813e-08,2.2941701e-07,1.6831686e-06,-2.361771e-07,-7.6350057e-07,1.0870388e-06,-2.162488e-07,4.941606e-07,4.0756413e-07,-5.305958e-08,-9.653384e-07,-1.4237737e-06,-9.989054e-07,1.8533343e-07,2.8776688e-07,3.4929025e-07
1.190276e-07,-1.802971e-08,8.648609e-06,-1.0029957e-08,-3.539623e-07,-9.169646e-06,-5.6042268e-08,7.5496837e-07,-2.0403547e-08,3.8888777e-07,-8.0230905e-07,2.511107e-08,2.4868316e-06,3.1819198e-08,-6.201576e-07,1.5758114e-06,5.179845e-06,-3.8715936e-07,-5.138905e-07,-7.2402156e-07,-1.0085754e-06,2.7375253e-07,4.3803647e-07,2.073973e-06,-5.686425e-07,-1.675668e-06,-1.5889243e-06,-8.023477e-07,-1.4032526e-06,-2.9494822e-06,-6.602462e-07,-5.652595e-07,-4.303879e-07,-6.0023353e-07,-9.531824e-07,5.816965e-07,1.4769524e-06,-4.3193222e-07,-6.676572e-07,3.4883823e-07,-1.7168753e-06,-2.6385055e-07,4.0774976e-06,-9.739042e-07,-4.4683168e-07,-7.09232e-08,-6.1230463e-07,-2.3636667e-06,-7.8200515e-07,1.0147002e-06,1.808819e-07,2.7226597e-06,1.4338069e-06,4.6628082e-07,-5.7810615e-07,-7.8178874e-07,2.155577e-06,-1.49216e-06,-5.149836e-07,-3.2567021e-07,-1.4525414e-06,-4.6223195e-07,-2.7998253e-06,-7.497168e-07,1.0789959e-06,2.6604852e-07,-7.1294875e-07,-3.681215e-06,4.037493e-07,-1.31015e-06,-9.0975004e-07,6.133542e-07,-1.0819429e-06,1.237452e-07,6.325674e-07,9.285868e-06,-1.2164403e-06,4.59467e-06,4.631041e-08,-1.4623608e-06,-1.1387996e-06,6.6076376e-07,-5.9976865e-06,-3.127217e-06,-2.2333347e-06,-3.7141258e-06,-2.197129e-07,1.7342306e-07,-3.0266455e-07,5.682189e-06,1.1863568e-07,-1.1457842e-06,7.553328e-07,-6.377646e-08,4.434895e-07,1.35429e-06,4.496267e-07,-3.8841716e-07,-2.0931421e-07,-6.652952e-07,-7.6205765e-08,1.4030898e-06,-1.2009392e-06,-8.1843964e-08,1.833676e-06,-3.679151e-07,2.7075153e-06,-1.9334607e-06,5.9718735e-07,5.4990016e-07,-2.91463e-06,-2.2964363e-07,3.3158008e-07,-4.86463e-07,-3.1273441e-07,-2.2247713e-07,6.865367e-07,4.5658544e-06,6.6025365e-08,1.18776455e-07,1.8626024e-07,-5.067901e-07,3.979306e-06,-2.0285875e-06,-2.1820284e-07,8.794682e-08,7.375525e-07,-9.3232944e-07,2.9760589e-08,6.18645e-07,-1.8203577e-06,2.2215998e-08,2.0512315e-08,2.3095522e-06,-8.371515e-09,-1.0613414e-07,-1.03207306e-07,3.6213441e-07,2.673821e-07,5.0588497e-08,-6.9237876e-07,-1.8529097e-06,-6.2596826e-08,1.5273087e-06,-3.4233083e-06,3.9454585e-06,5.628179e-07,3.1578818e-06,-4.966845e-08,1.4309762e-08,-5.6818146e-07,-3.794109e-07,1.2332696e-06,-2.3176488e-06,7.6956803e-07,-1.3535056e-06,-2.2381469e-06,5.661144e-07,-1.5725463e-07,-3.173543e-07,-3.2663334e-07,-2.8392181e-08,1.8933409e-07,-2.9524492e-07,8.936234e-07,-1.0272029e-06,1.18373336e-07,-2.4099057e-07,-2.298318e-07,-6.811746e-07,1.1695178e-06,7.0304864e-08,1.658809e-07,1.5228832e-06,9.937959e-08,2.7051857e-07,-3.9321492e-08,4.061793e-07,1.8955691e-07,1.0203707e-06,-3.7206757e-07,-1.4212085e-07,1.5086414e-07,-2.8315048e-07,-2.9622035e-07,-4.092223e-07,1.0667976e-06,-1.4753172e-07,2.7526875e-07,6.875004e-08,-2.414114e-06,2.5292461e-08,4.3780256e-07,2.7259432e-08,2.6078598e-07,-1.9961278e-06,-3.3844387e-08,-1.4337164e-07,-1.9557763e-07,-9.661933e-07,-4.347188e-07,-2.7181368e-08,5.156624e-07,-1.1059889e-06,1.0996331e-06,5.86901e-07,-1.1013049e-07,-1.4572887e-06,2.74038e-08,3.6456433e-07,-2.2855334e-06,1.1246016e-06,1.276749e-06,-4.428802e-06,-1.1070351e-06,8.6558236e-07,-3.7671114e-07,-1.961115e-06,-1.9182741e-07,7.543363e-08,-5.80578e-07,-7.9106826e-07,9.797235e-08,5.337546e-07,-9.8739974e-08,-4.1940865e-08,2.2216362e-10,1.840958e-08,-1.8288758e-07,-1.0071109e-06,-1.4842749e-06,1.236638e-07,1.4352287e-07,-4.4238485e-07,-5.1042787e-07,-2.8430392e-07,-4.675382e-08,-9.602336e-07,5.390723e-07,8.0972694e-07,4.8990458e-08,-3.4532206e-07,8.507152e-08,-9.166675e-07,9.467342e-07,3.969264e-07,-8.4942634e-08,7.9698424e-08,1.3124475e-07,6.861344e-08,9.906192e-08,-4.0959932e-07,-4.673221e-07,1.1068511e-07,1.3980109e-06,-6.6710754e-07,-2.8477564e-07,-9.669804e-06,-1.0025199e-06,-4.3415366e-07,-7.666172e-07,6.3251246e-06,8.5538005e-07,1.5169335e-06,-1.1020756e-05,2.2174532e-08,1.2236387e-06,-5.682902e-07,-2.2515937e-06,8.128226e-07,-1.5908829e-07,9.739217e-07,6.8796195e-05,4.9596554e-07,-5.759452e-07,-8.17218e-06,-2.41699e-07,-4.6221183e-07,1.0927547e-06,-3.285224e-07,-1.2145497e-06,-5.3640806e-06,-3.076308e-06,-2.9460332e-06,2.1413348e-06,-2.2509198e-06,5.711373e-07,-2.8448054e-07,1.0685338e-06,-4.0741895e-07,-3.59765e-06,1.7117519e-06,6.2917684e-06,-4.6422275e-07,-1.5875446e-07,-4.1137064e-06,3.069122e-06,-2.232725e-06,-1.2360829e-07,2.3501116e-07,5.793184e-07,-2.159436e-07,1.8920125e-06,5.234094e-06,2.6516673e-08,-2.1156402e-06,-1.2067694e-06,-2.7846331e-06,6.0209936e-07,-1.2153487e-06,2.0013547e-07,2.299218e-06,4.0698224e-06,2.634058e-07,1.5606015e-06,-2.7436067e-07,4.6348532e-07,2.6065024e-07,4.0836503e-06,3.7573432e-07,-5.839918e-07,-1.044106e-06,5.9612006e-08,1.0173102e-06,-2.5451499e-08,2.5953068e-06,6.687971e-07,-3.4544005e-06,-3.7546775e-07,1.1402527e-06,2.941382e-07,4.1341536e-06,1.0535208e-06,6.603017e-06,-8.723655e-07,-8.3937107e-07,-6.7661097e-07,4.68165e-06,-1.7161085e-05,-2.0282582e-06,1.3383541e-06,7.169719e-06,8.05539e-07,4.515652e-06,6.775696e-07,-2.1828637e-05,-2.920757e-07,5.7937905e-07,4.560117e-06,-3.180031e-08,7.784238e-07,-6.17486e-07,1.7233117e-07,-2.9581684e-06,2.077534e-07,-7.978516e-07,5.013984e-07,1.30504e-06,1.336588e-06,-6.65966e-07,-5.296032e-06,1.197939e-07,1.072688e-06,3.333313e-06,1.3020586e-06,-2.743367e-06,-9.7286975e-06,-6.1209244e-07,-7.9171116e-08,3.470135e-06,-4.0321866e-06,1.3912158e-06,-1.663924e-07,-5.7469983e-06,1.0428366e-06,4.5422674e-08,-9.0116185e-07,-9.4893454e-07,-2.994064e-07,-1.0213447e-06,6.1474304e-07,-1.7646578e-07,-1.8580729e-06,-3.158695e-06,1.2964898e-07,3.530362e-06,-3.902219e-06,5.577681e-07,2.9960324e-07,6.078356e-08,-2.1763233e-07,6.5110675e-07,-2.4774642e-06,3.7746685e-07,-1.4945413e-06,2.8764183e-07,-6.577425e-07,2.312336e-06,-1.5830345e-06,-1.1823321e-06,-6.382382e-06,4.6565847e-06,3.2036132e-07,-3.853504e-07,8.206507e-07,5.191895e-07,6.535835e-07,-1.6269788e-06,2.7007553e-07,-7.8942054e-07,1.17808895e-07,-6.823935e-07,-2.993676e-06,-8.123793e-07,-1.5097136e-07,2.0167201e-07,-1.0471208e-06,1.3033198e-07,-2.313747e-06,9.955978e-07,-3.702043e-07,-1.2868015e-06,1.5845579e-07,-1.1178404e-06,-1.9154504e-06,3.5624316e-07,-4.8823875e-07,-1.237368e-06,-2.8004243e-07,3.4920695e-06,1.0618598e-06,-3.013325e-06,-1.3421081e-07,-5.2760424e-07,2.1254373e-06,3.2285202e-06,-3.3602787e-06,-8.266077e-07,-1.4447703e-06,-1.7294917e-07,-1.1157065e-06,-1.2912085e-06,5.5054693e-07,-1.6161542e-07,-8.118743e-07,-6.465866e-07,-1.9507124e-06,-7.7071306e-08,-2.9516576e-07,-2.0226787e-07,6.4118007e-07,-3.2152718e-07,-1.8049997e-07,-2.1318572e-06,-5.1024315e-08,-4.886171e-07,-1.3167372e-06,8.9901596e-07,6.3973334e-07,-1.6501644e-09,-8.7897746e-08,3.1262612e-06,2.0384203e-07,-1.7306193e-06,-1.8463923e-06,8.292404e-07,-8.584487e-06,1.2530426e-06,3.631438e-07,-5.6450963e-06,-6.827928e-07,4.4402477e-06,-1.6315214e-07,-3.966655e-06,-4.134612e-06,-1.1581444e-06,1.4054926e-06,-2.1619496e-06,5.428635e-07,5.7641495e-07,8.713015e-07,7.549101e-06,-1.3592621e-07,-6.4844073e-07,1.2408134e-07,-1.4073983e-06,-5.837601e-07,5.1871075e-07,-2.8061143e-07,-3.2877683e-06,-3.8435865e-06,-4.5841557e-07,5.993328e-07,-2.8014898e-07,-2.0020734e-06,8.5947477e-07,-3.4802667e-08,-2.2174409e-06,-2.0295126e-06,-9.1253685e-07,-7.79926e-07,6.084109e-06,5.2552724e-07,-1.5288857e-07,4.3655564e-07,-1.2852408e-06,8.3790457e-07,7.5754366e-07,-4.1354699e-07,2.2933168e-07,1.331681e-06,-8.385197e-07
9.588585e-08,-3.558978e-08,-1.0225137e-06,-7.886838e-07,-2.5620361e-06,-1.7423458e-06,-2.9776152e-07,9.3090057e-07,3.8744582e-07,-4.783216e-07,7.9373905e-08,1.9170244e-07,3.4095805e-08,-8.719394e-08,8.495786e-08,-3.4825887e-06,-3.0269382e-06,2.5179685e-07,-8.6613295e-07,-5.9544203e-07,-5.5685973e-07,-1.2708485e-06,-1.2530886e-06,-5.868162e-07,1.9902607e-06,9.098719e-07,-1.3106982e-06,1.1651741e-07,1.8089574e-06,-1.4289441e-06,9.657083e-08,-1.8941647e-07,-9.351166e-08,2.4553623e-07,6.122892e-07,-2.413501e-07,-7.4627184e-07,4.9038204e-07,-4.2477413e-07,2.7028022e-08,1.06149216e-07,9.854875e-08,-1.4755728e-06,6.5330073e-07,-2.4423497e-07,-2.6817568e-07,-1.7866028e-06,-2.812492e-06,-6.6081355e-07,-3.6960103e-08,-4.8707716e-07,-5.0147077e-07,-1.5396271e-06,1.5855127e-07,1.5336093e-07,-2.6993067e-07,-3.9720953e-07,-2.5097024e-06,-7.2235616e-07,-4.282304e-07,-1.235081e-06,-7.519509e-08,3.241577e-07,-1.9290529e-07,-8.0367585e-07,5.986936e-07,-5.207059e-07,-2.4048911e-06,-4.2029995e-07,-5.2283434e-07,-2.333589e-07,5.622544e-07,3.9765904e-08,-2.2564768e-07,-1.5500256e-06,-5.052049e-06,-9.952622e-07,1.6246973e-06,1.0199638e-07,-2.1301524e-07,-1.1416756e-06,9.648275e-08,1.9054112e-06,-2.1535584e-06,-4.131307e-07,-8.370168e-07,-1.2772821e-07,1.351516e-06,-5.732769e-07,3.8642056e-06,3.270679e-06,5.24581e-07,-1.7722095e-07,-5.304375e-07,1.5811379e-06,2.9516158e-07,9.718339e-07,-3.633843e-07,1.0469466e-07,-1.3898605e-07,-1.924946e-07,-5.5920856e-07,-2.9703264e-07,8.5339354e-07,8.5392907e-07,-8.1120464e-07,-1.5974213e-06,-1.7650812e-06,4.2901945e-07,3.55312e-07,2.5250165e-07,6.227451e-07,-2.281812e-07,-4.844445e-07,6.553914e-07,-1.0089938e-07,2.5338466e-08,-3.8186215e-07,-2.3628226e-07,-2.523668e-07,-1.3356083e-07,-2.8032153e-07,-7.1338405e-08,-4.899314e-07,2.153928e-06,-2.0145043e-07,-8.3331224e-07,-6.7161636e-07,-9.942148e-09,-6.24079e-07,4.124745e-07,3.834256e-08,4.985694e-07,-5.249751e-07,-2.5266766e-07,7.3157594e-08,-6.2330014e-07,-1.481339e-07,2.3413311e-09,-1.8039493e-07,-4.496671e-07,-2.9943726e-06,-3.881315e-08,-1.9551778e-06,3.0164547e-06,3.025333e-07,-1.543954e-07,-1.9865529e-07,3.3353178e-08,3.4058218e-07,7.5223335e-07,-2.8176274e-08,2.1725826e-07,-6.385777e-07,-1.5529409e-07,4.6786027e-07,-3.1194863e-06,-1.2818057e-07,1.3481353e-07,2.2884374e-08,-6.141403e-07,-3.617755e-07,2.7793251e-07,-2.259819e-08,2.1456084e-07,-5.64933e-08,-5.7173548e-08,4.0251578e-08,6.594709e-08,-4.639121e-07,2.6842624e-06,-1.8351233e-07,-1.7807602e-07,-1.2793173e-07,-2.1259667e-07,1.8899317e-06,-1.134601e-08,1.6117323e-07,1.6563905e-07,1.6357944e-08,-1.0683992e-06,1.03374184e-07,-5.9212294e-07,-1.1019772e-07,7.1125544e-07,-2.1277219e-07,-1.1137978e-07,1.313524e-07,-2.0576978e-07,3.1077656e-07,1.1282765e-08,-2.0480343e-07,2.0807488e-07,-1.7115486e-08,1.362796e-07,-6.795347e-07,4.5615266e-08,-2.0185148e-07,-1.9798023e-07,-1.9901336e-08,-4.4958517e-09,4.0900906e-07,1.467329e-06,4.0419263e-07,-2.502031e-07,1.6224153e-06,-1.745654e-08,4.0355377e-07,7.394062e-08,-8.147989e-07,6.029559e-07,9.4403356e-07,5.129768e-07,-4.266468e-07,-2.823851e-07,3.8083792e-07,7.1951405e-08,5.9785493e-06,1.3542452e-06,-7.453127e-08,-9.3283745e-08,9.652206e-08,-3.06248e-07,2.0222807e-07,-1.3832734e-07,3.2447633e-07,3.0461115e-07,-3.3442102e-08,-4.068526e-07,1.6358067e-06,4.113177e-07,2.947636e-07,6.316513e-07,-2.3281092e-07,-3.19013e-07,1.9179954e-07,2.6024383e-09,-3.5318732e-07,1.0032612e-06,1.0724736e-07,-1.062505e-08,2.6980013e-07,-3.324934e-07,-1.3250872e-07,1.8495427e-10,8.362211e-07,-1.6141615e-07,-4.3410644e-08,1.10731044e-07,4.051955e-07,2.300304e-07,3.9394493e-07,6.9809056e-07,-5.502683e-08,4.166306e-07,-3.291255e-07,-1.8065589e-07,-2.6237428e-06,2.7939586e-06,6.008203e-07,1.524361e-06,1.3961009e-06,4.5169352e-07,-1.3107581e-08,6.316153e-06,-1.869031e-07,1.1348146e-06,-1.0860847e-06,8.5204573e-07,1.835468e-07,-8.1761425e-07,5.011728e-06,-1.8882429e-05,7.9061454e-07,2.8250173e-07,5.9318495e-07,1.4720254e-06,1.0018013e-07,-1.988183e-06,-2.943205e-07,3.310132e-06,-3.0569215e-06,-3.4224468e-07,1.9128784e-06,-2.9138278e-06,-3.1113784e-06,4.571641e-07,-1.4226617e-06,5.5197797e-06,-2.6698813e-06,7.3261094e-06,2.469727e-06,3.1419154e-06,1.2131236e-06,-6.937106e-07,7.013141e-07,1.5598868e-06,1.5241271e-06,1.3915443e-05,8.31989e-07,8.257576e-07,-1.4730334e-06,-4.724311e-06,4.92686e-07,1.0009264e-06,6.7173266e-07,2.3594932e-07,6.984873e-06,-3.220207e-07,7.891623e-07,3.3167305e-06,1.1170124e-06,3.0966515e-07,-7.871913e-07,-2.310162e-06,-3.6748752e-06,1.1541761e-06,-1.5022886e-06,2.5643199e-06,-8.5452086e-08,3.7852027e-07,1.9545566e-06,-1.5141201e-06,1.4202776e-06,-1.175299e-06,-1.1690178e-06,1.258345e-06,3.1196855e-06,-4.411081e-07,-1.8974756e-06,-3.5607861e-06,-7.020748e-06,5.9599442e-06,-4.577173e-06,-2.401588e-07,-1.5086928e-06,-5.4809794e-07,-6.5025233e-07,7.2393536e-06,5.783628e-07,1.3320673e-06,-8.702753e-06,3.053545e-06,-8.7924394e-07,-6.062545e-08,1.0665831e-05,5.7894554e-06,-6.830327e-07,7.8198815e-07,-2.4814572e-06,8.038252e-07,-1.1401064e-06,1.9735464e-07,-8.2555755e-07,-5.8037523e-07,-3.060937e-07,-1.8192759e-06,3.3050117e-06,-2.291701e-06,-5.73403e-07,-4.556463e-06,7.6967245e-07,-2.7511194e-07,-2.1281085e-06,1.2018813e-06,-1.9454683e-06,1.2983537e-06,-1.8470598e-06,2.5698782e-08,1.176134e-06,-4.8829606e-06,-5.083964e-07,-1.4666757e-06,5.993199e-06,-2.7765964e-07,-2.407041e-08,9.3228226e-07,-6.8834424e-07,6.6526866e-07,1.6890499e-06,-5.0691942e-06,-1.491685e-07,7.382259e-08,-1.2975121e-07,1.3538855e-07,-1.2655343e-06,-1.8589985e-06,-6.634093e-07,1.5595484e-07,5.5659584e-08,-1.3694606e-07,6.5880005e-07,-1.2026435e-06,-3.7229037e-07,-5.689574e-07,-8.799185e-08,2.064495e-07,-9.4852174e-07,-7.813412e-08,-1.3930103e-06,1.2802703e-06,4.4607816e-07,-6.7600024e-07,2.2381616e-06,-6.187625e-08,1.3354067e-07,1.4857311e-06,6.858339e-07,1.2177253e-06,5.3328756e-07,-8.957255e-08,-1.0501382e-06,-8.2076104e-07,-1.7310384e-06,7.2072424e-08,-3.8700664e-06,-3.0147447e-07,-6.501316e-07,1.1261518e-06,6.409111e-07,-7.170696e-07,1.8644073e-08,-3.5871903e-07,-1.3288543e-07,-6.9351825e-07,-1.0847974e-06,2.6381094e-06,-4.2926266e-07,1.4749293e-07,-2.1138344e-06,-2.8427621e-06,5.497542e-07,-1.1292102e-06,-1.0371857e-06,-5.7064383e-08,2.0838565e-06,1.6102582e-06,4.570059e-07,-1.4924607e-06,-1.7432853e-07,5.0181654e-08,-9.536443e-07,-3.1892657e-07,-1.0979741e-07,-8.91234e-07,-2.5493227e-07,-9.4405067e-07,-1.3677821e-07,3.5715195e-07,2.4445274e-07,-3.1440467e-07,-1.564695e-07,-7.713446e-07,-9.724831e-07,-8.603773e-07,-8.844742e-07,-1.5230465e-07,4.774441e-07,-6.309375e-07,-6.829861e-07,1.669172e-06,-2.5162662e-06,-3.998556e-07,5.3146175e-07,-1.1337846e-06,-1.0252902e-06,-2.5823806e-07,6.570961e-07,9.048137e-07,-5.5029636e-07,-5.5967087e-07,-4.5109505e-07,-1.0229659e-06,-2.7560034e-06,2.1667374e-06,3.9978804e-07,-1.2469378e-07,-1.0304168e-06,-8.029141e-07,6.068332e-08,8.8871127e-07,1.1695791e-06,3.225958e-08,-1.1117528e-06,-2.3935124e-07,-7.415331e-07,-7.548382e-07,5.037412e-07,1.293551e-06,-1.8284431e-06,-1.8748159e-07,-1.7446386e-06,3.2983813e-08,-6.1781105e-07,1.5945229e-06,-6.495459e-07,-2.1646458e-07,-1.2392468e-07,-5.0233587e-07,-7.544011e-08,8.8994045e-07,-3.7136658e-09,-1.2322937e-07,-6.237086e-07,5.1330227e-07,-1.1797231e-06,1.75266e-07,-9.605574e-07,-5.6829e-07,-2.7041054e-07,-1.5585431e-06,-1.5289334e-06
-2.7353562e-07,-1.3404134e-06,-1.3290329e-06,-1.256145e-07,-8.700294e-07,1.4031737e-06,6.272261e-07,2.3748191e-07,1.0351298e-06,4.265098e-07,1.6796227e-07,3.908922e-07,-1.16878894e-07,1.5027257e-07,7.552967e-07,8.107079e-07,1.8780628e-07,5.318099e-07,-6.106397e-08,1.5826992e-06,-6.619439e-07,5.684066e-07,-9.032263e-07,5.783086e-07,2.229466e-06,4.982738e-07,-5.154616e-07,5.744142e-07,1.9779081e-06,-7.8465484e-07,-1.3850094e-07,5.8636556e-07,3.162637e-07,4.1857828e-07,3.6254846e-08,1.13509266e-07,3.5977082e-06,3.097519e-07,-5.2832536e-07,3.318599e-07,-8.4175196e-07,3.4544934e-07,2.7128685e-06,7.9267767e-07,-1.571855e-08,-8.9105185e-07,2.8214436e-06,4.6350424e-06,-5.81212e-07,-5.6785905e-07,1.1273437e-06,1.1025501e-06,1.3073927e-06,-2.5311041e-07,-8.171819e-07,-1.15592e-07,-1.0900974e-06,-3.0424607e-07,-4.255016e-07,-3.9388908e-08,4.2012624e-07,6.423843e-07,-1.3318621e-06,5.7435074e-07,-5.179048e-08,1.6342199e-09,4.7717543e-07,-1.3152188e-06,4.5149028e-07,-8.716495e-08,4.3421716e-07,-1.2961871e-06,2.660769e-07,2.9231887e-07,-5.154698e-07,-4.4513463e-06,-4.7366393e-07,-5.5542864e-07,-4.147862e-08,6.9107364e-07,-5.0001233e-08,3.4577207e-07,4.3495322e-07,-3.4027817e-06,8.4178333e-07,-3.075478e-06,3.9152388e-07,2.118135e-07,-3.816132e-07,-5.6327717e-06,-3.7493976e-07,4.4251178e-07,-2.1718998e-07,2.7502685e-07,3.3005122e-07,-2.938082e-07,6.8743174e-07,-4.3078595e-07,3.1356265e-07,2.3130781e-07,-4.847101e-08,5.132807e-07,-1.235745e-06,-3.1817174e-07,-1.9555986e-07,-8.7023716e-07,1.4278271e-06,7.369948e-07,3.9133872e-07,-8.140462e-08,1.6182499e-06,5.746373e-07,1.6414245e-07,9.805066e-07,1.0086181e-06,1.2997424e-07,-6.581588e-08,1.6093238e-06,1.3072756e-07,-1.9530741e-08,3.703134e-07,-5.8959913e-08,-4.991215e-07,3.65112e-07,1.5895566e-06,2.3245356e-08,3.0769155e-07,6.732357e-07,-5.9654406e-09,-8.1331984e-07,-2.3500888e-08,1.333689e-08,2.743824e-07,-6.1807964e-07,-5.7381232e-08,-2.2999325e-08,-1.7973274e-07,7.4468005e-09,-5.842615e-08,-2.773929e-07,-1.0113483e-07,3.3531537e-06,-3.5852275e-07,-3.0159943e-06,7.8761695e-07,-1.2343413e-06,-7.3937954e-08,-1.5328271e-07,1.3571412e-07,1.4882472e-07,-4.3287042e-07,-1.8715724e-07,2.8977271e-07,-2.5738956e-07,1.141319e-06,1.0965095e-09,-8.040632e-07,8.566991e-07,-3.683773e-07,-8.754103e-08,-2.2246198e-07,-8.1253646e-08,2.6946657e-07,-6.88953e-08,2.945017e-07,3.8734186e-07,-2.4845743e-08,-2.4749227e-07,-3.4892807e-08,-3.716201e-07,-3.753673e-07,-1.9301147e-07,-8.503695e-08,-2.568621e-07,-5.190756e-07,-2.3838384e-06,-2.4458624e-08,2.4523e-07,9.5662884e-08,-4.3495822e-07,-2.039271e-06,-2.1422808e-07,-8.851796e-07,4.251784e-08,-5.430178e-08,3.3542636e-07,-2.5614182e-07,4.0166267e-07,-2.9439224e-07,1.584293e-08,-4.3838978e-07,1.2819767e-07,-1.3755056e-07,-4.563886e-08,-2.1054929e-07,-4.171941e-07,1.0546348e-08,8.132395e-08,8.1758856e-08,3.292639e-07,4.7016147e-08,-8.725312e-09,-2.4255894e-07,-1.2084996e-07,-5.6497598e-08,2.2030554e-06,8.436453e-08,4.345104e-07,2.0183458e-07,-5.7609907e-07,-3.2165264e-07,3.1419668e-06,3.8078815e-07,-2.7268158e-07,4.7483567e-08,-3.4700076e-08,-4.407854e-07,9.178362e-06,-1.9735378e-06,-6.306624e-08,3.6383008e-07,1.8693606e-07,-7.626386e-08,1.14552705e-08,-5.4061637e-08,6.549149e-07,-2.110444e-08,-2.0547475e-10,-5.2964367e-07,-2.60718e-07,-5.3548706e-07,3.0735826e-08,6.784365e-07,-5.1264692e-08,-7.342111e-07,3.6707104e-07,-2.1481652e-08,-3.3554505e-07,8.10283e-07,-2.723969e-07,3.1287996e-08,-9.2172314e-08,2.643942e-07,-3.379899e-07,2.4311447e-08,1.2780797e-06,8.714632e-08,-3.401467e-08,-1.5265387e-07,2.333522e-07,-1.3749884e-07,4.6327796e-07,1.5494055e-07,-6.074697e-08,-2.3221376e-07,-9.5063584e-08,2.2841054e-07,3.3370604e-06,-5.702493e-07,-1.0251303e-07,-8.734494e-07,-4.9410273e-06,9.655189e-07,7.3394375e-08,-3.603861e-06,6.731295e-08,7.178516e-07,-8.168389e-07,6.4813474e-07,-2.7493098e-07,-8.194862e-07,-6.359403e-07,-2.669988e-05,9.843674e-07,6.9233243e-07,1.0582658e-05,3.1230202e-06,8.533017e-07,-3.4575936e-07,-1.1519273e-06,2.2948864e-06,1.562945e-07,3.0643369e-06,-3.0334177e-06,1.7300727e-07,-5.30345e-06,-3.6861388e-07,3.5222612e-07,7.253263e-06,-2.4739536e-06,-9.0909947e-07,-9.5004634e-07,4.2167017e-06,1.8713156e-06,-9.733988e-07,2.499163e-07,3.8728276e-06,3.6191085e-07,-1.7616494e-06,2.1038666e-07,4.963475e-07,-2.8404131e-06,6.728947e-07,9.555925e-06,-4.4887344e-07,6.648748e-07,1.561439e-09,1.2930263e-06,3.2560777e-06,3.265744e-07,1.9744348e-06,9.97545e-08,2.2973552e-07,2.743845e-06,-1.5732755e-06,-5.9826124e-07,-2.1703336e-06,1.0717679e-06,-3.9895255e-08,-6.580524e-07,-2.8376365e-07,-1.4047669e-06,3.7783724e-07,-2.745652e-07,-7.3081196e-07,2.8165691e-06,7.3327476e-07,1.1317306e-06,-2.62237e-07,5.079008e-07,2.5070005e-07,-7.2522557e-06,-2.6987293e-06,-8.90682e-06,-1.8082736e-06,-1.5599821e-06,-9.26809e-08,4.3538985e-06,6.519518e-06,5.5873716e-07,-5.019328e-06,-8.979656e-06,2.7359665e-06,-1.1201276e-06,-8.817872e-08,1.5719372e-05,4.646835e-07,-1.4947763e-06,-1.2000858e-06,-3.150023e-07,-1.3633885e-06,-1.4872129e-06,-2.6244043e-06,9.1883976e-07,-1.03213004e-07,1.2329338e-06,8.4382054e-07,3.342702e-06,8.0791864e-07,5.326378e-07,2.1155668e-07,-3.9953085e-07,-1.3403759e-06,3.3161137e-07,1.9314632e-06,-6.0262328e-06,1.9182467e-06,1.8732845e-06,-8.0104417e-07,-2.0140367e-07,-9.4769484e-07,-2.9742338e-07,-2.533112e-07,5.5499786e-06,-1.2656338e-06,-3.616782e-07,-2.8765203e-07,5.462398e-07,4.6595275e-07,7.3347684e-07,-4.230819e-06,3.6054254e-07,-1.4204376e-06,-2.9793716e-06,-2.7541375e-07,-1.1944135e-06,-9.2690436e-07,-4.367748e-08,6.287765e-07,2.7401134e-07,2.1552668e-07,1.0997998e-07,-6.834291e-07,-2.6400707e-07,-8.4029756e-07,1.941701e-07,-2.1663034e-07,-1.0807112e-06,-8.59757e-07,-6.066854e-07,-1.2233696e-06,-1.3522217e-07,3.1047054e-07,4.7244305e-07,1.655616e-07,7.848953e-07,-1.899004e-07,-1.2451269e-06,-1.8001248e-07,-6.388638e-07,1.9844665e-06,-1.3638498e-07,3.688102e-08,1.0610872e-06,-1.0868542e-06,1.0935355e-06,-2.1611928e-07,7.705439e-07,8.524288e-07,-8.610022e-07,1.32573e-06,1.908018e-07,-3.514066e-07,-7.957601e-07,-1.3270335e-06,-2.5417853e-07,1.8347741e-06,6.167939e-07,-1.3033443e-07,-4.7273215e-07,1.6715713e-06,-1.574565e-07,-3.7622303e-07,-4.7014333e-07,-2.2908063e-07,-9.252294e-07,-2.1480244e-06,-6.3916184e-07,9.391048e-07,-1.003281e-07,-1.92849e-07,-3.363647e-07,-6.803358e-07,9.4492526e-07,-1.9602476e-07,-1.3386195e-06,-1.019588e-06,3.7331253e-07,-9.545842e-07,-7.651874e-08,-1.2344309e-07,-4.4219496e-07,-4.153356e-07,3.1230456e-08,-7.2828004e-07,9.180261e-07,-6.944702e-07,-5.915449e-07,-1.070913e-08,-1.5209212e-06,1.1806677e-06,6.312221e-07,1.1517252e-07,7.364542e-07,2.7736266e-07,-2.6317068e-07,7.934467e-07,7.620759e-07,9.685277e-07,-8.076115e-07,3.4474715e-07,-9.663524e-07,-9.838047e-07,-1.08160904e-07,-2.6607722e-06,-8.685446e-08,1.7808418e-08,-3.7841893e-08,-1.1204065e-08,-4.6718495e-07,1.3397238e-07,-1.0758976e-06,-5.4755947e-08,2.437379e-07,3.868206e-07,3.5984435e-08,6.201776e-08,2.266359e-07,3.1321576e-07,-1.1228566e-06,-1.6336173e-06,-4.5983478e-07,2.1896645e-07,7.906656e-08,2.1996746e-06,-1.0171179e-06,2.2980379e-07,-5.195916e-07,2.2425343e-06,-1.7706381e-07,-1.2528749e-06,1.085545e-07,-6.193156e-08,-2.8046242e-07,1.9805096e-07,3.5927087e-07,-8.7244035e-07,-2.4730076e-07,5.48406e-07,-2.4373115e-08,1.08336735e-08,2.4973826e-07
